251 128
212 -0.064490 -0.240636 -0.100237 -0.246736 0.071832 -0.083892 -0.181859 -0.008661 0.171295 0.007836 0.055127 0.114730 0.008674 -0.007679 0.188261 -0.197242 0.030006 0.133286 0.141401 0.255651 -0.061436 0.018213 0.207834 -0.181477 -0.078855 0.139892 -0.013694 -0.116791 0.150284 0.006814 0.156310 -0.002697 0.017981 -0.181509 -0.233121 -0.085674 0.095368 -0.025003 0.076680 0.304360 0.166589 0.085266 0.241040 -0.005713 -0.077935 0.247618 -0.031685 -0.075810 -0.044878 0.256326 -0.059669 -0.013957 0.082989 0.189250 -0.236220 -0.093345 0.055052 -0.086338 -0.043355 -0.020407 0.183372 -0.204376 0.081000 0.028266 -0.125324 0.175123 -0.193355 -0.206734 -0.001284 0.009899 -0.041416 0.062400 0.126742 -0.240883 0.031970 0.036786 0.070364 0.209435 -0.036985 -0.105971 0.159900 0.030076 -0.038648 0.042985 0.094446 0.005130 0.095296 -0.036695 0.111074 -0.119092 0.268672 0.279495 -0.032761 -0.084680 -0.016550 0.162945 -0.070750 -0.099440 0.036157 0.196668 0.013047 0.069981 0.054938 0.023397 -0.050678 -0.002780 0.031967 -0.038769 -0.093024 -0.284834 0.007376 -0.023876 -0.162711 -0.026482 -0.044918 0.159170 -0.093234 0.185561 -0.016849 -0.001893 0.177000 0.086090 0.093519 0.069014 -0.092262 0.162001 -0.086337 -0.066711
85 -0.064890 -0.255326 -0.085040 -0.137864 0.042287 -0.091767 -0.021163 0.030006 0.072969 0.116938 -0.105681 0.009350 0.216985 0.010574 0.155579 -0.167607 0.117906 0.038622 0.070897 0.357209 -0.049027 -0.044762 0.087344 -0.079651 0.014938 0.056011 -0.137004 -0.095044 0.031050 -0.211490 0.158303 0.009511 0.057367 -0.128420 -0.226949 -0.058620 0.171122 0.052958 0.095995 0.280564 0.060811 0.069502 0.191262 -0.066945 -0.133501 0.100875 0.017128 -0.071778 0.031264 0.074412 -0.040576 0.159471 0.024544 0.230231 -0.186725 -0.098872 0.289181 0.085447 -0.028760 -0.091167 -0.001574 -0.173218 -0.088200 0.062871 -0.071793 0.314726 -0.298176 0.037883 0.185197 0.163861 0.054480 0.082402 0.131558 -0.124468 0.256955 -0.025982 -0.067451 0.300553 0.066215 0.028838 0.198291 0.033118 0.079714 -0.099710 0.225086 -0.005706 0.228896 -0.074527 0.039017 0.067128 0.172408 0.174888 -0.037941 -0.041520 -0.175213 0.186589 0.054393 -0.067475 0.144701 0.147342 -0.109592 -0.117903 -0.076938 0.064816 0.036631 0.135187 0.096091 -0.013828 0.010927 -0.108825 0.103693 0.082790 -0.106399 0.066133 0.055232 0.197875 -0.041107 0.055626 0.009123 -0.213798 0.234207 0.009198 -0.044114 -0.036620 -0.153529 0.177681 0.093490 -0.151511
65 -0.148386 -0.038156 -0.130068 -0.229017 0.099105 -0.075897 0.219642 0.053378 0.081147 -0.059249 0.046060 0.106116 0.119143 0.103137 0.122808 -0.113949 0.085999 -0.072365 0.077291 0.205807 -0.091586 -0.003891 -0.050089 0.081250 0.089539 0.214803 -0.126164 -0.054293 -0.199835 -0.228810 0.016159 0.041449 0.019815 -0.222370 -0.107810 0.000193 -0.037588 -0.059315 0.025740 0.166977 0.200131 0.152510 0.202229 -0.234881 -0.077523 0.033013 0.118348 -0.015240 0.114501 0.099463 -0.088417 0.086019 0.025267 0.270055 -0.195683 -0.311924 0.089219 -0.198387 0.172309 -0.231372 -0.107354 -0.219370 0.009878 0.185965 -0.038476 0.180009 -0.091852 -0.195389 0.042319 -0.077071 0.102765 -0.065749 0.060162 -0.011378 0.010478 -0.000304 0.202052 0.052166 -0.119476 -0.215051 0.168478 0.091929 -0.044291 -0.058233 0.260621 -0.029421 0.164251 -0.143808 0.231467 0.086535 0.236443 0.017240 0.019622 0.228897 0.067614 0.083838 0.049347 -0.050941 0.130739 0.010226 0.035517 0.010072 0.010007 0.039377 -0.122624 0.059692 0.094891 0.024013 -0.075409 -0.019561 -0.049109 0.218077 -0.024077 0.031680 -0.044521 0.089543 -0.054095 0.139198 -0.001986 0.047732 0.147072 0.102006 -0.072668 0.050111 -0.133894 0.185909 0.028006 -0.123500
160 -0.050260 -0.099222 -0.086212 -0.272886 0.220594 -0.041237 0.132482 -0.107950 0.104129 -0.115008 0.049334 0.031401 0.027768 0.078018 0.048663 -0.168258 0.164921 -0.069441 0.131476 0.208398 -0.115519 0.031189 -0.094766 0.032352 -0.072498 0.280014 0.072485 -0.078626 -0.109223 -0.149178 -0.030578 0.048855 -0.050605 -0.221779 -0.040765 0.070084 -0.182718 -0.120155 0.022340 0.081488 0.283128 0.211926 0.142962 -0.233231 -0.013645 -0.078520 0.064444 0.006198 0.096048 0.126395 -0.054553 0.036762 -0.011624 0.133178 -0.236156 -0.310161 -0.014279 -0.216411 0.149916 -0.225010 -0.172562 -0.239948 -0.028134 0.103458 -0.037775 0.008557 -0.081019 -0.238787 -0.100036 -0.156111 -0.056749 -0.131983 0.172634 -0.128919 -0.050427 0.077166 0.200991 0.001922 -0.244832 -0.248741 0.211587 0.137248 -0.016025 -0.037708 0.203387 0.036024 0.064791 -0.071674 0.168260 0.071868 0.191910 -0.077590 -0.021535 0.346146 0.177508 0.133143 0.056330 -0.051188 0.025414 0.117280 0.230256 -0.051238 0.061924 -0.141299 -0.089247 0.090498 0.115406 0.134492 -0.001085 -0.069865 0.019135 0.192178 -0.052238 -0.139439 -0.063865 0.134097 -0.278042 0.130218 0.021148 0.118919 -0.060575 0.061100 0.015729 0.116484 -0.014794 0.202930 -0.142052 -0.002079
66 -0.006985 -0.022313 -0.012458 -0.249663 0.044595 -0.172830 -0.067171 0.085390 0.180811 0.085699 0.047638 0.052753 0.007302 -0.015234 0.241314 -0.073913 0.017075 0.069289 0.055598 0.267537 -0.107733 0.044547 0.235103 -0.121495 -0.079319 0.059970 -0.027301 -0.112384 0.083980 -0.015729 0.164784 -0.088776 0.036156 -0.114230 -0.316743 -0.052514 0.076095 -0.057452 0.096726 0.117100 0.168185 0.125222 0.212018 -0.022398 -0.022506 0.039403 0.054682 -0.079788 0.084775 0.209987 -0.098158 0.088764 0.105913 0.300667 -0.057327 -0.139017 0.212594 -0.020038 0.011024 0.010324 0.191489 -0.252408 0.234975 -0.111765 -0.107703 0.281835 -0.235646 -0.011655 -0.063921 0.101049 0.072613 -0.040891 0.153962 -0.164894 0.110206 -0.043870 0.106041 0.146155 0.036258 -0.151746 0.133608 0.024877 0.026297 0.035230 0.163815 -0.009360 0.002472 -0.060111 0.264336 -0.210967 0.093105 0.169460 -0.106830 0.098910 -0.067238 0.026757 -0.036134 -0.127141 -0.025528 0.235356 -0.066510 0.118636 0.101527 -0.057011 -0.131651 0.123264 0.034612 0.062377 -0.072885 -0.246440 -0.088600 -0.027927 -0.136107 0.066219 -0.065228 0.105011 0.023657 0.186861 0.112080 -0.027530 0.082936 0.133539 0.111964 -0.005239 -0.084613 0.134115 0.026589 -0.032086
110 -0.128952 -0.005690 -0.017031 -0.279210 0.217663 -0.029559 0.157013 -0.067935 0.251954 0.032365 0.089703 0.020418 -0.084079 0.098914 0.063218 -0.068096 0.037574 -0.086521 0.111591 0.248603 -0.044248 0.041561 -0.024723 -0.038784 -0.056681 0.209195 0.045367 -0.008856 -0.150995 -0.152131 0.101700 0.005205 -0.030798 -0.187587 -0.046948 0.249484 -0.139045 -0.140831 0.021660 0.066792 0.344084 0.330143 0.047715 -0.292858 -0.037365 -0.213125 0.184834 -0.098835 0.161790 0.090433 -0.092333 0.080900 0.037101 0.269887 -0.164243 -0.183641 0.041540 -0.125075 0.147379 -0.274793 -0.128983 -0.192149 0.004996 0.158937 -0.139447 0.035607 -0.085181 -0.136772 -0.135832 -0.065353 0.069813 -0.236516 0.131431 -0.093815 0.044345 -0.007293 0.287167 0.021479 -0.145914 -0.315808 0.174016 0.144561 0.040501 -0.139188 0.282256 0.067436 0.010859 0.006618 0.321555 0.097643 0.101267 -0.021714 -0.009802 0.463481 0.269981 0.038291 -0.069719 0.057346 0.026205 0.151425 0.157631 -0.048399 -0.040536 -0.182590 -0.080681 0.125405 0.082468 0.158910 -0.029044 -0.166372 -0.016657 0.167695 -0.087334 -0.077903 -0.074767 -0.058529 -0.202455 0.214196 0.053510 0.196521 0.010195 -0.040221 0.064119 0.076154 -0.022087 0.306148 -0.127730 0.015328
149 -0.058374 -0.282781 -0.154031 -0.289937 0.115812 -0.077846 -0.182132 -0.005723 0.144037 -0.023652 0.069606 -0.011997 -0.056898 0.075334 0.203894 -0.107264 0.046965 0.073520 0.200120 0.312877 -0.034535 -0.085414 0.095797 -0.213467 -0.082579 0.129671 -0.024222 -0.094834 0.117938 0.006637 0.121331 0.005668 -0.005812 -0.232976 -0.161392 -0.032825 0.054200 -0.002310 -0.038280 0.264636 0.262769 0.168986 0.226484 -0.057916 -0.045948 0.228330 -0.074178 0.029794 -0.010489 0.127194 -0.039742 0.052253 0.092631 0.187925 -0.286865 -0.093101 0.084667 -0.072079 -0.018977 -0.200211 0.158423 -0.249835 0.035199 0.030449 -0.140757 0.177376 -0.133747 -0.196118 0.080197 0.028634 -0.105748 0.067831 0.057232 -0.180176 0.024258 0.015234 0.068633 0.184638 -0.150753 -0.172383 0.318214 -0.012765 -0.049642 0.050746 0.131190 -0.005824 0.054996 -0.052618 0.139254 -0.044213 0.295708 0.228572 -0.036896 -0.014622 0.103855 0.157379 -0.046300 -0.121092 0.022122 0.126825 0.071657 0.034032 0.022080 -0.006686 -0.073739 -0.072561 0.010825 0.002775 -0.045001 -0.355928 0.052309 -0.076454 -0.254134 -0.074892 0.005485 0.204842 -0.188689 0.178657 -0.069638 0.008740 0.172304 0.082009 0.146171 0.159691 -0.068193 0.165585 -0.176872 -0.026373
28 -0.043308 -0.192540 0.012969 -0.152037 0.043240 0.025419 -0.065237 -0.030880 0.095935 0.031063 0.097111 0.112342 0.070885 0.007370 0.162710 -0.169922 0.021509 0.025321 0.048616 0.327099 -0.165064 -0.015204 0.181249 -0.176619 0.122579 0.039895 -0.040807 -0.072121 0.133335 -0.041294 0.078686 -0.070080 0.123477 -0.173764 -0.216864 -0.098235 0.123118 -0.061772 0.065002 0.053469 0.095971 -0.024761 0.279307 -0.021138 -0.031645 0.255753 -0.073687 -0.068413 0.138026 0.114672 -0.112394 0.081925 0.029379 0.256278 -0.166633 -0.134272 0.108027 -0.073404 0.050165 -0.136023 0.197866 -0.294040 0.143866 -0.006829 -0.057926 0.236746 -0.277752 -0.132761 0.003988 -0.048538 -0.145764 -0.020218 0.005410 -0.138266 0.101946 0.055078 0.012691 0.292982 -0.075799 -0.178359 0.187934 0.042587 -0.078518 0.005328 0.142795 -0.034070 0.162563 -0.114683 0.248452 -0.093925 0.306519 0.146569 0.082087 0.013694 -0.111026 0.165220 0.033938 -0.076213 0.089156 0.186723 -0.037379 0.068196 0.014793 -0.095809 -0.118515 0.103501 0.068401 0.064000 -0.079955 -0.152344 -0.069723 0.007921 -0.182196 -0.045066 -0.064621 0.213480 -0.071821 0.104013 0.023176 -0.077322 0.111099 0.090312 0.015998 -0.042415 -0.106849 0.149419 -0.028851 -0.078148
22 0.015204 -0.155127 -0.126985 -0.230865 -0.038051 -0.085252 0.062499 0.222267 -0.095898 0.060716 -0.121644 0.020594 0.201346 -0.055709 0.105683 -0.079297 0.210833 0.065284 0.263424 0.460469 0.025657 -0.169906 0.116303 0.029883 -0.051044 0.065210 -0.147054 -0.253503 -0.149437 -0.273710 0.194360 0.173579 -0.028095 -0.200462 -0.481050 -0.085088 0.153861 0.120952 0.032767 0.023005 0.123259 0.119108 0.150469 -0.057819 0.008520 0.043784 0.016218 0.202890 -0.015268 -0.042169 -0.107021 0.122516 0.043219 0.299796 -0.157074 -0.247447 0.216220 0.127294 -0.031722 -0.006548 0.094027 -0.230836 0.040067 0.146458 -0.080708 0.360329 -0.193703 0.055725 0.247997 0.144051 0.075195 0.050017 0.144611 -0.055670 0.195297 -0.073285 -0.008043 0.144916 0.030930 -0.062309 0.276237 -0.197180 0.192073 -0.152959 0.143200 0.035918 0.189925 -0.071527 0.097310 0.000482 0.348154 0.203664 -0.068555 0.006917 -0.051291 0.056044 0.144917 -0.267909 0.092975 0.161439 -0.153713 -0.148637 0.099373 0.173166 -0.098647 0.165885 -0.102596 -0.054089 -0.139804 -0.149128 -0.014185 0.122565 0.055693 0.105801 0.138770 0.154178 -0.073770 0.014926 -0.132772 -0.117899 0.187177 0.041202 0.009699 0.025225 -0.148078 0.115832 0.125777 -0.185973
252 0.159726 -0.227880 -0.029485 -0.189840 0.095361 -0.140449 -0.019394 0.066504 -0.131304 -0.103458 0.015925 -0.012111 0.190569 -0.133728 0.207274 -0.269764 0.155940 0.032209 0.068072 0.233504 -0.257070 0.147838 0.197389 -0.068066 -0.037081 0.127071 -0.058128 -0.072299 -0.058290 -0.231318 -0.016850 -0.023966 -0.019339 -0.326661 -0.206259 -0.151666 0.086918 0.040634 0.110094 0.131426 0.095281 0.048451 0.277443 -0.029910 -0.054424 0.106080 0.012824 0.115774 -0.120738 0.099369 -0.010309 0.046401 -0.148197 -0.034007 -0.174235 -0.378978 0.083830 -0.117412 -0.069591 -0.007615 -0.062313 -0.291134 0.248786 -0.139760 -0.097127 0.014808 -0.330933 -0.041075 -0.083018 0.061144 -0.243593 -0.166724 0.083998 -0.270448 -0.023791 0.090512 0.150736 0.272786 -0.154632 -0.169405 0.228726 0.067401 0.131257 -0.012905 0.070308 0.149577 0.256174 -0.166273 0.007210 -0.236587 0.145922 -0.106116 -0.069977 0.170502 0.043015 0.269885 0.214734 -0.166360 0.141365 0.176139 0.259921 -0.069620 0.269331 -0.048481 -0.260142 0.008621 0.199752 -0.032111 -0.055670 0.050125 -0.065056 0.164654 -0.231736 -0.234912 -0.198985 0.229533 -0.445405 -0.042643 0.148204 -0.030421 -0.022468 0.088615 -0.124575 -0.079179 0.027048 0.001226 -0.058446 -0.064974
88 -0.035716 -0.245979 -0.079433 -0.197067 0.035919 -0.129359 -0.134504 -0.016418 0.114400 0.033211 -0.038370 -0.088087 0.088120 -0.092467 0.175508 -0.251055 0.075709 0.061665 0.090673 0.284884 -0.154964 0.024045 0.155494 -0.036642 0.090662 0.014896 -0.162966 -0.066824 0.087526 -0.148026 0.117720 -0.094393 0.114303 -0.229915 -0.206997 -0.095560 0.092362 0.034036 0.129787 0.382339 0.090099 0.074293 0.187333 -0.019207 -0.085770 0.205996 -0.038814 -0.202999 -0.001665 0.145417 -0.088258 0.106272 0.026752 0.275879 -0.204824 -0.090131 0.159986 -0.004650 -0.030974 -0.119890 0.086137 -0.231436 0.141195 0.013715 -0.108123 0.233310 -0.281701 0.000468 0.127026 0.123689 -0.052887 0.053675 -0.000542 -0.135228 0.187941 0.070308 -0.001045 0.405464 0.040255 -0.097617 0.186208 0.126705 0.069957 -0.023397 0.199567 0.013850 0.133642 -0.084322 -0.114621 -0.042372 0.185762 0.202580 -0.003152 -0.098465 -0.156347 0.257398 0.087512 -0.041685 0.173768 0.121961 -0.069201 0.009499 -0.075141 0.072791 -0.066783 0.037900 0.020826 -0.056101 0.039320 -0.134582 0.096868 0.074608 -0.189859 0.002135 -0.012169 0.135122 -0.076111 0.107622 0.103990 -0.149690 0.300828 0.124739 -0.064572 -0.019649 -0.158403 0.208375 0.049569 -0.085582
159 -0.017390 -0.168667 0.039739 0.007000 -0.058592 -0.078674 0.020124 0.012143 0.175523 0.175674 -0.217859 -0.086403 -0.012080 -0.093954 -0.188426 -0.203212 0.142453 0.028934 0.271400 0.314488 -0.036504 0.046352 0.099896 0.123156 0.021808 0.039646 -0.028951 -0.263311 -0.179208 -0.107032 0.224066 0.078024 0.094774 -0.121409 -0.239570 0.102731 0.065771 -0.076335 0.054169 -0.042729 0.032178 0.287236 0.081888 -0.067922 -0.205127 -0.153420 -0.005311 -0.304029 0.127792 -0.032435 -0.195123 0.187426 0.111688 0.295274 -0.144948 -0.235399 0.062946 0.227238 -0.094304 -0.119696 -0.049151 -0.196597 -0.030469 0.180796 -0.146604 0.042287 -0.220873 0.118587 0.079615 0.025539 -0.034371 -0.045810 0.173487 -0.099535 0.108886 0.023861 0.003568 0.207072 0.022794 -0.096247 0.068356 0.078216 0.162526 -0.249917 0.207624 0.174199 0.117174 0.069357 -0.047976 0.230676 0.306983 0.073572 0.104093 0.292153 -0.063396 0.005169 0.172466 -0.048993 0.083026 0.215558 -0.136541 -0.183811 -0.175090 -0.092668 -0.052820 0.373878 -0.143520 -0.023006 0.020620 -0.125138 0.012002 0.228598 0.054506 -0.161319 0.070189 0.003316 -0.113186 0.182355 -0.010804 0.054347 0.141071 -0.038164 -0.024074 -0.124060 -0.225601 0.326238 0.022944 0.114596
195 -0.066308 0.064912 -0.064369 -0.158733 0.053428 -0.146286 0.034200 -0.057213 0.148748 -0.001928 0.068482 -0.087319 0.066540 0.018275 0.115203 -0.126729 -0.011502 -0.015441 0.154050 0.151489 -0.219930 0.123272 -0.025935 0.223505 -0.096433 0.310608 -0.064645 -0.182372 -0.179857 -0.094678 0.090020 -0.066911 -0.040607 -0.200873 -0.257590 -0.039184 -0.156809 -0.053967 0.003300 0.079025 0.301704 0.170896 0.123089 -0.147403 -0.035109 -0.077086 -0.038942 -0.090490 0.082890 0.184615 -0.074325 0.062341 -0.010476 0.089682 -0.180192 -0.378180 -0.015877 -0.158860 0.056142 -0.221605 -0.010886 -0.344061 0.086853 0.090312 -0.113543 0.144107 -0.174773 -0.284752 -0.108510 -0.059482 -0.000873 -0.083288 0.138537 -0.034350 -0.119754 0.049883 0.259345 -0.030518 -0.200856 -0.116064 0.106648 0.216055 0.052996 0.031341 0.231226 -0.046332 0.020366 -0.029032 0.124143 0.083029 0.255365 -0.031520 0.032438 0.313341 0.073504 0.147819 -0.012674 -0.125818 0.087719 0.039159 0.091165 0.012912 0.101789 -0.055649 -0.166458 0.045062 0.017863 0.026016 -0.013019 -0.120573 -0.088925 0.236927 -0.142940 -0.057206 0.004228 -0.034834 -0.208246 0.279317 0.033997 0.055986 0.015549 0.219735 -0.068474 0.040657 -0.038885 0.270035 -0.129035 -0.016769
69 0.032409 -0.173922 -0.027239 -0.276862 0.209409 -0.114390 -0.174083 -0.096075 0.226740 0.048682 0.039226 -0.013413 0.044109 0.021601 0.206870 -0.048235 -0.179272 0.096735 0.086301 0.146259 -0.098799 -0.046842 0.051184 -0.178619 -0.248853 0.110895 -0.059189 -0.028312 0.170619 -0.082768 0.099801 -0.064909 -0.051707 -0.171344 -0.145259 0.014975 -0.113457 0.080481 -0.099167 0.163179 0.259592 0.342389 0.191069 -0.135860 -0.086486 0.158987 -0.045469 0.036030 -0.015632 0.074796 -0.105346 0.018379 0.165939 0.152203 -0.225985 -0.035428 0.032248 -0.044588 0.020142 -0.084954 0.141143 -0.223439 -0.036123 -0.088976 -0.215961 0.209701 -0.160430 -0.197437 0.019579 0.028846 0.060090 -0.026272 0.207418 -0.114697 0.039824 -0.090256 0.231787 -0.083214 -0.185431 -0.144442 0.299084 0.155082 0.061638 0.143328 0.017666 0.021416 0.033908 -0.025934 0.157106 -0.114748 0.240230 0.074874 -0.052620 0.063291 0.087945 0.167087 -0.304302 -0.229523 -0.071107 0.020900 0.124551 -0.042611 -0.105572 -0.148427 0.063295 0.026184 0.126479 0.059470 0.095199 -0.479947 0.085581 0.028465 -0.192988 -0.008059 0.117499 0.060665 -0.255035 0.217026 0.030001 0.131389 -0.015096 0.032845 0.073859 0.257512 0.028804 0.112164 -0.240370 -0.116932
112 -0.049218 -0.222790 -0.056711 -0.082418 0.011760 -0.250084 -0.023426 0.112538 0.144351 0.051870 -0.198147 -0.076367 0.119466 -0.142728 0.079674 -0.178041 0.130271 0.018921 -0.002611 0.081918 -0.007950 0.143531 0.097972 0.144173 0.015338 0.073321 -0.026223 -0.107827 -0.139597 -0.189367 0.177345 -0.112626 0.052933 -0.208721 -0.124201 -0.132504 0.116775 -0.043626 0.080115 0.272561 0.042889 0.322864 0.203965 -0.012367 -0.263948 -0.107597 0.062985 -0.101906 0.050339 0.132972 -0.039783 0.221568 0.227837 0.216898 -0.133410 -0.185508 0.162738 0.100857 -0.105815 -0.051296 -0.113703 -0.225190 -0.051666 -0.051741 -0.111524 0.022801 -0.257613 -0.006077 0.103033 0.194556 0.076797 0.054401 0.112028 -0.053492 0.154137 0.050246 0.080738 0.137654 0.058872 -0.089033 0.012344 0.116616 0.046216 -0.108469 0.242992 0.099329 0.226358 -0.050123 0.000417 0.165396 0.097298 -0.041171 -0.067877 0.049568 -0.162554 0.035509 0.162036 -0.093573 0.102639 0.138713 -0.030786 -0.086767 -0.092119 0.040406 -0.063538 0.177165 0.100467 -0.134665 0.100597 -0.190844 0.037505 0.186337 -0.055831 -0.075650 0.056073 0.086668 -0.156133 0.096264 -0.012582 -0.135156 0.181092 0.003428 -0.049765 -0.101646 -0.166015 0.110017 0.043115 0.082984
153 -0.044921 0.110922 -0.064286 -0.248546 0.132905 -0.173177 0.026986 -0.086007 0.117074 -0.166441 0.004619 -0.030876 0.079949 0.048505 0.248555 -0.103424 0.068466 -0.029072 -0.010017 0.080984 -0.157530 0.028941 -0.086558 0.157438 -0.004535 0.175995 -0.059626 -0.075689 -0.089433 -0.176570 0.023956 -0.116927 -0.034397 -0.103934 -0.143638 0.064518 -0.193061 -0.098705 -0.019229 0.090188 0.339645 0.227154 0.021109 -0.246529 0.043480 -0.159030 0.056456 0.105249 0.135698 0.058575 -0.094336 -0.002679 0.083639 0.286017 -0.125102 -0.251433 0.037856 -0.086081 0.193613 -0.218840 -0.050828 -0.354272 0.135810 -0.014847 -0.082668 0.262717 -0.130155 -0.270402 -0.114564 -0.011073 0.048984 -0.078170 0.157963 0.061780 0.077814 0.077995 0.242847 -0.145663 -0.168271 -0.175416 0.185337 0.163360 0.012881 0.061275 0.282076 -0.004751 0.074195 -0.054084 0.162490 -0.140153 0.100509 -0.089344 -0.152800 0.212676 0.054403 0.126880 0.001387 -0.216977 0.061466 0.026473 0.069965 -0.041784 0.135481 -0.092167 -0.128511 0.053332 0.158264 0.139686 0.018284 -0.149083 -0.081046 0.224245 -0.062014 0.100711 0.021619 -0.019232 -0.150760 0.121356 0.020035 -0.026906 -0.011424 0.155635 -0.026228 0.165836 -0.017704 0.234665 -0.045134 -0.118876
218 0.003203 -0.153888 -0.037404 -0.047042 0.126277 -0.059213 0.014520 0.144608 0.073052 0.015803 -0.063173 -0.035532 0.124072 -0.209930 0.071281 -0.155330 0.026997 0.020751 0.149051 0.171150 -0.091733 0.145544 -0.022273 0.166803 -0.187646 0.239444 0.089779 -0.140829 0.011592 -0.438076 -0.013270 0.102124 0.015990 -0.303806 -0.038564 -0.166639 -0.093314 0.015897 0.102625 0.046662 0.154578 0.264071 0.210750 -0.046646 0.017694 0.052750 -0.102464 -0.072311 -0.034168 0.170475 0.025752 0.110494 0.171692 0.155604 -0.110940 -0.337616 0.008801 0.126371 0.057100 -0.021122 -0.024586 -0.087641 -0.137215 -0.122287 -0.194916 0.056829 -0.049831 -0.177530 0.134770 -0.068512 -0.099502 -0.035957 0.083937 -0.149045 0.121828 -0.000098 0.169405 0.159335 -0.154875 -0.286193 0.162018 0.205798 0.154836 -0.049641 0.064101 0.238878 0.081697 -0.074040 0.014985 0.203380 0.347082 0.014236 0.036525 0.221975 0.046418 0.034623 0.001813 -0.102763 -0.029335 0.161119 0.171341 0.025223 0.077154 -0.097423 -0.180459 0.259166 0.051728 -0.052890 -0.063170 -0.190174 0.004622 0.023564 -0.102429 -0.077414 0.045607 0.160031 -0.330316 0.224097 0.182082 0.095833 -0.122633 0.136742 -0.157243 0.014837 -0.136845 0.103925 -0.024004 0.206018
155 -0.096640 -0.017664 -0.031558 -0.225315 0.077934 -0.069430 -0.048270 -0.121233 0.165781 0.102464 0.164851 -0.101712 0.096288 -0.037293 0.271071 -0.051900 -0.062192 -0.032489 0.044625 0.299060 -0.245712 -0.075116 0.030813 -0.045076 -0.058138 0.122993 -0.048910 -0.051530 0.136455 -0.064336 0.094622 -0.142958 0.037608 -0.185693 -0.287694 -0.093472 -0.056871 0.024171 0.042049 0.083975 0.243214 0.108330 0.211196 -0.082213 0.057499 0.162200 -0.137110 -0.070125 0.176156 0.145929 -0.086519 0.106579 0.003155 0.233100 -0.140892 -0.154557 0.150096 -0.074153 0.133358 -0.217582 0.209279 -0.360625 0.105701 -0.097689 -0.045668 0.354595 -0.234700 -0.118333 -0.019897 0.063278 -0.066649 -0.010729 0.077956 0.015663 0.046976 0.065205 0.113538 0.192813 -0.049219 -0.161219 0.224526 0.138576 -0.012517 0.139201 0.197199 -0.068812 -0.053576 -0.121179 0.228095 -0.076690 0.164351 0.116400 -0.011547 0.018223 -0.079020 0.170374 -0.069836 -0.110201 0.026730 0.080313 -0.014035 0.083223 -0.026011 -0.134167 -0.065698 -0.009156 0.096069 0.084500 0.074544 -0.295442 0.038718 -0.011020 -0.275868 0.054798 0.086211 0.176738 -0.105692 0.247961 0.094363 -0.124478 0.045704 0.188705 0.054433 0.135084 -0.038867 0.194390 -0.109285 -0.050932
126 -0.021693 -0.056546 -0.123757 -0.337391 0.068718 -0.169362 -0.044305 0.046083 0.152967 -0.032810 0.026754 0.149980 0.056745 0.031941 0.147504 -0.155492 0.115092 0.114249 0.062874 0.159056 0.033577 -0.025551 0.067314 -0.101931 0.097270 0.080975 -0.044589 -0.072569 0.050955 -0.088865 0.166894 -0.068335 0.098880 -0.062910 -0.232983 0.097091 0.020944 -0.116376 0.212611 0.237678 0.116017 0.074576 -0.004306 -0.098696 -0.088898 -0.164958 0.200300 0.066951 0.187136 0.122625 0.053502 0.028269 0.228951 0.488465 -0.033542 -0.029075 0.199253 -0.013123 -0.071406 -0.133380 -0.057591 -0.118557 0.066418 0.043967 -0.083065 0.207432 -0.184226 -0.103073 0.089347 0.160395 0.079183 -0.002503 0.263402 -0.119489 0.361083 -0.080733 0.038987 0.054590 0.041789 -0.090371 0.062668 -0.025928 -0.015231 -0.121664 0.321501 -0.038688 0.219221 0.056245 0.153498 -0.180182 0.116881 0.144980 -0.169560 0.118419 -0.045684 0.022859 0.041961 -0.087150 0.235952 0.128461 -0.088511 -0.069086 -0.053338 0.061317 0.050121 0.064518 0.170709 0.152501 -0.084592 -0.115297 -0.058180 0.069650 -0.011422 0.246259 -0.097940 0.003393 0.051316 -0.001446 -0.039762 -0.031637 0.239672 -0.077831 0.098013 -0.158698 -0.113516 0.210600 0.046212 -0.081655
4 -0.106659 -0.066259 -0.052214 -0.143597 0.091277 -0.049133 -0.156420 -0.141300 0.096611 -0.077593 0.210051 0.100171 0.176284 -0.004878 0.332786 -0.187888 0.038723 0.050635 0.015311 0.322034 -0.112142 -0.097262 -0.038663 -0.182780 0.089823 0.107784 -0.022027 -0.026161 0.179724 -0.125957 0.158330 -0.039616 0.085492 0.028986 -0.203172 0.060141 0.103844 -0.012208 0.096150 0.148584 0.192131 -0.002763 0.158652 -0.089741 0.062982 0.110701 -0.042073 -0.042810 0.142144 0.084211 -0.032102 -0.024096 0.104622 0.312910 -0.108945 -0.015132 0.050164 0.000751 0.194136 -0.168523 0.196532 -0.303557 0.091573 -0.037522 0.035122 0.283499 -0.194998 -0.182087 -0.109126 -0.034656 -0.144479 0.003763 0.068540 -0.097134 0.125535 0.057729 0.102147 0.122057 -0.013539 -0.173331 0.242367 0.029064 -0.030214 -0.001268 0.169326 0.070937 0.132306 -0.048584 0.310430 -0.187572 0.156417 0.290838 -0.048635 -0.085806 -0.046467 0.120540 -0.116982 -0.147016 0.041905 0.124843 -0.007020 -0.018583 0.102108 -0.087813 -0.134703 -0.000566 0.123098 0.147598 -0.103819 -0.214844 0.044767 0.044206 -0.081568 0.145950 -0.003229 0.230188 -0.055657 0.140591 -0.067369 -0.156332 0.094983 -0.011415 0.081254 0.165307 -0.062835 0.264240 -0.062930 -0.126678
26 0.055773 -0.202929 -0.117734 -0.188524 0.042784 -0.101254 -0.008681 0.027521 -0.141167 0.061398 -0.046028 -0.132118 0.183935 0.041727 0.062690 -0.135811 0.198838 0.056357 0.285924 0.417926 -0.063653 -0.100003 -0.024119 -0.060664 -0.061199 0.119242 -0.146396 -0.133597 -0.034094 -0.212432 0.034480 0.109811 0.017889 -0.154705 -0.323032 -0.053317 0.069204 0.077903 0.059986 0.110669 0.138678 0.042655 0.149349 -0.079297 -0.054403 0.053646 -0.092438 0.080879 -0.015081 -0.083279 0.063865 0.156368 -0.073080 0.146207 -0.194344 -0.261741 0.258062 0.092238 -0.119254 -0.170415 0.018520 -0.249866 0.011260 0.079737 -0.101811 0.266874 -0.232316 0.064538 0.256959 0.125499 -0.154335 0.026510 0.150772 -0.187641 0.177575 -0.040504 -0.055646 0.321693 -0.111561 -0.074356 0.375242 -0.064745 0.199059 -0.110876 0.234618 0.007999 0.174872 -0.045398 -0.043490 0.019773 0.335294 0.147728 -0.019547 0.140700 -0.025621 0.212380 0.126770 -0.144505 0.178237 0.140629 -0.009194 -0.204675 0.053057 0.107524 -0.078383 0.124164 0.023286 0.040525 -0.012170 -0.031234 0.084385 0.052757 -0.148581 -0.001123 0.033666 0.276447 -0.243721 0.032778 -0.009146 -0.091277 0.171144 0.044955 -0.067380 -0.023488 -0.095492 0.163728 -0.029906 -0.063784
68 -0.130576 0.017879 -0.076920 -0.213182 0.163198 -0.057116 0.113642 -0.097622 0.180605 -0.042235 0.108240 -0.076527 0.011718 0.037870 0.188725 -0.052502 0.002326 -0.067645 0.087550 0.196742 -0.187233 0.014757 -0.046071 0.052826 -0.092890 0.321080 -0.033292 -0.061589 -0.155657 -0.148051 0.052671 -0.028509 -0.085015 -0.239075 -0.095650 0.054616 -0.170966 -0.056203 -0.058216 0.176348 0.355099 0.271748 0.183986 -0.267218 0.007280 0.011463 0.015026 0.002481 0.076199 0.184673 -0.117081 0.075444 -0.007486 0.089017 -0.316275 -0.295927 -0.007187 -0.267370 0.191555 -0.278930 -0.038447 -0.323843 0.000572 0.114525 -0.089119 0.143086 -0.133453 -0.302435 -0.122475 -0.067765 0.031997 -0.124860 0.102099 -0.014441 -0.120023 0.062027 0.282105 0.016312 -0.219591 -0.236618 0.238667 0.195512 0.019580 0.044336 0.238870 0.001534 -0.014189 -0.109272 0.256580 0.112285 0.210247 -0.009821 -0.020543 0.311323 0.170049 0.170502 -0.082494 -0.052385 -0.005516 0.057250 0.176027 0.023918 0.056423 -0.081538 -0.153755 -0.016498 0.092077 0.084534 0.021138 -0.201336 0.006491 0.223523 -0.206817 -0.068318 0.054558 0.035404 -0.244126 0.237908 0.028002 0.055161 -0.023173 0.163411 0.047190 0.214775 0.008453 0.251781 -0.174430 -0.064060
127 -0.071513 -0.174410 -0.086694 -0.227769 0.012305 -0.088487 -0.135521 -0.000146 0.073212 0.013508 0.050933 0.005962 0.013212 0.109967 0.178985 -0.158437 0.082025 0.080617 0.140769 0.338418 -0.046286 -0.099155 0.094311 -0.178647 0.151342 0.030841 -0.185641 -0.056711 0.112283 -0.090970 0.081160 -0.122175 0.120718 -0.079216 -0.237094 0.013870 0.114851 -0.067959 0.071139 0.269129 0.196642 -0.004427 0.140061 -0.082268 -0.051624 0.147144 -0.058743 -0.035230 0.097772 -0.004878 -0.050907 0.055199 0.110421 0.407012 -0.179046 -0.052736 0.213582 0.073359 -0.023985 -0.235731 0.203268 -0.262689 0.171772 0.084061 -0.137514 0.347389 -0.182490 -0.081757 0.171618 0.059400 -0.121262 0.051676 0.006188 -0.142535 0.257957 0.023776 -0.024850 0.319635 -0.019878 -0.162723 0.273940 -0.032034 -0.026853 -0.021092 0.266765 -0.086988 0.171620 -0.038807 0.100772 -0.105156 0.316447 0.289055 -0.043538 -0.061475 -0.077999 0.149339 0.013837 -0.095903 0.202004 0.157344 -0.115214 -0.008221 -0.008871 0.098690 -0.091107 0.072455 0.036808 0.043125 -0.118881 -0.202838 -0.031937 -0.042666 -0.180068 0.146495 -0.039871 0.161541 0.006254 0.113694 -0.055164 -0.068573 0.328222 0.119260 -0.026461 -0.024756 -0.156671 0.214707 0.033087 -0.059421
161 0.009507 -0.208759 0.086607 -0.088406 0.018981 -0.143441 -0.103063 -0.042752 0.168358 0.078124 -0.243053 0.079388 0.079842 -0.181576 -0.043351 -0.296541 0.097687 0.133812 0.087701 0.129973 -0.092131 0.156109 0.270752 0.063701 -0.139143 0.089447 -0.031122 -0.231265 0.079968 -0.104692 0.148746 -0.030638 0.061731 -0.112296 -0.237356 -0.047629 -0.010450 -0.065562 0.176854 0.333319 0.056574 0.219168 0.195438 -0.029213 -0.173524 0.037839 -0.016524 -0.291527 -0.057143 0.231094 -0.120118 -0.005255 0.121992 0.187927 -0.221583 -0.177704 0.017447 0.077364 -0.108123 0.233309 -0.018457 -0.184597 0.040776 0.056357 -0.162314 0.067068 -0.203118 -0.039520 -0.045284 0.061297 0.038183 0.015190 0.249934 -0.278812 0.113460 0.099015 0.018434 0.206405 0.105929 -0.105742 0.011858 0.174059 0.121207 -0.081937 0.128538 0.210705 0.078056 0.029202 -0.099298 -0.035348 0.160423 0.224539 -0.123058 0.019183 -0.158796 0.147332 0.051163 -0.061408 0.028936 0.264127 -0.063669 -0.044659 -0.021722 -0.009327 0.000332 0.323340 0.026771 -0.064467 0.018265 -0.165374 -0.009879 0.158923 0.036596 -0.096719 0.030270 0.087077 -0.077373 0.212278 0.099189 0.045739 0.102004 0.073971 -0.069297 -0.088931 -0.126066 0.194010 0.068452 0.022573
50 -0.022923 -0.188372 -0.172613 -0.187896 0.055210 -0.119084 -0.141312 0.034076 0.037174 -0.048127 0.072685 0.051850 0.159698 0.061630 0.222463 -0.240024 0.075624 0.092350 0.138545 0.328196 -0.087924 -0.111687 -0.051629 -0.133728 0.108079 0.081680 -0.144564 -0.049635 0.115629 -0.224457 0.035324 -0.008917 0.092273 -0.058449 -0.149384 0.021213 0.068842 0.004125 0.094322 0.197629 0.132460 0.031134 0.155165 -0.090716 -0.044305 0.143114 -0.032631 -0.029099 0.092120 -0.012182 -0.032653 0.037567 0.125202 0.346518 -0.082591 -0.124752 0.214850 0.126618 0.028163 -0.242207 0.174097 -0.208989 0.081206 -0.069229 -0.086325 0.269175 -0.133761 -0.083130 0.093936 0.030964 -0.174587 0.041493 0.014135 -0.142625 0.196781 -0.006884 0.049648 0.204082 -0.047318 -0.156832 0.292635 -0.017544 -0.015532 0.018118 0.161259 0.028966 0.230082 -0.067242 -0.010445 -0.127106 0.291092 0.213392 -0.050991 -0.063206 -0.066883 0.108643 0.010575 -0.194393 0.195694 0.075532 0.003803 -0.001371 0.014967 0.039570 -0.146829 0.026022 0.133069 0.074373 -0.115825 -0.114645 0.041624 -0.010840 -0.103576 0.147878 -0.104146 0.232486 -0.108980 0.041874 -0.030461 -0.049917 0.232789 0.077009 -0.134675 0.028314 -0.160071 0.139237 0.009814 -0.045138
61 -0.046186 -0.183854 -0.081653 -0.108544 -0.000244 -0.058749 -0.083407 0.060955 0.100382 0.039371 0.073068 0.054116 0.041091 0.017186 0.174682 -0.198681 0.070296 0.055893 0.079451 0.338450 -0.087831 -0.067122 0.111026 -0.204620 0.167790 0.020439 -0.118689 -0.061960 0.065852 -0.103562 0.100647 -0.082459 0.107915 -0.102829 -0.189127 -0.020432 0.175439 -0.076899 0.035461 0.129110 0.068925 0.078245 0.266561 -0.061619 -0.101008 0.198838 -0.033010 -0.076861 0.120753 0.053054 -0.139560 0.108300 0.134180 0.320401 -0.148050 -0.086814 0.214159 0.085034 0.022282 -0.184902 0.226524 -0.272315 0.119885 -0.060593 -0.086861 0.228287 -0.206172 -0.019311 0.035029 0.037809 -0.152048 0.005829 0.007414 -0.130773 0.192228 0.023404 0.020940 0.304934 0.009123 -0.154402 0.231769 -0.037866 -0.061929 0.007413 0.154144 0.014115 0.213222 -0.108938 0.131679 -0.078066 0.246627 0.173633 -0.011433 -0.037837 -0.096154 0.055322 0.021414 -0.139230 0.082033 0.165763 -0.035957 0.052939 0.023365 -0.032801 -0.171653 0.110832 0.066942 0.033727 -0.120962 -0.190514 -0.040490 0.009128 -0.152521 0.049771 -0.106143 0.239494 -0.063531 0.052207 0.000329 -0.067091 0.137988 0.102731 -0.051881 -0.040460 -0.131536 0.128454 0.039759 -0.008817
55 -0.020533 -0.242250 -0.208848 -0.129364 -0.004975 -0.037642 0.128835 0.176123 0.166501 0.129103 -0.045877 0.179105 0.088964 0.023428 -0.090724 -0.260780 0.117999 0.061283 0.179293 0.305949 -0.035995 -0.160214 0.068345 -0.098924 0.262535 0.046778 -0.214925 -0.157675 -0.134232 -0.054130 0.071459 0.097692 0.151940 -0.179606 -0.187706 -0.024376 0.082016 -0.080075 -0.015219 0.071807 -0.164252 0.163734 0.288413 -0.073153 -0.250821 0.243806 0.067238 -0.151814 0.274059 0.069512 -0.213765 0.186772 0.178584 0.373439 -0.130817 -0.215220 0.255406 -0.005810 -0.044697 -0.192847 0.081595 -0.135888 -0.112040 0.056499 -0.012727 0.156657 -0.187207 0.067050 0.153453 0.024405 0.018525 0.040648 0.192992 -0.059712 0.174363 -0.120713 -0.005991 0.202387 0.014500 -0.012583 0.108757 -0.087157 -0.112989 -0.025843 0.135518 -0.091193 0.363040 -0.121094 -0.111497 0.108829 0.436275 0.043292 0.125207 0.048525 -0.200198 -0.015219 0.107696 -0.192022 0.192908 0.027439 -0.125570 0.019715 -0.235898 0.033025 -0.007269 0.209569 0.061478 0.069782 -0.020673 0.007738 -0.026705 0.206140 0.063545 0.018581 -0.069299 0.189701 0.032895 -0.109480 -0.033587 -0.033014 0.163532 0.046271 -0.137929 -0.175455 -0.298043 0.044124 0.150202 -0.062428
56 -0.087259 -0.185186 -0.260575 -0.094789 -0.013840 -0.068572 0.089562 0.214504 0.184973 0.093312 0.047730 0.143605 0.054172 -0.003939 -0.010534 -0.254276 0.128387 0.054637 0.209288 0.334145 -0.033915 -0.160786 0.030422 -0.076726 0.304505 0.083026 -0.216000 -0.157976 -0.176417 -0.063112 0.097054 0.115389 0.135654 -0.177258 -0.187268 -0.026680 0.117774 -0.085170 -0.008437 0.142036 -0.145718 0.154439 0.294412 -0.061966 -0.229675 0.228967 0.062978 -0.183309 0.298248 0.148008 -0.196334 0.201921 0.211655 0.401682 -0.120188 -0.207234 0.237493 -0.031867 -0.008474 -0.238984 0.126466 -0.167854 -0.085757 0.049643 0.027295 0.161770 -0.172110 0.017375 0.137797 0.021633 0.006900 0.059544 0.155112 -0.032230 0.117353 -0.101518 0.079469 0.211065 0.035246 -0.040360 0.092282 -0.098683 -0.157660 -0.007740 0.173217 -0.104623 0.346742 -0.147961 -0.061453 0.142071 0.406864 0.085859 0.126966 0.019930 -0.190901 -0.042960 0.098158 -0.200332 0.181807 0.009887 -0.131179 0.096999 -0.182034 0.076193 -0.118573 0.122949 0.016164 0.049969 -0.080139 -0.006214 -0.033682 0.210903 0.037967 0.058093 -0.068636 0.187518 0.067042 -0.061654 -0.080130 -0.060215 0.183561 0.088611 -0.104275 -0.128056 -0.325267 0.098509 0.160462 -0.039277
201 -0.001535 -0.354379 -0.196036 -0.318520 0.130863 -0.284236 -0.298934 0.000880 0.322420 -0.091324 -0.075642 0.047338 -0.115938 0.009204 0.082212 -0.147764 0.038097 0.122847 0.257012 0.081384 0.047222 0.022681 0.013318 -0.062424 -0.168169 0.054324 0.064837 -0.219013 0.086149 0.239255 0.195637 -0.010510 -0.008098 -0.233674 -0.163517 -0.055509 0.022948 -0.072824 -0.110875 0.159619 0.208887 0.426164 0.195031 0.027564 -0.262918 -0.003419 0.018327 -0.083680 0.059225 0.171973 -0.053712 0.037770 0.294645 0.288198 -0.181526 -0.075687 -0.002055 0.026320 -0.156577 -0.176471 0.067084 -0.292164 -0.021406 -0.046917 -0.149003 -0.022837 -0.119117 -0.196719 -0.007452 0.043355 0.023255 0.203145 0.235803 -0.134454 -0.033181 -0.010327 0.164558 -0.123195 -0.188584 -0.037806 0.105262 0.051782 -0.137502 0.073588 0.129197 0.053702 0.083816 0.056849 0.022319 -0.065675 0.233604 0.066563 -0.066671 -0.009202 0.059022 0.006876 0.000822 -0.296926 -0.040326 -0.009620 0.024664 -0.008887 -0.124512 -0.141561 0.015295 0.003361 -0.002321 -0.033279 0.105893 -0.486181 0.049397 -0.001603 -0.053209 -0.176909 0.024068 0.102099 -0.179083 0.228010 -0.188306 0.102017 0.158252 -0.033720 0.234692 0.134382 -0.156928 0.209020 -0.289197 0.108765
46 -0.011761 -0.260158 -0.091422 -0.180662 0.086757 -0.035629 -0.042675 0.082236 0.111508 0.125576 -0.065719 0.037918 0.064704 0.061099 -0.000234 -0.224268 0.051204 0.085734 0.099882 0.361557 -0.023545 -0.174243 0.050160 -0.174784 0.164636 -0.061890 -0.215440 -0.027219 0.065508 -0.253940 0.082778 -0.036508 0.126060 -0.053834 -0.149278 0.106616 0.058528 -0.027885 0.045094 0.172983 -0.009403 0.228212 0.115188 -0.135303 -0.199998 0.092942 0.007479 -0.088829 0.149166 -0.085991 -0.148603 0.122884 0.172745 0.427631 -0.105690 -0.021919 0.267987 0.192697 -0.040639 -0.215244 0.122543 -0.178749 -0.019674 0.026763 -0.180795 0.257278 -0.214924 0.144279 0.221178 0.126125 -0.074984 -0.041450 0.113649 -0.116487 0.306535 -0.096430 0.039582 0.215436 0.059827 -0.156772 0.218411 -0.067719 -0.008734 -0.075525 0.179632 0.005407 0.309270 -0.053045 -0.079568 0.014486 0.279530 0.113911 0.002859 -0.020638 -0.124252 0.090545 0.002744 -0.132565 0.176281 0.113616 -0.110160 -0.123319 -0.211833 0.000522 0.009696 0.242303 0.081976 0.071403 -0.012004 -0.095763 0.071961 0.087024 -0.024893 0.065359 -0.004834 0.131892 -0.061790 -0.061093 -0.013052 0.001167 0.228752 -0.019132 -0.170803 -0.060752 -0.217131 0.074130 0.086606 -0.089544
209 -0.003118 -0.296019 -0.224564 -0.260844 0.204028 -0.150538 -0.146043 0.131640 0.203067 -0.120719 -0.002379 0.025485 0.016753 -0.129739 0.235304 -0.080663 0.029184 0.136620 0.106231 0.089386 0.052863 0.031944 0.043474 -0.113780 -0.209553 0.278253 0.077273 -0.048958 0.037481 -0.189991 0.103147 0.085590 -0.106060 -0.317683 -0.007756 -0.115314 0.014680 0.018987 -0.020149 0.345254 0.218336 0.386628 0.267380 -0.036271 -0.086941 0.135101 0.032306 0.182002 -0.170337 0.258642 0.044909 0.067695 0.345925 0.094102 -0.291171 -0.114575 -0.003168 -0.097768 -0.023528 -0.042190 0.008281 -0.067515 -0.188990 -0.128747 -0.201037 -0.016605 -0.049624 -0.332352 0.098549 0.043151 0.046663 0.066871 0.157952 -0.196758 0.070257 -0.086269 0.172339 0.008736 -0.193082 -0.167985 0.241604 0.058798 0.012549 0.069015 -0.003945 0.118131 0.131181 -0.056763 0.113267 0.063133 0.296648 0.095113 -0.099173 0.000864 0.196387 -0.000052 -0.137232 -0.204184 -0.093537 0.081708 0.256197 0.046375 0.071389 0.030029 -0.064516 -0.077057 0.142333 -0.054431 -0.000766 -0.433691 0.066265 -0.016211 -0.174656 -0.000379 0.020038 0.133642 -0.339961 0.118192 -0.014543 0.062578 -0.007545 0.008844 0.155016 0.222616 -0.047830 0.035367 -0.172872 0.060931
219 -0.062891 -0.262636 -0.071327 -0.204237 0.054775 -0.054603 -0.197875 -0.015653 0.158948 -0.010846 -0.015825 0.047082 0.002847 0.015672 0.152916 -0.196938 0.021509 0.044391 0.070263 0.275562 -0.088786 -0.001767 0.102914 -0.047961 0.073191 -0.021070 -0.041094 -0.078700 0.184754 -0.060767 0.121333 -0.121028 0.149088 -0.181587 -0.187466 -0.095261 0.096454 -0.038375 0.071295 0.152419 0.172277 0.076404 0.175848 0.000549 -0.048437 0.209145 -0.092746 -0.147412 0.099328 0.095835 -0.110046 0.052911 0.117777 0.376089 -0.155612 -0.048806 0.113331 0.097198 0.025776 -0.208836 0.193425 -0.283052 0.116890 -0.003509 -0.152055 0.261982 -0.211230 -0.135320 0.102797 0.013622 -0.130602 0.097003 -0.020461 -0.099897 0.198814 0.089264 0.002828 0.249066 -0.029283 -0.156727 0.146892 0.086115 -0.075046 0.002348 0.196818 0.031860 0.139675 -0.036315 0.073225 -0.047424 0.288906 0.211732 0.041620 -0.115611 -0.115928 0.160214 0.086853 -0.089240 0.111964 0.124944 -0.101731 0.052008 -0.079854 -0.054616 -0.056227 0.091790 0.013046 -0.023912 -0.019920 -0.253472 0.015543 -0.058578 -0.164291 -0.010017 -0.006861 0.139849 -0.039644 0.180545 -0.009826 -0.076433 0.286889 0.105411 -0.022171 0.025838 -0.184420 0.237871 -0.047589 0.016001
25 0.086424 -0.177347 -0.095209 -0.333594 0.028202 0.026014 0.154038 0.020583 0.018024 0.012780 -0.104579 0.068774 0.223937 -0.193444 -0.043641 -0.167604 0.252953 -0.003659 0.267272 0.483548 -0.157237 -0.227687 0.154251 0.155238 0.023591 0.005069 0.011621 -0.346582 -0.176191 -0.079682 0.253890 0.224091 0.039009 -0.354935 -0.582116 -0.120651 0.023170 0.120091 0.012001 -0.311590 0.000493 0.127404 0.115684 -0.009330 0.106867 0.077291 -0.032747 0.201257 0.197815 0.046009 -0.237755 0.110138 -0.088807 0.228910 -0.153679 -0.349099 -0.041475 -0.145750 0.041610 -0.026585 0.033852 -0.377808 0.063894 0.181487 0.063787 0.217841 -0.367434 -0.007681 0.099290 0.050422 -0.037987 -0.021625 0.263465 0.083094 -0.039920 -0.079743 -0.001596 0.026547 -0.052248 -0.034628 0.085664 -0.123570 0.091244 -0.122802 0.054758 -0.045709 0.135233 -0.074165 0.041604 -0.025447 0.379038 -0.032818 0.144055 0.085999 -0.139970 0.149496 0.310305 -0.335577 0.065154 0.112963 -0.176527 -0.184074 -0.026018 -0.028540 0.007237 0.132858 -0.154052 0.037623 0.031953 -0.008304 -0.030979 0.237802 0.117830 -0.153318 0.225976 0.077463 -0.126187 -0.082611 -0.155996 -0.194482 0.014338 -0.000478 0.158269 -0.058944 -0.134462 0.112472 -0.027865 -0.300645
77 0.130179 -0.210874 0.011268 -0.250532 0.053133 -0.099834 0.151892 0.085387 -0.120785 0.130685 -0.195202 0.026507 0.274858 -0.065348 0.027760 -0.076404 0.240067 0.000449 0.193759 0.387584 -0.075776 -0.011820 0.163605 0.059577 -0.206721 0.108653 -0.026660 -0.229813 -0.152172 -0.201481 0.146334 0.148337 -0.049990 -0.265188 -0.473420 -0.190880 0.119166 0.109524 0.069156 -0.085951 0.084671 0.156491 0.211731 -0.022288 -0.049573 -0.076337 0.014372 0.197221 -0.040866 -0.007469 -0.044228 0.188201 -0.131621 0.043871 -0.171405 -0.386822 0.205306 0.011100 -0.122631 0.125797 -0.116104 -0.308972 0.023980 0.096900 -0.028751 0.227673 -0.378167 0.116535 0.171319 0.166893 0.071219 -0.043533 0.330999 -0.142556 0.084162 -0.057452 -0.031606 0.123311 -0.063237 0.002515 0.206923 -0.075573 0.234776 -0.180548 0.143072 0.009178 0.150992 -0.074157 0.168139 0.033613 0.222184 -0.029359 -0.025402 0.232636 -0.085892 0.162138 0.249307 -0.221687 0.023112 0.232877 -0.042378 -0.285125 0.100168 0.043716 -0.014220 0.283917 -0.031207 -0.036327 0.030261 -0.045757 -0.002071 0.174596 0.006037 -0.127117 0.136138 0.223970 -0.245050 0.010034 -0.021180 -0.146189 0.011754 -0.023969 0.061717 -0.050278 -0.048807 0.041409 0.032373 -0.162419
129 -0.096606 -0.079639 -0.122925 -0.142543 -0.005048 -0.151940 -0.230540 -0.019123 0.097919 -0.026428 0.157217 -0.023337 0.051681 0.034865 0.282740 -0.153477 0.052092 0.088289 0.087691 0.270311 -0.058107 -0.050944 -0.006570 -0.150679 0.118375 0.124573 -0.070429 -0.059844 0.134940 -0.112161 0.131917 -0.162178 0.098000 -0.013127 -0.221265 -0.006687 0.143942 -0.090860 0.132932 0.280934 0.219338 0.023370 0.137676 -0.035022 -0.021862 0.063428 -0.062690 -0.018333 0.125424 0.082728 0.030788 0.061369 0.218694 0.378690 -0.106346 -0.034642 0.221881 0.096275 0.008571 -0.254331 0.215475 -0.271151 0.124530 -0.065459 -0.117755 0.296547 -0.178026 -0.180285 0.062529 0.104607 -0.186732 0.071385 0.011907 -0.114472 0.234385 0.042546 0.023366 0.257994 -0.000174 -0.166995 0.233893 0.005432 -0.044007 0.014081 0.285793 0.003307 0.156656 -0.038396 0.169391 -0.112879 0.222500 0.293305 -0.110472 -0.081123 -0.066573 0.065339 -0.032390 -0.108062 0.159802 0.142426 -0.037646 0.026377 0.088179 0.056596 -0.175866 -0.029807 0.122515 0.046145 -0.126402 -0.260192 -0.013163 -0.052791 -0.233702 0.218220 -0.068043 0.201407 -0.031831 0.145647 -0.046248 -0.112449 0.263586 0.123078 -0.009500 0.005701 -0.099108 0.260368 -0.018851 0.034756
206 0.099986 -0.225173 0.068586 -0.056078 -0.033662 -0.111396 -0.245245 -0.209262 0.151539 -0.082664 0.056987 0.251975 0.167428 -0.085487 0.164066 -0.346345 0.073053 0.070565 -0.128967 0.182802 -0.232793 0.151785 0.192229 -0.230334 0.139381 0.040628 0.110294 -0.086895 0.078576 0.154400 0.233915 -0.225589 0.101094 0.010543 -0.267478 0.071101 0.246997 -0.239388 0.142770 0.037758 -0.017327 0.061783 0.278911 0.018486 -0.246006 0.038024 0.061193 -0.077618 0.065930 0.164379 -0.150447 0.012972 0.120605 0.120407 -0.187230 -0.069073 -0.002578 -0.046292 -0.042139 0.055030 0.103189 -0.416555 0.176295 -0.095586 -0.074374 -0.074734 -0.446972 -0.178321 -0.391192 0.084906 -0.230125 -0.107069 0.178484 -0.224746 0.009394 0.164206 0.005068 0.135548 0.024574 -0.051833 -0.000352 0.095222 -0.143256 -0.041635 0.143202 0.181814 0.294107 0.019850 0.248513 -0.366865 0.044204 0.021378 -0.093872 -0.001494 -0.136906 0.111513 0.102560 -0.140994 0.093785 0.267857 0.083357 -0.123241 0.087925 -0.225956 -0.116088 0.070284 0.250616 0.028214 -0.009257 -0.188629 -0.102477 0.206635 -0.109759 -0.177385 -0.223477 0.194191 -0.244954 -0.017790 -0.081935 -0.048751 0.007535 -0.120665 0.053241 -0.144326 0.131694 0.146333 -0.163968 -0.057804
242 0.116338 -0.228309 0.029459 -0.127772 -0.018379 -0.138369 0.001473 0.031601 0.104348 0.238405 -0.270093 -0.134808 0.231800 -0.068381 -0.011449 -0.190716 0.027511 0.141774 0.005132 0.257519 -0.101920 -0.050622 0.282360 -0.044213 -0.023455 0.085979 -0.277511 -0.154616 -0.105864 -0.324537 0.207311 -0.135389 -0.033676 -0.158357 -0.282638 0.018106 0.062276 0.056191 0.060534 0.444293 0.004485 0.267597 0.098818 -0.108373 -0.283161 -0.006197 0.039399 0.012786 -0.120242 0.004216 -0.181824 0.173693 0.144454 0.045053 -0.283062 -0.104517 0.169087 0.019590 -0.169549 0.091153 -0.079277 -0.131180 -0.034783 0.118143 -0.223417 0.222408 -0.357652 0.079915 0.180203 0.279998 0.203539 -0.113516 0.239945 -0.156028 0.153131 -0.159932 -0.007868 0.130717 0.080698 0.053279 0.135686 0.059388 0.241548 -0.125871 0.045474 -0.084242 0.276153 -0.051069 -0.147366 0.114384 0.229626 0.021896 -0.074883 0.055902 -0.177805 0.195125 -0.046833 -0.140743 0.204229 0.191177 -0.043215 -0.259766 -0.164983 0.176074 0.109380 0.191922 0.060089 -0.097981 0.083001 -0.163058 0.047595 0.330954 -0.053900 0.019919 0.173576 -0.061403 -0.210048 -0.031375 0.048157 -0.068713 0.195617 0.005598 -0.161147 -0.114262 -0.039455 -0.006128 0.138872 -0.310669
154 -0.104726 0.098546 -0.036792 -0.188124 0.095674 -0.115726 0.088372 -0.040993 0.196073 -0.191828 0.080794 0.047376 0.093616 0.025048 0.230158 -0.061000 0.007531 -0.114150 0.007972 0.055945 -0.189696 0.109338 -0.126062 0.271701 0.067168 0.193359 0.059449 -0.099932 -0.103234 -0.098366 0.015775 -0.104662 0.049196 -0.254306 -0.161446 -0.048730 -0.129700 -0.167538 -0.008210 -0.084772 0.355486 0.058888 0.148074 -0.193248 0.049422 -0.049310 0.049667 0.026927 0.178100 0.168729 -0.092757 0.109358 0.135908 0.409731 -0.196416 -0.283055 -0.042116 -0.169095 0.276926 -0.313974 -0.053431 -0.332974 0.051134 0.132909 -0.045516 0.198713 -0.095694 -0.518306 -0.110343 -0.218753 0.074305 0.002452 0.060024 0.182957 0.097995 0.075743 0.159239 -0.084009 -0.283907 -0.236896 0.143591 0.294107 -0.143511 0.061679 0.325753 -0.014353 0.056949 -0.054513 0.399028 -0.010010 0.287007 -0.057954 0.030591 0.341786 0.076066 0.052699 0.035991 -0.142340 0.147451 -0.047173 0.066818 0.098809 -0.008714 -0.171097 -0.091673 0.037979 0.165731 0.112116 -0.038239 -0.264853 -0.119675 0.173743 -0.080336 0.092655 0.013423 -0.035234 -0.043861 0.307986 -0.043876 -0.013241 -0.003636 0.100591 0.076719 0.062696 0.028914 0.377814 -0.175297 -0.059194
198 -0.049514 0.025841 -0.147402 -0.265720 0.147265 -0.192952 -0.045962 -0.067251 0.165970 -0.142155 0.105867 -0.116596 0.024899 0.070886 0.203878 -0.113692 -0.054415 -0.009771 0.087315 0.084530 -0.197035 0.053171 -0.137136 0.124033 -0.012752 0.275489 -0.100310 -0.043010 -0.145738 -0.153252 0.051158 -0.121479 -0.047186 -0.197345 -0.093556 0.084100 -0.208961 -0.045104 -0.043029 0.193923 0.354785 0.247987 0.060485 -0.208372 -0.027991 -0.080688 0.042662 0.028575 0.091900 0.122088 -0.048562 0.041039 0.095269 0.184310 -0.189126 -0.255335 -0.035939 -0.193979 0.122215 -0.349084 -0.051001 -0.312822 0.073038 0.048335 -0.167614 0.124132 -0.122333 -0.341473 -0.058315 -0.026374 0.001589 -0.091694 0.072785 0.012491 -0.055050 0.014203 0.341675 -0.132552 -0.273971 -0.187682 0.192863 0.217594 0.006950 0.053619 0.254611 -0.035454 0.090551 -0.045036 0.089647 -0.005106 0.224643 -0.074683 -0.032980 0.249463 0.174883 0.176996 -0.072574 -0.141258 0.133400 -0.075235 0.163017 -0.026960 0.047667 -0.045359 -0.159248 -0.101446 0.118391 0.073551 0.028167 -0.175718 -0.020723 0.242899 -0.166248 0.019055 -0.004553 -0.082003 -0.271540 0.185890 -0.007665 0.108648 0.087424 0.165656 -0.068529 0.167737 -0.032803 0.259948 -0.174103 -0.077951
227 0.069502 -0.223169 -0.198971 -0.213633 0.174133 -0.254464 -0.206413 -0.210708 0.275121 -0.120434 -0.163457 0.000986 0.117753 -0.058114 -0.004958 -0.370017 0.126556 0.109816 0.181332 0.071378 -0.145189 -0.086549 -0.183263 0.188059 -0.119218 0.145275 0.054860 -0.324902 0.161803 0.006011 0.080931 -0.026061 -0.011850 -0.059528 -0.111707 -0.064709 -0.196370 -0.096600 0.009073 0.053850 0.140605 0.345366 0.063368 -0.083354 -0.177974 -0.083938 -0.075476 -0.108833 0.146068 0.127459 -0.165802 -0.050777 0.311380 0.185748 -0.092595 -0.141335 -0.030340 0.086513 0.027069 -0.191974 -0.017493 -0.250902 -0.159177 -0.146930 -0.047787 0.066148 -0.036278 -0.236529 -0.114458 -0.089694 -0.090832 0.188720 0.331696 -0.045766 0.004073 0.045912 0.087539 -0.268400 -0.164911 0.086242 0.112563 0.174446 -0.113045 0.176794 -0.001990 0.082048 0.132034 0.053692 -0.337066 -0.007064 0.229955 -0.076117 -0.070645 -0.020770 -0.078787 0.016755 0.006402 -0.412600 -0.004136 -0.058646 0.108758 -0.073570 -0.145314 -0.227458 0.102849 0.116432 0.147928 0.098172 0.153647 -0.271174 0.151963 0.166742 0.061255 -0.055266 0.062785 0.151335 -0.223867 0.129380 -0.069643 -0.027712 -0.088190 0.095877 -0.049595 0.131281 -0.116488 0.190042 -0.150840 0.057053
261 -0.071904 0.021168 -0.059611 -0.155684 0.150768 -0.134833 0.166730 0.058533 0.098519 -0.157615 0.031431 -0.041553 0.068355 -0.026914 0.203930 -0.090532 0.070045 -0.112620 -0.039501 0.032285 -0.121862 0.180002 -0.038573 0.218717 0.044323 0.269420 -0.005461 -0.002259 -0.309397 -0.303719 0.014849 -0.092359 -0.050876 -0.322149 -0.013478 -0.019321 -0.127675 -0.115180 -0.026001 0.079575 0.311067 0.252965 0.170073 -0.244103 -0.053069 -0.138470 0.122543 0.123813 0.040606 0.136918 -0.053683 0.128315 0.118246 0.174131 -0.224157 -0.364266 -0.032209 -0.173025 0.169939 -0.244691 -0.166723 -0.285051 0.062979 0.041392 -0.122201 0.001468 -0.141145 -0.355426 -0.076994 -0.103745 0.024530 -0.178924 -0.009431 0.053268 0.035347 0.087076 0.301238 -0.046389 -0.256975 -0.306740 0.138941 0.226911 0.015847 -0.032884 0.244126 0.058157 0.171682 -0.116496 0.273303 0.088871 0.196107 -0.225116 -0.008807 0.374669 0.167311 0.066432 0.075456 -0.092189 0.107784 0.042593 0.244608 0.005067 0.118555 -0.051738 -0.231056 0.034802 0.199651 0.006087 -0.046455 -0.120697 -0.129486 0.286170 -0.121076 -0.034760 -0.063405 -0.053182 -0.319025 0.107359 0.032704 0.063506 -0.033187 0.078574 -0.082458 0.032108 0.025813 0.140585 -0.111324 -0.006460
253 -0.001763 -0.114428 0.072350 -0.133653 0.226721 0.073866 0.128594 -0.137789 0.083768 0.033154 0.071204 0.056177 0.037482 -0.008349 0.039698 -0.224070 0.096510 -0.053732 -0.042644 0.296149 -0.164078 -0.006613 0.070978 -0.200482 0.019481 0.101352 0.102067 0.019027 0.048998 -0.267394 -0.007283 -0.066456 0.038714 -0.128186 0.008072 0.163119 -0.048807 -0.136007 0.067565 -0.005321 0.148536 0.299665 0.185728 -0.250668 -0.043239 -0.027312 0.031019 -0.054541 0.136892 0.000437 -0.170747 0.044068 0.027746 0.145351 -0.140875 -0.184957 0.073888 -0.039043 0.166895 -0.151457 -0.017434 -0.271109 0.071561 -0.088395 -0.084795 0.004913 -0.201499 0.046647 -0.189036 -0.047228 -0.255900 -0.327887 0.120889 -0.214900 0.043861 0.034187 0.199324 0.165262 -0.074176 -0.384136 0.223489 0.089206 -0.005087 -0.069698 0.095020 0.192104 0.151797 -0.107631 0.211425 -0.035009 0.056784 -0.130499 -0.031859 0.280796 0.094037 0.065245 -0.025395 -0.028986 -0.032577 0.297184 0.269578 -0.080297 0.027661 -0.326409 -0.142116 0.248211 0.233467 0.204012 -0.031563 -0.065183 0.008622 0.141761 -0.122632 -0.203294 -0.132426 0.214866 -0.338129 -0.014033 0.175759 0.095660 -0.169798 -0.018553 -0.084949 -0.005873 0.016795 0.041103 -0.113839 0.021498
57 -0.014904 -0.191790 -0.180612 -0.179759 0.009957 -0.134901 -0.071501 0.096628 0.047529 -0.019199 -0.030556 0.029317 0.113122 0.073526 0.068456 -0.224612 0.086780 0.064535 0.130488 0.230640 -0.012418 -0.053706 -0.064500 -0.021842 0.160702 0.094309 -0.162835 -0.055978 -0.018144 -0.231747 0.040372 -0.056082 0.116780 -0.120870 -0.143382 0.013761 0.030345 -0.050485 0.101489 0.257477 0.089737 0.080689 0.110911 -0.089939 -0.149832 0.047155 0.028746 -0.038157 0.107340 -0.007238 -0.017222 0.119455 0.200475 0.391793 -0.133532 -0.134593 0.216320 0.089233 -0.043278 -0.234875 -0.004175 -0.167104 -0.015816 0.049370 -0.127277 0.176029 -0.151743 -0.095955 0.220583 0.091781 -0.056086 0.033523 0.085059 -0.102321 0.288419 -0.041251 0.018389 0.168501 -0.040584 -0.127131 0.201642 0.005642 -0.003503 -0.089045 0.267194 -0.020166 0.307389 -0.049078 -0.053987 0.048662 0.328381 0.122751 -0.042129 0.046922 -0.068913 0.093547 0.104932 -0.111357 0.302270 0.016051 -0.043215 -0.078216 -0.110747 0.129306 -0.067563 0.091127 0.104739 0.014006 -0.061382 -0.084660 0.025167 0.108533 -0.058990 0.142105 -0.067347 0.118846 -0.081731 0.007945 -0.082602 -0.005746 0.319754 0.051668 -0.167193 -0.086428 -0.166168 0.160174 0.060500 -0.021806
48 -0.077177 -0.205418 -0.061539 -0.165401 0.002880 -0.033147 -0.114381 0.042438 0.094820 0.049835 0.052768 0.030728 0.041085 -0.000596 0.160944 -0.125923 0.025669 0.037831 0.185014 0.353233 -0.055206 -0.043724 0.070098 -0.089200 0.033632 0.055657 -0.083867 -0.128780 0.104614 -0.114282 0.131306 -0.017216 0.119827 -0.184776 -0.246798 -0.107803 0.125589 0.012021 0.042661 0.106009 0.152874 0.066340 0.225697 -0.005241 -0.010072 0.203370 -0.116379 -0.095580 0.097190 0.047099 -0.052247 0.102066 0.096409 0.339528 -0.145130 -0.125199 0.115244 0.099971 0.019400 -0.168544 0.207330 -0.260116 0.074552 0.012486 -0.089862 0.276767 -0.171258 -0.102291 0.154272 -0.010941 -0.120156 0.065708 -0.005196 -0.106500 0.149875 0.033191 0.027793 0.245567 -0.055271 -0.162208 0.217632 0.003476 0.002072 -0.027285 0.162782 0.012081 0.116040 -0.073336 0.178963 0.022158 0.349076 0.255109 0.057117 -0.026662 -0.062811 0.102725 0.028172 -0.116979 0.067277 0.132471 -0.084431 0.019440 0.000233 -0.028691 -0.124837 0.120335 -0.053805 -0.017536 -0.110052 -0.271480 -0.026774 -0.061028 -0.137087 0.009451 0.016326 0.212580 -0.058563 0.199764 -0.050127 -0.050629 0.189392 0.114413 0.002510 0.027793 -0.184065 0.212907 0.003669 0.006014
174 -0.084909 0.215503 -0.061149 -0.178867 0.087648 -0.139358 0.123074 -0.061793 0.184239 -0.150743 0.068029 -0.046671 0.098392 0.013471 0.196019 -0.109064 -0.003697 -0.068756 0.029870 0.136710 -0.244422 0.118431 -0.055158 0.328642 0.023794 0.334357 -0.071118 -0.124846 -0.365006 -0.196488 0.142465 -0.085957 -0.081296 -0.192748 -0.247394 0.114381 -0.218063 -0.094314 -0.034345 -0.029225 0.373877 0.203310 0.046740 -0.262781 0.037451 -0.209233 0.090936 0.085785 0.138096 0.170970 -0.152127 0.067000 0.023762 0.172285 -0.218790 -0.389206 -0.115664 -0.241465 0.227130 -0.278874 -0.089647 -0.399452 0.117425 0.188116 -0.138484 0.149961 -0.237626 -0.435012 -0.224465 -0.102871 0.104724 -0.190126 0.098003 0.136491 -0.105904 0.053017 0.349894 -0.205877 -0.246759 -0.181287 0.086323 0.242392 0.059406 -0.024263 0.311853 -0.038291 0.069093 -0.019764 0.271787 0.027828 0.245232 -0.139193 0.008670 0.418868 0.160773 0.148974 -0.008333 -0.161267 0.114797 0.017073 0.104429 -0.033162 0.146166 -0.039935 -0.213536 -0.008027 0.062621 0.080821 -0.032769 -0.091105 -0.172786 0.409016 -0.052915 0.018285 0.043026 -0.237544 -0.232333 0.193423 -0.045697 0.029986 -0.016019 0.154513 -0.022525 0.100970 0.034642 0.321949 -0.122741 -0.177062
83 0.010931 -0.299888 0.096980 -0.190391 0.073349 0.185228 0.176973 -0.070656 0.082163 0.230797 -0.152279 0.177813 0.277466 -0.178112 -0.144907 -0.167093 0.056692 0.014303 0.090111 0.319800 -0.029825 -0.140621 0.136871 -0.030466 0.024231 0.006016 -0.026684 -0.154144 0.059794 -0.283597 0.157967 0.139914 0.085509 -0.241474 -0.291336 -0.005328 0.018659 0.113900 0.093679 -0.036986 -0.106135 0.214221 0.094571 -0.097948 -0.078590 0.108808 -0.042372 -0.027937 0.180727 -0.026396 -0.131392 0.085690 -0.003540 0.269968 -0.169858 -0.192187 0.005656 0.002312 -0.000249 0.072881 -0.112313 -0.159032 -0.216322 0.183099 -0.015703 0.210586 -0.335191 0.054206 0.226568 0.050386 0.083150 -0.099795 0.365163 -0.062190 0.225231 -0.113769 -0.009210 0.134044 0.024324 -0.072036 0.043167 0.023994 0.104517 -0.248160 0.058599 0.007928 0.270465 -0.072941 0.102324 0.172192 0.362627 0.022157 0.129164 0.088036 -0.203413 0.215084 0.057546 -0.095228 0.121358 0.166312 -0.133757 -0.288338 -0.275004 -0.119361 0.230924 0.395295 0.031494 0.057021 0.102408 -0.022027 0.067045 0.234765 0.133497 -0.095701 0.244800 0.136442 -0.130785 -0.031027 -0.026259 -0.063398 0.001889 -0.209745 -0.017798 -0.109661 -0.195027 0.114382 0.084209 -0.268710
199 -0.153402 0.032140 -0.129526 -0.192300 0.090457 -0.213195 0.068916 0.017420 0.184228 -0.186761 0.021707 -0.022832 -0.049905 0.070738 0.096125 -0.032000 0.079191 -0.107725 0.143219 0.044840 -0.040979 0.199341 -0.184517 0.290577 -0.038931 0.274221 0.055657 -0.120313 -0.325277 -0.088896 0.091970 -0.028949 -0.040158 -0.269168 -0.119354 0.066053 -0.119790 -0.153187 -0.027923 0.066437 0.398578 0.316204 0.081846 -0.199837 -0.107028 -0.268475 0.116243 -0.032987 0.102437 0.140558 -0.001026 0.118429 0.116687 0.337267 -0.220153 -0.371283 -0.074716 -0.123302 0.121197 -0.342084 -0.189655 -0.367141 0.031756 0.214407 -0.140833 -0.001675 -0.085838 -0.396885 -0.051665 -0.088755 0.080253 -0.025014 0.095048 0.058722 -0.038697 0.101603 0.333672 -0.137657 -0.266304 -0.274594 0.088302 0.212544 -0.034935 -0.106626 0.429390 0.076088 0.059985 -0.004513 0.326181 0.142857 0.219705 -0.082208 -0.036411 0.415123 0.205917 0.033784 0.118681 -0.079105 0.109956 -0.020195 0.084271 -0.040303 0.036241 -0.065635 -0.191433 0.039310 0.015045 -0.010682 -0.009113 -0.217850 -0.104023 0.254903 -0.013721 -0.071424 0.016181 -0.089942 -0.191867 0.325586 -0.136895 0.154286 0.133618 0.055169 0.071374 0.102700 -0.065701 0.409513 -0.210799 0.089457
238 -0.092974 -0.329477 -0.259193 -0.224042 0.122473 -0.027497 0.064122 0.088755 0.116695 -0.002175 -0.109331 0.188685 0.254161 -0.061378 -0.041401 -0.388086 0.084862 0.092858 0.159278 0.211464 -0.046172 -0.065023 -0.132233 0.022156 0.089578 0.196555 -0.133321 -0.121450 0.142068 -0.438382 -0.110032 0.157103 0.157840 -0.208021 -0.016921 -0.137328 0.021691 0.000532 0.254548 0.390924 -0.106621 0.177282 0.230384 -0.092961 -0.168464 0.299762 0.006938 -0.266119 0.103215 0.117325 -0.058936 -0.010431 0.124286 0.445103 -0.078169 -0.309779 0.172791 0.026287 0.070784 -0.147390 -0.041740 0.008601 -0.182878 0.018790 -0.089088 0.252543 -0.087113 -0.036773 0.321739 -0.067200 -0.055592 0.109859 0.169523 -0.194217 0.245175 -0.068197 0.072780 0.299266 0.018129 -0.170249 0.120742 0.083933 -0.038954 -0.010485 0.132166 0.041960 0.378849 -0.173507 -0.310886 0.156248 0.423357 0.139533 0.067926 -0.092891 -0.199990 0.118395 0.060184 -0.063490 0.209949 -0.007165 -0.021481 0.049873 -0.168807 0.076547 0.011088 0.230503 0.163049 -0.027479 -0.004595 0.096646 0.182863 0.069828 0.050153 0.095616 -0.056327 0.297112 0.010715 0.051927 0.152073 0.035391 0.283258 0.108698 -0.330830 -0.034319 -0.445520 0.110278 0.188212 0.009773
257 -0.054965 -0.179830 -0.031726 -0.269836 0.099821 0.028511 0.037287 0.080763 0.158633 0.008448 0.056701 0.262838 -0.076368 0.011174 0.162824 -0.124209 0.134442 0.076255 0.030088 0.245833 -0.037637 0.069239 0.325119 -0.247563 -0.175518 0.249681 0.092739 -0.113066 0.099803 0.001345 0.031207 0.043845 -0.097261 -0.208517 -0.175005 -0.065797 0.066300 -0.173710 0.108103 0.286289 0.157490 0.117170 0.342310 -0.091734 -0.056120 0.210897 0.066027 -0.020831 -0.081596 0.376370 -0.078812 -0.001328 0.022870 0.102271 -0.309940 -0.250437 0.169522 -0.246028 0.025114 0.153420 0.022003 -0.160093 0.054377 0.009248 -0.087551 0.156839 -0.178874 -0.211501 -0.125107 -0.023278 0.115280 -0.059759 0.315414 -0.287956 0.050471 0.093762 0.051523 0.226716 -0.004445 -0.157220 0.118062 0.005587 -0.145855 -0.001385 0.130604 -0.004425 0.048951 -0.143011 0.356745 -0.130087 0.152571 0.162295 -0.169341 0.117239 0.031377 0.096840 0.002235 0.014015 -0.081312 0.413278 0.095667 0.170653 0.221646 -0.043194 -0.074475 0.140717 0.101407 0.010283 -0.114139 -0.197848 -0.122683 0.003497 -0.163855 -0.081495 -0.121348 0.260250 -0.071652 0.152315 0.080543 0.065357 -0.035981 0.093861 0.159070 0.028417 -0.037648 0.073827 0.019444 -0.012078
200 0.071973 -0.319436 -0.170826 -0.416608 0.208691 -0.269665 -0.311668 -0.067874 0.373748 -0.065414 -0.077591 0.052692 -0.063686 0.001914 0.095231 -0.188771 -0.044876 0.208967 0.203058 0.061441 0.015943 -0.037988 0.141007 -0.103688 -0.241368 0.163321 0.027438 -0.232189 0.171407 0.145013 0.205292 -0.042047 -0.088633 -0.230677 -0.183905 -0.014618 -0.095787 -0.028504 -0.045054 0.313763 0.244546 0.372532 0.114970 -0.011855 -0.213561 0.024633 0.038901 0.028524 -0.035831 0.261012 -0.097941 -0.051750 0.342185 0.174303 -0.240059 -0.021320 -0.065239 -0.147792 -0.148833 -0.051605 0.042453 -0.146993 -0.050510 -0.029744 -0.198464 0.039470 -0.119975 -0.334288 0.002828 0.032772 0.128577 0.124633 0.340881 -0.195506 -0.032399 -0.116107 0.173448 -0.234846 -0.208326 0.015201 0.120625 0.116362 -0.071851 0.125779 -0.023755 -0.070695 0.066867 0.068066 -0.042040 -0.082501 0.314895 0.067994 -0.098222 -0.005657 0.081141 0.071543 -0.188247 -0.311719 -0.012957 0.035732 0.120977 0.002236 -0.137881 -0.054904 0.144466 -0.060850 0.050213 0.020488 0.085725 -0.507902 0.050252 0.046757 -0.080691 -0.053602 0.069576 -0.053025 -0.215695 0.181807 -0.113016 0.144422 0.091880 -0.018557 0.235083 0.138302 -0.066414 0.129710 -0.278639 -0.088196
2 -0.098068 -0.199845 0.071465 -0.137428 -0.033263 0.011972 -0.042227 -0.010873 0.223708 0.068975 -0.038781 0.405973 0.128960 -0.148574 0.147964 -0.258884 0.118132 0.141676 -0.064676 0.171478 -0.042237 0.200090 0.411203 -0.140830 -0.121640 0.251196 0.129663 -0.216600 0.190181 -0.022615 0.214023 0.004042 -0.017285 -0.087213 -0.278909 -0.097808 0.184624 -0.194183 0.300838 0.400016 0.013092 0.045452 0.298827 0.001773 -0.142578 0.160075 0.055607 -0.180563 -0.028850 0.473344 -0.050232 -0.094589 0.084959 0.118389 -0.290079 -0.219943 0.056597 -0.135640 -0.041774 0.372976 -0.027942 -0.156665 -0.008864 0.060219 -0.062435 0.165947 -0.320092 -0.296724 -0.175682 0.034267 0.126679 -0.015234 0.421959 -0.334655 0.117549 0.165434 -0.014792 0.227770 0.193952 -0.042934 -0.125407 0.096476 -0.135158 -0.119849 0.164050 0.089689 0.177708 -0.068049 0.360621 -0.109932 0.135584 0.294058 -0.175789 -0.033144 -0.220173 0.136212 0.016523 0.021529 -0.011966 0.497481 -0.025601 0.064714 0.197174 -0.009055 0.000564 0.258908 0.172294 -0.068185 -0.125701 -0.130480 -0.154595 0.119689 -0.029238 -0.023531 -0.109188 0.231994 0.033371 0.196929 -0.000048 -0.053976 0.031115 0.013160 0.105963 -0.132882 -0.102751 0.183981 0.149223 -0.057133
62 0.070634 -0.118115 -0.157143 -0.334295 0.117585 -0.115723 -0.097959 0.100442 0.087404 -0.079452 -0.018078 0.055465 -0.009688 0.151722 0.126776 -0.199809 0.031278 0.138548 0.098344 0.231351 -0.036161 -0.172080 0.054398 -0.213422 0.168329 0.035486 -0.310983 -0.018197 -0.009119 -0.237074 -0.014372 -0.109868 0.036320 -0.067891 -0.114948 0.177722 -0.051465 -0.074019 -0.032218 0.260420 0.174812 0.192984 0.024220 -0.223973 -0.102126 0.080890 0.088802 0.143261 0.043775 -0.131931 -0.180468 -0.020191 0.188656 0.447955 -0.112306 -0.049899 0.195533 0.051815 0.010826 -0.268153 0.159509 -0.149424 0.177366 0.024788 -0.261922 0.293677 -0.069645 -0.077842 0.113829 0.048280 -0.045802 -0.083854 0.041008 -0.123033 0.241943 -0.105853 0.148362 0.033120 -0.093091 -0.207844 0.341449 -0.089908 0.018557 0.047460 0.109269 -0.079557 0.300235 -0.059618 -0.079384 -0.248415 0.338974 0.070803 -0.136248 0.020398 0.052656 0.112025 -0.079830 -0.248280 0.220851 0.068351 0.011915 -0.041845 -0.023184 0.111151 -0.090819 0.068821 0.116048 0.108835 -0.120128 -0.142955 -0.056869 0.097180 -0.066176 0.172762 -0.084021 -0.016496 -0.135801 -0.129002 -0.000562 0.113539 0.254028 0.088202 -0.199085 0.024065 -0.145660 0.049271 0.059428 -0.218852
175 0.016453 -0.018985 -0.025569 -0.163399 0.156719 -0.209334 -0.173858 -0.326765 0.205599 0.050694 0.040858 -0.060618 0.131941 0.107335 0.173050 -0.195460 -0.082901 0.056502 0.082214 0.246875 -0.219510 -0.063468 -0.053242 -0.034986 -0.147817 0.100969 -0.093296 -0.130199 0.056502 0.079077 0.234971 -0.132642 -0.047946 0.094773 -0.317677 0.138718 -0.113807 0.027682 -0.140112 -0.089545 0.268069 0.326466 0.103070 -0.188776 -0.096778 -0.067879 -0.067380 -0.055103 0.138303 -0.003223 -0.241790 -0.025385 0.059970 0.009468 -0.142109 -0.114424 0.056221 0.036776 0.061089 -0.178405 0.161258 -0.495321 0.047364 -0.092502 -0.104797 0.202156 -0.294740 -0.106364 -0.271721 0.044986 -0.047906 -0.047679 0.255375 -0.068394 -0.089440 0.054317 0.193466 -0.198688 -0.148489 0.059098 0.252634 0.155913 0.064369 0.136937 0.120244 0.035046 0.035221 0.063561 0.079110 -0.175399 0.112745 -0.017502 -0.055146 0.098771 -0.016149 0.180631 -0.226492 -0.346313 -0.122769 0.021398 0.056148 -0.193008 0.031156 -0.252957 -0.029818 0.090750 0.109012 0.162305 0.159946 -0.315801 0.054358 0.237307 -0.086145 -0.063678 0.060580 0.069876 -0.293535 0.195974 -0.040699 -0.010648 -0.120797 0.082775 0.032454 0.255594 0.078433 0.243997 -0.222579 -0.129269
237 -0.056376 -0.242068 -0.056312 -0.205263 0.064923 -0.119514 -0.052916 0.066995 0.237421 0.055283 -0.135815 0.194763 0.019615 -0.020682 0.069294 -0.224152 0.063663 0.091065 0.052210 0.155332 -0.051320 0.148354 0.253450 -0.060543 -0.033574 0.091991 -0.046646 -0.122876 0.061482 -0.009276 0.095947 0.002473 0.067974 -0.188688 -0.180067 -0.109401 0.090546 -0.105120 0.144412 0.374465 0.046819 0.134661 0.273254 -0.019868 -0.207647 0.182088 0.111721 -0.268078 -0.017117 0.320161 -0.114016 0.059355 0.062594 0.269476 -0.234531 -0.161123 0.181816 -0.099416 -0.070472 0.081998 0.014892 -0.135135 0.040197 0.079859 -0.131681 0.147446 -0.241725 -0.099382 0.021552 0.049047 0.174149 0.073669 0.214572 -0.240572 0.136101 0.045371 0.014862 0.284306 0.065923 -0.056299 0.025338 0.126928 -0.054208 -0.028721 0.201830 0.016873 0.143742 -0.057192 0.037118 -0.039859 0.180887 0.194005 -0.056670 0.018046 -0.151147 0.158644 0.048115 -0.010938 0.068507 0.212855 -0.097759 0.100715 -0.040442 0.042041 -0.000195 0.181931 0.057211 -0.064504 0.009521 -0.142389 -0.008041 0.088838 -0.075462 -0.043330 -0.089801 0.117523 0.069106 0.173532 0.111658 0.013117 0.245316 0.098563 0.011750 -0.066942 -0.182027 0.190148 0.074726 -0.041444
203 -0.076553 -0.038747 -0.011132 -0.113599 -0.026238 -0.048692 -0.010888 0.056957 0.196408 0.037890 -0.005624 0.105048 -0.092502 -0.013102 -0.016218 -0.210950 0.070024 0.116867 0.239655 0.190670 -0.081038 0.156370 0.173699 0.041487 -0.127252 0.325767 0.001270 -0.240650 -0.030077 -0.076684 0.050647 0.055400 -0.023273 -0.148186 -0.153167 -0.025016 -0.085551 -0.203272 0.169487 0.278003 0.177209 0.106496 0.224358 -0.090093 -0.084645 0.039657 -0.005859 -0.267551 -0.010488 0.330617 -0.051417 0.010793 0.110959 0.169748 -0.258461 -0.325331 0.010614 -0.088714 -0.035253 0.059969 0.011146 -0.127422 0.065499 0.124813 -0.151866 0.074563 -0.051234 -0.299087 -0.078219 -0.149323 0.017254 -0.050473 0.226882 -0.261780 -0.030531 0.112229 0.121642 0.167495 -0.051642 -0.176512 0.043888 0.130784 0.002970 -0.064340 0.170668 0.069072 0.028541 -0.015553 0.094306 0.086470 0.369795 0.239207 -0.040151 0.281723 0.049764 0.071069 -0.007105 0.008258 0.056981 0.303667 0.046039 0.116747 0.126019 0.042146 -0.174530 0.224470 -0.055258 -0.016976 -0.182372 -0.151552 -0.147089 0.116367 -0.053514 -0.047109 -0.107744 0.083053 -0.074757 0.329548 0.037529 0.240144 0.056981 0.251372 -0.058794 -0.045096 -0.140497 0.259780 0.063981 0.152713
67 -0.032317 -0.156366 -0.109141 -0.346676 0.167410 -0.143541 -0.131341 -0.037115 0.332623 0.045404 0.073674 -0.020654 -0.127264 0.052414 0.242778 -0.004190 -0.065895 0.069646 0.128574 0.179404 -0.085589 -0.072481 0.154436 -0.192635 -0.277107 0.211728 0.016070 -0.116580 0.064104 0.103458 0.143834 -0.054150 -0.158116 -0.245517 -0.184920 0.031712 -0.099348 -0.030183 -0.136613 0.238685 0.332173 0.377951 0.261588 -0.152038 -0.097875 0.150353 0.023531 0.054116 -0.019211 0.259239 -0.147037 0.062560 0.192869 0.089034 -0.323478 -0.094496 0.071398 -0.179064 -0.000554 -0.099244 0.166050 -0.254891 -0.010927 -0.027172 -0.204013 0.149272 -0.091488 -0.281575 -0.128919 0.046040 0.137794 0.012837 0.237674 -0.089503 -0.085610 -0.034052 0.208583 -0.059486 -0.156583 -0.104243 0.273880 0.094900 -0.080682 0.185198 0.050651 -0.011207 -0.082581 -0.031171 0.235226 -0.105252 0.214696 0.107847 -0.130794 0.105850 0.193277 0.064809 -0.224205 -0.206086 -0.114945 0.106797 0.145668 0.100822 -0.028076 -0.102853 -0.007832 -0.105263 0.088821 0.035900 0.057939 -0.546665 0.018804 0.030248 -0.284313 -0.056290 0.062710 0.058928 -0.224590 0.257215 -0.029471 0.119350 -0.019219 0.095039 0.232736 0.263907 0.050508 0.135758 -0.258322 -0.055935
136 -0.143718 0.096118 -0.082917 -0.257008 0.120099 -0.210859 0.092561 0.029991 0.174504 -0.106291 0.100748 -0.004675 0.013576 0.151587 0.253635 -0.015386 -0.022663 -0.073404 0.065064 0.070780 -0.102320 0.161637 -0.065207 0.135118 -0.002177 0.276795 -0.106666 -0.021915 -0.235114 -0.148247 0.029422 -0.075523 -0.011600 -0.214890 -0.101394 0.059846 -0.138050 -0.095412 0.000817 0.201248 0.383578 0.157122 0.111005 -0.229080 -0.041544 -0.154567 0.159480 -0.043411 0.125283 0.160236 0.018908 0.108116 0.039259 0.323263 -0.156833 -0.313455 0.062059 -0.206585 0.140302 -0.307592 -0.112003 -0.263385 0.128842 0.138984 -0.122718 0.184076 -0.114649 -0.325540 -0.043406 -0.087426 0.171138 -0.103359 0.054918 0.001862 0.029322 0.008405 0.321776 -0.050087 -0.246813 -0.235262 0.174184 0.230492 0.022865 -0.030424 0.380653 -0.064385 0.064186 -0.064208 0.347331 0.008470 0.203773 -0.019019 -0.025521 0.392063 0.179618 0.119525 -0.040202 -0.028033 0.157735 -0.023733 0.071225 0.044967 0.081297 -0.006122 -0.183459 -0.001226 0.123981 0.092652 -0.043586 -0.136176 -0.121878 0.211879 -0.116179 0.094701 -0.079719 -0.087586 -0.086166 0.278116 0.016886 0.112773 0.155456 0.117478 -0.000460 0.085725 -0.080284 0.344674 -0.078561 -0.067583
63 0.004986 0.003376 -0.047547 -0.248334 0.121671 -0.190787 0.083151 0.147855 0.157258 0.131787 -0.082847 0.027891 0.074676 0.113614 0.193740 -0.055352 0.002708 -0.008730 0.013485 0.191306 -0.066522 -0.088295 0.088930 -0.052512 -0.053855 -0.000154 -0.199531 -0.068096 -0.062026 -0.100657 0.067194 -0.066113 0.035609 -0.088005 -0.232378 -0.029370 -0.021339 0.005265 -0.137342 -0.058881 0.122124 0.379296 0.247599 -0.182139 -0.111214 0.031938 0.099815 0.002129 0.186358 -0.012652 -0.254996 0.159638 0.161962 0.344855 0.021250 -0.183685 0.361410 0.079577 0.086159 -0.120765 0.145333 -0.272231 0.104677 -0.186887 -0.091264 0.369618 -0.138509 0.157232 -0.012483 0.083851 0.221988 -0.034080 0.176463 -0.007325 0.178650 -0.147992 0.167654 -0.045473 -0.044238 -0.094899 0.277436 -0.024512 0.047613 0.123166 0.120136 -0.056549 0.118445 -0.135382 0.165677 -0.121531 0.123125 -0.065265 -0.086482 0.147571 -0.060631 -0.072755 -0.096602 -0.332034 -0.084697 0.043260 -0.068430 0.060875 -0.031099 -0.114151 -0.077815 0.240151 0.131500 0.137075 0.051937 -0.247827 -0.037132 0.106219 -0.037795 0.109727 -0.014271 0.125989 0.016921 0.071372 0.123959 -0.024004 -0.011178 0.128047 -0.045605 0.120418 -0.139315 0.019914 0.104362 -0.100272
258 0.138789 -0.208198 -0.004294 -0.271337 0.036809 -0.065898 0.096734 0.041634 -0.121516 0.069982 -0.236439 -0.055902 0.335235 -0.109437 0.038583 -0.096640 0.173509 0.035097 0.172263 0.420392 -0.122054 -0.085881 0.180233 0.156183 -0.118963 0.073396 -0.148820 -0.255107 -0.187726 -0.328657 0.212609 0.112876 -0.055423 -0.296654 -0.518180 -0.111717 0.053419 0.186165 0.028750 -0.047124 0.116449 0.158938 0.074612 -0.066193 0.006268 -0.040470 -0.039932 0.310431 -0.055672 -0.075941 -0.104236 0.144030 -0.098549 0.082569 -0.238431 -0.323343 0.048090 0.004829 -0.065380 0.071822 -0.079505 -0.327494 0.027451 0.212832 -0.106950 0.312329 -0.421803 -0.012747 0.268652 0.171429 0.065005 -0.055111 0.223208 -0.016980 0.086702 -0.078399 -0.004402 0.057693 -0.091486 0.014838 0.201304 -0.046017 0.295218 -0.188721 0.091200 -0.034838 0.212968 -0.053267 0.042349 0.027117 0.345028 -0.017541 0.025694 0.114320 -0.111953 0.266805 0.199897 -0.279868 0.124638 0.173262 -0.096674 -0.359993 0.045940 0.132870 0.027432 0.206308 -0.080428 -0.082070 0.033408 -0.051156 -0.019980 0.251886 0.032267 -0.077004 0.271347 0.031312 -0.286034 -0.059546 -0.094105 -0.184108 0.087451 -0.020979 -0.019584 -0.026442 -0.048302 0.061926 0.038535 -0.377731
249 -0.102628 -0.092562 -0.254080 -0.191233 0.050367 -0.142733 -0.077653 0.194848 0.013349 -0.005870 0.175108 -0.038655 0.169367 -0.045657 0.310610 -0.167786 0.138340 0.080151 0.151952 0.489272 -0.051223 -0.211961 -0.039661 -0.181743 0.202313 0.066374 -0.199978 -0.009011 -0.101170 -0.328055 0.202979 0.132345 0.090460 -0.059355 -0.252618 0.136497 0.175370 0.120842 0.088379 0.214503 0.061203 0.054341 0.134913 -0.102279 0.005480 0.022004 0.126259 -0.021200 0.147621 0.040930 -0.044488 0.149939 0.122471 0.434315 -0.026526 -0.061204 0.287232 0.091754 0.074631 -0.296518 0.174151 -0.168922 0.088071 -0.043404 0.004260 0.304943 -0.166594 0.117785 0.066433 0.166168 -0.092849 -0.019201 -0.020156 -0.091675 0.222097 -0.095018 0.149263 0.246715 0.073850 -0.177627 0.329548 -0.153015 0.155909 -0.108709 0.225832 0.131785 0.229793 -0.075679 0.057442 -0.107592 0.183075 0.303024 -0.043077 -0.048999 -0.016358 0.039229 0.014243 -0.156209 0.191254 0.044757 -0.058671 -0.012795 0.043983 0.117042 -0.262759 -0.071497 0.061287 0.129000 -0.139888 -0.036178 0.097712 0.121485 -0.039762 0.241241 -0.061040 0.143784 -0.040458 -0.036787 -0.062862 -0.177106 0.278741 -0.033807 -0.022008 0.086679 -0.224303 0.221765 0.084443 -0.110944
96 -0.055615 0.050412 -0.059722 -0.404725 0.175431 -0.353269 -0.050270 0.082688 0.295007 0.056109 0.003925 0.010686 -0.007075 0.075353 0.248759 0.045709 -0.027797 -0.003642 -0.009938 0.121149 -0.014947 0.054509 0.074052 -0.058408 -0.075850 0.022262 -0.048565 -0.023265 -0.038040 -0.032957 0.192854 -0.168114 0.066595 -0.156675 -0.239432 0.043782 -0.006458 -0.033611 0.029387 0.031469 0.253312 0.330150 0.046424 -0.085914 -0.083811 -0.276546 0.234214 -0.036959 0.241178 0.071247 -0.069339 0.144217 0.199732 0.551479 0.125379 -0.103831 0.290898 -0.005765 0.013508 -0.211852 0.030871 -0.268172 0.233827 -0.164728 -0.131826 0.306830 -0.205099 0.056896 -0.016999 0.184599 0.259249 -0.063743 0.180357 -0.052395 0.237078 -0.170252 0.264648 -0.093146 -0.046049 -0.195221 0.128847 0.062536 0.096240 -0.011449 0.329884 -0.054715 0.042310 -0.006688 0.330458 -0.181558 -0.037497 -0.045447 -0.127434 0.237215 0.045481 -0.053607 -0.080754 -0.165350 0.051040 0.007391 -0.082700 0.027180 -0.052430 -0.156273 -0.052526 0.106757 0.131072 0.184591 0.060246 -0.312965 -0.057286 0.015038 -0.088068 0.162190 -0.028626 -0.095543 0.048601 0.193143 0.133802 0.008745 0.194225 -0.008527 0.160354 0.005657 -0.141426 0.219467 -0.049507 -0.036240
59 -0.033392 -0.179923 -0.140636 -0.238413 0.092254 -0.010095 0.058957 0.140063 0.063236 0.053957 -0.161959 0.069539 0.031549 0.134720 -0.058831 -0.249760 0.167569 0.056598 0.214249 0.312663 0.024026 -0.143931 -0.023141 -0.033715 0.120237 0.015176 -0.221818 -0.084540 0.040223 -0.246910 -0.080263 0.082310 0.113179 -0.080786 -0.113442 0.078814 -0.046854 -0.088460 0.051323 0.129845 0.051738 0.158306 0.093000 -0.193574 -0.099354 0.080893 0.024298 -0.146419 0.167087 -0.079391 -0.118031 0.046045 0.093615 0.510929 -0.084073 -0.198645 0.332638 0.200696 -0.006969 -0.238457 0.019850 -0.115576 -0.004524 0.083083 -0.151630 0.345143 -0.061914 0.107513 0.256022 -0.013549 -0.014384 0.013184 0.201913 -0.146742 0.385697 -0.044222 -0.013318 0.264593 0.003067 -0.125242 0.260732 -0.057102 -0.003583 -0.059902 0.257453 -0.018251 0.307137 -0.040953 -0.191115 0.026247 0.366427 0.113342 -0.047787 0.089528 -0.086812 0.091071 0.105595 -0.145382 0.218881 0.115360 -0.136389 -0.029568 -0.114153 0.034096 -0.011657 0.324135 0.106072 0.127934 -0.064314 0.036382 0.039600 0.058065 0.006845 0.132836 -0.091747 0.188961 0.037641 -0.000926 0.060487 0.058996 0.235195 0.109701 -0.248223 -0.057955 -0.316565 0.156157 0.203228 0.024690
150 -0.110510 -0.112376 -0.057901 -0.258343 0.258102 0.032475 0.067167 -0.297338 0.238886 0.092290 0.210968 -0.035247 -0.044058 0.113620 0.071065 -0.191811 0.064777 -0.024805 0.163249 0.425531 -0.198136 -0.158137 -0.008646 -0.260217 -0.087172 0.254674 0.009095 -0.036095 0.027672 -0.022411 0.088543 0.007312 -0.036278 -0.081899 -0.061911 0.204198 -0.163255 -0.094596 -0.025098 0.121260 0.263083 0.317767 0.206850 -0.259132 -0.018956 0.045729 -0.042646 -0.140940 0.197281 0.132597 -0.148137 0.034453 -0.021533 0.001296 -0.250355 -0.156529 0.059773 -0.213551 0.161410 -0.284682 0.068964 -0.313285 -0.029156 0.011892 -0.017429 0.049355 -0.144632 -0.042688 -0.225075 -0.063176 -0.182484 -0.201941 0.180945 -0.216901 -0.176385 0.051619 0.206923 0.125536 -0.132127 -0.250220 0.300169 0.069575 -0.022850 0.033827 0.117297 0.012552 -0.052344 -0.056608 0.184803 0.063539 0.140807 0.066087 0.011129 0.249526 0.183704 0.124196 -0.170945 -0.034550 -0.130821 0.205530 0.233848 -0.046204 -0.004418 -0.251655 -0.086893 0.064685 0.090994 0.247389 0.056741 -0.181730 0.123609 0.129431 -0.191029 -0.184155 -0.049169 0.236514 -0.302520 0.158466 0.065450 0.085068 -0.125282 0.094412 0.093310 0.214907 -0.000867 0.175985 -0.216131 0.018221
171 -0.037164 -0.281128 -0.092842 -0.273401 0.044604 -0.123108 -0.240777 0.019772 0.270685 0.026492 0.028318 0.230813 -0.130641 0.123602 0.142066 -0.143397 -0.024700 0.202028 0.191566 0.173212 0.020342 0.029025 0.255244 -0.272522 -0.228229 0.218246 -0.037337 -0.176489 0.179399 0.164175 0.131956 0.007315 -0.074044 -0.126152 -0.204304 -0.012313 -0.009639 -0.108537 -0.028365 0.401486 0.221308 0.189668 0.310733 -0.067979 -0.209558 0.255383 -0.009107 -0.084974 -0.107964 0.313803 -0.065633 -0.043996 0.219781 0.144008 -0.359417 -0.075720 0.063003 -0.141041 -0.130423 0.094241 0.166273 -0.180382 0.009253 0.074059 -0.202829 0.116356 -0.109934 -0.346127 -0.061308 -0.039838 0.115029 0.082626 0.300727 -0.307668 -0.025036 0.036715 0.097846 0.035791 -0.095604 -0.056381 0.178604 0.036072 -0.141977 0.079094 0.070755 -0.021630 0.056298 0.002674 0.200819 -0.144753 0.368046 0.333296 -0.131945 -0.007487 0.072156 0.113928 -0.183388 -0.141158 -0.016877 0.236111 0.039851 0.094993 0.022950 0.035738 0.005079 0.043158 0.023819 -0.044231 -0.079380 -0.451585 -0.074568 0.003414 -0.122692 -0.042366 -0.054781 0.155300 -0.108750 0.268646 -0.128345 0.206593 0.140138 0.093039 0.146562 0.143924 -0.068682 0.151339 -0.127845 -0.032825
53 0.171821 -0.132111 -0.042148 -0.142107 0.098877 -0.094586 -0.070786 0.048174 0.001672 -0.035157 -0.047948 0.094103 0.122921 -0.001486 0.118295 -0.301151 0.069888 0.102244 -0.121204 0.186991 -0.161885 -0.065758 0.151638 -0.225384 0.106156 0.045444 -0.129425 -0.049712 0.029714 -0.278188 0.010360 -0.194418 0.000928 -0.072453 -0.109771 0.089221 0.074209 -0.110582 0.068218 0.133408 -0.006757 0.240850 0.147551 -0.153289 -0.207906 0.034365 0.095640 0.139177 0.012567 -0.063671 -0.237857 -0.011057 0.177739 0.157664 -0.063570 -0.142882 0.199819 0.027874 -0.000735 -0.060179 0.052095 -0.222538 0.185629 -0.215090 -0.177260 0.155049 -0.231443 0.011934 -0.136535 0.101518 -0.137061 -0.197484 0.118527 -0.191877 0.149026 -0.036264 0.137474 0.008505 0.002999 -0.151990 0.208405 -0.054967 -0.023114 0.054930 -0.005459 0.044605 0.397895 -0.154364 -0.031104 -0.254599 0.091805 -0.168195 -0.163353 0.031538 -0.047871 0.041856 0.000039 -0.266739 0.129939 0.196315 0.191536 -0.072048 0.104623 -0.074941 -0.160846 0.126626 0.280396 0.061010 -0.087130 -0.063442 -0.075725 0.198320 -0.117565 -0.016825 -0.181741 0.112678 -0.287356 -0.213242 0.102387 0.038295 -0.018577 0.044167 -0.266199 -0.104755 0.009602 -0.136673 0.072445 -0.163248
33 0.003136 -0.390346 -0.072342 -0.255969 0.151905 -0.180041 -0.266291 0.033530 0.276848 0.024278 -0.028712 0.135548 -0.060758 0.047748 0.238565 -0.074364 -0.048537 0.131775 0.104368 0.180755 0.037334 0.058341 0.273789 -0.284441 -0.301738 0.126767 0.016544 -0.092125 0.084742 0.131660 0.215076 0.010578 -0.110785 -0.188661 -0.164333 -0.013852 0.087349 -0.008935 -0.142591 0.293502 0.239262 0.382360 0.350214 -0.045350 -0.233433 0.214545 0.020404 0.014372 -0.151444 0.227438 -0.104295 0.042275 0.201195 0.022957 -0.356475 -0.043961 0.054396 -0.051387 -0.126413 0.085433 0.183433 -0.253827 -0.032240 -0.038291 -0.237826 0.004319 -0.181041 -0.228867 -0.104069 0.099555 0.091627 0.044604 0.183986 -0.258139 -0.080064 0.020162 0.159511 0.014530 -0.113640 -0.080571 0.240917 0.038666 -0.060832 0.078118 0.014332 0.124036 0.055315 -0.006030 0.255024 -0.140974 0.233954 0.197782 -0.115225 -0.043922 0.140502 0.097208 -0.174353 -0.206409 -0.148318 0.194489 0.117662 -0.000776 0.037577 -0.049106 -0.031459 -0.011047 0.075540 -0.086107 0.036819 -0.536296 -0.000172 0.002330 -0.189097 -0.192505 -0.018084 0.138275 -0.289581 0.189081 -0.128970 0.123234 0.071330 -0.041144 0.213680 0.220425 0.017965 0.070546 -0.252909 -0.052936
251 -0.025413 -0.208069 0.059694 -0.392845 0.406597 0.218807 0.154147 -0.263497 0.227557 0.069906 0.087770 0.092162 -0.141910 0.115951 -0.112998 -0.205743 0.131104 -0.027395 0.103031 0.409512 -0.084690 -0.159487 0.034509 -0.325097 -0.070597 0.076627 0.155813 0.050649 0.200334 -0.144162 -0.051830 0.036195 0.009702 -0.116575 0.039690 0.293098 -0.229546 -0.203620 0.039201 -0.062047 0.208806 0.376831 0.076867 -0.328690 0.014382 -0.021312 0.002871 -0.082338 0.218363 0.007012 -0.201052 -0.030090 -0.000539 0.249746 -0.207916 -0.144779 0.031357 -0.111894 0.199418 -0.230595 -0.018262 -0.227090 -0.004844 0.031198 -0.097768 0.049528 -0.134782 0.043830 -0.105571 -0.165380 -0.218616 -0.341115 0.316428 -0.269464 0.104934 0.028934 0.176230 0.136986 -0.141336 -0.422165 0.275846 0.028315 -0.097166 -0.065662 0.122669 0.063112 0.075806 -0.046229 0.220723 -0.008956 0.168698 -0.087570 0.012264 0.342974 0.183098 0.118701 -0.079606 0.024168 -0.124984 0.379479 0.235542 -0.092721 -0.103621 -0.417253 0.049383 0.372000 0.146074 0.347319 0.039691 -0.097510 0.100654 0.046453 -0.074913 -0.241764 -0.079747 0.200925 -0.294811 0.025525 0.151801 0.226753 -0.190981 -0.066470 0.067597 0.118619 -0.044994 0.118819 -0.173470 0.064308
93 0.076703 -0.097592 0.107032 -0.259556 0.164053 -0.172258 -0.031990 0.121459 0.215779 0.128072 -0.146799 -0.051458 0.011042 -0.103003 0.079080 -0.061837 -0.069088 -0.010386 0.023100 0.143706 -0.130989 0.070681 0.170256 0.091552 -0.165434 -0.102399 0.017733 -0.142979 0.103767 -0.140569 0.073459 -0.122638 0.088820 -0.239565 -0.218786 -0.149404 -0.051280 0.010819 0.005151 -0.209769 0.124548 0.406981 0.159145 -0.008821 -0.060716 -0.081266 -0.016120 -0.118281 0.189246 0.013215 -0.194957 0.144877 0.138175 0.420625 0.111083 -0.244042 0.173713 0.181707 0.039694 -0.068127 0.126139 -0.270505 0.207502 -0.265810 -0.164962 0.271723 -0.214394 0.139390 0.019198 0.037706 0.039981 -0.056754 0.110864 -0.019109 0.114124 -0.086709 0.220687 -0.058867 -0.070957 -0.250339 0.095065 0.130270 0.075187 0.070384 0.042053 0.079191 0.033618 -0.100739 0.126091 -0.091720 0.119015 -0.163059 0.038889 0.171424 -0.109240 -0.035255 0.043246 -0.246287 -0.087532 0.135053 -0.038925 0.043990 -0.101499 -0.301197 -0.070938 0.341758 0.034223 0.056072 0.095051 -0.276577 -0.041482 -0.011810 -0.051288 -0.109075 0.058292 0.033447 -0.083953 0.197631 0.217733 0.050572 -0.027659 0.092551 -0.047074 -0.008490 -0.200213 0.053729 -0.015350 0.069333
208 -0.073025 -0.189089 0.012615 -0.051489 -0.031447 -0.088938 -0.245328 -0.088876 0.164493 -0.037162 0.111356 0.112946 0.099845 -0.073767 0.284206 -0.204282 0.012720 0.034781 -0.043809 0.261526 -0.147583 0.039614 0.143296 -0.177567 0.157174 0.015146 0.009651 -0.043224 0.222201 0.000011 0.156780 -0.211679 0.175334 -0.101272 -0.219419 -0.078068 0.212520 -0.125514 0.120988 0.204540 0.143303 -0.064975 0.301827 0.018048 -0.057566 0.281903 -0.078170 -0.125726 0.096051 0.157151 -0.088945 0.082426 0.202915 0.344877 -0.230656 0.026272 0.086271 0.056564 0.075747 -0.079121 0.273523 -0.330743 0.128553 -0.055350 -0.093366 0.198629 -0.257381 -0.281863 -0.070106 0.027132 -0.176845 0.079795 -0.052244 -0.095693 0.223251 0.146409 -0.059596 0.330023 0.027120 -0.181262 0.178876 0.135190 -0.135716 0.047341 0.213216 0.090361 0.139660 -0.059673 0.287449 -0.179132 0.243010 0.298660 -0.033433 -0.163440 -0.164461 0.115027 0.006276 -0.082582 0.134876 0.173202 -0.052826 0.083673 -0.028140 -0.073896 -0.101667 0.014138 0.142965 -0.019025 -0.088126 -0.383382 -0.046576 -0.048096 -0.212866 0.073474 -0.067406 0.216787 -0.048642 0.183236 -0.067814 -0.150311 0.178074 0.057111 0.060920 -0.026400 0.008556 0.260100 -0.090020 -0.043611
97 -0.027078 0.111715 -0.049686 -0.421757 0.224479 -0.338280 0.010951 0.077570 0.251837 0.019635 0.005394 0.016866 0.046315 0.048032 0.267835 0.019798 -0.023909 -0.019728 -0.023369 0.104962 -0.050109 0.058606 0.013416 -0.012295 -0.097496 0.032912 -0.014825 -0.001454 0.005387 -0.154367 0.121774 -0.149721 0.080123 -0.164321 -0.206564 0.045689 -0.071021 -0.026229 0.075791 -0.024794 0.294960 0.302584 0.019555 -0.130690 -0.004802 -0.311179 0.245865 0.020037 0.219733 0.038064 -0.028580 0.117212 0.193766 0.582943 0.169439 -0.135764 0.282484 0.019028 0.074079 -0.218286 -0.017890 -0.216293 0.220279 -0.203101 -0.140164 0.325401 -0.153098 0.040360 -0.013299 0.123893 0.211338 -0.092555 0.182573 -0.052807 0.304347 -0.181561 0.267523 -0.097924 -0.075960 -0.259470 0.171358 0.108188 0.146496 -0.003440 0.316747 0.009396 0.033526 0.006549 0.301684 -0.227024 -0.045906 -0.077231 -0.157718 0.313328 0.079994 -0.053467 -0.096193 -0.171549 0.057188 0.002673 -0.021483 0.015759 -0.036944 -0.200900 -0.043962 0.144810 0.218352 0.239194 0.027671 -0.278531 -0.039563 -0.007453 -0.085026 0.208075 -0.044858 -0.074804 0.030864 0.185539 0.209519 0.026768 0.108505 -0.001712 0.115993 0.005112 -0.101157 0.201069 -0.059917 -0.005932
207 -0.028533 -0.000563 -0.079623 -0.243726 0.058235 -0.123469 -0.082800 0.008467 0.087019 -0.022001 0.081819 0.057225 0.063001 0.139440 0.207282 -0.188027 0.012399 0.088075 -0.027906 0.200006 -0.063336 -0.100571 0.012259 -0.178555 0.202931 0.058169 -0.231880 0.025334 0.072826 -0.227922 0.018382 -0.220627 0.107949 0.024925 -0.141839 0.136707 0.017152 -0.105746 0.093675 0.264327 0.167992 0.107354 0.059213 -0.185632 -0.064635 0.000800 0.064665 0.029846 0.144173 -0.049527 -0.102870 0.003709 0.209502 0.472939 -0.044928 -0.039780 0.277924 0.031558 0.075649 -0.252458 0.111569 -0.223491 0.216588 -0.053985 -0.154784 0.346929 -0.149555 -0.068053 0.046542 0.089730 -0.033126 -0.110825 0.080000 -0.113356 0.318796 -0.042677 0.116457 0.105349 -0.004910 -0.221713 0.233608 -0.031242 -0.020478 0.004814 0.265751 -0.071503 0.266682 -0.081343 0.127019 -0.226616 0.177139 0.125189 -0.154096 0.027276 -0.043510 0.085130 -0.071060 -0.138808 0.216458 0.112452 -0.029965 -0.013968 0.030030 0.048603 -0.143180 0.089506 0.189030 0.162895 -0.110277 -0.123034 -0.056978 0.095698 -0.103281 0.264547 -0.110252 0.064193 0.001210 -0.004330 0.044963 0.034294 0.264629 0.103016 -0.176517 -0.004706 -0.118041 0.147612 0.111049 -0.113182
54 -0.021510 -0.161061 -0.333337 -0.143791 0.095361 -0.119384 0.051590 0.000294 0.071333 -0.092549 -0.001933 0.067624 0.214104 0.044873 0.075092 -0.329005 0.245541 0.060602 0.190507 0.268027 -0.133004 -0.222614 -0.222165 -0.010880 0.154864 0.184855 -0.139672 -0.141089 0.000330 -0.190506 -0.073251 0.097332 0.049034 -0.049403 -0.060328 -0.025505 -0.086691 -0.116102 0.051614 0.176835 -0.010549 0.093269 0.175408 -0.176027 -0.109051 0.102951 -0.010019 -0.000900 0.233205 0.077551 -0.056437 0.071773 0.181797 0.253605 -0.118419 -0.213151 0.262403 0.005171 0.073625 -0.290151 -0.035909 -0.153259 -0.229205 -0.098989 0.052016 0.200853 -0.071292 -0.084999 0.076881 -0.000257 -0.121213 0.104962 0.261870 -0.058256 0.191494 -0.004775 -0.008977 0.122521 -0.051651 0.049858 0.230800 -0.032288 -0.141326 0.102844 0.187020 -0.040256 0.326011 -0.121310 -0.290967 0.034752 0.285501 -0.009822 -0.099077 -0.007959 -0.111501 0.048730 0.093894 -0.299675 0.194575 -0.060860 0.065764 -0.034402 -0.061201 -0.005290 -0.006493 0.041590 0.264397 0.176735 -0.002394 0.044646 0.111273 0.150806 -0.010467 0.151957 -0.099749 0.339503 -0.095321 -0.134395 -0.031127 -0.143130 0.001474 0.170069 -0.196092 0.003063 -0.178431 0.077429 0.113395 -0.010962
123 -0.025884 -0.048282 0.044676 -0.229013 -0.073133 -0.022828 -0.017873 -0.115653 0.184244 -0.008416 0.008298 0.353598 0.053385 -0.097584 -0.000167 -0.277518 0.206111 0.202398 0.064755 0.109774 -0.023747 0.016324 0.296877 -0.154445 0.020252 0.259414 0.089291 -0.264057 0.142232 0.070888 0.157386 -0.050085 -0.021586 -0.044942 -0.321730 0.039889 0.009188 -0.277884 0.276696 0.418160 0.041659 -0.054247 0.126754 -0.065089 -0.113102 -0.000494 0.101449 -0.053676 0.038756 0.381394 -0.021284 -0.144685 0.202388 0.241341 -0.314228 -0.132900 -0.060115 -0.236874 -0.079736 0.266778 -0.078280 -0.122075 0.064127 0.198445 0.006008 0.103915 -0.185854 -0.358366 -0.132220 -0.025525 0.124951 -0.041879 0.505425 -0.273649 0.157856 0.104450 -0.039791 0.073712 0.124880 -0.021485 -0.094585 0.023876 -0.132697 -0.125143 0.162995 -0.090288 0.179634 0.039957 0.205764 -0.163479 0.240813 0.279562 -0.236048 0.073872 -0.150548 0.077034 -0.003986 -0.073507 0.183945 0.381913 -0.040149 0.009496 0.049166 0.089391 0.084016 0.182679 0.110688 0.065573 -0.167752 -0.137402 -0.168508 0.214204 0.101535 0.159418 -0.060940 0.092595 0.089955 0.085323 -0.118424 0.048333 0.057305 0.001632 0.158476 -0.189162 -0.020592 0.183113 0.099999 -0.118655
52 0.010857 -0.127583 -0.154649 -0.156956 -0.016292 -0.133367 -0.075970 0.094880 0.093917 0.071168 -0.089120 -0.045259 0.058987 0.054608 0.032730 -0.294135 0.078365 0.154660 0.138159 0.300069 -0.076041 -0.188258 0.077967 -0.102834 0.132054 0.080287 -0.314449 -0.114119 -0.038212 -0.251598 0.095685 -0.058288 0.033856 -0.005947 -0.190280 0.161571 -0.011780 -0.031920 0.030781 0.361831 0.055630 0.205628 0.079616 -0.177693 -0.186455 0.059160 0.044031 -0.087755 0.046598 -0.016725 -0.187551 0.040704 0.205287 0.292782 -0.158894 -0.075632 0.231750 0.131884 -0.067256 -0.168478 0.124895 -0.154031 0.059981 0.050302 -0.204242 0.271337 -0.126057 0.066666 0.097440 0.146483 -0.012212 -0.042048 0.138881 -0.123410 0.214706 -0.083966 0.066876 0.125739 0.078907 -0.057209 0.228299 -0.064264 0.075355 -0.031899 0.126729 -0.011643 0.294658 -0.010886 -0.285517 -0.033013 0.298182 0.163924 -0.116223 -0.040928 -0.079638 0.083631 -0.035946 -0.204626 0.237437 0.112622 -0.063591 -0.073947 -0.093034 0.164133 -0.081002 0.112844 0.071857 0.045217 -0.093694 -0.067194 0.044677 0.219762 -0.036106 0.162308 -0.021409 0.032494 -0.085283 -0.058501 -0.040476 0.017776 0.261782 0.114480 -0.265379 -0.034322 -0.189623 0.092215 0.145655 -0.131092
86 0.050050 -0.306481 0.130393 -0.067382 -0.048851 -0.034328 -0.020533 -0.096932 0.133411 0.189569 -0.083736 0.229528 0.322620 -0.137852 0.038877 -0.145994 0.023233 0.076814 -0.056886 0.257039 -0.074797 0.091150 0.243697 -0.151630 -0.035920 0.095048 0.028846 -0.118823 0.008914 -0.105473 0.319570 -0.037994 0.076249 -0.131099 -0.317986 -0.026398 0.197208 -0.014727 0.185111 0.175713 -0.077628 0.088400 0.217783 0.022361 -0.260220 0.025331 0.049686 -0.071890 0.022747 0.117321 0.004409 0.158135 0.112324 0.082336 -0.249891 -0.082222 0.006122 -0.008942 -0.114764 0.229901 -0.084978 -0.183880 -0.131781 0.126888 -0.080395 0.024654 -0.458454 -0.066755 -0.000100 0.181311 0.064503 -0.105880 0.304364 -0.207715 0.092465 -0.024143 -0.057773 0.137697 0.114486 -0.012384 -0.017654 0.099015 0.084444 -0.272696 0.108472 0.095418 0.281247 -0.000897 0.318354 0.018027 0.211240 0.142321 0.034550 0.085688 -0.185309 0.156340 0.068872 -0.028625 0.142671 0.271717 -0.054139 -0.324984 -0.127441 0.008998 0.132028 0.240736 0.117654 -0.077009 0.048847 -0.153646 -0.023472 0.248284 0.044212 -0.093130 0.059196 0.149815 -0.210302 0.028349 -0.118390 -0.097381 0.110775 -0.238119 0.057422 -0.191486 -0.004779 0.110453 0.005758 -0.202060
193 -0.015782 0.158351 -0.229745 -0.234417 0.039784 -0.244810 -0.146531 -0.104345 0.157994 -0.139073 0.150731 -0.099363 0.141627 -0.123761 0.216961 -0.210173 0.078472 0.124405 0.011690 0.067225 -0.159849 -0.116445 -0.179291 0.079880 0.175397 0.226827 -0.073495 -0.109515 0.008413 -0.160637 0.144277 -0.202226 0.016291 -0.001735 -0.243429 0.086929 -0.117964 -0.105386 0.190735 0.281436 0.135877 0.129995 -0.129085 -0.108211 -0.007532 -0.259621 0.035427 0.097029 0.272270 0.144434 0.047311 -0.025065 0.275711 0.392127 0.006861 -0.088725 0.067361 -0.085009 0.054408 -0.320035 -0.020889 -0.280609 0.072804 -0.138199 -0.034173 0.282439 -0.232831 -0.242251 -0.019850 0.193643 -0.100499 -0.015813 0.291166 0.056417 0.224292 -0.035863 0.225743 -0.121627 0.004391 -0.022012 0.022559 0.052278 -0.012936 0.040499 0.319094 -0.110271 0.224353 0.000751 -0.079952 -0.165593 0.067558 -0.021820 -0.212992 -0.011752 -0.112798 0.091011 -0.007276 -0.250517 0.267815 -0.035110 0.002668 -0.078779 0.043050 0.030580 -0.078157 -0.126950 0.220170 0.197430 0.020504 -0.087233 0.012454 0.229588 -0.090157 0.323026 0.037939 -0.052169 -0.101391 -0.060063 -0.044847 -0.140723 0.116932 0.112903 -0.031573 -0.021996 -0.104248 0.246737 -0.005383 -0.083283
70 0.005068 -0.258627 -0.138887 -0.373345 0.187187 -0.168242 -0.174799 0.006599 0.251232 -0.040735 0.021139 0.083674 -0.081500 0.066690 0.207461 -0.068218 -0.008411 0.137460 0.166022 0.169178 0.012993 -0.055842 0.136522 -0.246178 -0.227347 0.211289 -0.032673 -0.100198 0.049587 0.007639 0.133657 0.022749 -0.132572 -0.210850 -0.108086 0.048191 -0.098395 -0.009236 -0.127339 0.304213 0.298867 0.344257 0.191793 -0.139089 -0.117894 0.111702 0.042865 0.125375 -0.083260 0.164751 -0.054877 -0.010045 0.233591 0.118617 -0.298231 -0.079454 -0.000366 -0.125630 -0.064754 -0.051228 0.094490 -0.168605 -0.033505 -0.022866 -0.206042 0.071146 -0.053633 -0.297014 -0.029069 0.019484 0.081082 -0.002859 0.225346 -0.207957 -0.049761 -0.051809 0.227428 -0.116019 -0.201442 -0.148704 0.280537 0.025286 -0.014319 0.087074 0.020574 0.010029 0.047975 -0.009525 0.157896 -0.115346 0.298791 0.138817 -0.121831 0.070010 0.214638 0.099594 -0.203298 -0.232608 -0.059098 0.096582 0.166725 -0.011081 0.015638 -0.010448 -0.005069 -0.054279 0.067752 0.031700 -0.007212 -0.459053 -0.011573 0.037110 -0.135514 -0.052672 0.026223 0.057975 -0.296204 0.148266 -0.099887 0.163256 0.041782 0.011547 0.182182 0.257126 -0.022851 0.073695 -0.211618 -0.094363
108 -0.113317 0.027348 -0.052134 -0.216146 0.146873 -0.123542 0.133882 -0.075297 0.155745 -0.087478 0.060798 -0.026518 0.028741 0.131260 0.150483 -0.075767 -0.034147 -0.120050 0.062099 0.112854 -0.162836 0.110276 -0.068908 0.169448 0.006167 0.258818 -0.135871 -0.030218 -0.242618 -0.156081 0.027747 -0.073783 -0.032773 -0.258859 -0.088355 0.063930 -0.207971 -0.063697 -0.090933 0.119157 0.371098 0.220908 0.123224 -0.278960 -0.070298 -0.055001 0.063158 -0.029182 0.109115 0.096719 -0.101368 0.091273 -0.026691 0.197663 -0.280995 -0.334877 -0.047347 -0.245747 0.176426 -0.322137 -0.144662 -0.349989 0.050123 0.208221 -0.126743 0.129551 -0.160041 -0.354012 -0.060256 -0.136911 0.111677 -0.123417 0.054957 0.049320 -0.068620 0.072747 0.319606 -0.084322 -0.292800 -0.228321 0.188401 0.257982 0.011884 -0.021173 0.306729 -0.060972 0.074201 -0.091202 0.273294 0.090411 0.266773 -0.088920 0.040201 0.378000 0.154062 0.230966 -0.028542 -0.060841 0.134591 -0.048299 0.118409 -0.047139 -0.010213 -0.057015 -0.112743 0.032422 0.076269 0.053180 0.032677 -0.144398 -0.079124 0.302877 -0.085885 -0.062892 0.024621 -0.070926 -0.229915 0.244042 -0.022646 0.119645 0.077631 0.102642 -0.050725 0.151694 -0.020173 0.294319 -0.135519 -0.146026
236 -0.060410 -0.291038 -0.009730 -0.103164 0.098933 -0.190838 -0.118605 0.003054 0.214553 0.005333 -0.323318 0.048301 0.144608 -0.297947 0.093005 -0.394988 0.165724 0.117221 -0.015536 0.123238 -0.098740 0.225904 0.322648 0.071424 -0.081421 0.096387 -0.060775 -0.142041 0.033733 -0.268338 0.190856 -0.001520 0.015298 -0.201068 -0.119484 -0.052149 0.127267 -0.019783 0.247063 0.643714 0.029292 0.271318 0.191319 -0.037081 -0.206102 0.075170 0.106844 -0.326882 -0.212376 0.361882 -0.156408 -0.028683 0.069912 0.150288 -0.293507 -0.143210 0.063221 0.033120 -0.076485 0.220374 -0.148451 -0.100217 0.016854 0.054329 -0.197710 0.089374 -0.293518 -0.018346 -0.019293 0.184162 0.144550 0.031882 0.194321 -0.304496 0.190368 0.111367 0.050883 0.373379 0.212865 -0.054513 -0.010585 0.233616 0.186346 -0.111395 0.155390 0.291997 0.175797 -0.030640 -0.255393 -0.026836 -0.001246 0.211040 -0.194488 -0.124602 -0.194311 0.263344 0.069688 0.007248 0.060676 0.274146 -0.025662 -0.013753 0.011859 0.069275 -0.019532 0.216544 0.135074 -0.138343 0.060183 -0.081870 0.127063 0.238560 -0.028934 -0.091743 -0.002142 0.024323 -0.079129 0.134650 0.215906 -0.101974 0.214414 0.034750 -0.087264 -0.016636 -0.178911 0.233622 0.149917 -0.080203
194 -0.036658 -0.007153 -0.088731 -0.204386 0.124832 -0.033813 0.075503 0.060979 0.052201 0.008971 0.023161 -0.133064 -0.012107 0.000969 0.096135 -0.013938 0.049598 -0.013447 0.232868 0.210327 -0.099960 0.034867 -0.086224 0.077618 -0.261241 0.327077 0.014423 -0.118455 -0.084821 -0.286166 -0.044314 0.085092 -0.112083 -0.277629 -0.115188 -0.008894 -0.187247 -0.022728 -0.020110 0.105764 0.354279 0.291556 0.171559 -0.192891 0.039069 0.015277 -0.059747 0.035845 -0.043727 0.134179 -0.003763 0.084236 0.035631 0.095242 -0.259152 -0.356652 0.038096 -0.054864 0.075297 -0.182238 -0.035629 -0.196826 -0.047194 0.042896 -0.193883 0.173787 -0.000786 -0.231850 0.077532 -0.039030 -0.033378 -0.092688 0.148702 -0.123964 0.002554 -0.009838 0.238291 0.073144 -0.239407 -0.266842 0.307160 0.126053 0.157684 0.002921 0.185638 0.092735 -0.049683 -0.054724 0.121629 0.157505 0.309113 0.050599 -0.065973 0.346038 0.205685 0.116621 -0.080586 -0.082446 -0.037109 0.130916 0.189377 0.007293 0.125005 -0.049248 -0.184400 0.107092 0.025208 0.045720 -0.053465 -0.234412 0.004896 0.061837 -0.210354 -0.066568 0.054666 0.103940 -0.307772 0.294077 0.112576 0.192573 -0.073250 0.235280 -0.062990 0.184775 -0.020182 0.201497 -0.126423 0.103117
128 0.115178 -0.078210 0.044893 -0.152640 0.025771 -0.121049 -0.065049 -0.013744 0.165159 0.077727 -0.316630 -0.090377 -0.038254 -0.060337 -0.196816 -0.489140 0.049249 0.224308 0.140836 0.195544 -0.197957 -0.015666 0.232173 0.024177 0.088632 0.063190 -0.356403 -0.215655 -0.028807 -0.396278 0.009869 -0.173214 0.040760 -0.033277 -0.117798 0.285524 -0.202513 -0.128737 0.141154 0.461290 0.070963 0.329003 -0.069443 -0.274315 -0.227024 -0.081104 0.062154 -0.320695 -0.088139 -0.041685 -0.368577 -0.115243 0.166539 0.320087 -0.176564 -0.139490 0.041399 0.162747 -0.082945 -0.022892 -0.006901 -0.081039 0.241690 0.136772 -0.373954 0.184493 -0.112637 0.096845 -0.002342 0.016579 -0.023363 -0.243476 0.173280 -0.264243 0.185403 -0.019908 0.172355 0.122563 0.102603 -0.176778 0.112671 0.133406 0.226731 -0.103708 0.032210 0.103105 0.260722 0.015995 -0.571941 -0.089227 0.274805 0.058572 -0.136999 0.129073 -0.045749 0.191676 -0.057019 -0.124946 0.285862 0.241137 -0.005362 -0.127699 -0.129552 0.063173 -0.057572 0.368952 0.017938 0.045336 -0.092793 0.030127 -0.004037 0.398563 0.061191 0.021110 -0.058586 -0.209726 -0.144567 -0.001085 0.223264 0.296006 0.225028 0.194428 -0.487561 -0.117223 -0.196504 0.144758 0.221393 -0.127236
248 -0.090588 -0.173882 0.037116 -0.353768 0.293869 0.251736 0.310658 -0.303326 0.146000 -0.011087 0.052208 0.194017 0.047313 -0.026423 -0.113979 -0.269835 0.270144 -0.079085 0.070547 0.396559 -0.131112 -0.149060 0.032993 -0.165192 0.072122 0.157353 0.128172 -0.029432 0.041302 -0.192594 -0.012305 0.139303 0.036732 -0.172531 -0.026847 0.203828 -0.160893 -0.156292 0.155840 0.060430 0.102591 0.206802 0.107896 -0.306231 0.063273 0.050349 0.062872 -0.094157 0.216518 0.119285 -0.192709 -0.052996 -0.116736 0.203104 -0.287270 -0.223931 -0.084428 -0.306084 0.277200 -0.122406 -0.180029 -0.197489 -0.049806 0.229023 0.102242 0.021544 -0.165162 -0.036123 -0.093598 -0.170927 -0.128459 -0.270196 0.279171 -0.178917 0.035873 0.107520 0.091640 0.210501 -0.054190 -0.337275 0.156751 0.051462 -0.046971 -0.162961 0.136651 0.055513 0.091434 -0.100757 0.179047 0.060169 0.149596 0.001991 0.054445 0.267769 0.053370 0.199474 0.071872 0.101382 -0.025692 0.310736 0.138092 -0.126210 -0.101376 -0.247763 0.078819 0.272405 0.112112 0.284926 0.034357 0.107696 0.122869 0.225777 0.081059 -0.197297 -0.019474 0.199222 -0.151046 -0.030920 0.108714 0.055757 -0.112983 -0.078848 0.091420 0.078589 -0.067350 0.174179 -0.043068 -0.121847
