192 128
59 0.087071 -0.216515 -0.083262 0.047818 -0.062481 0.226568 0.315961 0.402090 -0.096033 0.275237 0.116952 0.180737 0.262019 -0.258060 0.032627 -0.055669 0.277465 0.046617 0.407643 0.349207 -0.021412 -0.061407 0.020222 -0.125773 0.184649 0.101373 -0.633191 0.081287 -0.233180 -0.224506 -0.167414 0.413215 -0.163979 -0.421402 -0.105731 -0.167380 0.217873 -0.100516 -0.167592 -0.019286 0.107603 0.016834 0.254809 0.311077 -0.106572 0.343399 -0.167210 -0.192705 -0.010593 -0.256904 -0.035199 0.041607 -0.084149 0.155659 -0.130928 -0.195778 0.317482 0.122530 0.009547 -0.255595 -0.262716 -0.032936 -0.245936 0.289405 0.205549 -0.016249 -0.064517 0.033857 0.316310 -0.165672 0.201601 0.177854 0.070979 -0.156494 0.520945 -0.003636 -0.280159 0.384969 -0.252319 0.072811 0.398312 -0.226995 -0.118772 0.025783 -0.223126 -0.219003 0.347495 -0.167924 -0.062353 0.212220 0.446271 -0.205885 -0.067888 0.090241 -0.175918 -0.116029 0.115309 -0.277224 0.012029 -0.020130 -0.046344 -0.221637 -0.133729 0.083684 0.197356 0.147188 -0.129391 0.000487 -0.152988 0.046776 -0.063271 0.091029 0.265149 -0.006477 -0.071379 0.195579 -0.200576 -0.057100 -0.194659 0.001989 -0.086657 -0.169060 -0.345523 -0.095155 -0.082288 -0.226727 0.119895 -0.026998
62 0.248140 -0.249018 -0.195307 -0.058912 -0.014160 -0.041507 0.330547 0.376907 0.206649 0.059664 0.246939 0.013823 0.116549 -0.121452 -0.124742 0.084072 0.264592 0.263975 0.318235 0.230838 -0.177903 0.017406 0.029597 -0.293004 0.337875 0.051422 -0.554866 0.060209 -0.293165 -0.341141 0.043497 0.251924 -0.068594 -0.343573 0.088921 -0.036659 0.088814 -0.177898 -0.242219 0.094865 0.015837 -0.123669 0.099121 0.121792 0.092151 0.332274 0.138917 -0.116586 -0.017731 -0.410303 -0.208403 0.109355 0.140933 0.067957 -0.082777 -0.149872 0.206269 0.035054 -0.046272 -0.243807 -0.213295 0.032893 -0.193788 0.200175 0.072665 -0.033878 0.159178 0.006758 0.162915 -0.238243 0.019286 0.185395 0.080183 0.089952 0.332413 -0.093687 -0.272970 0.393391 -0.324868 -0.038419 0.644332 -0.130834 -0.121323 -0.005519 -0.237355 -0.090752 0.341531 -0.100830 -0.000549 0.157092 0.281261 -0.129365 -0.124997 0.225580 -0.209854 -0.029390 0.147047 -0.145778 -0.106502 0.251316 -0.007491 0.026245 -0.036091 0.082201 0.348196 0.044065 -0.056569 -0.125987 -0.035538 -0.104598 -0.101238 0.426729 0.152997 0.051482 -0.124457 -0.050231 0.025969 -0.205047 -0.073184 0.048094 0.039021 -0.100715 -0.339404 -0.018938 -0.074662 0.030720 0.304406 -0.171268
46 0.080790 -0.196249 -0.160656 0.061766 -0.060229 0.156030 0.395120 0.328061 -0.068463 0.205537 0.125289 0.143312 0.241841 -0.194841 0.016094 -0.050278 0.325888 0.043606 0.352407 0.347962 -0.064668 -0.063872 -0.027143 -0.175694 0.309232 0.034081 -0.611073 0.104521 -0.232964 -0.290635 -0.229386 0.371291 -0.149593 -0.376306 0.005787 -0.126941 0.183547 -0.182748 -0.087503 -0.010084 0.051834 -0.042860 0.224352 0.291433 -0.067804 0.351220 -0.158769 -0.210092 0.038272 -0.322876 -0.011107 0.032354 -0.072919 0.121830 -0.122079 -0.195135 0.272536 0.176277 -0.021631 -0.258876 -0.246408 -0.077477 -0.243272 0.277069 0.214575 -0.064232 -0.036995 0.064525 0.260509 -0.111728 0.186110 0.250992 0.069791 -0.110139 0.573512 0.024872 -0.272082 0.431821 -0.294371 0.063882 0.413781 -0.217456 -0.114680 0.062912 -0.210969 -0.205367 0.335848 -0.147330 -0.061104 0.176327 0.449754 -0.241319 -0.081649 0.103959 -0.144479 -0.145345 0.132661 -0.307144 0.012508 -0.038833 -0.058388 -0.242192 -0.218816 0.161609 0.160961 0.126932 -0.100788 -0.015736 -0.103187 0.060279 -0.064029 0.131807 0.254219 0.069009 -0.168554 0.180468 -0.215089 -0.122388 -0.169355 -0.035653 -0.063180 -0.180951 -0.298837 -0.081694 -0.057533 -0.223924 0.196306 -0.005016
50 0.095162 -0.209711 -0.090976 0.096431 -0.127537 0.122114 0.297410 0.321324 -0.108825 0.308075 0.083125 0.166262 0.229704 -0.212879 0.115917 -0.021358 0.238226 0.013139 0.285002 0.254085 -0.102231 -0.017084 0.126699 -0.170387 0.247973 0.049916 -0.590077 0.097105 -0.150710 -0.142544 -0.200220 0.272367 -0.103358 -0.418501 -0.102997 -0.197593 0.185028 -0.125596 -0.143727 0.067423 0.042598 -0.010977 0.331030 0.340486 -0.127765 0.328616 -0.218482 -0.282015 -0.058253 -0.202279 -0.091786 0.118212 -0.099478 0.117976 -0.183614 -0.198848 0.285905 0.052507 -0.009882 -0.200528 -0.119232 -0.129770 -0.170480 0.292778 0.211119 -0.042336 -0.059250 0.091049 0.274968 -0.070489 0.158722 0.171183 0.087713 -0.148210 0.387887 -0.008432 -0.279100 0.331117 -0.222693 0.123935 0.441926 -0.187169 -0.092942 0.041288 -0.195648 -0.252518 0.281509 -0.157419 -0.026101 0.210473 0.442729 -0.149595 -0.031166 -0.087166 -0.155029 -0.079037 0.178821 -0.285489 0.087818 -0.090184 -0.108215 -0.125972 -0.152207 0.228901 0.077697 0.107034 -0.052856 -0.003381 -0.100707 0.069553 -0.091443 0.055891 0.225645 0.148651 -0.055901 0.273996 -0.174024 -0.078623 -0.246226 -0.051175 -0.013453 -0.037671 -0.255532 -0.095657 -0.069387 -0.238285 0.088448 0.064437
85 0.100058 -0.197420 0.014502 0.091215 -0.176010 0.077834 0.267667 0.256268 -0.101232 0.308731 -0.045320 0.117126 0.181173 -0.250544 0.037799 -0.001808 0.174704 0.237873 0.255004 0.118436 -0.002446 0.097488 0.188711 -0.128925 0.038421 0.074662 -0.385643 -0.070862 -0.335460 -0.300692 -0.092070 0.420230 -0.087405 -0.418159 -0.128560 -0.332599 0.264774 -0.012990 -0.176195 0.095495 -0.078773 -0.035411 0.329659 0.337807 -0.167091 0.139697 -0.176322 -0.131414 -0.053943 -0.169878 -0.170195 0.073674 -0.198472 0.163687 -0.245547 -0.179241 0.228990 -0.074012 -0.120646 0.067886 -0.130886 -0.116080 -0.158543 0.328121 0.241574 0.034195 -0.158419 0.139993 0.235761 -0.203883 0.194009 0.219730 0.236824 -0.275918 0.324149 -0.014566 -0.162294 0.285452 -0.327571 0.180875 0.351995 -0.136074 0.064235 -0.112129 -0.247314 -0.240483 0.229319 -0.161672 -0.069107 0.268654 0.363887 -0.108346 0.010350 -0.039464 -0.222850 0.007795 0.426454 -0.200426 -0.124109 0.199619 -0.093482 -0.319193 -0.321029 0.346762 0.357804 0.271746 -0.161339 -0.079004 -0.027495 0.078756 -0.059676 0.231606 0.244837 -0.011020 0.079238 0.257355 -0.026057 -0.111167 -0.208621 -0.134003 0.035089 -0.014633 -0.310728 -0.132781 -0.291602 -0.014315 0.111521 -0.161016
117 0.050667 -0.295495 -0.430717 -0.426073 0.118087 0.136089 -0.315922 -0.204589 0.418690 -0.135326 -0.019635 0.386137 0.066030 -0.278456 -0.006383 0.037263 0.139600 0.237333 0.145118 0.148727 -0.474698 0.028718 -0.464853 -0.195021 0.207506 0.103041 0.176177 -0.000118 -0.013543 0.020151 0.066343 -0.031593 -0.117534 -0.187900 0.293180 -0.055386 0.212523 -0.318487 0.143674 0.155409 0.120253 0.139424 -0.231767 0.221803 0.141438 -0.079014 0.111579 -0.231636 0.083141 -0.148577 -0.150932 -0.031331 0.364497 0.418360 -0.064877 -0.009032 -0.280062 -0.114547 -0.019486 -0.270292 -0.111179 -0.235877 -0.019634 -0.051145 0.306535 -0.072016 0.149816 -0.216488 0.099045 -0.256039 -0.152489 0.345061 -0.075851 -0.039273 0.166123 0.058752 -0.152230 0.040509 -0.038360 0.086219 -0.061067 0.063719 -0.297801 0.212615 -0.254538 0.216200 0.020404 0.028328 -0.154988 -0.035409 0.237040 -0.245079 -0.211657 0.075314 -0.117841 -0.333869 0.297259 -0.488108 -0.119371 -0.262718 0.228054 -0.090878 -0.720307 -0.444907 0.262528 -0.120200 -0.156875 -0.120915 0.101113 -0.290755 -0.003154 0.263132 0.382841 -0.306453 -0.174632 -0.144916 -0.130014 0.133272 -0.188906 0.224770 -0.169383 0.219344 -0.145106 0.094054 -0.136616 -0.004775 0.347042 0.203598
57 0.016015 -0.274564 -0.171201 -0.024274 -0.006339 0.172264 0.256814 0.220560 -0.066752 0.244463 0.088445 0.198607 0.237975 -0.192800 0.088743 -0.053254 0.297227 0.037328 0.358475 0.258039 -0.049799 -0.018554 -0.063559 -0.169748 0.261831 0.013200 -0.533939 0.071066 -0.167739 -0.233669 -0.247906 0.318174 -0.178805 -0.374591 0.040417 -0.154560 0.229620 -0.203826 -0.029767 0.049156 0.073317 0.017905 0.243627 0.364774 -0.070786 0.291908 -0.200515 -0.257134 0.067869 -0.254993 0.031642 0.048792 -0.068083 0.201585 -0.148162 -0.152344 0.325756 0.150187 -0.095161 -0.281405 -0.238404 -0.056942 -0.189412 0.286054 0.243980 0.002525 -0.065407 0.042285 0.289724 -0.113621 0.163638 0.264289 0.099540 -0.188286 0.529432 -0.020965 -0.226369 0.390895 -0.346747 0.174971 0.338462 -0.130483 -0.125551 0.077111 -0.260311 -0.220505 0.299770 -0.117547 -0.146333 0.209724 0.436852 -0.234881 -0.126961 0.022214 -0.208286 -0.135816 0.229903 -0.352140 0.067747 -0.120925 -0.003114 -0.325911 -0.343484 0.197769 0.192900 0.082319 -0.087926 0.086081 -0.066323 0.079151 -0.029121 0.122073 0.300344 0.015991 -0.180021 0.263860 -0.199895 -0.082081 -0.191600 -0.022709 -0.005187 -0.118451 -0.296095 -0.085275 -0.134928 -0.216991 0.265446 0.029979
177 0.033247 -0.278485 -0.386835 -0.300164 0.025680 0.179129 -0.285045 -0.183608 0.639802 -0.144782 -0.201980 0.436919 0.022348 -0.368670 0.188671 0.106972 0.006230 0.193825 0.073395 0.267182 -0.673777 0.082401 -0.334710 -0.360327 0.250373 0.226922 0.130818 -0.161671 -0.237494 0.127292 0.125044 0.010992 -0.020666 -0.119330 0.230105 -0.092619 0.098118 -0.361814 -0.061968 0.150667 0.175365 0.256772 -0.111138 0.074048 0.091240 -0.040660 0.113239 -0.073986 0.047217 -0.269356 -0.239813 -0.119441 0.304667 0.462394 -0.121935 -0.313665 -0.405530 -0.125062 0.241844 -0.086797 -0.001189 -0.481087 0.007590 0.097000 0.190683 -0.260962 0.133299 -0.247980 -0.105814 -0.122216 -0.132189 0.287851 -0.247795 0.125282 0.189108 0.055724 -0.167523 0.059807 -0.091368 -0.159544 -0.024840 0.184402 -0.315116 0.182452 -0.009858 0.292399 0.213269 -0.077975 0.039057 0.016865 0.160912 -0.321313 -0.026289 0.244202 0.198649 -0.399067 0.182289 -0.458530 -0.331061 -0.312970 0.250977 -0.080199 -0.625202 -0.438791 0.168638 -0.089539 -0.043081 -0.271002 -0.049202 -0.283183 -0.129150 0.350367 0.134467 -0.320225 -0.067783 -0.204967 -0.152061 0.102068 -0.215085 0.085113 -0.152585 0.239558 -0.007070 0.258180 -0.053404 0.049930 0.179639 0.115877
195 0.014985 -0.242622 -0.232711 -0.232845 -0.196153 0.126000 -0.553480 0.239621 0.339690 0.011354 0.012955 0.268108 0.024909 -0.592240 0.157469 -0.074653 0.196150 0.131267 0.502880 0.314304 -0.300969 -0.099806 -0.026963 -0.141496 -0.226091 0.305241 -0.022975 -0.298452 0.090158 0.362260 0.003654 0.180212 -0.020002 -0.368158 -0.308084 -0.108307 0.008732 -0.273609 -0.086911 0.106141 0.253829 0.188988 -0.121922 0.323049 -0.154590 -0.098070 -0.100263 -0.074500 -0.037206 -0.060718 -0.489870 -0.074694 0.299751 0.777025 -0.161176 -0.038194 0.179860 -0.290116 -0.025649 -0.314853 -0.111434 -0.156694 0.177413 -0.084166 -0.030858 0.440861 0.359002 -0.265969 -0.072164 -0.293175 -0.200251 0.094045 -0.088562 -0.013258 0.101724 0.075267 -0.036009 0.190562 -0.035222 -0.177428 0.485789 0.205720 -0.093183 0.098057 -0.260704 0.072019 0.026337 0.031067 -0.227644 0.115202 0.273914 -0.022827 -0.124861 0.232702 -0.274945 -0.140142 0.208180 -0.444507 0.074290 -0.035317 0.044391 0.224760 -0.213105 -0.255608 0.136414 -0.151081 -0.145426 0.157679 -0.021968 -0.422407 0.006243 0.297879 0.111555 -0.321444 0.086549 -0.101869 -0.160070 0.385543 -0.449104 0.453990 -0.355884 -0.041355 0.152894 0.020103 -0.011291 0.031675 -0.189156 0.120150
71 0.151553 -0.152559 -0.475353 -0.022902 -0.196512 0.081815 -0.277229 -0.027842 0.412032 -0.115238 -0.346843 0.239252 -0.082588 -0.472295 0.282266 -0.094419 -0.012493 0.235688 0.052758 0.463091 -0.793216 -0.189457 0.179688 -0.329815 0.012553 0.118208 0.213932 -0.304317 0.021979 -0.022712 -0.012893 0.169936 0.135292 -0.399084 -0.184194 -0.126635 -0.175578 -0.289688 -0.020806 0.116591 -0.004745 0.242548 -0.087081 0.302721 -0.194553 -0.120298 -0.031393 -0.126456 0.298153 -0.198744 -0.731069 -0.084537 0.053667 0.559514 -0.052709 -0.302267 -0.132445 -0.330096 0.187098 0.048447 0.044589 -0.509818 0.127286 -0.055377 0.061523 0.206052 0.013200 -0.051287 -0.342696 -0.129896 -0.089950 0.127954 -0.136092 -0.020685 0.154559 0.124536 0.101442 -0.042484 0.053433 -0.387251 0.381776 0.196295 -0.078078 0.364170 -0.055685 0.038335 0.028448 -0.166246 -0.013836 0.072111 0.155984 -0.206338 0.248749 0.247737 -0.084573 -0.210128 0.354055 -0.572692 -0.102479 -0.120317 -0.028053 0.193409 -0.586351 -0.258324 0.018631 -0.136937 -0.068129 0.046791 0.118576 -0.443893 -0.145765 0.321885 -0.090662 -0.177007 0.204439 -0.112736 -0.091111 0.191621 -0.374124 0.212402 -0.415688 0.156685 0.267646 0.289936 -0.110888 -0.064465 -0.043149 0.080093
88 0.059186 -0.093094 -0.150332 0.031082 -0.028319 0.331572 0.422305 0.384324 -0.191840 0.378406 0.106215 0.151226 0.233628 -0.176553 0.054336 -0.165265 0.200917 0.078722 0.370947 0.304903 -0.099802 -0.044013 -0.011445 -0.072006 0.114561 0.103566 -0.627190 0.066700 -0.188683 -0.233319 -0.239439 0.461155 -0.076487 -0.450692 -0.118081 -0.220065 0.227616 -0.027672 -0.108339 0.004071 0.022642 0.081989 0.378165 0.375555 -0.164621 0.366508 -0.214391 -0.191350 0.039750 -0.220988 -0.060525 0.015743 -0.156091 0.191265 -0.138689 -0.185654 0.293370 0.009190 0.011928 -0.214380 -0.201821 -0.065374 -0.277174 0.288052 0.156728 0.067300 -0.143774 0.103616 0.272344 -0.236075 0.266848 0.200492 0.043710 -0.238954 0.440355 0.018190 -0.153223 0.283065 -0.257877 0.083851 0.323762 -0.224450 -0.080652 0.061635 -0.296423 -0.347416 0.332708 -0.274058 -0.031411 0.221638 0.500524 -0.190139 0.089122 0.050603 -0.147724 -0.232293 0.154952 -0.319994 -0.041231 -0.071257 -0.010770 -0.151108 -0.253726 0.140310 0.197573 0.147782 -0.145704 0.008490 -0.063908 0.140050 -0.043091 0.133617 0.281257 0.052740 -0.020338 0.318995 -0.226676 -0.025541 -0.096754 0.028566 -0.002568 -0.104508 -0.426687 -0.053588 -0.132261 -0.353930 0.079580 -0.002209
155 0.050412 -0.020011 -0.531085 0.121909 -0.368870 0.102257 -0.119634 0.231731 0.399660 -0.062481 -0.234336 0.147368 -0.048895 -0.502500 0.269917 -0.158577 0.010454 0.151143 -0.016926 0.594775 -0.657227 -0.213987 0.418945 -0.262227 0.074972 0.280927 0.079820 -0.226009 0.023317 0.115218 -0.030900 0.283006 0.090475 -0.420397 -0.433012 -0.068907 -0.063454 -0.244537 -0.059046 0.066705 -0.130517 0.182166 -0.080569 0.329338 -0.278609 -0.009306 -0.120813 -0.004171 0.196721 -0.151439 -0.944488 -0.026024 0.107296 0.606536 -0.166311 -0.317485 -0.098651 -0.345797 0.235660 -0.079848 0.059822 -0.529550 0.226747 -0.046902 0.032087 0.268421 0.036519 0.056338 -0.337503 -0.170300 -0.102573 0.037033 -0.078410 0.012252 0.068667 0.094401 0.002420 -0.015756 0.099861 -0.382144 0.469357 0.010121 -0.124789 0.270773 -0.159145 -0.027106 0.020257 -0.220836 0.024460 0.003261 0.257616 -0.104346 0.332680 0.194175 -0.165178 -0.200086 0.272059 -0.497250 -0.065129 0.061922 -0.091556 0.359381 -0.410903 -0.185775 -0.010844 -0.173347 -0.025268 0.065513 0.001541 -0.374102 -0.263793 0.314561 -0.095070 -0.099383 0.075883 -0.035878 -0.096931 0.296995 -0.321069 0.268478 -0.516672 0.131223 0.384619 0.223192 0.001558 -0.178638 -0.103370 0.074033
153 0.106901 -0.213968 -0.373271 -0.323917 0.078793 0.308469 -0.020251 -0.164767 0.545913 -0.115146 -0.048285 0.310693 0.018287 -0.319235 0.059503 0.117747 0.056344 0.234324 0.067655 0.101390 -0.663357 0.005556 -0.395803 -0.227783 0.211252 0.138886 0.123319 -0.011691 -0.158009 -0.108225 0.125021 0.077437 -0.057370 -0.092863 0.328142 -0.060119 -0.065225 -0.364180 -0.044514 0.049301 0.139786 0.220446 -0.174834 0.004676 0.210886 0.086815 0.111454 -0.020036 0.051034 -0.159385 -0.120143 0.011834 0.342014 0.253150 -0.194929 -0.087259 -0.340722 -0.211380 0.165627 -0.101572 -0.224920 -0.311438 -0.272471 0.106106 0.315315 -0.293336 0.340335 -0.209341 -0.167758 -0.209370 -0.135297 0.331836 -0.223728 0.069269 0.226447 0.041673 -0.323673 0.123741 0.003575 -0.143947 -0.029199 0.172449 -0.397263 0.273269 -0.107585 0.136210 0.066091 -0.075035 0.090562 0.103858 0.105303 -0.288111 -0.029464 0.354108 0.227029 -0.446736 0.186911 -0.418226 -0.381806 -0.259995 0.325756 0.005623 -0.613500 -0.404648 0.334613 -0.173227 -0.174961 -0.209305 0.044482 -0.354930 0.043964 0.443339 0.105614 -0.186541 -0.194461 -0.139408 -0.006198 0.060817 -0.096306 0.135880 -0.321085 0.134889 -0.021101 0.257192 0.147367 0.003919 0.240076 0.264393
22 0.126770 -0.189167 -0.062716 0.067280 -0.136989 0.139064 0.311650 0.268134 -0.095724 0.248445 0.023679 0.186568 0.250802 -0.237077 0.161187 -0.057109 0.284138 0.013995 0.308477 0.294587 -0.065161 0.048142 0.058746 -0.157999 0.218316 0.047987 -0.553240 0.066454 -0.290922 -0.248023 -0.197295 0.370682 -0.125332 -0.363688 -0.038961 -0.323912 0.204173 -0.148203 -0.040689 0.044823 0.071819 -0.056236 0.367420 0.357677 -0.103114 0.250380 -0.216293 -0.194831 -0.021735 -0.232936 0.054956 0.130112 -0.120226 0.135821 -0.164449 -0.116867 0.285024 0.182546 -0.011267 -0.067066 -0.264088 -0.107621 -0.238626 0.356499 0.317868 -0.081097 -0.017299 0.021178 0.215554 -0.060609 0.259455 0.236617 0.136968 -0.189555 0.573093 0.010731 -0.406256 0.363365 -0.329498 0.152785 0.444421 -0.140807 -0.054725 0.104474 -0.137351 -0.220737 0.330711 -0.121474 -0.016858 0.212027 0.456273 -0.254323 -0.016735 0.025354 -0.127839 -0.117874 0.211050 -0.290941 0.087993 -0.124552 -0.076178 -0.331461 -0.306014 0.340529 0.183254 0.151688 -0.110145 -0.034740 -0.100050 -0.044193 0.010899 0.163500 0.234696 0.070862 -0.136622 0.252884 -0.254860 -0.141801 -0.231952 -0.105972 0.003656 -0.170998 -0.247477 -0.099726 -0.062706 -0.140035 0.145653 0.004735
26 0.195868 -0.231971 0.023721 0.135802 -0.299197 -0.008669 0.248497 0.332484 0.011080 0.186057 -0.005596 0.148588 0.244434 -0.239907 -0.016601 -0.100050 0.251879 0.209868 0.269354 0.333583 -0.007387 0.126066 0.136431 -0.090187 0.158760 0.128487 -0.488622 -0.027988 -0.512253 -0.223994 -0.003640 0.294673 -0.100564 -0.311206 -0.214091 -0.362089 0.285790 0.033627 -0.134406 0.065823 -0.041815 -0.117558 0.379637 0.263992 -0.104722 0.143704 -0.215831 -0.138626 0.003637 -0.265835 -0.041458 0.128461 -0.038422 0.087882 -0.122965 -0.208783 0.160999 0.123765 -0.060261 0.018494 -0.152496 -0.102258 -0.218814 0.346889 0.272228 -0.146249 -0.121064 0.165814 0.207303 -0.194909 0.187438 0.256428 0.196226 -0.122734 0.395112 -0.030287 -0.353522 0.312429 -0.363372 0.130471 0.385468 -0.174264 0.016258 -0.043816 -0.163228 -0.075519 0.211142 -0.124139 0.042106 0.216308 0.452364 -0.178959 0.056590 0.061953 -0.179306 -0.063241 0.260892 -0.167999 -0.041049 0.119712 -0.083082 -0.283824 -0.303739 0.325190 0.338774 0.244337 -0.150190 -0.159531 -0.048381 -0.072354 -0.184792 0.154554 0.229843 -0.052459 -0.065285 0.145192 -0.194417 -0.161094 -0.184466 -0.245692 0.058813 -0.140196 -0.284908 -0.075600 -0.242268 0.008643 0.091003 -0.173246
61 0.066977 -0.280754 -0.215747 -0.028758 -0.210995 -0.028076 0.367497 0.389805 0.014709 0.178354 0.155369 -0.084331 0.205634 -0.149475 -0.095979 0.073272 0.305791 0.064478 0.335482 0.502718 -0.037440 -0.204391 0.152263 -0.054332 0.428080 0.056253 -0.678956 0.092247 -0.135606 -0.210640 -0.093895 0.339276 -0.119021 -0.529077 -0.227560 0.072036 0.132956 -0.219255 -0.158026 -0.122671 -0.070407 -0.084835 0.117402 0.323919 -0.075694 0.449476 -0.361774 -0.121625 0.018910 -0.236891 -0.370976 -0.024339 0.137315 0.123070 -0.187571 -0.285317 0.268614 -0.011543 -0.084855 -0.388268 -0.181850 -0.251378 -0.019464 0.150487 0.056393 0.156772 0.001870 0.115078 0.241122 -0.046140 0.001144 0.134328 0.186366 -0.112625 0.335718 -0.002351 -0.119328 0.358160 -0.252409 0.099826 0.524387 -0.314745 -0.209920 -0.066776 -0.315369 -0.320969 0.326921 -0.140291 0.015086 0.270291 0.386250 0.003330 -0.012043 0.053273 -0.283244 -0.071460 0.281230 -0.231272 0.021314 0.155806 -0.024751 0.072760 0.031016 0.194386 0.114955 0.133435 -0.048784 -0.028539 -0.163047 0.242514 -0.132060 0.094855 0.218929 0.042462 -0.144903 0.230383 -0.196491 0.056819 -0.188908 -0.020503 -0.173846 -0.138247 -0.191644 -0.041123 -0.014212 -0.190318 0.211491 -0.018039
56 0.217647 -0.208105 -0.116452 -0.076625 -0.148311 -0.017266 0.471278 0.453168 0.033538 0.344581 0.156469 0.011098 0.186688 -0.091662 -0.106731 -0.073513 0.233446 0.280687 0.325997 0.259571 -0.152031 0.065424 0.049963 -0.106196 0.348582 0.005030 -0.686681 0.087837 -0.388046 -0.242834 -0.061062 0.343345 0.054883 -0.447014 -0.234179 -0.290598 0.258774 0.028456 -0.232923 0.062112 -0.159759 -0.018798 0.457040 0.339795 -0.111804 0.367456 -0.159056 -0.174565 0.014022 -0.350516 -0.212153 0.162522 -0.000843 0.112892 -0.215561 -0.207556 0.182438 -0.085224 -0.090034 -0.176763 0.004505 -0.119220 -0.225077 0.263590 0.106486 -0.034854 -0.048147 0.185523 0.213735 -0.268345 0.226883 0.139222 0.146218 -0.107354 0.183037 -0.067165 -0.131333 0.221904 -0.416438 0.062482 0.564307 -0.194937 -0.090224 -0.001592 -0.308508 -0.304228 0.313489 -0.244938 0.136030 0.206512 0.547387 -0.068043 0.189154 0.085932 -0.143076 -0.193382 0.278991 -0.208111 -0.058463 0.089560 -0.076618 0.046551 -0.166709 0.249353 0.227195 0.187663 -0.112060 -0.174393 0.058834 0.056227 -0.201737 0.267456 0.265736 0.106857 0.012411 0.246410 -0.143313 -0.061464 -0.057276 -0.063584 0.108199 -0.031002 -0.376765 0.003806 -0.230137 -0.144754 0.057788 -0.098425
55 0.261515 -0.261612 -0.093737 -0.060779 -0.156473 -0.015691 0.429203 0.438381 0.052870 0.334900 0.157851 0.034066 0.148862 -0.074665 -0.067374 -0.065269 0.243537 0.317844 0.341184 0.257071 -0.143333 0.092761 0.059472 -0.180732 0.235781 0.003602 -0.658717 0.070820 -0.380836 -0.185672 -0.035814 0.322639 0.053523 -0.405564 -0.210887 -0.279714 0.194774 0.013797 -0.240529 0.061080 -0.067196 -0.026009 0.500204 0.319206 -0.086751 0.325137 -0.083956 -0.173823 -0.047582 -0.309364 -0.202444 0.243700 0.040348 0.131903 -0.200895 -0.163643 0.287617 -0.071870 -0.078240 -0.169535 -0.061147 -0.050198 -0.252275 0.236712 0.081709 0.027723 0.013617 0.108731 0.151497 -0.354185 0.190822 0.147105 0.145136 -0.083177 0.231028 -0.120522 -0.184971 0.252340 -0.412460 0.053547 0.678044 -0.156321 -0.066462 0.012474 -0.294610 -0.253125 0.302164 -0.232347 0.132599 0.205271 0.494843 -0.001417 0.182745 0.130896 -0.157606 -0.130526 0.233711 -0.148994 -0.036783 0.092183 -0.060870 0.091839 -0.169808 0.215424 0.273797 0.172114 -0.054034 -0.087945 0.070412 -0.047225 -0.206351 0.343878 0.216922 0.105487 0.068801 0.199560 -0.091540 -0.075787 -0.059029 -0.049914 0.103449 -0.077220 -0.367733 0.013170 -0.175165 -0.069445 0.023204 -0.093154
126 -0.076560 -0.290214 -0.201667 0.061417 0.071879 -0.014390 0.209821 0.405427 0.267708 0.187507 0.238608 0.152684 0.268277 -0.453863 0.266500 -0.196598 0.367088 0.060668 0.180975 -0.040079 0.264970 0.068207 0.029638 -0.642573 0.350415 0.042366 -0.413956 0.116789 -0.239835 -0.242284 0.034417 0.307411 -0.029099 -0.130496 0.135666 -0.060599 0.380530 -0.133900 -0.284190 0.298441 -0.127882 0.242795 -0.214731 0.199375 -0.146578 0.297400 0.243072 -0.250362 0.088802 -0.204875 -0.161522 0.202548 0.186243 0.267134 -0.250871 -0.110742 0.354301 0.100789 -0.194752 -0.479453 -0.105987 0.117454 -0.091885 0.307387 0.206511 -0.088984 0.199132 0.093820 0.360864 -0.162582 0.186858 0.286643 -0.048654 0.033219 0.567172 -0.144781 -0.198367 0.607096 -0.396162 0.089051 0.461695 -0.032314 -0.168548 -0.082791 -0.439535 0.003796 0.082641 0.142698 -0.253900 0.001299 0.546848 -0.186680 -0.097179 0.045302 -0.316875 -0.185684 -0.089281 -0.369511 -0.293447 0.101101 -0.005773 -0.270784 -0.146244 0.119079 0.146965 -0.184883 -0.017076 0.141590 -0.072516 -0.190671 -0.132241 0.304795 0.234571 0.071014 -0.290832 0.237969 0.027853 -0.158592 0.004568 0.194326 0.188684 -0.192013 -0.152916 -0.138187 -0.118724 -0.077049 0.575290 -0.244824
77 0.199178 -0.328727 0.088985 0.153201 -0.243957 0.094452 0.132341 0.279533 -0.085012 0.223261 -0.192618 0.194248 0.169614 -0.253956 0.063079 -0.005579 0.182710 0.297795 0.251538 0.266317 -0.086523 0.163467 0.102888 -0.067175 -0.022926 0.138346 -0.298737 -0.074161 -0.457171 -0.289568 -0.040259 0.356122 -0.207000 -0.333200 -0.227731 -0.466798 0.318083 0.058717 -0.165680 0.030302 0.016510 -0.074872 0.482667 0.386163 -0.161635 -0.077127 -0.240861 -0.094629 0.023603 -0.119886 -0.022329 0.148132 -0.200416 0.139604 -0.180344 -0.158611 0.266193 0.169541 -0.093146 0.145828 -0.248562 -0.115901 -0.261370 0.401649 0.275996 -0.072108 -0.217837 0.200231 0.122443 -0.245998 0.194647 0.328007 0.256573 -0.267408 0.396823 -0.049175 -0.306026 0.245442 -0.402958 0.268798 0.359470 -0.074204 0.103236 0.046685 -0.135465 -0.161988 0.160451 -0.007426 0.053883 0.344093 0.363687 -0.138683 0.054662 0.065343 -0.141662 -0.003065 0.540837 -0.228569 -0.081851 0.099490 -0.058449 -0.442879 -0.461428 0.409437 0.452495 0.286374 -0.296412 -0.040221 -0.023306 -0.080625 -0.174936 0.197008 0.224320 -0.113318 0.044776 0.231533 -0.169205 -0.104042 -0.232215 -0.287608 -0.038692 -0.045279 -0.242664 0.028955 -0.282333 0.046216 0.110776 -0.161643
227 0.137614 -0.358877 -0.280275 -0.372421 0.045789 0.168078 -0.643988 -0.099538 0.493473 -0.245990 -0.036673 0.515096 0.155528 -0.486687 0.055896 0.031032 0.085782 0.235662 0.124439 0.168573 -0.534899 0.005838 -0.378267 -0.077027 0.026016 0.337867 0.247765 -0.175187 0.110184 0.220214 0.095364 -0.103070 -0.285422 -0.178686 0.089604 -0.121309 0.297875 -0.280326 0.092361 0.249982 0.126745 0.142159 -0.233040 0.160728 0.033738 -0.169956 0.089447 -0.273699 -0.060445 -0.026362 -0.255364 -0.010540 0.451056 0.540491 -0.098897 -0.093532 -0.387422 -0.192631 0.096947 -0.129187 -0.054485 -0.297697 0.037183 -0.111826 0.430691 -0.091197 0.271724 -0.266788 0.137589 -0.309776 -0.236843 0.302797 -0.001196 0.075174 0.048841 0.045356 -0.218273 -0.082356 0.067392 0.137481 -0.057943 0.094535 -0.318226 0.181586 -0.273107 0.361494 -0.081018 0.034875 -0.131054 0.034073 0.307697 -0.219997 -0.301976 -0.019369 -0.206916 -0.245031 0.294426 -0.546807 -0.034774 -0.253079 0.162043 -0.080209 -0.669526 -0.562192 0.267868 -0.164279 -0.244286 -0.094107 0.009569 -0.433031 -0.093200 0.242876 0.393384 -0.491214 -0.051909 -0.197338 -0.072304 0.201747 -0.410305 0.190113 -0.432125 0.307561 -0.031220 0.107675 -0.114764 0.033156 0.233794 0.129429
237 0.146056 0.122598 -0.041514 0.148618 -0.368006 0.259211 0.042514 0.263961 -0.092189 0.374317 -0.143404 0.313250 0.016599 -0.378930 0.166052 -0.350705 -0.002713 0.220746 0.249459 0.198628 -0.220762 0.047026 0.503995 -0.086359 -0.383245 0.335780 -0.246354 -0.255562 -0.173205 -0.022555 -0.000757 0.512635 0.181415 -0.387712 -0.291232 -0.324716 -0.048707 0.039473 -0.075333 0.326130 -0.005283 0.059298 0.309598 0.269478 -0.404118 0.055592 -0.000971 -0.165698 -0.127448 -0.045660 -0.536870 0.012800 -0.143251 0.437932 -0.066801 -0.131259 0.121222 -0.520241 0.047517 0.257855 -0.080971 -0.089256 -0.050664 0.232179 0.107452 0.295256 -0.130893 -0.027475 0.059679 -0.300668 0.175966 0.000017 0.156481 -0.396588 0.201229 0.175566 -0.099555 0.170315 0.162328 -0.161017 0.444683 -0.059797 0.068468 -0.084041 -0.127249 -0.196597 0.234597 -0.349236 -0.107260 0.190307 0.387245 0.043179 0.156834 0.040682 -0.334034 -0.018403 0.135203 -0.233033 -0.162209 0.272227 -0.230904 0.092404 -0.303686 0.089243 0.216074 0.194443 -0.092147 -0.095976 -0.100483 -0.070592 0.026168 0.346272 0.093948 -0.076146 0.333715 0.043437 0.085493 0.076755 -0.315647 0.236098 -0.035025 0.022060 -0.195210 -0.089905 -0.212644 -0.084159 -0.251599 -0.081719
64 -0.140349 -0.327646 -0.127513 0.037089 0.027262 -0.006987 -0.130055 0.162602 0.230691 0.182707 0.097308 0.378746 0.205692 -0.386581 0.148311 0.009093 0.272735 0.006371 0.231622 -0.106877 0.076731 0.163022 -0.077468 -0.461132 0.250882 0.042729 -0.205060 0.015527 -0.190111 -0.058209 0.057265 0.074858 -0.063894 -0.204023 0.167814 -0.129135 0.416000 -0.135278 -0.188437 0.267729 0.136532 0.170238 -0.078076 0.289502 -0.076853 0.078707 0.181654 -0.321945 -0.077477 -0.110170 -0.079749 0.179488 0.096749 0.336487 -0.189076 -0.041030 0.280674 0.059345 -0.196060 -0.369677 -0.107761 0.000855 0.013751 0.307979 0.339592 -0.083233 -0.037119 0.049123 0.428284 -0.123979 0.053329 0.399734 -0.091629 -0.100252 0.431017 -0.102673 -0.299649 0.537288 -0.283594 0.190661 0.192593 -0.018070 -0.078569 -0.166974 -0.306365 0.101000 0.052976 0.223620 -0.371343 0.083611 0.285934 -0.178877 -0.368183 -0.106973 -0.239073 -0.091575 0.066792 -0.306142 -0.186935 0.001224 0.044919 -0.292705 -0.345012 -0.001315 0.169082 0.032514 -0.074078 0.064396 -0.064715 -0.044034 -0.134539 0.151919 0.335455 0.015184 -0.139557 0.054627 0.179602 -0.079603 -0.139157 0.045456 0.227784 0.082343 -0.247467 -0.202996 -0.202653 0.017593 0.447334 -0.046852
32 0.246528 -0.514484 -0.337861 -0.226991 -0.191615 0.333459 0.181972 -0.240792 0.401610 0.162879 -0.309724 0.439339 -0.052248 -0.568213 0.406870 0.002750 0.049716 0.357482 -0.182081 0.382766 -0.315853 0.112325 -0.138080 -0.647508 0.415230 0.276327 0.133131 0.240669 -0.368460 0.333059 0.004303 0.383287 -0.021054 0.150780 0.247350 0.031256 0.495789 -0.445665 -0.183716 0.043818 -0.233533 0.293754 -0.260703 0.010033 -0.054385 0.073415 0.020111 -0.241741 -0.104580 -0.296195 -0.398947 0.015563 0.278837 0.463486 -0.472432 -0.836161 -1.007098 -0.251175 0.157698 -0.125157 0.343431 -0.792201 -0.137209 0.360673 -0.012416 -0.755596 -0.065752 -0.211920 -0.040714 -0.447271 -0.093572 0.227461 0.039889 -0.070798 0.316927 0.165553 0.117554 0.005328 -0.198276 0.025532 -0.255920 -0.117104 -0.541535 0.013233 0.080254 0.488340 0.305078 -0.104331 0.419009 -0.362870 0.811459 -0.321001 0.513530 0.267583 0.436661 -0.396739 0.105848 -0.536608 -0.736253 -0.282703 0.076539 -0.439535 -0.724315 -0.852640 0.100275 0.193661 0.311147 -0.303585 -0.505902 0.124614 -0.215953 -0.005303 0.135818 -0.602590 0.193087 0.157641 -0.568241 0.217840 -0.302765 0.153504 -0.447597 -0.118714 0.168161 0.368076 -0.008871 0.157887 0.147025 0.162898
171 0.103456 0.101946 -0.244018 0.122858 -0.536216 0.119610 -0.046636 0.197735 0.099915 0.224579 -0.177853 0.228593 -0.061495 -0.397110 0.163109 -0.230997 0.108278 0.214397 0.229344 0.410693 -0.379152 -0.054124 0.576827 -0.068396 -0.160538 0.317127 -0.166916 -0.292282 -0.105199 0.011252 0.003090 0.473453 0.203261 -0.460212 -0.353490 -0.186717 -0.210813 -0.189447 -0.009678 0.151490 -0.015123 0.008726 0.168658 0.313378 -0.374989 0.064852 -0.167992 -0.068290 -0.086309 -0.058652 -0.821890 -0.018422 -0.007629 0.517070 -0.113689 -0.152836 0.128436 -0.529713 0.052743 0.182281 -0.088426 -0.327371 0.152964 0.145527 0.063979 0.418020 -0.051067 -0.039887 -0.136344 -0.176190 -0.046469 -0.025632 0.159296 -0.374613 0.179300 0.208958 -0.081100 0.199152 0.159262 -0.258518 0.578216 -0.065250 -0.004797 0.021707 -0.106633 -0.185206 0.256315 -0.322355 -0.127835 0.186957 0.283119 0.086519 0.148725 0.073222 -0.340253 -0.011923 0.257332 -0.277754 -0.129028 0.338960 -0.152062 0.295017 -0.287379 0.149112 0.133853 0.169861 -0.041928 -0.117518 -0.116868 -0.078498 0.011049 0.373220 -0.000648 -0.079771 0.224774 -0.047306 0.082724 0.168620 -0.367899 0.210220 -0.226075 0.063318 0.001773 -0.036526 -0.079407 -0.048335 -0.251549 0.054214
45 -0.014610 -0.212135 -0.091920 0.099660 -0.095074 0.164325 0.242852 0.284536 -0.109198 0.248282 0.049834 0.205051 0.248137 -0.251707 0.074512 -0.051846 0.234935 0.003910 0.318467 0.285565 -0.024691 -0.056304 0.100739 -0.171482 0.150408 0.115247 -0.524981 0.021539 -0.188201 -0.164850 -0.167805 0.341190 -0.202625 -0.405475 -0.090672 -0.174269 0.235872 -0.106410 -0.106069 0.043401 0.094331 -0.040905 0.255932 0.350002 -0.087668 0.229154 -0.205762 -0.224355 0.012236 -0.171408 -0.039478 0.018998 -0.119347 0.171896 -0.157260 -0.198069 0.322778 0.091074 -0.060404 -0.225182 -0.229987 -0.098700 -0.162595 0.317163 0.299992 -0.000780 -0.150510 0.057866 0.324833 -0.101810 0.165228 0.299964 0.123687 -0.185716 0.509000 0.008490 -0.260552 0.411116 -0.246230 0.206596 0.361878 -0.216722 -0.057542 -0.012386 -0.253346 -0.227472 0.271733 -0.103921 -0.116144 0.230360 0.428117 -0.182922 -0.114988 -0.037557 -0.239414 -0.061560 0.230937 -0.317265 0.026591 0.002734 -0.085280 -0.279161 -0.260170 0.231305 0.189369 0.117112 -0.086288 0.055538 -0.130314 0.090916 -0.076049 0.104785 0.252858 0.032291 -0.133582 0.259063 -0.199415 -0.088187 -0.268432 -0.049585 -0.028386 -0.128720 -0.260574 -0.134509 -0.145244 -0.165313 0.210125 -0.011943
159 0.281365 -0.219732 -0.007544 0.187964 -0.418099 -0.187185 -0.006202 0.394412 0.200752 0.073529 0.021308 0.261004 0.108911 -0.312727 -0.162358 -0.163732 0.304371 0.333704 0.339757 0.222015 -0.049123 0.228325 0.293808 -0.122202 0.084299 0.230427 -0.321065 -0.157098 -0.444076 -0.068426 0.183635 0.223979 0.011736 -0.240548 -0.152126 -0.228918 0.229730 -0.044331 -0.127776 0.237919 -0.034567 -0.245477 0.199816 0.127354 -0.162943 0.018389 0.114836 -0.230983 -0.138813 -0.273939 -0.316304 0.137950 0.144883 0.234013 0.035165 -0.048661 0.012393 -0.003314 -0.114403 0.066529 -0.124201 0.020491 -0.017486 0.289098 0.191591 -0.114250 -0.043407 0.117005 0.230003 -0.296244 0.024592 0.225145 0.190395 -0.065475 0.269100 0.099781 -0.417950 0.365684 -0.141781 -0.042153 0.442927 -0.190498 0.015161 -0.145531 -0.052216 0.241816 0.188023 0.004235 -0.209272 0.073926 0.346334 -0.102533 -0.189235 0.071734 -0.331315 0.086470 0.077014 -0.107370 -0.074843 0.397014 -0.188388 -0.115599 -0.221661 0.065490 0.341792 0.231291 -0.131158 -0.280750 -0.092361 -0.093800 -0.134512 0.196185 0.270658 -0.172802 -0.016160 -0.293041 0.098663 -0.164361 -0.249205 -0.064037 0.133022 -0.041403 -0.258522 -0.203953 -0.289837 0.179679 0.026680 -0.197035
127 0.043932 -0.281335 -0.127780 0.000832 -0.051067 0.135674 0.316467 0.289747 -0.048705 0.155059 0.181705 0.134710 0.206933 -0.237690 -0.063482 -0.009966 0.392219 0.096270 0.480216 0.265419 0.051761 -0.050861 -0.019956 -0.165813 0.186572 0.061194 -0.511368 0.041056 -0.194874 -0.226015 -0.158740 0.348485 -0.214374 -0.358016 0.072765 -0.058482 0.188153 -0.247221 -0.066693 0.002352 0.113980 -0.089091 0.110323 0.223495 0.017302 0.272575 -0.100914 -0.201610 0.009464 -0.327139 -0.001685 -0.007655 0.018690 0.160928 -0.106139 -0.119922 0.296786 0.120273 -0.131916 -0.291011 -0.328474 0.036797 -0.210170 0.266871 0.187246 0.011555 0.036183 -0.024823 0.286777 -0.186084 0.080790 0.252822 0.147878 -0.090418 0.545997 0.026032 -0.261911 0.496209 -0.277471 0.090566 0.396255 -0.222625 -0.110352 -0.037641 -0.241237 -0.121711 0.311126 -0.080185 -0.172524 0.176939 0.364685 -0.231195 -0.230510 0.146920 -0.226656 -0.043612 0.167858 -0.281164 -0.003987 0.113275 -0.064823 -0.291677 -0.164592 0.119168 0.279915 0.110856 -0.057774 0.056583 -0.126199 0.072035 0.053843 0.152884 0.294596 -0.069732 -0.188082 0.115952 -0.174856 -0.110368 -0.214245 0.057581 -0.071906 -0.250020 -0.279381 -0.157266 -0.111788 -0.059563 0.231594 0.011640
161 0.107624 0.140550 -0.160016 0.255697 -0.428401 0.122906 0.109068 0.254415 0.004520 0.325725 -0.140348 0.320241 0.015440 -0.351309 0.092696 -0.417245 0.072096 0.244364 0.181591 0.155779 -0.197518 0.087274 0.638098 -0.225497 -0.244659 0.306672 -0.201329 -0.223741 -0.181226 -0.090384 0.123600 0.446448 0.245353 -0.377346 -0.172565 -0.208996 -0.069311 -0.012262 -0.068406 0.423329 -0.046392 -0.068605 0.186935 0.234483 -0.348040 0.081321 0.098208 -0.271119 -0.094388 -0.015689 -0.627961 0.015882 -0.043248 0.401870 -0.002587 -0.051497 0.081953 -0.502569 -0.019471 0.229330 -0.120712 -0.091754 0.008529 0.271989 0.188196 0.180079 -0.210681 0.043020 0.109400 -0.283538 0.132535 0.152398 0.169313 -0.418308 0.297534 0.202156 -0.205807 0.303168 0.213921 -0.165509 0.435488 -0.121547 0.091082 -0.089472 -0.141143 -0.101344 0.220904 -0.179372 -0.227680 0.149778 0.375719 0.074191 0.046442 0.006280 -0.446090 0.004811 0.078785 -0.252432 -0.287173 0.403252 -0.217598 0.183979 -0.359022 0.140410 0.200828 0.161166 -0.013629 -0.140934 -0.118103 0.012746 -0.006364 0.336575 0.136823 0.002456 0.180931 -0.039072 0.220284 -0.032152 -0.279497 0.237372 0.114131 0.065061 -0.247535 -0.162498 -0.226242 -0.082097 -0.004690 -0.075351
157 0.139808 -0.081336 -0.542994 0.131025 -0.211102 0.132570 -0.148321 0.141943 0.437489 -0.147394 -0.301345 0.188914 -0.077339 -0.584139 0.296793 -0.095592 -0.044840 0.231497 -0.050429 0.522340 -0.862604 -0.266663 0.316266 -0.384847 0.073128 0.160117 0.165396 -0.267726 0.071694 -0.064283 -0.067998 0.252194 0.173167 -0.432051 -0.310249 -0.084826 -0.150537 -0.288324 -0.105641 0.109977 -0.092829 0.353318 -0.125418 0.318205 -0.310515 -0.044382 -0.011166 -0.100076 0.318322 -0.219130 -0.922331 -0.017222 0.072896 0.574289 -0.110774 -0.378356 -0.165956 -0.352641 0.335898 0.013460 0.061472 -0.594119 0.121514 -0.030316 0.074912 0.159026 0.039538 0.030332 -0.384785 -0.107125 -0.074503 0.040191 -0.168003 0.054311 0.159407 0.120646 0.090533 -0.072643 0.122410 -0.481746 0.452140 0.114766 -0.143657 0.387899 -0.062780 0.007121 0.022249 -0.312685 0.059928 0.054822 0.204100 -0.230931 0.333096 0.201936 -0.048063 -0.240611 0.307367 -0.600134 -0.144007 -0.070491 -0.088034 0.299305 -0.478108 -0.325129 -0.062332 -0.169341 -0.034013 0.057681 0.108821 -0.455593 -0.225059 0.329486 -0.099065 -0.077166 0.221839 -0.110431 -0.031877 0.194731 -0.345486 0.216182 -0.552105 0.215476 0.348796 0.278470 -0.049113 -0.168058 -0.129297 0.115485
42 -0.008212 -0.190876 -0.150988 0.089798 -0.023944 0.156445 0.340529 0.326804 -0.053687 0.267560 0.065559 0.142331 0.224753 -0.283466 0.196482 -0.093850 0.292301 0.008075 0.298718 0.197652 0.041808 -0.021258 0.086901 -0.240251 0.232793 0.032863 -0.496881 0.101391 -0.183435 -0.268577 -0.183510 0.383918 -0.156452 -0.333505 -0.004970 -0.167986 0.201666 -0.157542 -0.092886 0.052163 0.025535 0.062909 0.182328 0.329318 -0.119293 0.283317 -0.154756 -0.181910 0.086481 -0.190615 -0.013120 0.071941 -0.106793 0.175648 -0.176005 -0.153132 0.374305 0.149453 -0.073841 -0.234028 -0.226795 -0.036494 -0.192188 0.308109 0.226629 -0.007283 -0.045484 0.096909 0.213611 -0.050788 0.194351 0.241433 0.073746 -0.166881 0.569239 -0.042324 -0.213775 0.452184 -0.330370 0.134669 0.363210 -0.101549 -0.091960 0.074448 -0.245062 -0.222862 0.251593 -0.067426 -0.106727 0.166681 0.405334 -0.201791 -0.059173 0.043189 -0.186578 -0.104551 0.145658 -0.347513 -0.011159 -0.057053 -0.043911 -0.311137 -0.233483 0.247951 0.167631 0.022396 -0.072637 0.128704 -0.115747 0.035502 -0.019080 0.123150 0.188067 0.072819 -0.202140 0.309078 -0.158573 -0.092864 -0.132102 0.020654 -0.023116 -0.175504 -0.167013 -0.061907 -0.070260 -0.195874 0.278821 -0.019675
110 0.255051 -0.332807 -0.349717 -0.319828 0.060017 0.053056 -0.012956 -0.003924 0.350955 -0.117970 0.046814 0.084678 0.040896 -0.078605 -0.102803 0.175871 0.214524 0.271448 0.260800 0.413908 -0.450806 -0.087988 -0.376830 -0.254098 0.157058 -0.033899 -0.047762 0.071141 -0.127097 -0.153149 -0.077632 0.058287 -0.008049 -0.208778 0.092533 0.011811 -0.062644 -0.290175 -0.030175 -0.155150 0.247092 0.049458 -0.070240 0.115280 0.203130 0.026132 0.110027 0.043924 0.053725 -0.356912 -0.192390 0.090712 0.248420 0.267912 -0.131641 -0.055907 0.164908 0.024068 0.093903 -0.260039 -0.281209 -0.078804 -0.138232 -0.087078 -0.026055 0.136131 0.304552 -0.221710 -0.218404 -0.340644 -0.057422 0.123317 -0.076481 0.125666 0.232211 -0.064128 -0.188618 0.180574 -0.188638 -0.198508 0.490359 0.115040 -0.141971 0.242139 -0.126716 0.016684 0.176850 -0.135425 0.081107 0.039032 0.062814 -0.117228 -0.063026 0.447669 0.029990 -0.198944 0.259241 -0.181831 0.017329 -0.050128 0.198710 0.116237 -0.356513 -0.210757 0.330750 -0.022365 -0.085983 -0.019841 0.153806 -0.501103 -0.089323 0.477077 0.056275 -0.072736 -0.016196 -0.188562 -0.080473 0.125706 -0.067311 0.186266 -0.285543 -0.025254 -0.152696 0.131595 0.107357 0.110831 0.090095 0.059594
149 -0.008996 -0.094242 -0.454443 -0.014562 -0.419796 0.103160 -0.205921 0.299609 0.356181 0.071408 -0.214811 0.123251 -0.101579 -0.466231 0.229180 -0.109095 0.105583 0.087777 0.201405 0.650624 -0.520953 -0.175938 0.427784 -0.216377 0.040437 0.275968 -0.028142 -0.235167 -0.013118 0.284483 -0.021300 0.331398 0.123035 -0.531016 -0.522605 -0.139751 -0.048943 -0.242976 -0.095058 -0.031116 0.002045 0.126118 0.020721 0.484217 -0.237032 0.038171 -0.305715 0.073308 0.100648 -0.134593 -0.867219 -0.076311 0.069331 0.688278 -0.257720 -0.238287 0.093406 -0.311825 0.100456 -0.143953 0.065589 -0.525900 0.279304 -0.008178 -0.072444 0.419506 0.056344 -0.030480 -0.302810 -0.135523 -0.142655 0.048264 -0.041418 -0.100637 0.038008 0.094990 -0.016544 0.066403 -0.067049 -0.375422 0.574492 0.027592 -0.061311 0.192171 -0.200972 -0.109959 0.113400 -0.120503 -0.035462 0.080360 0.286230 0.023440 0.291753 0.220771 -0.164489 -0.144566 0.330659 -0.415162 0.010132 0.086488 -0.062357 0.385876 -0.297831 -0.005603 -0.008611 -0.074846 -0.017793 0.087386 -0.026907 -0.287264 -0.186663 0.298606 -0.080139 -0.140615 0.080448 0.050974 -0.263417 0.367509 -0.395359 0.314843 -0.388943 0.027899 0.347767 0.143852 0.002045 -0.145423 -0.245624 0.125308
156 0.160653 -0.083833 -0.508534 0.164394 -0.166358 0.110853 -0.094027 0.184199 0.399953 -0.190215 -0.259979 0.114457 -0.003117 -0.609024 0.302254 -0.096035 -0.054387 0.186212 -0.056837 0.498221 -0.836750 -0.334169 0.301011 -0.348885 0.075568 0.142279 0.091210 -0.291953 0.113064 -0.158064 -0.140521 0.254939 0.123699 -0.461629 -0.350652 -0.072192 -0.126938 -0.250569 -0.108599 0.130050 -0.182730 0.367814 -0.131101 0.314010 -0.311330 -0.019296 -0.035748 -0.119192 0.368596 -0.249127 -0.889852 -0.033384 0.060568 0.556725 -0.107018 -0.426866 -0.152864 -0.349091 0.350056 0.000898 0.036311 -0.565558 0.110305 -0.059194 0.108415 0.165026 0.093546 0.095676 -0.350935 -0.105946 -0.034082 0.028110 -0.155137 0.143621 0.170948 0.083830 0.118722 -0.064742 0.097644 -0.441263 0.476567 0.138296 -0.149591 0.383899 -0.132653 -0.062977 -0.039136 -0.348069 0.092323 0.106750 0.225632 -0.281580 0.337091 0.194871 -0.097748 -0.253448 0.337478 -0.630813 -0.080806 -0.090002 -0.119680 0.257591 -0.445658 -0.294177 -0.069526 -0.230776 -0.077218 0.115728 0.132558 -0.488425 -0.253929 0.340041 -0.095293 -0.036848 0.186705 -0.041132 -0.052013 0.184577 -0.355796 0.202658 -0.627308 0.182785 0.387073 0.295674 -0.063192 -0.223987 -0.063988 0.063374
183 0.223493 -0.693636 -0.325001 0.012699 0.389970 0.119686 0.338969 0.700586 0.379902 -0.653495 0.204803 -0.548494 0.432979 -1.190247 0.480885 0.391570 0.475607 0.508016 0.039512 0.331191 -0.052524 -0.466508 -0.401007 -0.503496 0.426632 0.401879 -0.116416 -0.083628 0.060347 -0.225556 0.010485 0.807669 -0.901926 -0.162984 -0.034206 0.032768 0.737029 -0.598549 -0.308971 0.019991 -0.613965 0.233907 -0.586630 0.239600 -0.038151 0.169310 -0.012424 -0.209655 0.373501 -0.099444 -0.272545 -0.111903 0.418134 -0.005740 -0.547051 -0.692588 -0.539180 0.141778 0.145633 -0.099301 -0.012409 -0.712418 -0.607930 -0.154581 0.532600 -0.700100 0.811643 -0.010814 -0.126182 -0.129924 -0.178708 0.425625 0.220792 0.538815 0.480311 -0.169709 0.053295 -0.176884 -0.700598 0.004947 0.363436 0.119675 -0.452821 0.343759 -0.793540 0.311424 -0.073940 -0.007358 0.519376 0.230571 0.818020 -0.298837 0.300526 0.291913 0.059310 -0.226773 0.296865 -0.856153 -0.374851 -0.217654 -0.079036 -0.674327 0.394019 -0.249129 -0.102390 -0.752107 -0.246991 0.503464 -0.095180 -0.228472 -0.094157 0.351695 0.250109 -0.471730 -0.222706 0.643566 -0.681087 -0.190144 -0.438768 -0.026026 -1.158745 -0.637885 0.634559 0.598710 0.235613 -0.104473 0.298106 -0.394913
83 0.191385 -0.361366 0.095700 0.137611 -0.246578 0.072257 0.235222 0.333836 -0.098392 0.270901 -0.188193 0.136896 0.198474 -0.269724 -0.036600 0.043737 0.183845 0.347067 0.311763 0.248711 -0.006744 0.111535 0.154006 -0.084738 -0.036121 0.136990 -0.316002 -0.104442 -0.501234 -0.382562 0.009199 0.483301 -0.189690 -0.456570 -0.246746 -0.409320 0.339696 0.086540 -0.296524 -0.000924 -0.031890 -0.139021 0.400046 0.400830 -0.139035 -0.022558 -0.168041 -0.038015 -0.022845 -0.118681 -0.186004 0.101524 -0.238314 0.159944 -0.253425 -0.198586 0.296833 0.017995 -0.146035 0.129556 -0.276326 -0.105551 -0.225417 0.377063 0.232616 -0.018958 -0.247610 0.223426 0.215401 -0.332434 0.230183 0.326490 0.289285 -0.279605 0.350926 -0.038044 -0.235585 0.291916 -0.363244 0.211115 0.411482 -0.145180 0.145596 -0.099922 -0.235595 -0.206211 0.199397 -0.004437 -0.006661 0.379731 0.378475 -0.077996 0.014968 0.104947 -0.202393 0.033976 0.608629 -0.219907 -0.216135 0.300322 -0.088872 -0.416512 -0.405011 0.400278 0.515004 0.336108 -0.342732 -0.091383 -0.010012 0.018609 -0.202179 0.314700 0.264661 -0.134831 0.139641 0.220931 -0.057699 -0.097125 -0.239317 -0.236902 -0.041773 -0.047765 -0.349527 -0.060641 -0.321649 0.073932 0.123845 -0.294724
53 0.438608 -0.290557 0.022502 0.125874 -0.139576 0.055779 0.511285 0.407801 -0.017230 0.118554 0.166962 -0.069495 0.072765 -0.191673 -0.114848 0.194196 0.248984 0.367838 0.308918 0.236359 -0.044573 -0.016253 0.209376 -0.022826 0.219982 0.122143 -0.613568 -0.049859 -0.282008 -0.467636 -0.049317 0.536920 -0.260028 -0.321603 0.055509 0.093521 0.138743 -0.246602 -0.315283 -0.040980 -0.281818 -0.194898 0.074487 0.051431 -0.089335 0.420870 0.059767 -0.043892 -0.194938 -0.412401 -0.392359 0.069219 0.002898 0.032587 -0.129656 -0.278937 0.062685 -0.074375 -0.015062 -0.038064 -0.282377 0.018595 -0.191911 0.308616 -0.077646 -0.000545 0.200465 0.180677 0.170620 -0.386773 -0.029276 0.004808 0.264871 0.008060 0.310741 -0.015583 -0.238361 0.352413 -0.205080 -0.002435 0.521460 -0.339112 -0.242948 -0.116425 -0.167680 -0.126598 0.433310 -0.242432 -0.056094 0.136306 0.222732 -0.201341 -0.053716 0.181000 -0.217659 0.198808 0.199753 -0.050064 -0.142413 0.433069 -0.136444 -0.298239 0.082385 -0.022395 0.536731 0.205861 -0.107139 -0.178475 -0.269281 0.187858 0.053359 0.364969 0.193660 -0.189296 0.016795 -0.050644 0.169058 -0.212095 -0.143880 -0.005096 -0.332033 -0.201586 -0.331702 -0.075644 -0.060835 0.017235 0.250682 -0.310521
43 -0.044908 -0.286928 -0.189061 0.061257 0.140164 0.024155 0.241007 0.359446 0.311871 0.168027 0.267168 0.103756 0.155794 -0.461706 0.245700 -0.055822 0.288284 0.183991 0.181979 -0.161937 0.149243 0.098510 0.014079 -0.727206 0.231555 0.088461 -0.298371 0.083659 -0.231293 -0.287894 0.100586 0.322940 -0.053502 -0.088793 0.242743 -0.031293 0.318245 -0.149104 -0.383473 0.289058 -0.055015 0.266809 -0.249457 0.090315 -0.066979 0.224522 0.379469 -0.161378 -0.003764 -0.224763 -0.179519 0.216838 0.183966 0.225876 -0.329061 -0.120816 0.336736 0.019036 -0.190473 -0.436331 -0.177242 0.154288 -0.142959 0.336827 0.143059 -0.096953 0.269921 0.037942 0.265575 -0.284604 0.116203 0.320656 -0.071603 0.098899 0.481935 -0.206354 -0.177016 0.611249 -0.386548 0.058960 0.480544 0.013903 -0.114033 -0.120912 -0.438943 0.043710 0.117038 0.145086 -0.236517 0.025700 0.377024 -0.182474 -0.111984 0.145025 -0.234619 -0.104900 -0.065402 -0.288476 -0.425947 0.228595 0.073055 -0.237351 -0.092401 0.058305 0.319704 -0.180983 0.003312 0.124837 -0.066632 -0.222601 -0.048498 0.469862 0.132450 0.032461 -0.197873 0.181563 0.154645 -0.190978 0.044077 0.243496 0.158356 -0.199784 -0.178884 -0.076115 -0.071118 0.075683 0.555706 -0.262453
194 0.052418 -0.271585 -0.327964 -0.264141 -0.152515 0.128882 -0.403360 0.226303 0.387889 -0.058807 -0.080526 0.096944 -0.059708 -0.542964 0.193069 0.026065 0.230077 0.175083 0.415622 0.406851 -0.366428 -0.161266 0.035518 -0.337449 -0.149711 0.218213 0.050048 -0.267206 0.086111 0.254889 -0.063445 0.266370 0.035450 -0.404756 -0.296279 -0.110497 -0.084647 -0.369380 -0.158940 -0.039987 0.227177 0.162658 -0.108483 0.371392 -0.070396 -0.075054 -0.115703 0.071615 0.013930 -0.097428 -0.545253 -0.063723 0.185549 0.692458 -0.292865 -0.096144 0.256749 -0.232333 -0.022943 -0.237349 -0.092074 -0.242267 0.150075 -0.065497 -0.111777 0.441591 0.375789 -0.330501 -0.295864 -0.207226 -0.183175 0.072719 -0.049161 -0.023089 0.111154 0.031131 0.016439 0.173654 -0.204158 -0.314372 0.645267 0.243368 0.012266 0.162234 -0.232871 0.007233 0.064962 0.033717 -0.102328 0.173454 0.232335 0.059218 0.004685 0.379089 -0.123161 -0.116728 0.320575 -0.402529 -0.019076 0.050339 0.028439 0.209739 -0.148378 -0.029700 0.041027 -0.165122 -0.120186 0.241725 0.052466 -0.466828 -0.041413 0.445790 -0.040504 -0.221393 0.122526 -0.028102 -0.264959 0.337345 -0.399971 0.428788 -0.375913 -0.072144 0.271460 0.116808 0.094747 0.097890 -0.226916 0.102091
199 -0.101390 -0.351268 -0.224207 -0.165808 -0.217523 -0.012400 -0.733044 0.312353 0.525094 -0.057676 0.029198 0.484172 0.075694 -0.616272 0.024298 -0.064115 0.325633 0.073825 0.463667 0.208004 -0.160210 0.114978 -0.101087 -0.162450 -0.004576 0.316043 0.028302 -0.268826 -0.109401 0.386182 0.186591 -0.010684 -0.102794 -0.297847 -0.188390 -0.203304 0.315712 -0.215827 -0.109483 0.193777 0.293213 0.146988 -0.184573 0.324568 -0.129130 -0.138209 -0.004499 -0.152976 -0.060610 -0.106716 -0.333508 0.017216 0.385682 0.710588 -0.090057 0.084871 0.117111 -0.016075 -0.156473 -0.369012 -0.066914 -0.091483 0.241676 0.034487 0.215248 0.139669 0.234828 -0.131671 0.210982 -0.170634 -0.204651 0.302498 -0.146860 -0.006974 0.158261 0.071530 -0.318578 0.273048 -0.147473 -0.085033 0.226123 0.081735 -0.085765 -0.033509 -0.225456 0.381695 -0.099085 0.292734 -0.475832 0.082917 0.289650 -0.142322 -0.416766 0.075535 -0.297549 -0.164904 0.123618 -0.404486 0.056607 0.001967 0.065728 -0.020076 -0.337371 -0.265280 0.161878 -0.107045 -0.274564 0.028074 0.004397 -0.411305 -0.121716 0.120904 0.327922 -0.375523 -0.116115 -0.304817 -0.069834 0.230038 -0.398008 0.235878 -0.042965 0.101579 0.065791 -0.141733 -0.173896 0.065588 -0.007337 0.089547
54 0.052583 -0.166885 -0.159629 -0.000294 -0.032303 0.204234 0.373868 0.306581 -0.121388 0.280948 0.125190 0.159217 0.261423 -0.171130 0.045922 -0.098613 0.256046 0.057103 0.392442 0.267528 -0.097878 -0.029112 -0.062848 -0.146649 0.181103 0.054876 -0.595772 0.074281 -0.182593 -0.207434 -0.262717 0.354114 -0.126788 -0.408463 -0.010196 -0.183692 0.217044 -0.124181 -0.058410 0.068299 0.050939 -0.006100 0.309076 0.307516 -0.082134 0.315974 -0.162648 -0.248330 0.017876 -0.272579 0.016404 0.026174 -0.080791 0.180973 -0.130696 -0.166651 0.262851 0.078882 -0.024313 -0.238279 -0.227022 -0.039891 -0.251016 0.264780 0.197878 -0.010612 -0.044254 0.042660 0.289482 -0.186704 0.237030 0.258040 0.083251 -0.121360 0.472486 0.014952 -0.223503 0.367050 -0.265790 0.116569 0.384699 -0.170610 -0.090285 0.046278 -0.273739 -0.269808 0.332303 -0.208930 -0.065132 0.181782 0.488599 -0.227743 -0.037231 0.057890 -0.163455 -0.179421 0.152817 -0.334192 0.051331 -0.108086 -0.050458 -0.207147 -0.281608 0.172935 0.185054 0.098460 -0.085658 0.014659 -0.059745 0.075502 -0.033174 0.174044 0.300664 0.078763 -0.119336 0.275209 -0.242026 -0.081818 -0.162084 0.028461 0.003161 -0.132370 -0.358996 -0.087797 -0.116047 -0.251736 0.151063 0.024059
193 0.015787 -0.274905 -0.211356 0.011120 0.145149 0.070305 0.335548 0.432223 0.258783 0.201899 0.317468 0.066290 0.213418 -0.412361 0.192574 -0.112608 0.353195 0.190323 0.213845 -0.063224 0.209049 0.049629 -0.027914 -0.648667 0.283672 0.073054 -0.401628 0.154206 -0.232852 -0.339992 0.039814 0.379137 -0.049275 -0.118905 0.196896 -0.016802 0.309927 -0.146440 -0.364383 0.217573 -0.107303 0.245412 -0.266104 0.099430 -0.058928 0.336181 0.335457 -0.130634 0.042266 -0.270179 -0.183346 0.228316 0.185650 0.199061 -0.316544 -0.099246 0.369661 0.022849 -0.188939 -0.481732 -0.190174 0.205857 -0.184299 0.275254 0.107200 -0.043330 0.290362 0.052802 0.287167 -0.317801 0.163431 0.237723 -0.030571 0.078864 0.524174 -0.196122 -0.172876 0.589334 -0.403309 0.014827 0.519682 -0.041289 -0.148273 -0.082201 -0.487820 -0.018402 0.136215 0.062480 -0.211763 0.007344 0.477045 -0.174236 -0.087881 0.176938 -0.282079 -0.132889 -0.083417 -0.283393 -0.368167 0.221532 0.053631 -0.221363 -0.065137 0.062554 0.328008 -0.179592 -0.036283 0.141952 -0.043601 -0.240823 -0.070204 0.467367 0.173918 0.035035 -0.209327 0.203162 0.108077 -0.179854 0.089692 0.269495 0.091880 -0.242178 -0.239167 -0.091328 -0.043052 -0.023218 0.534103 -0.281820
66 0.004724 -0.182222 -0.292093 0.129912 -0.340355 0.004641 0.312669 0.456025 -0.049548 0.208098 0.031974 -0.092366 0.103032 -0.215959 0.020725 -0.048330 0.256439 0.020567 0.281125 0.590257 -0.162450 -0.279218 0.459752 -0.066962 0.289425 0.091865 -0.561603 0.014072 0.026325 -0.092960 -0.113186 0.385019 -0.052875 -0.606596 -0.449620 0.038548 -0.033021 -0.198168 -0.105395 -0.100052 -0.083725 -0.092502 0.194937 0.458002 -0.184293 0.373951 -0.470261 -0.149467 0.091093 -0.061728 -0.527891 -0.027567 0.025948 0.214439 -0.168180 -0.229497 0.332197 -0.079047 -0.079436 -0.308591 -0.143125 -0.337556 0.052762 0.119258 0.053817 0.284973 -0.118287 0.147876 0.082939 0.007474 -0.039943 0.120620 0.174377 -0.210272 0.298832 0.029983 -0.046958 0.298663 -0.151895 0.010233 0.593727 -0.281641 -0.100661 0.073701 -0.284702 -0.389718 0.241522 -0.083383 -0.008826 0.293801 0.372561 0.108980 0.118872 0.043851 -0.340469 -0.007394 0.290178 -0.312064 0.091139 0.168574 -0.109310 0.264821 0.010110 0.296668 -0.039645 0.039452 -0.007980 0.135827 -0.146619 0.238914 -0.132280 0.020645 0.075268 0.092001 -0.092939 0.294885 -0.216441 0.133359 -0.284997 0.063026 -0.258467 -0.130074 0.047398 0.026945 0.012353 -0.292155 0.087583 0.099651
51 -0.055334 -0.298179 -0.226293 0.010399 0.103860 0.018507 0.277694 0.429799 0.247316 0.210433 0.277061 0.067365 0.203696 -0.359314 0.146892 -0.141325 0.365688 0.232146 0.279965 0.000811 0.216479 0.044384 -0.011808 -0.579830 0.247256 0.040672 -0.375878 0.098050 -0.271871 -0.333030 0.048677 0.363658 -0.071096 -0.164069 0.101732 -0.058540 0.327577 -0.090282 -0.329818 0.162007 -0.067919 0.266482 -0.166307 0.164366 -0.104009 0.257689 0.234672 -0.104322 0.126933 -0.279501 -0.175752 0.203066 0.151033 0.217861 -0.262475 -0.122561 0.471390 0.066847 -0.213298 -0.496982 -0.154205 0.196584 -0.153158 0.260200 0.068934 0.048016 0.144386 0.098547 0.277154 -0.296649 0.149189 0.231578 -0.001942 0.029443 0.486814 -0.212375 -0.083641 0.541378 -0.447881 0.038588 0.495917 -0.077806 -0.105624 -0.076184 -0.466302 -0.042306 0.136998 0.053341 -0.242569 0.025392 0.439293 -0.167166 -0.069512 0.159046 -0.306258 -0.123164 0.004987 -0.300616 -0.328209 0.239666 0.054056 -0.242405 -0.093877 0.105994 0.334735 -0.116601 -0.025507 0.185876 0.003465 -0.179794 -0.101772 0.374173 0.202435 -0.016184 -0.183760 0.234232 0.067363 -0.141502 0.096776 0.196095 0.165068 -0.215201 -0.257085 -0.101312 -0.162768 -0.006608 0.479663 -0.300456
242 0.322942 -0.340492 0.192995 0.106636 -0.186326 0.079461 0.247348 0.246101 -0.125588 0.275964 -0.097827 0.132387 0.194603 -0.232272 -0.052654 0.145725 0.172734 0.330631 0.235372 0.064533 0.066344 0.150133 0.136582 -0.036528 -0.004665 0.145886 -0.393493 -0.095018 -0.377155 -0.424272 0.000384 0.496926 -0.182405 -0.381797 -0.006258 -0.267513 0.337822 -0.042280 -0.289693 0.104486 -0.133207 -0.176336 0.290205 0.288244 -0.144039 0.119302 -0.038715 -0.137097 -0.249440 -0.096899 -0.224561 0.120107 -0.146962 0.096495 -0.241756 -0.144257 0.195838 -0.069687 -0.146827 0.212937 -0.286241 -0.045616 -0.220950 0.397892 0.233819 -0.021383 -0.047071 0.160869 0.293863 -0.338678 0.172185 0.232535 0.327183 -0.309971 0.346412 0.017009 -0.300775 0.342855 -0.260177 0.279993 0.391352 -0.180142 0.027699 -0.177310 -0.222682 -0.179040 0.248628 -0.018491 -0.065630 0.359645 0.342152 -0.038443 -0.104602 0.003451 -0.233787 0.080291 0.505188 -0.125762 -0.254167 0.336924 -0.091028 -0.432981 -0.281130 0.301167 0.499703 0.354525 -0.311804 -0.193551 -0.110496 0.150403 -0.058247 0.359271 0.324317 -0.099639 0.156145 0.119217 0.137818 -0.158249 -0.237853 -0.195672 -0.068088 -0.005681 -0.438930 -0.150298 -0.223764 0.077269 0.250200 -0.290495
147 0.106506 -0.000964 -0.519358 0.233923 -0.243472 0.105784 -0.083849 0.229576 0.419681 -0.142972 -0.224214 0.157939 -0.009995 -0.632922 0.347568 -0.155597 -0.059352 0.147431 -0.035291 0.487667 -0.834755 -0.280935 0.328699 -0.371049 0.098746 0.203086 0.046183 -0.289928 0.060398 -0.057155 -0.153031 0.229181 0.105089 -0.411950 -0.352218 -0.077776 -0.083276 -0.236803 -0.116319 0.153996 -0.163067 0.322465 -0.105462 0.302033 -0.296702 -0.010660 -0.040304 -0.112344 0.305291 -0.266756 -0.880491 -0.046892 0.045740 0.602256 -0.093729 -0.440084 -0.179138 -0.337142 0.355276 -0.081646 0.068286 -0.551883 0.158694 -0.004716 0.106736 0.130368 0.065331 0.140272 -0.333111 -0.129738 -0.055375 0.072437 -0.193299 0.184421 0.158433 0.068125 0.088658 -0.003687 0.075003 -0.444537 0.444120 0.102873 -0.146468 0.331043 -0.133282 -0.004731 -0.019417 -0.339170 0.041184 0.025343 0.255495 -0.340060 0.338147 0.177958 -0.102311 -0.254390 0.222007 -0.629470 -0.083014 -0.100883 -0.128783 0.240578 -0.466266 -0.302913 -0.069513 -0.221932 -0.043796 0.081852 0.059864 -0.445808 -0.264680 0.333963 -0.091820 -0.042961 0.130948 -0.067628 -0.072382 0.197862 -0.347211 0.224084 -0.584971 0.175673 0.395002 0.264636 -0.054638 -0.235872 -0.083286 0.065805
256 0.057729 -0.185591 -0.124901 0.052450 -0.056425 0.214657 0.341116 0.345624 -0.128104 0.291261 0.120922 0.202238 0.242488 -0.210664 0.093402 -0.053879 0.295077 0.043087 0.395102 0.285902 -0.047878 0.016640 -0.014633 -0.147153 0.217873 0.081648 -0.635787 0.068137 -0.211544 -0.188465 -0.342553 0.398182 -0.201120 -0.391409 -0.002117 -0.202097 0.292450 -0.183912 -0.071753 0.036481 0.033505 -0.034017 0.356955 0.344134 -0.138120 0.319786 -0.193221 -0.225855 -0.037237 -0.328011 0.002184 0.034692 -0.162350 0.204311 -0.156677 -0.210767 0.296582 0.155208 -0.018032 -0.219089 -0.189610 -0.043751 -0.205590 0.325218 0.178190 0.001488 -0.062323 0.070970 0.287370 -0.158080 0.198219 0.213174 0.121588 -0.154065 0.493718 0.013469 -0.246803 0.410428 -0.328122 0.125771 0.405523 -0.212873 -0.121511 0.036693 -0.221314 -0.245794 0.391366 -0.245650 -0.097533 0.155465 0.470870 -0.259932 -0.080072 0.006136 -0.136996 -0.115306 0.166918 -0.293385 0.106188 -0.076977 -0.076470 -0.325486 -0.263421 0.194960 0.195468 0.171550 -0.101549 0.012359 -0.124967 0.109819 -0.055584 0.132253 0.309743 0.038461 -0.134953 0.258326 -0.232200 -0.076774 -0.207444 -0.020203 -0.043704 -0.116079 -0.324324 -0.129533 -0.127929 -0.237938 0.111599 0.013950
69 0.095840 -0.054722 -0.484991 0.055510 -0.215169 0.132203 -0.183845 -0.011209 0.283874 -0.029261 -0.356340 0.285353 -0.092972 -0.434062 0.258988 -0.066067 -0.042082 0.240266 0.080064 0.435407 -0.759847 -0.164756 0.321472 -0.387394 -0.137360 0.129397 0.227374 -0.244141 0.086903 -0.140856 -0.031349 0.281683 0.175359 -0.511453 -0.149915 -0.193781 -0.227434 -0.232104 -0.022208 0.199727 0.094608 0.317715 -0.024340 0.263414 -0.334754 -0.122863 0.012690 -0.153999 0.175154 -0.185099 -0.767629 -0.061527 0.006116 0.529808 -0.073407 -0.296496 0.038013 -0.344489 0.237597 0.227812 -0.053120 -0.477172 0.056637 -0.080877 0.111550 0.279315 -0.068182 -0.095663 -0.298285 -0.099650 0.043104 0.085594 -0.041050 -0.172400 0.280031 0.156074 0.108348 0.008765 0.201492 -0.398808 0.452257 0.133632 0.036744 0.298644 -0.047340 -0.041375 0.135534 -0.299520 0.033028 0.115310 0.111521 -0.096334 0.213961 0.199194 -0.110960 -0.163691 0.340265 -0.488271 -0.141080 -0.017600 -0.042755 0.309712 -0.510375 -0.194497 0.026242 0.039196 0.010100 0.026037 0.080422 -0.410616 -0.077958 0.355627 -0.087410 -0.044495 0.346226 -0.051990 0.033648 0.150016 -0.358196 0.227997 -0.318628 0.167674 0.162256 0.242907 -0.103346 -0.092009 -0.134011 0.097120
174 0.105208 -0.331377 -0.438886 -0.268304 -0.089702 0.154466 -0.159859 -0.317249 0.643649 -0.092650 -0.324390 0.462595 -0.029223 -0.388132 0.266095 0.058093 -0.037066 0.264439 -0.048086 0.389367 -0.684905 0.073570 -0.260333 -0.438624 0.380271 0.255368 0.182059 -0.064419 -0.325354 0.148893 0.128512 0.084578 0.042399 -0.042701 0.223629 -0.013518 0.176741 -0.394283 -0.062398 0.142120 0.040759 0.262041 -0.152075 0.056871 0.019762 -0.037255 0.053372 -0.121821 0.078476 -0.316970 -0.396143 -0.152661 0.301782 0.509096 -0.165135 -0.576521 -0.675117 -0.186686 0.295366 -0.061393 0.143561 -0.707438 0.035533 0.147963 0.104445 -0.405948 -0.039587 -0.197778 -0.161862 -0.190609 -0.129226 0.255232 -0.168275 0.038250 0.190295 0.115955 -0.027999 -0.016789 -0.087296 -0.157316 -0.164982 0.124978 -0.393718 0.163823 0.083148 0.352399 0.265273 -0.140443 0.204462 -0.101671 0.320995 -0.325748 0.189133 0.268294 0.284292 -0.439052 0.184748 -0.494399 -0.479492 -0.319944 0.237461 -0.127305 -0.736975 -0.610387 0.148433 0.036998 0.092100 -0.360726 -0.189678 -0.135973 -0.224756 0.272172 0.113374 -0.422103 0.041422 -0.151725 -0.279066 0.160242 -0.227934 0.062837 -0.217622 0.210453 0.042494 0.362925 -0.089119 0.061072 0.204632 0.100275
33 0.402121 -0.422716 0.231736 -0.129477 0.256604 0.437525 -0.103768 0.585103 0.251070 0.099242 0.132456 0.380906 0.255873 -0.763650 0.728018 0.220205 -0.057256 0.100260 -0.254950 -0.072029 -0.396432 0.141307 0.243477 -0.409340 0.334512 0.343875 -0.650415 -0.007042 -0.010477 0.496526 -0.404494 0.505553 -0.358613 -0.210029 -0.201103 -0.588903 0.543922 -0.466821 -0.568832 0.373225 -0.496906 0.315263 0.398054 0.261300 -0.299008 0.516942 0.079606 -0.437988 -0.356527 -0.208378 -0.239750 0.474838 -0.127857 0.199007 -0.703747 -0.487725 -0.523335 -0.140800 0.382859 0.105601 0.593673 -0.406025 -0.350567 0.490120 0.448422 -0.663257 0.629406 -0.309776 0.308475 -0.002845 0.177968 -0.270370 0.127533 0.295239 0.049017 -0.058606 -0.475290 -0.326933 -0.369911 0.003124 0.727401 -0.063667 -0.706438 0.273999 -0.047110 0.066103 0.324246 -0.606285 0.353112 0.026745 1.055456 -0.337069 0.318484 -0.455725 0.229871 -0.018639 0.103565 -0.518226 0.257230 -0.516656 -0.449498 -0.443063 0.025844 -0.159679 -0.295520 -0.350383 0.009697 -0.000110 -0.103347 -0.410633 -0.288324 0.162603 0.304925 -0.098192 0.021807 0.365146 -0.374574 -0.221315 -0.795269 -0.130563 -0.562796 0.271823 0.311973 0.015183 -0.000927 -0.249038 -0.359181 0.139752
141 0.271425 -0.211350 -0.135425 -0.332893 -0.093306 0.554825 0.338279 0.037728 0.512847 -0.032307 -0.083909 0.113429 -0.011738 -0.428647 -0.072632 -0.044730 0.036749 0.161174 0.007991 -0.117882 -0.471253 -0.055573 -0.288118 0.124764 0.067266 0.098175 0.053453 -0.198516 -0.237980 -0.086981 0.194429 0.425891 -0.126546 -0.036468 0.168521 -0.076928 -0.008540 -0.282600 -0.157549 0.119759 -0.432146 -0.029240 -0.257186 0.106360 0.366310 0.286745 0.029279 0.072145 0.074614 0.024129 -0.096957 -0.021380 0.349510 0.373953 -0.319670 0.274754 -0.577178 -0.596148 -0.059319 -0.033099 -0.357401 -0.162257 -0.582370 0.288455 0.337854 -0.488082 0.769681 0.069690 -0.256701 -0.492868 -0.034989 0.369139 -0.207088 0.099525 0.098152 0.121983 -0.569370 0.163725 0.018557 -0.166934 -0.075814 0.218779 -0.651889 0.257973 -0.327053 -0.103601 -0.338152 0.176375 0.115608 0.207410 0.295774 -0.357068 0.220113 0.660706 0.231821 -0.672399 0.390371 -0.566447 -0.595525 -0.166996 0.126296 -0.229823 -0.812664 -0.296054 0.534121 -0.667843 -0.450126 -0.176367 0.115746 -0.443282 0.177572 0.645537 0.117715 -0.199419 -0.556738 -0.002032 -0.158091 0.073508 -0.310346 0.354234 -0.617229 -0.190460 0.381998 0.233043 0.206073 -0.209232 0.439631 0.247265
258 0.162520 -0.336843 0.154757 0.079996 -0.025835 0.224823 0.273256 0.291962 -0.160099 0.295962 -0.199626 0.105580 0.249599 -0.258431 0.020610 0.093201 0.008413 0.299328 0.175597 0.158744 -0.022976 0.032591 0.085862 -0.143043 -0.109087 0.139715 -0.273314 -0.061754 -0.441207 -0.394597 0.015614 0.527575 -0.194818 -0.441205 -0.254850 -0.443999 0.399907 0.212380 -0.429594 -0.016156 -0.037871 0.050619 0.372994 0.348605 -0.115146 -0.004305 -0.117278 -0.007457 0.026355 -0.097462 -0.112928 0.066961 -0.352980 0.069838 -0.358372 -0.331163 0.235484 -0.050496 -0.016518 0.140699 -0.178198 -0.147195 -0.326124 0.374897 0.255198 -0.103716 -0.326145 0.162577 0.277046 -0.335770 0.355643 0.244736 0.229212 -0.228889 0.292882 -0.099139 -0.106502 0.119057 -0.342017 0.229564 0.275911 -0.131510 0.132239 -0.093593 -0.274904 -0.278075 0.177274 -0.107734 0.141520 0.387641 0.418146 -0.121775 0.145798 0.067516 -0.080051 -0.046315 0.645980 -0.269027 -0.334720 0.203813 -0.063507 -0.491932 -0.338374 0.290677 0.472396 0.292760 -0.331452 -0.080324 0.034673 -0.022007 -0.264523 0.277162 0.234807 -0.122313 0.249187 0.381823 -0.118206 -0.101646 -0.221174 -0.250119 -0.059553 0.012110 -0.397218 -0.001832 -0.371315 -0.007332 0.116801 -0.368673
37 -0.275443 -0.292421 -0.232408 -0.097105 0.067519 0.115460 -0.334910 -0.042408 0.378226 0.089406 0.066393 0.559177 0.183822 -0.455806 0.152600 0.090703 0.182046 -0.091879 0.259792 -0.117731 -0.206965 0.138449 -0.231035 -0.396277 0.229471 0.066355 -0.017008 -0.009722 -0.064700 0.116874 0.038659 -0.099228 -0.077277 -0.220147 0.266357 -0.138490 0.351581 -0.271147 -0.037778 0.282970 0.333081 0.344259 -0.075258 0.274717 -0.036164 -0.002240 0.121543 -0.320602 -0.100721 -0.135071 -0.010153 0.132282 0.227984 0.474088 -0.204388 -0.039716 0.115406 -0.007737 -0.070905 -0.396396 -0.143472 -0.166497 0.023296 0.275947 0.432920 -0.105027 0.038503 -0.110115 0.349964 -0.031982 -0.053992 0.431528 -0.234192 -0.041429 0.389242 -0.048611 -0.345432 0.450147 -0.141281 0.163944 0.025680 0.018268 -0.215930 -0.111724 -0.203339 0.165727 0.064393 0.177762 -0.336365 0.072676 0.136780 -0.311035 -0.452397 -0.088949 -0.056974 -0.241967 0.088535 -0.409430 -0.139545 -0.234320 0.162119 -0.200468 -0.526617 -0.245518 0.124117 -0.002645 -0.001116 0.035201 -0.083191 -0.088827 -0.018340 0.099188 0.354428 -0.051218 -0.164056 -0.018060 0.145000 0.040741 -0.236394 0.098544 0.160277 0.184774 -0.121707 -0.152082 -0.121391 0.021859 0.339429 0.245180
116 0.381523 -0.517718 -0.316161 -0.501860 0.226404 0.026589 -0.210998 -0.101314 0.406033 -0.311962 0.033310 0.203950 0.113489 -0.046702 -0.173141 0.275102 0.235647 0.374558 0.252083 0.433836 -0.409254 -0.002586 -0.578861 -0.215144 0.219715 0.006406 0.017142 0.071299 -0.099437 -0.133208 -0.054373 0.028539 -0.165374 -0.222466 0.282463 0.002193 0.188667 -0.401559 0.067556 -0.009869 0.202362 -0.024902 -0.133973 0.107504 0.188143 -0.063637 0.288027 -0.123457 -0.008199 -0.419256 -0.138478 0.070541 0.409615 0.295626 -0.011056 -0.065758 -0.027006 0.138517 0.116537 -0.138244 -0.266491 -0.084122 -0.138595 -0.170733 0.057458 0.070561 0.388538 -0.385013 -0.053024 -0.365111 -0.045239 0.115326 0.098857 0.136851 0.265750 -0.029867 -0.231360 0.012180 -0.180869 -0.040102 0.459884 0.067687 -0.258819 0.242836 -0.108789 0.189332 0.290386 -0.136788 0.087332 0.001542 0.132728 -0.133583 -0.233538 0.335026 -0.064594 -0.163844 0.384125 -0.213184 0.105662 -0.105846 0.143328 -0.073620 -0.442884 -0.388820 0.373974 0.031693 -0.098312 -0.123791 0.118907 -0.511845 -0.086129 0.511054 0.307588 -0.287080 -0.008111 -0.327471 -0.086117 0.044504 -0.178022 0.142035 -0.288205 0.070890 -0.258826 0.093598 -0.036156 0.192896 0.205216 -0.053676
112 -0.004825 -0.259793 0.002808 0.048373 -0.277118 -0.117534 -0.017487 0.099364 0.160048 0.148371 -0.016302 0.338108 0.114825 -0.274835 -0.072888 0.047340 0.225699 0.215958 0.205982 -0.047651 0.020615 0.220305 0.206416 -0.177742 0.154282 0.158639 -0.219140 -0.160437 -0.366754 -0.145108 0.151027 0.247430 -0.085099 -0.277383 0.082446 -0.238086 0.350515 -0.128841 -0.125689 0.291557 -0.016280 -0.144869 0.137128 0.247939 -0.067727 -0.003450 0.099237 -0.242985 -0.183870 -0.133932 -0.281972 0.133457 0.045659 0.196000 -0.166179 -0.051429 0.104902 -0.198740 -0.285032 0.019971 -0.118652 -0.105346 0.004302 0.419817 0.419419 -0.075047 -0.150504 0.066439 0.372408 -0.136018 -0.008106 0.346272 0.247215 -0.252125 0.255119 0.035420 -0.354413 0.446431 -0.178756 0.261444 0.305163 -0.198247 -0.069455 -0.332315 -0.176237 0.042977 0.164200 0.081565 -0.276935 0.218454 0.263339 -0.052573 -0.334639 -0.163073 -0.313632 0.052758 0.390285 -0.180680 -0.264603 0.411815 -0.105448 -0.303495 -0.398669 0.278801 0.359643 0.263340 -0.145931 -0.251742 -0.080704 0.172232 -0.075895 0.293837 0.356062 -0.090658 -0.091362 -0.051059 0.254567 -0.152539 -0.294251 -0.156440 0.212144 0.125949 -0.278917 -0.279603 -0.362064 0.244525 0.316708 -0.120171
84 0.191932 -0.341814 0.145241 0.149424 -0.231130 0.099671 0.180030 0.187038 -0.124462 0.229091 -0.205778 0.146250 0.155174 -0.246979 0.048134 0.104027 0.122782 0.287211 0.215584 0.228670 -0.053902 0.103814 0.148736 -0.073536 -0.059728 0.115931 -0.297228 -0.121134 -0.431576 -0.393851 -0.026702 0.446238 -0.218338 -0.377852 -0.161743 -0.365444 0.279823 0.036548 -0.225135 0.010172 -0.032451 -0.094226 0.386379 0.385886 -0.144682 -0.035876 -0.207579 -0.043373 -0.065868 -0.071329 -0.116034 0.111694 -0.242055 0.150254 -0.224704 -0.185610 0.272408 0.063085 -0.115605 0.154678 -0.310895 -0.134755 -0.210011 0.401682 0.260047 0.034275 -0.210865 0.166347 0.175964 -0.292128 0.169326 0.290958 0.283256 -0.304547 0.378963 -0.058640 -0.250958 0.286179 -0.363096 0.300434 0.373792 -0.103992 0.104475 -0.059379 -0.179014 -0.231925 0.197493 0.008972 -0.008330 0.378294 0.279115 -0.118086 0.037304 0.059665 -0.208673 0.066855 0.595525 -0.189785 -0.179688 0.231207 -0.037721 -0.477590 -0.448095 0.397503 0.521680 0.330455 -0.288356 -0.087535 -0.080793 0.014910 -0.116223 0.298002 0.214304 -0.139942 0.125323 0.232867 -0.064806 -0.095433 -0.251818 -0.259004 -0.098395 -0.059520 -0.296300 -0.030607 -0.270624 0.074081 0.215867 -0.266478
215 -0.077882 0.128579 -0.464847 0.292259 -0.502292 0.260711 -0.182088 0.504434 0.449134 0.065424 -0.207990 0.264680 -0.129792 -0.656996 0.358343 -0.284960 -0.023631 0.073494 -0.073586 0.553773 -0.557300 -0.093384 0.662536 -0.280423 -0.117603 0.555804 0.105643 -0.331758 -0.082345 0.447897 0.108877 0.414817 0.008383 -0.323993 -0.623113 -0.220590 0.153171 -0.089392 -0.209880 0.095124 -0.115466 0.141298 -0.007458 0.391324 -0.326660 -0.056749 -0.081914 0.151135 0.044997 0.008352 -1.005611 0.030974 0.029346 0.673230 -0.262910 -0.212547 -0.053153 -0.367449 0.212868 -0.075896 0.116048 -0.461346 0.223604 0.120347 0.124486 0.237578 -0.019336 0.092844 -0.323099 -0.266698 -0.137752 0.112494 -0.116725 -0.004764 -0.046844 0.069098 -0.218693 -0.022759 0.125875 -0.377259 0.402618 -0.086190 -0.093113 0.218852 -0.167432 0.094495 -0.073629 -0.094692 -0.111279 -0.055957 0.344496 -0.098843 0.402027 0.138042 -0.133510 -0.193979 0.132403 -0.446379 -0.175076 0.220851 -0.118181 0.321859 -0.372721 -0.143113 0.039042 -0.220778 -0.082213 0.090359 -0.057314 -0.393176 -0.295345 0.313270 -0.128570 -0.179738 -0.001615 -0.014759 -0.130192 0.322685 -0.311544 0.313800 -0.443761 0.084934 0.497156 0.103957 -0.013519 -0.196801 -0.283823 0.055908
175 0.025450 -0.187805 -0.472334 -0.162645 -0.151980 0.110632 -0.278612 -0.190451 0.573175 -0.133803 -0.279074 0.394776 -0.019556 -0.381746 0.288359 0.015946 -0.061101 0.130203 0.003656 0.416811 -0.729167 -0.064579 -0.086571 -0.391206 0.189556 0.243477 0.195560 -0.166690 -0.086268 0.149375 0.077415 0.033905 0.037517 -0.209028 0.031973 -0.030418 0.012768 -0.306547 -0.040571 0.161796 0.104871 0.260095 -0.154407 0.113046 -0.048026 -0.063115 0.003278 -0.094401 0.056826 -0.227250 -0.528406 -0.169988 0.249682 0.552190 -0.103121 -0.459828 -0.345023 -0.223857 0.302736 -0.057306 0.073909 -0.600230 0.128771 -0.027397 0.117672 -0.092107 0.044470 -0.152568 -0.221588 -0.115247 -0.130124 0.216047 -0.185870 0.084470 0.149370 0.063326 -0.025307 0.031881 0.062164 -0.240709 0.068104 0.165391 -0.250896 0.202874 -0.037842 0.210396 0.137587 -0.146894 0.116152 -0.019648 0.179635 -0.218844 0.130117 0.218662 0.098663 -0.358719 0.163470 -0.471247 -0.270475 -0.274789 0.189351 0.126201 -0.592796 -0.449042 0.045667 -0.057524 0.039993 -0.180059 -0.103102 -0.323793 -0.233262 0.317628 -0.009360 -0.232704 0.038718 -0.118372 -0.161794 0.225062 -0.284279 0.154134 -0.308386 0.213503 0.152261 0.340868 -0.016714 -0.043617 0.110610 0.109066
67 0.019997 -0.132215 -0.576719 -0.051010 -0.228739 0.160597 -0.195473 0.054113 0.437470 -0.007122 -0.327728 0.259421 -0.120533 -0.417596 0.264717 -0.059699 0.027075 0.156008 0.061138 0.630267 -0.780423 -0.191111 0.292219 -0.369129 0.092270 0.187528 0.136667 -0.203324 0.020807 0.088646 0.004375 0.274418 0.163694 -0.507525 -0.277372 -0.136697 -0.113198 -0.296923 -0.034788 0.048288 0.075620 0.280836 -0.017128 0.423454 -0.229687 -0.022301 -0.118566 -0.035625 0.215149 -0.184728 -0.813802 -0.067478 0.063237 0.601300 -0.170900 -0.291320 0.015161 -0.288516 0.213802 -0.012708 0.060279 -0.608405 0.140386 -0.029836 0.056814 0.285531 -0.072750 -0.109481 -0.327299 -0.082360 -0.076440 0.100879 -0.100537 -0.155187 0.159729 0.112386 0.003815 -0.026339 0.046990 -0.397533 0.426872 0.073824 -0.109388 0.360345 -0.095962 -0.054549 0.158539 -0.218102 0.041552 0.074507 0.192197 -0.065103 0.297135 0.221108 -0.038637 -0.267945 0.359289 -0.485993 -0.113897 -0.070496 0.024037 0.352318 -0.495583 -0.184872 -0.028433 -0.049849 0.039674 0.038556 0.057284 -0.341913 -0.195620 0.325781 -0.083236 -0.087122 0.163618 -0.006836 -0.168609 0.254920 -0.328221 0.234722 -0.335668 0.177583 0.238152 0.254987 -0.060866 -0.153054 -0.102501 0.165735
68 -0.064846 0.020282 -0.468034 0.098548 -0.377700 0.147843 -0.286872 0.389525 0.386129 0.028590 -0.122897 0.213203 -0.060634 -0.595597 0.221645 -0.222910 0.070282 0.061526 0.090536 0.530531 -0.531303 -0.164823 0.420735 -0.192419 -0.022106 0.375637 0.029249 -0.241561 0.098574 0.339345 0.044968 0.229901 0.109858 -0.411247 -0.538642 -0.106343 0.021998 -0.172286 -0.084091 0.092353 -0.009116 0.177173 -0.097538 0.429356 -0.268928 -0.010548 -0.164983 -0.003334 0.092986 0.024025 -0.868706 -0.007779 0.180366 0.674457 -0.189594 -0.102168 0.000622 -0.360339 0.114974 -0.218322 0.048760 -0.432532 0.280783 -0.017320 0.103108 0.341794 0.056069 0.012567 -0.195113 -0.161886 -0.175330 0.099903 -0.113247 -0.067998 -0.001276 0.101877 -0.099346 0.017670 0.081443 -0.315466 0.399838 0.015567 -0.083644 0.211475 -0.232269 0.012992 -0.074189 -0.054043 -0.161740 0.057683 0.330642 -0.015995 0.211172 0.114066 -0.259888 -0.201955 0.156198 -0.453607 -0.017135 0.086654 -0.057087 0.438235 -0.314943 -0.138298 -0.048458 -0.208477 -0.106872 0.116232 -0.003566 -0.328443 -0.201656 0.226229 -0.017433 -0.114644 0.018635 -0.046768 -0.136006 0.355066 -0.329059 0.375197 -0.407432 0.125549 0.366506 0.083300 0.018435 -0.213762 -0.200849 0.169444
246 0.042918 -0.185234 -0.325245 -0.269030 -0.038809 0.182148 -0.621695 0.034356 0.368911 -0.090625 -0.017996 0.314847 0.032057 -0.594656 0.264168 -0.193469 0.106663 0.195853 0.202667 0.243767 -0.420567 -0.114111 -0.111447 -0.208481 -0.184651 0.371874 0.239734 -0.291962 0.221022 0.393407 -0.008822 0.100296 -0.083425 -0.157242 -0.174552 -0.080615 0.123325 -0.282231 0.059445 0.188216 0.083285 0.195773 -0.225629 0.301428 -0.099297 -0.208904 0.037155 -0.140168 0.060550 0.068990 -0.499794 -0.042719 0.288897 0.713576 -0.148680 -0.050583 -0.122115 -0.355971 0.010504 -0.241711 0.022108 -0.221861 0.183069 -0.130101 0.105362 0.320888 0.273178 -0.305046 -0.089687 -0.359807 -0.255940 0.130320 -0.022128 -0.022787 -0.016350 0.077937 0.066330 -0.057578 0.030763 -0.037298 0.214833 0.203717 -0.158705 0.262514 -0.308999 0.179670 -0.096777 0.025637 -0.225016 -0.017120 0.380988 -0.108103 -0.041690 0.077021 -0.300683 -0.192749 0.219300 -0.558548 -0.017339 -0.133807 0.067443 0.105663 -0.455676 -0.359173 0.108481 -0.289771 -0.136837 0.180389 0.047934 -0.443277 -0.020008 0.290796 0.174277 -0.426254 0.060581 -0.041886 -0.198541 0.332267 -0.371948 0.475908 -0.442925 0.116240 0.177368 0.065667 -0.061544 0.014483 -0.026972 0.107323
198 -0.002695 -0.269773 -0.379127 -0.363271 0.093613 0.263837 -0.198699 -0.163140 0.490928 -0.053269 -0.094025 0.419145 0.067904 -0.336091 0.088442 0.109765 0.081707 0.107602 0.162998 0.177013 -0.608893 0.009317 -0.430846 -0.232603 0.239585 0.079611 0.086020 -0.042473 -0.083968 0.006687 -0.002907 0.004682 -0.037923 -0.206342 0.259227 -0.093832 0.077417 -0.380799 0.017822 0.099751 0.208674 0.299032 -0.117881 0.158951 0.108416 0.056327 0.019871 -0.155265 0.070938 -0.229508 -0.081839 -0.024164 0.296284 0.421165 -0.148393 -0.124224 -0.234747 -0.107277 0.125138 -0.198944 -0.130337 -0.353064 -0.121388 0.087456 0.276777 -0.186538 0.205177 -0.210767 -0.027665 -0.105386 -0.054282 0.286056 -0.260309 0.028068 0.274052 0.075845 -0.226333 0.116420 -0.074371 -0.092811 -0.047205 0.149172 -0.347306 0.218001 -0.088581 0.134004 0.100955 -0.068086 -0.027420 0.068433 0.157418 -0.348011 -0.115545 0.238340 0.177603 -0.451227 0.219723 -0.490243 -0.181683 -0.392919 0.242984 -0.064399 -0.657526 -0.421877 0.165253 -0.122509 -0.103099 -0.125151 0.054573 -0.286642 0.013543 0.262820 0.226978 -0.194689 -0.134389 -0.106853 -0.125334 0.130393 -0.209833 0.158446 -0.184301 0.192487 -0.029666 0.175152 -0.002144 -0.079043 0.209251 0.303295
209 -0.014741 0.070873 -0.398585 0.230916 -0.555619 0.154726 -0.098216 0.432977 0.343325 0.121140 -0.237532 0.159338 -0.157866 -0.506992 0.235285 -0.241156 0.046092 0.162945 0.010688 0.569219 -0.447089 -0.070567 0.700980 -0.189788 -0.085497 0.456577 0.006691 -0.330478 -0.142877 0.323564 0.122448 0.468968 0.094494 -0.389280 -0.589467 -0.197596 0.064158 -0.121107 -0.181216 0.039120 -0.130132 0.017006 0.061425 0.436948 -0.295950 -0.017037 -0.162414 0.146240 0.033853 -0.002412 -0.998848 0.013095 0.007186 0.598686 -0.253789 -0.155288 0.030674 -0.409888 0.083303 -0.025359 0.077946 -0.445448 0.244312 0.140097 0.041033 0.331312 -0.072666 0.094620 -0.293323 -0.243040 -0.150333 0.076084 0.027981 -0.164920 -0.035989 0.101221 -0.163432 0.019915 0.049626 -0.322609 0.486647 -0.110706 -0.036516 0.146439 -0.174742 -0.006270 0.037341 -0.101046 -0.121688 0.056633 0.326054 0.026557 0.374272 0.130114 -0.209666 -0.109316 0.278082 -0.344714 -0.181346 0.355356 -0.143629 0.321854 -0.305920 0.055297 0.088852 -0.080345 -0.080200 0.030600 -0.036325 -0.206631 -0.247218 0.332974 -0.083766 -0.157491 0.040060 -0.005123 -0.109195 0.277374 -0.306876 0.243565 -0.326348 0.073052 0.343647 0.045247 -0.074565 -0.115040 -0.253341 0.009080
7 0.212033 -0.106261 -0.243993 -0.305929 -0.248821 0.618046 0.549863 0.175098 0.390077 0.073019 -0.119728 0.037868 -0.132956 -0.379024 0.074212 -0.093071 -0.077504 0.151021 -0.198318 -0.052849 -0.408646 -0.034245 -0.170678 0.075726 0.069798 0.104111 -0.162070 -0.215321 -0.395799 0.063268 0.238254 0.631800 -0.232226 -0.091303 0.226296 -0.138587 0.088486 -0.276634 -0.238705 0.062176 -0.660565 -0.042562 -0.196292 0.319561 0.281790 0.343596 0.047752 0.082009 0.099667 0.113512 -0.131025 0.061152 0.248124 0.216193 -0.208152 0.383346 -0.736371 -0.582770 -0.115938 -0.045179 -0.334956 -0.079976 -0.532841 0.406086 0.300359 -0.519002 0.793713 0.122757 -0.135912 -0.479296 -0.089696 0.407669 -0.317039 0.135015 0.108834 0.082543 -0.542783 0.112570 -0.037272 -0.132770 -0.009457 0.092507 -0.711748 0.278533 -0.416296 -0.125833 -0.327932 0.219905 -0.022984 0.154809 0.404113 -0.406397 0.526335 0.573521 0.184515 -0.672493 0.359224 -0.510504 -0.683899 -0.270897 0.028163 -0.297578 -0.901198 -0.267107 0.370218 -0.774079 -0.534813 -0.207896 0.102822 -0.337716 0.175760 0.540103 0.159724 -0.309800 -0.651890 0.017143 -0.309972 0.017376 -0.238045 0.398064 -0.612796 -0.302235 0.460074 0.415824 0.137881 -0.395974 0.442647 0.335341
74 0.150694 -0.287233 -0.380383 -0.271288 0.040637 0.090607 -0.507318 -0.046205 0.474220 -0.263276 0.020423 0.462739 0.159757 -0.438741 0.052761 0.002890 0.115071 0.245426 0.063085 0.239769 -0.576133 -0.004565 -0.341361 -0.105446 0.202358 0.322375 0.184137 -0.062075 0.119048 0.125350 0.049022 -0.134242 -0.216740 -0.171761 0.078951 -0.064035 0.309556 -0.288424 0.116842 0.206446 0.054254 0.156783 -0.252543 0.130291 -0.008220 -0.100859 0.106507 -0.282149 -0.011931 -0.122072 -0.362287 0.004640 0.433829 0.453018 -0.066920 -0.157304 -0.415671 -0.091494 0.161803 -0.171726 -0.012189 -0.344875 0.100821 -0.141468 0.391667 -0.103579 0.197308 -0.164664 0.124250 -0.267066 -0.214099 0.266593 -0.006207 0.111504 0.054609 0.036022 -0.183978 -0.096903 0.085820 0.080341 -0.060153 -0.003888 -0.323099 0.218724 -0.255698 0.353697 -0.023603 -0.064430 -0.121664 -0.053223 0.297736 -0.256485 -0.247648 -0.096511 -0.226574 -0.222259 0.193447 -0.480207 0.028159 -0.234177 0.174533 0.003961 -0.600642 -0.573895 0.240403 -0.085439 -0.202234 -0.147103 -0.019639 -0.385275 -0.160858 0.187576 0.383219 -0.409593 -0.079369 -0.230478 -0.028498 0.151498 -0.271484 0.138281 -0.431191 0.346611 -0.078385 0.094265 -0.094991 -0.036826 0.225546 0.118855
223 0.303173 -0.488579 -0.333444 -0.111816 -0.195329 0.383020 0.141351 0.471161 0.451523 0.091961 -0.088707 0.370243 0.248087 -0.933486 0.266510 -0.089567 0.318489 0.431384 0.329778 0.413813 -0.436550 -0.032061 0.153523 -0.450149 0.175690 0.456261 -0.312997 -0.235617 -0.271106 -0.040430 -0.011776 0.769532 -0.214425 -0.588223 -0.110359 -0.326145 0.450617 -0.475829 -0.305315 0.314940 -0.247934 0.180314 -0.023903 0.451533 -0.193676 0.262208 -0.010559 -0.298000 -0.013770 -0.301967 -0.701337 0.016656 0.266966 0.712954 -0.479909 -0.412920 -0.233899 -0.353620 0.029032 -0.051146 -0.164388 -0.520592 -0.263684 0.400718 0.438963 -0.164868 0.351280 -0.147933 0.121907 -0.473643 0.058754 0.411115 0.180754 -0.079965 0.590264 0.131358 -0.326489 0.329203 -0.328927 -0.063318 0.618602 -0.082524 -0.399095 0.152655 -0.474741 0.057359 0.298619 -0.150528 -0.018545 0.260034 0.932578 -0.327082 0.159299 0.280046 -0.245315 -0.359093 0.530079 -0.870424 -0.466574 0.080748 -0.108699 -0.303387 -0.665624 -0.159471 0.381459 -0.108801 -0.207635 -0.084558 -0.162084 -0.259252 -0.104128 0.594982 0.415047 -0.412222 -0.083203 0.204661 -0.313069 0.013680 -0.613128 0.278611 -0.526621 -0.108829 0.027086 0.081387 -0.192014 -0.110363 0.245575 -0.049449
29 0.343435 -0.345004 0.442720 0.237040 0.108764 0.560314 0.463197 0.187831 -0.097231 -0.060214 -0.493759 0.017624 -0.027825 -0.973041 0.697539 -0.181891 -0.230212 0.273287 -0.286537 -0.065017 -0.128008 -0.286914 0.453161 0.042888 -0.137257 0.428331 0.102730 -0.793630 0.306618 0.250033 -0.029791 1.125890 -0.070845 -0.192783 -0.587601 -0.089054 0.428601 -0.275773 -0.266941 0.353827 -0.991274 0.048877 -0.203284 0.310141 -0.151942 0.316784 -0.312927 -0.102087 0.267058 0.393723 -0.635784 -0.219227 -0.164852 0.522444 -0.551521 -0.137889 -0.881006 -0.350540 0.342780 0.585348 0.200154 -0.905498 -0.528351 0.704045 0.305873 -0.513539 0.502151 0.130690 -0.309177 -0.370892 0.132599 -0.146521 0.276587 0.167077 0.153030 0.453885 0.239917 -0.337203 -0.081484 -0.064893 0.099715 0.038709 -0.242721 0.252217 -0.423110 -0.027473 -0.156881 -0.214410 0.436912 0.159182 1.188988 -0.490028 0.773607 -0.016826 0.095194 -0.037735 0.770240 -1.074161 -0.992669 -0.223899 -0.703465 -0.754137 -0.529523 0.204677 -0.098692 -0.790049 -0.125773 -0.133212 -0.244169 0.292623 0.212780 0.493482 0.206644 -0.458078 -0.226221 0.605403 -0.726923 -0.180867 -0.804540 0.349899 -1.213119 -0.149505 0.637669 0.064661 -0.185751 -0.214992 0.240772 -0.143938
122 0.303367 -0.335029 -0.174682 0.028877 0.148329 0.349909 0.301423 0.478125 0.469778 -0.433073 0.233399 -0.093813 0.684460 -1.035141 -0.048520 0.025842 0.375009 0.253863 0.028429 -0.073015 0.042624 -0.155561 -0.179526 -0.449841 -0.271894 0.701820 0.007988 -0.586137 0.156336 -0.210488 -0.414540 0.795439 -0.437725 -0.130739 0.157752 -0.129662 0.550444 -0.678415 -0.046247 0.786900 -0.968130 0.508311 -0.148692 -0.132444 -0.351978 -0.184227 -0.084060 -0.603316 -0.472356 -0.384906 -0.006947 -0.742907 0.496831 0.353921 -0.611498 -0.763244 -0.701902 -0.049061 0.226472 0.734655 -0.033282 -0.285125 -0.484791 0.441068 0.359970 -0.410472 0.733670 -0.596991 -0.002272 -0.263885 0.182669 0.112987 0.865985 -0.041282 0.442288 0.499623 0.257786 0.258866 -0.107199 0.196538 0.137768 -0.214069 -0.341958 0.231163 -0.614093 0.193245 0.704322 -0.470847 0.352395 0.478025 1.005753 -0.282423 0.355141 0.022386 0.273409 -0.792597 0.417250 -0.758992 -0.598770 0.155137 0.095258 -0.435778 0.305099 0.338813 -0.252309 -0.181188 0.256643 -0.146931 -0.120105 0.232595 0.467853 0.204094 0.496443 -0.428027 -0.349247 0.794840 -0.820745 -0.166118 -0.164542 0.352348 -0.178458 -0.376243 0.162196 -0.021407 -0.338684 -0.247094 0.191414 0.096043
124 0.305202 -0.348891 -0.198846 0.019420 0.144946 0.358838 0.320258 0.490910 0.488056 -0.421768 0.229800 -0.083376 0.687898 -1.044605 -0.052701 0.028803 0.391683 0.266731 0.055194 -0.056193 0.020479 -0.150973 -0.176533 -0.465517 -0.262170 0.702946 -0.010831 -0.581478 0.142842 -0.230310 -0.407159 0.808948 -0.425252 -0.168408 0.151107 -0.145694 0.551032 -0.688740 -0.064164 0.777908 -0.958054 0.513379 -0.143529 -0.116963 -0.350121 -0.168530 -0.080386 -0.597905 -0.458400 -0.401296 -0.033993 -0.737517 0.502602 0.375273 -0.629081 -0.762052 -0.676611 -0.060304 0.224252 0.723115 -0.055679 -0.291270 -0.492227 0.449164 0.369823 -0.402704 0.730446 -0.584822 -0.002174 -0.281598 0.184432 0.132490 0.859284 -0.048284 0.457452 0.493046 0.241039 0.281229 -0.114431 0.194562 0.157616 -0.211285 -0.348831 0.238713 -0.630034 0.183897 0.709488 -0.470862 0.344669 0.493130 1.008763 -0.286254 0.348446 0.049620 0.263414 -0.804253 0.441227 -0.785280 -0.609082 0.162846 0.100654 -0.425338 0.271141 0.346414 -0.214588 -0.189088 0.243202 -0.141184 -0.116272 0.212190 0.461177 0.228538 0.505725 -0.431548 -0.355925 0.797058 -0.819264 -0.167224 -0.169352 0.365775 -0.184379 -0.371299 0.155487 -0.010508 -0.344212 -0.249240 0.201173 0.097498
243 0.321011 -0.540949 -0.339451 -0.162153 -0.172670 0.397572 0.100841 0.468080 0.474676 0.096047 -0.093824 0.407887 0.232788 -0.948926 0.262376 -0.059798 0.318265 0.477961 0.320914 0.429115 -0.484670 -0.013474 0.127698 -0.477016 0.167668 0.473709 -0.322853 -0.219366 -0.311644 -0.058138 0.001112 0.773147 -0.218232 -0.601444 -0.113500 -0.364360 0.445113 -0.504134 -0.344612 0.327107 -0.236520 0.188721 -0.012009 0.455933 -0.192552 0.243514 0.000359 -0.326046 -0.024278 -0.313097 -0.702165 0.044455 0.280662 0.715166 -0.513322 -0.421655 -0.254053 -0.365297 0.039309 -0.049542 -0.171809 -0.520506 -0.303080 0.419085 0.447379 -0.206025 0.367688 -0.151033 0.134506 -0.506617 0.074997 0.394948 0.190191 -0.104862 0.580130 0.136426 -0.364640 0.320180 -0.315528 -0.045455 0.640679 -0.079520 -0.428140 0.152941 -0.453306 0.060213 0.303714 -0.186189 0.016088 0.278795 0.941978 -0.342522 0.144719 0.291911 -0.214771 -0.369281 0.580165 -0.875693 -0.464284 0.070306 -0.099855 -0.311874 -0.704794 -0.184967 0.432832 -0.129115 -0.238379 -0.097530 -0.132005 -0.316314 -0.105416 0.627756 0.437813 -0.442013 -0.079223 0.186366 -0.326619 0.020112 -0.634650 0.265842 -0.538582 -0.069355 0.005567 0.085575 -0.204184 -0.072605 0.246003 -0.014619
102 0.327503 -0.565269 -0.336335 -0.176277 -0.180119 0.391357 0.100134 0.489172 0.505741 0.109418 -0.082255 0.423502 0.244519 -0.980116 0.249641 -0.061547 0.332034 0.509467 0.360230 0.427588 -0.494373 -0.010534 0.120235 -0.507115 0.184503 0.480961 -0.339160 -0.217813 -0.308832 -0.075923 0.015416 0.782152 -0.226589 -0.614017 -0.115852 -0.371175 0.460004 -0.510981 -0.347420 0.342533 -0.237623 0.187376 -0.010555 0.474896 -0.201332 0.252468 0.001819 -0.348923 -0.034065 -0.327212 -0.721069 0.065788 0.292500 0.726318 -0.521529 -0.424277 -0.242793 -0.373040 0.030512 -0.062245 -0.173993 -0.522319 -0.299124 0.440868 0.460635 -0.214183 0.362787 -0.150862 0.151970 -0.531094 0.069892 0.409891 0.193886 -0.105964 0.604126 0.141141 -0.385407 0.352754 -0.316792 -0.042438 0.664610 -0.091258 -0.427615 0.146894 -0.484173 0.071901 0.317542 -0.180554 0.009851 0.277500 0.969279 -0.345440 0.118681 0.293428 -0.229225 -0.365973 0.580040 -0.898976 -0.462633 0.087989 -0.115315 -0.324023 -0.730532 -0.192439 0.450673 -0.119773 -0.247153 -0.094943 -0.134985 -0.331189 -0.108835 0.636445 0.469025 -0.450610 -0.071937 0.170768 -0.316312 0.014568 -0.652498 0.282967 -0.527743 -0.055006 0.000119 0.069905 -0.214148 -0.062234 0.263465 -0.019608
39 0.122510 0.023967 0.224732 -0.530444 0.658516 0.637692 0.333164 0.687889 0.100737 -0.349741 -0.287872 -0.262127 0.454084 -0.674779 0.239957 -0.303138 -0.225197 0.237484 -0.280851 0.261781 0.554698 0.047876 0.564680 -0.207190 -0.075099 0.717846 -0.033504 0.297869 0.003747 0.232438 0.075825 0.509728 -0.354117 -0.762432 0.170875 -0.421354 0.711153 -0.541372 -0.633770 0.275978 -0.644532 0.038997 -0.314339 -0.230883 -0.057410 0.614659 0.275243 0.037796 0.040540 0.082374 -0.653950 -0.181389 0.676474 0.326313 -0.517734 -0.555960 -1.072964 -0.246839 0.206418 0.399299 -0.227032 -0.561560 0.018194 -0.008940 0.060906 -0.302066 0.865734 -0.465798 0.424423 -0.006824 0.573455 0.487568 0.442373 0.505486 0.657804 0.287163 -0.082708 -0.370195 0.104436 0.318148 0.305855 -0.355439 -0.440396 -0.257813 -0.062186 0.179022 0.358364 0.309312 0.535166 0.236347 1.067673 0.012307 0.385156 0.273595 -0.297827 -0.183960 0.594296 -0.966837 -0.395012 0.278858 -0.467475 -0.104397 -0.438463 -0.322961 0.321531 -0.243050 -0.062923 0.207787 -0.314380 -0.155025 -0.048525 0.461979 0.765501 -0.826825 -0.240916 0.470643 -0.780356 -0.128422 -0.625860 0.077952 -0.277205 -0.150068 0.472496 -0.019833 0.255546 0.165803 0.369881 -0.317118
108 0.292176 -0.475673 -0.317487 -0.155359 -0.159833 0.372511 0.103221 0.469413 0.445125 0.139135 -0.056194 0.364232 0.213260 -0.902021 0.245911 -0.075951 0.296829 0.468687 0.316530 0.413328 -0.432402 0.009674 0.148865 -0.449110 0.178982 0.470880 -0.348764 -0.196769 -0.296978 -0.064848 0.037206 0.749087 -0.232427 -0.590914 -0.101704 -0.314180 0.435147 -0.467941 -0.339467 0.347269 -0.200583 0.172789 -0.021798 0.425434 -0.204941 0.230762 -0.000060 -0.307930 -0.010042 -0.308870 -0.654330 0.040753 0.285564 0.685974 -0.495198 -0.385593 -0.242231 -0.347441 0.016873 -0.080542 -0.180359 -0.491810 -0.265658 0.415414 0.397820 -0.202850 0.369393 -0.137939 0.137822 -0.490859 0.077644 0.387774 0.185521 -0.103994 0.535054 0.149424 -0.357256 0.292178 -0.296266 -0.011715 0.597627 -0.102815 -0.399282 0.142209 -0.437244 0.058348 0.277105 -0.157410 0.028933 0.237564 0.925579 -0.313620 0.085143 0.279538 -0.238346 -0.329841 0.533140 -0.845537 -0.431685 0.082042 -0.106146 -0.307031 -0.649730 -0.155425 0.418110 -0.140476 -0.226726 -0.074968 -0.106997 -0.295760 -0.092798 0.581685 0.470470 -0.432841 -0.069014 0.175907 -0.305458 0.030289 -0.599923 0.278571 -0.488557 -0.056992 0.001529 0.102601 -0.198474 -0.060749 0.254993 -0.036060
173 0.305257 -0.495628 -0.319373 -0.152960 -0.172037 0.375985 0.104276 0.475495 0.461656 0.137761 -0.063107 0.378285 0.216638 -0.918957 0.249990 -0.078688 0.308246 0.484111 0.326600 0.417911 -0.444534 0.006611 0.147837 -0.465980 0.185378 0.478760 -0.350045 -0.197530 -0.304938 -0.058249 0.036576 0.761646 -0.229648 -0.596498 -0.104275 -0.323816 0.449812 -0.478352 -0.349273 0.354197 -0.212602 0.177331 -0.021094 0.436661 -0.206747 0.231071 0.004851 -0.313774 -0.013556 -0.317901 -0.666656 0.043337 0.291666 0.698102 -0.499279 -0.390718 -0.252832 -0.350177 0.016089 -0.080499 -0.176638 -0.501471 -0.272449 0.422067 0.410239 -0.208480 0.372094 -0.136064 0.143693 -0.503261 0.078455 0.396085 0.192168 -0.109229 0.556818 0.152390 -0.364068 0.309873 -0.300589 -0.012722 0.614440 -0.101141 -0.406316 0.142846 -0.444378 0.062980 0.284714 -0.156118 0.023450 0.245627 0.945102 -0.322389 0.092320 0.282032 -0.241902 -0.340556 0.545619 -0.865004 -0.447482 0.082167 -0.113757 -0.319028 -0.671982 -0.165193 0.435983 -0.137634 -0.230402 -0.083038 -0.112314 -0.300317 -0.091575 0.592194 0.474666 -0.442011 -0.069857 0.170211 -0.307464 0.030612 -0.616280 0.285044 -0.498337 -0.054993 0.002406 0.098353 -0.206453 -0.060607 0.260981 -0.031934
221 0.299772 -0.489733 -0.328155 -0.106042 -0.196403 0.383523 0.148869 0.492916 0.450124 0.096194 -0.091499 0.368066 0.249946 -0.940349 0.275816 -0.096028 0.316872 0.430559 0.332603 0.417210 -0.427282 -0.027273 0.175159 -0.454744 0.170109 0.457868 -0.330666 -0.239918 -0.276753 -0.037846 -0.011159 0.783753 -0.215097 -0.600452 -0.119970 -0.331162 0.457406 -0.471970 -0.319485 0.317485 -0.263548 0.181654 -0.020149 0.460935 -0.195621 0.273715 -0.015550 -0.298551 -0.014573 -0.303867 -0.708340 0.018998 0.257688 0.709798 -0.490694 -0.413979 -0.240470 -0.354869 0.025434 -0.053685 -0.157917 -0.521111 -0.266417 0.413275 0.438128 -0.170796 0.356073 -0.140623 0.132674 -0.475091 0.062739 0.407057 0.184102 -0.075437 0.593759 0.128486 -0.326793 0.329700 -0.335989 -0.058663 0.628784 -0.083883 -0.402573 0.144839 -0.476785 0.048363 0.299010 -0.153431 -0.016056 0.265040 0.947237 -0.332792 0.171119 0.273932 -0.247042 -0.361174 0.534717 -0.874288 -0.469758 0.080214 -0.123041 -0.307372 -0.664720 -0.147686 0.379605 -0.116725 -0.205964 -0.084744 -0.166977 -0.256169 -0.105499 0.597762 0.412085 -0.416264 -0.089759 0.209896 -0.318374 0.013401 -0.622480 0.280819 -0.525997 -0.115619 0.034250 0.072523 -0.199644 -0.110647 0.246219 -0.056626
224 0.314223 -0.536525 -0.333983 -0.154650 -0.166903 0.401699 0.105911 0.476780 0.470378 0.098146 -0.096116 0.411958 0.232524 -0.957246 0.266617 -0.061778 0.319339 0.478680 0.318557 0.426050 -0.480917 -0.018480 0.135950 -0.476367 0.163621 0.475901 -0.318929 -0.217775 -0.306225 -0.060944 -0.001527 0.776305 -0.217848 -0.605721 -0.122362 -0.370631 0.447704 -0.503098 -0.344555 0.329403 -0.243914 0.193068 -0.010658 0.460713 -0.195616 0.244058 -0.000424 -0.326114 -0.025529 -0.306415 -0.704937 0.045668 0.277407 0.708404 -0.518035 -0.419905 -0.257347 -0.371033 0.040685 -0.043080 -0.167225 -0.518792 -0.298449 0.423681 0.445178 -0.210355 0.358484 -0.151203 0.135326 -0.506562 0.077824 0.393037 0.190037 -0.111268 0.583608 0.140777 -0.357206 0.313881 -0.312332 -0.039467 0.634847 -0.081199 -0.423709 0.153704 -0.454831 0.061428 0.305018 -0.181505 0.018315 0.276846 0.947540 -0.346047 0.150807 0.282355 -0.212851 -0.367530 0.578152 -0.883056 -0.463983 0.067279 -0.109344 -0.322602 -0.703734 -0.179797 0.425129 -0.124905 -0.235694 -0.098201 -0.129405 -0.316132 -0.108012 0.624422 0.437464 -0.440419 -0.073643 0.194185 -0.327113 0.020045 -0.642445 0.264138 -0.537609 -0.068660 0.010749 0.084978 -0.206482 -0.077474 0.247666 -0.020770
220 0.319383 -0.561206 -0.326570 -0.174999 -0.166461 0.387769 0.106350 0.471499 0.501044 0.107188 -0.078292 0.409684 0.242016 -0.954428 0.245531 -0.052264 0.325782 0.496995 0.351619 0.423409 -0.482186 -0.015728 0.120146 -0.497746 0.190850 0.473797 -0.331705 -0.208187 -0.297424 -0.074344 0.009351 0.765602 -0.231855 -0.601333 -0.113019 -0.363126 0.448014 -0.504825 -0.341402 0.341051 -0.234361 0.187397 -0.013104 0.457732 -0.198142 0.252544 0.002196 -0.345091 -0.027463 -0.319113 -0.706628 0.068498 0.285547 0.701637 -0.508005 -0.420455 -0.245804 -0.365030 0.034390 -0.063725 -0.169474 -0.512518 -0.299393 0.429443 0.453375 -0.217806 0.351861 -0.152076 0.142033 -0.517818 0.062085 0.400623 0.182894 -0.101654 0.594920 0.135795 -0.374090 0.336690 -0.303955 -0.040715 0.651293 -0.098673 -0.414394 0.150212 -0.473919 0.079330 0.311909 -0.182067 0.014800 0.274898 0.956170 -0.342256 0.124713 0.292987 -0.216738 -0.352129 0.570089 -0.883838 -0.460050 0.080516 -0.110827 -0.319827 -0.713739 -0.189572 0.437275 -0.113842 -0.240555 -0.089330 -0.136000 -0.318806 -0.103561 0.628534 0.455869 -0.449716 -0.066475 0.168585 -0.316993 0.008712 -0.636018 0.271126 -0.526674 -0.053178 0.009931 0.067330 -0.199954 -0.058935 0.254509 -0.012432
233 0.355682 -0.361723 0.442578 0.250700 0.083113 0.545119 0.450955 0.165819 -0.116011 -0.069782 -0.504643 0.018064 -0.030064 -0.949245 0.678397 -0.156550 -0.215491 0.293475 -0.277118 -0.036622 -0.149320 -0.295651 0.433491 0.062818 -0.137041 0.430222 0.106256 -0.802119 0.300078 0.240453 -0.033077 1.120628 -0.084687 -0.182697 -0.589539 -0.070382 0.410312 -0.271649 -0.246051 0.341120 -0.971561 0.027035 -0.179191 0.325218 -0.158095 0.277742 -0.328901 -0.106548 0.265759 0.393160 -0.621957 -0.230664 -0.169832 0.509879 -0.516015 -0.154325 -0.877778 -0.340056 0.348016 0.587337 0.191916 -0.905147 -0.525028 0.693781 0.307479 -0.499838 0.469642 0.134361 -0.323538 -0.388252 0.114982 -0.155072 0.294002 0.138802 0.142407 0.448737 0.251082 -0.341898 -0.074186 -0.058929 0.095535 0.023054 -0.229084 0.262389 -0.418262 -0.021023 -0.150916 -0.223816 0.439348 0.171379 1.163112 -0.475743 0.761634 -0.026360 0.093192 -0.032599 0.785561 -1.060089 -0.986613 -0.221265 -0.685857 -0.764213 -0.518863 0.194739 -0.106808 -0.758462 -0.118803 -0.142445 -0.253552 0.315079 0.204673 0.472465 0.208156 -0.461114 -0.192522 0.595254 -0.723891 -0.164741 -0.806592 0.336865 -1.225530 -0.144973 0.614885 0.081191 -0.203107 -0.212911 0.229301 -0.134285
73 0.120845 0.035169 0.240941 -0.538817 0.681417 0.643457 0.346505 0.670874 0.085633 -0.364759 -0.293391 -0.262047 0.468224 -0.661071 0.221556 -0.302053 -0.228238 0.223437 -0.291790 0.225646 0.565141 0.045149 0.546098 -0.198072 -0.086123 0.712979 -0.009258 0.285923 0.032667 0.209780 0.058074 0.508847 -0.339076 -0.768462 0.184135 -0.429573 0.705542 -0.553782 -0.619893 0.289678 -0.665446 0.031522 -0.308952 -0.238893 -0.052768 0.609847 0.274189 0.027706 0.028544 0.091245 -0.632207 -0.200419 0.682191 0.316519 -0.524181 -0.541261 -1.079893 -0.241607 0.208319 0.442593 -0.239743 -0.569339 0.011060 -0.000746 0.076759 -0.302015 0.875257 -0.482818 0.418974 0.010318 0.588567 0.489257 0.463322 0.501767 0.664721 0.302279 -0.080260 -0.374668 0.123244 0.336063 0.286530 -0.365769 -0.427919 -0.255373 -0.063972 0.167801 0.357775 0.299060 0.545209 0.255034 1.066904 0.010469 0.367836 0.257996 -0.284208 -0.196487 0.622043 -0.977494 -0.406083 0.272851 -0.466878 -0.113083 -0.445383 -0.286965 0.311551 -0.240816 -0.064037 0.189375 -0.299073 -0.134880 -0.018940 0.463424 0.784600 -0.813723 -0.257211 0.484349 -0.781344 -0.135633 -0.608726 0.081245 -0.257770 -0.131516 0.455110 -0.039618 0.250830 0.162706 0.383618 -0.292782
236 -0.004940 -0.042456 -0.092664 0.070451 -0.340269 -0.017157 0.071155 -0.034732 0.074357 0.190666 -0.217868 0.220510 0.015384 -0.315401 -0.003982 -0.085839 0.139405 0.211113 -0.015383 -0.102258 0.047703 0.141301 0.490514 -0.287444 -0.074771 0.177883 0.087171 -0.202613 -0.196999 -0.137412 0.112952 0.451516 0.186989 -0.326984 0.077775 -0.234055 0.133988 -0.196788 -0.057853 0.360371 -0.191348 -0.160612 -0.068143 0.222981 -0.095502 -0.029739 0.122789 -0.187277 -0.155923 0.005006 -0.574323 0.021173 -0.021397 0.254752 -0.336825 -0.006247 -0.009025 -0.541982 -0.286207 0.372959 -0.085423 -0.218881 0.069841 0.317121 0.395749 0.008272 -0.092500 -0.035863 0.138909 -0.130716 0.118488 0.267288 0.364020 -0.419947 0.277241 0.212328 -0.221333 0.358113 0.006991 0.001695 0.362535 -0.056365 0.072807 -0.294797 -0.245058 -0.019026 0.080748 -0.023807 -0.217183 0.246717 0.372388 0.160415 -0.124482 -0.066869 -0.321161 0.015929 0.499264 -0.237925 -0.465675 0.576093 -0.189484 -0.117473 -0.497154 0.458604 0.196950 0.164571 -0.091401 -0.180514 0.042262 0.100900 -0.014992 0.471721 0.212215 0.036462 0.005065 0.061591 0.261325 -0.118146 -0.370577 0.067492 0.120956 0.099734 -0.075780 -0.272262 -0.267126 0.210371 0.172546 -0.051682
129 -0.111443 -0.291678 -0.242770 0.065952 0.147846 0.017259 0.308577 0.424256 0.322781 0.176961 0.262810 0.043468 0.225162 -0.468502 0.273318 -0.156100 0.327292 0.167526 0.169002 -0.090856 0.241251 0.029928 0.016924 -0.762316 0.284384 0.063793 -0.325435 0.098915 -0.261252 -0.350831 0.091453 0.361863 -0.054194 -0.107394 0.161404 -0.023878 0.352718 -0.103971 -0.413784 0.258203 -0.134499 0.320416 -0.307482 0.121660 -0.084552 0.257476 0.315189 -0.117010 0.142737 -0.217947 -0.216716 0.190042 0.176555 0.240387 -0.339370 -0.166817 0.414696 0.044642 -0.212476 -0.531125 -0.152396 0.152709 -0.141871 0.307531 0.123823 -0.059216 0.211799 0.107377 0.277731 -0.272092 0.173181 0.319668 -0.063826 0.109125 0.534182 -0.227153 -0.087509 0.629698 -0.439284 0.056779 0.491936 -0.004866 -0.113360 -0.086152 -0.528310 -0.021446 0.070331 0.147269 -0.228504 0.024932 0.487211 -0.193018 -0.029755 0.165722 -0.294136 -0.178765 -0.036195 -0.380193 -0.476082 0.234339 0.072389 -0.263756 -0.105819 0.138005 0.288049 -0.245574 -0.000360 0.199164 -0.029632 -0.229961 -0.130815 0.452524 0.139148 0.051581 -0.261605 0.311159 0.068187 -0.178058 0.099900 0.238397 0.165005 -0.237512 -0.152740 -0.059202 -0.108035 -0.007740 0.644949 -0.344439
