192 128
59 0.102924 -0.218291 -0.065612 -0.131100 0.025151 0.282779 0.304676 0.248779 -0.050004 0.369660 -0.077068 0.207943 0.107939 0.150463 -0.033376 -0.120285 0.127309 -0.285376 0.039689 0.481272 0.279546 -0.282043 0.161006 -0.227511 0.089942 -0.326865 -0.255745 0.343502 0.100931 -0.137031 -0.340407 0.040080 0.057851 0.249514 -0.124263 0.167862 -0.074119 -0.102572 -0.368909 0.013906 -0.280964 0.104545 -0.235116 -0.172401 0.133061 0.196545 -0.195982 -0.260427 0.108443 -0.089812 -0.134935 0.071643 -0.263882 -0.022094 -0.060013 -0.438014 0.481589 0.209170 -0.079427 -0.380102 0.114396 0.030966 -0.395728 0.099801 -0.121332 0.014976 -0.382415 0.486119 0.145018 -0.030171 0.122686 -0.028820 0.033823 -0.243746 0.607598 0.077690 0.018013 0.534552 0.045726 0.116442 -0.215532 -0.061720 -0.215944 -0.042353 0.024440 -0.048048 0.220875 -0.170604 -0.093694 -0.015845 0.358601 -0.116015 -0.020778 0.193792 -0.058497 0.010433 -0.073290 -0.068806 0.092530 -0.118976 -0.234684 -0.089307 -0.390327 -0.273575 0.214703 0.391233 0.407239 0.502416 -0.004948 0.376602 0.126088 -0.162740 -0.155971 0.049455 0.108759 0.384883 -0.300734 -0.041771 -0.017783 -0.230493 -0.091256 -0.079525 -0.048667 -0.302040 -0.151551 -0.228227 0.342099 0.083894
62 0.274272 -0.215963 0.095189 -0.103328 0.006269 0.017987 0.211344 0.249099 0.116968 0.013520 -0.172518 0.053672 -0.073304 0.024704 -0.140035 -0.017955 0.242126 -0.204202 0.044770 0.395257 0.236337 -0.072882 0.174108 -0.211659 0.009030 -0.491807 -0.206757 0.273750 -0.166218 -0.187418 -0.339756 0.088493 0.073322 0.302302 -0.096468 0.068303 -0.168239 -0.113285 -0.410443 0.063890 -0.513660 0.090918 -0.395237 -0.206999 0.247025 -0.168503 0.066651 -0.180424 -0.065322 -0.221474 -0.261433 0.018270 -0.178657 0.102783 0.053598 -0.434357 0.202488 0.194434 -0.145028 -0.212043 0.049243 0.044422 -0.186282 0.029638 -0.262847 0.112628 -0.121452 0.401022 -0.112245 -0.142038 0.028125 -0.058428 0.117331 -0.079114 0.469924 0.038963 0.053622 0.401342 -0.157483 0.074495 -0.017787 0.098455 -0.272405 -0.080579 0.304855 0.038919 0.252001 0.043761 -0.007134 -0.127250 0.106092 -0.136735 0.212453 0.257235 -0.014385 0.097234 -0.096983 0.069337 0.140559 0.036729 -0.215191 -0.002893 -0.086743 -0.351834 0.321780 0.398065 0.426682 0.374904 -0.096276 0.191797 0.207266 0.198348 -0.304114 -0.046700 0.209313 0.142266 -0.219829 -0.124080 0.028921 -0.185580 -0.040417 -0.209456 0.110494 -0.279892 -0.299712 0.098396 0.223919 -0.046175
46 0.188548 -0.227820 -0.083340 -0.127410 0.057638 0.206536 0.278194 0.301826 -0.081512 0.241168 -0.045373 0.123466 0.104991 0.061054 -0.086090 -0.031653 0.144967 -0.274512 0.057642 0.428505 0.180359 -0.309011 0.086347 -0.199485 0.150453 -0.313694 -0.318827 0.343210 0.128601 -0.167667 -0.381110 -0.007982 0.043588 0.216077 -0.130387 0.180630 -0.039483 -0.111182 -0.370131 0.062481 -0.345557 0.067296 -0.271703 -0.182323 0.175369 0.141907 -0.209114 -0.284172 0.123731 -0.250064 -0.124308 -0.057891 -0.247561 -0.018104 -0.123856 -0.499658 0.334815 0.170425 -0.066233 -0.354565 0.116195 -0.048569 -0.317130 0.064436 -0.157531 -0.009938 -0.327054 0.529791 0.116034 -0.023411 0.053144 -0.037817 0.079220 -0.136472 0.561190 0.066115 0.039898 0.457915 -0.039947 0.078673 -0.125699 -0.036528 -0.244800 -0.047097 0.065341 -0.031416 0.273300 -0.176894 -0.081698 -0.003374 0.325952 -0.179109 -0.009537 0.168598 -0.020117 0.014412 0.068302 -0.081902 0.183038 -0.067511 -0.238700 -0.128498 -0.325270 -0.217471 0.224216 0.346380 0.376158 0.451432 -0.032263 0.354023 0.195086 -0.078248 -0.204514 0.019109 0.101490 0.384104 -0.408891 -0.064912 -0.108743 -0.175275 -0.109315 -0.108196 -0.029058 -0.268457 -0.191470 -0.179332 0.299202 0.074328
50 0.079513 -0.132693 -0.106709 -0.022780 -0.039969 0.139667 0.379814 0.186931 -0.128689 0.281621 -0.016316 0.104214 0.083702 0.084870 -0.011017 -0.115150 0.155396 -0.246039 0.041251 0.439135 0.199866 -0.303188 0.217889 -0.164787 0.251489 -0.296281 -0.248487 0.345666 0.195530 -0.050001 -0.338602 -0.012261 0.126102 0.160864 -0.157366 0.138483 0.104253 -0.084525 -0.231478 0.034896 -0.292838 -0.007068 -0.118207 -0.020171 0.127788 0.159212 -0.242395 -0.237872 0.085849 -0.056664 -0.243090 -0.004118 -0.202027 -0.036865 -0.132795 -0.457809 0.317770 0.162093 -0.101890 -0.278014 0.120475 -0.230125 -0.308254 0.061906 0.045242 0.050621 -0.403578 0.458151 0.132687 0.034201 0.077615 0.073557 0.154808 -0.287398 0.384917 0.040394 0.079933 0.424530 -0.033880 0.189009 -0.171983 -0.056563 -0.117036 -0.073258 -0.067676 -0.065088 0.260216 -0.185846 0.029311 0.022248 0.426101 0.006784 0.051071 0.015395 -0.095284 0.036514 0.000713 -0.029739 0.113274 -0.094905 -0.306835 -0.000090 -0.316155 -0.076788 0.056996 0.476279 0.466357 0.416479 -0.048590 0.539133 0.145405 -0.053966 -0.158221 0.108767 0.125258 0.434361 -0.351194 -0.037508 -0.091542 -0.285366 -0.120137 -0.095632 -0.024566 -0.278664 -0.126009 -0.195792 0.272329 0.088136
85 0.100433 -0.249536 0.171791 -0.101310 0.043013 0.300265 0.354506 0.047320 -0.008221 0.453375 -0.096547 0.050575 0.045016 0.140267 -0.090572 0.006872 -0.033133 -0.086671 0.094190 0.408365 0.311673 -0.336116 0.332190 -0.366699 0.117341 -0.336234 -0.165792 0.359896 0.080407 -0.185272 -0.210975 0.172816 0.033470 0.095511 -0.128420 0.028809 0.170206 0.090631 -0.419035 0.088976 -0.210114 -0.157785 -0.147885 0.060938 0.164746 0.072034 -0.146428 -0.142209 0.027557 -0.032780 -0.303541 0.048244 -0.361744 -0.170206 -0.199634 -0.410719 0.462215 0.049680 -0.180922 -0.237879 0.111034 -0.060514 -0.292140 0.125101 0.047320 0.020129 -0.569283 0.311148 0.124570 -0.163536 0.234962 0.045853 0.050942 -0.310709 0.302395 0.081390 0.120635 0.380993 0.094147 0.249365 -0.169382 -0.140174 0.010026 -0.132917 -0.128980 -0.107200 0.220711 -0.131530 0.167375 0.083579 0.427664 0.139253 0.107084 0.101594 -0.092976 0.131162 0.061895 0.003040 -0.140922 0.175968 -0.301311 -0.068401 -0.222872 -0.195559 0.159541 0.563959 0.315175 0.372056 0.057625 0.413519 -0.038720 0.069238 -0.136765 0.028653 0.313827 0.382746 -0.254770 -0.044930 -0.107918 -0.294382 -0.081201 0.042938 -0.115765 -0.388143 -0.218022 -0.048656 0.284497 -0.060940
117 -0.139670 -0.370927 -0.066348 -0.163176 -0.020757 -0.032583 -0.048069 -0.151201 0.457784 0.070480 -0.253339 0.099641 -0.158076 -0.104204 -0.335580 0.165455 0.013195 0.091658 0.051292 0.083669 0.044461 0.071962 -0.508878 -0.120417 0.143793 -0.327114 0.102566 0.235233 0.075479 -0.016640 0.143375 -0.204240 0.118404 0.392680 -0.081774 0.327851 0.062440 -0.211026 0.205981 -0.139238 -0.080532 0.567630 -0.071323 -0.130912 -0.168816 -0.180911 -0.169684 -0.223467 0.414815 -0.189081 0.221876 0.311886 0.237098 0.367464 -0.152699 -0.125231 -0.419580 0.051776 -0.121740 -0.345943 0.054280 -0.473765 0.008382 0.234748 -0.124864 -0.289314 -0.271419 0.208290 -0.140633 -0.263120 -0.433996 0.102861 -0.209525 -0.052238 0.165921 0.157931 0.157862 -0.203069 -0.009155 -0.062921 -0.321541 -0.143710 -0.277178 0.108313 0.297541 0.413738 -0.015512 0.188670 0.179164 -0.024305 0.063348 -0.204854 0.001341 0.311029 0.527060 -0.139612 0.266238 -0.305100 -0.136668 -0.192798 -0.020421 -0.021378 -0.652988 -0.506410 -0.005708 0.008463 0.213293 0.245713 -0.055706 0.345588 0.164531 -0.328601 0.224082 -0.244983 0.327459 -0.078554 -0.122405 0.227539 -0.180375 0.160681 -0.048218 0.255919 0.352010 0.230999 0.050729 0.227480 0.207999 0.567544
195 -0.117776 -0.385666 0.074096 -0.450398 -0.219757 0.071500 -0.076915 -0.057070 0.161032 0.391442 0.063175 -0.108285 -0.212205 0.048471 -0.202132 0.057885 0.038860 0.174192 0.544737 -0.039799 -0.013439 0.041850 -0.166461 -0.051949 -0.165643 -0.124211 0.165602 0.156384 0.192947 0.057285 0.034225 -0.064293 0.007626 0.604035 -0.403598 0.172873 -0.406598 -0.380777 -0.005158 -0.206371 -0.096245 0.369737 0.030422 -0.243387 -0.143468 -0.179118 -0.437323 -0.033084 -0.304711 0.198971 -0.191374 0.265297 0.085118 0.200031 -0.368717 -0.507300 -0.216906 -0.397646 -0.340124 -0.330150 0.073707 -0.274023 0.208318 0.426791 -0.534458 0.087614 -0.057092 0.008578 -0.270098 -0.456984 -0.557359 0.058997 0.276537 -0.236817 0.087277 0.304294 0.262895 0.118761 -0.088072 0.198282 -0.215679 0.005170 -0.097841 0.005321 0.180198 0.265133 0.164949 0.373161 0.189593 0.373509 0.515653 0.170141 0.166247 0.367431 0.183043 -0.027720 0.035573 -0.336915 -0.244168 0.155652 0.147701 0.132594 -0.237069 -0.141207 0.236870 0.251303 0.139612 0.475527 -0.203651 0.452554 0.444413 -0.218071 -0.080507 -0.318721 0.577128 0.135514 -0.105018 0.287658 -0.203571 0.247484 -0.073696 0.177980 0.501228 0.159268 0.234199 0.247662 -0.334515 0.733391
177 -0.061285 -0.172803 -0.225270 0.003276 -0.233690 0.049670 0.044794 -0.240261 0.270679 0.109248 -0.387239 0.178926 -0.275841 -0.149033 -0.120681 -0.006923 0.006132 0.054285 -0.243750 0.227069 -0.136596 0.133711 -0.247754 -0.291586 -0.138001 -0.341746 0.320138 0.335313 -0.117470 0.127708 -0.064617 -0.094448 0.310519 0.513307 0.061935 0.418614 0.081971 -0.110588 0.245493 -0.266220 -0.108265 0.501841 0.000587 -0.065802 -0.003054 -0.249956 -0.102744 -0.157838 0.253667 -0.121344 0.191607 0.268196 0.178943 0.370829 -0.310368 -0.378931 -0.676151 0.009957 0.118734 -0.251376 0.011707 -0.508931 0.029862 0.086331 -0.236397 -0.362753 -0.240708 0.107662 -0.347891 -0.383415 -0.391221 0.156337 -0.168518 -0.115182 -0.017769 0.152546 0.269519 -0.243709 -0.108156 -0.234836 -0.427076 0.007578 -0.338960 0.037562 0.401600 0.404777 -0.106584 0.213466 0.332508 -0.270400 0.131315 -0.092930 0.272513 0.439611 0.681529 -0.300572 0.065358 -0.160109 -0.325376 -0.250963 0.111492 -0.088186 -0.704827 -0.761650 -0.144759 0.257184 0.308878 0.078706 -0.297829 0.282055 -0.048827 -0.251911 -0.091315 -0.167685 0.388654 -0.072858 -0.117381 0.443304 -0.122694 0.153819 -0.189743 0.130142 0.325552 0.563291 0.242897 0.231354 0.029863 0.406576
57 0.002363 -0.100661 -0.191549 -0.087541 -0.049517 0.207525 0.338008 0.292719 0.003462 0.335682 -0.096518 0.256163 0.066159 0.147548 -0.056567 -0.189071 0.082395 -0.357126 -0.010987 0.483416 0.147028 -0.241856 0.204001 -0.148974 0.137794 -0.268297 -0.287776 0.351672 0.092131 -0.021899 -0.311298 -0.014443 0.125473 0.234190 -0.095970 0.145212 0.010104 -0.076059 -0.254471 0.083242 -0.219988 0.163955 -0.058473 -0.166904 0.070574 0.160793 -0.221423 -0.307473 0.192172 -0.118477 -0.036999 0.034409 -0.224185 -0.005234 -0.068202 -0.486511 0.339768 0.212866 -0.040516 -0.380856 0.118801 -0.143924 -0.418474 0.148053 0.043972 -0.141476 -0.494099 0.467338 0.229953 0.082526 0.131999 0.086177 -0.007635 -0.258684 0.523608 0.079556 0.005102 0.455669 0.068495 0.134180 -0.309249 -0.100011 -0.269103 -0.092618 0.148660 0.019129 0.265110 -0.261080 -0.076356 -0.006257 0.337304 -0.157658 -0.084388 0.125602 -0.009353 -0.069528 -0.005315 -0.101939 0.200339 -0.187138 -0.274701 -0.072712 -0.492636 -0.351696 0.182471 0.377610 0.483779 0.344335 -0.003358 0.444774 0.143080 -0.250830 -0.149547 0.042855 0.007519 0.374661 -0.339083 0.014969 -0.159464 -0.279761 -0.013383 0.030721 -0.019613 -0.199165 -0.162231 -0.247290 0.379481 0.138764
88 0.058959 -0.132495 -0.022489 -0.103494 -0.009344 0.236099 0.382788 0.119284 -0.181184 0.385443 -0.077420 0.217876 0.050158 0.211162 0.005313 -0.149042 0.078192 -0.201483 0.082761 0.431112 0.275761 -0.253611 0.136867 -0.200233 0.156198 -0.312024 -0.185631 0.368910 0.224335 -0.010932 -0.374268 0.096400 0.141958 0.180571 -0.064872 0.161178 0.139912 -0.038505 -0.225511 0.076224 -0.221655 -0.014595 -0.130144 -0.034487 0.142848 0.223289 -0.103198 -0.269212 0.028647 -0.058536 -0.245934 0.040719 -0.259940 -0.018108 -0.071668 -0.429676 0.356716 0.146939 -0.113558 -0.278978 0.147539 -0.108876 -0.415978 0.043798 -0.010603 0.031440 -0.450161 0.394150 0.218145 -0.027846 0.136549 0.065203 0.032036 -0.283460 0.441856 0.095910 0.129689 0.412527 0.083831 0.156306 -0.214646 -0.080827 -0.144276 -0.168606 -0.036438 -0.045599 0.269404 -0.226251 -0.006432 -0.120766 0.451242 0.040844 0.031423 0.041200 -0.066520 0.047118 -0.110597 0.043722 0.040000 -0.116327 -0.333223 -0.010215 -0.345847 -0.327776 0.069212 0.568620 0.446767 0.334510 -0.041703 0.582442 0.125818 -0.034735 -0.136923 0.098539 0.197359 0.404788 -0.245545 -0.053243 -0.104996 -0.270170 -0.090941 -0.105889 -0.161562 -0.341403 -0.153147 -0.202291 0.217774 0.009950
153 0.091334 -0.364727 -0.122267 -0.199539 -0.057312 0.134622 -0.033939 -0.138252 0.312557 0.094872 -0.311962 0.233870 -0.197601 -0.128499 -0.071045 0.118928 0.007952 0.064776 -0.143469 0.135438 -0.269380 0.193550 -0.210606 -0.116059 -0.086317 -0.298224 0.158626 0.252480 -0.192085 -0.036178 -0.035064 -0.012523 0.120141 0.440950 0.076632 0.334279 -0.082086 -0.280192 0.071968 -0.111082 -0.139623 0.299670 -0.047038 -0.191464 0.100247 -0.010801 -0.042462 -0.187781 0.122003 -0.175425 0.144262 0.296991 0.161057 0.359060 -0.398183 -0.419015 -0.543836 -0.095201 0.043065 -0.237831 0.049687 -0.374353 -0.173849 0.134547 -0.244765 -0.326436 0.018166 0.141064 -0.366032 -0.319086 -0.228584 0.088937 -0.074530 -0.051308 0.121486 0.140099 -0.054192 -0.106442 -0.313408 -0.155598 -0.235424 0.215727 -0.552599 0.101084 0.523332 0.176805 -0.152485 0.165738 0.288393 -0.173432 0.139137 -0.133428 0.218412 0.563877 0.585921 -0.256871 0.169934 -0.214374 -0.212351 -0.185166 0.064287 -0.121695 -0.582550 -0.592148 0.143961 0.110476 0.190590 0.123914 -0.211787 0.125107 0.086214 0.059008 -0.121538 -0.117062 0.297051 -0.094693 -0.058391 0.339957 -0.228022 0.028329 -0.236004 0.031888 0.295253 0.484135 0.206297 0.272862 0.119289 0.279711
22 0.135076 -0.138839 -0.063699 -0.115413 0.016608 0.285506 0.420647 0.322979 0.026097 0.396691 -0.062165 0.064770 0.150083 0.075013 -0.056993 -0.177278 0.056332 -0.285996 0.039593 0.479052 0.092324 -0.329865 0.334069 -0.162401 0.121477 -0.277951 -0.260868 0.333281 0.071697 -0.184509 -0.266907 0.087052 0.058034 0.120632 -0.231652 0.010696 -0.016184 0.022802 -0.377249 -0.021292 -0.331843 0.023207 -0.107228 -0.083806 0.152836 0.158193 -0.287930 -0.180144 0.250699 -0.149797 -0.122783 0.075129 -0.315012 -0.122615 -0.209867 -0.444065 0.399386 0.114309 -0.043121 -0.290498 0.114476 -0.027185 -0.409341 0.149337 0.034875 -0.059501 -0.497973 0.502111 0.090296 -0.019524 0.244782 0.010086 0.035376 -0.214422 0.446410 0.051699 -0.057801 0.450724 0.007486 0.144204 -0.199420 -0.072446 -0.201448 0.016795 -0.006497 -0.129992 0.195952 -0.243133 0.036222 -0.000479 0.392056 -0.171645 0.098468 0.228455 -0.020073 -0.072968 0.057746 -0.168033 0.119795 -0.045129 -0.274316 -0.144064 -0.391357 -0.177924 0.208722 0.317504 0.373287 0.404067 0.033136 0.252057 0.124861 -0.096350 -0.204065 0.025366 0.007213 0.423484 -0.420452 0.011757 -0.066748 -0.225978 -0.105653 -0.054801 0.032654 -0.223481 -0.154771 -0.190463 0.352256 0.038367
61 0.169949 -0.202916 -0.105168 -0.210012 0.028529 0.095797 0.353511 0.302181 -0.116229 0.145654 -0.036845 0.064040 0.021453 0.130777 0.013387 -0.115408 0.182690 -0.248588 0.044164 0.493327 0.047645 -0.295296 0.282532 -0.036060 0.226875 -0.332792 -0.330012 0.388584 0.170117 -0.122475 -0.389391 -0.019296 0.141048 0.207155 -0.249632 0.212147 -0.195887 -0.198895 -0.260815 -0.053257 -0.334563 0.110647 -0.190725 -0.146168 0.150353 0.166638 -0.234786 -0.119620 0.006017 -0.097167 -0.285747 -0.093220 -0.084306 0.024429 -0.077658 -0.488571 0.327421 0.124791 -0.032475 -0.390198 0.089180 -0.160953 -0.178055 -0.026728 -0.187761 0.248672 -0.211079 0.407589 0.068139 0.177455 -0.007663 -0.132087 0.140306 -0.245419 0.378050 0.021253 0.073032 0.342001 -0.171955 0.133721 -0.135011 0.024471 -0.344049 -0.053018 0.217697 -0.145826 0.339341 -0.186534 -0.023620 -0.039088 0.191902 -0.019379 0.082874 0.158582 -0.104739 0.034008 -0.016514 0.034033 0.277897 -0.108303 -0.132828 0.018090 -0.088496 -0.207338 0.220150 0.418362 0.490008 0.370516 -0.185190 0.493486 0.239862 -0.021468 -0.364106 -0.020589 0.023348 0.305756 -0.263772 0.034092 -0.022580 -0.277557 -0.184540 -0.100494 0.083852 -0.203101 -0.120148 -0.188505 0.287920 0.009884
26 0.221377 -0.251462 0.153376 -0.063449 0.002027 0.273808 0.337069 0.130656 0.087686 0.328763 -0.096528 -0.012975 0.150148 0.105791 -0.180840 -0.104644 0.019505 -0.143810 0.009305 0.570368 0.168584 -0.315719 0.398413 -0.237205 0.111442 -0.372247 -0.184251 0.273268 -0.093390 -0.303419 -0.262688 0.115012 0.105846 0.043426 -0.266234 -0.048856 0.052288 0.146931 -0.548794 -0.097358 -0.491441 -0.081776 -0.241897 -0.079474 0.307494 0.023831 -0.245161 -0.050229 0.249975 -0.294579 -0.289592 0.118054 -0.295303 -0.202296 -0.261559 -0.408788 0.408429 0.041441 -0.088443 -0.224085 0.102391 0.072523 -0.300763 0.097613 -0.070330 0.055014 -0.538903 0.542271 -0.037633 -0.239920 0.195794 -0.165226 -0.009836 -0.078244 0.208257 0.013790 0.066114 0.372856 -0.006761 0.104180 -0.095602 -0.133932 -0.129710 0.002960 -0.066681 -0.108680 0.175336 -0.311702 0.099452 -0.018231 0.320183 -0.208428 0.272442 0.233597 -0.002621 0.028291 0.192312 -0.034606 -0.095578 0.165141 -0.247653 -0.134954 -0.279157 -0.133950 0.235919 0.364221 0.330213 0.368417 0.162080 0.154314 -0.082310 0.140687 -0.189040 -0.112053 0.111652 0.403620 -0.394077 -0.072267 0.007158 -0.318437 -0.149571 -0.027993 -0.078447 -0.339778 -0.348618 0.001146 0.286578 -0.102803
71 -0.056753 -0.179733 -0.004912 -0.149738 -0.247577 -0.016484 -0.127880 -0.269405 0.117454 -0.027086 -0.232777 -0.115888 -0.451390 -0.020615 0.019376 -0.059938 -0.099380 0.195006 0.333434 0.213857 -0.314324 -0.283780 0.114666 -0.230675 -0.359378 -0.425590 0.409390 0.017087 0.483792 0.077800 -0.311554 -0.014909 0.354811 0.366147 -0.281862 0.381568 -0.470524 -0.222847 0.181648 -0.143790 -0.019596 0.343466 -0.041562 0.019565 0.026123 -0.213589 -0.390662 -0.022845 0.037079 0.154353 -0.308885 -0.041306 0.077124 0.250570 -0.147514 -0.401275 -0.115243 -0.280848 -0.057084 -0.293432 -0.196277 -0.552143 0.271844 -0.018194 -0.298241 0.268070 -0.188051 0.017445 -0.549268 -0.144903 -0.529482 0.028509 0.063168 -0.100867 -0.033562 0.189427 0.602648 -0.274992 -0.098809 -0.232999 -0.162438 0.263199 0.020577 -0.013165 0.139012 0.318627 0.042330 0.129262 0.122823 0.182310 0.201137 0.175828 0.270733 0.348984 0.164826 0.012761 0.068324 -0.254991 -0.201212 -0.007870 -0.008920 0.058992 -0.232209 -0.352974 -0.263311 0.281333 0.374044 0.462481 -0.135901 0.372404 0.349440 0.085522 -0.216048 -0.271814 0.603821 0.103876 -0.123160 0.372605 -0.412834 0.222616 -0.374456 0.176854 0.575747 0.354273 0.181733 0.090735 -0.391733 0.363074
126 0.034245 -0.040135 -0.251423 -0.010430 -0.057585 -0.269430 0.271926 0.531604 0.453459 0.134404 -0.102431 -0.029642 0.076619 -0.300169 -0.139716 -0.126854 0.444482 -0.416833 -0.239587 0.362590 0.258219 -0.292722 0.107289 -0.551314 0.105058 -0.419408 -0.211520 0.461656 -0.066283 -0.196206 -0.067533 -0.169442 0.079337 0.424162 -0.324586 0.117570 -0.256088 0.018923 -0.428371 -0.106527 -0.506364 0.473928 -0.589528 -0.135167 0.069746 -0.091634 0.004390 -0.319949 0.173996 0.045853 -0.383692 0.375083 -0.062973 0.150909 0.017764 -0.433555 0.337779 0.184133 -0.138063 -0.372620 0.303334 -0.138129 -0.126436 -0.143982 0.009435 -0.032234 -0.190325 0.524926 -0.078000 0.083349 0.227904 0.070874 -0.014043 -0.189114 0.851228 -0.081395 0.051902 0.620153 -0.076581 -0.023780 -0.241759 0.074111 -0.178399 -0.052441 0.040663 -0.015966 -0.237762 0.315931 0.055316 -0.285567 0.085566 -0.139018 0.126447 0.426194 0.053707 -0.051396 -0.453678 -0.205427 0.261519 -0.353404 -0.297673 0.141586 -0.268893 -0.466962 0.094697 0.223593 0.312148 0.797718 -0.046106 0.000249 0.075121 -0.338904 -0.290232 0.184771 0.257516 0.042291 -0.187031 0.170992 0.416299 -0.056389 -0.070357 -0.245454 0.504826 -0.246265 0.037385 -0.035313 0.562369 0.035931
155 -0.073799 0.039592 -0.014594 -0.178506 -0.327407 0.077351 0.095994 0.030283 0.156020 0.236426 -0.110711 -0.237928 -0.417558 -0.139270 0.007095 -0.202804 -0.056403 0.160672 0.355115 0.209686 -0.366184 -0.377520 0.349450 -0.293130 -0.307693 -0.212615 0.309582 0.089125 0.468929 0.063308 -0.181385 0.084136 0.360928 0.322841 -0.525942 0.238509 -0.600750 -0.161934 -0.021598 -0.200591 -0.052861 0.373141 -0.036374 0.097289 -0.050350 -0.164568 -0.416072 0.066475 -0.099134 0.201849 -0.511376 0.084582 -0.036055 0.264498 -0.125855 -0.411907 0.080290 -0.439247 -0.064985 -0.328265 -0.037989 -0.433444 0.315045 0.052242 -0.289672 0.331754 -0.145970 0.022885 -0.574584 -0.195970 -0.369222 -0.062276 0.135076 -0.261305 0.068160 0.191998 0.402803 -0.167655 0.004768 -0.233341 -0.153366 0.143743 0.094642 0.022423 0.005122 0.183480 -0.049175 0.204428 0.200674 0.165749 0.376345 0.281734 0.351394 0.467233 0.076153 -0.077580 -0.181505 -0.296549 -0.160599 0.056940 -0.029942 0.183567 -0.076863 -0.427082 -0.165533 0.290798 0.271102 0.650662 -0.148630 0.238784 0.341761 -0.010929 -0.309900 -0.184638 0.673833 0.103487 -0.044847 0.452601 -0.180094 0.335089 -0.398876 0.241359 0.712231 0.212646 0.349514 0.023376 -0.463517 0.442501
64 -0.188897 -0.189518 -0.112991 -0.021234 -0.151315 -0.117409 0.139660 0.199277 0.390096 0.302754 -0.195257 0.213011 -0.034118 -0.063232 -0.247217 0.112185 0.293969 -0.321995 -0.044915 0.349536 0.344313 -0.094330 0.075930 -0.336230 0.169110 -0.368213 -0.146780 0.364806 -0.231814 -0.064800 0.097716 -0.206220 0.033010 0.311571 -0.118903 0.100228 -0.057744 -0.099432 -0.278631 0.022387 -0.190708 0.279346 -0.213986 -0.169908 -0.037216 -0.134727 -0.126588 -0.253083 0.043733 0.032348 -0.098087 0.303645 -0.126026 0.063832 -0.024806 -0.327428 0.235556 0.134779 -0.255946 -0.290214 0.090053 -0.271582 -0.104845 0.188265 0.061608 -0.318082 -0.400293 0.387116 0.197982 0.092727 0.186174 0.160485 -0.085748 -0.283200 0.513269 0.098077 -0.074866 0.524054 0.154144 0.054315 -0.362179 -0.203665 -0.140265 -0.218918 0.227165 0.151048 -0.028189 0.161279 0.018022 0.096683 0.048608 -0.085934 -0.283334 0.258701 0.150400 0.085229 -0.021533 -0.154134 0.120869 -0.120121 -0.304544 0.001675 -0.457345 -0.219825 0.180782 0.254772 0.210200 0.440569 0.138267 0.328973 -0.012976 -0.425790 0.065735 0.046883 0.261932 0.007026 -0.083395 0.059908 -0.082255 -0.265621 0.083089 0.164600 0.290534 -0.235820 -0.084217 0.059918 0.489695 0.273319
55 0.244186 -0.214889 0.074881 -0.075163 -0.039156 0.194350 0.430155 0.028372 -0.075269 0.258334 -0.108006 0.032817 0.105992 0.264714 -0.172829 -0.173675 0.089491 -0.151994 0.022195 0.576656 0.286710 -0.319982 0.291362 -0.193910 0.249341 -0.427605 -0.250224 0.418064 0.075090 -0.109181 -0.294036 0.133983 0.238494 0.084631 -0.122995 0.123987 0.072855 0.082338 -0.264324 0.010911 -0.424066 -0.176358 -0.275372 0.040994 0.305408 0.117539 -0.142543 -0.176744 0.099972 -0.111497 -0.415094 0.028187 -0.088337 -0.103738 -0.090224 -0.326701 0.358572 0.057654 -0.153086 -0.190244 0.048679 -0.140771 -0.333668 -0.091391 0.056857 0.177465 -0.373162 0.394969 -0.027925 -0.146685 0.126069 0.007265 0.175325 -0.270640 0.294717 0.053853 0.074513 0.337238 0.017494 0.168192 -0.008213 -0.083727 -0.162423 -0.056464 -0.103391 -0.143631 0.283177 -0.203734 0.201386 0.001546 0.415959 0.197382 0.202119 0.157796 -0.163915 0.009628 0.054622 0.100289 -0.054931 0.066019 -0.283877 0.122562 -0.255774 -0.127004 0.003809 0.594616 0.457019 0.357309 0.039900 0.459741 -0.022802 0.254558 -0.165139 0.114031 0.162202 0.309294 -0.280385 -0.077032 -0.038458 -0.423721 -0.121317 -0.194969 -0.105283 -0.331463 -0.230977 -0.125986 0.313774 -0.070563
237 -0.086990 -0.132434 0.298883 -0.186062 0.009614 0.317644 0.331487 -0.169598 -0.111343 0.476861 -0.296966 0.033445 -0.206993 0.203467 0.036124 -0.197334 -0.037537 0.168034 0.385857 0.184159 0.271950 -0.274126 0.532056 -0.264531 -0.292617 -0.242226 0.376190 0.144714 0.226865 -0.107092 -0.035075 0.482491 0.173265 0.286488 -0.228721 0.023208 -0.218881 -0.018856 -0.131650 0.061716 -0.128447 -0.157259 -0.056670 0.047870 0.076400 -0.064701 -0.064996 0.032745 -0.096329 0.465514 -0.389798 0.088083 -0.356683 -0.216917 -0.141120 -0.208079 0.358713 -0.216090 -0.273517 -0.015421 -0.058398 0.010773 -0.266351 0.251635 -0.017291 0.093906 -0.682187 0.106773 -0.066908 -0.229670 0.064134 0.025279 0.207187 -0.496006 0.154837 0.314814 0.243558 0.188910 0.382276 0.299671 -0.292251 -0.039205 0.050320 -0.179447 -0.082315 0.061310 0.308822 0.089891 0.104110 0.160223 0.425008 0.418265 0.242924 0.211463 -0.098333 0.153539 -0.162257 -0.168781 -0.539162 0.407892 -0.267870 0.003676 -0.083703 -0.205687 0.021514 0.534381 0.368542 0.380217 -0.142986 0.673089 0.260553 0.324716 -0.174716 -0.101908 0.379801 0.452075 -0.010158 -0.122216 -0.096015 -0.085545 -0.049235 0.045593 0.030188 -0.284293 -0.030251 0.066357 -0.012744 0.049957
227 -0.313177 -0.484718 -0.074582 -0.193188 -0.102943 -0.218855 -0.197374 -0.179977 0.490253 0.074779 -0.193535 0.196803 -0.271434 -0.133892 -0.284494 0.149631 0.052159 0.136567 0.250467 0.100038 -0.103886 -0.043154 -0.453524 -0.194553 -0.127898 -0.124972 0.203800 -0.026194 0.153474 0.029646 0.193485 -0.230112 0.211034 0.459150 -0.263441 0.293827 -0.077709 -0.264819 0.149243 -0.090146 -0.081875 0.560353 -0.052150 -0.178332 -0.188505 -0.317906 -0.361066 -0.247695 0.172746 -0.037184 0.012070 0.159343 0.263120 0.353480 -0.196756 -0.258906 -0.301230 -0.034671 -0.023835 -0.308808 -0.000478 -0.547750 0.084515 0.302580 -0.219937 -0.238269 -0.256718 0.227974 -0.214821 -0.362393 -0.629171 0.117254 -0.071457 -0.078102 0.093023 0.309237 0.356358 -0.070531 0.094548 -0.048581 -0.330952 -0.082569 -0.183838 -0.006623 0.191807 0.506637 0.049641 0.055496 0.146458 0.263563 0.165502 -0.197528 0.014361 0.264158 0.475246 -0.160499 0.324118 -0.335509 -0.344359 -0.117874 0.091265 0.077034 -0.582382 -0.441109 0.104797 0.039106 0.146806 0.213401 -0.112381 0.370665 0.255859 -0.217150 0.162269 -0.347616 0.326386 0.056623 -0.255331 0.287673 -0.248603 0.244840 -0.115561 0.381060 0.284044 0.209312 0.060471 0.361883 0.075683 0.712302
171 -0.157574 -0.160081 0.291534 -0.268333 -0.156669 0.123555 0.072217 -0.221902 -0.092729 0.385907 -0.256877 0.020044 -0.435001 0.332049 0.070594 -0.122197 -0.031706 0.087344 0.509874 0.255582 0.135292 -0.231291 0.571658 -0.213935 -0.326963 -0.350303 0.434740 0.202044 0.296905 0.024259 -0.088082 0.257341 0.271060 0.254999 -0.326847 0.098587 -0.486035 -0.090620 -0.069180 -0.064150 -0.000032 -0.005814 -0.081828 -0.037639 0.103464 -0.090455 -0.254981 0.114833 -0.205540 0.446774 -0.430720 0.075823 -0.203945 -0.132668 -0.118866 -0.314726 0.343495 -0.209127 -0.291078 -0.105162 -0.030982 -0.188087 0.000022 0.108580 -0.225965 0.178310 -0.536873 0.057688 -0.193168 -0.072834 -0.102384 -0.082418 0.164907 -0.354635 0.108977 0.291355 0.376857 0.087791 0.223070 0.120174 -0.258163 0.004208 0.072886 -0.212853 0.103936 0.161247 0.269555 0.125251 0.119887 0.123439 0.329551 0.403637 0.191635 0.227912 -0.101034 0.210617 -0.154267 -0.138181 -0.365356 0.289382 -0.185320 0.100588 0.021782 -0.250073 -0.036085 0.533486 0.416435 0.391035 -0.111904 0.570468 0.255069 0.160857 -0.265354 -0.211544 0.467137 0.356854 -0.013413 0.030076 -0.286744 -0.118784 -0.134022 0.130412 0.251923 -0.138495 0.025063 0.053060 -0.227842 0.157084
77 0.182330 -0.294921 0.206689 0.006246 0.040259 0.399761 0.300092 0.046035 0.218230 0.450896 -0.063310 -0.070037 0.167147 -0.031096 -0.125236 0.055533 -0.140097 -0.010302 0.006872 0.496819 0.088905 -0.377030 0.429898 -0.398902 0.136650 -0.350961 -0.146670 0.325590 -0.060376 -0.387714 -0.153680 0.172321 -0.068726 -0.009880 -0.212574 -0.055887 0.239745 0.229084 -0.550677 -0.070666 -0.281316 -0.109013 -0.057896 0.118651 0.198478 0.022618 -0.304729 -0.017192 0.312683 -0.253532 -0.215695 0.164575 -0.369227 -0.218248 -0.428668 -0.479071 0.415782 0.009880 -0.055960 -0.289959 0.078341 -0.035914 -0.302214 0.166267 0.059560 -0.045301 -0.646667 0.403143 -0.091182 -0.287195 0.304166 -0.049826 -0.027970 -0.126021 0.117429 -0.048635 0.090511 0.273419 -0.065823 0.154688 -0.088945 -0.137950 0.001545 0.068532 -0.193643 -0.175298 0.040456 -0.236047 0.343946 0.116866 0.428843 -0.081852 0.283465 0.254476 0.046549 0.066774 0.290283 -0.134141 -0.233682 0.220614 -0.256250 -0.253464 -0.311588 -0.106400 0.182741 0.365164 0.209575 0.402894 0.144949 0.067410 -0.228504 0.081044 -0.111656 -0.097879 0.281956 0.402509 -0.411433 0.098947 -0.116814 -0.226569 -0.227292 0.093014 -0.007159 -0.163473 -0.232377 0.028368 0.327517 -0.140283
32 0.192776 -0.346697 -0.332325 0.273953 -0.478402 0.245701 0.441478 -0.220095 -0.575643 0.543670 -0.318884 0.151795 -0.318803 -0.098378 0.141563 -0.197331 0.079807 -0.048970 -0.644762 0.367443 0.345978 -0.065327 0.092968 -0.514535 -0.102118 -0.599213 0.459640 0.759834 0.118755 0.188976 -0.279642 -0.189553 0.410662 0.484423 -0.086178 0.402680 0.674261 0.334597 0.079393 -0.733391 -0.171482 0.493908 -0.235674 0.060245 -0.012721 -0.335376 -0.036046 -0.112383 0.087580 -0.045432 -0.001341 0.398279 -0.020190 0.101080 -0.446858 -0.480930 -0.639325 0.222464 0.224110 -0.303256 0.241460 -0.187042 0.014500 -0.035903 -0.324342 -0.137601 -0.598392 0.273193 -0.047505 -0.764561 -0.310780 0.133874 0.056940 -0.406881 -0.138226 0.004019 0.529904 -0.063739 0.045335 0.037948 -0.453530 -0.403799 -0.011394 -0.182940 -0.037904 0.515991 -0.065067 0.188531 0.321938 -0.696105 0.407210 -0.171460 0.633664 0.028730 0.437423 -0.118811 -0.168654 0.229861 -0.493178 -0.363328 0.206781 -0.316259 -0.756652 -1.015896 -0.238309 0.778856 0.526622 -0.075392 -0.726352 0.369653 -0.319760 -0.734992 -0.415830 -0.158109 0.372569 0.281532 -0.183277 0.617159 0.349685 0.235345 -0.557235 -0.278084 -0.120671 0.325658 0.293459 0.202336 0.064445 0.294587
56 0.270337 -0.185195 0.108220 -0.098222 -0.047314 0.132291 0.392510 0.060218 -0.031627 0.219693 -0.069042 -0.011696 0.053113 0.236439 -0.166385 -0.139367 0.167114 -0.169315 0.013883 0.583570 0.266610 -0.256976 0.259761 -0.202332 0.245762 -0.493223 -0.241165 0.449461 -0.024312 -0.137984 -0.293732 0.102352 0.236561 0.134910 -0.157740 0.077064 0.010003 0.038371 -0.301259 -0.037192 -0.484871 -0.105004 -0.343826 -0.017196 0.327071 0.061100 -0.086755 -0.130885 -0.010012 -0.110910 -0.467619 0.103832 -0.040293 -0.089469 -0.111985 -0.332390 0.349327 0.093761 -0.201473 -0.187067 0.067242 -0.100076 -0.305307 -0.105178 -0.028425 0.230678 -0.239293 0.403209 -0.115915 -0.189372 0.158828 -0.052996 0.168057 -0.242314 0.309197 0.041768 0.040705 0.408396 -0.061887 0.168934 0.037608 -0.022208 -0.176668 -0.064562 -0.046362 -0.162965 0.258548 -0.148243 0.252617 -0.057726 0.360367 0.164397 0.292683 0.225752 -0.158215 0.013589 -0.032019 0.151815 -0.038860 0.035197 -0.285427 0.190809 -0.196398 -0.137286 0.062856 0.606595 0.451471 0.392780 0.014342 0.377102 0.036728 0.334339 -0.236100 0.109542 0.201310 0.288563 -0.276196 -0.063376 0.071713 -0.405883 -0.137467 -0.286865 -0.040364 -0.337408 -0.210023 -0.053149 0.283114 -0.053867
141 0.316423 -0.366661 -0.115333 -0.111991 -0.149136 0.437333 0.216892 0.074942 0.510501 0.079333 -0.354019 0.170694 -0.173890 -0.450800 -0.122591 -0.302477 -0.073003 0.084704 -0.490230 -0.073507 -0.260990 0.104800 0.256992 0.005428 -0.084030 -0.182176 0.216469 0.006724 0.006431 0.068675 0.041452 0.148063 0.027086 0.560975 -0.269474 0.287823 0.243478 -0.082386 -0.050359 0.058987 -0.697852 0.015669 -0.094262 0.072934 0.212208 0.147392 -0.211693 -0.270215 0.099808 -0.094606 -0.303068 0.327948 0.023715 0.488039 -0.483189 -0.326639 -0.792229 -0.411331 0.228669 -0.229123 0.218691 -0.472806 -0.382484 0.509957 -0.092506 -0.561163 0.197280 0.487200 -0.523534 -0.647909 -0.363049 0.141698 0.076986 -0.184171 -0.012366 0.141082 -0.279093 0.084309 -0.201790 -0.101832 -0.276827 0.138712 -0.808032 0.122837 0.057038 -0.054087 -0.406821 0.193504 0.272498 -0.139878 0.616802 -0.279563 0.690279 0.468603 0.622055 -0.308024 0.192086 -0.372764 -0.461504 0.024566 -0.215946 -0.286254 -0.806224 -0.573254 0.174415 -0.244227 0.175775 0.122494 -0.580204 0.022065 0.204776 0.314109 -0.304072 -0.142001 -0.094026 -0.068476 -0.182856 0.435813 -0.266526 0.320819 -0.632782 0.000998 0.434162 0.126480 0.254754 0.309158 0.358205 0.366934
45 0.132295 -0.194948 -0.081048 -0.108411 0.018716 0.219341 0.402978 0.286007 0.002125 0.384863 -0.054412 0.077075 0.162012 0.046185 -0.075942 -0.111341 0.094569 -0.224599 0.011412 0.454299 0.150417 -0.354027 0.263216 -0.189201 0.186906 -0.275259 -0.327442 0.348349 0.110683 -0.145173 -0.236742 0.023847 0.047483 0.161642 -0.220587 0.105658 0.017371 0.003350 -0.367662 -0.032157 -0.339078 0.021720 -0.134724 -0.064928 0.103139 0.149733 -0.262574 -0.202164 0.180546 -0.078409 -0.197966 0.049040 -0.256003 -0.072148 -0.172924 -0.452259 0.381472 0.084011 -0.065369 -0.306135 0.115480 -0.098704 -0.329105 0.100501 0.032383 0.001974 -0.468182 0.480515 0.145008 -0.004322 0.172696 0.047958 0.063443 -0.287703 0.420984 0.059178 0.010909 0.434996 0.022283 0.208707 -0.222411 -0.093685 -0.153057 -0.015620 -0.035233 -0.104100 0.232167 -0.191610 -0.013624 0.045399 0.354913 -0.086416 0.020117 0.160018 -0.068137 0.030722 0.047821 -0.098437 0.155392 -0.049665 -0.265786 -0.096631 -0.344462 -0.156915 0.212431 0.369419 0.375442 0.420669 -0.015636 0.385512 0.118412 -0.140937 -0.173270 0.026843 0.081625 0.353919 -0.346187 0.018721 -0.037711 -0.239177 -0.120277 -0.036634 0.003605 -0.271468 -0.128873 -0.174800 0.399414 0.029869
42 0.087180 -0.135496 -0.149880 -0.104514 0.049040 0.132917 0.400983 0.391051 0.077194 0.287773 -0.052108 0.068417 0.074961 0.043159 -0.042212 -0.120041 0.120768 -0.287157 0.003606 0.386944 0.103546 -0.296575 0.268230 -0.197233 0.111711 -0.311989 -0.279310 0.325408 0.082544 -0.230172 -0.295121 0.041928 0.042806 0.237244 -0.217685 0.073012 -0.120632 -0.068759 -0.365310 0.006567 -0.299552 0.223190 -0.146994 -0.167634 0.043102 0.078842 -0.216980 -0.195423 0.188732 -0.123528 -0.089053 0.039550 -0.235141 -0.053705 -0.115544 -0.470715 0.426473 0.188306 -0.047002 -0.383548 0.115602 -0.011433 -0.288278 0.114921 -0.062102 0.026125 -0.423349 0.479209 0.079566 0.091094 0.170790 -0.014332 0.025345 -0.203100 0.505172 -0.015067 0.041712 0.471002 -0.069269 0.146969 -0.246477 -0.020103 -0.204304 -0.028122 0.119045 -0.066504 0.194663 -0.139802 -0.035087 -0.024847 0.174726 -0.167929 0.024267 0.233310 -0.005678 -0.037792 -0.049203 -0.139650 0.233677 -0.111383 -0.166072 -0.108088 -0.298859 -0.247513 0.264441 0.300086 0.428253 0.465087 -0.051429 0.290267 0.175923 -0.195219 -0.263526 0.010413 0.022369 0.311848 -0.305794 0.021755 0.082020 -0.211062 -0.026301 -0.049584 0.128187 -0.151571 -0.144739 -0.179896 0.418071 0.054050
33 -0.158193 -0.508594 0.319892 -0.094611 0.291336 -0.023892 -0.036657 -0.161135 -0.319463 -0.085257 0.031471 0.143265 -0.269740 -0.355706 0.251373 0.017315 -0.070383 -0.196106 -0.035513 -0.024743 0.018587 -0.464015 -0.066456 -0.415794 0.259882 0.193571 0.116154 0.101872 0.944408 0.374670 -0.105661 -0.283701 0.225329 0.412149 -0.513884 0.200324 0.906431 -0.061904 0.028395 0.055109 -0.454307 0.346258 0.065837 0.335597 0.093732 0.157714 -0.272425 -0.357199 0.045025 -0.282431 -0.622536 -0.142393 -0.154423 0.201086 -0.393316 -0.894594 -0.590256 -0.044590 0.285707 0.057324 0.933350 -0.764304 -0.168680 0.240531 -0.019515 -0.327083 -0.447924 -0.014278 0.194461 -0.206462 -0.576997 -0.489320 0.311571 -0.122657 0.207153 0.069446 0.706479 -0.228676 -0.090332 0.140125 -0.036005 -0.365434 -0.174236 -0.124198 -0.409110 0.516909 0.230834 -0.287892 0.447852 -0.202777 1.008289 -0.319188 0.745930 -0.655177 0.474216 0.034553 0.225052 -0.130611 -0.502069 -0.359887 -0.477878 -0.252186 0.129107 -0.771381 -0.640832 0.282065 0.698406 0.046088 -0.858498 0.615452 0.101862 -0.215696 -0.503597 -0.231320 0.323492 0.878407 -0.869820 0.046134 -0.366817 0.390337 -0.751439 0.096673 -0.111174 -0.372132 0.029698 0.157634 -0.219512 0.390022
174 -0.007903 -0.188077 -0.221555 0.137331 -0.264014 0.113034 0.144465 -0.340291 -0.008478 0.166165 -0.435351 0.174688 -0.333056 -0.100966 -0.014481 -0.025687 -0.027863 0.087219 -0.394953 0.270239 0.007880 0.051187 -0.137566 -0.363048 -0.080956 -0.470713 0.434260 0.450840 -0.013823 0.124100 -0.146215 -0.097088 0.382499 0.442167 0.102847 0.451151 0.277565 0.011414 0.236446 -0.396872 -0.063349 0.519768 -0.049720 0.014018 -0.049159 -0.286986 -0.004508 -0.121829 0.350416 -0.106446 0.176400 0.285271 0.158017 0.284912 -0.311704 -0.323328 -0.680822 0.085848 0.135594 -0.241143 0.042884 -0.434881 0.051836 -0.031073 -0.216762 -0.257148 -0.457896 0.096601 -0.266087 -0.413985 -0.343916 0.082448 -0.188898 -0.188379 -0.102400 0.076665 0.462036 -0.371413 -0.070606 -0.177451 -0.455844 -0.115231 -0.203890 -0.016194 0.319958 0.471991 -0.066367 0.195824 0.295778 -0.445725 0.071952 -0.103425 0.395123 0.305681 0.630798 -0.216164 0.030404 -0.024761 -0.407818 -0.277891 0.144784 -0.158812 -0.667956 -0.880470 -0.299136 0.418942 0.423866 0.001287 -0.397431 0.375379 -0.155492 -0.357289 -0.155615 -0.217253 0.423416 0.002273 -0.060511 0.427996 -0.001975 0.146736 -0.278360 0.031967 0.176828 0.542162 0.194886 0.177091 0.058335 0.289502
110 0.287952 -0.313690 0.055257 -0.237270 -0.058165 0.121887 0.001649 -0.059236 0.175530 -0.018830 -0.164866 -0.020332 -0.133534 0.083963 -0.156379 0.123391 0.039175 0.031160 0.170074 0.169866 -0.045548 0.199439 -0.221642 -0.030771 -0.007437 -0.486193 -0.080724 0.275591 -0.144400 -0.093858 -0.273723 0.098590 -0.010206 0.482086 0.130890 0.260829 -0.215515 -0.319116 -0.011744 -0.007512 -0.262172 0.195187 -0.165033 -0.294058 0.168511 -0.150429 0.024035 -0.138082 -0.054443 -0.295692 0.040210 0.101538 0.064426 0.241851 -0.176429 -0.433951 -0.298788 -0.010491 -0.203943 -0.279998 -0.144884 -0.165580 -0.060275 0.121245 -0.417880 0.030601 0.152148 0.119625 -0.378501 -0.356694 -0.313595 0.088176 0.101128 0.072851 0.230470 0.090365 0.032681 0.068900 -0.381583 -0.008800 0.068671 0.255688 -0.452512 0.077168 0.534168 0.187918 0.190227 0.195049 0.183123 -0.007822 0.181556 -0.000308 0.211043 0.459996 0.211359 -0.079146 0.145065 -0.050578 0.008737 0.025284 0.050896 -0.039805 -0.313661 -0.319800 0.254404 0.257020 0.285196 0.254975 -0.108566 0.193014 0.278050 0.245030 -0.157591 -0.145203 0.387564 -0.029215 -0.137357 0.105455 -0.293441 -0.011211 -0.054140 -0.179063 0.291055 0.312899 -0.066157 0.222111 -0.032833 0.234711
161 -0.067807 -0.133498 0.295914 -0.067621 -0.101078 0.077352 0.222905 -0.092970 -0.031129 0.228012 -0.361819 0.000310 -0.294303 0.184403 -0.139900 -0.172321 0.083997 0.068641 0.271122 0.346673 0.235113 -0.274569 0.638433 -0.250441 -0.227909 -0.270643 0.302531 0.136257 0.042542 -0.080101 -0.036642 0.292471 0.341458 0.230383 -0.287184 0.007187 -0.323680 0.002454 -0.202912 0.009037 -0.253814 -0.169822 -0.183648 -0.023723 0.205201 -0.286373 -0.077137 0.034291 -0.080566 0.295792 -0.461706 -0.009462 -0.259704 -0.235361 0.020789 -0.146300 0.278106 -0.137921 -0.233945 0.027607 -0.078344 -0.017973 -0.054866 0.162724 -0.076506 0.059948 -0.643476 0.194901 -0.105464 -0.153895 -0.014199 -0.125023 0.158972 -0.391826 0.050692 0.318082 0.216339 0.168754 0.400926 0.116111 -0.220317 -0.128450 0.020781 -0.214974 0.130902 0.145757 0.318349 0.036567 0.065796 0.140319 0.156594 0.286394 0.208012 0.188424 -0.084086 0.190532 -0.034696 -0.002403 -0.379113 0.471006 -0.249884 0.121968 0.068236 -0.217210 0.023991 0.484509 0.366206 0.251994 -0.069513 0.556430 0.116546 0.252783 -0.247681 -0.169101 0.257104 0.277034 -0.016164 -0.141020 -0.105436 -0.210211 -0.050963 0.126906 0.064788 -0.391248 -0.170696 0.173624 0.028568 0.080540
183 -0.086678 -0.741995 -0.319179 0.293756 -0.111782 0.003340 0.176760 0.073069 0.032549 -0.058378 0.228440 -0.463669 -0.371630 -0.308202 -0.129992 0.021254 0.305462 0.137649 -0.146503 0.244140 0.242201 -1.049857 -0.492201 -0.566062 -0.230115 -0.098359 -0.017176 -0.212349 0.370806 -0.115510 0.212797 -0.060155 0.223371 0.681766 -0.598196 0.419575 0.159778 0.096191 -0.062925 -0.358497 -0.334531 0.311553 -0.190635 0.343707 -0.084975 0.057991 -0.205023 -0.697515 0.641976 0.437081 -0.440583 0.166940 -0.012774 -0.079362 0.188122 -0.336745 0.231434 0.110117 0.466641 -0.557687 0.219908 -0.373484 -0.801509 -0.120341 -0.100180 -0.311855 -0.604397 0.925456 -0.570845 -0.599251 -0.551790 0.068638 0.107033 -0.487548 0.212847 -0.329272 0.656575 0.347800 0.047443 -0.094638 0.130113 -0.242732 0.048710 -0.000350 -0.864038 0.271035 -0.376935 -0.287958 0.479829 0.229808 0.183061 -0.157863 0.547390 0.266362 0.497128 -0.194040 0.160320 -0.068156 -0.929498 -0.546929 -0.475100 -0.166507 -0.021050 -0.296395 -0.441221 -0.019168 0.182512 0.543736 -0.629339 0.013312 0.040617 -0.296630 -0.146939 -0.125305 0.170249 0.628164 -0.581481 0.227560 0.177996 0.676101 -0.857857 -0.489999 -0.098700 0.273472 0.275058 0.440480 0.434715 0.130277
127 0.073360 -0.362039 -0.074912 -0.098088 0.032853 0.174196 0.255899 0.196144 0.007478 0.306036 -0.128716 0.231671 0.081439 0.032572 -0.155997 0.035229 0.289993 -0.226877 0.038217 0.429508 0.315883 -0.165048 -0.005028 -0.186897 0.073922 -0.372655 -0.266074 0.292617 -0.126841 -0.204212 -0.226979 -0.071088 0.066694 0.263578 -0.140684 0.163321 -0.135719 -0.204358 -0.396044 -0.085466 -0.346180 0.153785 -0.272818 -0.228855 0.070496 0.048097 -0.189733 -0.255800 0.069589 -0.125678 -0.022199 0.074141 -0.186170 0.062003 -0.050959 -0.345636 0.360343 0.217980 -0.133543 -0.298686 0.027068 0.025109 -0.256395 0.135333 -0.198699 -0.030566 -0.318478 0.519736 0.155773 -0.088535 0.078496 -0.005422 0.041688 -0.279812 0.573075 0.112554 -0.059430 0.490589 -0.003802 0.091036 -0.289720 -0.107535 -0.198775 -0.027458 0.176357 0.011782 0.222790 -0.050961 -0.183801 0.099911 0.170895 -0.202506 -0.117431 0.259433 0.063194 0.055178 -0.012763 -0.050709 0.127920 -0.087794 -0.124064 -0.126656 -0.410668 -0.149154 0.349430 0.357195 0.310402 0.514362 0.032124 0.399962 0.170363 -0.223896 -0.059004 -0.021919 0.165535 0.235446 -0.241425 -0.093402 0.033011 -0.274423 -0.014491 -0.033867 -0.027798 -0.267807 -0.170750 -0.103801 0.377831 0.206197
43 0.039247 -0.015508 -0.258512 0.037895 -0.057021 -0.264368 0.328719 0.547243 0.424901 0.072147 -0.098550 -0.056424 0.010771 -0.344173 -0.205429 -0.011347 0.448473 -0.388953 -0.267815 0.251814 0.311019 -0.234279 0.112317 -0.612677 0.162030 -0.443631 -0.167207 0.475261 -0.085672 -0.205429 -0.139140 -0.137375 0.021453 0.447276 -0.206058 0.093303 -0.139884 -0.081131 -0.454338 0.088838 -0.525385 0.464346 -0.565800 -0.174010 0.022566 -0.200763 0.122035 -0.408138 0.127509 -0.025853 -0.323381 0.315230 -0.073941 0.124407 -0.034791 -0.466606 0.222574 0.174145 -0.253768 -0.328227 0.264424 -0.163533 -0.126379 -0.052180 0.014439 -0.105108 -0.243042 0.549603 -0.020943 0.051338 0.239772 0.157455 0.057246 -0.197481 0.812353 -0.122840 0.106559 0.612722 -0.104674 0.053080 -0.208251 0.066448 -0.166088 -0.145540 0.053267 0.045285 -0.116207 0.380639 0.056150 -0.226734 0.021730 -0.106709 0.129175 0.373216 0.075138 -0.040593 -0.371146 -0.183281 0.240349 -0.212944 -0.275198 0.168560 -0.270004 -0.410236 0.102062 0.267214 0.407946 0.812622 -0.011411 0.117877 0.119729 -0.224653 -0.265487 0.185330 0.317268 0.121113 -0.190432 0.019754 0.349402 -0.097175 0.042010 -0.262082 0.486208 -0.223192 -0.059958 0.002919 0.565674 0.084080
159 -0.017775 -0.251427 0.351947 -0.124655 -0.100539 0.037951 0.093205 0.037456 0.231666 0.196083 -0.274483 0.051583 -0.174274 0.227855 -0.281248 -0.223248 0.176247 -0.159275 0.211741 0.514542 0.294010 -0.153838 0.488514 -0.166912 -0.133521 -0.281229 0.129471 0.145609 -0.271368 -0.187624 0.056858 0.097611 0.285540 0.242839 -0.355320 -0.108402 -0.335456 0.083974 -0.355603 -0.159455 -0.390451 0.041685 -0.287172 -0.218818 0.291555 -0.305363 -0.123835 0.109061 0.018019 -0.113986 -0.380896 0.137422 -0.192014 -0.185371 0.083542 -0.175527 0.407400 -0.015681 -0.135198 -0.075124 0.054005 0.212250 -0.107804 0.181427 -0.288543 -0.017861 -0.411752 0.319879 -0.133885 -0.188552 0.044607 -0.422722 -0.019847 -0.112141 0.205525 0.247335 0.038550 0.376839 0.290901 -0.056461 -0.083147 -0.307012 -0.168251 -0.103454 0.269271 0.123750 0.173309 -0.121112 0.053216 0.038451 0.077093 -0.162304 0.194082 0.298543 0.023948 0.071640 0.042446 -0.012251 -0.274649 0.323797 -0.264656 -0.022389 0.020352 -0.286651 0.226263 0.219397 0.231722 0.185945 0.062627 0.059658 -0.000335 0.022716 -0.267415 -0.281898 0.050519 0.130454 -0.162240 -0.116040 -0.026397 -0.200097 -0.042649 0.117802 0.097779 -0.475092 -0.322813 0.229657 0.101101 0.117581
149 -0.006348 -0.039861 0.050336 -0.384368 -0.256807 0.200143 0.146121 0.020467 0.069907 0.309447 -0.025036 -0.231177 -0.324186 0.035789 -0.001611 -0.184692 0.013462 0.114709 0.486542 0.260353 -0.239026 -0.296163 0.362960 -0.154920 -0.114474 -0.188108 0.175938 0.281883 0.400570 0.095435 -0.184618 0.062494 0.280875 0.334099 -0.532771 0.202317 -0.622705 -0.255336 0.021521 -0.298880 -0.039851 0.249830 -0.022241 0.064325 0.010603 -0.028376 -0.494988 0.204483 -0.276311 0.288284 -0.500080 0.123750 -0.074424 0.175151 -0.221561 -0.446023 0.122386 -0.366169 -0.184056 -0.376043 -0.005945 -0.407667 0.332247 0.170002 -0.385170 0.412849 -0.063608 -0.042100 -0.476406 -0.126920 -0.378634 -0.098271 0.216081 -0.325433 0.020282 0.184159 0.209215 -0.008535 -0.101173 -0.068565 -0.149185 0.062145 0.021139 -0.016357 0.063061 0.041588 0.137234 0.240717 0.258821 0.192936 0.438288 0.427039 0.269870 0.427316 -0.025078 0.045876 -0.177181 -0.199058 -0.076132 0.124585 -0.031436 0.209193 -0.010575 -0.210789 0.001272 0.445759 0.281095 0.632177 -0.217772 0.406655 0.349434 0.049122 -0.334043 -0.215998 0.602342 0.122715 -0.041807 0.388914 -0.152055 0.165460 -0.374889 0.209798 0.651569 0.110387 0.379198 0.014540 -0.430838 0.469395
194 0.098712 -0.398851 0.063720 -0.482820 -0.281172 0.229462 -0.055809 -0.109395 0.107136 0.330466 0.063047 -0.176769 -0.224202 0.041477 -0.135230 0.049243 0.060349 0.068575 0.546020 0.196712 -0.132296 -0.041723 -0.012650 -0.157104 -0.163257 -0.371862 0.062582 0.367192 0.216531 0.046481 -0.190331 -0.138010 -0.002422 0.550145 -0.344219 0.284916 -0.550183 -0.327682 0.056401 -0.324090 -0.020036 0.255412 -0.031335 -0.160202 0.118154 -0.027929 -0.521492 0.043976 -0.389132 0.153711 -0.245593 0.322290 -0.019176 0.164210 -0.397269 -0.660296 -0.153337 -0.328307 -0.307814 -0.452927 -0.048243 -0.357088 0.232536 0.292428 -0.536247 0.159177 0.156240 -0.106640 -0.424954 -0.303529 -0.431079 0.074103 0.282586 -0.143626 0.154544 0.191950 0.137345 0.246736 -0.313884 0.014092 -0.057070 0.135627 -0.085068 -0.069094 0.229170 0.164205 -0.009257 0.396524 0.334798 0.293382 0.567443 0.277108 0.090096 0.539939 0.088942 0.111413 -0.000284 -0.269295 -0.074779 0.041786 -0.048004 -0.023643 -0.270804 -0.090309 0.136481 0.381017 0.128330 0.610429 -0.183431 0.292288 0.308264 -0.153029 -0.216974 -0.203474 0.711447 -0.000942 -0.176489 0.467301 -0.384704 0.184113 -0.367315 0.054138 0.721161 0.292578 0.392029 0.254443 -0.418243 0.605097
83 0.143246 -0.360567 0.291394 -0.063089 0.141070 0.398411 0.270399 0.024847 0.174579 0.486077 -0.062224 0.008304 0.177841 0.001055 -0.113806 0.146279 -0.096339 -0.040798 0.048304 0.474325 0.272929 -0.377180 0.397121 -0.451090 0.195048 -0.360984 -0.167914 0.397916 -0.063983 -0.389290 -0.121334 0.180751 -0.139632 0.020043 -0.170407 -0.021524 0.315255 0.201990 -0.640392 -0.013636 -0.296937 -0.105357 -0.155911 0.088436 0.188078 0.035584 -0.181573 -0.018686 0.196278 -0.240384 -0.298225 0.133397 -0.401000 -0.203420 -0.402381 -0.543793 0.475246 0.007800 -0.113999 -0.312580 0.149866 0.006795 -0.315392 0.164229 0.001670 -0.034719 -0.673789 0.380370 0.082031 -0.272878 0.334254 -0.114244 -0.020036 -0.184213 0.193319 -0.025997 0.160024 0.333036 0.012424 0.263834 -0.111348 -0.238428 -0.040898 -0.044168 -0.182760 -0.168350 0.150798 -0.202947 0.317349 0.109967 0.420740 -0.053484 0.222472 0.159677 0.002737 0.168460 0.269236 -0.076212 -0.285163 0.258695 -0.303204 -0.261280 -0.192665 -0.186812 0.242508 0.440332 0.225873 0.374979 0.083088 0.195812 -0.228414 0.075643 -0.110246 -0.149860 0.347246 0.457311 -0.359099 0.028149 -0.119368 -0.242857 -0.193520 0.086449 -0.129041 -0.333291 -0.305008 0.041998 0.403935 -0.208513
66 0.193697 -0.179247 -0.123744 -0.249693 -0.144636 0.104457 0.386834 0.281992 -0.212961 0.314410 0.014537 -0.084198 -0.069847 0.198434 0.107089 -0.060495 0.111076 -0.153221 0.187062 0.532709 -0.132457 -0.394171 0.491807 -0.030765 0.229519 -0.431904 -0.247750 0.509029 0.353973 -0.062536 -0.424940 -0.080254 0.179916 0.077677 -0.427395 0.256704 -0.359310 -0.173024 -0.240977 -0.183011 -0.209773 0.038708 -0.102058 -0.063153 0.119681 0.248311 -0.483531 -0.038362 -0.094524 0.092568 -0.371464 -0.059008 -0.085502 -0.050379 -0.241525 -0.555731 0.389669 0.036216 -0.061146 -0.440155 0.037699 -0.361238 -0.030915 -0.112338 -0.202743 0.354099 -0.275576 0.456715 -0.051885 0.239099 0.008908 -0.031720 0.168666 -0.312061 0.206568 -0.002753 0.132982 0.275201 -0.213402 0.115297 -0.194150 0.102223 -0.166409 -0.061155 0.077673 -0.197167 0.342217 -0.167286 0.058823 0.011266 0.251284 0.207840 0.079758 0.210501 -0.187804 0.139287 -0.051012 0.045453 0.401755 -0.095562 -0.100098 0.085913 -0.091100 -0.069852 0.172645 0.551682 0.522885 0.491181 -0.151944 0.557104 0.251545 -0.060312 -0.415996 -0.016481 0.180185 0.376816 -0.231790 0.209511 -0.112890 -0.304695 -0.307792 -0.047438 0.278773 -0.055074 0.062268 -0.278837 0.115970 0.041936
54 0.065075 -0.143897 -0.037764 -0.099985 0.020829 0.241144 0.330362 0.223726 -0.169574 0.321147 -0.041357 0.178931 0.023633 0.179809 -0.000121 -0.119195 0.083680 -0.293799 0.087139 0.411503 0.272772 -0.254754 0.167195 -0.194889 0.138790 -0.319632 -0.216148 0.354823 0.226481 -0.035902 -0.419707 0.021466 0.063401 0.263658 -0.098600 0.132590 0.039946 -0.109193 -0.238018 0.072413 -0.202590 0.098249 -0.111295 -0.132680 0.125565 0.171756 -0.152612 -0.269559 0.090316 -0.112416 -0.101658 0.015311 -0.291177 -0.049324 -0.035891 -0.464796 0.360339 0.227510 -0.110959 -0.334851 0.186876 -0.023097 -0.381550 0.102578 -0.103611 0.013887 -0.431194 0.377151 0.211274 0.049630 0.071917 -0.027536 0.060810 -0.204719 0.536287 0.046839 0.131093 0.461134 0.003556 0.142639 -0.182947 -0.081366 -0.170474 -0.118501 0.061334 0.025066 0.293366 -0.197431 -0.071289 -0.111417 0.386895 -0.098529 0.016952 0.048618 -0.054814 0.061022 -0.096775 -0.029653 0.145408 -0.127653 -0.293448 -0.089058 -0.294845 -0.313410 0.107566 0.432902 0.502838 0.418825 -0.079871 0.486803 0.175123 -0.190516 -0.205150 0.040598 0.122071 0.426458 -0.324334 -0.088805 -0.103202 -0.182558 -0.069489 -0.098229 -0.043860 -0.317849 -0.184973 -0.203873 0.192135 0.113241
199 -0.297710 -0.289558 0.021047 -0.275553 -0.425508 -0.036729 0.015900 0.105625 0.480573 0.549235 0.010932 0.011792 -0.377682 0.158546 -0.441751 0.069311 0.132336 -0.065668 0.464292 0.114671 0.146196 0.039565 -0.173026 -0.196397 -0.022828 -0.222956 0.061445 0.226712 -0.094949 -0.087178 0.308469 -0.198202 0.106562 0.515333 -0.396702 0.140634 -0.452229 -0.169263 -0.190669 -0.181397 0.023737 0.676091 -0.030020 -0.327562 -0.273961 -0.178595 -0.485399 -0.030711 -0.131112 -0.123489 -0.050818 0.479207 0.066856 0.066062 -0.064363 -0.308450 0.107106 -0.222931 -0.321382 -0.478224 0.126974 -0.202098 0.200682 0.484358 -0.536019 -0.246462 -0.165764 0.253368 -0.223212 -0.297485 -0.294136 -0.051178 -0.117441 -0.146038 0.278644 0.240175 0.103035 0.315003 0.163030 -0.146908 -0.259631 -0.444872 0.018942 -0.176581 0.210741 0.403077 -0.071139 0.334921 0.162364 0.319148 0.247957 -0.068305 -0.204365 0.502143 0.356716 -0.085120 -0.096904 -0.299616 -0.123065 0.037052 -0.015999 0.047014 -0.369418 -0.274758 0.243819 0.081565 -0.063282 0.453910 0.041406 0.102959 0.208562 -0.642057 0.050085 -0.311898 0.541687 -0.156347 -0.026433 0.281828 -0.106767 0.187891 0.131859 0.417224 0.635741 0.115343 0.221626 0.222810 -0.090410 0.843542
7 0.371905 -0.277451 -0.280722 -0.038288 -0.275023 0.501815 0.329677 0.189175 0.533156 0.218865 -0.319111 0.300628 -0.095972 -0.707195 0.016307 -0.392029 0.015915 0.096092 -0.532472 0.046372 -0.228917 -0.013899 0.493836 -0.216801 -0.015101 -0.041226 0.060429 -0.066887 -0.013434 0.157830 0.095781 0.266446 -0.035014 0.341311 -0.303772 0.142355 0.317739 -0.054287 -0.248211 0.045509 -0.884635 -0.004016 -0.117988 0.279802 0.075396 0.159234 -0.225550 -0.253563 0.064344 -0.111896 -0.560047 0.338773 -0.104944 0.590907 -0.466399 -0.308462 -0.622102 -0.469646 0.222909 -0.203611 0.212096 -0.456928 -0.415569 0.465431 0.031775 -0.487421 0.228186 0.530628 -0.443431 -0.662063 -0.270494 0.265150 0.102991 -0.279085 0.180652 0.078920 -0.252764 0.325731 -0.198552 -0.073845 -0.186165 0.033381 -0.714927 0.032619 -0.267885 -0.082365 -0.390099 0.197040 0.057209 -0.077038 0.812629 -0.327668 0.824446 0.508963 0.406955 -0.342852 0.174282 -0.458073 -0.571235 0.000402 -0.286306 -0.385151 -0.919218 -0.514212 0.177892 -0.231841 0.072839 0.328071 -0.627618 -0.064637 0.235753 0.256583 -0.228596 -0.216917 -0.156340 0.050020 -0.354687 0.395487 -0.277282 0.563656 -0.834610 -0.070310 0.424050 0.018512 0.124707 0.183903 0.464312 0.436992
53 0.193416 -0.491479 0.092200 -0.168342 0.211391 0.116334 0.151085 0.178555 0.129459 0.039522 -0.131974 0.080537 -0.053299 -0.045725 -0.055587 0.141047 0.101761 -0.215000 -0.242867 0.353369 0.198256 -0.252337 0.339352 -0.339815 0.125711 -0.357761 -0.259264 0.281089 -0.028046 -0.373888 -0.255924 0.011181 -0.071801 0.357271 -0.147912 0.200577 -0.050378 -0.136487 -0.546185 -0.007249 -0.499249 0.258325 -0.429567 -0.219499 0.094919 -0.083748 -0.004935 -0.064040 -0.038199 -0.258970 -0.373453 -0.036040 -0.125056 -0.003181 -0.121097 -0.513297 0.272231 0.113910 -0.001799 -0.404178 0.152228 0.095851 0.023844 0.119665 -0.393620 0.171418 -0.166669 0.337531 0.062595 -0.052535 -0.024660 -0.377269 -0.016471 -0.130230 0.316819 -0.018253 0.201617 0.377468 -0.124752 0.187870 -0.134981 -0.121396 -0.361587 -0.102320 0.265951 -0.069013 0.187546 -0.004357 -0.028558 -0.023396 -0.099591 -0.264155 0.233303 0.171498 0.056088 0.127969 0.151894 0.070237 -0.007721 0.080688 -0.012482 -0.225319 0.061797 -0.384319 0.374223 0.248652 0.358939 0.291661 -0.282888 0.202089 0.014106 -0.049183 -0.462104 -0.261262 0.044514 0.136709 -0.162545 0.021528 0.184225 -0.175995 -0.237760 -0.015102 0.053702 -0.311621 -0.285128 0.069777 0.605821 -0.080251
116 0.138035 -0.451456 -0.002923 -0.164461 -0.019315 0.004535 0.064171 -0.096967 0.297350 -0.213956 -0.305227 0.026333 -0.269150 0.059729 -0.402859 0.164509 0.225380 -0.019358 0.136432 0.140248 0.212776 0.225966 -0.493614 0.004033 0.088943 -0.651793 0.008868 0.309442 -0.076738 -0.026115 -0.170418 -0.066357 0.125510 0.529848 0.046661 0.313020 -0.013862 -0.368154 0.170524 -0.068776 -0.361178 0.445880 -0.288803 -0.233494 0.016163 -0.384935 0.040530 -0.232121 0.079600 -0.314271 0.109793 0.064418 0.210023 0.425764 0.009768 -0.159802 -0.440817 0.160143 -0.242282 -0.287116 -0.179276 -0.308821 0.015795 0.211744 -0.447414 -0.074102 0.134385 0.172093 -0.308726 -0.372519 -0.454717 0.069147 0.045112 -0.015738 0.266835 0.144908 0.174018 0.007261 -0.213569 -0.049222 -0.060882 0.037477 -0.464893 0.003769 0.590704 0.337418 0.224539 0.308289 0.169556 0.009406 -0.006113 -0.110926 0.189543 0.429499 0.426335 -0.095103 0.245508 -0.017652 -0.009709 -0.080777 -0.010674 -0.022279 -0.429100 -0.421855 0.143669 0.192991 0.342695 0.160467 -0.228233 0.407888 0.397610 0.056857 -0.080396 -0.206568 0.271003 -0.181006 -0.161768 0.091476 -0.277909 0.156867 -0.051701 -0.165634 0.401921 0.194877 -0.140845 0.283373 0.126927 0.521259
157 -0.081278 -0.023996 0.039594 -0.056739 -0.269236 0.031132 0.003480 -0.198349 0.070116 0.076798 -0.258846 -0.177892 -0.531369 -0.135317 0.100076 -0.191911 -0.137858 0.215086 0.267576 0.256244 -0.367390 -0.467518 0.382001 -0.439883 -0.494189 -0.360664 0.528859 -0.009063 0.569707 0.038608 -0.283344 0.117042 0.446965 0.333903 -0.392691 0.328724 -0.538936 -0.075054 0.077689 -0.146315 -0.023101 0.325907 -0.062396 0.156460 0.048757 -0.201326 -0.334419 0.005203 0.072856 0.246617 -0.492916 0.010684 -0.034448 0.185207 -0.097605 -0.404840 0.029773 -0.384646 0.021289 -0.205631 -0.131259 -0.489224 0.207195 -0.105436 -0.214599 0.291550 -0.322331 -0.013180 -0.643186 -0.140437 -0.359321 -0.058067 0.074795 -0.167050 0.052701 0.184571 0.676417 -0.285751 0.043901 -0.320209 -0.134242 0.263232 0.155706 -0.014750 -0.007828 0.299395 -0.075330 0.127594 0.179287 0.074978 0.276189 0.254610 0.427853 0.427715 0.140155 -0.024159 -0.141326 -0.299622 -0.330332 0.014630 -0.103404 0.085960 -0.102242 -0.511367 -0.422237 0.300779 0.407555 0.593401 -0.152088 0.255115 0.303609 0.112519 -0.346997 -0.193521 0.703899 0.152791 -0.109504 0.386089 -0.302445 0.312843 -0.492672 0.149308 0.646720 0.292350 0.267890 0.057907 -0.492003 0.262717
154 0.271996 -0.344794 -0.108250 -0.104816 -0.064613 0.349514 0.132544 0.025623 0.495188 -0.044643 -0.375224 0.164135 -0.183128 -0.343026 -0.163164 -0.172703 -0.066718 0.057819 -0.441496 -0.030047 -0.230286 0.144570 0.074119 0.032898 -0.056048 -0.264290 0.171749 0.046474 -0.034395 0.021988 -0.028938 0.081792 0.055037 0.512081 -0.149533 0.330157 0.208660 -0.138928 -0.001747 0.043974 -0.597301 0.175531 -0.104428 0.011098 0.168459 0.079204 -0.117139 -0.251357 0.192644 -0.200029 -0.145411 0.256403 0.105550 0.504753 -0.377748 -0.306544 -0.761125 -0.293274 0.172990 -0.230631 0.173674 -0.456329 -0.277514 0.381020 -0.146833 -0.470839 0.156458 0.394953 -0.458207 -0.507573 -0.353806 0.055704 -0.015525 -0.106124 0.003154 0.100383 -0.152448 -0.076949 -0.276556 -0.139863 -0.296113 0.136564 -0.772428 0.138112 0.225296 0.022047 -0.297106 0.182426 0.212731 -0.169746 0.380318 -0.294630 0.568403 0.442640 0.644140 -0.276601 0.209092 -0.308598 -0.331693 -0.050833 -0.150260 -0.272300 -0.691057 -0.610645 0.111498 -0.198811 0.238361 0.096619 -0.468260 0.091364 0.204747 0.258572 -0.244211 -0.186172 -0.010145 -0.122871 -0.137958 0.363031 -0.261900 0.242224 -0.471792 0.013412 0.393026 0.211695 0.146044 0.245450 0.332161 0.295735
242 0.029470 -0.369047 0.220645 0.031198 0.112100 0.215593 0.195216 0.016825 0.265860 0.331415 -0.142329 0.060609 -0.008162 -0.049422 -0.073683 0.304793 -0.012169 -0.076572 -0.163000 0.403116 0.354073 -0.307146 0.455566 -0.538568 0.212115 -0.467592 -0.178401 0.386043 -0.133749 -0.384706 -0.098770 0.100079 -0.174380 0.193691 -0.027636 0.083086 0.236041 0.013210 -0.618619 0.075031 -0.250341 0.039524 -0.233906 0.026323 0.042813 -0.133125 -0.017258 -0.031973 0.018892 -0.079044 -0.333387 0.132887 -0.308590 -0.150421 -0.211960 -0.446469 0.431997 0.125619 -0.190561 -0.406149 0.070077 -0.021173 -0.088433 0.175465 -0.041773 0.023862 -0.532384 0.277102 0.156880 -0.086918 0.298070 -0.102782 -0.085204 -0.272655 0.196224 -0.035281 0.207088 0.395134 0.016820 0.311677 -0.200055 -0.207745 -0.039308 -0.179163 0.041540 -0.114580 0.095356 0.027898 0.187777 0.112104 0.083325 -0.003150 0.118668 0.114616 -0.032462 0.283379 0.153994 0.050673 -0.171484 0.235371 -0.247170 -0.200911 -0.062987 -0.248811 0.259289 0.433075 0.269765 0.370569 -0.012304 0.310739 -0.223407 -0.051683 -0.153866 -0.136780 0.357674 0.193545 -0.099410 0.058440 -0.018099 -0.291591 -0.144047 0.134991 0.022652 -0.353394 -0.283830 0.106154 0.622405 -0.150242
256 0.074499 -0.124017 -0.108919 -0.094237 0.046666 0.274581 0.367870 0.242214 -0.105569 0.295739 -0.066102 0.184139 0.086018 0.122900 -0.050336 -0.123810 0.088647 -0.271094 0.045409 0.376684 0.261886 -0.239550 0.096599 -0.203205 0.161433 -0.281329 -0.242094 0.362860 0.166739 -0.066551 -0.368182 0.074586 0.035053 0.257362 -0.019270 0.146290 0.096795 -0.094929 -0.233806 0.108693 -0.211415 0.095594 -0.117974 -0.114397 0.101500 0.158876 -0.102094 -0.286247 0.176686 -0.183917 -0.050970 0.023497 -0.285271 -0.010465 -0.037251 -0.447547 0.299234 0.174995 -0.100942 -0.349718 0.137201 -0.038707 -0.414010 0.115961 -0.036763 -0.042529 -0.429882 0.368972 0.212986 0.018174 0.095624 0.030816 0.049941 -0.198038 0.540278 0.030126 0.070695 0.408368 0.003612 0.122700 -0.160853 -0.103015 -0.233077 -0.084469 0.087393 0.007097 0.253587 -0.148352 -0.048231 -0.088513 0.367263 -0.100866 -0.017280 0.110669 -0.009498 -0.020016 -0.022072 -0.091563 0.113983 -0.109854 -0.293359 -0.130666 -0.366203 -0.319556 0.117690 0.390587 0.431024 0.387067 -0.049846 0.443211 0.147874 -0.165630 -0.141373 0.050567 0.120802 0.366082 -0.307033 -0.070779 -0.138713 -0.170634 -0.044393 -0.088658 -0.032748 -0.236209 -0.189812 -0.201825 0.267674 0.087274
79 0.072795 -0.357732 0.000368 -0.488140 0.221654 0.387327 0.378419 0.272046 0.331550 0.563097 -0.009219 -0.071129 0.402995 -0.168194 -0.405212 0.065496 -0.116735 0.071360 0.278325 0.336018 0.124208 -0.715806 0.019672 -0.656431 0.153602 0.094080 -0.281489 0.571148 0.294608 -0.238268 0.151853 0.220063 -0.155479 -0.186574 -0.325993 0.200110 0.328761 0.533193 -0.661735 -0.029904 -0.237107 0.020426 -0.415937 0.279590 0.186527 0.229704 -0.235863 -0.134434 0.393559 -0.508245 -0.653127 -0.025647 -0.346883 0.095701 -0.420322 -0.748823 0.420469 -0.559292 0.088880 -0.432868 0.333164 -0.250989 -0.222637 -0.107668 0.073221 -0.114822 -0.704888 0.278668 0.158085 -0.342201 0.158901 0.006873 0.021750 -0.132929 0.328425 0.020660 0.354021 0.013202 0.309468 -0.024979 0.001476 -0.426689 -0.131429 -0.110785 -0.551867 -0.184090 -0.001507 -0.134717 0.426117 0.108757 0.603035 0.147844 -0.017150 0.411238 0.133928 -0.119003 0.470210 -0.402957 -0.337022 0.242063 -0.301614 -0.197064 -0.219070 -0.609532 0.117503 0.357034 -0.088080 0.406942 0.043420 0.021313 -0.328257 -0.087680 0.002218 -0.081909 0.511949 0.339623 -0.472915 0.335473 -0.274514 0.214172 -0.317267 0.261946 -0.012760 -0.220091 -0.140896 -0.074549 0.334293 -0.268999
156 0.062385 0.044611 0.025369 0.052709 -0.371457 0.025643 0.059889 -0.078111 0.108092 0.082440 -0.276934 -0.261025 -0.468554 -0.267387 0.042971 -0.257116 -0.050676 0.187327 0.144141 0.315114 -0.349208 -0.504971 0.456629 -0.476409 -0.391139 -0.406942 0.438723 0.013878 0.470498 0.022962 -0.337540 0.075836 0.478850 0.329219 -0.413052 0.327562 -0.550448 -0.045411 -0.000608 -0.142134 -0.093071 0.279061 -0.141620 0.176113 0.060559 -0.276163 -0.331528 -0.031693 0.114621 0.155407 -0.543391 0.093882 -0.041034 0.214890 -0.040934 -0.361341 -0.005768 -0.413955 0.029679 -0.224291 -0.195985 -0.461926 0.273575 -0.089978 -0.174734 0.242656 -0.201657 0.069087 -0.703985 -0.162167 -0.304795 -0.068308 0.021031 -0.139007 0.124519 0.172329 0.551003 -0.212992 0.042756 -0.408527 -0.077541 0.263674 0.188380 -0.021049 0.000336 0.251111 -0.200484 0.159401 0.174001 0.072969 0.272870 0.165433 0.424073 0.484926 0.084485 -0.019942 -0.152283 -0.283126 -0.207845 0.040415 -0.197046 0.079864 -0.140997 -0.509645 -0.444439 0.280200 0.327068 0.657367 -0.113592 0.104018 0.248630 0.044039 -0.322087 -0.139179 0.747758 0.002588 -0.035923 0.425162 -0.257156 0.345676 -0.572291 0.168100 0.739518 0.213308 0.296110 0.073595 -0.461900 0.311685
51 0.115507 -0.028572 -0.155416 -0.005303 0.014223 -0.210174 0.334286 0.412567 0.305111 0.004846 -0.175103 -0.008954 0.023421 -0.202395 -0.193441 -0.177839 0.466063 -0.363438 -0.279166 0.286409 0.385278 -0.188632 0.092792 -0.489521 0.118180 -0.428487 -0.132612 0.432677 -0.093700 -0.155638 -0.154509 -0.024784 0.178368 0.499084 -0.176490 0.096347 -0.162463 -0.076566 -0.343750 0.036145 -0.618882 0.390790 -0.646655 -0.184230 0.126370 -0.170173 0.243549 -0.353391 0.110814 0.024535 -0.397931 0.296092 0.007056 0.139807 0.068868 -0.333575 0.191121 0.160807 -0.227418 -0.214716 0.255984 -0.052818 -0.197057 -0.105208 -0.014330 0.033353 -0.168273 0.453306 -0.071699 -0.044495 0.157540 0.023245 0.093020 -0.238632 0.810076 -0.045589 0.060240 0.541366 -0.065303 0.075080 -0.163228 0.070583 -0.262028 -0.099204 0.127938 0.032426 -0.035938 0.339798 0.035055 -0.310707 0.046819 -0.052857 0.257010 0.356121 0.020637 -0.087020 -0.431448 -0.082768 0.109166 -0.203480 -0.259072 0.236415 -0.192747 -0.485218 0.065634 0.320276 0.468038 0.698109 -0.100420 0.185979 0.161765 -0.025567 -0.323053 0.175144 0.238081 0.095451 -0.115586 -0.060197 0.438239 -0.151596 0.028393 -0.365245 0.315470 -0.319635 -0.084954 0.018926 0.541562 0.030339
193 0.158497 -0.034480 -0.123868 -0.031176 -0.024741 -0.180532 0.321147 0.440106 0.333587 0.032187 -0.137204 -0.064109 0.047590 -0.178365 -0.211172 -0.122184 0.404774 -0.305555 -0.166066 0.280400 0.310210 -0.170600 0.108484 -0.434082 0.119376 -0.460337 -0.144317 0.435160 -0.124120 -0.180306 -0.176986 -0.016618 0.104687 0.437917 -0.196917 0.057574 -0.219487 -0.067306 -0.370624 0.058414 -0.554953 0.310967 -0.583705 -0.212680 0.156045 -0.179300 0.168795 -0.323625 0.121077 -0.003548 -0.325199 0.286368 -0.036121 0.114245 0.006499 -0.354126 0.206018 0.125759 -0.262281 -0.261982 0.176804 -0.059988 -0.203467 -0.078954 -0.023572 0.036055 -0.182886 0.493324 -0.118844 -0.064589 0.160962 0.096161 0.108261 -0.162782 0.744865 -0.064448 0.036139 0.529333 -0.120329 0.081699 -0.116252 0.145141 -0.244532 -0.066923 0.141505 -0.001554 -0.002367 0.296138 0.081397 -0.238275 0.075426 -0.037171 0.224227 0.390330 -0.016339 -0.053037 -0.337518 -0.116330 0.170329 -0.122663 -0.247157 0.236158 -0.224391 -0.381024 0.160167 0.308165 0.438458 0.711172 -0.015420 0.139617 0.169061 0.042327 -0.280197 0.161311 0.269943 0.114391 -0.141033 -0.054941 0.324335 -0.166327 0.045500 -0.340368 0.359584 -0.252587 -0.120777 0.031920 0.461367 0.014967
175 -0.175674 -0.175670 -0.218542 -0.057544 -0.252194 -0.111005 -0.140760 -0.290198 0.346762 -0.102864 -0.363812 0.182461 -0.446174 -0.083444 -0.047632 -0.009815 -0.062191 0.076563 -0.078386 0.234290 -0.334138 -0.032149 -0.131452 -0.310088 -0.273428 -0.269240 0.427309 0.141719 0.156073 0.100868 -0.081912 -0.174633 0.407199 0.398567 -0.076607 0.430316 -0.091235 -0.110913 0.294432 -0.157797 -0.041573 0.537057 -0.019500 -0.011014 -0.016848 -0.280542 -0.244203 -0.123074 0.123747 -0.013423 -0.025889 0.069728 0.255079 0.342056 -0.180246 -0.406529 -0.490958 0.008229 0.175906 -0.271057 -0.025841 -0.658548 0.219796 -0.002900 -0.194817 -0.208304 -0.228510 0.085244 -0.421816 -0.189402 -0.519055 0.078474 -0.147490 -0.070094 -0.153760 0.173735 0.406657 -0.337056 -0.037496 -0.300408 -0.420183 0.046832 -0.228968 -0.070747 0.268642 0.477451 -0.085014 0.097092 0.275046 -0.110176 0.018622 -0.009117 0.197505 0.279433 0.545233 -0.217202 0.099729 -0.169233 -0.310723 -0.256106 0.093349 -0.021898 -0.500246 -0.705741 -0.245245 0.249937 0.294929 0.072808 -0.255134 0.276646 -0.006808 -0.073876 -0.111098 -0.268698 0.368604 -0.020805 -0.129862 0.488880 -0.216627 0.133757 -0.250026 0.318312 0.382752 0.555690 0.222820 0.200244 -0.054865 0.388944
37 -0.233900 -0.299161 -0.252503 -0.070528 -0.216119 -0.138152 0.075394 0.075735 0.493302 0.209982 -0.283382 0.284026 -0.125756 -0.073794 -0.377349 0.207454 0.282632 -0.112707 0.035326 0.210366 0.130389 0.119844 -0.189492 -0.233364 0.077695 -0.345545 0.015767 0.350518 -0.300353 0.020462 0.176228 -0.201602 0.074811 0.380882 0.038158 0.219472 -0.030173 -0.276616 -0.019869 0.055390 -0.068210 0.379847 -0.088155 -0.244048 -0.142715 -0.299984 -0.091479 -0.327500 0.015087 -0.040012 0.115438 0.268427 0.136588 0.263584 -0.149785 -0.295429 -0.136265 0.076510 -0.208376 -0.288719 -0.117582 -0.463649 -0.090635 0.268888 -0.014950 -0.460008 -0.259040 0.303929 0.029950 -0.124159 -0.070362 0.357523 -0.051914 -0.257273 0.339043 0.191485 -0.101250 0.290369 0.126110 0.007414 -0.390709 -0.133372 -0.325794 -0.205086 0.431608 0.320563 0.040413 0.209733 0.168991 0.194486 -0.048533 -0.012671 -0.342305 0.413272 0.384359 -0.109340 0.179368 -0.178775 0.003996 -0.089466 -0.061333 0.058179 -0.674590 -0.352526 0.263855 0.249328 0.196279 0.262091 0.081436 0.389892 0.059431 -0.320654 0.216571 -0.009348 0.298692 -0.109200 0.015788 0.205674 -0.268472 -0.170149 0.141558 0.237182 0.344796 0.153615 0.029897 0.230449 0.393937 0.523364
84 0.057239 -0.295925 0.333416 0.008414 0.158497 0.389657 0.249283 -0.002528 0.159480 0.440480 -0.010006 0.018288 0.024010 -0.042338 -0.010939 0.207349 -0.097334 -0.070819 -0.038225 0.441365 0.294413 -0.359956 0.452046 -0.523892 0.158554 -0.482675 -0.176963 0.354636 -0.040788 -0.386262 -0.199120 0.178332 -0.204891 0.139994 -0.114886 -0.026475 0.273786 0.090617 -0.639368 0.013726 -0.222226 -0.005263 -0.115586 0.091064 0.117701 -0.007498 -0.127704 -0.007637 0.109046 -0.129640 -0.267254 0.184219 -0.436347 -0.206610 -0.311907 -0.503097 0.507942 0.131739 -0.195450 -0.397681 0.140984 0.041752 -0.277488 0.203232 -0.003821 0.077420 -0.621661 0.266156 0.097092 -0.182813 0.365562 -0.113811 -0.069815 -0.213610 0.249897 -0.069166 0.227729 0.408847 -0.090642 0.332315 -0.126053 -0.177161 0.035063 -0.086386 -0.091546 -0.186458 0.091341 -0.096602 0.274178 0.056708 0.364689 -0.070609 0.293350 0.115340 -0.057841 0.251958 0.081478 -0.041501 -0.244442 0.214672 -0.329176 -0.254607 -0.133750 -0.223279 0.216902 0.483995 0.315926 0.480603 0.020249 0.241608 -0.154019 0.022077 -0.169815 -0.139938 0.414187 0.403729 -0.306537 0.022198 -0.055062 -0.236474 -0.224111 0.026638 -0.016251 -0.365571 -0.298468 0.050977 0.423183 -0.173012
69 -0.170023 -0.141084 0.080471 -0.219191 -0.138629 0.097340 -0.025686 -0.343552 0.016794 0.124394 -0.334918 -0.002278 -0.551017 0.213276 0.141044 -0.031643 -0.152775 0.177206 0.443288 0.255788 -0.211674 -0.293371 0.386249 -0.369371 -0.516119 -0.433960 0.567368 0.106405 0.475314 -0.018183 -0.271242 0.272227 0.329131 0.261266 -0.131729 0.259307 -0.491677 -0.166882 0.103962 -0.011696 0.062776 0.189967 -0.020837 0.063075 0.078855 -0.109490 -0.198443 0.032574 -0.085692 0.302989 -0.412558 -0.050066 -0.097093 0.035356 -0.164447 -0.441694 0.187268 -0.285069 -0.187250 -0.124830 -0.135732 -0.398323 0.052400 -0.120983 -0.201745 0.258153 -0.447517 -0.088530 -0.447626 -0.029581 -0.186758 0.005095 0.132683 -0.252483 0.046223 0.234048 0.603825 -0.196854 0.061777 -0.130193 -0.177024 0.251039 0.040412 -0.124268 0.114281 0.267336 0.108643 0.132128 0.180743 0.104877 0.209358 0.451596 0.246997 0.374448 0.095070 0.040956 -0.061625 -0.235218 -0.393775 0.093403 -0.114797 0.058885 -0.064507 -0.387277 -0.320767 0.477653 0.443307 0.462245 -0.045615 0.497312 0.294671 0.279477 -0.275556 -0.173861 0.648979 0.306961 -0.069089 0.219389 -0.453243 0.021289 -0.239316 0.094439 0.462886 0.319974 0.120869 -0.003108 -0.365002 0.131581
112 -0.117750 -0.234637 0.095942 0.049319 -0.124870 0.012586 0.136818 0.053422 0.333001 0.301801 -0.274356 0.115210 -0.088784 -0.009478 -0.180041 0.167525 0.138373 -0.151061 -0.025876 0.403623 0.331856 -0.201082 0.485783 -0.414752 0.097543 -0.432672 -0.012361 0.339460 -0.205946 -0.189460 0.076522 -0.025115 -0.008631 0.153133 -0.071864 0.053478 0.000592 0.013304 -0.396646 0.065232 -0.194097 0.023309 -0.178146 -0.017210 0.044449 -0.213536 -0.066588 -0.086002 -0.000926 0.074013 -0.272566 0.195749 -0.219638 -0.103407 -0.072437 -0.297196 0.373045 0.028908 -0.281242 -0.200978 -0.011504 -0.185322 -0.061383 0.145167 0.107620 -0.185732 -0.563373 0.311131 0.152107 0.047481 0.298577 0.064813 -0.042797 -0.329113 0.248054 0.085175 0.036536 0.401350 0.223184 0.136724 -0.294175 -0.216447 -0.030070 -0.232391 0.142769 0.061300 0.064964 0.113672 0.087206 0.180402 0.007908 0.109328 -0.137073 0.180913 -0.008675 0.256180 0.092563 -0.041973 -0.045128 0.196106 -0.342853 -0.057039 -0.199059 -0.133565 0.156999 0.350042 0.240263 0.380702 0.174981 0.351034 -0.144442 -0.190638 -0.008934 -0.056377 0.318899 0.106077 0.011703 0.031471 -0.192647 -0.353275 0.014970 0.208977 0.224120 -0.319735 -0.213709 0.077847 0.476406 0.029403
96 -0.126671 -0.240072 -0.192358 -0.032933 -0.127051 -0.252684 0.238147 0.319282 0.520744 0.279336 -0.324746 0.198654 0.077725 -0.271348 -0.255124 -0.050158 0.493632 -0.303833 -0.182906 0.565486 0.310919 -0.247105 0.115647 -0.470982 0.028198 -0.400064 -0.156057 0.438413 -0.281934 -0.113117 0.148154 -0.221922 0.152040 0.316494 -0.313613 0.131614 -0.190365 0.037119 -0.367158 -0.258382 -0.416039 0.289745 -0.412810 -0.044927 0.086028 -0.151287 -0.079704 -0.270695 0.128409 0.137037 -0.364091 0.390149 -0.097735 0.210280 0.048813 -0.339953 0.362323 0.135233 -0.093001 -0.223680 0.189506 -0.237142 -0.193466 -0.104716 0.093409 -0.235735 -0.340235 0.462833 0.055273 0.108252 0.312454 0.109300 -0.072728 -0.376014 0.675244 0.116002 -0.070131 0.547275 0.156047 -0.080845 -0.417377 -0.109246 -0.163393 -0.080869 0.196818 0.027127 -0.235118 0.194400 -0.001318 -0.131306 0.037638 -0.092934 -0.123597 0.462028 0.179089 0.066452 -0.264552 -0.148120 0.166960 -0.313988 -0.384691 0.037330 -0.409949 -0.462805 0.158682 0.284891 0.194769 0.579993 0.067939 0.185345 -0.043213 -0.515334 -0.070048 0.144610 0.260351 -0.120843 -0.109074 0.225032 0.169001 -0.195022 -0.126110 0.017808 0.383745 -0.345849 0.030880 0.061020 0.546328 0.074759
176 -0.110320 -0.044940 -0.278452 0.066700 -0.263425 -0.002464 0.034195 -0.312887 0.220844 0.056502 -0.421589 0.204373 -0.346730 -0.105896 -0.025779 -0.051655 -0.040402 0.014622 -0.326604 0.309440 -0.181142 0.035791 -0.136403 -0.398716 -0.166211 -0.331815 0.389237 0.317061 -0.035869 0.167679 -0.141851 -0.126432 0.431350 0.511882 0.057312 0.485464 0.075165 -0.040584 0.252749 -0.239736 -0.100023 0.548656 -0.030323 -0.024114 0.003860 -0.275658 -0.133026 -0.128485 0.266686 -0.039000 0.127608 0.146946 0.184632 0.340439 -0.279902 -0.443518 -0.638262 0.047225 0.177918 -0.272180 0.020996 -0.594693 0.165672 0.001876 -0.232331 -0.305488 -0.402126 0.132795 -0.328103 -0.278560 -0.426256 0.114645 -0.234469 -0.148411 -0.099438 0.135114 0.460632 -0.342029 -0.067300 -0.257844 -0.576902 0.016865 -0.258966 -0.037302 0.348085 0.468241 -0.035685 0.170594 0.315913 -0.330283 0.040668 -0.056815 0.306446 0.352426 0.679458 -0.305281 -0.007677 -0.111905 -0.377555 -0.295174 0.169227 -0.063608 -0.650814 -0.831833 -0.284371 0.372630 0.415159 0.056670 -0.340785 0.410331 -0.130835 -0.206133 -0.185130 -0.199048 0.394881 0.008918 -0.112446 0.449999 -0.046084 0.099065 -0.177885 0.206932 0.277280 0.602890 0.213873 0.142182 0.050719 0.288811
246 -0.283776 -0.491850 0.046766 -0.270264 -0.143656 -0.050710 -0.208566 -0.240915 0.235593 0.357985 0.038152 0.040505 -0.131136 -0.121754 -0.188686 0.132538 -0.011468 0.250728 0.469433 0.021271 -0.049940 -0.076548 -0.423005 -0.090091 -0.152087 -0.071459 0.129070 -0.053817 0.192841 0.093669 0.176329 -0.198479 0.041873 0.587361 -0.391890 0.276179 -0.244334 -0.275585 0.063750 -0.278395 0.063627 0.399146 0.097309 -0.229986 -0.140163 -0.164142 -0.506996 -0.091178 0.089710 0.145345 -0.008908 0.282969 0.111686 0.248570 -0.369206 -0.357286 -0.199352 -0.331516 -0.181968 -0.364874 -0.017297 -0.410926 0.102902 0.383545 -0.321976 -0.029857 -0.269528 0.082642 -0.197892 -0.466447 -0.645185 0.161322 0.094485 -0.130096 0.099340 0.282345 0.418284 0.006197 -0.054697 0.126871 -0.272946 0.026859 0.028484 0.085720 0.110546 0.391671 0.053061 0.130000 0.099662 0.449185 0.484596 -0.112371 0.004528 0.318962 0.260715 0.020773 0.221100 -0.407687 -0.350294 0.018411 0.155361 0.045958 -0.517900 -0.141273 0.227355 0.047812 0.084492 0.437869 -0.098099 0.406083 0.346045 -0.326592 0.124711 -0.341780 0.532258 0.105673 -0.212316 0.284486 -0.287999 0.312608 -0.193479 0.295401 0.361120 0.168526 0.191536 0.372652 -0.220816 0.709656
198 -0.006573 -0.308118 -0.154417 -0.072652 -0.160048 0.099251 0.063923 -0.187181 0.333231 0.065966 -0.391411 0.187486 -0.285282 -0.111692 -0.210034 0.044918 0.048709 0.016644 -0.183133 0.176325 -0.078023 0.191942 -0.272528 -0.178157 -0.074638 -0.422671 0.280733 0.334354 -0.109821 0.055709 -0.011544 -0.105042 0.217561 0.469353 0.033255 0.361343 0.098054 -0.152949 0.216279 -0.207139 -0.166971 0.449894 -0.040832 -0.083917 0.038711 -0.170993 -0.064410 -0.200336 0.216391 -0.182310 0.177277 0.313780 0.173323 0.385556 -0.281570 -0.301853 -0.632538 0.014508 0.019943 -0.213189 0.062075 -0.457167 -0.086278 0.144870 -0.226389 -0.422798 -0.128635 0.134936 -0.333436 -0.348305 -0.276027 0.100201 -0.131815 -0.095274 0.066013 0.144877 0.124753 -0.162153 -0.150327 -0.219432 -0.341612 -0.006085 -0.423865 0.016701 0.451784 0.350011 -0.162624 0.239851 0.323457 -0.254762 0.107562 -0.138592 0.244466 0.497432 0.702668 -0.248665 0.123164 -0.174467 -0.256332 -0.245246 -0.017157 -0.142511 -0.665868 -0.690884 -0.103540 0.149995 0.268011 0.073511 -0.266309 0.240258 0.033697 -0.192068 -0.077118 -0.136953 0.296161 -0.142403 -0.112542 0.378942 -0.211330 0.152981 -0.212777 0.048700 0.397274 0.463150 0.185637 0.254320 0.101471 0.412154
97 -0.139542 -0.307138 -0.140924 -0.049624 -0.139496 -0.212653 0.236527 0.267781 0.436993 0.395421 -0.321970 0.258611 0.055642 -0.191987 -0.236502 -0.109355 0.487348 -0.313431 -0.128312 0.629823 0.342568 -0.242966 0.072847 -0.418196 -0.053871 -0.400821 -0.150909 0.403917 -0.302926 -0.102516 0.172477 -0.220328 0.186750 0.324829 -0.369424 0.128870 -0.232542 0.073187 -0.335153 -0.366558 -0.360889 0.234950 -0.382795 -0.052952 0.126417 -0.123244 -0.174544 -0.251859 0.117270 0.165502 -0.278370 0.428476 -0.155930 0.146880 0.098363 -0.277033 0.392922 0.208945 -0.046433 -0.213825 0.196792 -0.122101 -0.261941 -0.066076 0.028332 -0.269840 -0.354841 0.476774 0.067206 0.057468 0.299191 0.075758 -0.108466 -0.383741 0.691027 0.193759 -0.114852 0.624763 0.220945 -0.116240 -0.449060 -0.141752 -0.127583 -0.057847 0.217057 0.031430 -0.275416 0.150948 -0.040877 -0.173949 0.123030 -0.168397 -0.125677 0.480014 0.203204 0.076618 -0.319574 -0.128274 0.127009 -0.363266 -0.403771 -0.029379 -0.464754 -0.481210 0.190670 0.285278 0.140491 0.519587 0.031175 0.164479 -0.048235 -0.635950 -0.077493 0.132929 0.191905 -0.130607 -0.158905 0.232056 0.200379 -0.158774 -0.172250 0.003002 0.309586 -0.396884 0.059298 0.091417 0.483447 0.145964
258 0.090895 -0.348161 0.187779 -0.288391 0.100671 0.381554 0.330711 0.123333 0.214929 0.544775 -0.015120 -0.047346 0.255103 0.037731 -0.311915 0.051204 -0.129377 -0.015454 0.218921 0.506603 0.181320 -0.570817 0.298917 -0.484968 0.179340 -0.148395 -0.262930 0.482132 0.095757 -0.280218 0.022015 0.181406 -0.092832 -0.148122 -0.300978 0.055960 0.237056 0.417914 -0.642661 -0.077850 -0.254979 -0.126682 -0.274818 0.177747 0.271893 0.132782 -0.310569 -0.022148 0.289087 -0.388441 -0.511084 0.055532 -0.385122 -0.142947 -0.366661 -0.587398 0.500902 -0.276891 -0.031582 -0.373075 0.215357 -0.103081 -0.244509 0.014705 0.032389 -0.035908 -0.711599 0.338499 0.106225 -0.279525 0.250153 -0.099720 -0.015834 -0.116094 0.191518 0.028005 0.230683 0.208206 0.205984 0.079929 -0.011740 -0.391341 -0.053848 -0.094457 -0.346920 -0.199458 0.077030 -0.235697 0.367293 0.115433 0.524799 0.042972 0.086220 0.296578 0.010993 0.041261 0.396639 -0.207387 -0.282156 0.304224 -0.337776 -0.193986 -0.197063 -0.330931 0.167067 0.424785 0.060908 0.349944 0.128658 0.093526 -0.316050 -0.026907 -0.063236 -0.121620 0.363332 0.361627 -0.452650 0.170621 -0.247885 -0.086311 -0.276229 0.187970 -0.054849 -0.328599 -0.263656 -0.016585 0.318939 -0.222506
68 -0.076854 -0.083484 0.001863 -0.322055 -0.275832 0.159329 0.090943 0.046483 0.081272 0.377400 0.059309 -0.165816 -0.273381 -0.029180 -0.038836 -0.150471 -0.014541 0.120181 0.458050 0.151583 -0.220551 -0.226905 0.151733 -0.087168 -0.180143 -0.096795 0.129493 0.133515 0.377376 0.095191 -0.080946 -0.014645 0.182999 0.397812 -0.557247 0.207544 -0.531394 -0.206445 -0.032120 -0.298685 -0.018039 0.352031 0.015788 -0.040979 -0.047518 -0.036864 -0.519687 0.133908 -0.249341 0.201070 -0.394551 0.158804 -0.045374 0.217241 -0.226562 -0.423085 0.081911 -0.415721 -0.137769 -0.406869 0.035730 -0.329690 0.295624 0.253483 -0.413050 0.305836 -0.052142 0.036743 -0.383915 -0.272077 -0.454115 -0.062416 0.201020 -0.270454 0.048480 0.203573 0.255853 0.014527 -0.047575 -0.031547 -0.189291 0.021722 0.043190 0.002856 0.019874 0.145798 0.038295 0.196411 0.161190 0.256767 0.503986 0.211498 0.189097 0.396450 0.049543 -0.003122 -0.136509 -0.259367 -0.124780 0.062259 0.050795 0.121150 -0.140642 -0.223035 0.092703 0.250738 0.154731 0.580724 -0.194165 0.321752 0.371628 -0.128710 -0.250334 -0.234571 0.549896 0.114084 -0.078241 0.410998 -0.130836 0.314860 -0.342481 0.242373 0.590639 0.126786 0.366990 0.082544 -0.426283 0.563610
100 -0.247737 -0.389285 0.054538 -0.316509 0.259456 -0.047097 -0.023799 -0.160874 0.693815 0.042738 -0.313315 0.080497 -0.095210 -0.171398 -0.400528 0.276594 -0.018642 0.141884 0.082550 0.105643 -0.017275 0.047338 -0.565350 -0.237207 0.249842 -0.246402 0.044104 0.263228 0.101611 -0.163853 0.240298 -0.076760 0.082234 0.404331 -0.033654 0.365890 -0.054208 -0.360346 0.175435 -0.096240 -0.173734 0.652380 -0.073743 -0.160160 -0.188977 -0.065984 -0.078347 -0.238116 0.654083 -0.209426 0.209733 0.392709 0.239784 0.376076 -0.264611 -0.170839 -0.436319 0.038469 -0.186579 -0.294813 0.224331 -0.543269 -0.063204 0.253863 -0.095148 -0.354688 -0.393345 0.137992 -0.171033 -0.104570 -0.373304 -0.062255 -0.296980 -0.046857 0.294701 0.204643 0.257895 -0.265627 -0.081573 -0.026651 -0.333468 -0.081718 -0.366542 0.223544 0.406735 0.347660 0.051832 0.219243 0.244123 -0.091536 -0.025306 -0.184748 0.078355 0.495028 0.704033 -0.193395 0.330603 -0.441006 -0.252792 -0.184586 -0.112028 0.054108 -0.537947 -0.564705 -0.117480 -0.062410 0.279369 0.396591 -0.024743 0.520605 0.218313 -0.199868 0.235107 -0.277463 0.364631 -0.028689 -0.188225 0.068687 -0.116294 0.131212 0.005203 0.307461 0.441637 0.250564 -0.009045 0.221188 0.362119 0.478170
223 0.010967 -0.720647 0.061311 -0.286047 -0.034194 0.196662 0.411785 -0.001055 0.267679 0.450322 -0.340818 0.060285 -0.326520 -0.092658 -0.257080 -0.057203 0.146856 -0.096304 0.098067 0.590993 0.200427 -0.520612 0.252106 -0.667598 -0.044354 -0.615220 0.172581 0.524280 0.394138 -0.195088 -0.189496 0.037257 0.319237 0.713530 -0.538261 0.422280 -0.014794 -0.143234 -0.318055 -0.188760 -0.654142 0.426617 -0.446150 -0.070986 0.196526 -0.142470 -0.429984 -0.345185 0.205829 -0.069918 -0.621451 0.273225 -0.153058 0.113366 -0.470972 -0.827999 0.036275 -0.053795 -0.097762 -0.495552 0.289442 -0.529293 -0.290071 0.284950 -0.384159 -0.126598 -0.709799 0.623512 -0.319363 -0.512469 -0.325449 -0.107987 0.128057 -0.414525 0.518487 0.300873 0.551260 0.426857 0.073495 0.084197 -0.394596 -0.191363 -0.342690 -0.157019 0.029069 0.292814 0.137792 0.076047 0.422633 -0.034442 0.641305 -0.095552 0.563934 0.581406 0.464896 -0.062877 0.149963 -0.328922 -0.565673 -0.002080 -0.336025 -0.115834 -0.598595 -0.814499 0.009500 0.613744 0.697026 0.757631 -0.449924 0.726697 0.273541 -0.116066 -0.452292 -0.272387 0.535715 0.499046 -0.602968 0.297269 -0.137679 0.099740 -0.563328 0.006501 0.429035 -0.171204 0.008002 0.289139 0.382836 0.539190
29 -0.139402 -0.775291 0.084261 -0.222037 0.036110 0.028992 0.255051 -0.289947 0.083734 0.294855 -0.350709 0.209982 -0.525838 -0.106123 -0.049915 -0.053555 0.119060 -0.029045 0.140345 0.419070 0.147186 -0.443316 -0.046919 -0.486168 -0.117454 -0.485357 0.314395 0.285182 0.585705 0.024084 -0.034736 -0.079145 0.495220 0.730187 -0.591726 0.549398 0.022750 -0.181130 0.065697 -0.295957 -0.361232 0.465876 -0.423073 -0.063607 0.201847 -0.025989 -0.504179 -0.258697 0.250054 0.109026 -0.518112 0.237474 0.015333 0.218871 -0.446158 -0.466112 -0.115955 0.088398 0.068461 -0.426990 0.244263 -0.734337 -0.268289 0.273002 -0.442567 -0.132462 -0.510894 0.521260 -0.397912 -0.456204 -0.586998 -0.142279 0.023807 -0.295650 0.407814 0.356701 0.695073 0.256250 0.064929 -0.049292 -0.370617 -0.089376 -0.210687 -0.218615 0.006483 0.432268 0.067595 -0.003459 0.404576 -0.119832 0.569727 -0.155179 0.498071 0.461062 0.571993 0.023837 0.125932 -0.271403 -0.728700 -0.259990 -0.243676 -0.087672 -0.623125 -0.723382 -0.134083 0.389382 0.624314 0.512470 -0.638034 0.782418 0.380341 0.014866 -0.446665 -0.265938 0.342216 0.351517 -0.596795 0.301177 -0.168950 0.283153 -0.756765 -0.059433 0.317655 -0.076029 0.215165 0.449730 0.250735 0.628490
122 -0.131575 -0.733048 -0.104368 -0.116850 0.066522 0.102935 0.301162 -0.140108 0.155761 0.084386 -0.220781 -0.043294 -0.285318 -0.172176 -0.269498 -0.038222 0.079564 0.079060 0.057672 0.316277 0.006150 -0.412998 -0.125380 -0.550690 -0.311309 -0.358125 0.409604 0.154931 0.566398 -0.203096 -0.246891 0.003892 0.387730 0.657944 -0.389483 0.412701 0.211029 -0.246430 0.041314 -0.168039 -0.625667 0.524936 -0.163900 0.001049 0.024662 -0.302005 -0.396550 -0.427405 0.200314 -0.071175 -0.304114 -0.039476 0.083999 0.165228 -0.469403 -0.679808 -0.324918 0.028106 0.173849 -0.197194 0.182913 -0.474806 -0.294023 0.284511 -0.393133 -0.100894 -0.533024 0.354093 -0.388494 -0.655016 -0.548367 -0.100563 0.320525 -0.357372 0.146081 0.334151 0.786299 0.186505 0.083014 0.063868 -0.294057 -0.127650 -0.216170 0.000159 -0.145139 0.400785 0.218334 -0.125626 0.448700 0.138237 0.535412 -0.125789 0.692313 0.341939 0.652727 -0.324907 0.308516 -0.287066 -0.765455 -0.049271 -0.040935 -0.101639 -0.487403 -0.617133 -0.246799 0.378541 0.661711 0.399753 -0.502594 0.675349 0.365111 -0.073410 -0.324701 -0.240080 0.240890 0.586297 -0.779514 0.297655 -0.058814 0.351121 -0.422395 -0.048842 0.213054 0.112168 0.044661 0.255721 0.151734 0.665079
124 -0.140234 -0.751723 -0.123262 -0.110142 0.065496 0.105847 0.308703 -0.149448 0.162496 0.066735 -0.217141 -0.048434 -0.287632 -0.189274 -0.278775 -0.034972 0.080778 0.091852 0.058376 0.299786 -0.006995 -0.406001 -0.145527 -0.560712 -0.337038 -0.350019 0.428023 0.134445 0.591613 -0.201641 -0.252543 0.003631 0.400204 0.669998 -0.393053 0.417027 0.235470 -0.262384 0.054352 -0.174742 -0.646514 0.545001 -0.145899 0.005637 0.011183 -0.317776 -0.402237 -0.443506 0.195813 -0.076818 -0.299633 -0.054138 0.099307 0.180016 -0.488744 -0.691291 -0.361898 0.020868 0.194667 -0.181537 0.180302 -0.483692 -0.299316 0.302956 -0.397778 -0.107803 -0.532863 0.347692 -0.403693 -0.690385 -0.585095 -0.096551 0.346497 -0.365404 0.122938 0.340380 0.813642 0.180266 0.084151 0.072813 -0.300620 -0.127665 -0.222465 0.012368 -0.161430 0.423622 0.224285 -0.131047 0.456723 0.156361 0.550047 -0.131256 0.721197 0.342466 0.681215 -0.350759 0.324271 -0.302685 -0.798480 -0.049814 -0.027423 -0.105371 -0.503484 -0.619448 -0.258976 0.364139 0.674720 0.397348 -0.528821 0.683870 0.384622 -0.082923 -0.321624 -0.253348 0.232568 0.604230 -0.811562 0.307025 -0.058912 0.389090 -0.431853 -0.050988 0.220396 0.140987 0.046984 0.262347 0.133519 0.699449
243 0.172494 -0.562374 -0.144838 -0.015346 0.458111 -0.099921 -0.001493 -0.066622 -0.301745 0.013095 -0.323653 0.082661 -0.408318 -0.339596 0.024616 0.061654 0.447791 -0.426787 -0.339602 0.420075 0.004112 -0.535477 0.079197 -0.507474 -0.551435 -0.359861 0.783883 0.110691 0.524057 0.065963 -0.495345 -0.114684 0.836415 -0.146589 -0.558989 -0.178201 0.215131 -0.369278 -0.048161 0.194108 -0.630965 0.311733 -0.894543 0.373205 0.290820 -0.451885 -0.065244 -0.619059 -0.041916 0.316096 -0.628844 -0.265851 0.116750 0.186237 -0.644173 0.052575 -0.220683 0.137060 -0.082266 0.381617 0.235646 -0.140619 -0.116267 -0.016686 -0.426152 -0.011283 0.018031 0.348558 -0.095351 -0.486324 0.039798 -0.311665 0.032842 -0.491858 0.663131 0.558844 0.764337 0.286090 -0.018930 -0.053596 -0.540871 0.569944 -0.180972 -0.187428 -0.325605 -0.109666 -0.437908 0.319600 0.219177 -0.145465 0.332836 -0.495360 1.266573 0.505675 0.427017 -0.822008 0.357937 -0.285526 -0.997215 -0.424462 0.145522 0.216361 -0.301983 -0.583845 -0.687775 0.177693 0.258578 0.152735 -0.344498 0.516219 0.475769 0.232346 -0.645170 0.096962 -0.016174 0.868514 -0.818418 0.281325 0.329107 0.696673 -0.685596 -0.556408 -0.280022 -0.346527 -0.079755 0.036635 0.230240 0.855591
102 0.040957 -0.600485 0.513640 -0.722937 0.297993 -0.233345 0.407447 -0.147428 0.736410 0.226177 -0.049638 -0.633948 -0.238104 0.247244 -0.418317 0.145016 -0.218319 0.116940 0.257526 0.158685 -0.337599 -0.758523 -0.025087 -1.110043 0.623279 -0.355080 0.172093 0.321710 1.221385 -0.381795 0.085049 -0.038921 0.075790 0.637799 -0.415738 0.343034 -0.253608 -0.208272 0.244763 0.148960 -0.584377 0.047295 -0.286993 0.198213 -0.000459 0.238082 -0.388542 -0.586279 0.501567 -0.063806 -0.542273 0.563711 -0.034854 -0.667741 -0.115939 -0.123063 0.224545 0.302209 0.085186 -0.099027 0.614557 -0.430176 -0.183923 0.206730 -0.127333 -0.195287 -0.452646 0.348382 -0.748186 -0.119821 -0.499809 -0.413182 -0.450558 0.291372 0.508318 0.206404 0.094543 0.412443 0.624583 -0.197800 0.376967 -0.335408 0.018994 0.253093 -0.748093 0.075915 0.132676 0.133741 0.852588 -0.551045 0.102339 0.155483 0.669393 0.544903 0.776097 -0.194043 -0.215978 -0.258125 -0.252589 0.100995 -0.459677 0.388126 -0.077593 -0.488314 -0.805179 0.281857 0.508955 0.810387 -0.597782 0.125289 0.167007 -0.125075 -0.386934 0.062095 0.231767 0.180983 -0.369567 -0.190587 0.530347 0.266629 -0.180111 0.228575 0.869882 -0.374349 0.484589 0.284279 0.273416 0.759541
39 -0.163465 -0.792911 -0.017714 -0.080245 0.697978 0.237232 0.900069 -0.045019 0.165107 -0.182602 -0.531593 -0.080343 0.149967 -0.235760 -0.295373 -0.271237 -0.197718 0.054095 -0.656212 0.198151 0.276256 -0.506444 -0.116386 -0.830597 -0.147458 -0.246154 0.401969 0.326366 0.869676 -0.588780 -0.059078 0.029799 0.369270 0.369595 -0.204743 0.396353 0.898066 0.184368 0.029187 -0.380122 -1.101885 0.168728 -0.389717 0.031574 0.150375 0.201025 -0.174901 -0.423568 0.815343 -0.242867 -0.394216 0.085349 0.162870 -0.132728 -0.566081 -0.166060 -0.367451 0.571235 0.877507 0.202067 0.258871 -0.286283 -0.705635 0.074594 -0.172544 -0.228119 -0.530854 0.648189 -0.310730 -0.655075 -0.200584 -0.085622 0.025491 0.141584 0.197873 0.194901 0.654191 0.361665 0.645673 0.001014 0.076147 -0.469311 -0.155871 0.017258 -0.710548 0.106207 0.241029 -0.354049 0.655930 -0.400140 0.245415 -0.276669 0.918001 0.224674 0.892315 -0.233164 0.312707 -0.208632 -0.903274 -0.003159 -0.223202 -0.196605 -0.899105 -0.666169 -0.263907 0.081623 0.593872 0.155365 -0.887262 0.193591 0.006487 0.197785 -0.381600 -0.015135 -0.733524 0.428985 -1.092115 0.041705 0.556381 0.227502 -0.391989 -0.304041 -0.040171 -0.272974 0.249645 0.322160 0.915714 0.244488
108 -0.085677 -0.385293 0.388380 -0.211112 0.611819 -0.044114 0.466374 -0.304427 0.192431 0.393221 0.014836 -0.566951 -0.429867 -0.172423 -0.044971 -0.217167 -0.307787 0.335021 0.157093 0.062751 0.155639 -0.362779 0.272602 -0.508772 0.281784 0.189809 0.281434 0.155371 1.169345 -0.159210 0.491574 0.486160 0.020478 0.225905 -0.459715 0.810191 0.381988 0.046438 0.221988 0.301758 -0.236884 0.132939 -0.835022 0.101727 0.025426 -0.136109 -0.419187 -0.017507 0.630062 -0.114200 -0.490850 -0.155459 0.401982 -0.083346 -0.685002 0.120949 -0.533866 0.104098 0.118048 -0.182548 0.329744 -0.725151 -0.040359 0.308137 -0.608669 -0.039240 0.019807 0.325368 -0.694316 -0.538478 -0.576389 -0.228134 0.021353 0.102673 0.050838 0.717650 0.797036 -0.156430 0.329450 0.149512 -0.208066 -0.317941 0.009364 -0.008977 -0.444089 0.181543 -0.145379 0.176352 0.985841 -0.665588 0.659002 0.079465 0.633546 0.481434 0.420059 -0.059328 0.116097 -0.654015 -1.265152 0.159575 -0.095051 0.013763 0.154687 -0.463138 -0.544888 -0.171725 0.590556 0.612831 -0.627220 0.762764 0.461463 0.275273 -0.090874 -0.316901 -0.077888 0.357766 -0.637466 0.254452 0.283084 0.865858 -0.717618 -0.176740 0.406527 0.074772 0.257103 0.589262 0.459667 0.546966
173 -0.076844 -0.400488 0.392272 -0.210974 0.578259 -0.046906 0.442218 -0.306198 0.207839 0.393001 0.025711 -0.565719 -0.440603 -0.172631 -0.044365 -0.203152 -0.301134 0.328074 0.163445 0.062022 0.136351 -0.381446 0.269873 -0.527490 0.292539 0.181954 0.276455 0.157768 1.170157 -0.136621 0.480184 0.464205 0.014840 0.256492 -0.470210 0.803517 0.383731 0.038913 0.211591 0.302550 -0.250651 0.144308 -0.806411 0.116647 0.024002 -0.136719 -0.429779 -0.032256 0.613648 -0.116690 -0.499050 -0.141312 0.380477 -0.085378 -0.676231 0.076439 -0.537798 0.092668 0.110318 -0.197397 0.363157 -0.742448 -0.038574 0.311646 -0.596907 -0.055248 0.002838 0.327998 -0.694067 -0.536280 -0.594487 -0.234952 0.032468 0.087389 0.063050 0.699590 0.796517 -0.142491 0.311517 0.151029 -0.198037 -0.316912 0.000744 -0.003182 -0.450258 0.191914 -0.152124 0.183078 0.984525 -0.644446 0.681919 0.073764 0.647228 0.465850 0.431051 -0.065763 0.123394 -0.656702 -1.257797 0.145836 -0.119276 -0.000164 0.154175 -0.470941 -0.552060 -0.157199 0.593410 0.621192 -0.635455 0.758035 0.457614 0.242632 -0.105924 -0.320702 -0.041893 0.368742 -0.642318 0.262878 0.253897 0.869193 -0.730498 -0.154933 0.427466 0.075113 0.256118 0.584644 0.438919 0.562807
221 0.002461 -0.741029 0.062936 -0.299883 -0.037892 0.201260 0.423079 0.003238 0.279488 0.468931 -0.353744 0.061713 -0.339942 -0.089183 -0.264621 -0.059507 0.149999 -0.096003 0.113786 0.611112 0.204966 -0.530910 0.269029 -0.689276 -0.054841 -0.640217 0.177007 0.540902 0.407773 -0.203603 -0.193782 0.037845 0.330519 0.731604 -0.558144 0.435316 -0.028592 -0.145675 -0.330652 -0.199865 -0.672231 0.444417 -0.457609 -0.072347 0.206685 -0.144281 -0.451924 -0.349483 0.204655 -0.068853 -0.641550 0.285486 -0.163670 0.109012 -0.491448 -0.850618 0.038959 -0.060613 -0.110074 -0.515214 0.296421 -0.545213 -0.295617 0.297021 -0.397929 -0.128013 -0.731056 0.641472 -0.327647 -0.527077 -0.337154 -0.112561 0.133593 -0.427566 0.532862 0.307708 0.570621 0.439632 0.075576 0.090600 -0.409260 -0.192991 -0.348071 -0.166475 0.032652 0.297317 0.141616 0.077894 0.434705 -0.025839 0.659856 -0.094643 0.578546 0.598727 0.478602 -0.064303 0.154129 -0.337960 -0.579963 -0.002280 -0.347243 -0.112676 -0.620225 -0.828075 0.014279 0.631329 0.719502 0.785079 -0.459089 0.750513 0.288185 -0.118451 -0.471722 -0.283601 0.556098 0.509098 -0.613124 0.311343 -0.146267 0.104206 -0.575377 0.010891 0.451433 -0.180884 0.007297 0.300362 0.387820 0.558982
224 0.149644 -0.581617 -0.120617 -0.033071 0.489134 -0.089034 0.011769 -0.071102 -0.295841 0.011823 -0.316061 0.071402 -0.406884 -0.328151 0.013130 0.070703 0.434185 -0.401701 -0.299465 0.415360 0.006286 -0.560391 0.078376 -0.514985 -0.556954 -0.351420 0.782897 0.109393 0.553838 0.043679 -0.491261 -0.096364 0.826185 -0.131392 -0.573171 -0.170070 0.213507 -0.375085 -0.051973 0.197355 -0.645127 0.301268 -0.880401 0.372265 0.297910 -0.440163 -0.073472 -0.617473 -0.032142 0.322161 -0.645104 -0.279052 0.109119 0.164476 -0.658233 0.027005 -0.209009 0.120794 -0.081275 0.379884 0.240946 -0.145480 -0.130912 -0.006890 -0.437829 -0.003261 -0.028747 0.349127 -0.105133 -0.500709 0.020024 -0.315440 0.052944 -0.499587 0.654727 0.565459 0.797668 0.278589 -0.007732 -0.025924 -0.534494 0.561437 -0.177224 -0.181343 -0.337924 -0.102459 -0.394139 0.304889 0.242907 -0.125194 0.349790 -0.473794 1.273062 0.499064 0.436080 -0.804709 0.369767 -0.299018 -1.020568 -0.397897 0.130192 0.212074 -0.283001 -0.573790 -0.682975 0.198873 0.286811 0.167195 -0.351987 0.547347 0.485324 0.262072 -0.647764 0.087375 -0.002418 0.900332 -0.838846 0.263945 0.308125 0.687815 -0.674768 -0.551407 -0.281683 -0.349220 -0.088253 0.046180 0.232005 0.837032
220 0.038024 -0.604523 0.508247 -0.707618 0.308249 -0.228013 0.424875 -0.146269 0.736104 0.228571 -0.054091 -0.627022 -0.239137 0.237063 -0.411345 0.137006 -0.206189 0.104913 0.240433 0.173568 -0.323050 -0.770349 -0.003209 -1.118196 0.632333 -0.350027 0.170675 0.327035 1.227787 -0.376503 0.075981 -0.037994 0.081499 0.637970 -0.425463 0.347059 -0.233988 -0.208075 0.234713 0.162237 -0.598582 0.058477 -0.296432 0.200829 -0.000801 0.238428 -0.383051 -0.594939 0.516582 -0.068639 -0.557404 0.560900 -0.038556 -0.659362 -0.115895 -0.132488 0.214932 0.304794 0.096226 -0.104216 0.624238 -0.436711 -0.198714 0.206429 -0.120220 -0.203578 -0.466853 0.356711 -0.748001 -0.122187 -0.503234 -0.418254 -0.451123 0.275262 0.519823 0.206706 0.107358 0.409037 0.629083 -0.193651 0.371253 -0.349145 0.020097 0.253216 -0.751142 0.086608 0.132294 0.122995 0.850396 -0.556485 0.123933 0.140231 0.691537 0.542681 0.780387 -0.189580 -0.214326 -0.263033 -0.272646 0.090798 -0.469506 0.381421 -0.079058 -0.504074 -0.814218 0.290397 0.529644 0.816768 -0.614507 0.144552 0.172224 -0.115947 -0.399649 0.055028 0.229704 0.197169 -0.389407 -0.193631 0.536255 0.268683 -0.201809 0.223861 0.866169 -0.390872 0.484780 0.283933 0.284319 0.763695
233 -0.142557 -0.756284 0.090320 -0.206358 0.032386 0.026986 0.242905 -0.283196 0.071803 0.288646 -0.345039 0.214928 -0.505181 -0.099590 -0.038518 -0.047036 0.128066 -0.027389 0.138528 0.410268 0.154774 -0.430544 -0.046319 -0.460299 -0.104790 -0.465717 0.298883 0.274691 0.560753 0.027972 -0.026145 -0.080208 0.481270 0.707508 -0.578040 0.534446 0.017740 -0.170673 0.060130 -0.291610 -0.342132 0.442117 -0.409652 -0.055981 0.197855 -0.018600 -0.495756 -0.240475 0.249456 0.116132 -0.505723 0.235579 0.015784 0.216072 -0.422366 -0.446209 -0.099690 0.088556 0.066780 -0.423532 0.232189 -0.713649 -0.258519 0.264297 -0.418806 -0.123276 -0.492885 0.515455 -0.380567 -0.443228 -0.560377 -0.139344 0.023458 -0.291718 0.402951 0.339881 0.669900 0.257546 0.065521 -0.050282 -0.354352 -0.092417 -0.198118 -0.218068 -0.000370 0.420261 0.056588 -0.005121 0.382189 -0.104565 0.554726 -0.148547 0.463240 0.435663 0.539216 0.036695 0.127680 -0.266174 -0.708488 -0.257196 -0.239647 -0.095457 -0.609642 -0.690609 -0.123849 0.371436 0.602074 0.496235 -0.619387 0.761482 0.361031 0.015662 -0.423121 -0.250643 0.330500 0.341570 -0.573711 0.296784 -0.176689 0.272950 -0.742137 -0.056295 0.300243 -0.083643 0.204360 0.437033 0.254980 0.607117
73 -0.175563 -0.795205 -0.001055 -0.096342 0.733172 0.213778 0.902058 -0.047412 0.175579 -0.189993 -0.546597 -0.069335 0.164259 -0.224295 -0.304530 -0.269492 -0.196788 0.032004 -0.656189 0.188652 0.283893 -0.486216 -0.125376 -0.840243 -0.144070 -0.247762 0.419238 0.334002 0.886791 -0.607277 -0.060359 0.021564 0.379276 0.353189 -0.201870 0.380646 0.902569 0.169722 0.035181 -0.363741 -1.116298 0.169021 -0.403864 0.017893 0.146661 0.189901 -0.170850 -0.425387 0.808958 -0.255977 -0.384426 0.078350 0.181092 -0.133761 -0.581549 -0.147121 -0.367410 0.596215 0.871389 0.239089 0.263388 -0.284832 -0.687174 0.080819 -0.181929 -0.222055 -0.515855 0.627435 -0.300404 -0.640642 -0.181304 -0.093983 0.021136 0.164679 0.222588 0.217113 0.649217 0.370761 0.667146 0.009550 0.068676 -0.469998 -0.148169 0.021129 -0.697409 0.097633 0.240446 -0.345826 0.663128 -0.413921 0.236064 -0.287969 0.908366 0.226391 0.898811 -0.239498 0.313250 -0.223924 -0.893612 -0.002632 -0.207201 -0.185679 -0.907002 -0.661461 -0.262441 0.072879 0.597284 0.144734 -0.873335 0.196162 0.017419 0.195552 -0.377782 -0.003324 -0.758351 0.421750 -1.104224 0.036489 0.588150 0.222442 -0.354371 -0.296344 -0.042644 -0.299062 0.247032 0.317761 0.931098 0.270654
129 0.060878 0.003082 -0.220457 0.013206 0.010554 -0.216168 0.302721 0.440933 0.367988 0.017650 -0.143547 -0.019225 -0.000229 -0.255134 -0.152763 -0.072759 0.392555 -0.340141 -0.295308 0.202704 0.303572 -0.193107 0.075338 -0.587519 0.106583 -0.425484 -0.121319 0.429375 -0.055542 -0.188541 -0.150503 -0.035119 0.080396 0.469647 -0.113132 0.126884 -0.162628 -0.078437 -0.378873 0.109562 -0.517596 0.456894 -0.611647 -0.176756 0.045484 -0.157553 0.244361 -0.383677 0.137284 0.016962 -0.333569 0.310735 -0.015200 0.148860 0.031923 -0.386443 0.192463 0.154772 -0.233496 -0.293579 0.243106 -0.099484 -0.148375 -0.119136 0.026700 -0.009706 -0.204823 0.437565 -0.061543 -0.002216 0.180924 0.112856 0.040091 -0.191296 0.802096 -0.106768 0.109705 0.506627 -0.081613 0.056747 -0.180595 0.112243 -0.219517 -0.113425 0.078851 0.053234 -0.093790 0.374570 0.040729 -0.292620 -0.010145 -0.035071 0.189447 0.372700 0.051953 -0.085594 -0.424678 -0.141945 0.147756 -0.217788 -0.219750 0.202386 -0.234063 -0.504315 0.049751 0.288524 0.444629 0.760324 -0.061464 0.136988 0.117265 -0.073989 -0.274832 0.193132 0.313285 0.092684 -0.079217 -0.012012 0.413969 -0.120859 0.057375 -0.306388 0.402354 -0.186704 -0.056482 -0.014173 0.570058 0.013549
