192 128
62 0.053127 -0.228120 0.241855 -0.213583 0.054631 -0.077895 0.192830 0.187991 -0.139687 0.042963 -0.039644 0.093636 -0.030267 0.141495 -0.174841 -0.000359 0.099335 0.167161 0.190087 0.007796 0.029006 0.024648 0.130264 -0.038667 0.215139 -0.175832 -0.269000 0.278635 -0.026855 -0.247117 -0.002446 0.064259 -0.174410 0.123512 0.023319 0.080562 -0.080921 -0.080997 -0.019179 0.071065 0.000277 0.084955 -0.091072 -0.180477 0.029508 0.109039 0.018556 -0.000544 -0.132570 -0.233640 -0.221854 0.204211 -0.147432 -0.074549 0.000296 -0.210869 0.265732 0.192013 -0.186163 -0.455314 -0.011206 0.051278 -0.162459 0.095131 -0.312240 0.113432 -0.201673 0.044044 0.229651 0.229374 -0.000237 -0.171473 0.127338 0.157108 0.362406 -0.209499 -0.083986 0.166674 -0.031269 0.072906 0.261481 -0.303857 -0.266595 -0.204112 0.178780 -0.036850 0.260518 -0.009292 -0.032974 -0.099777 0.009396 0.003340 -0.341681 0.074282 -0.061788 0.440290 -0.137256 0.027573 0.253892 0.181518 -0.170233 -0.161465 0.101854 -0.107963 0.301334 0.301700 0.317209 0.238541 -0.066415 0.317651 -0.035641 0.235073 0.019730 -0.070522 0.174282 -0.090221 0.052653 -0.211943 -0.096757 -0.294758 -0.051436 0.042849 -0.076273 -0.100304 -0.045134 0.181197 0.149425 -0.344076
59 -0.054885 -0.193134 0.300246 -0.102815 0.161351 0.063155 0.038026 0.072922 -0.194516 0.236732 0.018652 0.326290 0.011879 0.031370 0.079305 -0.031246 0.143690 -0.107615 0.191306 0.096588 0.139727 -0.035918 0.267557 -0.208770 0.201706 -0.139209 -0.439521 0.301706 0.022337 0.019426 -0.136147 0.130536 -0.195347 0.179115 -0.047519 -0.083584 -0.007437 -0.095476 -0.108443 0.084616 0.068902 0.144274 -0.006696 -0.108005 -0.108788 0.134522 0.014416 -0.090820 -0.002973 -0.022594 -0.067785 0.246846 -0.272123 -0.054307 -0.089810 -0.147265 0.416536 0.312696 -0.219629 -0.366003 0.076266 0.017444 -0.177380 0.232242 -0.010986 0.012595 -0.237287 -0.066676 0.359695 0.300180 0.176185 -0.101691 0.130886 -0.001911 0.591281 -0.035944 -0.209199 0.230219 0.073983 0.243373 0.166007 -0.252249 -0.196939 -0.077377 0.197978 -0.052266 0.116715 0.059004 -0.079158 -0.113148 0.267507 0.059084 -0.206784 -0.146615 -0.171416 0.405242 -0.257956 -0.181824 0.316223 -0.068193 -0.370864 -0.299901 -0.061313 0.046431 0.096306 0.269227 0.264638 0.405320 -0.003035 0.266907 -0.090682 0.057725 0.087005 -0.020877 0.164295 0.125224 -0.035482 -0.219779 -0.226636 -0.285641 -0.003457 0.030780 0.014925 -0.249214 -0.023577 0.062726 0.069032 -0.086093
85 0.066225 -0.299867 0.305945 -0.028083 0.108451 0.071001 -0.021721 0.100771 -0.187417 0.230475 -0.050739 0.141987 0.133886 -0.038357 -0.085178 0.063363 0.041210 0.077850 0.184767 0.135935 0.150735 -0.025013 0.277338 -0.058148 -0.038966 -0.064422 -0.317497 0.121712 -0.144066 -0.130657 -0.034653 0.209547 -0.183622 -0.065060 -0.165739 -0.140371 0.086828 0.073822 -0.227983 0.041428 -0.037573 0.060417 -0.006380 -0.052915 -0.087721 0.011774 -0.068003 -0.013916 -0.026844 0.059672 -0.082295 0.096945 -0.213667 -0.134300 -0.108198 -0.207120 0.279152 0.153940 -0.185278 -0.114511 -0.046172 -0.006421 -0.179811 0.188033 0.072648 0.088074 -0.281973 0.006833 0.330612 0.149687 0.197752 0.047994 0.251984 -0.132362 0.319348 -0.075318 -0.072404 0.167426 0.024300 0.286865 0.068597 -0.244485 0.046426 -0.199761 0.031524 -0.071705 0.194796 -0.081675 -0.014464 0.069607 0.221265 0.106896 -0.132741 -0.152694 -0.236172 0.377854 -0.000297 -0.121514 0.181567 0.119840 -0.291169 -0.344978 0.014370 0.123800 0.214525 0.330650 0.051714 0.209530 0.121269 0.251091 -0.163123 0.123449 0.188951 -0.161573 0.284843 0.149746 -0.010762 -0.139129 -0.229370 -0.370383 0.040677 0.062310 -0.183671 -0.299888 -0.165668 0.101253 0.087875 -0.282891
50 0.024633 -0.239628 0.374704 -0.097040 0.123829 0.060612 -0.046963 0.175954 -0.177977 0.222507 0.012146 0.298691 0.055726 0.022183 0.029639 0.049921 0.054666 -0.056176 0.187027 0.166420 0.125286 0.031063 0.399969 -0.042229 0.201837 -0.086504 -0.498651 0.252370 -0.018087 0.027116 -0.131513 0.119783 -0.244852 0.032774 -0.209951 -0.209622 0.067963 -0.044424 -0.258980 0.056479 0.034390 0.143415 0.080780 -0.125464 -0.108486 0.158726 -0.064109 -0.052817 -0.080347 -0.077180 -0.189961 0.213710 -0.253437 -0.103536 -0.154083 -0.296303 0.365638 0.282126 -0.208628 -0.307266 0.179098 -0.026756 -0.119912 0.195381 -0.001398 0.080015 -0.233254 -0.056227 0.436783 0.341006 0.217295 -0.153091 0.245844 0.032603 0.422966 -0.073415 -0.166860 0.130164 -0.041783 0.348938 0.163696 -0.312225 -0.191112 -0.160689 0.218790 -0.025546 0.160263 -0.063972 -0.061051 -0.009714 0.334308 -0.002014 -0.235159 -0.242486 -0.259479 0.517376 -0.083237 -0.199154 0.387490 0.010248 -0.416259 -0.342308 0.058497 0.044887 0.217358 0.282844 0.214287 0.315948 0.047945 0.244256 -0.140865 0.030206 0.129341 -0.169200 0.250250 0.155785 -0.053916 -0.182710 -0.336926 -0.386088 -0.038939 0.186248 -0.045883 -0.336987 -0.156339 0.087661 0.029602 -0.157408
46 -0.031679 -0.207756 0.282563 -0.113672 0.092901 0.056438 0.069218 0.125460 -0.211744 0.237786 -0.002891 0.283645 0.010054 0.104579 0.008830 -0.036288 0.105006 -0.039460 0.195641 0.149641 0.068574 -0.043386 0.324052 -0.106745 0.181008 -0.139370 -0.465934 0.233680 0.032866 -0.048206 -0.122212 0.153373 -0.208354 0.158144 -0.123301 -0.053746 -0.016080 -0.076659 -0.137100 0.092635 0.006401 0.100801 0.067546 -0.097185 -0.105406 0.171473 -0.059131 -0.060380 -0.094931 -0.070159 -0.173252 0.178575 -0.289271 -0.093878 -0.094538 -0.219786 0.452763 0.248492 -0.211205 -0.399327 0.077763 0.019139 -0.165701 0.227851 -0.072563 0.103982 -0.274040 -0.003496 0.340600 0.289449 0.133135 -0.125761 0.189460 0.008612 0.474233 -0.072715 -0.207745 0.206551 0.089942 0.262836 0.215982 -0.319240 -0.243750 -0.110190 0.169852 -0.100779 0.175119 -0.020228 -0.095160 -0.040998 0.250012 0.061114 -0.250365 -0.151802 -0.168685 0.447394 -0.206066 -0.145612 0.347904 0.033556 -0.330192 -0.293123 -0.009016 0.102183 0.160875 0.239246 0.232487 0.365433 0.008223 0.323433 -0.076166 0.113411 0.074989 -0.043742 0.144082 0.139729 -0.008534 -0.196100 -0.254156 -0.306882 -0.001618 0.087232 -0.033203 -0.245170 -0.041560 0.034863 0.094273 -0.171699
117 0.042416 -0.540580 0.009386 -0.405625 0.455500 0.133951 -0.177467 -0.218896 0.238968 -0.105746 -0.058956 0.141084 -0.034757 0.071882 -0.237039 0.077437 0.130778 0.196797 0.163549 0.168079 -0.149287 -0.122644 -0.435945 -0.259270 -0.108364 -0.270119 0.244455 0.308995 0.176427 -0.137133 -0.262768 -0.095077 -0.207897 0.292524 0.040499 0.162323 -0.111476 -0.254864 0.149704 -0.113221 -0.053420 0.482281 -0.393110 -0.152645 -0.000072 -0.228558 -0.035449 -0.223709 0.354168 0.065544 -0.043593 0.251745 0.130632 0.209527 -0.167401 -0.178304 0.063475 0.213655 -0.091709 -0.448794 -0.050330 -0.118312 -0.195299 -0.019834 -0.379468 0.170612 -0.100385 -0.168401 -0.223979 -0.242931 -0.226937 -0.098957 0.131741 -0.060180 0.556706 0.060422 0.346646 -0.112096 -0.113530 0.053827 -0.082108 -0.104405 -0.208621 0.160167 0.044553 0.247575 0.156949 -0.025802 0.213386 -0.108554 0.075751 0.027721 0.036435 0.134424 0.112854 0.010314 0.133231 -0.269077 -0.054569 -0.111289 -0.037213 -0.057441 -0.381046 -0.493833 0.103681 0.372294 0.310422 0.416719 0.065813 0.079387 0.142660 0.141695 0.057089 -0.249120 0.425342 -0.038303 -0.282104 0.140694 -0.005243 -0.076763 -0.065385 -0.002656 0.094446 0.029476 -0.049704 0.291002 0.019539 0.187720
195 -0.015757 -0.409763 0.104198 -0.249540 0.018665 0.008256 -0.441546 -0.263652 0.012441 0.253916 -0.040456 0.188138 -0.041116 0.227726 -0.032246 0.082707 0.022974 0.134699 0.469858 0.305533 -0.015841 -0.024007 -0.093878 -0.093212 -0.398816 -0.082148 0.151747 -0.034023 0.254789 0.021601 -0.182595 -0.018851 -0.212464 0.189487 -0.251874 0.129685 -0.285776 -0.117866 -0.035334 -0.279841 0.221837 0.268214 -0.173143 -0.197291 -0.034454 -0.324310 -0.238548 0.039428 -0.073218 0.250686 -0.212284 0.017547 -0.104371 0.093891 -0.225616 -0.123328 0.519744 0.010229 -0.261280 -0.360872 -0.039389 0.079769 0.187155 -0.011108 -0.405816 0.585000 -0.151493 -0.250112 -0.178586 -0.303668 -0.193541 -0.020084 0.210347 -0.083697 0.218378 0.107398 0.373372 0.102717 0.051198 0.202021 0.055515 -0.115974 0.186119 0.055531 0.026059 0.240262 0.122057 0.053273 -0.105428 0.219865 -0.054720 0.112246 -0.143050 0.072093 -0.220476 0.346180 0.071404 -0.196674 0.048639 0.078849 0.212616 0.032004 -0.089127 -0.050328 0.251492 0.334664 -0.102812 0.366037 0.139843 -0.008876 0.087569 -0.003856 -0.055723 -0.299813 0.432443 0.028036 -0.124558 0.264599 -0.133118 0.171316 -0.131432 0.033560 0.022093 -0.119946 0.038279 0.279729 -0.219477 0.213587
57 -0.065762 -0.219167 0.313969 -0.062344 0.146785 0.024052 -0.062104 0.072360 -0.169844 0.194262 0.004457 0.299366 0.025932 0.019791 0.101998 -0.026265 0.135288 -0.137259 0.179082 0.116091 0.186121 -0.057140 0.313103 -0.135023 0.165260 -0.090017 -0.405414 0.261324 0.020396 0.014726 -0.108828 0.049933 -0.215932 0.172568 -0.117153 -0.112354 -0.039353 -0.077496 -0.155238 0.051532 0.016389 0.103825 -0.042759 -0.106123 -0.137691 0.124409 -0.048684 -0.078355 0.042754 0.053965 -0.093753 0.238910 -0.227425 -0.070883 -0.038571 -0.166164 0.381492 0.349379 -0.197496 -0.295316 0.071390 0.020935 -0.113518 0.205880 0.047046 0.013510 -0.235501 0.013016 0.359965 0.329047 0.117420 -0.094683 0.136601 -0.027423 0.555333 -0.000248 -0.201684 0.180732 0.078105 0.322737 0.047611 -0.252262 -0.198800 -0.085563 0.250074 -0.033726 0.062996 0.046221 -0.087168 -0.043450 0.251004 -0.011406 -0.184979 -0.207795 -0.234787 0.415211 -0.183004 -0.166958 0.297657 -0.128523 -0.383496 -0.318218 -0.036552 0.035036 0.115091 0.269225 0.179654 0.377627 -0.056551 0.251978 -0.071116 -0.025333 0.112001 -0.096771 0.146218 0.117474 -0.002782 -0.199447 -0.208407 -0.359889 -0.034284 0.076974 0.063344 -0.288006 -0.032340 0.073242 0.118107 -0.022392
61 -0.042728 -0.218009 0.208176 -0.178842 0.002184 -0.008750 0.095863 0.129165 -0.168450 0.194336 -0.021575 0.212060 -0.038759 0.226574 0.046463 -0.014297 0.060947 -0.056656 0.165212 0.242682 -0.035837 -0.064220 0.374265 -0.041956 0.252270 -0.129876 -0.430257 0.268884 0.155853 0.010390 -0.025927 0.036307 -0.158227 0.081574 -0.217922 -0.004090 -0.082465 -0.075383 -0.107519 -0.053751 0.093132 0.048742 0.082380 -0.076581 -0.056428 0.171314 -0.136942 0.011594 -0.083265 -0.091031 -0.238971 0.177252 -0.231179 -0.076027 -0.026594 -0.236108 0.488287 0.173451 -0.124942 -0.544483 0.064142 -0.043376 -0.042826 0.131312 -0.138025 0.228848 -0.298652 -0.011146 0.299429 0.328050 0.050370 -0.157456 0.145504 0.067097 0.365373 -0.136437 -0.197286 0.093458 0.052439 0.219644 0.251813 -0.400318 -0.333898 -0.107604 0.257845 -0.084296 0.217837 -0.026279 -0.026734 -0.028863 0.116562 0.104213 -0.260925 -0.099716 -0.151113 0.461304 -0.169784 -0.136340 0.370600 0.039199 -0.200108 -0.188052 0.083237 -0.000585 0.220603 0.195604 0.218271 0.349692 -0.022614 0.291225 -0.118398 -0.021226 -0.001968 -0.106382 0.103335 0.093504 0.001794 -0.057411 -0.303524 -0.310856 -0.078506 0.159274 0.014275 -0.138894 -0.039891 0.061297 0.121405 -0.179517
177 -0.100893 -0.396425 -0.010734 -0.266530 0.238104 0.136241 -0.139089 -0.204758 0.202842 0.136092 -0.055142 0.114224 -0.070845 0.075872 -0.120262 -0.035275 0.033703 0.130405 0.061507 0.308637 -0.254542 -0.184957 -0.300986 -0.337763 -0.268899 -0.108422 0.329406 0.254797 0.126205 -0.023909 -0.171699 -0.003161 -0.086598 0.548640 -0.123707 0.304599 -0.100419 -0.177609 0.119874 -0.146860 -0.104259 0.418388 -0.269380 -0.219872 0.031222 -0.261660 -0.253080 -0.199300 0.129472 0.183606 -0.182076 0.162815 0.000944 0.089013 -0.344134 -0.507805 0.022286 -0.026252 0.143267 -0.349099 0.104864 -0.247935 -0.238770 0.132372 -0.423293 0.066987 -0.208768 -0.075206 -0.494998 -0.417690 -0.331047 -0.087588 0.223784 -0.148326 0.373014 0.072410 0.377049 0.049399 0.086266 0.006239 -0.040036 -0.119420 -0.176963 0.157583 0.003358 0.251821 0.208304 -0.228090 0.557830 -0.087307 0.134247 0.131986 0.171429 0.137394 0.349974 -0.111887 -0.042533 -0.176875 -0.231941 0.045369 0.032704 0.060607 -0.335773 -0.485610 0.046033 0.446850 0.285432 0.323030 -0.070898 0.063091 -0.034945 0.140388 -0.256089 -0.164956 0.402386 0.148007 -0.286626 0.274624 0.085050 -0.092836 -0.105532 0.023181 0.132594 0.050795 0.203593 0.343006 -0.126503 0.163929
88 -0.022419 -0.181655 0.336149 -0.157873 0.152663 0.063782 -0.026175 0.023046 -0.184176 0.276335 -0.008457 0.362242 0.029659 0.071553 -0.019096 -0.038844 0.111907 -0.002724 0.193482 0.011314 0.190001 0.061340 0.285581 -0.154468 0.108052 -0.138074 -0.414981 0.248569 0.047140 -0.027588 -0.192859 0.172661 -0.150452 0.103802 -0.028669 -0.112495 0.024524 -0.125832 -0.084414 0.210206 -0.077161 0.186899 0.080885 -0.105791 -0.217133 0.160693 0.001188 -0.182414 -0.141111 0.030010 -0.126832 0.223365 -0.225788 -0.022398 -0.068248 -0.121954 0.347412 0.226427 -0.294484 -0.187291 0.092911 0.048939 -0.154616 0.227858 0.014867 0.060580 -0.236259 -0.107658 0.463977 0.275217 0.238378 -0.091429 0.233103 -0.123138 0.513662 0.025762 -0.111538 0.236394 0.158225 0.316916 0.116605 -0.263355 -0.134572 -0.165544 0.107350 -0.032568 0.174236 -0.027107 -0.172057 -0.068020 0.325293 0.121402 -0.262178 -0.238166 -0.227612 0.467672 -0.218323 -0.138458 0.352897 0.014170 -0.393768 -0.315301 -0.097802 0.122610 0.065737 0.356987 0.240895 0.359924 0.079140 0.379087 -0.014251 0.093396 0.202719 -0.105667 0.213451 0.139693 0.034723 -0.258085 -0.278491 -0.312374 0.125999 0.123055 -0.077457 -0.354613 -0.125459 0.033552 0.071561 -0.089897
71 -0.074896 -0.204148 -0.116640 -0.175233 -0.036331 0.047189 -0.331212 -0.219721 0.158908 0.230626 -0.071798 0.342400 -0.022196 0.198932 0.006440 -0.101451 -0.117924 0.122357 0.151482 0.246206 -0.263476 -0.000512 -0.014548 -0.273938 -0.507218 -0.102526 0.184064 -0.011202 0.307782 0.060263 -0.234211 0.013208 -0.072184 0.317241 -0.223032 0.207332 -0.206475 -0.107373 0.050903 -0.013223 -0.005724 0.437799 0.003130 -0.208111 -0.141814 -0.269150 -0.180537 -0.182661 -0.172719 0.244565 -0.266428 0.018434 -0.109408 0.193154 -0.273113 -0.310697 0.389656 -0.101488 -0.000906 -0.367195 0.144778 -0.056853 -0.035555 0.028196 -0.345984 0.480039 -0.201149 -0.280586 -0.315375 -0.389389 -0.079923 -0.030217 0.364687 -0.127851 0.188842 0.043866 0.398998 0.111161 0.254485 0.156524 0.153183 -0.177009 0.038497 0.089021 -0.166894 0.279543 0.225232 -0.161984 0.153230 0.028747 0.004079 0.299642 -0.079782 -0.039611 -0.023696 0.183880 -0.156926 -0.244656 0.119261 0.062007 0.116472 0.082827 -0.255230 -0.125198 0.075934 0.263275 0.137599 0.397680 0.229050 -0.092116 -0.019657 0.085384 -0.163709 -0.180924 0.333361 0.217220 -0.163236 0.323938 -0.160201 0.102452 0.054484 0.095046 0.021771 -0.008830 0.074084 0.114703 -0.145720 0.031513
26 0.115759 -0.284059 0.380484 0.060555 -0.014036 0.025218 0.033357 0.252597 -0.198649 0.227193 -0.096444 0.116281 0.101998 0.007692 -0.127958 0.037963 0.052117 0.065286 0.293271 0.329338 0.126263 -0.010424 0.387683 0.016583 0.011256 -0.110266 -0.406830 0.104681 -0.218420 -0.181818 -0.040235 0.161822 -0.156610 -0.043820 -0.334287 -0.201287 -0.033696 0.105380 -0.354882 -0.130420 0.000209 0.021437 0.042836 -0.096984 -0.067036 0.058089 -0.121503 0.077881 0.076789 -0.063434 -0.165175 0.211083 -0.306339 -0.204910 -0.045097 -0.212097 0.408248 0.334476 -0.209873 -0.227290 0.035998 0.097422 -0.178069 0.234880 -0.095206 0.142666 -0.335169 0.188628 0.201121 0.185945 0.176801 -0.026773 0.119843 0.031708 0.405028 -0.069649 -0.191919 0.224602 -0.065461 0.229806 0.161531 -0.345876 0.036916 -0.155218 0.201853 -0.038053 0.145200 -0.047035 -0.007151 0.039867 0.199027 -0.022399 -0.142597 -0.017343 -0.162990 0.448087 -0.109759 -0.108997 0.277743 0.095729 -0.393697 -0.325696 0.085805 0.120954 0.282581 0.331014 -0.009528 0.335028 0.158684 0.206826 -0.214708 0.096105 0.136202 -0.148598 0.311758 0.059157 -0.036275 -0.140758 -0.158300 -0.458723 -0.005290 0.109371 -0.069744 -0.326701 -0.110488 0.169484 0.050082 -0.265977
126 -0.231399 -0.281825 0.217696 -0.053480 0.143826 -0.133107 0.023360 0.314059 -0.003617 0.009807 0.026273 0.210179 -0.017957 -0.159439 0.017485 -0.075183 0.228074 -0.042335 0.185429 -0.112082 0.174528 -0.034019 0.151228 -0.411379 0.185567 -0.091322 -0.225328 0.356937 -0.025707 -0.148957 0.016139 0.010916 -0.125274 0.334328 -0.033001 0.050258 -0.184854 -0.039198 -0.180422 0.107238 0.063418 0.376541 -0.404424 -0.349334 -0.131958 -0.032923 0.222151 0.074558 0.056493 -0.063074 -0.247532 0.355477 -0.185497 0.056006 -0.112777 -0.216236 0.359899 0.351129 -0.323251 -0.563526 0.103351 0.032186 -0.173543 0.084644 -0.167763 0.052560 -0.105350 0.061358 0.243219 0.350476 0.074138 -0.037201 -0.032084 0.233575 0.710958 -0.191593 -0.068974 0.456842 -0.042533 0.076031 0.233793 -0.173439 -0.180679 -0.209702 0.225921 0.114171 -0.082775 0.226923 -0.151855 -0.151019 0.075833 -0.015701 -0.283924 0.102578 -0.177506 0.382425 -0.392388 -0.122166 0.143157 -0.026704 -0.274003 -0.128647 0.043870 -0.129283 0.177631 0.212488 0.252383 0.523507 -0.018505 0.028260 -0.192247 0.146178 -0.035916 0.076159 0.144023 -0.116557 0.088202 -0.211403 0.072010 -0.228876 -0.082262 -0.078365 0.183738 -0.199368 0.035383 0.197476 0.133374 -0.190412
22 0.003608 -0.251401 0.286015 -0.038514 0.106577 0.022016 0.015736 0.126081 -0.231703 0.281831 0.022670 0.253270 0.074837 -0.002662 0.102602 0.044957 0.117165 -0.120188 0.198872 0.224084 0.083808 -0.090079 0.304292 -0.129457 0.182735 -0.068173 -0.476614 0.238008 0.014240 0.048786 -0.118603 0.095283 -0.216271 0.108253 -0.225938 -0.167409 0.071201 -0.049193 -0.219634 0.023645 0.014073 0.026908 0.085291 -0.004713 -0.146919 0.149703 -0.138709 -0.083858 -0.010779 0.036270 -0.075734 0.198659 -0.319105 -0.138945 -0.088796 -0.245383 0.393588 0.319150 -0.115738 -0.310317 0.087002 -0.039713 -0.151139 0.273501 0.038084 0.002504 -0.296141 0.089072 0.351741 0.284931 0.130395 -0.023462 0.173635 -0.060315 0.463361 -0.038686 -0.266173 0.172544 0.069313 0.325027 0.142467 -0.301522 -0.139815 -0.075265 0.149467 -0.110709 0.148731 -0.020447 0.009287 -0.028407 0.352640 0.048890 -0.138457 -0.248832 -0.131186 0.389498 -0.180608 -0.173148 0.354099 -0.099270 -0.380839 -0.334804 -0.015530 0.163035 0.144849 0.298574 0.118245 0.348486 -0.010983 0.302327 -0.117240 0.025283 0.129288 -0.075404 0.192792 0.233533 -0.097493 -0.163913 -0.270201 -0.385495 -0.024749 0.103616 -0.051345 -0.274936 0.007748 0.036860 0.070899 -0.090977
153 0.022509 -0.455832 0.068728 -0.398052 0.420889 0.189990 -0.128806 -0.067229 0.235092 -0.057637 -0.002309 0.068833 -0.068922 -0.087640 -0.126723 0.075616 0.092556 0.221311 0.111799 0.204476 -0.423476 -0.178716 -0.266011 -0.260368 -0.058320 -0.097035 0.252856 0.273251 0.208170 -0.165804 -0.169398 0.017468 -0.155544 0.268615 -0.032237 0.137230 -0.095135 -0.353468 0.127522 -0.061472 0.036116 0.345006 -0.281310 -0.127496 0.036849 -0.158311 -0.096890 -0.282606 0.116859 0.065364 -0.216065 0.293437 0.121176 0.063085 -0.284824 -0.358647 0.005019 0.095520 0.137678 -0.279308 -0.007978 -0.290295 -0.346056 0.145425 -0.178549 0.075999 0.004672 -0.246579 -0.384254 -0.214921 -0.200170 -0.140843 0.259150 -0.063372 0.521105 0.058997 0.050801 -0.065238 -0.001936 0.032815 0.099984 -0.064287 -0.332014 0.201473 0.089159 0.173245 0.193684 -0.260436 0.523919 -0.015603 0.153629 0.044610 0.058098 0.140494 0.288932 -0.041126 0.097874 -0.271325 -0.082299 0.002177 -0.080688 0.113520 -0.231580 -0.518721 0.139702 0.369096 0.266601 0.351448 -0.030933 -0.042556 0.148400 0.246064 -0.081935 -0.104302 0.438502 0.002966 -0.134859 0.161387 0.020226 -0.117076 -0.269039 0.081493 0.086596 0.039950 0.167179 0.424751 -0.136988 0.195998
64 -0.114046 -0.389426 0.117250 0.027016 0.142108 -0.056535 -0.113791 0.105923 -0.006288 0.090541 -0.027829 0.251046 0.120180 -0.191363 -0.034368 -0.005250 0.268335 0.023611 0.218465 0.055640 0.165190 -0.046369 -0.005894 -0.302540 -0.024394 -0.096884 -0.050844 0.308862 -0.090930 -0.144076 -0.061856 -0.063941 -0.135725 0.174866 -0.034725 -0.006741 -0.064643 -0.030314 -0.136925 0.012821 0.036339 0.368126 -0.400306 -0.284313 -0.154494 -0.143899 0.040944 0.001126 0.190116 0.082548 -0.006232 0.278713 -0.080216 0.078564 -0.163710 -0.203236 0.175136 0.349890 -0.257622 -0.349070 -0.098630 -0.042334 -0.140242 0.093576 -0.065974 -0.002671 -0.142026 0.115504 0.214561 0.156872 0.061212 0.156848 0.040017 0.004100 0.643389 -0.043907 0.005745 0.360338 -0.070659 0.120634 -0.060096 -0.135441 -0.016213 -0.147490 0.148330 0.134801 -0.089392 0.160582 -0.106477 -0.027853 0.152285 -0.014165 -0.158779 0.021277 -0.198505 0.232661 -0.152671 -0.142886 0.037726 -0.130351 -0.207967 -0.215059 -0.242324 -0.066617 0.200549 0.379174 0.077304 0.383734 0.052950 0.072717 -0.178600 0.014494 0.172136 -0.037232 0.248002 -0.033487 -0.004427 -0.043860 0.017796 -0.277139 -0.041765 -0.072918 0.063142 -0.134474 0.011987 0.177413 0.091129 0.009836
56 0.105561 -0.211383 0.291205 -0.167733 0.068254 0.071029 0.092569 0.208237 -0.180934 0.266862 -0.002651 0.220373 0.093592 0.063613 -0.128951 0.015797 0.048358 0.129238 0.262044 0.213713 -0.031235 0.109257 0.353865 0.050048 0.187091 -0.132874 -0.458981 0.256818 -0.080232 -0.116510 -0.089918 0.189603 -0.212535 -0.090040 -0.210856 -0.232367 0.023995 -0.006851 -0.202193 0.058658 0.066365 0.125801 0.203361 -0.098529 -0.092485 0.168639 -0.112886 -0.035393 -0.123036 -0.135195 -0.206120 0.258970 -0.254817 -0.138593 -0.176156 -0.256762 0.400985 0.256679 -0.249887 -0.333963 0.033733 0.008067 -0.216431 0.262191 -0.037361 0.174890 -0.283828 -0.027692 0.328770 0.266835 0.260521 -0.053892 0.253852 0.019182 0.403074 -0.158495 -0.180010 0.188649 -0.089494 0.332504 0.273844 -0.293077 -0.099117 -0.141226 0.160549 -0.097583 0.253814 -0.112733 0.006648 0.013905 0.304509 0.061262 -0.259888 -0.075003 -0.209293 0.497226 -0.092501 -0.160582 0.398366 0.129310 -0.296571 -0.207692 -0.032211 0.157437 0.301298 0.372016 0.161974 0.319333 0.168862 0.268795 -0.085222 0.205559 0.163901 -0.086150 0.283484 0.094307 -0.000344 -0.151365 -0.227910 -0.411423 0.031022 0.150553 -0.115474 -0.183269 -0.127369 0.170356 0.025532 -0.236837
171 -0.047634 -0.164271 0.048666 -0.255639 -0.109220 0.043681 -0.172258 -0.106542 0.042659 0.360813 -0.102175 0.313175 -0.002814 0.350396 -0.149183 -0.085045 -0.026136 0.217140 0.296018 0.192768 -0.036456 0.128344 0.268191 -0.001943 -0.352558 -0.042498 0.021522 -0.011650 0.160475 -0.035118 -0.009466 0.160150 -0.101445 0.032651 -0.221456 0.082999 -0.208398 0.003877 -0.005244 0.016240 0.048417 0.119851 0.078044 -0.128105 -0.104857 -0.087667 -0.183584 -0.033074 -0.308658 0.267735 -0.294849 0.007670 -0.086365 0.053956 -0.080084 -0.047816 0.510626 -0.117568 -0.179957 -0.167910 -0.068259 0.062441 -0.007563 0.080344 -0.108754 0.493071 -0.341599 -0.262896 0.035167 -0.155093 0.045200 -0.000029 0.420223 -0.252363 0.146983 0.024837 0.159283 0.096792 0.376503 0.297325 0.072493 -0.293325 0.028398 -0.092909 -0.061261 0.084543 0.346539 -0.114828 -0.062297 0.147892 -0.062147 0.376171 -0.261281 -0.043919 -0.225565 0.372444 -0.062622 -0.113111 0.185558 0.298592 0.057019 0.046860 -0.098504 0.081761 0.269900 0.323794 0.014700 0.175419 0.226758 0.167974 0.000176 0.146602 0.066880 -0.238111 0.215709 0.102874 0.081561 0.139954 -0.222684 -0.066984 0.185318 0.181687 -0.124864 -0.206204 -0.054839 0.095922 0.027533 -0.152150
55 0.125213 -0.229389 0.306530 -0.153466 0.113543 0.077473 0.039452 0.197396 -0.139082 0.187899 -0.015656 0.236809 0.088050 0.078808 -0.145617 0.076503 0.010685 0.123737 0.178560 0.200512 0.035143 0.115845 0.316703 0.018100 0.195015 -0.143570 -0.473428 0.232227 -0.079284 -0.074258 -0.119495 0.163946 -0.182130 -0.120428 -0.175226 -0.245877 0.071464 -0.019102 -0.251568 0.021291 0.024525 0.185735 0.169796 -0.101863 -0.119173 0.147672 -0.005745 -0.021319 -0.062139 -0.168972 -0.171140 0.243817 -0.210027 -0.095482 -0.134367 -0.212826 0.323835 0.258284 -0.235594 -0.297335 0.092507 0.030722 -0.162320 0.154117 -0.064517 0.185437 -0.250698 -0.072338 0.384415 0.265190 0.258160 -0.105945 0.216931 0.047556 0.341974 -0.145238 -0.092761 0.078960 -0.129421 0.306108 0.244320 -0.335922 -0.097676 -0.178200 0.156959 -0.029588 0.287047 -0.112168 -0.060484 -0.030107 0.269307 0.056112 -0.233057 -0.136450 -0.203171 0.488156 -0.057356 -0.140405 0.398796 0.112649 -0.316663 -0.257872 0.024200 0.053207 0.246852 0.335458 0.202915 0.288675 0.206243 0.268899 -0.128406 0.153996 0.214497 -0.193073 0.306256 0.068958 -0.031941 -0.181133 -0.275901 -0.397886 0.059665 0.196147 -0.168421 -0.226084 -0.241185 0.108654 0.039729 -0.279320
155 -0.142378 -0.166048 -0.212458 -0.091777 -0.119802 0.055147 -0.316390 -0.169691 0.137028 0.296605 -0.093613 0.323105 -0.043490 0.239915 0.029751 -0.035313 -0.154818 0.096407 0.094783 0.554390 -0.344000 -0.081697 0.157419 -0.276188 -0.481915 -0.037022 0.120073 -0.049406 0.317302 0.072745 -0.208206 0.053744 0.045173 0.271378 -0.439947 0.169136 -0.198893 -0.111860 -0.047588 -0.144068 -0.001259 0.443841 0.136475 -0.170821 -0.227671 -0.306213 -0.322788 -0.091541 -0.141437 0.207303 -0.357521 -0.051945 -0.156900 0.111257 -0.317669 -0.429537 0.472418 -0.085951 0.146071 -0.354016 0.171476 -0.110532 0.049340 0.025984 -0.354669 0.604750 -0.330124 -0.207846 -0.419661 -0.365218 -0.116633 -0.096571 0.406955 -0.203958 0.039093 0.079700 0.375628 0.051486 0.315132 0.158354 0.200511 -0.322998 0.054510 0.109242 -0.116739 0.299716 0.367236 -0.339423 0.273426 0.083981 -0.021592 0.340465 -0.004544 -0.101914 0.063388 0.125825 -0.135631 -0.233881 0.138549 0.155289 0.146676 0.150616 -0.156027 -0.058723 0.083445 0.293933 0.092845 0.390743 0.246889 -0.064209 -0.111512 0.001327 -0.187070 -0.225245 0.320569 0.348831 -0.219456 0.438513 -0.141044 0.072826 0.084662 0.218052 0.005958 -0.046586 0.082243 0.115576 -0.186186 0.045456
237 0.036193 -0.204219 0.214015 -0.107726 -0.039164 0.030603 -0.168973 -0.130929 -0.197924 0.451967 -0.098950 0.328142 0.117506 0.168364 -0.104026 -0.022674 0.003788 0.190668 0.329790 0.090304 0.231287 0.091022 0.258391 -0.079905 -0.373796 -0.035238 -0.167952 -0.035914 -0.007625 -0.136584 -0.063310 0.300720 -0.175827 0.024312 -0.106559 -0.023520 -0.062259 0.063587 -0.061402 0.133391 0.007946 0.115475 0.111814 -0.069183 -0.207210 -0.068152 -0.097166 -0.099877 -0.318699 0.294579 -0.139996 -0.026609 -0.231558 -0.072796 -0.074789 -0.068884 0.532174 -0.024339 -0.305389 -0.001646 -0.080737 0.176986 -0.082026 0.149347 0.016438 0.342999 -0.354389 -0.213643 0.268224 -0.072947 0.188579 0.093879 0.464872 -0.373172 0.213575 0.030130 0.135173 0.260415 0.387137 0.382456 0.052111 -0.237708 0.237917 -0.208460 -0.217418 0.011419 0.305547 -0.078337 -0.181010 0.211746 0.084112 0.376645 -0.305097 -0.178450 -0.363897 0.462645 -0.107728 -0.065324 0.207687 0.259107 -0.087338 -0.229853 -0.041122 0.294120 0.198810 0.444931 -0.052703 0.178628 0.205205 0.299188 -0.012471 0.190685 0.205874 -0.206282 0.309933 0.213014 0.071703 -0.057956 -0.231118 -0.126328 0.245151 0.055198 -0.321041 -0.347568 -0.080229 0.032622 0.051157 -0.270166
77 0.205824 -0.382741 0.353699 0.099157 0.081201 0.039927 0.102477 0.133649 -0.321034 0.270421 -0.109498 -0.072375 0.142069 0.013202 -0.088303 0.131634 0.106689 0.083961 0.402399 0.475402 0.168399 -0.157047 0.265781 0.069320 0.051847 -0.159397 -0.386736 0.128422 -0.227723 -0.370434 -0.036263 0.178515 -0.276746 -0.044102 -0.315071 -0.197619 -0.008528 0.103912 -0.293382 -0.227697 0.025586 -0.103256 0.086814 0.088084 -0.069249 0.056788 -0.302979 0.037841 0.252740 0.008126 -0.094943 0.152598 -0.376099 -0.367134 0.013177 -0.275990 0.575752 0.456561 -0.158302 -0.207657 -0.127699 0.090738 -0.175196 0.264659 -0.105158 0.162347 -0.459092 0.378854 0.032566 0.139471 0.042007 0.041475 0.107264 -0.125350 0.457169 -0.093958 -0.209000 0.190164 -0.108167 0.314573 0.103434 -0.278456 0.117399 -0.032951 0.104541 -0.207993 0.142372 -0.066059 0.162057 0.148320 0.170669 -0.027006 -0.057728 0.012888 -0.103994 0.381804 0.012680 -0.075217 0.210730 0.026253 -0.299141 -0.376926 0.078071 0.249560 0.307976 0.443175 -0.139272 0.406950 0.041234 0.310032 -0.093097 0.128365 0.154798 -0.101241 0.368859 0.167955 -0.079306 -0.091189 -0.034283 -0.511910 -0.064401 0.034865 -0.109419 -0.227614 0.029339 0.211410 0.154708 -0.203372
227 -0.096968 -0.481236 -0.015425 -0.234460 0.294542 -0.025712 -0.449538 -0.168650 0.280596 -0.045357 0.002523 0.235934 -0.031488 0.049626 -0.135365 0.074184 0.082570 0.068431 0.193115 0.212832 -0.082565 -0.148766 -0.310959 -0.343217 -0.267653 -0.128441 0.269650 0.183116 0.297264 0.123710 -0.282494 -0.209037 -0.175584 0.323277 -0.179545 0.085381 -0.129604 -0.126321 0.006059 -0.085185 -0.052378 0.475387 -0.467158 -0.197231 -0.116159 -0.392443 -0.024288 -0.217147 0.273545 0.266522 -0.110735 0.220222 0.088917 0.246887 -0.170925 -0.141090 0.104677 0.207403 -0.127108 -0.414258 0.096749 -0.095704 0.029164 -0.098883 -0.283685 0.237022 -0.098193 -0.112584 -0.182435 -0.314107 -0.262473 0.011880 0.132626 0.007156 0.395687 0.146401 0.462187 -0.058419 -0.012730 0.197810 -0.145450 -0.100636 -0.034424 0.084652 -0.027571 0.409597 0.014750 0.085362 0.065150 -0.085720 0.078119 0.018998 0.068463 -0.037447 -0.088384 0.072030 0.061546 -0.278119 -0.044428 -0.171702 -0.056569 0.051936 -0.333598 -0.461699 0.080359 0.325676 0.154575 0.425332 0.120273 -0.040162 0.001393 -0.034846 0.055310 -0.349405 0.427859 0.058930 -0.295192 0.225219 -0.023918 0.013156 -0.097882 0.080563 0.153193 -0.111377 -0.070959 0.270481 -0.092734 0.313481
45 -0.033967 -0.246779 0.300048 -0.040486 0.145766 0.047845 -0.014293 0.106706 -0.167863 0.220016 -0.005358 0.283493 0.058746 -0.015364 0.053900 -0.009813 0.161422 -0.091533 0.174072 0.159986 0.150327 -0.048323 0.273465 -0.169860 0.158392 -0.100777 -0.395012 0.283614 -0.035945 0.009233 -0.112117 0.082534 -0.164479 0.132998 -0.125192 -0.119020 -0.001450 -0.058641 -0.173693 0.021536 0.019523 0.117047 -0.045186 -0.110207 -0.138490 0.088838 -0.038141 -0.057807 0.069366 0.022235 -0.057077 0.265199 -0.240048 -0.062644 -0.083901 -0.177190 0.333959 0.340977 -0.205254 -0.296263 0.055603 -0.007010 -0.151495 0.234050 0.018061 -0.003921 -0.238325 0.028448 0.355461 0.293092 0.152708 -0.035986 0.107922 -0.032526 0.570869 0.005623 -0.204421 0.222859 0.037721 0.256965 0.079673 -0.265964 -0.159361 -0.091259 0.234435 -0.026086 0.071661 0.043945 -0.057238 -0.077411 0.297896 0.027357 -0.156770 -0.160057 -0.179946 0.378876 -0.188452 -0.170152 0.273954 -0.081649 -0.399307 -0.331522 -0.088904 0.044780 0.128118 0.317291 0.164392 0.375877 0.021479 0.258027 -0.146684 -0.000365 0.139887 -0.081583 0.192970 0.108399 -0.028045 -0.185445 -0.210321 -0.370161 -0.006647 0.067880 0.022614 -0.284416 -0.050966 0.097030 0.075476 -0.049223
159 0.027095 -0.244523 0.249179 0.076117 -0.122084 -0.042361 -0.081206 0.164986 -0.064656 0.098440 -0.194168 0.229919 0.064527 0.100407 -0.229409 -0.086573 0.068505 0.204402 0.210419 0.218587 0.227141 0.057963 0.318802 -0.004852 -0.282336 -0.062504 -0.107773 0.046850 -0.286244 -0.265056 0.025458 0.105337 -0.040313 0.053738 -0.170689 -0.013071 -0.161777 0.124458 -0.206265 -0.139785 -0.042000 0.134572 -0.185053 -0.311161 -0.039959 -0.152777 -0.008098 0.145865 0.023811 -0.036306 -0.205195 0.070259 -0.078841 -0.079620 0.040528 -0.119508 0.237379 0.198853 -0.183788 -0.167727 -0.090642 0.189646 -0.073295 0.027481 -0.165471 0.246351 -0.307532 0.090660 0.145555 0.059706 0.113225 -0.052729 0.222833 -0.015108 0.304669 -0.006606 0.058482 0.222162 0.090616 0.080686 -0.016338 -0.384880 0.029415 -0.293349 0.215671 0.182920 0.198401 -0.117638 -0.098511 0.058751 -0.115782 0.031876 -0.251157 0.024951 -0.269962 0.418246 -0.084031 0.014063 0.106783 0.272993 -0.259107 -0.273295 0.059687 -0.084495 0.342473 0.379111 0.015353 0.142455 0.116773 0.093670 -0.215908 0.062328 0.116303 -0.268121 0.236833 -0.128045 0.078309 -0.038134 -0.100698 -0.375336 0.087977 0.033533 -0.052193 -0.269349 -0.177787 0.203321 0.117909 -0.333643
42 -0.126519 -0.210409 0.284031 -0.017185 0.079715 -0.064235 -0.021700 0.210590 -0.136253 0.195222 0.054906 0.244003 -0.006144 -0.010221 0.142467 -0.007809 0.114443 -0.175811 0.178662 0.082495 0.138940 -0.070065 0.293555 -0.238404 0.231260 -0.053602 -0.425848 0.261041 0.070813 0.071839 -0.072524 0.032040 -0.157735 0.229361 -0.206888 -0.067673 -0.047650 -0.033599 -0.248008 0.062370 0.041741 0.162743 -0.083122 -0.148735 -0.134766 0.096904 0.014591 -0.008718 -0.022357 -0.006007 -0.167941 0.255309 -0.293839 -0.026907 -0.099646 -0.229128 0.448340 0.311178 -0.214636 -0.453145 0.204533 0.014208 -0.087874 0.177676 -0.067408 0.056205 -0.197385 0.075454 0.318303 0.311851 0.090153 -0.088556 0.062808 0.117167 0.518320 -0.089444 -0.183821 0.271741 0.014320 0.245619 0.210482 -0.262429 -0.175126 -0.100420 0.202041 0.004667 0.011165 0.127689 -0.112088 -0.086569 0.252847 0.011201 -0.196194 -0.144747 -0.189355 0.402648 -0.310941 -0.175044 0.294628 -0.098289 -0.332864 -0.237613 0.055338 0.031213 0.113440 0.155663 0.185184 0.457355 -0.012269 0.168662 -0.178153 -0.003671 0.005027 -0.015092 0.136411 0.125101 -0.027108 -0.172761 -0.151219 -0.267737 -0.061110 0.091927 0.083510 -0.291864 0.000278 0.056984 0.066886 -0.081181
127 -0.048260 -0.261930 0.274245 -0.124116 0.135948 0.027472 0.099145 0.037183 -0.204135 0.267701 -0.007599 0.284295 0.005700 0.081650 0.000035 -0.001791 0.222952 -0.051037 0.255149 0.124338 0.147037 -0.047319 0.204154 -0.180091 0.254543 -0.176046 -0.366910 0.392692 0.000357 -0.054777 -0.097243 0.046834 -0.185570 0.144213 -0.002157 -0.015536 -0.040960 -0.099897 -0.104942 0.019304 0.063103 0.109259 -0.102530 -0.129083 -0.083890 0.147429 -0.058473 -0.052042 0.026618 -0.052208 -0.072025 0.276966 -0.217013 -0.061448 -0.069543 -0.167573 0.370884 0.336805 -0.264858 -0.418227 -0.023820 0.017826 -0.128369 0.204921 -0.107844 0.000249 -0.253219 0.056697 0.367959 0.283825 0.080630 -0.063964 0.031507 -0.000323 0.617434 -0.030832 -0.197701 0.235380 0.053824 0.192326 0.064592 -0.291986 -0.214878 -0.120179 0.266060 -0.076613 0.080265 0.114098 -0.119394 -0.106279 0.224969 0.024586 -0.231008 -0.051147 -0.133891 0.378477 -0.226007 -0.095117 0.254155 -0.063425 -0.299951 -0.279589 -0.130260 -0.020882 0.183365 0.394665 0.210558 0.384999 -0.071740 0.371451 -0.084256 0.016122 0.120437 -0.048758 0.194585 0.033425 0.019616 -0.182255 -0.175090 -0.321431 -0.024348 0.057228 -0.003819 -0.217106 -0.004637 0.093919 0.125193 -0.024759
110 0.213303 -0.311838 0.081439 -0.380861 0.105631 0.181354 -0.047102 -0.163199 0.055724 0.047939 -0.074918 0.283922 -0.038893 0.279523 -0.106213 -0.049761 -0.014581 0.218809 0.114369 0.192740 -0.297283 0.170265 -0.118226 0.002401 -0.175048 -0.255863 0.019413 0.171138 0.150209 -0.131780 -0.234103 0.030136 -0.180237 0.184462 0.063442 0.195309 -0.154186 -0.273746 0.182583 -0.170124 0.142647 0.337994 0.066120 -0.218952 0.100668 -0.035237 -0.059844 -0.077641 -0.178532 -0.147305 -0.166645 0.164149 0.020135 0.176495 -0.188961 -0.170164 0.268871 0.040548 0.020216 -0.431193 -0.067331 -0.019943 -0.169833 0.071580 -0.475984 0.367662 0.031527 -0.417943 -0.169240 -0.191728 0.023649 -0.232734 0.321255 0.068436 0.376985 -0.048739 0.070409 0.006296 -0.028963 0.000972 0.291937 -0.190246 -0.296270 0.124464 0.169671 0.121873 0.313167 -0.167683 0.159702 -0.023308 0.021464 0.155674 -0.245192 0.115112 0.084710 0.266587 -0.020751 -0.170031 0.242475 0.095260 0.078673 -0.064056 -0.216755 -0.225042 0.253165 0.251141 0.312945 0.259508 0.130410 -0.061634 0.123583 0.196836 -0.082549 -0.075671 0.297975 -0.104870 -0.118826 0.167503 -0.240763 -0.012645 -0.083876 0.025502 -0.039991 0.114607 0.044777 0.192625 -0.088817 -0.059235
43 -0.262695 -0.346431 0.204917 -0.095555 0.218055 -0.230254 0.111390 0.376527 0.032057 -0.071086 0.052281 0.054257 -0.027882 -0.185237 -0.116254 -0.061666 0.227483 0.003268 0.178967 -0.164711 0.213622 -0.131363 0.100349 -0.437177 0.244236 -0.108962 -0.236019 0.374309 0.020634 -0.160797 0.063336 0.032817 -0.168608 0.373091 -0.101826 0.061041 -0.154984 0.029681 -0.140017 0.214485 -0.044690 0.364859 -0.482987 -0.277264 -0.126422 -0.079040 0.229912 0.036812 0.143882 -0.041108 -0.251608 0.337060 -0.199486 0.031539 -0.089080 -0.177759 0.358851 0.334846 -0.419248 -0.670885 0.111938 0.023666 -0.214622 0.090233 -0.183985 0.024722 -0.199530 0.154196 0.287820 0.380386 0.020537 0.011462 0.014597 0.220415 0.667682 -0.289768 0.029998 0.414974 -0.096288 0.130255 0.250940 -0.184717 -0.138884 -0.248014 0.085690 0.086119 -0.055479 0.293509 -0.171916 -0.160856 0.091599 0.003659 -0.234252 0.114357 -0.234840 0.403461 -0.340579 -0.131391 0.142937 0.026858 -0.292624 -0.130007 0.098438 -0.089807 0.169301 0.124249 0.337012 0.553031 -0.010691 0.155625 -0.170316 0.215302 -0.032540 0.054118 0.114004 -0.069335 -0.020700 -0.283325 0.119992 -0.248769 -0.044966 -0.135112 0.189356 -0.230831 -0.022133 0.206954 0.207067 -0.289733
66 -0.063274 -0.135499 0.052999 -0.167896 -0.129815 -0.002759 0.011519 0.228888 -0.097240 0.258138 0.025902 0.270893 0.016077 0.268068 0.060916 0.065708 -0.044790 -0.030630 0.136178 0.310734 -0.159849 0.049966 0.428810 0.009565 0.195231 -0.052381 -0.398560 0.195063 0.183024 0.153409 -0.017376 0.034223 -0.161041 -0.031260 -0.373663 -0.060265 0.016199 -0.006770 -0.275137 -0.069916 0.125906 0.144562 0.249585 -0.100883 -0.111402 0.154916 -0.169296 0.090234 -0.270230 -0.124273 -0.338357 0.104035 -0.263002 -0.024359 -0.177402 -0.388569 0.492431 0.047503 -0.068202 -0.577545 0.208764 -0.072268 0.037867 0.056855 -0.167551 0.333682 -0.284299 -0.052431 0.292015 0.244529 0.087447 -0.151430 0.211449 0.115611 0.068497 -0.225834 -0.061209 0.022915 0.006984 0.270691 0.333552 -0.453612 -0.285941 -0.139113 0.159518 -0.028304 0.268736 -0.104944 -0.038599 0.014058 0.125309 0.138910 -0.316747 -0.136105 -0.144589 0.458037 -0.115820 -0.154272 0.412205 0.117520 -0.060685 -0.092635 0.130679 0.032978 0.281955 0.139909 0.131575 0.235474 0.102115 0.176442 -0.224415 -0.051692 -0.025677 -0.184991 0.108653 0.190257 -0.009280 0.097239 -0.381144 -0.206461 -0.064568 0.287180 -0.059075 -0.085273 -0.102024 -0.024091 0.025898 -0.254451
161 -0.024219 -0.176835 0.115300 -0.037020 -0.161870 0.030989 -0.152588 -0.001109 -0.002999 0.299979 -0.193030 0.344135 0.079291 0.177510 -0.169133 -0.188560 -0.019641 0.250954 0.198951 0.128249 0.095176 0.147303 0.343954 -0.088342 -0.540681 -0.036550 0.013210 -0.073098 -0.081348 -0.196366 0.017305 0.240371 -0.033965 0.130774 -0.164120 0.115330 -0.200625 0.081227 -0.058103 0.056511 -0.036307 0.188888 -0.008997 -0.248260 -0.115838 -0.156620 -0.073425 0.005047 -0.273401 0.256630 -0.273737 0.008686 -0.106584 0.039891 -0.070379 -0.076437 0.409890 -0.063797 -0.174143 -0.067151 -0.103798 0.126060 -0.150652 0.141587 -0.089086 0.404673 -0.316463 -0.203223 0.032553 -0.132230 0.160204 0.075576 0.467361 -0.263354 0.253334 0.012092 0.113299 0.311059 0.411271 0.204261 0.076170 -0.283486 0.111483 -0.192037 -0.065146 0.136311 0.293549 -0.140029 -0.050971 0.167755 -0.066262 0.378370 -0.296607 -0.035156 -0.256174 0.390512 -0.161844 -0.065230 0.117628 0.340317 -0.077432 -0.095187 -0.088915 0.145919 0.261779 0.359993 0.008668 0.167177 0.251344 0.097586 -0.136404 0.198793 0.075663 -0.154507 0.210782 0.045752 0.141753 0.071747 -0.142047 -0.178054 0.240938 0.056346 -0.145220 -0.278393 -0.036498 0.115623 0.091771 -0.340638
149 -0.112078 -0.158970 -0.109008 -0.229697 -0.134526 0.057115 -0.262822 -0.129802 0.129382 0.346682 -0.064505 0.340009 -0.060576 0.322632 -0.011837 -0.030322 -0.029307 0.059010 0.241770 0.439516 -0.248187 0.053175 0.200571 -0.117366 -0.284314 -0.048439 0.075606 0.039366 0.320842 0.126244 -0.144642 0.008753 -0.038476 0.100264 -0.355560 0.097631 -0.244927 -0.118743 -0.056099 -0.186825 0.137168 0.281782 0.120713 -0.141980 -0.119928 -0.119118 -0.302110 0.023283 -0.222968 0.174167 -0.328296 0.059119 -0.118612 0.118085 -0.267901 -0.183249 0.519570 -0.059603 -0.080423 -0.350156 0.092225 -0.058339 0.119258 0.050148 -0.271030 0.552859 -0.218008 -0.269473 -0.168902 -0.180246 -0.024312 -0.081362 0.311775 -0.127727 0.126936 0.085964 0.172655 0.056770 0.225484 0.178129 0.168931 -0.311947 -0.007302 0.057492 0.029191 0.185761 0.236165 -0.095036 0.013434 0.111097 0.004700 0.285418 -0.160523 -0.005286 -0.064214 0.255818 -0.105523 -0.228857 0.220452 0.125932 0.109395 0.149955 -0.168080 0.036436 0.167107 0.230382 -0.028845 0.321103 0.253415 -0.022573 -0.023772 -0.047063 -0.075134 -0.196771 0.237906 0.158367 -0.090369 0.348522 -0.210454 0.100046 0.027737 0.237931 0.061873 -0.091160 0.079159 0.074762 -0.178111 0.139753
53 0.078594 -0.331190 0.312595 -0.058626 0.012319 0.000046 0.043863 0.225782 -0.279072 0.008828 -0.100518 0.167494 0.006199 0.192948 -0.004714 0.027836 0.038490 0.076842 0.051710 0.146725 0.162352 -0.057335 0.356492 0.107018 0.078553 -0.055122 -0.382506 0.103486 -0.094818 -0.300670 0.060831 0.076785 -0.268483 0.172823 -0.102369 0.109541 0.002240 -0.055316 -0.197923 -0.101157 -0.068290 0.028939 -0.045964 -0.188114 -0.010093 0.156966 -0.078311 0.097440 -0.187979 -0.203019 -0.303920 -0.014662 -0.134807 -0.149664 0.096248 -0.412784 0.371905 0.154708 0.027600 -0.407475 -0.026919 0.098994 -0.062593 0.044794 -0.243650 0.245373 -0.224669 0.120853 0.267866 0.248176 -0.057476 -0.272143 0.273513 0.042897 0.229738 -0.212605 -0.166359 0.055877 0.072274 0.203077 0.155370 -0.473054 -0.452792 -0.232828 0.269321 -0.073874 0.322106 -0.225969 -0.025786 0.138195 -0.079480 -0.046358 -0.376623 -0.175126 -0.156282 0.507631 -0.008872 0.079042 0.238359 0.224475 -0.151355 -0.414277 0.344710 -0.096258 0.437288 0.243362 0.185978 0.110072 -0.225961 0.268749 -0.122475 0.089044 -0.005347 -0.213260 0.081418 0.006179 0.169009 -0.097957 -0.209169 -0.441063 -0.159878 0.130699 -0.190671 -0.186771 -0.061506 0.071940 0.348492 -0.498322
183 -0.144029 -0.899378 0.419942 -0.302536 0.440224 -0.124703 -0.251682 0.174864 0.021848 0.037743 -0.099291 0.038696 0.003643 -0.058887 -0.310917 0.112738 0.128481 0.243582 0.443628 0.416777 0.011638 -0.475223 0.005216 -0.545419 -0.384947 -0.159423 -0.182725 0.191933 0.197617 -0.367470 -0.254947 0.225939 -0.339351 0.635106 -0.561456 0.110556 -0.179100 -0.222142 -0.107197 0.010818 -0.332331 0.571115 -0.328973 -0.229711 -0.288286 -0.365752 -0.214302 -0.482949 0.099983 0.328435 -0.542308 0.169053 -0.305961 -0.219594 -0.088454 -0.820718 0.651958 0.320810 -0.058090 -0.539854 0.289910 -0.149755 -0.522117 0.139201 -0.382499 0.358901 -0.560759 0.025260 -0.208538 -0.071179 -0.206558 -0.226360 0.734672 -0.225528 0.798184 -0.046046 0.362118 0.318617 0.282471 0.388936 0.390107 -0.525121 -0.155593 -0.153079 -0.186216 0.281958 0.520737 -0.456296 0.538763 0.189502 0.197214 0.282559 -0.109059 -0.137171 -0.005137 0.545072 -0.158258 -0.336784 0.169659 0.193052 -0.514827 -0.279996 0.290378 -0.259245 0.102441 0.650138 0.401617 0.891863 0.027773 0.350355 -0.014771 0.312635 -0.067236 -0.384078 0.749891 0.420043 -0.419129 -0.003921 -0.122189 -0.530275 -0.093967 0.033270 -0.013426 -0.526548 0.024068 0.522467 -0.005085 -0.237152
242 0.140594 -0.464330 0.256146 0.064779 0.077512 0.062359 0.037946 0.179636 -0.312562 0.136199 -0.092142 -0.020420 0.206104 0.009706 -0.148557 0.156279 0.101110 0.165062 0.241821 0.295113 0.214872 -0.146692 0.211907 0.061629 -0.029931 -0.113236 -0.300523 0.121887 -0.264720 -0.424151 0.031173 0.174875 -0.333378 -0.018722 -0.163659 -0.024113 0.100998 0.091599 -0.320049 -0.158756 -0.059721 0.051193 -0.106592 -0.081183 -0.043904 0.002920 -0.191914 0.117751 0.096098 -0.071859 -0.149619 0.001618 -0.240305 -0.286566 -0.038023 -0.431214 0.406192 0.241569 -0.138011 -0.328647 -0.192165 0.077802 -0.161904 0.115261 -0.145426 0.204710 -0.359278 0.304469 0.226282 0.144332 0.002643 0.022016 0.226683 -0.104727 0.274327 -0.227600 -0.033158 0.190661 -0.111976 0.275184 0.080918 -0.330663 -0.038127 -0.222317 0.036888 -0.162769 0.206041 -0.148383 0.010857 0.218566 0.072247 -0.045974 -0.230596 -0.040602 -0.233325 0.401695 0.152937 0.005562 0.081113 0.199966 -0.146572 -0.467168 0.169181 0.112208 0.422566 0.397684 -0.045237 0.202680 -0.022680 0.300595 -0.195248 0.143766 0.158743 -0.184360 0.288964 0.123065 0.024860 -0.055261 -0.118682 -0.481180 -0.133731 -0.010803 -0.254141 -0.178868 -0.091766 0.138880 0.277425 -0.444271
199 -0.132235 -0.486865 0.071068 -0.086036 0.069580 0.042470 -0.347053 -0.000267 0.211379 0.126614 -0.086525 0.265244 0.032240 -0.025198 -0.152723 0.003369 0.220701 0.063123 0.461905 0.340166 0.003585 -0.077910 -0.059973 -0.223307 -0.335294 -0.094314 0.256796 0.137768 -0.001191 -0.167079 -0.106637 -0.099238 -0.161434 0.136454 -0.258550 0.064136 -0.326035 -0.026475 -0.243213 -0.323923 0.186907 0.434957 -0.534666 -0.348800 -0.051665 -0.304338 -0.130487 0.145513 0.303119 0.160480 -0.198828 0.250374 -0.012633 0.142473 -0.204285 -0.136268 0.322068 0.293997 -0.286384 -0.417497 -0.110818 0.021495 0.015659 0.059433 -0.243455 0.316397 -0.107752 0.029245 -0.148005 -0.126829 -0.085153 0.090453 0.020054 0.001801 0.628830 0.183207 0.182184 0.251873 -0.057669 0.083390 -0.168971 -0.215521 0.066490 -0.015516 0.253957 0.286125 -0.173906 0.180723 -0.097313 0.103461 0.015750 -0.096589 -0.120923 0.234655 -0.183948 0.142571 0.021679 -0.279472 -0.120050 -0.091341 -0.083140 -0.052467 -0.305865 -0.259032 0.320504 0.397330 -0.247873 0.385598 0.150848 -0.188811 -0.104868 -0.074419 0.082479 -0.217100 0.413591 -0.183441 -0.066091 0.273654 0.040370 -0.087197 -0.162226 0.046638 0.249613 -0.168214 0.057473 0.327985 -0.063416 0.281866
83 0.143746 -0.418005 0.247580 0.059215 0.109588 0.056257 0.072726 0.102352 -0.309161 0.271370 -0.074349 -0.024366 0.187753 -0.036563 -0.150566 0.181447 0.103987 0.100631 0.330534 0.351947 0.164290 -0.193556 0.182048 -0.054178 0.015903 -0.142299 -0.344835 0.133167 -0.205928 -0.347068 -0.043917 0.242800 -0.278071 -0.092388 -0.203071 -0.094912 0.071103 0.105450 -0.315880 -0.133683 -0.002518 0.011627 -0.057019 0.027023 -0.075810 -0.003471 -0.196563 0.076351 0.137655 -0.019556 -0.095629 0.034838 -0.339785 -0.312059 -0.104787 -0.338142 0.484900 0.269026 -0.233944 -0.258653 -0.168277 0.050237 -0.168670 0.171076 -0.094603 0.170912 -0.399472 0.272056 0.199974 0.128922 0.089420 0.104924 0.172627 -0.154565 0.345681 -0.154034 -0.048363 0.227868 -0.074832 0.256051 0.125330 -0.279125 0.143662 -0.165389 -0.035419 -0.198350 0.184877 -0.056732 0.024284 0.160046 0.173692 0.043199 -0.143908 -0.005993 -0.182680 0.358628 0.064741 -0.056547 0.143541 0.119790 -0.194176 -0.397613 0.079970 0.230155 0.294708 0.426730 -0.093518 0.304806 0.074341 0.330582 -0.164661 0.179587 0.168866 -0.120226 0.372004 0.187128 -0.067592 -0.098572 -0.116024 -0.397076 -0.060259 -0.042376 -0.252030 -0.233653 -0.053239 0.114949 0.157129 -0.331053
141 0.108919 -0.882916 0.419430 -0.454889 0.625924 0.232572 -0.126642 0.276933 0.401139 -0.253330 0.005648 -0.221920 0.080971 -0.414460 -0.431976 -0.141465 0.178267 0.281402 0.284165 0.071760 -0.359612 -0.346489 -0.293873 -0.169559 -0.276980 -0.121441 0.242679 0.039474 0.199281 -0.387700 -0.246824 0.102646 -0.299586 0.519618 -0.483343 0.141115 -0.083465 -0.244074 0.001251 0.114595 -0.459593 0.273126 -0.514383 -0.097457 0.170190 -0.099106 -0.223472 -0.444243 0.210618 0.215375 -0.478521 0.179958 0.071242 0.095513 -0.272884 -0.403966 -0.027170 0.069120 0.076025 -0.266691 0.106626 -0.362628 -0.628454 0.438647 -0.112420 -0.076169 0.080216 0.007405 -0.463268 -0.280262 -0.144281 -0.119305 0.576124 -0.101671 0.750573 0.109933 -0.069101 0.147500 0.011954 0.151203 0.049576 0.003048 -0.482780 0.252013 -0.202683 -0.003784 0.005127 -0.287329 0.591491 0.184292 0.508582 -0.066858 0.181810 0.126236 0.250879 -0.034842 0.207998 -0.499697 -0.085312 0.029054 -0.458942 -0.076150 -0.182727 -0.289778 0.195481 0.064130 0.147419 0.473598 -0.010469 -0.129591 0.240194 0.464106 -0.117960 0.022744 0.405382 0.078667 -0.283005 0.096399 0.066440 -0.219275 -0.339265 0.009680 0.324644 -0.344022 0.201592 0.410239 -0.056093 0.132374
69 0.007876 -0.163776 -0.119168 -0.199321 -0.056806 0.082141 -0.189461 -0.215728 0.119394 0.242410 -0.150364 0.291375 -0.016544 0.268713 -0.081239 -0.079741 -0.190756 0.178888 0.172633 0.212714 -0.264850 0.043644 0.068757 -0.209631 -0.528748 -0.166469 0.123312 -0.070414 0.247323 -0.098647 -0.196290 0.145746 -0.063064 0.145770 -0.150365 0.162099 -0.193538 -0.073925 0.046765 0.019550 -0.006988 0.372626 0.135407 -0.136544 -0.143440 -0.197308 -0.134182 -0.184360 -0.195758 0.190690 -0.269908 -0.035648 -0.141816 0.128514 -0.173019 -0.235992 0.480899 -0.144807 -0.018091 -0.238164 0.086795 -0.001389 -0.117125 -0.013647 -0.292119 0.504722 -0.273355 -0.290325 -0.289535 -0.341589 0.066266 -0.045377 0.393158 -0.182626 0.173541 0.004678 0.362888 0.113338 0.304218 0.127974 0.234757 -0.176360 0.092796 0.077465 -0.227762 0.152754 0.290593 -0.197352 0.178841 0.054114 -0.073918 0.392844 -0.128237 0.034451 -0.006398 0.189972 -0.128588 -0.227150 0.154353 0.123320 0.108609 0.083008 -0.188964 -0.025821 0.051004 0.254180 0.129889 0.368541 0.320757 -0.041426 0.029222 0.170483 -0.133957 -0.130380 0.341540 0.215904 -0.103621 0.246959 -0.229052 0.049842 0.169897 0.071321 -0.051722 0.006918 0.015902 0.040500 -0.059719 -0.135684
194 0.036057 -0.350064 0.039258 -0.412143 -0.021493 0.167140 -0.293394 -0.242198 0.087151 0.260311 -0.020048 0.258836 -0.039618 0.334556 -0.039175 -0.024324 -0.008681 0.154044 0.360058 0.313242 -0.255166 0.114450 -0.078432 0.013042 -0.348831 -0.127931 0.155523 -0.000190 0.320176 0.073656 -0.209642 -0.012703 -0.229466 0.180528 -0.250987 0.184860 -0.236175 -0.235465 0.037619 -0.337355 0.183716 0.319648 0.106037 -0.186292 0.043412 -0.125388 -0.331850 -0.003980 -0.232218 0.142389 -0.245262 0.072221 -0.064511 0.189498 -0.302134 -0.246170 0.415781 -0.122487 -0.079181 -0.431171 0.054114 -0.031011 0.051831 0.109853 -0.478409 0.545028 -0.044553 -0.424702 -0.243696 -0.330474 -0.141522 -0.149406 0.354626 -0.078562 0.163290 0.068126 0.283089 -0.001273 0.017551 0.156045 0.170136 -0.212058 -0.061638 0.151428 0.069027 0.181357 0.233060 -0.076221 0.053237 0.195963 0.077622 0.152646 -0.171160 0.095799 -0.002285 0.285351 0.055381 -0.268438 0.114120 0.103204 0.198179 0.001911 -0.161469 -0.098689 0.239247 0.241808 -0.010992 0.306578 0.139115 -0.053891 0.111988 0.003870 -0.144689 -0.252431 0.362686 0.048462 -0.188066 0.365728 -0.258889 0.182967 -0.145090 0.126937 0.060741 0.015300 0.103101 0.207817 -0.268680 0.186104
51 -0.208142 -0.277159 0.208531 -0.057610 0.132566 -0.202726 0.131661 0.397135 0.011309 -0.033733 0.028296 0.077810 -0.046316 -0.182709 -0.064845 -0.040662 0.172976 0.012796 0.170267 -0.132181 0.095473 -0.087862 0.167579 -0.430286 0.245829 -0.095195 -0.251957 0.352450 0.012456 -0.193030 0.065608 0.063209 -0.100536 0.289598 -0.090591 0.046109 -0.172028 -0.005314 -0.185732 0.185211 0.048474 0.331267 -0.401693 -0.305092 -0.099012 -0.046349 0.253835 0.069694 0.043137 -0.105392 -0.285672 0.342160 -0.219356 -0.008695 -0.108216 -0.219920 0.381707 0.312858 -0.329392 -0.626164 0.119417 0.014516 -0.243871 0.088827 -0.200331 0.064666 -0.160226 0.107792 0.209866 0.371279 0.093272 -0.035316 -0.002894 0.273440 0.660630 -0.301342 -0.066613 0.441472 -0.075486 0.031008 0.373164 -0.205922 -0.139614 -0.247765 0.161379 0.088926 -0.016171 0.221207 -0.092161 -0.168574 0.037275 0.048662 -0.270323 0.153179 -0.158753 0.406359 -0.409940 -0.112385 0.179541 0.052027 -0.277509 -0.081658 0.151219 -0.102281 0.178772 0.145136 0.318948 0.548526 0.012420 0.072380 -0.199566 0.251598 -0.084786 0.115105 0.157731 -0.101920 0.046148 -0.257766 0.070280 -0.251086 -0.073779 -0.103992 0.142022 -0.186339 0.032123 0.229110 0.137476 -0.340260
193 -0.192058 -0.217330 0.165679 -0.069590 0.110856 -0.178870 0.184873 0.348580 -0.007932 -0.041882 0.007711 0.067579 -0.051877 -0.114650 -0.102642 -0.074614 0.156189 0.069263 0.136522 -0.131983 0.102461 -0.067145 0.128467 -0.362907 0.198471 -0.102160 -0.199938 0.329620 -0.034199 -0.213380 0.076292 0.077019 -0.107055 0.313723 -0.030195 0.081224 -0.183811 0.020642 -0.098158 0.167602 0.035859 0.273241 -0.350114 -0.289005 -0.064534 -0.057987 0.227281 0.069860 0.039242 -0.113935 -0.240519 0.296959 -0.209862 -0.020024 -0.078663 -0.174412 0.328342 0.269666 -0.296501 -0.591622 0.064532 0.048823 -0.234700 0.083024 -0.225248 0.062044 -0.210779 0.099582 0.155019 0.309933 0.031548 -0.034508 -0.002421 0.238429 0.558128 -0.297967 -0.010893 0.393148 -0.040217 0.023898 0.312914 -0.196342 -0.133742 -0.232597 0.154111 0.079883 0.042595 0.167069 -0.059591 -0.180828 -0.041705 0.041232 -0.265153 0.159011 -0.120631 0.382885 -0.358764 -0.055496 0.139713 0.122311 -0.209463 -0.073794 0.125678 -0.121282 0.202628 0.157112 0.339003 0.453942 -0.020925 0.116453 -0.159197 0.283247 -0.093792 0.074353 0.106218 -0.119598 0.049793 -0.255301 0.112131 -0.230314 -0.030412 -0.112505 0.119437 -0.110592 0.024208 0.234454 0.161540 -0.364386
32 -0.175074 -0.352657 0.024106 -0.072844 0.164665 0.045957 0.041436 -0.223159 -0.106282 0.250328 -0.040673 0.127513 -0.122122 0.110130 -0.049239 -0.028949 -0.031886 -0.005357 -0.190517 0.370570 0.032510 -0.349424 -0.285149 -0.532307 -0.211325 -0.228501 0.150670 0.513368 0.097331 0.065997 -0.270744 0.038564 0.021986 0.856711 -0.160759 0.376785 0.172848 -0.093385 0.121765 -0.155878 -0.461385 0.537921 -0.207270 -0.193490 -0.157119 -0.278429 -0.329426 -0.358630 0.090534 0.147009 -0.179080 0.173396 -0.159852 -0.002800 -0.300930 -0.882021 -0.133792 -0.037404 0.297854 -0.472497 0.385275 -0.255215 -0.291097 0.140900 -0.652639 -0.137541 -0.405346 0.200288 -0.428886 -0.477951 -0.439066 -0.251949 0.278531 -0.223860 0.243330 0.033597 0.639764 0.053286 0.180856 0.031301 0.038102 -0.346142 -0.211242 0.006714 -0.046704 0.348538 0.331272 -0.375483 0.827935 -0.351718 0.267765 0.146413 0.353757 -0.117945 0.483882 -0.103694 -0.208883 0.000747 -0.273279 0.003563 -0.161123 -0.176266 -0.229340 -0.689562 -0.194735 0.672072 0.617896 0.365858 -0.340040 0.361606 -0.199296 -0.045566 -0.382642 -0.274704 0.445710 0.474899 -0.510617 0.262697 0.053915 -0.240951 -0.127604 -0.059052 0.083167 -0.021188 0.231688 0.285127 -0.141149 0.055951
256 -0.042498 -0.220474 0.345474 -0.097025 0.079834 0.022308 0.046887 0.154417 -0.216343 0.288019 0.002698 0.242310 0.012097 0.044080 0.053204 -0.027579 0.083947 -0.075084 0.248948 0.086614 0.116663 -0.032908 0.362372 -0.141172 0.159964 -0.107162 -0.474246 0.218329 0.049510 -0.010693 -0.106293 0.159635 -0.183446 0.129193 -0.183602 -0.101783 -0.008113 -0.045212 -0.195042 0.123051 -0.012297 0.081629 0.083529 -0.074002 -0.150061 0.186827 -0.069459 -0.098717 -0.111442 0.002997 -0.195847 0.212656 -0.336183 -0.095803 -0.073510 -0.229034 0.468563 0.226789 -0.224437 -0.326715 0.144844 0.008077 -0.176045 0.257273 -0.017074 0.056816 -0.273516 0.036788 0.370039 0.294878 0.178869 -0.090786 0.178495 -0.005577 0.489799 -0.056797 -0.214371 0.262969 0.105963 0.291866 0.215484 -0.288405 -0.171124 -0.127564 0.129357 -0.103632 0.121596 0.010323 -0.086912 -0.033381 0.298484 0.075845 -0.231720 -0.167607 -0.171387 0.471073 -0.253024 -0.166785 0.354936 -0.021242 -0.387919 -0.298775 0.031336 0.123038 0.129278 0.243579 0.170740 0.405144 0.032886 0.304291 -0.099377 0.076625 0.071485 -0.044969 0.189920 0.174471 0.010060 -0.205225 -0.267635 -0.331359 0.000380 0.116485 -0.011249 -0.318596 -0.039037 0.041009 0.066870 -0.153927
246 -0.155201 -0.414933 0.040660 -0.248155 0.088549 -0.125897 -0.520160 -0.240651 0.149374 0.114291 -0.006106 0.131874 -0.045612 0.136010 -0.056923 0.027050 0.027965 0.118287 0.348704 0.176232 -0.029538 -0.116466 -0.206744 -0.238469 -0.442463 -0.015898 0.266541 -0.044100 0.350371 0.132765 -0.192873 -0.114173 -0.111359 0.332158 -0.298127 0.156156 -0.321612 -0.164389 0.036700 -0.166873 0.008915 0.384706 -0.262638 -0.231460 -0.116116 -0.425464 -0.170439 -0.152503 0.011805 0.397987 -0.201944 0.042197 -0.020014 0.137005 -0.136949 -0.193563 0.271674 -0.058057 -0.182192 -0.280674 0.117589 -0.002321 0.119370 -0.088149 -0.362249 0.430604 -0.152424 -0.232798 -0.209575 -0.324803 -0.314499 -0.027675 0.244536 -0.099298 0.191471 0.150125 0.584025 0.047715 0.108646 0.182506 -0.029009 -0.083481 0.172475 0.043486 -0.069575 0.385459 0.119139 0.004942 -0.031078 0.178311 -0.011069 0.100645 -0.005840 -0.007523 -0.160304 0.239214 0.014883 -0.232618 -0.040297 0.004721 0.125481 0.084669 -0.061971 -0.221099 0.048075 0.270169 0.042478 0.402245 0.105963 0.021137 0.086204 -0.115400 -0.087188 -0.378349 0.422748 0.105719 -0.233361 0.219405 -0.064653 0.151048 -0.080802 0.041225 0.091090 -0.162364 -0.011020 0.267394 -0.239796 0.293980
156 -0.136691 -0.112574 -0.242223 -0.044003 -0.116447 0.012009 -0.291275 -0.108112 0.209197 0.237169 -0.166850 0.281634 -0.080431 0.135726 0.021282 -0.073505 -0.192193 0.137541 0.059944 0.600871 -0.469671 -0.173231 0.291647 -0.370511 -0.513480 -0.032969 0.122330 -0.093928 0.372876 -0.075354 -0.245236 0.109294 0.218507 0.222084 -0.500215 0.158875 -0.290087 -0.146355 -0.039758 -0.044423 -0.051562 0.500310 0.120568 -0.175631 -0.290468 -0.337574 -0.309525 -0.143884 -0.136153 0.160187 -0.497265 -0.097438 -0.170751 0.069056 -0.316371 -0.489390 0.489593 -0.110833 0.215731 -0.269414 0.175961 -0.182987 0.039014 0.002590 -0.315743 0.646718 -0.337463 -0.202975 -0.522750 -0.279053 -0.039984 -0.154697 0.422352 -0.181796 0.064657 0.080775 0.359892 0.092618 0.410650 0.060025 0.274527 -0.293323 0.084393 0.091096 -0.136080 0.297538 0.385315 -0.483149 0.347782 0.093633 -0.091923 0.382841 0.014394 -0.079141 0.098022 0.129601 -0.199746 -0.247709 0.212191 0.209837 0.094123 0.241134 -0.088015 -0.041635 0.007154 0.271406 0.137495 0.466763 0.314608 -0.142204 -0.085506 0.056473 -0.239530 -0.166419 0.342724 0.337435 -0.169654 0.422105 -0.128123 0.060694 0.097331 0.260398 0.034231 -0.064712 0.083023 0.118396 -0.201471 0.005650
157 -0.098673 -0.152741 -0.175405 -0.129555 -0.072721 0.049833 -0.271865 -0.162409 0.181962 0.215972 -0.137294 0.231617 -0.089409 0.149196 0.010432 -0.077744 -0.200762 0.121272 0.100971 0.443982 -0.409214 -0.161528 0.192891 -0.334790 -0.543280 -0.073011 0.168239 -0.106525 0.381327 -0.101430 -0.218551 0.128181 0.079624 0.242075 -0.399121 0.206131 -0.269165 -0.136640 0.031772 0.004187 -0.047360 0.424719 0.082097 -0.117146 -0.198945 -0.267332 -0.292683 -0.172846 -0.186142 0.227657 -0.463499 -0.112258 -0.153863 0.065912 -0.267859 -0.417921 0.521180 -0.148137 0.150288 -0.264196 0.143049 -0.164772 -0.039543 0.015996 -0.284438 0.599227 -0.269853 -0.245922 -0.510554 -0.311242 -0.016261 -0.122580 0.463496 -0.194717 0.122673 0.058905 0.327722 0.118976 0.406824 0.079824 0.293980 -0.213140 0.058469 0.111637 -0.226090 0.217881 0.301337 -0.376482 0.341976 0.094290 -0.062873 0.409502 -0.021069 -0.030034 0.074599 0.128054 -0.164243 -0.262768 0.170415 0.160439 0.103794 0.198648 -0.097476 -0.000281 -0.008327 0.197663 0.117944 0.456767 0.279673 -0.166643 -0.004821 0.147282 -0.259550 -0.088508 0.324981 0.317184 -0.158543 0.386597 -0.143561 0.092474 0.044483 0.134619 0.058698 -0.046477 0.139920 0.117188 -0.163713 -0.017725
112 -0.036101 -0.357991 0.171707 0.098290 0.023278 -0.052824 -0.043670 0.088758 -0.135952 0.047059 -0.154089 0.099345 0.155082 -0.052128 -0.196737 -0.023254 0.146473 0.166476 0.138698 0.090179 0.389776 -0.072437 0.198402 -0.112145 -0.273111 -0.087530 -0.051492 0.109393 -0.302784 -0.389016 0.079058 0.124383 -0.145416 0.094918 -0.041627 0.045097 -0.051420 0.144687 -0.147051 -0.057005 -0.162164 0.201526 -0.338901 -0.240303 -0.107137 -0.199529 -0.036277 0.121825 0.166854 0.076268 -0.081581 0.026528 -0.068458 -0.109787 0.004468 -0.195326 0.206383 0.175920 -0.250554 -0.133104 -0.212947 0.110003 -0.146224 0.040625 -0.035075 0.136324 -0.332797 0.181374 0.243684 0.135583 0.058546 0.104688 0.250326 -0.187475 0.344379 -0.090735 0.172280 0.303157 0.048206 0.167141 -0.108295 -0.267210 0.100025 -0.325410 0.047483 0.066237 0.142151 -0.046528 -0.081269 0.118775 -0.057852 0.055519 -0.196774 -0.009805 -0.334708 0.339440 0.051928 0.033622 -0.042612 0.215395 -0.171030 -0.381669 0.022246 0.059423 0.271297 0.413153 0.022611 0.159671 0.039804 0.200899 -0.220723 0.071058 0.172738 -0.215696 0.187268 0.009315 0.078857 -0.086409 0.003946 -0.432148 0.055261 -0.148519 -0.055258 -0.235842 -0.157193 0.179394 0.284097 -0.366874
174 -0.081746 -0.352722 -0.026050 -0.154368 0.120793 0.146228 -0.070208 -0.241800 0.111779 0.219709 -0.068799 0.202334 -0.047026 0.139876 -0.087801 -0.081898 0.000542 0.086908 0.034205 0.367358 -0.186312 -0.163513 -0.278592 -0.361156 -0.305593 -0.170402 0.274554 0.306294 0.044852 -0.019893 -0.206339 -0.004306 -0.044163 0.610912 -0.089337 0.368379 -0.043793 -0.105200 0.088945 -0.186229 -0.130746 0.466350 -0.203737 -0.251742 -0.003734 -0.273562 -0.290280 -0.163434 0.097938 0.124117 -0.150849 0.146051 -0.069409 0.128153 -0.358172 -0.606323 0.040444 -0.018545 0.189084 -0.431838 0.104616 -0.208478 -0.226169 0.157869 -0.553097 0.071250 -0.238366 -0.017038 -0.499960 -0.468584 -0.303818 -0.088844 0.202557 -0.136253 0.339734 0.039809 0.429772 0.132964 0.106891 -0.051816 -0.009185 -0.186658 -0.144441 0.107026 0.018959 0.258250 0.232304 -0.237238 0.583521 -0.149912 0.141112 0.162951 0.149928 0.121081 0.385708 -0.118688 -0.135984 -0.110090 -0.216519 0.034997 0.053001 -0.021256 -0.394218 -0.472326 0.046578 0.551080 0.312239 0.299923 -0.091590 0.083010 -0.138743 0.124171 -0.286161 -0.145208 0.389425 0.163030 -0.314077 0.316856 0.047343 -0.095110 -0.053040 -0.038214 0.111717 0.079172 0.214784 0.283246 -0.124502 0.083844
258 0.069521 -0.397496 0.234648 0.058324 0.174520 0.094565 0.186097 0.210752 -0.321495 0.330200 -0.048280 -0.112448 0.189779 -0.121584 -0.177475 0.223113 0.064219 0.033319 0.336516 0.335059 0.140284 -0.343209 0.242993 -0.157052 0.089066 -0.072541 -0.382595 0.126215 -0.165528 -0.255883 -0.005465 0.369743 -0.212020 -0.172950 -0.321381 -0.160001 0.185222 0.223159 -0.430409 -0.065160 -0.038356 -0.020268 -0.056262 0.152631 -0.084133 0.004924 -0.152556 0.044164 0.209585 -0.002030 -0.132160 -0.027695 -0.454028 -0.356355 -0.095554 -0.422905 0.452883 0.148290 -0.199153 -0.225964 -0.029391 -0.013122 -0.218100 0.192732 0.033038 0.045673 -0.507686 0.323187 0.248371 0.122654 0.120814 0.111014 0.094408 -0.178666 0.278671 -0.147084 0.008601 0.195335 -0.030123 0.226420 0.125795 -0.287602 0.198659 -0.197276 -0.154366 -0.244051 0.137662 -0.027885 0.107811 0.101920 0.241011 0.082665 -0.006057 0.028725 -0.103166 0.228969 0.076311 -0.136209 0.023112 0.147104 -0.291154 -0.393697 0.175717 0.139576 0.166148 0.386307 -0.120770 0.300744 0.081625 0.393050 -0.281142 0.143781 0.118694 -0.126522 0.386796 0.310147 -0.121101 -0.106435 -0.137882 -0.354207 -0.054096 -0.011485 -0.274339 -0.312117 -0.127526 0.044802 0.139066 -0.387074
54 -0.039706 -0.209715 0.312559 -0.086149 0.109039 0.042331 -0.042960 0.101196 -0.145152 0.248133 0.006945 0.338882 0.042159 0.031896 0.034910 -0.014496 0.094245 -0.086023 0.203061 0.112053 0.123010 0.027166 0.290095 -0.138096 0.135342 -0.116908 -0.425645 0.236522 0.018545 0.075933 -0.167400 0.091282 -0.157347 0.091010 -0.162447 -0.165192 0.022523 -0.051375 -0.183380 0.068639 0.016073 0.172638 0.062621 -0.104289 -0.166858 0.115574 -0.026970 -0.088354 -0.011158 -0.001274 -0.087005 0.247132 -0.255345 0.002386 -0.105797 -0.149606 0.333427 0.283386 -0.215119 -0.279064 0.146724 0.006138 -0.131707 0.228556 0.002374 0.034819 -0.220145 -0.048592 0.393768 0.266250 0.204879 -0.075261 0.155476 0.004058 0.492182 0.013702 -0.146680 0.187851 0.029068 0.281394 0.126992 -0.281125 -0.128491 -0.106632 0.192850 -0.004817 0.115666 0.025254 -0.113946 -0.089398 0.334238 0.034640 -0.182544 -0.213217 -0.181734 0.422005 -0.208683 -0.208946 0.350079 -0.090853 -0.394469 -0.304815 -0.079459 0.061170 0.094779 0.265225 0.179637 0.366459 0.080362 0.238226 -0.118106 -0.004930 0.155263 -0.118482 0.205187 0.132862 -0.055445 -0.175100 -0.274044 -0.300475 0.036717 0.140665 0.007119 -0.303353 -0.112514 0.054594 0.006545 -0.039718
84 0.148414 -0.427033 0.317673 0.083948 0.138864 0.112219 0.049496 0.130826 -0.318647 0.235962 -0.073501 -0.023254 0.211281 -0.056195 -0.139683 0.144265 0.090155 0.114865 0.315525 0.313687 0.189466 -0.154622 0.222748 -0.005751 -0.027412 -0.147953 -0.359302 0.120248 -0.245570 -0.380595 -0.036031 0.266440 -0.312052 -0.071940 -0.190603 -0.115175 0.093027 0.126140 -0.328319 -0.096209 -0.050260 0.031816 -0.039233 0.010469 -0.096545 0.017531 -0.190194 0.058165 0.155675 0.000922 -0.089242 0.066911 -0.340504 -0.299674 -0.078692 -0.330382 0.466566 0.303774 -0.229313 -0.226990 -0.184133 0.069273 -0.218538 0.233279 -0.044455 0.160068 -0.390272 0.279850 0.219847 0.130916 0.108010 0.105575 0.162836 -0.150193 0.379164 -0.148219 -0.079048 0.257371 -0.087394 0.316721 0.091208 -0.252487 0.099069 -0.157940 -0.019031 -0.228846 0.140337 -0.076032 0.026347 0.172176 0.191000 0.006252 -0.126198 -0.040728 -0.225822 0.379698 0.077535 -0.075098 0.120693 0.123444 -0.236437 -0.451010 0.050053 0.232178 0.311605 0.413081 -0.106121 0.296360 0.087638 0.318567 -0.166233 0.183486 0.203363 -0.118743 0.343813 0.187932 -0.020706 -0.111603 -0.113796 -0.456179 -0.061430 -0.030530 -0.222989 -0.243410 -0.087806 0.123751 0.208625 -0.356338
37 -0.085718 -0.476569 -0.013950 -0.086478 0.299876 0.038459 -0.122788 -0.053787 0.055815 0.054077 -0.025091 0.187038 0.113086 -0.180217 -0.114564 0.071213 0.323653 0.072914 0.305582 0.145209 0.036533 -0.144200 -0.220795 -0.293460 -0.013051 -0.185496 0.096558 0.344949 -0.000563 -0.232413 -0.125466 -0.108460 -0.229711 0.102827 0.048645 0.022294 -0.110526 -0.122083 -0.062358 -0.106941 0.086726 0.433381 -0.459550 -0.187952 -0.144291 -0.193832 -0.033463 -0.033713 0.414158 0.078772 0.067008 0.312859 -0.004698 0.096258 -0.191847 -0.140940 0.206788 0.395674 -0.295466 -0.404214 -0.231429 -0.070338 -0.149517 0.069192 -0.105120 0.047269 -0.143477 0.120142 0.070081 0.074333 -0.060258 0.181371 -0.044626 -0.061598 0.724006 0.013789 0.092797 0.204722 -0.167520 0.141792 -0.170970 -0.110738 -0.021402 0.012488 0.140472 0.084520 -0.117643 0.205193 -0.083472 -0.008472 0.117194 -0.110633 -0.095770 0.135525 -0.124214 0.084853 0.022113 -0.235992 -0.054402 -0.233064 -0.097827 -0.186044 -0.404918 -0.159052 0.202327 0.418951 0.023132 0.457116 0.045716 0.110376 0.015728 -0.015373 0.220225 -0.093543 0.340988 -0.048543 -0.062701 0.026958 0.078671 -0.205160 -0.094254 -0.103234 0.102828 -0.025022 0.029116 0.213675 0.100219 0.208821
175 -0.166286 -0.289958 -0.086655 -0.159083 0.084065 0.013862 -0.266508 -0.167279 0.253876 0.167603 -0.016567 0.286302 -0.051050 0.101101 -0.027953 -0.101467 -0.045296 0.111153 0.061305 0.214039 -0.288085 -0.121884 -0.191739 -0.420458 -0.417872 -0.006729 0.322639 0.153350 0.205182 0.091875 -0.157928 -0.064857 -0.083568 0.579802 -0.149967 0.297966 -0.100707 -0.061351 0.084112 0.071753 -0.082318 0.395235 -0.256946 -0.271169 -0.034436 -0.355410 -0.166576 -0.237307 -0.081842 0.290781 -0.220237 0.118131 -0.011355 0.168324 -0.354585 -0.454579 0.127499 -0.041618 0.112599 -0.375568 0.122459 -0.211095 -0.147491 0.096178 -0.333476 0.161939 -0.198105 -0.116387 -0.461617 -0.482773 -0.289763 0.071064 0.293938 -0.087697 0.269165 0.039429 0.364664 0.160954 0.254186 0.101616 -0.011386 -0.083690 -0.082130 0.089432 -0.137813 0.339125 0.177377 -0.158727 0.425359 -0.080251 0.085161 0.245978 0.068885 0.008165 0.168337 -0.041325 -0.186634 -0.153667 -0.130304 0.038059 0.105394 0.171064 -0.370032 -0.382368 0.102352 0.426133 0.245924 0.307040 0.024267 -0.043232 -0.135607 0.236955 -0.230224 -0.126127 0.310746 0.183642 -0.208778 0.300875 0.054790 -0.024873 0.002990 0.045475 0.088748 0.038741 0.194420 0.283099 -0.121785 0.088352
116 0.223606 -0.377993 0.002585 -0.428567 0.317187 0.190680 -0.030748 -0.183564 0.161230 -0.137408 -0.025538 0.292261 0.011997 0.278738 -0.233754 0.011595 0.062093 0.235132 0.044864 0.206007 -0.277143 0.155269 -0.338931 -0.088007 -0.058023 -0.362757 0.060640 0.318909 0.159410 -0.105805 -0.323787 -0.069348 -0.248490 0.238733 0.168754 0.197233 -0.012367 -0.290748 0.255151 -0.121110 0.069062 0.433824 -0.105293 -0.220209 0.105748 -0.138788 0.057196 -0.134983 0.023229 -0.210380 -0.075775 0.216214 0.135109 0.294278 -0.202143 -0.117565 0.163421 0.209381 0.029664 -0.552653 -0.113523 -0.064291 -0.177316 -0.003110 -0.543328 0.340502 0.079282 -0.431782 -0.150295 -0.231407 -0.004846 -0.227151 0.329831 0.122470 0.462403 -0.084885 0.158690 -0.095706 -0.132411 0.016550 0.235865 -0.181930 -0.402297 0.155648 0.121120 0.164992 0.373262 -0.116967 0.198439 -0.187375 0.033130 0.118279 -0.214392 0.102045 0.113339 0.178049 0.065760 -0.184272 0.249716 0.033239 0.042945 -0.081235 -0.364173 -0.345455 0.274460 0.316827 0.474953 0.266469 0.109086 -0.062749 0.118083 0.288674 0.019579 -0.084088 0.277198 -0.149736 -0.206652 0.148919 -0.168131 0.012039 -0.067518 -0.010883 0.008462 0.140486 -0.052604 0.231698 -0.022830 -0.064136
97 -0.268875 -0.300548 0.222558 -0.008082 0.118035 -0.156035 -0.144721 0.221867 0.164463 0.049334 -0.057290 0.269679 0.014062 -0.194363 -0.092912 -0.105727 0.240716 -0.011370 0.227878 -0.055995 0.280172 -0.010012 0.144298 -0.470878 -0.084472 -0.062975 -0.011505 0.292985 -0.089453 -0.151668 0.006596 -0.009892 0.005103 0.273060 -0.121149 0.013730 -0.286013 -0.000910 -0.234218 0.005787 0.000856 0.469632 -0.576777 -0.432445 -0.172713 -0.222267 0.218822 0.095707 0.194182 0.107536 -0.220486 0.377409 -0.076367 0.142802 -0.082325 -0.081172 0.244808 0.353924 -0.378349 -0.325025 0.088289 0.085903 -0.136577 0.042010 -0.110775 0.087451 -0.116069 0.015164 0.184015 0.222758 0.132963 0.015232 -0.010271 0.106696 0.768693 0.015716 0.102757 0.480597 0.046232 0.046761 0.020418 -0.177396 0.044453 -0.232615 0.261688 0.286113 -0.145848 0.267769 -0.179768 -0.134298 0.040806 0.023864 -0.170590 0.154834 -0.240080 0.307672 -0.358398 -0.159521 0.006447 -0.041061 -0.353989 -0.109174 -0.069241 -0.213679 0.119659 0.329508 0.127445 0.512610 0.104814 -0.065506 -0.243317 -0.008821 0.041290 -0.057088 0.254418 -0.186132 0.066439 -0.132398 0.128270 -0.244062 0.018191 -0.057129 0.286521 -0.363778 -0.038731 0.270289 0.067498 -0.035524
163 -0.083757 -0.414463 0.333355 0.000417 0.023952 -0.040782 -0.287704 0.131947 0.121021 -0.003116 -0.182444 0.316041 0.053148 0.020609 -0.230664 -0.111384 0.156827 0.096601 0.330297 0.168940 0.376128 0.047554 0.115805 -0.165508 -0.389407 -0.093061 0.079808 0.094506 -0.276169 -0.222655 -0.044869 -0.017176 -0.103633 0.207720 -0.175536 -0.013362 -0.321980 0.111028 -0.304479 -0.320121 0.020271 0.346676 -0.562822 -0.473276 -0.034972 -0.315185 0.114823 0.205064 0.303895 0.070454 -0.203286 0.224127 -0.013979 0.096958 0.052480 -0.008372 0.244957 0.362518 -0.302334 -0.228696 -0.017393 0.275403 -0.062270 -0.027385 -0.245809 0.261648 -0.182293 0.033431 0.045606 -0.012881 0.051290 -0.054682 0.054869 0.078714 0.621806 0.162459 0.216167 0.325607 0.023954 0.061345 -0.155580 -0.326729 0.077134 -0.227837 0.376381 0.375241 -0.041675 0.123923 -0.173396 -0.024316 -0.135008 -0.098745 -0.191193 0.156528 -0.302708 0.343334 -0.090522 -0.121753 -0.090666 0.088004 -0.311689 -0.253769 -0.037258 -0.358662 0.314708 0.446806 -0.089553 0.299600 0.126269 -0.154323 -0.244190 -0.053070 0.110570 -0.343768 0.337024 -0.307780 0.012553 0.009939 0.037562 -0.302822 -0.029875 -0.002314 0.216702 -0.377766 -0.156053 0.355998 0.072838 -0.081456
96 -0.206560 -0.378393 0.271706 0.004818 0.190247 -0.116690 -0.157875 0.209202 0.093525 -0.055969 -0.066118 0.209036 0.031074 -0.179759 -0.082641 -0.021926 0.226174 -0.026299 0.188494 -0.032763 0.344162 -0.049868 0.100243 -0.379587 -0.035811 -0.072986 -0.060953 0.280476 -0.151660 -0.180501 -0.000461 -0.037462 -0.088192 0.256279 -0.074059 -0.021672 -0.217421 0.013765 -0.271728 -0.076891 -0.019614 0.442136 -0.587616 -0.404860 -0.131815 -0.211265 0.216913 0.122909 0.306323 0.043576 -0.163265 0.328283 -0.067515 0.091560 -0.023075 -0.128473 0.205921 0.395852 -0.337586 -0.340291 0.067105 0.103303 -0.107404 -0.014904 -0.131048 0.056054 -0.110024 0.071682 0.218161 0.257075 0.068720 -0.037944 -0.045295 0.133787 0.709683 -0.015958 0.130139 0.355732 -0.082485 0.063963 -0.041947 -0.203007 -0.016390 -0.230361 0.303248 0.262440 -0.133557 0.222661 -0.167341 -0.103830 0.007664 -0.095067 -0.154211 0.107451 -0.257591 0.305099 -0.209116 -0.140082 -0.027396 -0.063661 -0.338980 -0.237574 0.006822 -0.284376 0.148053 0.311610 0.115353 0.452483 0.029977 -0.035767 -0.235337 -0.045763 0.075684 -0.145474 0.260748 -0.199193 0.034801 -0.142809 0.096696 -0.308953 -0.062342 -0.067383 0.250084 -0.324648 -0.113661 0.270469 0.135621 -0.087407
129 -0.280381 -0.294116 0.194583 -0.086643 0.192037 -0.150467 0.122069 0.432607 0.051855 -0.098034 0.022409 0.076898 -0.053276 -0.210663 -0.067804 -0.086420 0.183695 0.036148 0.152492 -0.203205 0.099014 -0.100884 0.158401 -0.444230 0.195174 -0.078767 -0.194906 0.343302 -0.022827 -0.240121 0.113283 0.096103 -0.136488 0.348013 -0.046420 0.084448 -0.199868 0.006217 -0.168006 0.212408 0.069034 0.370148 -0.494665 -0.353858 -0.077217 -0.072560 0.306352 0.091738 0.077685 -0.091728 -0.329497 0.343994 -0.203735 0.006974 -0.103687 -0.224869 0.387874 0.278980 -0.346834 -0.675138 0.089024 0.014784 -0.293849 0.088450 -0.154046 0.068118 -0.166229 0.070317 0.194344 0.383736 0.071026 -0.032768 -0.004795 0.279391 0.684733 -0.320583 -0.048633 0.474177 -0.053283 0.030432 0.341428 -0.176093 -0.220352 -0.250595 0.169067 0.094229 -0.049420 0.192846 -0.099014 -0.149843 -0.025306 0.022207 -0.300513 0.191489 -0.190816 0.401962 -0.378536 -0.134736 0.092224 0.102672 -0.258998 -0.089583 0.160044 -0.184503 0.219211 0.104147 0.337346 0.536545 -0.003286 0.026303 -0.203403 0.294689 -0.114084 0.115930 0.110681 -0.134270 0.110256 -0.253208 0.109989 -0.251737 -0.103809 -0.125869 0.189676 -0.148709 0.016765 0.273040 0.191198 -0.384662
212 -0.155202 -0.106932 -0.125180 -0.236272 -0.232804 -0.076079 -0.144069 -0.047514 0.001888 0.406541 0.009581 0.359878 -0.036504 0.442306 0.029999 0.020951 -0.006219 0.037734 0.231947 0.392998 -0.158743 0.087616 0.342280 -0.061385 -0.022789 -0.028577 -0.145857 0.172436 0.340237 0.229722 -0.039420 -0.039019 -0.066726 0.023676 -0.397059 0.038619 -0.139874 -0.063956 -0.111053 -0.122930 0.132287 0.198418 0.222593 -0.117590 -0.203880 0.001231 -0.289603 0.059517 -0.360230 0.129666 -0.341021 0.056950 -0.180255 0.067712 -0.172362 -0.276865 0.608250 -0.064892 -0.092236 -0.520104 0.133712 -0.049697 0.195200 -0.026523 -0.249914 0.528169 -0.339108 -0.165157 0.135054 0.011989 -0.027180 -0.072308 0.305237 -0.092475 -0.007928 -0.087047 0.130533 0.013237 0.232576 0.313644 0.212962 -0.440547 -0.107870 -0.081350 0.050657 0.089580 0.337031 -0.062963 -0.081875 0.082647 0.003825 0.341150 -0.291926 -0.138073 -0.173363 0.408132 -0.161670 -0.105694 0.361903 0.147038 0.146455 0.085997 -0.025548 0.097993 0.261241 0.271720 0.064176 0.239239 0.156646 0.191477 -0.134005 -0.135293 -0.017519 -0.256862 0.132758 0.229919 -0.020671 0.253677 -0.336958 -0.048265 0.068053 0.322113 -0.056800 -0.084293 0.013844 -0.027032 -0.045872 -0.060576
79 0.084564 -0.559276 0.344384 -0.083626 0.433918 0.260671 0.209657 0.220165 -0.401909 0.483169 0.014957 -0.199499 0.226448 -0.241027 -0.254821 0.386959 -0.014818 -0.013736 0.463480 0.378756 0.038748 -0.594137 0.202105 -0.309692 0.120215 -0.066349 -0.475095 0.120504 -0.044081 -0.197779 -0.153552 0.613347 -0.305503 -0.264849 -0.465484 -0.235522 0.384757 0.270088 -0.581167 0.009983 -0.080313 0.012836 -0.054004 0.310548 -0.084550 0.017907 -0.196876 -0.084436 0.243990 -0.016521 -0.214845 -0.147399 -0.664429 -0.460317 -0.263701 -0.697327 0.506957 -0.017133 -0.223604 -0.230291 0.146080 -0.149740 -0.348749 0.283532 0.094537 -0.030162 -0.625721 0.268567 0.309972 0.048128 0.158338 0.092436 0.164539 -0.287479 0.272491 -0.107416 0.183898 0.160659 -0.051983 0.289468 0.199203 -0.303150 0.274855 -0.222448 -0.366498 -0.346132 0.208567 -0.129299 0.290462 0.110762 0.502571 0.109673 0.119845 -0.005101 -0.017788 0.173382 0.242226 -0.320671 -0.051851 0.175522 -0.421255 -0.504241 0.259292 0.025747 0.057352 0.466310 -0.125970 0.370148 0.102913 0.516623 -0.323567 0.245223 0.063808 -0.212282 0.641405 0.569607 -0.314156 -0.117094 -0.301726 -0.284855 -0.150555 0.026714 -0.399138 -0.480122 -0.239887 0.041624 0.013219 -0.409045
209 -0.155064 -0.138005 -0.092456 -0.134980 -0.161505 0.099070 -0.282572 -0.072286 0.094647 0.408547 -0.110087 0.418814 -0.103420 0.398225 -0.058325 0.046505 -0.057970 0.115123 0.215773 0.630453 -0.133157 0.048073 0.312707 -0.130023 -0.410309 0.045385 0.035638 -0.090918 0.198795 0.124312 -0.081176 0.124614 -0.047088 0.141110 -0.475652 0.057562 -0.195555 -0.037516 -0.181908 -0.282826 0.181407 0.246638 0.157173 -0.133493 -0.146108 -0.213402 -0.265661 0.146944 -0.196095 0.211715 -0.336906 -0.015930 -0.164798 0.036131 -0.243644 -0.124777 0.672604 0.003575 -0.051628 -0.301151 0.108555 0.068788 0.109997 0.057964 -0.266942 0.723832 -0.411837 -0.258554 -0.244950 -0.285002 -0.069315 -0.094799 0.405526 -0.254181 0.037697 0.137046 0.169751 -0.006899 0.362107 0.273314 0.147233 -0.507335 0.070120 0.033941 0.056338 0.309493 0.446052 -0.191928 0.031777 0.162201 -0.114988 0.343822 -0.147648 -0.065137 -0.036910 0.269666 -0.102592 -0.167801 0.173492 0.326341 0.085454 0.120131 -0.032413 0.046851 0.260208 0.288685 -0.088206 0.289519 0.281330 0.048652 -0.119755 0.020763 -0.014934 -0.319776 0.249870 0.228291 -0.123022 0.362752 -0.134038 0.077433 0.160015 0.335486 -0.055609 -0.255460 0.015451 0.133240 -0.125725 0.013057
63 0.028504 -0.200930 0.192917 -0.211950 0.042132 0.017805 0.084468 0.206109 -0.133750 0.229264 0.009692 0.166204 0.070816 0.149783 -0.130754 0.106125 0.018491 0.091710 0.200117 0.229546 -0.047819 0.060496 0.357494 0.016284 0.263825 -0.112876 -0.429145 0.270659 0.056802 -0.065515 -0.045863 0.134056 -0.163983 -0.150404 -0.251152 -0.189239 0.046589 -0.016971 -0.231121 0.029449 0.031569 0.167489 0.177052 -0.083340 -0.139883 0.157214 -0.110439 0.011843 -0.161540 -0.150919 -0.291541 0.184668 -0.229059 -0.138561 -0.143521 -0.309765 0.414246 0.135899 -0.226404 -0.399026 0.097581 -0.045435 -0.080654 0.094781 -0.086322 0.249520 -0.296087 -0.021441 0.369507 0.318608 0.197115 -0.105545 0.226925 0.033645 0.217180 -0.221777 -0.050637 0.087389 -0.089379 0.315304 0.293426 -0.363239 -0.133993 -0.213441 0.102215 -0.076864 0.292743 -0.102866 -0.043618 0.014708 0.205520 0.110882 -0.277016 -0.093915 -0.200012 0.476233 -0.050319 -0.122337 0.389218 0.160800 -0.196233 -0.146220 0.105045 0.101035 0.257777 0.306856 0.170618 0.280034 0.158389 0.303885 -0.129917 0.090328 0.117819 -0.161983 0.234813 0.138921 -0.005557 -0.097979 -0.270480 -0.344354 0.000197 0.208763 -0.125582 -0.161426 -0.180298 0.066990 0.061613 -0.294735
67 -0.104762 -0.109919 -0.202194 -0.193813 -0.121567 0.064677 -0.177199 -0.126305 0.195881 0.272168 -0.106043 0.309192 -0.079772 0.290607 -0.066362 -0.065467 -0.101945 0.127559 0.110877 0.478762 -0.320714 -0.013903 0.194424 -0.190473 -0.347988 -0.089718 0.111515 0.015346 0.304512 0.012316 -0.158353 0.062187 0.041180 0.138804 -0.376946 0.134618 -0.195334 -0.105719 -0.000184 -0.101257 0.004238 0.363542 0.143327 -0.112858 -0.177637 -0.174359 -0.271548 -0.059333 -0.163735 0.152789 -0.378662 -0.006744 -0.096718 0.112071 -0.237683 -0.272300 0.486513 -0.079094 0.055026 -0.332195 0.121636 -0.096807 0.009148 0.025587 -0.289557 0.570787 -0.303740 -0.219957 -0.319290 -0.256127 -0.010937 -0.100543 0.395670 -0.181452 0.085851 0.048659 0.237403 0.014236 0.324634 0.143660 0.198251 -0.347279 -0.049168 0.081686 -0.076996 0.216947 0.344973 -0.262163 0.208594 0.028062 -0.046182 0.377376 -0.084118 -0.015862 0.057272 0.140153 -0.139517 -0.201740 0.196196 0.179087 0.104778 0.184456 -0.173738 -0.025103 0.098463 0.231343 0.107775 0.337297 0.268069 -0.033390 -0.050846 0.056640 -0.122278 -0.166302 0.229607 0.233950 -0.135316 0.368882 -0.158823 0.040369 0.128134 0.229895 0.038380 -0.045936 0.056354 0.075430 -0.099709 0.005936
223 -0.081510 -0.875663 0.536240 -0.391207 0.431220 0.048137 -0.267370 0.120880 0.037902 0.205306 -0.104735 0.237609 -0.015786 0.036343 -0.250592 0.058941 0.066189 0.167886 0.440169 0.416729 -0.011187 -0.341303 0.184497 -0.490140 -0.302500 -0.203618 -0.175671 0.276007 0.251355 -0.260193 -0.318312 0.233986 -0.350969 0.583765 -0.565314 0.085586 -0.163439 -0.210245 -0.207311 -0.011410 -0.281549 0.588413 -0.343535 -0.318316 -0.187708 -0.247004 -0.260444 -0.346432 0.019176 0.244975 -0.598701 0.244932 -0.322605 -0.103355 -0.264646 -0.783013 0.652363 0.281174 -0.147603 -0.611634 0.314771 -0.158574 -0.420039 0.259230 -0.420807 0.396775 -0.509991 -0.097199 -0.090555 -0.063985 -0.113103 -0.303129 0.685469 -0.152971 0.874334 0.004373 0.325138 0.298504 0.226787 0.421818 0.293783 -0.550490 -0.243060 -0.130715 -0.008238 0.276497 0.476081 -0.359563 0.450752 0.085765 0.334529 0.220051 -0.114428 -0.122929 -0.058299 0.605230 -0.123214 -0.424000 0.204597 0.194634 -0.517610 -0.325315 0.097300 -0.345995 0.221235 0.695766 0.433604 0.867090 0.054361 0.325360 -0.081203 0.292816 -0.089783 -0.424149 0.765529 0.375567 -0.351207 0.007896 -0.249073 -0.493263 -0.153749 0.155460 0.085036 -0.569320 -0.037764 0.492159 -0.023557 -0.170811
29 -0.281328 -0.626037 0.741086 -0.267720 0.536546 -0.111358 -0.239407 -0.031356 -0.285163 0.093682 -0.223370 -0.554750 -0.501876 -0.040374 0.034005 0.305359 -0.419676 -0.036167 0.407310 0.421715 0.157902 -0.986595 0.215973 -0.359445 -0.263463 -0.002083 -0.221485 -0.299013 0.664082 0.052671 -0.050220 0.573043 -0.010257 0.540804 -1.083328 0.053520 0.047001 -0.105154 -0.053513 0.026228 -0.486703 -0.084164 -0.065963 0.465588 -0.141290 0.015429 -0.525295 -0.620559 0.153703 0.794747 -0.829535 -0.239316 -0.557081 -0.608505 0.183864 -0.670405 0.605799 -0.131770 0.244516 0.055288 0.771077 -0.487147 -0.407892 0.059167 -0.156870 0.218382 -0.740324 0.295168 -0.577884 -0.114531 -0.452023 -0.545660 0.494257 -0.388215 0.087207 0.138194 0.654817 -0.205443 0.520314 0.326303 0.381842 -0.194513 0.218222 -0.194184 -0.622862 0.210117 0.423151 -0.696346 1.006233 0.191898 0.229017 0.311420 0.438345 -0.299051 0.276446 0.557959 0.021674 -0.282272 -0.161291 0.092887 -0.776596 -0.106357 0.980232 -0.273273 -0.592096 0.086712 0.269321 0.806617 -0.228071 0.731930 0.226344 0.362666 -0.475917 -0.552320 0.741705 0.904852 -0.656599 -0.081307 -0.304178 -0.250857 -0.448447 0.140939 -0.006841 -0.759840 0.133250 0.503667 -0.186192 -0.217982
122 -0.051362 -0.798820 0.533339 -0.175605 0.684241 -0.534367 0.012755 0.348863 0.227624 -0.373111 0.207195 -0.435738 0.289861 -0.140046 -0.596278 0.211788 0.111774 -0.284994 0.209731 0.203095 0.074735 -0.744176 -0.112762 -0.842821 -0.083621 -0.048688 -0.347484 -0.177845 0.512646 -0.618978 -0.708499 -0.055299 -0.110232 0.514273 -0.679098 -0.190575 -0.380415 -0.347002 -0.164641 0.358581 -0.990174 0.620703 -0.110638 -0.203480 -0.387529 -0.522710 -0.198662 -0.819350 0.018263 -0.045843 -0.162117 -0.257929 -0.285065 -0.488216 0.253363 -0.817362 0.585481 0.700265 0.105757 -0.006525 0.606825 0.263970 -0.302053 0.244704 -0.473326 0.162828 -0.267360 0.001011 0.017495 0.116549 -0.222412 -0.626421 0.654536 0.044289 0.515611 0.238886 0.492255 0.652560 0.383523 0.365115 0.507548 -0.558000 0.045255 0.002661 -0.417420 -0.001550 0.721410 -0.591294 0.480763 0.386990 0.294032 -0.084780 0.412597 -0.283646 0.271899 -0.096870 0.022481 -0.273641 0.246483 0.150796 -0.406166 -0.056332 0.776568 0.181378 -0.513396 0.285448 0.679016 0.788390 -0.065733 0.321967 0.277994 0.032919 -0.148141 -0.028705 0.197447 0.744878 -0.953889 -0.456692 0.504324 -0.231677 0.387928 0.128844 0.104924 -1.041648 -0.386725 0.111359 0.082432 0.416012
124 -0.055700 -0.780498 0.530712 -0.174192 0.691947 -0.542570 0.015973 0.331421 0.224293 -0.380915 0.213074 -0.460386 0.271572 -0.138146 -0.580595 0.241280 0.099173 -0.308340 0.214569 0.194914 0.078166 -0.752014 -0.119585 -0.843815 -0.062890 -0.044727 -0.354941 -0.192846 0.536646 -0.587022 -0.706436 -0.057150 -0.092052 0.490689 -0.683307 -0.208266 -0.367794 -0.352093 -0.166303 0.357381 -0.983876 0.595959 -0.092889 -0.172248 -0.388254 -0.512367 -0.189719 -0.829467 0.024563 -0.038011 -0.154357 -0.270400 -0.288844 -0.499876 0.267468 -0.798239 0.582002 0.691198 0.114239 0.025378 0.625954 0.260201 -0.285763 0.231934 -0.457164 0.147400 -0.267324 0.007559 0.012269 0.115926 -0.236818 -0.635883 0.625813 0.046929 0.476406 0.243135 0.501327 0.625310 0.381491 0.367361 0.501822 -0.534906 0.063372 0.009373 -0.427926 0.002490 0.710739 -0.581319 0.485531 0.382302 0.283686 -0.087914 0.433780 -0.285199 0.284335 -0.109955 0.031086 -0.274229 0.238711 0.129776 -0.409578 -0.037984 0.802447 0.183729 -0.545972 0.254325 0.675127 0.787760 -0.079065 0.329654 0.294747 0.015533 -0.153764 -0.038192 0.197463 0.758359 -0.968862 -0.469590 0.502025 -0.204628 0.379544 0.132057 0.110123 -1.034383 -0.393596 0.106656 0.062084 0.438004
243 -0.094359 -0.857367 0.505040 -0.376415 0.407476 0.028454 -0.284912 0.099834 0.022872 0.215004 -0.125596 0.231009 -0.028070 0.048590 -0.254205 0.049815 0.061798 0.173731 0.422846 0.432647 -0.000112 -0.345039 0.201761 -0.486991 -0.352064 -0.191188 -0.159109 0.252348 0.217111 -0.275566 -0.302237 0.245044 -0.314159 0.564578 -0.572091 0.081404 -0.186963 -0.206119 -0.205910 -0.000339 -0.285003 0.563371 -0.328784 -0.299782 -0.189153 -0.270490 -0.270089 -0.348969 0.012902 0.276203 -0.597131 0.208467 -0.319341 -0.119077 -0.251912 -0.762211 0.658703 0.256502 -0.150681 -0.570528 0.289201 -0.135235 -0.410289 0.252601 -0.418007 0.405469 -0.529078 -0.075863 -0.099641 -0.078754 -0.096115 -0.299151 0.695683 -0.205914 0.827761 0.014768 0.335755 0.308805 0.265082 0.420250 0.285175 -0.528357 -0.208872 -0.146745 -0.015240 0.256557 0.469804 -0.373272 0.446577 0.110496 0.298451 0.240514 -0.100334 -0.118230 -0.058975 0.578031 -0.105215 -0.388906 0.187097 0.211248 -0.487860 -0.297461 0.102675 -0.309051 0.216275 0.679542 0.406212 0.839828 0.070782 0.324755 -0.077643 0.301057 -0.104279 -0.413048 0.733697 0.386961 -0.343204 0.022147 -0.224015 -0.484478 -0.121390 0.146099 0.055072 -0.573055 -0.039398 0.490765 -0.013719 -0.167126
102 -0.389036 -0.644454 1.090138 -0.775295 0.542062 -0.223496 -0.139473 -0.212071 0.176196 0.261710 -0.216686 -0.664752 -0.777803 0.410625 -0.341286 0.260349 -0.218096 -0.340634 0.768476 0.264501 0.293044 -0.937960 0.592684 -0.652265 0.405161 -0.422857 0.008003 0.322980 0.776135 -0.122956 -0.013469 0.261427 -0.035290 0.499942 -0.721040 0.086946 -0.707838 -0.084549 -0.132607 0.122217 -0.402133 -0.114080 -0.839669 0.213315 0.156088 -0.027723 -0.426123 -0.300954 0.414264 0.459928 -1.089613 0.218612 -0.530676 -0.617431 0.300174 -0.304503 0.853420 -0.036659 -0.683112 -0.427625 0.701400 -0.171185 0.142349 0.056054 -0.379943 0.234750 -0.728389 0.205857 -0.355385 0.275298 -0.503942 -0.780204 -0.170055 -0.033301 0.776756 0.252702 0.448240 0.094360 0.471723 0.125696 0.108920 -0.251761 0.040404 -0.226215 0.045530 0.063132 -0.074615 0.315251 0.564313 -0.145055 -0.038842 0.144421 0.447462 0.418838 0.016201 0.506404 -0.075315 -0.256738 -0.171203 0.163162 -0.748918 0.213061 0.728417 -0.670746 -0.520133 0.405692 0.318885 1.166337 -0.343345 0.646707 0.215472 0.101503 -0.644305 -0.416196 0.824392 0.170028 -0.234393 -0.339164 -0.056087 -0.191474 -0.385530 0.161783 0.978298 -0.948317 0.009560 0.666686 -0.014098 0.284038
39 -0.112806 -0.902024 0.533580 -0.407077 0.430363 0.038783 -0.273941 0.120757 0.019442 0.240855 -0.137867 0.254896 -0.013946 0.063147 -0.287288 0.041752 0.070945 0.205997 0.465789 0.459995 0.011738 -0.350786 0.226491 -0.513506 -0.362828 -0.209861 -0.185486 0.300618 0.228085 -0.322948 -0.297442 0.251341 -0.350534 0.581487 -0.586485 0.097207 -0.210858 -0.204777 -0.218998 -0.023905 -0.275300 0.602755 -0.349856 -0.339105 -0.207664 -0.260592 -0.283744 -0.339936 0.025446 0.279572 -0.636441 0.254662 -0.338319 -0.130691 -0.262653 -0.791468 0.724266 0.290291 -0.171697 -0.640990 0.268994 -0.128003 -0.432350 0.266422 -0.451843 0.447281 -0.575049 -0.079101 -0.082095 -0.065666 -0.091037 -0.292857 0.721579 -0.201019 0.910691 0.001431 0.339920 0.344268 0.295501 0.445926 0.317385 -0.590933 -0.214615 -0.169541 -0.006093 0.270974 0.509004 -0.370993 0.450903 0.118872 0.299549 0.267510 -0.149866 -0.108534 -0.087962 0.650560 -0.126481 -0.413595 0.220811 0.241095 -0.526451 -0.321295 0.075815 -0.317654 0.270115 0.741014 0.419674 0.905659 0.078432 0.336389 -0.095741 0.320043 -0.079701 -0.439377 0.776953 0.372252 -0.342303 0.017516 -0.243824 -0.529887 -0.117816 0.157630 0.069492 -0.598356 -0.023030 0.526958 0.007444 -0.205834
108 -0.097680 -0.854376 0.512327 -0.379472 0.404016 0.036716 -0.260405 0.118728 0.022988 0.239768 -0.117737 0.232546 -0.015168 0.050628 -0.267188 0.040015 0.067874 0.192546 0.443209 0.436435 0.012443 -0.331691 0.216928 -0.481193 -0.333664 -0.192100 -0.184066 0.268248 0.214063 -0.302807 -0.278919 0.254513 -0.337790 0.560524 -0.563344 0.099475 -0.192300 -0.190013 -0.207157 -0.002675 -0.266818 0.567502 -0.337912 -0.315043 -0.198456 -0.252833 -0.278569 -0.328681 0.020128 0.258074 -0.598772 0.227059 -0.317827 -0.121293 -0.255709 -0.758548 0.674972 0.263258 -0.165576 -0.602605 0.266147 -0.132678 -0.409670 0.266381 -0.424609 0.409979 -0.537586 -0.074410 -0.088642 -0.068682 -0.096490 -0.283107 0.689315 -0.195131 0.846740 0.011506 0.320827 0.316405 0.270202 0.428128 0.283747 -0.560562 -0.209571 -0.152550 -0.012236 0.258973 0.475036 -0.364854 0.443736 0.100806 0.304872 0.247372 -0.141775 -0.105331 -0.078739 0.609026 -0.121517 -0.395339 0.198575 0.225504 -0.497257 -0.314133 0.095510 -0.297262 0.238132 0.693015 0.404383 0.852765 0.077250 0.332172 -0.089916 0.298084 -0.070718 -0.417745 0.741996 0.368196 -0.324747 0.020647 -0.227169 -0.492122 -0.114965 0.148437 0.064437 -0.562218 -0.032464 0.493111 0.007633 -0.194020
173 -0.094596 -0.862963 0.523026 -0.374234 0.403007 0.033724 -0.261127 0.120090 0.025515 0.239653 -0.121366 0.231201 -0.017531 0.053703 -0.269940 0.038165 0.072552 0.197659 0.450071 0.436158 0.013868 -0.340042 0.218721 -0.488146 -0.332443 -0.194414 -0.182330 0.274609 0.216000 -0.301845 -0.279931 0.255457 -0.337236 0.566097 -0.568946 0.099522 -0.191124 -0.189073 -0.213129 -0.001486 -0.273960 0.572842 -0.343698 -0.316331 -0.200166 -0.260108 -0.277211 -0.325365 0.025063 0.259138 -0.597580 0.228453 -0.320546 -0.128608 -0.250166 -0.756641 0.677387 0.274929 -0.170884 -0.606231 0.271104 -0.133222 -0.412484 0.264425 -0.424795 0.413570 -0.542549 -0.067598 -0.087589 -0.065534 -0.095305 -0.285339 0.696170 -0.199179 0.863219 0.013174 0.323497 0.326115 0.274379 0.433437 0.286644 -0.561297 -0.206805 -0.153649 -0.010541 0.257920 0.475499 -0.361007 0.443826 0.105169 0.306670 0.247910 -0.139899 -0.108171 -0.083364 0.611334 -0.121065 -0.401019 0.195844 0.223879 -0.508339 -0.321007 0.095279 -0.299104 0.246806 0.699389 0.405928 0.859472 0.079392 0.336469 -0.085267 0.296644 -0.070931 -0.418563 0.748154 0.364021 -0.322934 0.020357 -0.227414 -0.495104 -0.116899 0.152471 0.068956 -0.569112 -0.035260 0.495653 0.009485 -0.191404
224 -0.101335 -0.869919 0.510752 -0.381560 0.421319 0.028691 -0.283358 0.104670 0.019055 0.217644 -0.130640 0.241220 -0.032843 0.049332 -0.260565 0.051379 0.069145 0.179949 0.432298 0.441573 -0.002916 -0.356220 0.207855 -0.495456 -0.361174 -0.197920 -0.157193 0.262003 0.222075 -0.288874 -0.310622 0.250956 -0.315841 0.567858 -0.580562 0.081498 -0.193577 -0.216347 -0.202376 0.004791 -0.291276 0.575782 -0.333823 -0.299690 -0.189240 -0.277403 -0.271319 -0.355781 0.007645 0.283815 -0.610245 0.210102 -0.323675 -0.127593 -0.256795 -0.772184 0.673918 0.256950 -0.156183 -0.580590 0.287773 -0.131591 -0.414362 0.258224 -0.435809 0.415233 -0.547960 -0.081056 -0.102123 -0.080456 -0.096977 -0.304885 0.708851 -0.219252 0.849993 0.014500 0.348711 0.314171 0.272714 0.431414 0.290866 -0.534484 -0.210779 -0.150038 -0.015339 0.258851 0.486576 -0.374496 0.454353 0.110657 0.299748 0.244388 -0.101071 -0.120963 -0.057423 0.587785 -0.109504 -0.396331 0.192005 0.213776 -0.495081 -0.305755 0.104035 -0.311382 0.215672 0.703095 0.421790 0.851767 0.075528 0.335486 -0.078293 0.314768 -0.110168 -0.412759 0.748781 0.396904 -0.346475 0.022556 -0.231435 -0.494454 -0.117881 0.142923 0.049981 -0.578885 -0.041414 0.497861 -0.006714 -0.178501
221 -0.089952 -0.873088 0.531688 -0.395167 0.431615 0.046626 -0.273202 0.123635 0.041264 0.207962 -0.107100 0.244308 -0.018526 0.042262 -0.245656 0.057740 0.061626 0.169122 0.440069 0.418860 -0.015873 -0.333508 0.191479 -0.493208 -0.311349 -0.205913 -0.178579 0.276026 0.254604 -0.258108 -0.317877 0.231073 -0.347774 0.578236 -0.567279 0.084074 -0.167658 -0.209643 -0.210061 -0.013094 -0.280574 0.593918 -0.337709 -0.314753 -0.184785 -0.243032 -0.265310 -0.346803 0.012464 0.245994 -0.598894 0.249198 -0.327617 -0.107580 -0.273050 -0.778203 0.649919 0.277628 -0.148212 -0.616052 0.319305 -0.157475 -0.419749 0.261776 -0.422030 0.396935 -0.508922 -0.100027 -0.085834 -0.066721 -0.111681 -0.308077 0.686399 -0.152980 0.870060 0.000310 0.326733 0.295552 0.229838 0.426916 0.296016 -0.547491 -0.241623 -0.134080 -0.007816 0.272526 0.474876 -0.364998 0.450921 0.090486 0.333209 0.219685 -0.113706 -0.129912 -0.054248 0.602984 -0.121267 -0.421938 0.208251 0.189546 -0.517610 -0.318507 0.089438 -0.338578 0.222753 0.689701 0.435644 0.865994 0.057777 0.321046 -0.079016 0.293918 -0.097244 -0.426656 0.762090 0.372672 -0.347977 0.014315 -0.252987 -0.489226 -0.149583 0.160608 0.085100 -0.574110 -0.039189 0.494688 -0.026906 -0.167845
220 -0.390658 -0.616265 1.063817 -0.754690 0.525237 -0.216995 -0.136472 -0.232388 0.171615 0.272817 -0.215171 -0.668393 -0.776615 0.423966 -0.323338 0.264690 -0.227608 -0.348896 0.757725 0.273303 0.292534 -0.932460 0.597232 -0.633530 0.401013 -0.406122 0.015007 0.302526 0.774268 -0.104620 -0.008777 0.262275 -0.025795 0.477315 -0.716361 0.086331 -0.699935 -0.073328 -0.128148 0.122952 -0.382815 -0.132373 -0.813794 0.226723 0.152927 -0.019605 -0.425942 -0.291899 0.415155 0.467102 -1.076010 0.203643 -0.528539 -0.619795 0.309523 -0.285792 0.844489 -0.057204 -0.666974 -0.406006 0.692248 -0.166933 0.156012 0.042574 -0.363629 0.236841 -0.727620 0.201922 -0.372262 0.261431 -0.509646 -0.765512 -0.189954 -0.043801 0.734761 0.252814 0.452001 0.071743 0.479809 0.118551 0.106922 -0.242764 0.071789 -0.214125 0.033047 0.066771 -0.080858 0.310645 0.555499 -0.136809 -0.046519 0.147636 0.459099 0.421070 0.019386 0.495492 -0.069258 -0.246384 -0.187039 0.157107 -0.721046 0.226878 0.728326 -0.651577 -0.531894 0.391395 0.294215 1.138226 -0.341041 0.639757 0.216322 0.101412 -0.648546 -0.416549 0.810953 0.172660 -0.231621 -0.328247 -0.052899 -0.172346 -0.383763 0.160897 0.966205 -0.931764 0.021391 0.649653 -0.024647 0.288845
233 -0.286557 -0.610141 0.758843 -0.252378 0.534477 -0.098241 -0.253053 -0.015414 -0.299627 0.103151 -0.216891 -0.560757 -0.505814 -0.070509 0.066470 0.315953 -0.434815 -0.036433 0.399532 0.402576 0.148306 -0.985750 0.228256 -0.347607 -0.258297 0.027014 -0.232385 -0.320378 0.669686 0.093956 -0.044342 0.599341 -0.001832 0.534124 -1.106754 0.036011 0.080103 -0.097473 -0.067976 0.053316 -0.483726 -0.110898 -0.033191 0.498522 -0.148429 0.028463 -0.520399 -0.628092 0.136860 0.820425 -0.833868 -0.245538 -0.566308 -0.605843 0.175751 -0.676373 0.578608 -0.163718 0.265356 0.083469 0.799303 -0.513161 -0.418700 0.073549 -0.110961 0.196631 -0.719950 0.295539 -0.581499 -0.129187 -0.430849 -0.537436 0.506424 -0.399079 0.052373 0.135338 0.642841 -0.218685 0.525125 0.331556 0.400888 -0.173178 0.231974 -0.195297 -0.655718 0.210608 0.404171 -0.705608 1.024152 0.197468 0.262745 0.325390 0.447996 -0.333456 0.275079 0.558427 0.025494 -0.299542 -0.166216 0.085023 -0.797413 -0.112622 0.996635 -0.264064 -0.613187 0.055432 0.259396 0.790092 -0.227907 0.723856 0.215066 0.374988 -0.474148 -0.545554 0.748961 0.937472 -0.656009 -0.075182 -0.340864 -0.235675 -0.465058 0.150360 -0.021067 -0.769240 0.138304 0.497619 -0.214021 -0.222661
147 -0.128834 -0.129040 -0.183459 -0.009823 -0.120244 0.021051 -0.308235 -0.074827 0.206505 0.207260 -0.173375 0.227627 -0.072415 0.098614 0.033417 -0.088942 -0.228921 0.101094 0.039148 0.632053 -0.436738 -0.230388 0.325078 -0.364299 -0.585370 -0.025909 0.119899 -0.139035 0.351175 -0.134185 -0.252956 0.139216 0.190800 0.285527 -0.567826 0.174572 -0.290168 -0.136839 -0.050998 -0.059690 -0.104350 0.482240 0.099033 -0.165311 -0.271525 -0.348700 -0.351406 -0.144650 -0.129438 0.186388 -0.546797 -0.149420 -0.171153 0.029730 -0.296918 -0.517330 0.538748 -0.105228 0.275516 -0.237185 0.198028 -0.182567 0.000998 0.029667 -0.288723 0.679551 -0.317675 -0.188135 -0.612098 -0.294726 -0.019342 -0.202869 0.517628 -0.207200 0.091278 0.108444 0.331895 0.104386 0.437369 0.064748 0.321477 -0.309178 0.053817 0.116878 -0.161644 0.292421 0.381473 -0.546846 0.438357 0.119514 -0.075060 0.382533 0.051616 -0.092165 0.093891 0.108446 -0.188742 -0.267290 0.204487 0.220138 0.042287 0.208493 -0.020448 0.004779 -0.024294 0.215970 0.127401 0.479046 0.292564 -0.225520 -0.070189 0.084460 -0.281799 -0.128936 0.326295 0.373440 -0.191464 0.453346 -0.106662 0.043397 0.055547 0.229088 0.090810 -0.120737 0.132541 0.133276 -0.203493 -0.015901
73 -0.114399 -0.891476 0.524163 -0.404238 0.426623 0.033470 -0.266236 0.118312 0.018732 0.232583 -0.137860 0.242302 -0.016200 0.063829 -0.286882 0.039414 0.071183 0.199278 0.459751 0.452455 0.010023 -0.359004 0.213303 -0.515119 -0.357568 -0.206255 -0.172921 0.293751 0.232695 -0.326745 -0.295139 0.249402 -0.337840 0.575256 -0.585454 0.099353 -0.214179 -0.204249 -0.213523 -0.023810 -0.281105 0.587904 -0.348279 -0.327715 -0.206328 -0.261178 -0.282342 -0.340953 0.030529 0.276796 -0.630774 0.245536 -0.329946 -0.128266 -0.256691 -0.786840 0.713754 0.281093 -0.167927 -0.628641 0.265445 -0.135782 -0.420952 0.259475 -0.447553 0.442902 -0.573520 -0.075899 -0.094978 -0.067426 -0.098588 -0.287406 0.711659 -0.198223 0.896641 -0.002340 0.339988 0.334263 0.296179 0.439905 0.310656 -0.585145 -0.206134 -0.162969 -0.009935 0.263066 0.493882 -0.371411 0.457270 0.116875 0.292506 0.261414 -0.146059 -0.101338 -0.081098 0.633492 -0.119406 -0.409467 0.211970 0.235400 -0.516542 -0.313718 0.078896 -0.316916 0.260004 0.730203 0.412272 0.891138 0.074379 0.332993 -0.091123 0.312449 -0.082666 -0.432427 0.768107 0.368889 -0.340940 0.025715 -0.224299 -0.515853 -0.114991 0.156002 0.068109 -0.587527 -0.018594 0.520780 0.010704 -0.195004
68 -0.107698 -0.207382 -0.046437 -0.090933 -0.106902 0.039139 -0.396352 -0.019608 0.151040 0.252230 -0.048811 0.294073 -0.091068 0.224176 0.019497 0.052512 -0.107002 0.052051 0.219905 0.607806 -0.282219 -0.035069 0.211824 -0.153573 -0.386896 0.056579 0.046380 -0.124683 0.311625 0.180065 -0.179757 0.004574 -0.014239 0.179070 -0.578535 0.047870 -0.244098 -0.089968 -0.198069 -0.296465 0.153559 0.310523 0.085815 -0.154721 -0.128533 -0.285262 -0.249726 0.058908 -0.129608 0.186882 -0.368354 0.015037 -0.158964 0.089146 -0.264564 -0.234967 0.527434 0.004137 0.042903 -0.344194 0.208665 -0.023442 0.151385 0.048362 -0.326611 0.661982 -0.234982 -0.238383 -0.336062 -0.297530 -0.129598 -0.131895 0.309489 -0.058490 0.041052 0.139976 0.224152 -0.030830 0.182603 0.197467 0.207545 -0.357270 0.059311 0.113819 0.089117 0.351416 0.294916 -0.188629 0.096556 0.164074 -0.017077 0.188073 -0.035268 -0.061676 -0.008938 0.236134 -0.090126 -0.259129 0.191536 0.161062 0.061480 0.149532 0.016321 -0.061630 0.176054 0.155769 -0.068737 0.357086 0.256875 -0.123369 -0.095562 -0.061838 -0.125762 -0.288652 0.325413 0.183485 -0.199433 0.386011 -0.148269 0.133302 -0.036652 0.318785 0.058018 -0.197252 0.040488 0.184388 -0.280275 0.150566
