251 128
85 -0.330301 -0.262764 0.105139 0.143258 -0.180519 0.008341 -0.081629 0.026558 -0.021796 0.287391 -0.025981 0.204983 -0.209737 0.112927 0.144873 -0.018961 0.099425 0.035633 -0.000755 0.209588 0.166420 -0.243708 0.160225 -0.166355 0.192894 -0.252009 -0.178743 -0.136656 0.172796 -0.164948 0.127236 0.066601 0.194503 0.014296 -0.109825 -0.112163 0.173365 0.155909 0.057529 0.262170 0.049598 0.174028 0.172867 -0.077510 -0.108502 0.275598 0.069064 -0.333563 0.166951 0.040140 -0.098538 0.031361 0.072121 0.295481 -0.251217 0.137167 0.328628 0.168823 -0.253503 -0.372238 0.113907 -0.209090 0.008366 0.101111 0.121814 0.433427 -0.214544 0.035458 0.203882 0.075386 -0.002017 0.268667 0.092255 -0.082023 0.298160 0.033280 -0.129332 0.404103 0.153779 -0.120343 0.345330 -0.147137 0.032330 -0.174595 -0.029351 -0.045727 0.053263 -0.080203 -0.150155 0.188401 0.183289 0.322853 -0.046569 -0.214948 -0.310671 0.114741 -0.256987 0.058637 -0.050270 0.184956 -0.240124 0.034933 -0.059566 0.210401 0.022257 0.102863 0.014783 0.096639 0.064479 -0.012675 0.153902 -0.198724 -0.046532 0.064424 0.210740 0.138913 -0.001001 0.150836 -0.058910 -0.377782 0.288627 0.159582 -0.123408 -0.062528 -0.205152 0.099312 0.017174 0.099796
212 -0.243477 -0.095279 -0.036054 0.018548 -0.229988 -0.005804 -0.266067 0.101998 0.140953 0.213056 -0.050120 0.270191 -0.314610 0.163960 0.235879 0.063686 0.003005 -0.074114 0.162967 0.058233 0.104156 -0.090305 0.214306 -0.366958 -0.026719 -0.110943 0.037084 -0.147069 0.422311 0.268055 0.192796 -0.074344 0.026641 0.060469 -0.340518 -0.076731 0.231242 0.161421 -0.213957 0.287458 0.112829 0.185474 0.289078 -0.080576 -0.285540 0.258367 -0.124521 -0.233039 -0.080775 0.109383 -0.161444 -0.002186 0.152321 0.445667 -0.409893 0.096818 0.127758 0.078937 -0.078844 0.148549 0.156639 -0.242280 0.049477 0.089589 -0.061397 0.293650 -0.182698 -0.108891 -0.025430 -0.162161 0.003098 0.305591 0.113755 -0.095888 -0.030625 -0.032615 -0.021737 0.198060 0.247015 -0.087996 0.172462 -0.153981 0.004110 -0.002145 -0.034336 -0.075436 -0.189381 -0.024168 0.127341 -0.135251 0.090990 0.426427 -0.185440 -0.123058 -0.052165 0.164794 -0.325163 -0.065834 -0.122942 0.123655 -0.203212 0.193817 -0.186897 0.088600 0.136878 0.146783 -0.162965 0.003185 -0.132973 -0.532136 0.040178 -0.223864 -0.134771 -0.002864 0.185002 0.180104 0.107153 0.357516 -0.141117 -0.037287 0.183899 0.116585 0.378442 0.140021 -0.032259 -0.037676 0.003017 0.049123
160 -0.045121 -0.066895 0.108484 -0.341143 0.036600 -0.144847 -0.050821 0.087953 0.167041 0.045985 -0.133559 0.023948 -0.098305 0.151854 0.252662 0.013096 0.059046 -0.046786 0.045296 0.107559 -0.219514 0.115089 0.170395 -0.026063 -0.190324 0.160416 -0.063653 -0.078128 -0.126946 0.070150 0.039202 0.058018 -0.039966 -0.054997 -0.042271 0.138946 -0.134641 -0.285216 -0.138296 -0.054919 0.329720 0.065853 0.352379 -0.319651 -0.145296 -0.062442 0.144950 -0.143796 0.168479 0.215786 -0.163267 0.217814 0.066898 0.426093 -0.601020 -0.190101 0.149506 -0.248679 -0.065215 -0.152613 -0.027770 -0.335338 0.088986 0.251330 -0.156358 0.191949 -0.044107 -0.375348 -0.314189 -0.129822 -0.065306 0.032834 0.271650 -0.035540 -0.038880 -0.010437 0.167780 -0.028333 -0.177421 -0.027860 0.123834 0.253545 -0.249560 -0.039308 0.315807 0.041151 -0.155409 -0.113478 0.192297 -0.090304 0.249079 0.249752 -0.211573 0.220167 0.286933 0.278879 -0.130100 -0.008165 0.197917 0.034831 0.075437 0.041273 0.054882 -0.286697 -0.076079 0.122216 0.107811 0.307657 -0.115678 -0.214435 -0.223831 0.179957 -0.002832 -0.152574 -0.030459 0.060325 -0.193400 0.317329 -0.191590 0.123829 -0.001526 0.259870 0.063616 0.106765 -0.018242 0.257411 -0.078915 0.130493
149 -0.320520 -0.082040 -0.154709 -0.084757 -0.155259 0.009916 -0.222030 -0.028776 0.239217 0.232522 -0.011861 0.179331 -0.324266 0.263434 0.243448 0.142070 -0.027090 -0.100791 0.181502 0.176567 0.044757 -0.102687 0.102354 -0.241529 0.012112 -0.072662 -0.090938 -0.099249 0.310469 0.248148 0.212168 -0.060673 0.040408 -0.056718 -0.176862 0.019262 0.162479 0.215881 -0.248743 0.217481 0.161051 0.256087 0.270463 -0.167188 -0.232849 0.343100 -0.065663 -0.232800 -0.014640 0.050482 -0.258270 0.026900 0.202858 0.344789 -0.406498 0.015056 0.199946 -0.041614 -0.040573 -0.046450 0.095059 -0.213405 0.024586 0.103163 -0.079961 0.318336 -0.141584 -0.101106 -0.052210 -0.142691 0.012292 0.282584 0.011424 -0.003919 0.025166 -0.121189 -0.036065 0.155319 0.128539 -0.097135 0.282612 -0.073674 -0.007606 0.078566 -0.000711 -0.070937 -0.162634 -0.095251 -0.010776 -0.053493 0.184246 0.355143 -0.041555 -0.086511 0.107261 0.161880 -0.422909 -0.062263 -0.017684 -0.055996 -0.130742 0.225720 -0.257140 0.075959 0.105476 0.049772 -0.113774 0.122980 0.009253 -0.469501 0.095563 -0.171097 -0.118716 0.026483 0.131574 0.148277 0.038189 0.385645 -0.088071 -0.006476 0.161529 0.169400 0.314855 0.311782 -0.049933 -0.040199 -0.074408 0.098722
66 -0.204470 -0.034257 0.207391 0.038484 -0.323897 -0.099734 -0.154396 0.244549 -0.062692 0.201379 -0.024928 0.070910 -0.117460 0.030041 0.112867 0.044389 0.056524 0.021318 0.074027 0.091067 0.058171 -0.080909 0.118324 -0.273698 0.074819 -0.149490 0.006098 -0.110686 0.298829 0.126388 0.156038 -0.130724 0.143162 0.035209 -0.401334 -0.154248 0.310189 0.127988 -0.026717 0.097897 0.178321 0.093923 0.223684 0.004869 -0.056397 0.146500 -0.097689 -0.281010 0.082406 0.123568 -0.155370 0.132038 0.166418 0.421830 -0.078603 0.041740 0.239499 0.191386 -0.021920 -0.131740 0.101730 -0.152747 0.143887 -0.205039 -0.059512 0.339309 -0.203745 0.061755 0.000709 0.022338 0.059262 0.156810 0.089491 -0.145547 0.168755 -0.087571 0.057307 0.178261 0.125459 -0.204193 0.185090 -0.193536 0.091832 -0.275710 -0.067797 -0.107873 -0.195857 -0.138029 0.188782 -0.045580 0.089880 0.349835 -0.257927 0.087942 -0.216017 0.029163 -0.264795 -0.029747 -0.135587 0.137178 -0.268684 0.203114 -0.007655 -0.031147 -0.091780 0.228330 -0.119118 0.052691 -0.257110 -0.288963 -0.065122 -0.362426 -0.122701 0.044361 0.204592 0.063990 0.120461 0.430865 0.049416 -0.183141 0.156435 0.188634 0.177287 -0.159837 -0.121373 0.196758 0.113962 0.061261
88 -0.311221 -0.198603 0.043743 -0.001975 -0.151789 -0.092403 -0.212199 0.044760 0.001851 0.097053 -0.009353 0.159661 -0.285656 0.077339 0.210066 -0.183695 0.154962 -0.036054 0.065613 0.076574 0.128379 -0.100079 0.079022 -0.174648 0.242929 -0.164751 -0.125426 -0.221000 0.180858 0.053773 0.132229 0.043752 0.194771 0.003728 -0.100677 -0.178486 0.235992 0.103032 0.002370 0.315144 0.100878 0.119722 0.212595 -0.057401 -0.127676 0.249848 0.060445 -0.297457 0.092402 0.126116 -0.144763 -0.026477 0.009046 0.397059 -0.227922 0.163579 0.142973 0.115792 -0.237531 -0.304719 0.018122 -0.265314 0.105384 0.104937 0.141458 0.268724 -0.127841 -0.076910 0.159159 -0.023228 -0.091825 0.252940 0.055568 -0.176333 0.256809 0.037794 -0.002188 0.408328 0.043448 -0.101218 0.291719 0.003452 -0.044359 -0.140072 -0.046601 -0.084696 0.010853 -0.123440 -0.149029 0.042504 0.103140 0.304732 -0.089601 -0.152536 -0.159082 0.126953 -0.213678 0.007645 -0.030855 0.101357 -0.159527 0.142796 -0.004327 0.187868 -0.069999 0.094297 -0.119170 -0.005508 -0.147292 -0.140122 0.103744 -0.202077 -0.129315 -0.067813 0.036091 0.147336 -0.039045 0.189369 -0.003080 -0.279269 0.270328 0.178222 0.055333 -0.032636 -0.165247 0.195328 0.038047 0.098740
65 -0.390725 -0.038446 0.202353 -0.270212 -0.092823 -0.070210 0.163492 0.051488 -0.036917 0.121807 -0.104304 0.078365 -0.174997 0.332306 0.039796 -0.051525 0.093208 -0.078744 0.008473 0.094175 -0.155827 -0.129042 0.136232 0.159360 0.153538 -0.165235 -0.336066 -0.004174 -0.112563 -0.024765 -0.094528 -0.060057 0.053661 -0.007741 0.030063 0.172266 -0.103365 -0.282293 -0.184586 -0.017748 0.331227 0.121263 0.172693 -0.463212 -0.094875 0.014439 0.210589 -0.306867 0.150776 0.079935 -0.198353 0.077403 0.011992 0.316771 -0.385929 -0.118448 0.109945 -0.051519 -0.023579 -0.328884 0.079503 -0.284597 0.251464 0.389979 0.012118 0.218487 -0.105946 -0.228990 0.048278 -0.132199 0.133392 -0.025211 0.057769 0.208490 0.125872 0.127572 0.033623 -0.085643 -0.133169 -0.194323 0.165172 0.296431 -0.333040 -0.141918 0.323363 -0.104158 -0.020593 -0.155240 -0.080324 0.039351 0.203841 0.178212 -0.064347 0.139744 0.029348 0.048574 -0.138531 0.114726 0.146982 0.035260 -0.068146 -0.000319 0.035490 -0.053453 -0.158401 0.270687 -0.035655 0.072953 -0.172234 0.177025 -0.175261 0.053358 0.193421 -0.086501 -0.069235 -0.054694 0.000461 0.467850 -0.124076 -0.026224 0.079551 0.363169 -0.221618 -0.035756 -0.202882 0.348737 -0.011814 -0.030319
127 -0.370485 -0.187221 0.108940 0.032016 -0.150646 -0.002270 -0.128682 0.058944 -0.010738 0.122966 0.018740 0.164022 -0.343603 0.233075 0.148374 0.047160 0.096099 -0.061012 0.216049 0.148120 0.110332 -0.182986 0.038372 -0.291917 0.185201 -0.048977 -0.206793 -0.116146 0.248302 0.034754 0.093903 -0.092175 0.143181 -0.005463 -0.179825 -0.047961 0.221574 0.150937 -0.150006 0.209397 0.170346 0.228118 0.221258 -0.157685 -0.046409 0.364128 -0.023857 -0.151436 0.042469 -0.025351 -0.163802 0.033126 0.104916 0.367267 -0.334294 0.070012 0.228799 0.268539 -0.173474 -0.462010 0.094940 -0.181781 0.083494 0.138371 -0.080028 0.353851 -0.216261 -0.049950 0.165978 -0.099467 -0.084479 0.305703 -0.072512 0.015131 0.335508 -0.098052 -0.089728 0.439349 0.065507 -0.145443 0.396892 -0.264720 0.005245 -0.108245 -0.026535 -0.160851 -0.123492 -0.082726 -0.029283 -0.035022 0.232911 0.331962 -0.222463 0.002234 -0.021630 0.115455 -0.353821 -0.065062 -0.105744 0.241751 -0.149209 0.194063 -0.068011 0.104444 -0.001493 0.168139 0.007790 0.113722 -0.177432 -0.306716 0.090974 -0.306239 -0.240796 0.094036 0.176160 0.185434 -0.046218 0.240403 0.063648 -0.188958 0.280024 0.175354 0.119620 0.096454 -0.110807 0.124297 -0.013570 0.067619
28 -0.259283 -0.177514 0.073135 -0.027196 -0.172028 -0.033235 -0.008048 0.138739 -0.054736 0.242134 0.005057 0.039494 -0.282158 -0.018168 0.161653 0.089772 0.101944 -0.071717 0.077989 0.278285 -0.005559 -0.065414 0.108442 -0.145904 0.187307 -0.052705 -0.060984 -0.076187 0.112271 -0.078816 0.178114 -0.125820 0.164226 -0.151007 -0.334869 -0.223702 0.303109 0.187021 -0.017021 0.028220 0.189586 0.195713 0.317740 -0.070851 -0.082386 0.217270 0.008680 -0.191271 0.045106 0.044600 -0.194649 0.171480 0.106784 0.338982 -0.281221 -0.039937 0.057416 0.054118 -0.015595 -0.259151 0.211539 -0.371479 0.143012 0.028012 -0.025627 0.221168 -0.236387 0.048269 0.032990 -0.088089 -0.113631 0.076561 -0.051795 -0.121238 0.165582 0.019582 0.057662 0.371229 -0.002141 -0.278482 0.307183 -0.150937 0.135563 -0.155797 -0.055818 0.008419 -0.073825 -0.193434 0.083361 0.036404 0.226540 0.237584 -0.053100 -0.018877 0.030055 0.085500 -0.188803 -0.094500 -0.023719 0.093327 -0.145088 0.063056 -0.000430 -0.005067 -0.087822 0.219761 -0.009350 0.004995 -0.153693 -0.318450 0.111110 -0.272962 -0.173472 -0.058391 0.179736 0.111782 -0.151081 0.293590 0.073097 -0.170809 0.038805 0.281598 0.073304 0.111473 -0.035962 0.129814 -0.071658 0.187945
110 -0.273812 0.023004 0.097778 -0.416688 0.124108 -0.056121 0.124026 0.076072 0.279250 0.081784 -0.132349 0.091951 -0.031108 0.197023 0.263419 0.124083 0.061528 -0.109989 -0.038858 0.110073 -0.210335 0.052686 0.224983 0.099342 -0.102759 -0.116327 -0.152865 0.084302 -0.206364 0.032824 0.162044 0.027626 -0.122313 -0.129974 0.050446 0.300763 -0.110253 -0.255162 -0.022306 -0.111235 0.411547 0.199952 0.190532 -0.447697 -0.124472 -0.126625 0.375115 -0.077630 0.174338 0.088202 -0.238639 0.187405 0.053803 0.534637 -0.574916 -0.078731 0.144920 -0.283008 0.038385 -0.122227 0.031337 -0.368007 0.280646 0.418753 -0.108343 0.348512 0.026184 -0.286415 -0.245505 -0.035654 0.171357 0.006904 0.065532 0.244360 0.078322 -0.099014 0.188515 -0.160116 -0.155793 -0.134897 0.178912 0.401577 -0.311594 -0.036442 0.341224 0.013378 -0.157860 -0.021463 0.139978 -0.125266 0.251393 0.179801 -0.131208 0.274048 0.305272 0.214727 -0.220380 -0.069458 0.179570 0.047508 -0.043219 -0.059152 -0.065251 -0.159945 -0.021442 -0.033435 0.166838 0.347144 -0.125783 -0.132869 -0.104416 0.184585 0.110241 -0.045760 -0.082081 -0.094699 -0.067357 0.260982 -0.190442 0.159397 0.096503 0.138308 0.111230 0.032797 -0.104778 0.200574 -0.160802 -0.140050
61 -0.412072 -0.140852 0.167119 0.006326 -0.194567 -0.003887 -0.055553 0.027966 -0.064177 0.179445 0.045458 0.200822 -0.253659 0.150491 0.116306 -0.019716 0.123797 -0.125241 0.150576 0.145540 0.042951 -0.235315 0.020077 -0.224526 0.247638 -0.159735 -0.215810 -0.130302 0.301480 0.000114 0.044685 -0.122505 0.194117 -0.031844 -0.202402 -0.064436 0.211255 0.101106 -0.100167 0.129903 0.156448 0.235559 0.290880 -0.200787 -0.013121 0.355618 -0.027644 -0.224906 0.165057 -0.033380 -0.222982 -0.009545 0.143595 0.399029 -0.201326 0.013990 0.192596 0.213964 -0.081329 -0.351030 0.092956 -0.230770 0.118312 0.021850 0.038200 0.363950 -0.206926 -0.006574 0.149433 -0.094489 -0.042651 0.189724 -0.011726 0.050517 0.326714 -0.027045 -0.042711 0.357886 0.093147 -0.187712 0.317100 -0.145318 -0.031576 -0.090465 -0.034869 -0.145162 -0.068100 -0.179709 -0.027803 0.036010 0.177608 0.265081 -0.193211 -0.059315 -0.133188 -0.005539 -0.299059 -0.055415 -0.053589 0.105071 -0.178729 0.151225 -0.096966 0.030489 -0.040066 0.273614 -0.066274 0.080608 -0.193791 -0.212745 0.059964 -0.258736 -0.115675 0.047343 0.132864 0.251504 0.038195 0.277688 0.125513 -0.140340 0.164822 0.238791 0.016403 0.049520 -0.134310 0.144696 0.084454 0.066328
155 -0.295946 -0.000478 0.021076 0.034449 -0.205062 0.032026 -0.134672 -0.079895 0.082261 0.199759 0.050358 0.069527 -0.217662 0.023777 0.388499 0.001272 0.102712 -0.169637 0.093919 0.241216 -0.116641 -0.178576 0.025670 -0.043444 0.182536 -0.108796 -0.105699 -0.208911 0.237965 -0.011928 0.137845 -0.186024 0.090739 -0.063794 -0.206614 -0.017039 0.305870 -0.032733 0.028171 0.084177 0.180902 0.264613 0.240057 -0.174923 -0.070418 0.219788 -0.001570 -0.207415 0.188964 0.043765 -0.271968 0.070915 0.171068 0.377531 -0.251291 -0.070543 0.150775 0.033824 0.041493 -0.265315 0.271975 -0.461670 0.238167 -0.084073 0.051164 0.356765 -0.163307 -0.133654 -0.053111 -0.060306 -0.103921 0.170305 -0.101527 0.223088 0.163349 0.051944 -0.074432 0.322971 0.134449 -0.142509 0.177392 -0.033599 -0.110811 0.105231 0.047813 -0.102289 -0.206238 -0.136698 -0.000408 0.144517 0.028288 0.168569 -0.251327 -0.069101 -0.135209 -0.015040 -0.308287 -0.134324 -0.048364 0.170626 -0.084398 0.135707 -0.093393 0.040034 -0.223617 0.041348 -0.105490 0.045677 0.011557 -0.398836 0.108110 -0.222948 -0.300409 0.096030 0.232690 0.209278 0.023218 0.382314 -0.116030 -0.137050 0.075951 0.290264 0.151280 0.160448 -0.024759 0.110862 0.004695 0.104301
50 -0.358867 -0.184391 0.009350 -0.017602 -0.161804 -0.020054 -0.136798 0.072271 0.010589 0.144642 0.052521 0.187977 -0.288929 0.205679 0.126073 -0.048514 0.117923 -0.056382 0.163781 0.167788 0.027982 -0.266400 -0.020836 -0.203373 0.198989 -0.080037 -0.215788 -0.161510 0.258947 -0.016648 0.053775 0.020884 0.153121 -0.024204 -0.098341 -0.005267 0.135627 0.033476 -0.085501 0.170561 0.106826 0.178100 0.265108 -0.146185 -0.033756 0.408762 -0.012784 -0.225964 0.175091 0.045653 -0.196403 -0.037104 0.167044 0.319250 -0.262391 0.008840 0.271452 0.188177 -0.143975 -0.425006 0.104714 -0.115737 0.033720 0.013729 -0.011633 0.362398 -0.124079 -0.099886 0.093338 -0.044325 -0.108354 0.241543 0.050824 0.017938 0.256560 -0.073793 -0.066009 0.347364 0.084030 -0.119152 0.301915 -0.181159 -0.092082 -0.028858 -0.030578 -0.118797 -0.029029 -0.135553 -0.151794 0.099214 0.223530 0.334176 -0.175564 -0.128841 -0.097099 0.030053 -0.307831 0.005263 0.032830 0.094224 -0.080737 0.211265 -0.095382 0.059339 -0.035350 0.120191 0.023917 0.161690 -0.156807 -0.132943 0.092876 -0.235405 -0.106619 0.070384 0.126673 0.239566 -0.049745 0.205834 0.003809 -0.131174 0.257969 0.197264 -0.062843 0.074531 -0.178870 0.080969 0.028766 0.146380
68 -0.303134 0.051430 -0.059674 -0.269548 -0.015862 -0.005740 -0.016303 0.063891 0.215786 0.123231 -0.096264 0.033267 -0.144454 0.140860 0.345521 0.098221 -0.036434 -0.093970 0.006112 0.087165 -0.189297 0.006179 0.122446 0.248023 -0.142408 -0.064644 -0.110053 -0.063027 -0.127969 0.081027 0.149272 -0.110659 -0.223628 -0.080182 0.028621 0.301893 -0.002037 -0.265991 -0.114551 0.006644 0.416500 0.260947 0.193023 -0.457196 -0.145262 -0.093488 0.248243 -0.196415 0.109195 0.243914 -0.219849 0.168672 0.147860 0.425415 -0.650053 -0.176870 0.131719 -0.223285 0.064203 -0.073794 0.258163 -0.517267 0.325017 0.339297 -0.094302 0.300067 -0.104143 -0.406531 -0.181593 -0.084798 0.122649 0.058045 0.061697 0.310191 -0.046677 0.027221 0.122813 -0.160007 -0.052990 -0.139539 -0.007165 0.299973 -0.364691 0.029714 0.350038 0.025151 -0.221053 -0.086985 0.011398 0.047714 0.116057 0.191882 -0.200898 0.139140 0.218505 0.100582 -0.263131 -0.081867 0.039423 0.087809 -0.042131 0.037529 0.001930 -0.060026 -0.217329 -0.055411 -0.040170 0.099934 -0.044545 -0.200896 -0.087639 0.068245 0.016113 0.023830 0.041885 -0.064169 -0.016097 0.483267 -0.370862 0.183024 0.045303 0.302696 0.127827 0.165378 -0.158231 0.245391 -0.183214 -0.021358
195 -0.148029 0.035794 0.066020 -0.277906 -0.089931 -0.116599 -0.103584 0.113162 0.152739 0.091299 -0.077785 -0.055030 -0.057776 0.163942 0.275435 0.039566 -0.043369 0.010485 0.024303 0.010997 -0.083452 0.105169 0.119499 0.140264 -0.105524 0.104376 -0.095893 -0.100523 -0.149751 0.147330 0.077673 -0.158955 -0.160640 -0.042325 -0.070304 0.094960 -0.007268 -0.254959 -0.164900 0.097277 0.458231 0.071279 0.198453 -0.347062 -0.178923 -0.077526 0.101102 -0.250229 0.011719 0.318659 -0.139412 0.216288 0.148605 0.344909 -0.522403 -0.166288 0.128084 -0.123211 -0.006263 -0.094045 0.097727 -0.366543 0.288347 0.221901 -0.111432 0.120495 -0.074288 -0.387975 -0.182419 -0.113740 0.128335 0.006356 0.157746 0.079079 -0.043261 0.049192 0.141662 -0.179293 -0.152205 -0.142150 0.042161 0.277210 -0.257869 -0.111965 0.245374 -0.066709 -0.157955 -0.158774 0.132510 -0.060029 0.153295 0.230723 -0.167461 0.290846 0.203199 0.156884 -0.268351 -0.024878 0.038164 0.085241 -0.052070 0.090558 0.183586 -0.070030 -0.222114 0.077746 -0.094742 0.016898 -0.195335 -0.278111 -0.249933 0.052412 -0.011606 -0.030251 -0.046774 -0.152984 -0.083661 0.536465 -0.234873 0.091851 0.065448 0.343342 0.038570 -0.017900 -0.090826 0.329504 -0.117251 -0.007376
153 -0.289507 0.180409 0.137579 -0.237249 -0.088818 -0.096962 0.019087 -0.019168 0.114304 0.124144 -0.052734 0.058430 -0.098975 0.199579 0.244756 0.122310 0.003549 -0.004382 -0.003744 0.000749 -0.106266 -0.003658 0.053611 0.055512 -0.071814 -0.178455 -0.147458 0.029600 0.030384 0.064511 -0.088320 -0.196372 -0.092068 0.027918 0.028222 0.264978 -0.076067 -0.273352 -0.279178 0.062386 0.435859 0.395083 0.025218 -0.483758 -0.142537 -0.228531 0.172728 -0.247843 0.195531 -0.041453 -0.077921 0.103901 0.201520 0.533782 -0.271826 -0.052824 0.132226 -0.028902 -0.011922 -0.126531 0.090530 -0.310632 0.371707 0.101763 -0.069999 0.291548 -0.101026 -0.281272 -0.183141 -0.038302 0.146389 -0.007326 0.144884 0.258846 0.103472 -0.021654 0.246340 -0.391550 -0.042403 -0.099370 0.041279 0.330739 -0.352860 0.001060 0.356091 -0.076180 -0.174901 -0.035821 0.040552 -0.225884 0.085323 0.099543 -0.102519 0.218264 0.115892 -0.045183 -0.232078 -0.149118 0.045594 -0.070488 -0.042566 0.015431 -0.047883 -0.189858 -0.182681 0.080970 -0.024576 0.138742 -0.037539 -0.106627 -0.192397 0.081305 0.094140 -0.004581 -0.068665 -0.079205 -0.017999 0.498118 -0.182428 0.143360 0.031871 0.277408 -0.043851 0.032954 -0.214367 0.217631 0.025284 -0.067573
22 -0.407319 -0.255579 0.106000 -0.133076 -0.256428 -0.094752 0.201873 0.275315 -0.276204 0.173924 -0.150275 0.152426 -0.139722 0.259162 -0.119595 0.067585 0.109376 0.071350 0.245145 0.235499 0.293297 -0.348855 0.281976 0.150179 0.039049 -0.171852 -0.285971 -0.345391 -0.000432 -0.184994 0.081261 0.016959 -0.003804 -0.225913 -0.376854 -0.199023 -0.013563 0.158451 -0.098182 0.101242 0.180074 0.252565 0.256715 -0.211108 0.118321 0.300046 0.007360 0.029077 0.054483 -0.131678 -0.154348 0.061467 0.093119 0.060946 -0.242690 -0.003102 0.314272 0.195876 -0.323000 -0.287128 -0.030386 -0.223983 0.307531 0.236536 0.084816 0.441897 -0.303189 0.081445 0.331757 0.057792 0.165861 0.175847 0.249296 0.095978 0.259297 -0.053218 -0.251308 0.208125 0.165372 -0.222711 0.401109 -0.340724 -0.045208 -0.339239 -0.011856 -0.233414 0.149822 -0.067156 -0.137363 -0.074195 0.453303 0.175218 -0.136523 0.145965 -0.077860 -0.038011 -0.074538 -0.293379 -0.004100 0.348242 -0.282511 0.012408 0.228413 0.390643 -0.082247 0.188824 0.071866 -0.016982 -0.106044 -0.010876 0.093311 -0.039420 0.005739 0.007524 0.018441 0.134116 -0.085496 0.063480 -0.040465 -0.301384 0.343557 0.062774 -0.053314 -0.093853 -0.229240 -0.043911 0.035547 -0.008034
4 -0.314996 -0.060488 0.173011 0.140510 -0.169598 0.032728 -0.204522 0.012170 -0.096035 0.147139 0.167023 0.115189 -0.146811 0.053392 0.232071 -0.015559 0.080109 -0.049341 0.079797 0.094103 0.055636 -0.197185 -0.019054 -0.306229 0.224925 -0.103210 -0.086546 -0.116566 0.313684 0.003356 0.156958 -0.169712 0.095788 0.097070 -0.328733 -0.046958 0.372107 0.120566 -0.177002 0.178301 0.281819 0.186717 0.154323 -0.094682 -0.055754 0.099227 -0.077601 -0.320495 0.136642 -0.103731 -0.101001 -0.065545 0.168944 0.448089 -0.164777 0.020383 0.143741 0.218070 -0.077429 -0.265996 0.285242 -0.290867 0.208461 -0.009615 0.092827 0.264796 -0.255164 -0.102078 -0.064228 -0.101571 -0.154945 0.132882 -0.034017 -0.021111 0.188233 -0.008120 -0.024796 0.196537 0.048462 -0.103314 0.271014 -0.184352 -0.045216 -0.029229 -0.001400 -0.062581 -0.109825 -0.049299 0.066272 -0.135668 0.140839 0.400492 -0.021613 -0.206073 -0.129517 -0.062166 -0.248506 -0.186054 -0.100626 0.056892 -0.098597 0.083061 0.044528 0.052079 -0.110914 0.120586 -0.104935 0.045033 -0.168645 -0.241468 0.003704 -0.181143 -0.044012 0.076932 0.119091 0.212996 -0.068807 0.386708 -0.103907 -0.067662 0.207483 0.167259 -0.043500 0.128572 -0.187897 0.294617 0.130064 0.061108
129 -0.408875 -0.155050 0.140726 -0.020057 -0.047237 0.017082 -0.142012 0.054783 0.003646 0.123354 0.021220 0.092811 -0.291992 0.138857 0.129516 0.036867 0.094385 -0.066516 0.199535 0.057732 0.134498 -0.113683 0.061136 -0.271252 0.140490 -0.049248 -0.149411 -0.046908 0.234424 0.117329 0.162425 -0.148379 0.069383 0.031198 -0.196858 -0.057925 0.281952 0.178054 -0.126593 0.234090 0.190522 0.308252 0.202313 -0.122089 -0.066843 0.168161 -0.042589 -0.203507 0.066833 0.004734 -0.104852 0.066310 0.122244 0.455199 -0.299228 0.035724 0.153882 0.234263 -0.166875 -0.363824 0.133402 -0.221431 0.133636 0.168791 -0.074837 0.250247 -0.275814 -0.032711 0.151562 -0.113768 -0.128948 0.218667 -0.102454 0.005800 0.269919 -0.145705 -0.020764 0.400673 0.057072 -0.167712 0.286005 -0.231423 0.012174 -0.110423 -0.026271 -0.097818 -0.160512 -0.013362 0.045234 -0.059293 0.171400 0.328390 -0.189135 -0.040139 -0.022560 0.058720 -0.321241 -0.059455 -0.159765 0.214487 -0.194120 0.114884 -0.058451 0.040195 -0.007619 0.143156 -0.029349 0.110359 -0.168288 -0.291266 0.099253 -0.292476 -0.220809 0.106859 0.136149 0.146790 -0.014291 0.306231 0.071838 -0.086957 0.297940 0.140559 0.148188 0.080722 -0.195819 0.205225 0.047503 0.051467
46 -0.349716 -0.211463 0.093372 0.042223 -0.114748 -0.031591 0.022413 0.002293 -0.015721 0.228094 -0.056778 0.207574 -0.323988 0.362239 -0.075212 -0.035201 0.123130 0.088751 -0.001257 0.204798 0.102816 -0.190087 0.054566 -0.209366 0.257188 -0.205308 -0.335737 0.013328 0.179725 -0.180751 -0.093819 0.069609 0.288020 0.054429 0.033181 0.059939 -0.040597 -0.017078 -0.061482 0.096783 0.072625 0.284212 0.196600 -0.228641 -0.164238 0.412247 0.081664 -0.379819 0.147155 -0.076526 -0.185244 0.015160 0.121079 0.296104 -0.245661 0.055701 0.444905 0.256319 -0.273644 -0.652626 0.026084 -0.022541 -0.108393 0.070654 -0.087767 0.365399 -0.195552 0.029985 0.125404 0.017841 -0.027273 0.262331 0.134088 -0.038649 0.452092 -0.013334 -0.075239 0.306201 0.030820 -0.136643 0.463164 -0.121071 -0.079115 -0.184737 0.046868 -0.097217 0.112302 -0.105539 -0.227147 0.175300 0.327722 0.296113 -0.095369 -0.037241 -0.170641 0.115049 -0.344710 0.155450 0.063831 0.148018 -0.090766 0.155360 -0.147696 -0.013575 0.040242 0.271006 0.220433 0.229781 0.008685 0.124347 0.007493 -0.177001 0.024649 0.071048 0.071839 0.064805 -0.081537 0.193949 0.080751 -0.327132 0.253901 0.208997 -0.332349 -0.068528 -0.134265 0.028850 -0.052997 0.189604
69 -0.293904 0.060202 -0.163991 0.016706 -0.222261 -0.008061 -0.158933 -0.213555 0.288297 0.319191 -0.074961 0.148573 -0.138280 0.181070 0.275376 0.232771 -0.128934 -0.036057 0.077821 0.135859 0.007923 -0.018230 0.053913 -0.056854 -0.175759 -0.242008 -0.055726 -0.135550 0.325822 0.212989 0.040752 -0.194742 -0.085496 -0.014573 -0.123639 0.103461 0.108558 0.098093 -0.292616 0.136714 0.244120 0.418424 0.195578 -0.303808 -0.321606 0.198609 -0.037907 -0.323024 0.092948 -0.105517 -0.270026 0.034386 0.329037 0.375196 -0.322658 -0.087031 0.324001 -0.000669 -0.019478 0.119858 0.119687 -0.352337 0.077685 -0.118222 -0.115775 0.388774 -0.246875 -0.113614 -0.174470 -0.075691 0.166426 0.279079 0.175711 0.196645 0.040281 -0.072007 0.057562 -0.225006 0.239893 -0.004336 0.098027 0.140631 -0.149700 0.182265 0.156723 -0.089070 -0.232651 -0.129204 -0.033229 -0.084932 0.044766 0.111576 -0.045448 0.028018 0.064860 0.035050 -0.455626 -0.174366 -0.041114 -0.228121 -0.129487 0.160289 -0.375157 -0.087759 0.043379 0.054325 -0.152693 0.090020 0.252641 -0.462975 -0.013746 -0.123463 -0.068074 0.078196 0.178717 0.063570 0.170410 0.514446 -0.122018 0.012265 0.063371 0.226167 0.240635 0.296929 -0.054749 -0.138652 -0.093316 0.101998
48 -0.299360 -0.231594 0.075828 0.016935 -0.165795 0.044833 -0.100511 0.047630 -0.018130 0.208892 -0.037326 0.112246 -0.277549 0.050206 0.100007 0.010991 0.097914 -0.055192 0.153735 0.180794 0.169475 -0.245714 0.111410 -0.129881 0.188250 -0.113325 -0.085067 -0.141485 0.271460 0.003249 0.187767 -0.080213 0.114371 -0.072277 -0.251172 -0.171713 0.247204 0.192728 -0.047865 0.170486 0.083609 0.234666 0.252703 -0.025747 -0.031580 0.314262 -0.088257 -0.256862 0.079407 0.054839 -0.158564 0.037025 0.186751 0.319326 -0.319473 0.050069 0.083702 0.208780 -0.147267 -0.255616 0.155892 -0.260184 0.050117 0.053472 0.045162 0.318996 -0.278281 -0.006110 0.168566 -0.065389 -0.084296 0.200845 0.012086 -0.057193 0.185961 -0.035305 -0.164868 0.389642 0.132349 -0.223829 0.298314 -0.250132 0.052247 -0.115378 -0.088077 -0.078947 -0.059890 -0.085370 -0.046220 0.131087 0.199412 0.311678 -0.135957 -0.108521 -0.108191 0.074931 -0.272226 -0.072327 -0.154464 0.237937 -0.187599 0.070376 -0.055523 0.121858 0.003503 0.237037 -0.098937 0.058400 -0.068330 -0.242650 0.241395 -0.308167 -0.140870 0.016617 0.220971 0.190574 -0.041623 0.247041 0.015875 -0.208649 0.169412 0.192398 0.124497 0.129113 -0.216246 0.096339 0.024153 0.104789
219 -0.336714 -0.203872 0.131213 -0.005530 -0.090430 0.046458 -0.141539 -0.009386 -0.024241 0.112466 -0.014190 0.118833 -0.309236 0.055298 0.137070 -0.137528 0.135350 -0.135900 0.142684 0.169745 0.024774 -0.153149 0.000361 -0.097893 0.258508 -0.200141 -0.062940 -0.167356 0.305520 0.028473 0.166998 -0.106535 0.150244 -0.067152 -0.226312 -0.138257 0.317195 0.076588 -0.017889 0.062452 0.154872 0.171688 0.233755 -0.051099 -0.024538 0.241309 -0.055291 -0.282501 0.172480 0.075237 -0.183399 0.005882 0.097079 0.499268 -0.251875 0.051119 0.022662 0.222775 -0.071058 -0.343529 0.169787 -0.372696 0.089089 0.037661 0.036344 0.283055 -0.249319 -0.097122 0.144092 -0.108282 -0.209752 0.218929 -0.035672 -0.085155 0.247861 0.019380 -0.083118 0.405944 0.032608 -0.213653 0.229993 -0.123337 -0.071676 -0.104292 -0.008943 -0.077742 -0.087070 -0.133867 -0.057304 0.099337 0.108919 0.266156 -0.187252 -0.090372 -0.090048 0.071709 -0.214656 -0.056247 -0.108289 0.125721 -0.126272 0.065243 -0.097432 -0.016776 -0.075560 0.249432 -0.118981 0.063366 -0.192785 -0.195087 0.161750 -0.379392 -0.149380 -0.050072 0.185050 0.181927 -0.028787 0.323458 -0.000044 -0.229871 0.145646 0.284519 0.127505 0.043960 -0.189855 0.262652 0.017340 0.146747
198 -0.255889 0.056471 0.062114 -0.373988 0.009195 -0.117613 -0.137118 0.027888 0.236253 0.023575 -0.046224 -0.049760 -0.136895 0.220965 0.277143 0.018604 -0.011515 -0.014779 0.093388 -0.023434 -0.194340 0.044649 0.066860 0.194290 -0.128609 0.009523 -0.192783 -0.089342 -0.158808 0.133599 0.036559 -0.078833 -0.198943 -0.088206 0.090786 0.201763 -0.110037 -0.372264 -0.218571 0.134658 0.512075 0.200591 0.072773 -0.387979 -0.171780 -0.220071 0.195048 -0.208947 0.179680 0.183163 -0.050831 0.199084 0.142957 0.531354 -0.493519 -0.092337 0.102008 -0.173321 -0.120414 -0.287077 0.008192 -0.357976 0.388378 0.344369 -0.125880 0.253920 -0.076327 -0.468717 -0.124488 -0.092202 0.065278 0.031436 0.151823 0.195810 0.055382 -0.070847 0.216565 -0.306154 -0.208330 -0.032274 0.062726 0.381425 -0.487139 0.002188 0.423209 -0.168206 -0.177263 -0.034807 0.003064 -0.143337 0.217341 0.189157 -0.102674 0.265413 0.277130 0.117347 -0.209243 -0.070188 0.127512 -0.026562 0.008096 0.052187 0.029892 -0.115401 -0.194088 -0.082289 -0.026294 0.201345 -0.085162 -0.112032 -0.180758 0.187920 0.054997 -0.077017 -0.054250 -0.154141 -0.099239 0.509696 -0.335085 0.116721 0.196993 0.320651 -0.000231 0.016433 -0.273937 0.385001 -0.056436 -0.028521
209 -0.227550 -0.136885 -0.381384 -0.131178 -0.130130 -0.120888 -0.259418 0.213432 0.460221 0.180686 -0.005053 0.218259 -0.272539 0.099757 0.435125 0.353965 -0.119620 -0.076116 0.113655 0.124521 0.094657 -0.023816 0.179769 -0.118297 -0.218119 0.110033 0.061953 -0.139154 0.141720 0.194835 0.263996 0.088545 -0.205717 -0.245144 -0.110770 -0.098801 0.085981 0.130448 -0.312888 0.336579 0.248745 0.240497 0.417040 -0.173308 -0.304350 0.312296 -0.017657 -0.016927 0.006362 0.268974 -0.156654 0.223447 0.437304 0.351308 -0.733283 -0.040315 0.258967 -0.184493 -0.034210 0.119861 0.079270 -0.274692 -0.050923 0.034536 -0.155457 0.360174 -0.086898 -0.299581 -0.177384 -0.046129 0.107872 0.325020 0.286588 -0.067739 -0.104266 -0.171462 0.144693 -0.111270 0.096598 -0.026924 0.097941 -0.056515 -0.119364 0.149311 0.120020 0.090207 -0.152833 -0.121430 0.139660 -0.077929 0.300519 0.330162 0.004344 -0.023961 0.395816 0.135853 -0.333527 -0.232003 0.024984 -0.245066 -0.076806 0.277230 -0.195528 0.020667 0.162522 -0.169252 -0.051073 0.146644 0.051861 -0.615951 -0.004080 -0.094828 -0.112540 0.033225 0.117846 0.161026 -0.061937 0.301622 -0.203843 0.160360 0.103173 0.178725 0.430421 0.428506 -0.156252 -0.146184 -0.164956 0.138159
261 -0.329580 -0.094273 0.024343 -0.256171 -0.025694 -0.107532 0.092200 0.254786 0.125118 0.167730 -0.015411 0.063990 -0.118692 0.094609 0.309141 0.121456 0.064299 -0.043921 -0.123697 0.067194 -0.151045 0.066251 0.205131 0.147357 0.063321 -0.033750 -0.140874 0.069656 -0.424251 -0.062303 0.176808 -0.036594 -0.169456 -0.171124 0.073686 0.110210 0.066559 -0.375909 -0.063491 0.112388 0.486765 0.150421 0.262128 -0.394932 -0.270372 -0.233384 0.400958 -0.193201 0.142734 0.237479 -0.050877 0.300125 0.153803 0.470294 -0.539391 -0.116279 0.159373 -0.256466 -0.002825 -0.246010 0.213077 -0.424837 0.345503 0.328941 -0.034950 0.051693 -0.077198 -0.336384 -0.115535 -0.002913 0.162125 -0.118280 0.090827 0.153229 0.097033 0.083802 0.289165 -0.179611 -0.224990 -0.136205 0.006965 0.337571 -0.367062 -0.144205 0.344998 0.088770 0.008645 -0.092214 0.132942 0.061808 0.182922 0.202338 -0.031715 0.119977 0.224132 0.007328 -0.056988 -0.006992 0.165214 -0.052311 -0.026277 -0.031811 0.171937 -0.093825 -0.251609 -0.117397 0.081368 0.022074 -0.229350 -0.022233 -0.258538 0.140896 0.146918 -0.090978 -0.121351 -0.145443 -0.139338 0.385607 -0.354413 0.133600 0.129778 0.303553 -0.129044 -0.028712 -0.191801 0.327138 -0.097998 0.028539
26 -0.230410 -0.246634 0.145072 -0.041072 -0.209016 -0.080709 -0.120601 0.032462 -0.021067 0.220139 -0.127415 0.004453 -0.144322 0.348756 -0.032048 -0.027583 -0.024340 0.183238 0.156631 0.272442 0.175257 -0.095677 0.247660 -0.030703 0.062733 -0.001639 -0.395840 -0.246921 -0.030373 -0.049754 0.141375 0.121666 0.128203 -0.112299 -0.197633 -0.239364 0.052930 0.118184 -0.067346 0.226580 0.213040 0.058310 0.221133 -0.058350 -0.175484 0.390378 -0.005371 -0.302350 0.032608 0.045311 -0.131419 0.193917 -0.025418 0.033553 -0.334982 -0.015983 0.500843 0.186699 -0.461822 -0.563677 -0.102779 -0.110921 0.084648 0.269906 0.023013 0.310272 -0.267636 -0.032326 0.221892 0.031194 0.111539 0.277128 0.160109 -0.147479 0.232052 -0.124890 -0.304683 0.339458 -0.017889 -0.037927 0.498527 -0.197416 0.032566 -0.286834 0.019650 -0.296954 0.000863 -0.138840 -0.108855 0.159301 0.456378 0.359660 0.024269 0.205540 -0.129839 0.279371 -0.301303 0.101866 0.020190 0.236907 -0.194380 0.159059 0.129303 0.322267 -0.039486 0.110718 -0.070634 0.069225 0.064035 -0.012278 -0.086295 -0.106176 -0.094465 0.015336 0.078764 -0.040166 -0.116148 0.282770 -0.038766 -0.471179 0.451583 0.226826 -0.161897 -0.102890 -0.104509 0.132613 -0.052405 0.079109
199 -0.328035 -0.023328 0.089855 -0.358941 -0.004241 -0.059625 -0.057139 0.101042 0.186772 0.081051 -0.193700 0.018412 -0.144395 0.182853 0.145213 0.038164 0.062002 -0.024132 0.067786 0.019178 -0.131907 0.091913 0.168218 0.246301 -0.130532 -0.097637 -0.068985 -0.000248 -0.223651 0.209330 0.131534 -0.048781 -0.239622 -0.098859 0.108619 0.204672 -0.026782 -0.385281 -0.112999 0.071187 0.415680 0.213598 0.185563 -0.340972 -0.224137 -0.310807 0.193226 -0.267641 0.147761 0.224065 0.003403 0.233566 0.175666 0.559865 -0.545068 -0.132700 0.074602 -0.171510 -0.090635 -0.191702 0.001586 -0.359998 0.279979 0.353165 -0.120551 0.114146 -0.107487 -0.402551 -0.084858 -0.050841 0.105509 0.034461 0.144624 0.146324 -0.023041 -0.075890 0.138768 -0.237253 -0.177223 -0.105764 -0.076258 0.276996 -0.400094 -0.170377 0.398869 0.030630 -0.153230 -0.005827 0.060961 0.068024 0.138725 0.190569 -0.196747 0.235764 0.198417 0.077497 -0.154692 0.040250 0.057497 -0.019146 -0.076210 -0.044745 -0.039517 -0.201353 -0.153009 -0.002599 -0.037086 0.210643 -0.134953 0.009785 -0.159525 0.029883 0.175681 -0.130391 -0.043120 -0.135396 -0.005983 0.534483 -0.379917 0.137251 0.175004 0.292122 0.104188 0.014827 -0.294554 0.394860 -0.049099 0.047711
136 -0.481303 0.101400 0.146896 -0.283287 0.030785 -0.115839 0.062090 0.143518 0.038314 0.039512 -0.002214 -0.069404 -0.089468 0.212200 0.224856 0.076641 0.124084 0.016643 0.047199 -0.097482 -0.065194 -0.004977 0.040967 0.100370 -0.045373 -0.052052 -0.246854 0.032856 -0.205176 0.110544 0.082449 -0.053611 -0.120723 0.063055 0.080296 0.286191 -0.006461 -0.184938 -0.199473 0.147625 0.477268 0.229845 -0.000781 -0.474849 -0.062469 -0.349534 0.269976 -0.187422 0.114370 0.169224 -0.040614 0.208260 0.108591 0.473294 -0.369289 -0.057410 0.164141 -0.141864 -0.022107 -0.357824 -0.028432 -0.279158 0.383801 0.366970 -0.098729 0.264476 -0.095928 -0.303062 -0.041622 -0.035937 0.143603 0.015650 0.052254 0.203446 0.206470 -0.076533 0.264827 -0.209491 -0.225147 -0.143451 0.124397 0.260640 -0.339076 -0.200518 0.336036 -0.070994 -0.126651 -0.014923 0.081872 -0.232563 0.162251 0.262702 -0.124900 0.314421 0.189842 0.006859 -0.303839 -0.090772 0.018684 0.058810 -0.106991 -0.027100 0.150014 -0.084484 -0.257152 -0.031475 0.090815 0.250675 -0.164407 0.039212 -0.178787 0.131825 0.117378 0.093526 -0.073421 -0.191028 -0.042272 0.503396 -0.266975 0.075146 0.174710 0.154222 0.042649 -0.088155 -0.308691 0.522635 -0.003067 -0.135447
126 -0.406571 0.056981 0.230599 -0.146282 0.111728 -0.121242 -0.014416 0.140084 0.055731 -0.046756 -0.022686 0.167711 -0.172847 0.179057 0.037565 -0.086990 0.193018 0.022571 0.032760 -0.239203 0.232579 -0.029340 0.085358 -0.261285 0.029735 -0.163188 -0.217611 0.074354 0.272272 0.023032 0.042995 0.109408 0.207775 0.123216 0.071086 0.111260 -0.036136 0.138241 0.066681 0.131809 0.087207 0.372923 -0.051502 -0.159529 0.104884 0.051315 0.197307 -0.128341 0.176659 0.050181 -0.116614 -0.004971 0.003815 0.548750 -0.117982 0.200194 0.296113 0.202062 -0.182396 -0.449935 -0.239861 0.111069 0.106947 0.063892 -0.097324 0.542755 -0.078777 0.016724 0.170584 0.106979 0.085659 0.282062 0.024018 -0.055293 0.590031 -0.245301 0.178113 0.315097 0.032026 -0.111640 0.346748 -0.022791 -0.073006 -0.279894 0.027845 -0.149459 -0.092785 0.102458 0.003348 -0.247695 0.129582 0.317735 -0.348932 0.204106 -0.121175 0.101686 -0.440680 -0.053903 -0.174895 0.386701 -0.216917 0.129914 -0.017205 -0.020138 -0.002973 0.123226 0.222239 0.434993 -0.137164 -0.091677 0.053370 -0.146566 -0.137091 0.228942 -0.033271 -0.002287 0.100536 0.176999 0.238592 -0.155476 0.306488 -0.055247 0.125958 -0.351205 -0.346273 0.242123 0.182074 -0.094109
201 -0.167007 -0.187085 -0.218437 -0.215763 0.060487 -0.019498 -0.375342 0.050069 0.416501 0.132134 -0.293876 0.261584 -0.280745 0.153618 0.113084 0.216100 -0.167180 -0.047407 0.126264 0.055782 0.160794 0.105836 0.269115 -0.070501 -0.347971 -0.375362 0.154316 -0.066601 0.357468 0.436491 0.302112 0.009599 -0.232684 -0.198353 -0.075480 0.001853 0.026182 0.168465 -0.209055 0.092595 0.223046 0.434288 0.168180 -0.057357 -0.419628 0.062296 0.034558 -0.288123 0.115597 0.072553 -0.109626 0.069588 0.211535 0.647739 -0.500416 0.147834 0.233111 0.078128 -0.261106 0.221262 0.016925 -0.250867 0.055179 0.112997 -0.180541 0.452715 -0.211847 -0.057374 -0.017440 -0.016574 0.154665 0.337345 0.182487 -0.113016 -0.101706 -0.309163 0.070568 -0.211441 0.210238 -0.045124 0.038601 0.073865 -0.175944 0.084651 0.116347 0.029233 -0.264720 0.089227 -0.088144 -0.136912 -0.003723 0.200888 -0.090661 -0.082576 0.202435 0.244341 -0.260356 -0.130840 -0.119179 -0.154222 -0.248975 0.149824 -0.427725 -0.038636 0.307656 -0.021275 -0.251180 0.198681 0.110600 -0.426963 0.141130 -0.330368 0.012903 -0.174626 0.092777 0.017264 0.154199 0.324479 -0.142188 0.126787 0.234904 0.126013 0.508648 0.251362 -0.374545 -0.158812 -0.171647 0.083786
171 -0.125517 -0.042781 -0.051903 -0.046056 -0.166575 -0.058250 -0.274550 0.156703 0.249872 0.174913 -0.181613 0.253817 -0.226291 0.196210 0.175743 0.161592 -0.138738 0.004284 0.124785 0.010096 0.086091 0.072833 0.273637 -0.307173 -0.327138 -0.131435 0.098946 -0.160597 0.389040 0.414031 0.163341 -0.015114 -0.093909 0.083993 -0.335504 -0.022691 0.063462 0.129888 -0.282458 0.206842 0.168048 0.145895 0.309194 -0.102998 -0.349431 0.160511 -0.136418 -0.259385 -0.033743 0.207834 -0.113681 0.114220 0.167388 0.482068 -0.472414 0.062160 0.243012 0.078358 -0.124027 0.297676 0.023285 -0.198326 0.000056 0.088898 -0.233230 0.369530 -0.215328 -0.098953 -0.141751 -0.119787 0.104107 0.377021 0.296183 -0.139276 -0.134760 -0.143241 0.059371 -0.055933 0.278710 -0.042674 0.052370 -0.086404 -0.024551 -0.044887 0.078248 -0.030555 -0.293634 0.039773 0.189207 -0.276566 0.094480 0.404074 -0.191186 0.026011 0.013320 0.271093 -0.333286 -0.066137 -0.153306 0.026917 -0.311259 0.187294 -0.244091 -0.040257 0.213407 0.108428 -0.166305 0.129558 -0.060999 -0.545297 -0.135411 -0.210338 -0.113513 0.002357 0.173970 0.045884 0.184400 0.406079 -0.142627 0.018227 0.178811 0.106532 0.442801 0.043311 -0.065676 -0.090800 -0.081744 0.066252
208 -0.234333 -0.218633 0.132527 0.118667 -0.185685 0.010558 -0.151484 0.027814 0.002812 0.140758 -0.019380 0.259274 -0.255766 -0.022104 0.198897 -0.046046 0.105068 -0.167788 0.071699 0.199881 -0.003592 -0.108711 0.118588 -0.185247 0.318449 -0.218287 -0.045405 -0.172444 0.238393 -0.008745 0.186343 -0.134727 0.140000 -0.144753 -0.276009 -0.229000 0.406504 -0.000091 0.030100 0.066822 0.161713 0.213150 0.312374 0.011392 -0.154273 0.277575 0.007212 -0.234375 0.162374 -0.072654 -0.178570 -0.001651 0.089843 0.517439 -0.233224 0.038479 0.096147 0.231291 -0.103233 -0.287164 0.246931 -0.369759 0.133577 -0.017959 0.032337 0.239592 -0.204058 -0.016297 0.075370 -0.036319 -0.161438 0.202991 -0.058494 -0.042668 0.258871 0.011281 -0.087354 0.419176 0.098119 -0.082731 0.237413 -0.129540 -0.099134 -0.027954 -0.009497 -0.059085 -0.063993 -0.104462 0.012602 0.068479 0.140126 0.216668 -0.165608 -0.181902 -0.114106 0.029235 -0.091223 -0.153681 -0.071463 0.093433 -0.140813 0.054975 -0.129543 0.022626 -0.022947 0.151472 -0.072568 0.007048 -0.189583 -0.296971 0.091107 -0.306166 -0.186247 -0.092500 0.123122 0.248233 -0.037190 0.196428 -0.003411 -0.200837 0.189459 0.259706 0.091332 0.017226 -0.104704 0.123106 0.051159 0.149288
57 -0.398826 -0.193529 0.136202 -0.104495 -0.018191 -0.042805 -0.027566 0.026482 -0.005935 0.113505 -0.008631 0.170401 -0.277512 0.343343 0.011765 -0.113999 0.188550 0.002692 0.097435 0.100926 0.022275 -0.188965 0.060151 -0.190581 0.171450 -0.063608 -0.359342 -0.038002 0.106237 -0.101432 -0.036952 0.116311 0.223826 0.051623 0.064954 0.066889 -0.011847 -0.087382 -0.010851 0.182653 0.126933 0.198275 0.207449 -0.237577 -0.080513 0.289485 0.137613 -0.242768 0.178262 -0.003116 -0.117998 0.022162 0.009490 0.322394 -0.303566 0.036031 0.355565 0.164067 -0.293241 -0.652863 -0.057064 -0.030139 0.025076 0.249434 -0.036313 0.331015 -0.130852 -0.089005 0.171193 -0.018316 -0.082414 0.221097 0.051466 0.002384 0.423277 -0.072667 -0.046852 0.413241 -0.021922 -0.071594 0.402071 -0.075649 -0.148795 -0.140917 0.095021 -0.139597 0.042092 -0.065760 -0.133633 0.125083 0.291106 0.330016 -0.181807 0.026417 -0.100515 0.112635 -0.282075 0.161994 0.079284 0.219964 -0.054290 0.140392 -0.051487 0.035632 -0.019192 0.145225 0.169659 0.272713 -0.082797 0.088784 0.020359 -0.105166 -0.066381 0.076770 0.018914 0.123696 -0.081671 0.172807 0.007569 -0.204093 0.371908 0.136637 -0.242276 -0.077077 -0.173636 0.178825 0.042825 0.109894
154 -0.377658 0.023776 0.210562 -0.250241 -0.078756 -0.059741 -0.005037 0.118750 0.077304 -0.009835 0.004124 0.048656 -0.079046 0.060308 0.300406 -0.037494 0.127040 -0.189378 0.092891 0.007055 -0.262901 -0.032465 -0.011584 0.220859 0.085409 -0.150495 -0.104512 -0.153262 -0.139808 0.070784 0.089571 -0.076834 -0.148713 -0.136518 -0.085539 0.110780 0.131317 -0.400538 -0.147801 -0.009472 0.468773 0.054717 0.201677 -0.355534 -0.052041 -0.228112 0.178843 -0.122641 0.218897 0.172973 -0.100257 0.172583 0.197982 0.688023 -0.454434 -0.113292 -0.026895 -0.117095 0.071809 -0.247955 0.088596 -0.469189 0.371390 0.281206 -0.047586 0.267838 -0.071941 -0.467553 -0.110771 -0.123108 0.002996 0.046161 0.115086 0.246622 0.134460 0.002803 0.150475 -0.160228 -0.231115 -0.117451 -0.003863 0.293114 -0.526303 -0.122622 0.407380 -0.082095 -0.120061 -0.089734 0.124345 -0.148648 0.201450 0.212580 -0.177778 0.227812 0.216459 -0.030116 -0.099449 -0.184105 0.114049 -0.086009 -0.010881 -0.077584 0.026080 -0.209049 -0.225907 0.056279 0.021268 0.195465 -0.339564 -0.084347 -0.173027 0.101088 0.127475 -0.092339 0.010741 0.001179 0.002555 0.479240 -0.348634 0.048104 0.110864 0.267666 0.104936 -0.073515 -0.243168 0.533411 0.011622 -0.025662
174 -0.375192 0.014986 0.094951 -0.347389 -0.037128 -0.067721 0.055585 0.102126 0.088847 0.133516 -0.082508 0.003023 -0.098155 0.215100 0.222882 0.077112 0.012323 -0.031901 0.023399 0.071603 -0.148375 0.010282 0.146987 0.251432 -0.073625 -0.105879 -0.189148 -0.027141 -0.260417 0.085806 0.135856 -0.119252 -0.204743 -0.102861 -0.017318 0.225497 -0.041561 -0.310495 -0.209007 0.002373 0.533646 0.223316 0.147014 -0.465011 -0.188882 -0.249443 0.268768 -0.264798 0.158544 0.149350 -0.073791 0.221289 0.146802 0.493634 -0.525689 -0.118644 0.062918 -0.152840 -0.029509 -0.159916 0.156618 -0.469057 0.411234 0.394648 -0.054622 0.189119 -0.159530 -0.378477 -0.128175 -0.097866 0.150783 -0.067839 0.113911 0.208860 0.000794 0.005963 0.181801 -0.322288 -0.173718 -0.160560 0.053755 0.339292 -0.419928 -0.116424 0.386057 -0.040116 -0.111596 -0.083551 0.032384 -0.097630 0.197743 0.224856 -0.046224 0.220765 0.263667 0.043001 -0.188634 -0.109255 0.065975 -0.010208 -0.060845 -0.079164 0.101499 -0.091478 -0.214117 0.041702 -0.052373 0.099513 -0.178338 -0.045256 -0.195600 0.138571 0.223376 -0.099717 -0.103066 -0.147422 -0.117950 0.533238 -0.379130 0.123195 0.098378 0.332797 -0.040055 0.051813 -0.270979 0.383095 -0.075015 -0.052904
77 -0.052622 -0.300543 0.180634 0.062716 -0.276708 -0.195729 0.132376 0.277840 -0.247051 0.175501 -0.243661 0.082129 -0.028689 0.067017 -0.067083 0.015445 0.066692 0.205256 0.033442 0.220485 0.159337 -0.115983 0.503461 0.096183 0.028080 -0.187705 -0.181563 -0.385579 -0.202396 -0.260620 0.156706 0.043486 -0.037786 -0.177994 -0.479846 -0.341061 0.048233 0.059305 -0.026607 0.105674 0.268006 0.109682 0.326315 -0.110625 -0.200259 0.068400 0.090800 -0.101842 -0.010467 -0.074079 -0.144624 0.195318 -0.050143 0.024214 -0.370753 -0.021607 0.307905 0.145625 -0.442496 -0.112484 -0.061918 -0.382147 0.310780 0.318348 0.087228 0.339657 -0.352924 0.084746 0.149727 0.063044 0.199832 0.110559 0.398678 -0.095014 0.047895 0.030686 -0.222475 0.113038 0.147306 -0.123761 0.404594 -0.149608 -0.027603 -0.401614 0.033981 -0.205518 0.100714 -0.038947 -0.019331 -0.100034 0.389210 0.204549 -0.016923 0.184346 -0.138265 0.207929 0.058912 -0.247076 0.032160 0.360205 -0.307612 -0.122929 0.336874 0.392923 -0.027645 0.135284 -0.027230 -0.153418 -0.047892 -0.035025 -0.141025 0.113499 0.039880 -0.126585 0.045130 -0.008002 -0.101322 0.083776 -0.109501 -0.419578 0.288446 0.143550 -0.094929 -0.231914 -0.078543 -0.028896 -0.077775 -0.031118
112 -0.180673 -0.293677 0.133601 0.154439 -0.108399 -0.162089 -0.079114 0.203340 0.065513 0.120215 -0.161078 0.126802 -0.180976 -0.095324 0.148398 0.129865 0.220808 0.076229 -0.169585 0.037428 0.257053 -0.077123 0.377543 -0.031467 0.401587 -0.196807 -0.016940 0.094098 -0.250173 -0.105875 0.154137 0.038509 0.037700 -0.049055 0.176365 -0.290905 0.232242 -0.130436 0.013929 0.391957 0.209826 0.193700 0.108766 0.007768 -0.256003 -0.209222 0.206152 -0.202734 0.082288 0.153649 0.041424 0.263844 0.193620 0.403803 -0.354934 0.229809 0.263543 0.106488 -0.335876 -0.539514 -0.031276 -0.232448 -0.000251 0.122467 0.101264 0.051033 -0.174770 -0.022903 0.270046 0.232785 0.125093 0.154493 0.162191 -0.157579 0.305375 0.133247 -0.029354 0.206510 -0.010081 -0.062129 0.175480 -0.026987 -0.115875 -0.303645 0.136691 0.093166 0.179553 0.040730 -0.023850 0.253022 0.082915 0.202137 -0.082254 -0.125468 -0.155191 0.114125 0.019606 0.016324 -0.022425 0.137097 -0.231654 -0.027241 0.109051 0.091650 0.021828 0.001599 0.046619 -0.023598 0.009379 0.124250 0.049376 -0.159158 0.030333 -0.105887 0.108420 -0.129886 0.009017 0.085021 -0.125331 -0.479663 0.249868 0.239303 -0.034844 -0.154971 -0.299900 0.259609 0.008579 0.105640
108 -0.398946 0.011980 0.104161 -0.313354 0.007003 -0.045349 0.054358 0.003588 0.099794 0.158321 -0.070719 0.074170 -0.072191 0.291553 0.252547 -0.010089 -0.003920 -0.078639 -0.004212 0.035548 -0.140148 0.086849 0.080671 0.174770 -0.079637 -0.067419 -0.225901 -0.044400 -0.180089 0.106811 0.080867 -0.104134 -0.125698 -0.013248 0.029728 0.281790 -0.013999 -0.319468 -0.205790 -0.017119 0.496559 0.219785 0.220631 -0.545917 -0.226202 -0.137210 0.256609 -0.348254 0.201079 0.171258 -0.133152 0.160889 0.115646 0.508115 -0.514944 -0.213849 0.137297 -0.152387 0.005620 -0.183592 0.141074 -0.462050 0.294926 0.348770 -0.050313 0.144314 -0.160076 -0.390414 -0.171109 -0.151887 0.096037 -0.005849 0.116538 0.204325 0.056205 0.057780 0.190474 -0.228556 -0.202857 -0.109627 0.032112 0.387555 -0.414498 -0.092502 0.393536 0.015003 -0.111701 -0.146912 0.088016 -0.044100 0.169933 0.222802 -0.106269 0.230876 0.201050 0.057667 -0.263872 -0.016718 0.041143 -0.070534 -0.025816 -0.040105 0.064963 -0.189996 -0.249171 0.133387 -0.031885 0.146254 -0.167054 -0.049428 -0.292345 0.110566 0.188264 -0.075229 -0.131273 -0.052347 -0.075636 0.593052 -0.313336 0.157312 0.062756 0.345800 -0.083481 0.054195 -0.204043 0.412419 -0.050988 0.022877
200 -0.021739 -0.089464 -0.265440 -0.192617 -0.031982 -0.174724 -0.467830 -0.008796 0.498518 0.105177 -0.168102 0.192780 -0.285071 0.156466 0.211416 0.244427 -0.180842 0.022427 0.127281 0.041990 0.098805 0.060922 0.164641 -0.270288 -0.225739 -0.178521 0.083725 -0.088984 0.437859 0.356104 0.139347 -0.110444 -0.166449 -0.099280 -0.078466 0.051321 -0.027711 0.131933 -0.325450 0.249921 0.226148 0.414886 0.122750 -0.107433 -0.457394 0.174028 -0.068762 -0.274872 0.025210 -0.003158 -0.204987 0.004380 0.356574 0.604223 -0.437454 0.116614 0.223600 0.086296 -0.223470 0.166331 -0.002399 -0.130819 0.062484 -0.046080 -0.251888 0.410011 -0.101452 -0.101856 -0.186822 -0.101126 0.093924 0.298024 0.240265 -0.095872 -0.099045 -0.341975 0.177037 -0.297405 0.196448 -0.028895 0.179303 0.116703 -0.120688 0.204006 0.011012 -0.073818 -0.246987 0.011309 -0.105841 -0.337392 0.157644 0.210261 -0.056066 -0.068965 0.274543 0.261059 -0.414094 -0.184776 0.039353 -0.205382 -0.103970 0.256241 -0.439028 -0.071083 0.325868 -0.048977 -0.138821 0.218042 0.073472 -0.587837 0.089901 -0.183852 -0.094968 -0.071161 0.058345 0.021052 0.037339 0.267281 0.006090 0.181893 0.224489 0.130016 0.377569 0.269404 -0.232478 -0.290695 -0.182616 0.025942
67 -0.167747 -0.010478 -0.236524 -0.128487 -0.208776 -0.080325 -0.266335 0.031561 0.356810 0.190598 -0.145530 0.262940 -0.254423 0.200763 0.368384 0.254350 -0.096805 -0.086081 0.084080 0.153799 -0.050006 -0.063081 0.215009 -0.168487 -0.205565 -0.203032 0.010548 -0.176964 0.299766 0.265038 0.096987 -0.127802 -0.176024 -0.075473 -0.171095 0.100502 0.087493 0.000135 -0.238496 0.229792 0.245307 0.327748 0.334298 -0.280865 -0.332407 0.275964 0.012886 -0.177638 0.037709 -0.000270 -0.294980 0.035859 0.253893 0.407362 -0.517792 -0.021103 0.349490 -0.026374 -0.095100 0.211445 0.181623 -0.331778 0.203152 0.028331 -0.151358 0.443516 -0.076173 -0.163251 -0.236988 -0.047837 0.168320 0.297254 0.167495 0.212791 -0.105001 -0.144929 0.061954 -0.154274 0.300384 -0.025364 0.079135 0.077182 -0.182418 0.225909 0.114554 -0.010297 -0.291931 -0.061152 -0.001033 -0.153072 0.065708 0.218132 -0.192074 -0.075456 0.127381 0.139528 -0.299548 -0.144422 0.072935 -0.121495 -0.144033 0.291212 -0.328678 0.037929 0.100203 -0.128360 -0.132480 0.095053 0.050721 -0.564101 -0.027461 -0.140448 -0.168446 0.012584 0.099802 0.146706 0.137954 0.333527 -0.157598 0.191493 0.220043 0.149639 0.337277 0.325135 -0.062414 -0.241493 -0.146512 0.039144
252 0.027021 -0.292569 0.142391 -0.097138 -0.254084 -0.257652 -0.046232 0.277379 -0.075354 0.121943 -0.142317 0.131740 -0.107130 0.072943 0.150864 -0.015091 0.025307 0.074947 0.017128 0.182692 -0.029830 0.178350 0.380649 -0.130788 0.093159 0.075244 -0.137956 -0.266419 -0.271207 -0.129533 0.124677 -0.061076 -0.001058 -0.220724 -0.415450 -0.354967 0.272120 -0.032294 -0.028903 0.178350 0.334249 -0.058189 0.457282 -0.121271 -0.319198 0.126626 0.116036 -0.138351 -0.063878 0.000247 -0.150446 0.175561 -0.125082 0.202329 -0.404123 -0.210088 0.224639 -0.001736 -0.249468 -0.178966 0.049106 -0.351711 0.333671 0.238229 0.026349 -0.025293 -0.170647 -0.081006 -0.064736 -0.105149 0.028448 -0.015900 0.181357 -0.185113 0.008054 0.011631 0.081701 0.220769 -0.119231 -0.071823 0.261420 0.043479 -0.002225 -0.257513 0.055620 -0.042387 0.013990 -0.240979 0.222840 -0.106817 0.333064 0.215738 -0.045921 0.206219 0.108343 0.239895 0.108840 -0.059189 0.223126 0.048503 -0.059345 0.097719 0.314540 0.119744 -0.123183 0.027336 -0.016770 -0.185225 -0.307294 -0.284102 -0.384988 0.025134 -0.137046 -0.228249 -0.140455 0.088378 -0.203437 0.252224 -0.019808 -0.049910 0.284848 0.268091 -0.074589 -0.101591 0.061388 0.127761 -0.059788 0.149133
161 -0.025233 -0.131528 0.125413 -0.021711 -0.147028 -0.278896 -0.144321 0.477662 -0.004213 0.012802 -0.284493 0.145012 -0.237615 -0.036839 -0.016723 -0.013498 0.031257 0.163633 -0.137249 -0.185990 0.278730 0.035722 0.363675 -0.192915 -0.013247 -0.131213 0.140335 -0.029746 0.092194 0.162913 0.070734 -0.064306 0.021534 0.113528 -0.220593 -0.180347 0.045487 0.056299 -0.022888 0.304485 0.125700 0.020702 0.218396 0.068204 -0.104526 0.044007 -0.001924 -0.344619 -0.109951 0.408781 -0.092004 0.112162 0.118675 0.330298 -0.361909 0.224240 0.172089 0.213719 -0.204092 0.081461 -0.026621 -0.015713 0.058848 0.003263 -0.133128 0.161698 -0.135214 0.017040 0.022689 0.137232 0.196489 0.267143 0.320220 -0.388516 0.074442 0.030922 0.068636 0.086087 0.216313 -0.305815 0.018099 -0.074670 0.080654 -0.427996 -0.031828 0.150382 -0.078790 0.078720 0.001157 -0.144359 0.051625 0.407486 -0.294152 -0.001788 -0.252275 0.246391 -0.094617 0.069420 -0.207393 0.295059 -0.415963 0.218846 0.168688 0.127899 -0.013867 0.214300 0.001528 -0.052820 -0.262030 -0.195244 -0.082761 -0.251659 -0.086103 0.000196 0.021094 -0.145508 0.113004 0.264075 0.081580 -0.170421 0.199801 0.117307 0.148317 -0.315724 -0.221285 0.153845 -0.032528 0.118164
218 0.044683 -0.293925 -0.137626 -0.133147 -0.019212 -0.125971 -0.011533 0.505659 0.173003 0.228072 0.008316 -0.018142 -0.313979 -0.091707 0.027240 0.228383 -0.104105 0.083945 -0.033012 0.055912 0.180119 0.021858 0.276013 0.115837 -0.083650 0.355827 0.040220 0.016781 -0.156338 -0.196561 0.172008 0.185083 -0.066711 -0.333470 -0.147698 -0.301607 -0.164274 0.092789 -0.227367 0.091100 0.150008 0.161398 0.255160 0.029160 -0.149270 0.131758 -0.047287 -0.106283 -0.019022 0.490218 -0.012502 0.378211 0.329045 0.181515 -0.690173 -0.125681 0.043356 -0.246207 -0.041672 -0.147613 0.042573 -0.074626 -0.246589 0.103447 -0.205961 0.133076 -0.185905 -0.246549 0.016562 -0.014679 0.117943 0.089542 0.382294 -0.414588 -0.037871 -0.008611 0.172083 0.045505 -0.213773 -0.299545 0.179015 -0.120856 0.039722 -0.261071 0.147165 0.081632 0.039142 -0.125576 0.160856 0.087198 0.571869 0.314052 0.122468 0.156211 0.240393 0.241614 -0.145867 -0.057075 -0.022259 0.070829 -0.058668 0.109993 0.153671 -0.055224 0.079135 0.150156 0.115864 0.078820 0.042384 -0.273539 0.007826 0.009920 0.022628 -0.109291 0.210256 -0.088194 -0.316001 0.320838 -0.104149 -0.098555 -0.179203 0.292013 0.129679 0.069129 -0.228897 0.069879 -0.189550 0.340239
258 -0.082286 -0.365882 0.211491 0.082573 -0.235666 -0.049970 0.225971 0.217853 -0.272685 0.237825 -0.262740 0.170233 -0.044409 0.100455 -0.193197 -0.008898 0.033176 0.183752 0.021262 0.331702 0.200338 -0.258182 0.541476 0.184797 0.011908 -0.328634 -0.241265 -0.400856 -0.092968 -0.402922 0.218901 0.178312 -0.018443 -0.230660 -0.531988 -0.275063 -0.058857 0.103609 0.023803 -0.071349 0.204095 0.202232 0.259551 -0.108903 -0.147615 0.170961 0.085662 -0.135992 0.081581 -0.164382 -0.189749 0.127879 -0.049533 0.080358 -0.430553 0.013405 0.289239 0.212194 -0.463122 -0.160315 0.005196 -0.410555 0.232188 0.394485 0.126945 0.552442 -0.435682 0.083525 0.201303 0.062216 0.227282 0.164820 0.443968 -0.078978 0.090404 -0.018579 -0.343706 0.158538 0.237128 -0.149649 0.492613 -0.229501 -0.076831 -0.395248 0.010822 -0.247634 0.139916 -0.016025 -0.129198 -0.047946 0.508272 0.256817 0.007754 0.096121 -0.204104 0.226703 -0.016425 -0.315297 -0.004342 0.494296 -0.313749 -0.200686 0.234613 0.408048 0.085793 0.238831 0.026653 -0.022547 0.038505 0.058556 -0.029412 0.101349 0.165812 -0.127742 0.122141 0.045648 -0.115767 0.004240 -0.140049 -0.511956 0.243434 0.117418 -0.151788 -0.238750 -0.168668 -0.110337 -0.068673 -0.086867
56 -0.423418 -0.206757 0.021386 -0.033088 -0.208429 -0.091077 0.066603 0.039295 -0.072458 0.261423 -0.043497 0.264837 -0.218000 0.279882 -0.079163 -0.216673 0.141334 0.065344 0.033083 0.174062 0.055516 -0.253248 0.034565 -0.093694 0.274290 -0.169574 -0.337973 -0.215007 0.065944 -0.017045 -0.006771 0.092578 0.230723 0.050260 -0.014415 0.001167 0.053845 -0.149421 -0.041630 0.145788 0.029779 0.203620 0.365628 -0.207584 -0.143194 0.383180 0.064870 -0.422155 0.313875 0.054332 -0.197478 -0.017610 0.171025 0.244101 -0.119784 -0.084288 0.326984 0.132508 -0.231599 -0.486105 0.021735 -0.096937 -0.049483 0.027923 0.108922 0.193436 -0.220650 -0.021563 0.097922 -0.032807 -0.056104 0.164477 0.241367 0.017150 0.293714 -0.002143 -0.050863 0.224632 0.087544 -0.045543 0.247588 -0.049156 -0.192120 -0.157651 0.034712 -0.084267 0.167040 -0.178867 -0.232799 0.300202 0.295403 0.272484 -0.064112 -0.093313 -0.266096 -0.082786 -0.234460 0.138510 0.049555 -0.015574 -0.139609 0.128056 -0.100800 -0.004401 -0.129182 0.235247 0.029667 0.145690 -0.097782 0.233418 -0.128612 -0.061729 0.120429 -0.015337 -0.038746 0.203023 0.023065 0.206946 0.035011 -0.211315 0.227682 0.282152 -0.356443 -0.096719 -0.245591 0.079703 0.159543 0.223344
259 -0.388307 -0.001143 0.101375 -0.388324 -0.019856 -0.082761 0.058415 0.160153 0.127048 0.089586 -0.096915 0.047113 -0.120552 0.221538 0.249864 0.047523 0.037935 -0.091596 0.046834 0.013256 -0.170374 0.029279 0.154179 0.243310 -0.092776 -0.088102 -0.188068 -0.052969 -0.241701 0.122162 0.095142 -0.048528 -0.208197 -0.101379 0.019255 0.225506 -0.053503 -0.345346 -0.196151 0.034397 0.491663 0.170944 0.205851 -0.482430 -0.167476 -0.207465 0.275837 -0.210606 0.163894 0.250548 -0.092410 0.223675 0.129893 0.542754 -0.585889 -0.138204 0.076101 -0.195310 0.002789 -0.159437 0.089815 -0.428447 0.362999 0.430313 -0.093520 0.232256 -0.098759 -0.423869 -0.102081 -0.110963 0.160467 -0.008340 0.140256 0.221293 0.018221 -0.011794 0.206951 -0.253209 -0.183473 -0.161892 0.006183 0.349552 -0.451701 -0.131319 0.408375 -0.025626 -0.127373 -0.098926 0.081523 -0.089308 0.206951 0.230056 -0.134690 0.249645 0.262254 0.073007 -0.194473 -0.052781 0.078774 -0.009687 -0.078525 -0.041964 0.061505 -0.136116 -0.205431 0.048222 -0.022253 0.176076 -0.235753 -0.050034 -0.213331 0.125754 0.185602 -0.075192 -0.090012 -0.118211 -0.049077 0.527029 -0.347072 0.160137 0.123453 0.308803 0.022147 -0.019194 -0.284753 0.417112 -0.065436 -0.061385
237 -0.050168 -0.075873 0.126554 0.156081 -0.141802 -0.220654 -0.169204 0.246690 0.058743 0.049258 -0.212923 0.273246 -0.110697 0.057081 0.164210 -0.091519 0.063413 0.100868 -0.182850 -0.106272 0.193237 0.004907 0.339391 -0.311868 0.048015 -0.104890 0.074560 -0.126818 0.099367 0.163024 0.076461 0.084805 0.062308 0.319900 -0.114623 -0.106918 0.075285 -0.041741 -0.013619 0.423441 0.137756 -0.087652 0.272133 -0.089427 -0.261063 0.071573 0.043359 -0.307759 -0.066096 0.442180 -0.122978 0.092658 0.010618 0.320668 -0.478116 0.221960 0.311121 0.158590 -0.209254 0.054604 -0.064831 -0.173603 -0.075716 0.119893 -0.008899 0.215627 -0.108626 -0.120644 -0.010185 0.073293 0.171568 0.335115 0.399997 -0.341959 0.096464 0.175664 0.061814 0.190829 0.270323 -0.074019 0.075492 0.037381 0.004631 -0.336718 -0.027317 0.053396 -0.069434 -0.021201 0.103074 -0.072197 -0.017799 0.463958 -0.332165 -0.017323 -0.303116 0.315482 -0.255918 0.100196 -0.138849 0.269533 -0.391934 0.167349 0.103001 0.135031 0.023914 0.188265 -0.085770 -0.014029 -0.211819 -0.203133 -0.238474 -0.156203 -0.044332 0.077096 0.061086 -0.049404 0.207669 0.182465 -0.024790 -0.273890 0.185053 0.138070 0.195366 -0.292714 -0.044040 0.167096 -0.006851 -0.006914
55 -0.406717 -0.223565 0.053886 -0.053620 -0.216490 -0.115931 0.017118 0.048596 -0.012757 0.185205 -0.113562 0.326170 -0.241730 0.300518 -0.116821 -0.205524 0.133599 0.029761 0.053919 0.110118 0.104888 -0.189394 0.008068 -0.067126 0.335152 -0.212249 -0.279157 -0.164196 0.105551 0.020758 -0.031693 0.029520 0.193937 -0.015363 0.038096 0.032936 0.026991 -0.233770 -0.064339 0.111236 0.040220 0.186403 0.335035 -0.208282 -0.155020 0.413978 0.060026 -0.387111 0.249709 0.049081 -0.219961 -0.062216 0.272106 0.365555 -0.146292 -0.033918 0.288827 0.230283 -0.201322 -0.471830 -0.028190 -0.027943 -0.081370 -0.037106 0.037304 0.133117 -0.141951 -0.076474 0.127590 -0.036832 0.000556 0.221135 0.242266 0.019767 0.379529 -0.005675 -0.083184 0.150308 0.050523 -0.048998 0.181743 -0.040293 -0.238720 -0.219302 0.041075 -0.055671 0.199230 -0.172096 -0.269466 0.273625 0.290791 0.234832 -0.194401 -0.052749 -0.200945 -0.086449 -0.236527 0.131569 0.062764 -0.041811 -0.108037 0.144224 -0.158177 -0.092956 -0.062843 0.295414 0.090409 0.126988 -0.219859 0.188717 -0.135291 -0.130441 0.128745 -0.027964 -0.082203 0.149295 0.081916 0.173931 0.065606 -0.203026 0.237708 0.276812 -0.290548 -0.167373 -0.235197 0.080934 0.108779 0.217808
159 0.018291 -0.324330 0.048160 -0.080401 -0.063288 -0.053819 -0.007368 0.177214 0.084513 0.265213 -0.324423 -0.091571 -0.206798 -0.019161 -0.357086 0.080920 0.051632 0.317320 -0.066710 0.142341 0.356402 -0.115311 0.396981 0.285944 0.112168 -0.102246 0.037700 0.059693 -0.067665 -0.105706 0.147284 -0.056080 -0.068813 -0.171566 0.002595 -0.181171 -0.126202 -0.034495 0.005624 0.039932 0.086873 0.424805 -0.021497 0.100156 -0.209163 -0.107637 -0.118099 -0.433267 0.046583 0.065576 -0.012035 0.205123 0.367484 0.178566 -0.281059 -0.010354 0.078645 0.182467 -0.373216 -0.381547 -0.037833 -0.084437 -0.095031 0.029781 -0.050035 -0.007828 -0.324769 0.049421 0.192766 0.150810 0.143764 0.035944 0.312645 -0.203990 0.027933 -0.082161 -0.275021 -0.058314 -0.028997 -0.301200 0.184191 -0.167664 -0.005541 -0.364512 0.016609 0.012615 0.120552 0.071977 -0.225842 0.341040 0.354533 0.072311 0.034729 0.060095 -0.143363 0.081864 -0.082593 0.030000 -0.162445 0.337629 -0.197026 -0.111606 0.021653 -0.006513 0.093159 0.247237 -0.025256 0.036314 0.234116 0.198025 0.197731 -0.177305 0.144281 -0.155783 0.123951 -0.273491 -0.126326 0.221694 -0.005968 -0.334311 0.116939 0.275987 -0.130806 -0.094420 -0.430719 0.009991 -0.110752 0.195158
70 -0.208286 -0.106432 -0.200778 -0.153471 -0.124509 -0.054477 -0.265560 0.034269 0.385472 0.187978 -0.154978 0.337135 -0.275944 0.279659 0.260149 0.281807 -0.157897 -0.089483 0.123674 0.108461 0.041546 -0.018912 0.201136 -0.280529 -0.213188 -0.204327 -0.020876 -0.063086 0.352636 0.334986 0.131783 -0.096049 -0.156009 -0.052968 -0.138811 0.125448 0.033379 0.086350 -0.369443 0.214510 0.232983 0.349077 0.300654 -0.277066 -0.406359 0.279850 -0.008154 -0.198431 0.021592 -0.037919 -0.207551 0.029575 0.303379 0.543402 -0.555987 0.057116 0.251913 0.046415 -0.146396 0.212190 0.136542 -0.217728 0.068029 0.138634 -0.208545 0.404618 -0.124967 -0.128757 -0.175235 -0.129868 0.146847 0.318201 0.191800 0.096192 -0.090611 -0.246846 0.108867 -0.205319 0.244149 -0.026348 0.139993 0.049408 -0.159216 0.183817 0.104879 0.007960 -0.244123 -0.015067 0.018126 -0.243295 0.187448 0.304295 -0.105079 -0.092619 0.231963 0.193672 -0.359625 -0.143815 0.012977 -0.193656 -0.172762 0.225090 -0.432351 -0.042997 0.282553 0.005237 -0.113212 0.177005 -0.041220 -0.535305 -0.022549 -0.149289 -0.043583 -0.021610 0.061739 0.141064 0.109912 0.302355 -0.104449 0.241512 0.232105 0.099962 0.352420 0.350870 -0.135052 -0.254450 -0.154334 -0.002915
257 -0.014091 -0.056417 0.023443 0.044173 -0.214343 -0.196270 -0.124422 0.333082 0.062052 0.056684 -0.161825 0.202421 -0.138289 0.006597 0.247327 0.020239 0.004768 0.000497 0.000363 -0.013072 0.016095 0.112186 0.308371 -0.290678 -0.145633 0.000429 0.137548 -0.239762 0.133867 0.218555 0.178662 -0.046144 -0.069107 0.094042 -0.422064 -0.101067 0.242414 -0.010544 -0.081199 0.176760 0.193019 -0.022753 0.462601 -0.148642 -0.286464 0.100875 -0.055193 -0.162322 -0.072201 0.315396 -0.230358 0.166678 0.088669 0.340662 -0.476259 -0.110139 0.256933 0.005997 0.002691 0.226157 0.044115 -0.310832 0.061861 0.003676 -0.163786 0.195186 -0.136886 -0.116017 -0.236529 -0.050034 0.088098 0.263754 0.315168 -0.169904 -0.081007 0.017398 0.113351 0.135697 0.183648 -0.098525 -0.003982 -0.040187 -0.026473 -0.235838 0.044433 0.103373 -0.237561 -0.087585 0.342246 -0.193233 0.029604 0.333269 -0.387685 0.138378 -0.056454 0.215219 -0.172059 -0.052050 -0.070163 0.134970 -0.263875 0.183340 0.097826 -0.056327 -0.000439 0.068608 -0.038030 -0.013564 -0.274300 -0.536876 -0.342160 -0.169894 -0.216832 0.003356 0.067286 0.105560 0.121319 0.369327 -0.085122 0.008804 0.073528 0.141496 0.405717 -0.138555 0.067877 0.077125 -0.046188 0.124394
59 -0.460621 -0.170795 0.001063 -0.118810 -0.150125 -0.147587 0.007870 0.091284 -0.055518 0.203926 -0.065218 0.164044 -0.278905 0.319303 -0.157321 -0.032602 0.155054 0.138349 0.127928 0.105481 0.248016 -0.241245 0.021870 -0.161872 0.182884 -0.139605 -0.283792 -0.054984 0.155394 0.016604 -0.010324 0.064378 0.171934 0.000642 0.009671 0.030083 -0.015496 0.045946 -0.120426 0.247363 0.059230 0.313050 0.213678 -0.192773 -0.059059 0.347502 0.033026 -0.349628 0.123455 -0.013649 -0.132725 -0.037222 0.270338 0.196177 -0.149963 0.066432 0.399472 0.233258 -0.305194 -0.490202 -0.099694 0.085078 -0.025232 -0.014742 -0.020220 0.237610 -0.187505 0.034119 0.164921 0.069115 0.035424 0.223500 0.220634 -0.091771 0.386093 -0.124464 -0.054120 0.192559 0.084118 -0.109443 0.338509 -0.203603 -0.043784 -0.242168 -0.039994 -0.071528 0.165645 -0.067834 -0.282399 0.080624 0.303526 0.302320 -0.105564 -0.022186 -0.120736 -0.054547 -0.342015 0.075614 0.023505 0.066302 -0.145313 0.194524 -0.038158 0.066883 -0.033197 0.183324 0.165585 0.178845 -0.072885 0.122396 0.037823 -0.166045 0.045396 0.071763 -0.072367 0.107450 -0.070457 0.179957 0.107957 -0.198378 0.320273 0.136871 -0.226939 -0.055428 -0.286312 0.033115 0.088039 0.210098
33 -0.165167 -0.141249 -0.184820 -0.047479 -0.140542 -0.045378 -0.316385 0.019048 0.420484 0.230330 -0.151949 0.343918 -0.225700 0.115871 0.318709 0.290962 -0.194229 -0.086478 0.049981 0.099206 0.054359 0.075866 0.288588 -0.237568 -0.211447 -0.282375 0.095021 -0.060834 0.326077 0.300803 0.244915 -0.112984 -0.203264 -0.130146 -0.230594 -0.015771 0.192602 0.116997 -0.275387 0.210298 0.257357 0.370435 0.297516 -0.134316 -0.484750 0.177574 0.035128 -0.256406 0.001691 -0.061565 -0.179528 0.053261 0.272433 0.596080 -0.566075 0.089671 0.217723 0.041641 -0.147949 0.326650 0.221030 -0.320756 0.124430 0.110535 -0.159391 0.357960 -0.185536 -0.108770 -0.177806 -0.070200 0.151429 0.299268 0.172735 0.023683 -0.114616 -0.199575 0.099559 -0.175240 0.267298 0.017905 0.087575 0.073660 -0.151039 0.184422 0.122027 0.064268 -0.251595 0.025910 0.055157 -0.238227 0.127811 0.299867 -0.009627 -0.168584 0.196617 0.201932 -0.257626 -0.217047 -0.045987 -0.200111 -0.189638 0.158469 -0.418209 0.010786 0.270324 -0.075053 -0.155083 0.073879 0.056857 -0.602831 0.014559 -0.157709 -0.051813 -0.074264 0.088467 0.112200 0.109643 0.337346 -0.186444 0.178703 0.253298 0.109593 0.396768 0.315849 -0.151386 -0.222124 -0.149896 0.042682
25 -0.100584 -0.299682 0.180496 -0.225362 -0.169573 -0.000064 0.257950 0.279006 -0.256316 0.251755 -0.235624 0.027865 -0.102637 0.006994 -0.219225 0.067107 0.062263 0.104365 0.118677 0.402297 0.062037 -0.349477 0.466100 0.435874 -0.055825 -0.331989 -0.156929 -0.389640 -0.083062 -0.354687 0.201082 0.090309 -0.084475 -0.438913 -0.564871 -0.324039 -0.179079 0.078794 -0.043052 -0.267815 0.270985 0.301955 0.191156 -0.083881 0.033880 0.031946 -0.007240 -0.051746 0.248606 -0.182723 -0.128197 0.201192 0.037932 0.181798 -0.307085 -0.055314 0.041728 0.041677 -0.355230 -0.143756 0.046562 -0.492444 0.358339 0.286039 0.124483 0.553205 -0.413783 0.038537 0.178027 0.033335 0.132589 -0.049728 0.399255 0.006763 -0.060864 -0.073120 -0.262374 -0.075441 0.112534 -0.291212 0.392434 -0.152917 -0.174381 -0.268141 0.104871 -0.284978 0.088192 -0.037709 -0.141428 -0.086110 0.535970 0.091584 0.111997 0.130717 -0.054043 0.100768 0.160174 -0.414990 0.072445 0.318846 -0.267283 -0.244441 0.176368 0.247144 0.030405 0.260034 -0.057341 0.050218 0.056248 0.097522 0.131403 0.098039 0.206714 -0.328210 0.167118 0.040245 -0.225140 0.106801 -0.140441 -0.365241 0.067803 0.260119 -0.114343 -0.094889 -0.337810 -0.047056 -0.039405 0.004011
253 0.109718 -0.118077 0.019590 -0.374403 0.097920 -0.086910 0.157298 0.245871 0.143284 0.208610 -0.143802 0.111304 -0.178423 -0.023243 0.160950 0.023877 0.111815 0.000020 -0.200466 0.307834 -0.257610 0.119058 0.329779 -0.114817 -0.054327 0.109266 0.033191 0.023423 -0.084046 -0.284997 0.180266 -0.031181 0.081152 -0.156014 -0.248702 0.077984 -0.008362 -0.131019 0.188147 -0.269580 0.233868 0.293783 0.412381 -0.292580 -0.189993 0.035329 0.174815 -0.187943 0.195260 0.044796 -0.313971 0.172883 0.013953 0.404726 -0.480551 -0.356020 0.042390 -0.344546 0.072188 -0.133743 0.206735 -0.416980 0.135991 0.101364 -0.095350 0.132804 -0.033100 -0.095162 -0.477966 -0.055603 -0.115292 -0.187598 0.135570 -0.111009 -0.111934 -0.077704 0.275651 0.121908 -0.176237 -0.336105 0.272471 0.219313 0.039313 -0.119247 0.078695 0.254367 -0.128329 -0.168995 0.306554 0.028311 0.395189 0.123366 -0.125601 0.137782 0.154611 0.248588 -0.048952 0.017931 0.271411 0.133283 0.060668 -0.056039 0.043365 -0.316755 -0.032609 0.088652 0.280473 0.300584 -0.119972 -0.255434 -0.165472 0.032581 -0.068959 -0.221751 -0.071806 0.110149 -0.356862 0.213002 0.074092 0.235293 -0.144110 0.284756 -0.084154 0.075523 0.038347 -0.013088 -0.172332 0.229761
203 -0.101482 0.000428 0.109904 -0.058716 -0.078474 -0.182518 -0.172588 0.269201 0.097425 0.003910 -0.147901 0.022771 -0.014653 0.175380 0.112104 -0.061870 -0.139121 0.167141 0.016482 -0.133891 0.128523 0.201105 0.220259 -0.143648 -0.247984 0.216993 0.018981 -0.113549 0.010052 0.300239 0.228266 -0.017072 -0.106150 0.219069 -0.259287 0.060502 0.060613 -0.032977 -0.141768 0.135258 0.284522 -0.083384 0.267864 -0.132895 -0.168966 0.025718 -0.063074 -0.270728 -0.055204 0.502469 -0.118029 0.200658 0.088276 0.214958 -0.537458 -0.091029 0.235596 0.069692 -0.065292 0.040050 -0.015571 -0.169505 -0.033651 0.153081 -0.235377 0.081180 -0.220185 -0.282833 -0.195116 -0.059851 0.082639 0.283195 0.321017 -0.269078 -0.062329 -0.010390 0.057935 -0.010422 0.013058 -0.060892 0.000652 -0.062165 -0.021992 -0.353764 0.127092 0.067747 -0.224355 -0.012211 0.297945 -0.165506 0.165306 0.489287 -0.323868 0.270032 0.022462 0.287928 -0.354127 0.036596 -0.249835 0.244818 -0.248327 0.154367 0.280251 -0.049543 -0.088254 0.130822 -0.051317 0.084371 -0.247040 -0.336226 -0.427192 -0.122367 -0.084044 0.140120 -0.025151 -0.139159 0.009177 0.506378 -0.151026 -0.011978 0.095215 0.205116 0.217060 -0.227210 -0.048836 0.361444 -0.066922 0.057511
150 -0.088852 0.059614 -0.050607 -0.474400 0.171978 0.001538 0.082842 -0.120343 0.322217 0.175514 -0.114230 0.035090 -0.152330 0.139925 0.335860 -0.024081 0.104077 -0.078488 -0.038600 0.312089 -0.261351 -0.064455 0.204223 -0.059162 -0.193714 -0.002953 -0.051775 -0.068951 0.170111 -0.019825 0.192479 -0.094593 0.013856 -0.031846 -0.164585 0.361352 -0.093063 -0.070534 0.123769 -0.190781 0.219009 0.338411 0.358990 -0.447462 -0.084299 0.160383 0.112302 -0.238295 0.187331 0.067578 -0.445255 0.031727 0.084074 0.384238 -0.609370 -0.248609 0.064963 -0.351983 0.120384 0.056722 0.190145 -0.565620 0.154087 0.213721 -0.045293 0.408114 -0.054911 -0.255715 -0.489828 -0.110392 -0.103066 0.047240 0.079211 0.134319 -0.120060 -0.033991 0.068935 0.124897 0.015993 -0.304660 0.338297 0.309623 -0.062053 0.126078 0.117868 0.090162 -0.303103 -0.160653 0.166678 0.003819 0.248259 0.146963 -0.252130 0.139061 0.188220 0.311471 -0.422276 -0.053586 0.150982 0.296881 0.035046 -0.059149 -0.119806 -0.185073 -0.034661 0.097690 0.142607 0.412303 0.106365 -0.476414 0.080639 0.041084 -0.130224 -0.047702 0.024005 0.145295 -0.213011 0.345331 -0.079608 0.196140 -0.134384 0.270338 0.199169 0.290744 0.073677 -0.023474 -0.233407 0.051514
12 -0.252129 -0.148808 -0.202703 -0.099797 -0.150914 -0.066410 -0.319437 -0.075120 0.370556 0.171285 -0.124169 0.281295 -0.249885 0.188955 0.288007 0.213837 -0.150024 -0.090010 0.191596 0.099780 0.045172 -0.034609 0.194391 -0.233322 -0.186632 -0.200325 0.017936 -0.182591 0.366023 0.345308 0.203233 -0.113864 -0.200936 -0.090719 -0.236140 0.037699 0.119897 0.143759 -0.345658 0.284455 0.239092 0.302627 0.335359 -0.212076 -0.438275 0.288300 -0.038487 -0.226686 -0.050670 -0.045340 -0.242961 -0.022081 0.306896 0.524598 -0.636135 0.049901 0.175257 0.048545 -0.180603 0.275157 0.119876 -0.325315 0.106037 0.210562 -0.158259 0.399557 -0.196002 -0.182768 -0.135487 -0.174831 0.092017 0.355877 0.213140 0.044447 -0.102430 -0.200058 0.020453 -0.125974 0.260569 0.004168 0.186553 0.057814 -0.178124 0.190421 0.075836 -0.056640 -0.237097 -0.021024 -0.035831 -0.300047 0.209474 0.327418 -0.047661 -0.124930 0.259876 0.212411 -0.371982 -0.226588 0.008216 -0.156188 -0.166967 0.162048 -0.390682 0.056570 0.281096 -0.000545 -0.150734 0.097975 0.010583 -0.620235 0.058995 -0.096845 -0.062507 -0.026429 0.092664 0.179691 0.090346 0.333725 -0.148793 0.145025 0.260963 0.107776 0.433592 0.384372 -0.124865 -0.200150 -0.175073 0.020523
90 -0.188680 -0.102007 -0.245875 -0.160345 -0.074592 -0.121085 -0.362703 -0.090710 0.451799 0.186460 -0.161457 0.242506 -0.208260 0.191931 0.259560 0.182633 -0.172307 0.011618 0.094988 0.037377 0.090652 0.140917 0.197752 -0.266779 -0.254156 -0.177755 0.069095 -0.108975 0.347444 0.406016 0.222317 -0.159721 -0.201213 -0.043386 -0.164242 0.080409 0.143488 0.137444 -0.270847 0.283201 0.248750 0.385337 0.297424 -0.184022 -0.516600 0.193832 -0.016733 -0.360648 -0.032270 -0.029508 -0.228721 -0.021288 0.316670 0.542341 -0.508038 0.013366 0.241958 0.033461 -0.192104 0.289141 0.076802 -0.273321 0.092412 0.061984 -0.194004 0.252825 -0.184911 -0.149321 -0.249869 -0.100823 0.095575 0.319602 0.224373 -0.039975 -0.126379 -0.262727 0.128989 -0.207475 0.215037 0.009123 0.120180 0.143718 -0.131615 0.160924 0.063731 0.028097 -0.246525 -0.008903 -0.003324 -0.279299 0.112524 0.281511 -0.054220 -0.065457 0.242860 0.216867 -0.420962 -0.137792 -0.034771 -0.193492 -0.139819 0.196229 -0.364671 -0.044525 0.223225 -0.060456 -0.143587 0.102763 0.056703 -0.630452 -0.030888 -0.144605 -0.094775 -0.037555 -0.024188 0.075020 0.080620 0.419801 -0.094628 0.210712 0.276026 0.112038 0.390915 0.304787 -0.131907 -0.210644 -0.189962 0.095650
242 0.143886 -0.292313 0.092902 0.249396 -0.190926 -0.192384 -0.142211 0.104408 0.084924 0.215723 -0.268760 0.112240 -0.125834 -0.006106 -0.003679 0.035766 0.025023 0.317762 -0.236908 0.159559 0.247218 -0.046644 0.510805 -0.167232 0.301449 -0.259221 -0.110983 -0.094046 -0.136461 -0.253880 0.132075 -0.037520 0.061138 0.022587 -0.037779 -0.224190 0.086044 -0.031815 0.061592 0.417298 0.172616 0.249611 0.030030 0.019244 -0.430909 -0.017692 0.169387 -0.430847 -0.038741 -0.045119 -0.131405 0.123614 0.023792 0.216623 -0.273011 0.218585 0.327487 0.219302 -0.502074 -0.344237 0.025173 -0.208242 0.136231 0.168215 0.082758 0.182123 -0.226013 0.143718 0.105542 0.147038 0.227625 0.087874 0.254876 -0.209249 0.152462 -0.018663 -0.096375 0.146509 0.181616 -0.051640 0.417955 0.055979 0.060011 -0.278503 -0.132564 -0.122963 0.127931 0.034875 -0.213755 0.081617 0.226722 0.216279 0.011155 -0.122982 -0.283241 0.299544 -0.152537 -0.008529 0.029435 0.338631 -0.293189 -0.008890 0.120602 0.315340 0.080560 -0.040548 -0.038183 -0.096334 0.110417 -0.003279 -0.035646 0.014673 -0.016516 -0.054316 0.048636 -0.218117 -0.065040 -0.014056 0.025934 -0.458095 0.374060 0.209018 -0.237705 -0.265335 -0.134208 -0.102555 -0.074602 -0.069668
2 0.042182 -0.211462 0.177677 0.218852 -0.173456 -0.052232 -0.255721 0.349359 0.062082 0.088525 -0.213651 0.447230 -0.095458 -0.068267 0.116417 -0.096677 -0.118815 0.066557 -0.176321 -0.113129 0.130273 0.090489 0.483387 -0.435628 -0.143380 -0.184460 0.232179 -0.119657 0.299319 0.177112 0.324247 -0.047168 -0.091772 0.227645 -0.462947 -0.032764 0.308631 -0.049634 0.063718 0.113414 0.112035 0.031192 0.328460 0.094934 -0.386676 0.036039 -0.027317 -0.362777 0.038270 0.212425 -0.117302 -0.019784 0.013978 0.533809 -0.482740 0.047590 0.208455 0.232721 -0.184405 0.319499 0.249113 -0.207828 -0.010351 0.098089 -0.139008 0.203960 -0.241262 -0.070477 -0.203788 0.027125 0.047212 0.312052 0.324942 -0.294632 -0.079323 -0.001332 -0.021244 0.145202 0.347536 -0.021543 -0.081899 -0.157773 -0.075174 -0.245933 0.034746 0.213436 -0.218301 0.161380 0.265461 -0.143725 0.051493 0.539844 -0.349132 -0.253678 -0.346286 0.245683 -0.061341 -0.005557 -0.260645 0.312493 -0.355726 0.077360 -0.006367 -0.006542 0.195309 0.074130 -0.037294 0.020215 -0.266817 -0.349424 -0.329190 -0.227371 -0.029043 0.003580 0.067272 0.088588 0.169450 0.271082 -0.186342 0.043635 0.214847 0.047443 0.211379 -0.304668 -0.131137 0.089351 0.052197 0.083702
146 -0.211461 -0.092244 -0.238419 -0.267498 -0.050398 -0.094317 -0.277889 0.079754 0.393223 0.165907 -0.129440 0.215076 -0.267418 0.272517 0.252891 0.283126 -0.155243 -0.067006 0.123542 0.113969 0.047191 0.009644 0.191045 -0.189840 -0.247871 -0.151771 -0.023034 -0.055915 0.273480 0.351572 0.188688 -0.054102 -0.150588 -0.133965 -0.117487 0.066860 -0.012676 0.145848 -0.326517 0.172773 0.258365 0.309069 0.264329 -0.228627 -0.339374 0.263148 0.013616 -0.186537 0.010611 0.071551 -0.202797 0.080834 0.252091 0.463836 -0.513165 0.072111 0.256167 -0.015754 -0.121827 0.175410 0.086637 -0.196862 0.097898 0.127306 -0.191875 0.391579 -0.102102 -0.109538 -0.137875 -0.094002 0.152266 0.253980 0.148932 0.005186 -0.102995 -0.244232 0.137386 -0.197837 0.167170 -0.079077 0.173604 0.080005 -0.114641 0.163685 0.077187 -0.015293 -0.230338 -0.050336 -0.009996 -0.236609 0.166060 0.271389 -0.025728 -0.032334 0.308791 0.218294 -0.365216 -0.117013 0.026459 -0.176201 -0.154779 0.237263 -0.317412 0.006294 0.222036 -0.021651 -0.144854 0.154249 -0.018044 -0.532670 0.037299 -0.164034 -0.051363 -0.049807 0.024094 0.052735 0.038879 0.309808 -0.079428 0.191279 0.207971 0.139608 0.345492 0.339699 -0.164606 -0.202012 -0.183994 0.003951
238 -0.475046 -0.309718 -0.184089 -0.160949 -0.043623 -0.259070 0.016647 0.207476 0.080990 0.159736 0.015451 0.302544 -0.264970 0.255353 -0.054504 -0.243438 0.150981 0.020933 0.010950 -0.000693 0.152637 -0.219335 0.015573 -0.097766 0.062406 0.083901 -0.223120 -0.243651 0.167015 -0.111926 -0.130596 0.320930 0.233873 0.075731 0.121552 -0.082058 -0.132894 -0.101481 0.036908 0.350148 -0.120458 0.126554 0.498674 -0.199398 -0.159191 0.542190 0.088258 -0.351416 0.220321 0.422858 -0.182376 -0.027766 0.218251 0.175880 -0.418233 -0.109050 0.368639 0.040836 -0.212257 -0.322308 -0.153336 0.125211 -0.282773 0.049654 -0.038018 0.345217 -0.113463 -0.134705 0.196699 -0.022327 -0.061045 0.264991 0.489494 -0.263295 0.228349 0.057448 0.106790 0.382829 0.107046 -0.216554 0.230794 -0.022918 -0.162840 -0.155576 0.044133 0.014934 0.244977 -0.201862 -0.257382 0.267863 0.381898 0.368888 -0.076966 -0.085569 -0.139855 0.030322 -0.347327 0.312714 0.038691 0.036873 -0.122390 0.254913 0.014137 0.080712 -0.049850 0.330525 0.151737 0.181071 -0.040958 0.152863 -0.036697 -0.075505 0.062137 0.100246 -0.007500 0.256586 -0.009833 0.170625 0.128373 -0.178823 0.169703 0.215815 -0.279058 -0.122399 -0.332130 0.009795 0.054711 0.368490
62 -0.198454 0.027433 0.109366 -0.224969 -0.065658 -0.080523 -0.025083 0.124858 0.070969 0.054514 -0.008698 0.111686 -0.450125 0.316323 0.019785 0.097794 0.077698 0.076932 0.059427 -0.035374 -0.003201 -0.172018 0.068588 -0.264112 0.195984 -0.042098 -0.362895 0.203869 0.159645 -0.043217 -0.224290 -0.197479 0.066737 0.087788 0.121070 0.274898 -0.175366 -0.179834 -0.250451 0.259030 0.127279 0.416781 -0.047100 -0.341097 -0.081675 0.167840 0.086704 -0.222909 -0.011144 -0.097038 -0.102120 -0.035216 0.115290 0.410898 -0.297374 0.100037 0.102883 0.239329 -0.193706 -0.480712 0.160757 0.063071 0.225256 0.206330 -0.221005 0.235281 -0.011380 -0.124727 0.034711 -0.104251 0.010623 0.065322 -0.043670 0.205977 0.301440 -0.135275 0.132906 0.054966 0.020552 -0.167624 0.294540 -0.002783 -0.175602 -0.009442 0.063986 -0.177722 -0.064779 0.034566 -0.166167 -0.161482 0.248918 0.222987 -0.265527 -0.015665 0.006944 0.096344 -0.327408 0.094729 0.105539 0.302477 0.000269 0.207392 -0.120652 -0.054138 0.031684 0.135341 0.182193 0.159140 -0.213048 -0.053141 0.018007 -0.058042 -0.116655 0.111861 -0.061218 -0.021212 -0.166280 0.181872 0.137875 0.097309 0.226975 0.198621 -0.239730 -0.043947 -0.187777 0.000055 0.030634 -0.054727
214 -0.091591 -0.267209 0.155449 0.005742 -0.320362 -0.120991 0.332301 0.398816 -0.382485 0.162111 -0.247503 0.172874 -0.027523 0.011913 -0.175090 0.026082 0.115986 0.184344 0.084106 0.260741 0.254894 -0.436620 0.475762 0.312553 -0.065297 -0.293865 -0.145293 -0.549974 -0.036958 -0.419149 0.152339 0.139036 -0.144088 -0.258734 -0.652570 -0.246904 -0.146376 0.061586 -0.068579 -0.101341 0.148479 0.251800 0.294125 -0.213708 0.046119 0.158308 -0.058170 0.050821 0.116079 -0.163751 -0.213811 0.070520 0.147949 -0.002610 -0.380156 -0.064100 0.224706 0.179804 -0.347425 0.030823 0.018127 -0.441042 0.256157 0.187920 0.144259 0.611894 -0.376105 0.004354 0.101841 0.088146 0.218500 0.148821 0.624135 0.058842 0.014484 0.017771 -0.328189 -0.032018 0.314395 -0.209881 0.359465 -0.332808 -0.207815 -0.359958 0.045759 -0.203721 0.180754 -0.039146 -0.093272 -0.184457 0.483707 0.145149 -0.169093 0.146751 -0.186103 0.021045 0.086732 -0.546831 -0.008186 0.502284 -0.287328 -0.210856 0.361624 0.355351 0.010370 0.250896 0.106688 -0.034478 -0.032007 -0.007300 -0.028401 0.173640 0.164375 -0.128841 0.104151 0.211021 -0.134701 -0.043597 -0.188485 -0.381025 0.063482 0.092958 -0.035108 -0.220950 -0.242216 -0.176104 0.020413 -0.066889
78 0.016225 -0.265856 0.140198 -0.118829 -0.279381 -0.194348 0.137001 0.274793 -0.265686 0.175605 -0.260387 0.013887 -0.049516 0.159789 -0.090621 -0.065068 0.004471 0.269133 0.130982 0.303667 0.132951 -0.133379 0.512732 0.194890 -0.139777 -0.123831 -0.282238 -0.560611 -0.129554 -0.320304 0.204732 0.088854 -0.060830 -0.275334 -0.674785 -0.303789 -0.051845 0.139240 -0.034911 -0.013374 0.309500 0.156677 0.299184 -0.156773 -0.110054 0.198725 0.026625 -0.093907 0.013022 -0.163078 -0.260440 0.144164 -0.140037 -0.048039 -0.388500 -0.141142 0.337148 0.079797 -0.491778 -0.128944 -0.064059 -0.458472 0.443481 0.336922 0.117326 0.465829 -0.381732 -0.006142 0.054426 0.013137 0.192625 0.119953 0.441657 -0.066233 -0.024105 -0.077939 -0.272946 0.083380 0.128886 -0.130446 0.514988 -0.143423 -0.060921 -0.348225 0.046876 -0.338743 0.015675 -0.083095 -0.050428 -0.227647 0.529285 0.199188 -0.025610 0.346597 -0.088109 0.270290 0.008151 -0.346542 0.108996 0.449067 -0.223730 -0.042139 0.427628 0.461904 -0.107504 0.078414 -0.051369 -0.129436 0.000726 -0.144092 -0.161245 0.166049 -0.059383 -0.185345 -0.011601 0.031647 -0.243235 0.173817 -0.125128 -0.357452 0.313110 0.142449 -0.069619 -0.198058 -0.071387 -0.096761 -0.095139 -0.034935
83 -0.021991 -0.317869 0.222474 0.029179 -0.057098 0.082025 0.243336 0.054583 -0.070326 0.328400 -0.267647 0.269317 -0.040621 0.152000 -0.190977 -0.105292 -0.034045 0.103440 -0.217309 0.281654 0.025329 -0.157617 0.452747 0.109024 0.100749 -0.322029 -0.228146 -0.058528 -0.075459 -0.313882 0.077389 0.148852 0.127701 -0.022533 -0.145931 0.001678 -0.188602 -0.162168 0.089798 -0.180093 0.115079 0.163606 0.191981 -0.166165 -0.256345 0.135925 0.177944 -0.415200 0.254174 -0.018925 -0.166549 0.098397 -0.085890 0.228216 -0.375274 -0.047044 0.178273 0.069180 -0.305209 -0.218427 0.132003 -0.269340 -0.065317 0.364134 0.087137 0.287884 -0.298226 0.063280 0.050524 0.039995 0.171366 0.048406 0.354519 -0.083748 0.064632 0.076871 -0.192724 0.077268 0.121310 -0.128060 0.291139 0.081355 -0.132595 -0.279998 0.118809 -0.027407 0.159085 -0.042139 -0.109671 0.258726 0.409593 0.237980 0.028111 -0.076344 -0.296851 0.275207 -0.052160 0.099985 0.042746 0.280644 -0.251964 -0.201753 -0.056338 0.027191 0.152694 0.363148 0.043105 0.143637 0.062340 0.326943 -0.114259 0.083755 0.299811 -0.187363 0.066813 -0.059491 -0.052400 0.061614 -0.065099 -0.342535 0.060972 0.241225 -0.406924 -0.251469 -0.156102 -0.026448 -0.038630 0.005557
63 -0.438161 0.108680 0.174172 -0.077694 -0.297669 -0.017039 0.145963 0.092645 -0.137093 0.423827 -0.014051 0.119119 0.001391 0.197761 -0.044553 0.131828 0.010086 0.041078 -0.020799 0.118219 0.032671 -0.059604 0.051134 0.023501 -0.052986 -0.332131 -0.189075 -0.109502 0.199811 -0.045556 -0.119801 -0.192093 0.128413 -0.030782 -0.214710 -0.019552 0.064792 0.036166 -0.132101 -0.033501 0.286107 0.477468 0.169989 -0.338345 -0.062769 0.022156 0.035922 -0.356358 0.320987 -0.177019 -0.135351 0.120432 0.206436 0.365085 0.256207 -0.200966 0.370452 0.104232 -0.000774 -0.161311 0.023644 -0.136062 0.300740 -0.292944 0.001000 0.375966 -0.273802 0.171153 0.012665 0.045355 0.260419 -0.097624 0.169357 0.207513 0.241067 -0.162536 0.191413 -0.204503 0.098473 -0.229176 0.091036 0.067250 -0.022218 -0.200711 0.081903 -0.176824 -0.058332 -0.197466 0.021397 -0.035998 0.132381 0.015305 0.013502 0.223510 -0.229596 -0.315261 -0.245841 -0.081469 -0.047691 -0.158435 -0.287071 0.090566 -0.089330 -0.134349 -0.251688 0.268882 -0.143347 0.047713 -0.009233 0.049911 -0.243948 -0.145352 0.075693 0.052721 0.071512 -0.025330 0.221363 0.501522 0.183669 -0.027028 0.104858 0.216123 -0.240249 -0.153258 -0.238580 0.006683 0.184760 0.039147
42 -0.314585 -0.093853 0.127211 -0.149947 -0.116643 -0.064887 -0.076448 0.142425 -0.017308 0.122329 0.002584 0.112239 -0.337568 0.427698 -0.021873 -0.005971 0.081207 0.134133 0.159854 0.108457 0.112272 -0.239419 0.083954 -0.215015 0.099962 -0.005307 -0.406166 -0.021668 0.164724 -0.035224 -0.043748 0.057438 0.160979 0.044243 -0.024402 0.083447 -0.111764 -0.038005 -0.137917 0.146785 0.142589 0.231054 0.088241 -0.185764 0.010311 0.374748 0.026893 -0.203902 0.110895 0.000550 -0.090252 0.016977 0.060577 0.222661 -0.255925 0.099245 0.416973 0.279882 -0.314014 -0.654690 0.004149 0.096811 0.089308 0.148527 -0.135418 0.410628 -0.124507 -0.084185 0.151484 0.023734 -0.014423 0.249071 0.065276 0.007410 0.393404 -0.117041 -0.081593 0.270480 0.026337 -0.074489 0.426548 -0.231357 -0.132229 -0.128458 0.040814 -0.252234 -0.012303 -0.043757 -0.163020 0.004072 0.350345 0.378050 -0.223980 0.052186 -0.110777 0.116983 -0.365764 0.089652 0.020623 0.344537 -0.073016 0.242416 0.012862 0.104559 -0.015086 0.114366 0.152631 0.245009 -0.122247 0.000259 0.007426 -0.161802 -0.092981 0.138403 0.013897 0.046895 -0.166889 0.219074 0.009993 -0.192417 0.364970 0.189630 -0.256811 -0.105871 -0.205058 0.110485 0.054355 0.073125
227 0.232527 -0.026075 -0.137693 -0.312314 0.112074 -0.226771 -0.379792 -0.014128 0.328459 0.046550 -0.190020 -0.027461 -0.309249 0.047802 0.051050 0.015157 0.053601 0.158875 0.013481 0.111339 0.055745 -0.056674 0.081673 0.102709 -0.072105 -0.122852 0.124975 -0.152421 0.305726 0.089114 -0.065427 0.010974 -0.019604 -0.182111 0.155476 -0.145361 -0.357797 -0.210401 -0.232014 0.046361 0.224048 0.400774 -0.101663 0.013841 -0.228241 -0.092711 -0.153870 -0.348733 0.326617 0.107648 0.045375 0.104263 0.388369 0.484839 -0.100670 0.190874 0.047871 0.086244 -0.324708 -0.253547 -0.224016 -0.125849 -0.016351 -0.361030 -0.057800 0.334571 0.000746 -0.207574 -0.146156 0.095510 -0.080628 0.129817 0.463702 -0.316352 -0.071807 -0.148742 0.146091 -0.449558 -0.087095 -0.096272 0.191723 0.233858 -0.286119 0.087157 0.104151 -0.101974 0.003419 -0.025122 -0.252767 -0.079097 0.127397 -0.008026 -0.003807 0.092188 0.092438 0.171774 -0.174800 -0.132163 0.076697 -0.167567 0.057621 0.077379 -0.184054 -0.244114 0.110846 0.160165 -0.100271 0.345108 0.246430 -0.119148 0.167648 -0.094517 0.034869 -0.380976 0.054338 -0.042990 -0.293553 0.246916 -0.063026 -0.229153 -0.124539 0.419538 0.032816 0.066997 -0.413683 -0.046070 -0.052747 0.276555
97 -0.410552 0.290491 0.271562 -0.186437 -0.095900 -0.142292 0.042727 0.239398 -0.019582 0.181961 -0.074635 0.022971 -0.077545 0.071922 0.094175 0.209395 0.181011 0.074441 -0.051143 -0.027642 0.029982 -0.004802 0.078313 -0.077312 -0.101647 -0.325392 -0.063487 0.070923 0.156604 0.093088 -0.057288 -0.149000 0.011392 0.083261 -0.034714 0.152342 0.056852 -0.066305 -0.056316 -0.011426 0.371037 0.474857 -0.052141 -0.311030 0.055624 -0.359405 0.145738 -0.262409 0.284199 0.014611 -0.053306 0.237844 0.213303 0.706681 0.089299 -0.008432 0.377439 0.121097 0.037750 -0.339009 -0.094092 -0.124480 0.418154 -0.249588 -0.157601 0.518289 -0.113205 0.025034 -0.050007 0.166914 0.264838 0.018610 0.069239 0.156495 0.395843 -0.278564 0.366567 -0.151523 0.026236 -0.286262 0.052289 0.095896 -0.061769 -0.339233 0.139994 -0.088961 -0.241488 -0.021233 0.104144 -0.251447 -0.057460 0.113165 -0.308506 0.359142 -0.143910 -0.154355 -0.397409 -0.101514 -0.073313 0.064172 -0.340131 0.071996 -0.042986 -0.296681 -0.266597 0.107752 0.052207 0.362049 -0.156240 -0.052624 -0.192584 -0.259623 -0.045303 0.164223 0.103427 -0.196983 0.216441 0.499030 0.140220 -0.016979 0.124968 0.149927 0.068324 -0.360772 -0.345635 0.290433 0.178953 -0.065872
251 0.018029 0.002651 0.011959 -0.387627 0.257315 0.015235 0.325278 -0.018830 0.212272 0.229926 -0.228046 0.054674 -0.156200 0.107993 0.127180 -0.039720 0.162690 0.031690 -0.118878 0.332832 -0.302319 0.075499 0.277503 -0.088188 -0.357622 -0.065633 -0.065618 0.009992 0.116194 -0.220712 0.196952 0.124052 0.083905 0.022308 -0.249543 0.389756 -0.159656 -0.063577 0.162734 -0.449981 0.143898 0.392732 0.328202 -0.467979 -0.168625 -0.037639 0.181402 -0.200402 0.272967 -0.063635 -0.433783 0.185535 -0.059548 0.456291 -0.623192 -0.377821 0.130997 -0.399374 0.067539 -0.091546 0.086453 -0.549412 -0.013168 0.293189 -0.168890 0.465514 -0.177805 -0.140460 -0.556827 -0.108851 -0.160070 0.069046 0.269963 0.025482 -0.028244 -0.146940 0.175245 0.133532 -0.038465 -0.202723 0.370466 0.247456 -0.089676 -0.044004 0.270743 0.187406 -0.274300 -0.084047 0.319863 -0.062827 0.351836 0.145199 -0.250069 0.315908 0.168510 0.394522 -0.283885 -0.044248 0.198569 0.286093 0.072797 -0.188159 -0.182182 -0.467384 0.091864 0.145266 0.365397 0.612121 0.188854 -0.221951 -0.084713 0.095397 -0.060266 -0.097412 0.078482 0.138600 -0.257244 0.287984 -0.065732 0.130180 -0.211247 0.154632 0.163017 0.107952 0.101131 -0.037639 -0.219603 0.147311
249 -0.543006 -0.156246 0.045511 0.058887 -0.275814 -0.017191 -0.075152 0.211241 -0.210307 0.210806 0.139244 0.190337 -0.255756 0.311377 0.009250 0.005112 0.186755 0.138316 0.083361 0.097575 0.175251 -0.411664 0.026748 -0.372995 0.194760 -0.091184 -0.272971 -0.086018 0.196330 -0.090493 0.088289 0.025108 0.096370 0.197830 -0.209516 0.192494 0.187204 0.054508 -0.119222 0.294067 0.145411 0.228206 0.182594 -0.241711 -0.053589 0.276697 0.033884 -0.273956 0.044395 -0.123025 -0.158277 -0.157931 0.218410 0.194608 -0.207618 0.038751 0.478328 0.211831 -0.230139 -0.444707 0.220515 0.020712 0.172650 0.141342 0.021688 0.327264 -0.162883 -0.070560 0.046280 0.007901 -0.050673 0.179820 0.057381 0.084566 0.318396 -0.031907 -0.095772 0.244700 0.141495 -0.117174 0.343590 -0.380107 -0.066623 -0.159825 -0.058960 -0.050745 0.073789 0.017567 -0.157682 -0.020146 0.284240 0.509178 -0.098226 -0.276566 -0.226033 -0.179550 -0.293479 0.025260 0.047982 0.248789 -0.067884 0.215418 0.114460 0.215517 -0.081544 -0.006725 0.193345 0.080379 -0.191836 0.064865 -0.024948 -0.099805 0.110201 0.226935 0.029802 0.180658 -0.065521 0.235549 -0.177071 0.012858 0.459021 -0.022007 -0.352844 0.028058 -0.240521 0.157596 0.111681 0.073442
96 -0.451563 0.236477 0.203833 -0.183579 -0.053862 -0.181997 0.060423 0.242182 0.030177 0.216487 -0.042724 -0.022821 -0.063514 -0.007727 0.115430 0.280910 0.193817 0.098721 -0.059081 -0.001972 0.056150 -0.006679 0.097842 -0.049639 -0.092054 -0.317404 -0.095170 0.092980 0.067184 0.018685 0.024561 -0.079715 0.008928 0.005215 0.018623 0.091186 0.069510 0.050134 0.006047 0.065215 0.336494 0.489624 -0.051506 -0.277625 0.059265 -0.370908 0.221651 -0.238689 0.282777 0.058512 -0.051824 0.303567 0.239245 0.665745 0.052844 0.018636 0.403037 0.049711 0.009214 -0.389003 -0.142507 -0.121754 0.390849 -0.219579 -0.139784 0.562797 -0.121668 0.075868 0.016952 0.228243 0.305369 0.019514 0.076902 0.124844 0.431799 -0.332845 0.412380 -0.100494 0.021325 -0.291868 0.123069 0.081698 -0.000848 -0.360484 0.102569 -0.062476 -0.188675 -0.041958 0.075474 -0.210559 -0.018388 0.128405 -0.235473 0.342481 -0.092259 -0.109095 -0.448530 -0.107705 -0.044304 0.038725 -0.374833 0.035828 -0.042652 -0.239595 -0.246145 0.019307 0.098227 0.400423 -0.066195 -0.043886 -0.096114 -0.222217 -0.049546 0.197846 0.153618 -0.234766 0.201162 0.437761 0.169674 -0.102850 0.154393 0.124480 0.100967 -0.361445 -0.387197 0.272178 0.134794 -0.075097
194 -0.124140 -0.028218 -0.093232 -0.269355 -0.074827 -0.058316 -0.112275 0.112031 0.264403 0.159809 -0.088709 -0.083834 -0.087128 0.173489 0.237557 0.081302 -0.190087 0.069561 0.051987 0.027091 0.000067 0.089945 0.151169 0.288088 -0.247818 0.253065 -0.123741 -0.180126 -0.199579 0.036058 0.126861 -0.024722 -0.240350 -0.139811 -0.067077 0.063300 -0.115010 -0.154762 -0.202357 0.122339 0.370443 0.124143 0.238811 -0.277373 -0.164167 0.109838 0.052893 -0.212584 -0.012952 0.427810 -0.155286 0.261385 0.227163 0.149139 -0.723778 -0.250877 0.182785 -0.232397 -0.061343 -0.076719 0.088133 -0.313333 0.129955 0.274254 -0.153915 0.171137 -0.154831 -0.484771 -0.165038 -0.094472 0.173197 0.121125 0.256718 0.061489 -0.133916 -0.008279 0.016808 -0.152973 -0.117084 -0.127937 0.042501 0.152569 -0.195704 -0.090054 0.279968 -0.067461 -0.184307 -0.109248 0.048524 0.063520 0.362724 0.282445 -0.068320 0.290512 0.218796 0.243787 -0.355181 -0.037870 -0.041910 0.128613 -0.047463 0.128491 0.175861 0.070846 -0.219130 -0.012836 -0.056407 0.044851 0.058278 -0.316797 -0.172557 0.142951 -0.047302 0.050298 0.073319 -0.166387 -0.120196 0.537547 -0.306772 0.063114 0.089415 0.308686 0.059801 0.113863 -0.100970 0.199240 -0.232167 0.081586
123 -0.031311 -0.041904 0.265096 0.140888 -0.135141 -0.100954 -0.216659 0.174425 -0.040324 -0.011368 -0.124040 0.331469 -0.098964 -0.048286 0.088121 -0.271279 0.006818 0.074905 -0.021565 -0.166323 0.087013 0.012240 0.230979 -0.481516 -0.117123 -0.107745 0.129260 -0.207439 0.517804 0.183219 0.179537 -0.007075 0.078294 0.351687 -0.463749 0.035421 0.180718 0.043762 0.001145 0.138655 0.038247 -0.030223 0.246469 0.002669 -0.189619 0.091083 -0.139063 -0.314658 0.058453 0.175588 -0.178266 -0.128433 0.024218 0.557756 -0.351754 0.038163 0.072053 0.279849 -0.147676 0.208676 0.008858 -0.159281 -0.042910 0.014880 -0.095747 0.292060 -0.207943 -0.144020 -0.217725 -0.105162 -0.058140 0.366675 0.392534 -0.327480 0.060187 -0.065321 0.034572 0.178795 0.318556 -0.023736 0.047418 -0.139813 -0.041268 -0.269614 -0.055843 0.058065 -0.215917 0.071442 0.215611 -0.340595 0.093309 0.572920 -0.456984 -0.062876 -0.318071 0.256037 -0.287951 -0.057284 -0.182165 0.294391 -0.272918 0.097596 -0.016554 -0.128767 0.160236 0.250945 0.024751 0.176472 -0.337758 -0.344574 -0.283567 -0.159612 -0.090067 0.094098 0.068842 0.201754 0.144940 0.257359 0.001849 -0.038176 0.103860 0.006143 0.267802 -0.325912 -0.067160 0.157642 0.147193 0.034259
45 -0.476569 -0.065443 0.119572 -0.021602 -0.089474 -0.052754 -0.044704 0.051884 -0.011693 0.151987 0.032928 0.100543 -0.249045 0.383206 0.041521 0.006433 0.160858 0.131496 0.102357 0.040800 0.203120 -0.246300 0.035021 -0.256768 0.119754 -0.037974 -0.374181 -0.030907 0.197921 -0.045336 -0.016675 0.019129 0.178263 0.163179 0.045722 0.171571 -0.000207 0.073279 -0.087908 0.258209 0.148664 0.344296 0.065518 -0.261555 0.011584 0.273958 0.061032 -0.257409 0.102466 -0.023882 -0.135995 -0.003514 0.124616 0.271766 -0.201451 0.056919 0.506088 0.240683 -0.262624 -0.681168 -0.039464 0.041510 0.075703 0.114821 -0.089878 0.437397 -0.176128 -0.043543 0.163633 0.067711 0.024086 0.304548 0.021319 0.067366 0.524569 -0.128852 -0.060301 0.361061 0.041456 -0.085766 0.450833 -0.222671 -0.055474 -0.175501 0.001343 -0.196226 -0.018057 -0.019896 -0.152594 -0.005282 0.266120 0.368536 -0.243641 0.057530 -0.168437 0.017868 -0.491421 0.036077 -0.063151 0.379148 -0.145370 0.206923 0.008120 0.120571 -0.086660 0.079828 0.205836 0.287919 -0.003461 -0.009154 0.028247 -0.155289 -0.134512 0.284984 0.067005 0.026572 -0.020377 0.246545 0.051121 -0.218012 0.421512 0.071560 -0.169680 -0.112573 -0.225581 0.178694 0.073907 0.023429
80 -0.271838 -0.274605 0.182859 0.008334 -0.379627 -0.100341 0.330627 0.312565 -0.336818 0.316065 -0.244706 0.114418 -0.013345 0.161395 -0.121761 0.175008 0.062523 0.185884 0.110880 0.390764 0.263191 -0.362720 0.512492 0.259699 -0.003764 -0.347708 -0.292894 -0.452615 -0.155102 -0.364601 0.207245 0.063624 -0.090391 -0.306287 -0.594603 -0.291139 0.021854 0.179283 -0.063667 0.007286 0.298953 0.298079 0.311800 -0.253989 -0.040380 0.184713 0.077924 -0.040947 0.066965 -0.234402 -0.216371 0.197345 0.081545 0.006847 -0.342520 -0.056792 0.406849 0.161027 -0.394702 -0.168808 0.037323 -0.473456 0.411414 0.301307 0.154099 0.607268 -0.446693 0.131240 0.238661 0.109434 0.352426 0.124266 0.394076 0.146486 0.123474 -0.049144 -0.330480 0.063447 0.254594 -0.229658 0.494849 -0.283997 -0.041650 -0.425700 0.027115 -0.293523 0.118295 -0.080233 -0.064064 -0.083840 0.511238 0.165660 -0.011141 0.231008 -0.170822 0.030640 -0.034236 -0.438519 -0.008884 0.436620 -0.395985 -0.142863 0.316772 0.481452 -0.082447 0.184877 -0.010862 -0.109323 0.008567 -0.017007 -0.030477 0.070175 0.104876 -0.057367 0.124789 0.061992 -0.055306 0.106394 -0.134136 -0.439973 0.289053 0.125779 -0.077501 -0.155821 -0.186661 -0.134817 -0.046290 -0.128060
23 -0.184710 -0.288370 0.131396 -0.099641 -0.295847 -0.141324 0.222970 0.368485 -0.308483 0.176137 -0.207779 0.093140 -0.056308 0.094289 -0.115433 0.088624 0.060542 0.177803 0.172976 0.292310 0.215957 -0.310844 0.474327 0.250685 -0.044107 -0.210732 -0.249351 -0.484317 -0.163607 -0.300476 0.220124 0.111566 -0.128757 -0.330236 -0.579315 -0.315360 -0.063404 0.142936 -0.091971 0.054972 0.286024 0.199118 0.284801 -0.181699 -0.020823 0.149846 0.042381 0.040526 0.030418 -0.139872 -0.163699 0.158746 0.046670 0.021471 -0.394236 -0.024121 0.243790 0.106699 -0.430329 -0.109568 -0.044143 -0.416736 0.415667 0.351916 0.142528 0.498638 -0.347797 0.021443 0.213500 0.056463 0.265224 0.099936 0.436811 0.027327 0.038995 -0.075967 -0.249400 0.024333 0.185964 -0.189015 0.443240 -0.251263 -0.085232 -0.380166 0.007941 -0.284713 0.116850 -0.037965 -0.090330 -0.198814 0.536235 0.202840 -0.029598 0.214875 -0.056329 0.101325 0.028684 -0.446298 0.051006 0.399137 -0.316679 -0.120897 0.366385 0.463522 -0.042669 0.107023 -0.012663 -0.100661 -0.091089 -0.063591 -0.025569 0.152491 0.078803 -0.138410 0.032625 0.068165 -0.167385 0.029832 -0.145735 -0.336256 0.279012 0.089189 -0.023195 -0.153827 -0.199720 -0.098488 -0.035325 -0.118971
82 -0.281430 -0.327752 0.237908 -0.114409 -0.314810 -0.111048 0.327947 0.389897 -0.430015 0.203743 -0.247962 0.141285 -0.078107 0.149463 -0.190992 0.045043 0.114937 0.185936 0.208565 0.339939 0.257032 -0.399117 0.525440 0.245803 -0.063291 -0.347632 -0.287664 -0.551298 -0.065141 -0.376019 0.256219 0.114379 -0.100871 -0.333563 -0.748920 -0.284085 -0.031409 0.211513 -0.060833 -0.084478 0.300090 0.314264 0.308266 -0.228055 0.037653 0.164727 0.040044 0.027368 0.097253 -0.272445 -0.223981 0.125912 0.002216 0.123838 -0.385157 -0.028787 0.285298 0.211572 -0.465944 -0.154750 -0.002393 -0.504100 0.495260 0.406009 0.140176 0.702275 -0.475750 0.082768 0.241282 0.034645 0.212819 0.134905 0.459014 0.062372 0.117435 -0.112734 -0.315929 0.105754 0.253633 -0.262443 0.568163 -0.348525 -0.128439 -0.448149 0.011627 -0.346747 0.112558 -0.018318 -0.087058 -0.290203 0.605769 0.242307 -0.079495 0.243958 -0.105733 0.080187 0.022656 -0.562926 -0.003120 0.560145 -0.365981 -0.192420 0.384241 0.484184 -0.035332 0.218440 0.046868 -0.019120 -0.120812 -0.033428 0.007185 0.120172 0.123429 -0.125524 0.064129 0.141371 -0.184611 0.054066 -0.152531 -0.398400 0.305578 0.071988 -0.025205 -0.225110 -0.278647 -0.090619 0.001268 -0.143410
54 -0.264510 -0.163942 0.028283 -0.161972 -0.014646 -0.285053 -0.207967 -0.167804 0.076197 -0.069321 -0.039559 0.164735 -0.197210 0.234874 0.085278 -0.335785 0.234636 -0.003203 0.165675 0.024673 -0.026312 -0.116268 -0.146115 -0.093487 0.248600 0.007250 -0.235817 -0.298963 0.187523 0.066099 -0.101220 0.129134 0.260258 0.028213 0.166830 -0.046900 -0.073281 -0.263865 -0.058299 0.225799 0.115175 0.072335 0.295151 -0.203315 -0.130797 0.280987 -0.021179 -0.296927 0.326983 0.111987 -0.183733 -0.098581 0.216929 0.328022 -0.137194 -0.019416 0.227327 0.103431 -0.281587 -0.547377 -0.350657 -0.088196 -0.146340 -0.143270 0.063922 0.174406 -0.011893 -0.262345 -0.004245 -0.011584 -0.249302 0.278868 0.372248 -0.199978 0.317772 0.045959 0.010627 0.149780 -0.098755 0.103076 0.286220 0.137083 -0.343782 -0.062855 0.106126 -0.100811 0.164079 -0.213175 -0.215743 0.083845 0.218468 0.186396 -0.251543 0.049479 -0.016577 0.089754 -0.240172 0.049947 0.204843 -0.184893 0.105159 0.122405 -0.032280 -0.172399 -0.070380 0.211998 0.135413 0.347853 -0.085448 0.080901 -0.089697 0.014745 -0.013838 -0.137620 -0.143817 0.267461 -0.143428 0.147609 0.025773 -0.299369 0.113821 0.323437 -0.157816 -0.051999 -0.181842 0.250654 0.151054 0.328361
