251 128
56 -0.153621 -0.217662 -0.120254 -0.133610 -0.013524 -0.165135 0.110268 0.074562 0.026568 0.109598 -0.143100 0.142918 -0.095882 0.083539 -0.284282 -0.315052 -0.090188 0.081228 0.076068 -0.050860 0.149072 0.143778 0.139142 0.014915 0.173406 0.052733 -0.231441 -0.111266 -0.291982 0.212229 0.029913 0.089182 0.102234 -0.090261 -0.005254 -0.101601 -0.074054 0.020170 -0.037061 0.202112 -0.093257 0.171317 0.116532 0.000921 -0.208256 0.161501 -0.009871 -0.220343 0.092747 -0.151199 -0.238477 -0.066784 0.185270 0.361609 -0.160053 -0.227150 -0.029704 0.003494 -0.349111 -0.171450 0.164316 -0.190147 -0.089673 0.065402 0.119896 0.047851 -0.081537 -0.037359 0.113968 -0.053769 0.151309 0.101245 0.417506 -0.115756 0.097474 0.016557 0.067767 -0.122176 -0.171988 0.215123 0.124653 -0.061671 -0.112477 -0.217837 -0.098361 0.011935 0.337012 0.026952 0.042859 0.227963 0.417449 -0.000850 0.150532 0.088365 -0.374318 -0.081921 0.120452 -0.044539 -0.076382 0.068978 -0.203256 0.063492 -0.269307 0.108311 0.099032 0.284386 0.004713 0.056798 -0.137243 0.108960 -0.165692 0.234508 0.214088 -0.084658 0.043496 0.086306 0.060078 0.191220 0.124878 -0.083442 0.292582 0.044563 -0.188240 -0.053533 -0.206111 0.128213 0.093978 -0.043060
55 -0.129240 -0.252164 -0.120936 -0.133528 -0.008916 -0.169584 0.097127 0.041331 0.097672 0.118538 -0.186890 0.159387 -0.176887 0.043456 -0.245219 -0.345712 -0.080167 0.112034 0.084200 -0.059192 0.200128 0.229820 0.145512 0.026838 0.118598 0.017260 -0.219761 -0.131363 -0.313146 0.252335 0.043506 0.072939 0.123580 -0.096855 0.070441 -0.104819 -0.099052 0.063737 -0.025015 0.111580 -0.102235 0.227364 0.125363 0.021530 -0.189252 0.212705 0.003825 -0.230869 0.122178 -0.150532 -0.247898 -0.023525 0.197168 0.407328 -0.168609 -0.188641 -0.012553 0.047307 -0.358374 -0.226032 0.192440 -0.161863 -0.123570 0.008965 0.107993 0.060612 -0.062814 -0.057048 0.179094 -0.096831 0.136951 0.136863 0.369484 -0.087433 0.176114 0.052075 0.077026 -0.151332 -0.196963 0.189688 0.079913 -0.089067 -0.106426 -0.182352 -0.120268 0.064853 0.263201 -0.015632 -0.031330 0.268752 0.387976 0.007043 0.160215 0.066103 -0.346414 -0.073894 0.117059 -0.020089 -0.104711 0.010273 -0.166652 0.062944 -0.325336 0.066082 0.089372 0.255877 0.007757 0.080378 -0.059180 0.086735 -0.116718 0.160709 0.221237 -0.092602 0.130340 0.048523 0.070658 0.221093 0.093549 -0.117565 0.228779 0.045762 -0.134977 -0.064064 -0.198424 0.118273 0.050160 0.038932
85 -0.095617 -0.224438 -0.027168 -0.064271 -0.054995 -0.080248 0.099354 -0.008088 -0.044877 0.237691 -0.126519 0.166757 0.012174 0.072821 -0.033355 -0.169139 -0.061780 0.016401 0.033093 0.008409 0.077976 0.034999 0.233636 -0.023787 0.026790 -0.021361 -0.147816 -0.063108 -0.158155 -0.025562 -0.037907 0.087442 0.032574 -0.085388 -0.107251 -0.100575 -0.025062 0.083432 0.091242 0.133904 -0.054338 0.011062 0.104662 -0.008484 -0.129639 0.117147 -0.002586 -0.090980 0.012867 0.015425 -0.091228 0.076454 -0.093088 0.228960 -0.236680 -0.170721 0.158272 -0.056842 -0.296778 -0.011105 0.133281 -0.077752 -0.076519 0.134977 0.073506 0.148848 -0.197187 0.011166 0.166893 0.039233 0.224023 0.124406 0.279174 -0.169010 0.046723 0.000861 -0.033264 0.144541 -0.046574 0.145473 0.020709 -0.070453 0.013023 -0.146175 -0.047977 -0.071048 0.247679 -0.011693 0.010629 0.138451 0.340043 0.155590 0.059433 -0.060258 -0.306320 0.295423 0.087953 -0.052642 0.130059 0.103152 -0.246084 -0.071395 -0.341272 0.240259 0.249287 0.139679 0.047299 0.120510 0.071007 0.135000 0.019721 0.160414 0.098225 -0.053343 0.213531 0.216069 0.097654 0.114498 -0.003164 -0.043200 0.316207 -0.030186 -0.064145 -0.160400 -0.138596 0.061718 0.058659 -0.074323
59 -0.172140 -0.280286 -0.202419 -0.208710 0.072358 -0.120056 0.101018 -0.034313 -0.007251 0.140369 -0.164070 0.176699 0.012809 0.229867 -0.095658 -0.247647 0.147138 -0.005555 0.146682 0.149603 0.038240 -0.034027 0.205072 -0.030776 0.148533 -0.077723 -0.271297 0.010413 -0.189475 -0.034131 -0.149163 0.146330 0.086821 -0.053273 0.000705 -0.052408 -0.144841 -0.107956 0.143200 0.028827 -0.020074 -0.029444 0.034027 -0.124470 0.002229 0.134304 -0.002634 -0.121026 0.211012 -0.081652 -0.038678 0.067529 -0.063940 0.335345 -0.138856 -0.220160 0.226386 -0.045882 -0.360812 -0.227631 0.058246 -0.046089 -0.086599 0.069945 0.056615 0.092716 -0.269744 -0.014087 0.179157 0.065795 0.103533 0.067214 0.280187 -0.202343 0.289266 -0.004187 -0.118991 0.229190 -0.152099 0.057811 0.089782 -0.034835 -0.149260 -0.087074 0.064070 -0.059716 0.324331 0.005406 -0.091334 0.121580 0.442191 0.180121 0.005471 0.113215 -0.184140 0.236469 0.047435 -0.107448 0.162304 0.092304 -0.286974 -0.028856 -0.366915 0.252009 0.086037 0.040008 0.176498 0.344378 0.056907 0.357707 0.100835 0.119893 0.124663 0.064771 0.089715 0.243731 -0.035951 0.058653 0.019972 -0.039022 0.361751 -0.074245 -0.107960 -0.122512 -0.183703 0.056549 0.099146 0.075636
97 -0.226893 -0.073709 -0.119965 -0.118761 0.093742 -0.414602 0.072547 0.186768 0.239884 -0.021466 -0.151820 0.172263 0.029243 -0.111492 0.292771 -0.067890 0.258120 -0.035628 -0.284395 -0.200697 0.124450 0.111059 0.263205 -0.080398 -0.067317 -0.154039 0.031869 -0.093613 -0.197103 -0.004847 0.015199 0.022903 -0.047531 0.115238 -0.046341 0.090537 0.120364 -0.059634 0.098464 -0.067292 0.040494 0.227094 -0.216801 -0.116770 -0.053701 -0.162268 0.201097 -0.104248 0.122889 -0.106251 -0.445555 0.205334 0.103015 0.710361 0.038942 -0.310525 0.139203 -0.134927 0.026007 -0.160998 0.168545 -0.246362 0.022023 -0.113133 -0.002954 0.267271 -0.089687 -0.136841 -0.036360 0.107868 0.112545 0.150813 0.156861 0.186753 0.460700 -0.072019 -0.126825 0.129546 0.020349 -0.245510 0.084605 0.100823 -0.132805 -0.263549 0.174618 0.112675 0.115386 0.113795 0.075626 -0.311586 0.185116 0.019755 -0.189009 0.112289 0.119076 0.216669 -0.048186 -0.282761 0.127712 0.032615 -0.385963 -0.124947 -0.258462 -0.227721 0.144621 -0.004511 0.269390 0.468850 -0.120397 -0.052680 -0.117383 0.005200 0.166830 0.230462 0.090815 -0.052770 0.332930 0.286795 0.177043 0.144389 0.196876 -0.032674 0.252409 -0.195686 -0.144386 0.251250 0.158537 -0.065310
50 -0.214967 -0.251275 -0.195002 -0.156983 0.055115 -0.076962 0.110636 -0.014902 -0.012174 0.113800 -0.127325 0.152485 -0.021460 0.223672 -0.094490 -0.277558 0.043596 -0.005802 0.127356 0.142661 0.018855 -0.042749 0.194513 0.007186 0.119062 0.008492 -0.173551 -0.005995 -0.140682 -0.001217 -0.093237 0.110470 0.044622 -0.025925 -0.049527 -0.045991 -0.085584 -0.039521 0.141338 0.063308 0.020930 -0.017375 0.127838 -0.082405 -0.024237 0.148947 -0.030660 -0.109337 0.186102 -0.049610 -0.068366 0.026665 -0.080177 0.284629 -0.194784 -0.238381 0.137912 -0.082765 -0.289694 -0.147917 0.187384 -0.105999 -0.082834 0.143009 0.054281 0.070653 -0.309198 -0.062008 0.135467 0.073417 0.047031 0.069163 0.275039 -0.222803 0.121022 0.025990 -0.010692 0.165934 -0.142564 0.074344 0.031483 -0.086922 -0.094002 -0.090779 0.057205 -0.014741 0.287098 -0.039954 -0.017219 0.135519 0.412282 0.195382 0.036052 -0.013340 -0.181183 0.269511 0.070720 -0.085611 0.109214 0.099968 -0.288244 -0.010780 -0.269002 0.247146 0.049904 0.054575 0.115154 0.216013 -0.012713 0.325004 0.082993 0.087838 0.059576 -0.036529 0.097553 0.190226 -0.023634 0.079937 -0.043975 -0.065455 0.379672 0.011035 -0.083759 -0.059338 -0.186451 0.084560 0.061340 0.036168
96 -0.179128 -0.079601 -0.033479 -0.127068 0.061641 -0.405987 0.048856 0.068069 0.214411 0.000361 -0.204119 0.171476 0.005929 -0.004608 0.240658 -0.046982 0.162076 -0.034282 -0.302099 -0.227066 0.202743 0.191303 0.270455 -0.101574 -0.076008 -0.188455 -0.028285 -0.083655 -0.261352 0.071133 0.000609 -0.009991 -0.006073 0.163728 -0.057717 0.049415 0.014619 0.003835 0.070565 -0.093768 0.053201 0.226357 -0.169584 -0.162171 -0.057896 -0.183260 0.243363 -0.058782 0.126149 -0.076817 -0.442477 0.190461 0.024585 0.707201 -0.001166 -0.262877 0.226551 -0.052903 -0.050737 -0.150803 0.190553 -0.211768 0.085740 -0.061487 -0.101107 0.297395 -0.091522 -0.139325 -0.015194 0.148850 0.212857 0.169956 0.186180 0.179152 0.412686 -0.059261 -0.110084 0.035262 -0.021536 -0.183114 0.063073 0.128868 -0.084568 -0.223719 0.192842 0.070589 0.134203 0.119083 0.104196 -0.317176 0.182422 0.048122 -0.136945 0.101783 0.035562 0.246626 -0.056053 -0.212086 0.077246 0.035859 -0.361685 -0.120296 -0.306190 -0.158989 0.203247 0.063487 0.248716 0.437806 -0.067992 -0.063994 -0.163345 0.043353 0.171916 0.242078 0.109829 -0.093429 0.379249 0.298409 0.229639 0.134562 0.275405 -0.013639 0.202691 -0.249238 -0.131488 0.309208 0.113141 -0.169313
62 -0.071454 -0.303797 -0.069808 -0.163638 -0.054440 -0.150818 0.041584 0.157065 0.013427 0.000078 -0.142189 0.059848 0.032083 0.162884 -0.161825 -0.234982 0.134621 0.041583 0.128202 -0.033372 0.128626 0.027708 0.161402 0.025327 0.239437 -0.112064 -0.290921 0.026837 -0.160014 -0.179897 -0.135988 -0.039280 0.081242 -0.028219 0.076020 0.151641 -0.072096 -0.091243 0.065454 0.200932 -0.089233 0.079247 -0.089783 -0.269538 -0.083890 0.135418 -0.002464 -0.064098 0.035523 -0.293097 -0.198352 -0.049234 0.086736 0.293183 -0.158030 -0.264908 0.012478 -0.013916 -0.260749 -0.241347 0.065586 -0.084567 0.144168 0.099422 -0.123192 0.074117 -0.085980 -0.020855 0.106313 -0.030219 0.032847 -0.018114 0.187477 0.040190 0.195080 -0.025054 -0.027354 0.133169 -0.172960 -0.088497 0.199167 -0.039255 -0.173869 -0.149193 0.029445 0.023594 0.333281 0.080806 -0.044677 0.031500 0.383299 0.113575 -0.123103 0.150416 -0.132192 0.153688 0.084454 -0.038193 0.168780 0.207180 -0.204633 -0.010208 -0.161101 0.217872 0.038102 0.085438 0.155698 0.110811 -0.126019 0.215389 -0.074727 0.145880 0.112905 0.069224 0.007606 0.080902 0.043320 0.098009 0.098463 0.146642 0.391748 -0.021507 -0.233433 -0.124339 -0.150487 0.043693 0.146448 -0.131200
57 -0.177769 -0.261720 -0.142541 -0.155226 -0.002387 -0.128281 0.062532 0.051246 0.057735 0.117432 -0.158227 0.167298 0.037337 0.162188 -0.102792 -0.205963 0.121751 -0.037035 0.101725 0.087988 0.050156 -0.033617 0.213373 0.035838 0.176918 -0.045659 -0.245376 0.014488 -0.177090 -0.039746 -0.096149 0.063008 0.030914 -0.052301 -0.033713 -0.041865 -0.053554 -0.042067 0.145920 0.094364 -0.043421 -0.012967 -0.024910 -0.068943 -0.032576 0.131788 -0.040510 -0.134081 0.163548 -0.083369 -0.021785 0.057657 0.021093 0.322927 -0.106235 -0.236140 0.116678 -0.011148 -0.328193 -0.182552 0.083569 -0.061206 -0.052709 0.100939 0.081162 0.020233 -0.221806 -0.048363 0.216620 0.103123 0.069315 0.102723 0.230039 -0.117798 0.294303 0.010365 -0.175872 0.219823 -0.114795 0.083431 0.033526 -0.081447 -0.139119 -0.085241 0.067567 -0.034595 0.290554 0.054286 -0.124810 0.176583 0.437291 0.151334 -0.003719 0.058000 -0.168226 0.237934 0.069039 -0.123967 0.187601 0.029406 -0.316439 -0.033795 -0.378143 0.240527 0.077052 0.009626 0.133704 0.229029 0.043124 0.281154 0.080832 0.073232 0.128708 0.044220 0.089003 0.125612 0.010221 0.093853 -0.026749 -0.053883 0.343509 -0.074757 -0.034453 -0.114569 -0.185096 0.029865 0.136980 0.067927
46 -0.175928 -0.336431 -0.076759 -0.149865 0.015511 -0.074320 0.090637 0.034629 -0.040371 0.137199 -0.139070 0.183507 0.020828 0.145828 -0.139367 -0.263698 0.103831 0.002617 0.112075 0.045184 0.089867 -0.016987 0.240554 0.022844 0.188644 -0.084228 -0.286533 0.029418 -0.128815 -0.108551 -0.143249 0.053748 0.080514 -0.042563 0.058165 0.047993 -0.078961 -0.048768 0.108163 0.082574 -0.093625 0.038655 -0.034789 -0.163827 -0.020575 0.182534 -0.076560 -0.132663 0.098377 -0.161606 -0.078580 0.016832 -0.025068 0.281503 -0.172619 -0.263751 0.084247 -0.040167 -0.320515 -0.240956 0.087418 -0.053689 -0.055247 0.197275 0.005944 0.040338 -0.251473 -0.029407 0.250329 -0.024718 0.021189 0.032112 0.220054 -0.107680 0.277254 -0.021775 -0.071422 0.251400 -0.168639 0.045566 0.062237 -0.075345 -0.183416 -0.119221 0.051481 -0.052005 0.315469 0.048905 -0.082738 0.179019 0.460780 0.115653 0.009619 0.066720 -0.205482 0.240183 0.070061 -0.039997 0.146044 0.129617 -0.220715 -0.014312 -0.363258 0.199124 0.125981 0.087574 0.158188 0.232865 -0.003882 0.357081 0.039217 0.099129 0.113274 -0.009170 0.103416 0.220960 0.005610 0.092194 0.018873 0.023801 0.293523 -0.082347 -0.188640 -0.130769 -0.184594 0.023004 0.150239 0.030740
22 -0.120323 -0.198854 -0.183760 -0.117792 -0.072492 -0.050705 0.116494 0.136719 0.011329 0.152034 -0.215167 0.062811 0.192900 0.168025 -0.089548 -0.222837 0.131555 -0.009782 0.238703 0.261365 -0.016569 -0.121705 0.243705 0.132828 0.053745 0.094048 -0.227492 -0.186880 -0.224553 -0.034778 -0.020742 0.125242 -0.058334 -0.120336 -0.274265 -0.078858 -0.072875 0.029181 0.100585 -0.027488 -0.003447 -0.092088 0.056987 -0.076695 -0.022751 0.076813 -0.138520 0.102434 0.234592 -0.069953 -0.004817 0.055437 -0.125379 0.152076 -0.154105 -0.344827 0.141434 -0.091407 -0.294490 -0.190547 0.099960 -0.189556 0.072932 0.221391 0.109175 0.165404 -0.328609 -0.039925 0.161985 0.141225 0.092823 0.191966 0.276914 -0.099190 0.122472 0.000428 -0.228206 0.216295 -0.147960 0.139648 0.041719 -0.275266 -0.049601 -0.042028 0.057094 -0.100260 0.291764 -0.018899 -0.113505 0.146951 0.496178 0.109138 -0.068654 0.082152 -0.194121 0.274353 0.172095 -0.323933 0.201138 0.094823 -0.376999 -0.145444 -0.222298 0.405882 0.092629 -0.040428 0.070549 0.188718 0.055697 0.221473 0.027112 0.081108 0.095403 0.004584 0.148666 0.183574 -0.082369 0.078367 -0.143701 -0.077322 0.325259 -0.040225 0.084072 -0.113603 -0.123824 0.021116 0.097663 -0.063059
88 -0.140612 -0.213614 -0.110153 -0.122075 -0.004606 -0.105710 0.092909 0.019119 -0.036293 0.163585 -0.134829 0.163806 -0.080353 0.031781 -0.095202 -0.308346 0.024579 -0.013126 0.096538 0.065953 0.022079 -0.020417 0.288671 0.006858 0.099028 0.017958 -0.122938 -0.042890 -0.026666 -0.008189 -0.098683 0.092207 0.136562 -0.071780 -0.083146 -0.116021 -0.083978 0.008361 0.177278 0.128462 -0.106870 -0.037635 0.102025 0.045303 -0.078732 0.230840 -0.065589 -0.228863 0.102796 0.028180 -0.158126 0.016778 -0.049747 0.261582 -0.199697 -0.156188 0.052631 -0.111481 -0.338372 0.008188 0.158748 -0.035729 -0.117551 0.061724 0.162065 0.071547 -0.204094 -0.029692 0.176207 0.077895 0.072988 0.035229 0.271937 -0.296880 0.107739 0.103606 0.006878 0.216075 -0.026541 0.030926 0.007867 -0.050640 -0.056879 -0.159828 -0.032307 0.007781 0.210054 -0.067558 -0.107570 0.181721 0.343646 0.198830 0.024601 -0.020476 -0.298691 0.260054 0.055375 -0.045837 0.141211 0.182429 -0.253118 0.018592 -0.329470 0.179802 0.093181 0.090937 0.031827 0.154126 0.038926 0.233255 0.157842 0.077398 0.020936 -0.093807 0.086146 0.188460 0.032642 0.134859 -0.025290 -0.012064 0.293569 -0.010574 -0.032121 -0.138323 -0.194788 0.047673 0.098548 0.122319
195 0.022563 -0.215110 -0.065980 -0.207224 -0.084252 -0.143567 -0.308889 0.009042 0.293055 -0.006621 -0.155436 -0.056488 0.049396 0.073189 -0.031785 -0.161119 0.041786 0.148365 0.366505 -0.026466 0.010233 0.180208 0.027113 0.175513 -0.067412 0.185597 0.049469 -0.199942 -0.014203 0.137835 -0.034842 0.024837 -0.106690 0.029394 -0.200617 0.029814 -0.249137 -0.187346 0.006302 0.160372 0.104209 0.002789 0.030987 -0.147580 -0.233248 -0.110023 -0.218146 0.015322 0.004931 0.095451 -0.074581 -0.071892 0.193005 0.343089 -0.452079 -0.239512 -0.195002 -0.114657 -0.258490 -0.021650 0.013809 -0.143566 0.194836 0.201261 -0.235546 0.057549 0.041837 -0.327023 -0.097190 -0.131270 -0.056771 0.095110 0.281590 -0.082993 -0.174842 0.113755 0.002494 -0.057983 -0.239261 -0.030487 0.043262 0.126712 -0.279062 0.015991 0.162119 0.043126 0.107877 0.143008 0.029178 0.028510 0.330474 0.185222 -0.152256 0.156031 0.073896 0.112765 0.034335 -0.171323 0.132190 0.126001 0.053518 0.052618 -0.061880 0.211775 0.092287 -0.018837 -0.026923 -0.106266 -0.066771 -0.181194 -0.005256 0.080486 -0.006637 -0.018364 0.057863 -0.113013 0.002462 0.356527 -0.270833 0.227504 0.212375 0.074967 0.159662 0.022431 0.008320 0.147324 -0.161975 0.041954
155 -0.177271 -0.050224 -0.340011 -0.020627 -0.075897 -0.148462 -0.126002 -0.103086 0.220926 0.190419 -0.046738 0.059113 -0.108155 0.017327 0.234461 -0.187530 -0.114299 -0.013944 -0.021212 0.113457 -0.296652 -0.015296 0.231876 -0.020761 -0.074036 -0.021608 -0.020324 -0.100998 0.154921 0.018882 -0.053433 -0.055100 0.062441 0.022793 -0.096209 0.120242 -0.113678 -0.107883 0.216185 0.121292 0.090984 0.171368 0.112807 -0.048006 -0.202232 0.054240 -0.072790 -0.136101 0.165731 -0.102199 -0.369745 0.003570 0.087753 0.458661 -0.297058 -0.175458 0.176429 -0.119434 -0.109893 -0.181350 0.313306 -0.252840 0.122664 -0.085024 -0.083362 0.342228 -0.142599 -0.084849 -0.130654 0.111253 0.018177 0.063937 0.186832 0.043989 -0.027517 0.132313 -0.068664 0.122544 0.004119 -0.105509 0.139546 0.067647 -0.166596 0.148719 0.034791 0.067134 0.075903 -0.049419 0.002393 -0.088189 0.146803 0.183802 -0.049962 -0.078042 -0.148946 0.215830 -0.028159 -0.243873 0.134437 0.023869 -0.146032 0.096566 -0.309177 0.046165 0.037101 -0.151767 0.097422 0.237242 0.163914 -0.141680 0.101607 0.023074 -0.118147 0.052533 0.146515 0.112535 0.162758 0.369684 -0.131207 0.163537 0.179882 0.082947 0.155646 0.163655 -0.003012 0.016505 -0.023819 0.121263
126 -0.216960 -0.133172 -0.074793 -0.104616 -0.026107 -0.250546 -0.016661 0.106220 0.043573 -0.068064 -0.124350 0.086120 0.086201 0.071593 0.061630 -0.230312 0.154315 0.034313 0.050778 -0.130470 0.191248 0.017525 0.210639 -0.083935 -0.016824 -0.099849 -0.230895 -0.122621 -0.137756 -0.008123 -0.065054 0.152258 -0.023830 0.235362 0.020316 0.056672 0.015151 -0.019092 0.155130 0.196063 -0.111401 -0.100014 -0.197958 -0.063178 -0.030738 -0.125967 0.118216 -0.042474 0.140622 -0.055635 -0.187118 -0.026599 -0.088164 0.330629 -0.010869 -0.094440 0.137012 -0.177980 -0.306863 -0.222980 0.017592 -0.014569 0.069272 0.127130 0.041995 0.145685 -0.103288 -0.033482 0.050095 0.074905 0.021429 0.128960 0.179436 0.036481 0.199160 -0.071979 -0.124854 0.192638 -0.085628 -0.053946 0.126558 0.045915 -0.166898 -0.174193 0.031047 -0.038864 0.187749 0.178698 -0.070634 -0.069964 0.226750 0.137906 -0.106207 0.105075 -0.132945 0.201088 -0.097839 -0.114123 0.103993 0.196872 -0.247438 -0.163306 -0.122999 0.192928 0.153705 -0.150806 0.190164 0.351945 -0.081628 0.118770 -0.012737 0.186352 0.160583 0.199170 -0.101272 0.063379 0.133986 0.115467 -0.016392 0.217202 0.338844 -0.268331 0.031101 -0.199866 -0.149629 0.109665 0.150483 -0.231207
159 0.088276 -0.184083 0.214965 0.013354 -0.218618 -0.113671 -0.024957 0.157307 0.154454 0.208782 -0.234792 0.085321 0.125312 -0.137429 -0.161377 -0.123018 0.101743 0.012134 0.093840 0.078975 0.173426 0.127902 0.238904 0.063695 0.083373 -0.013756 0.005318 -0.073123 -0.261432 -0.137254 0.044877 0.012647 0.018977 0.007567 -0.349170 -0.013288 -0.009483 0.069242 0.043489 -0.058118 -0.124809 -0.002056 -0.119119 -0.091536 -0.175035 -0.050541 -0.083570 0.015097 0.075045 -0.065272 -0.189487 0.023785 0.087145 0.186405 -0.229453 -0.223389 -0.015934 0.161191 -0.301265 0.081841 0.132644 -0.071523 0.038613 0.088491 -0.051769 0.057376 -0.053609 0.081927 -0.063634 0.075418 0.238364 0.019392 0.182855 -0.018676 0.105851 0.037161 -0.192387 0.254439 -0.017438 0.043376 -0.013616 -0.110514 -0.054514 -0.238070 0.086451 0.063416 0.132735 0.108232 -0.028442 0.048918 0.242244 0.108566 -0.060477 0.120749 -0.162767 0.154600 0.021166 -0.081694 0.107310 0.282867 -0.259965 -0.195592 -0.260427 0.174731 0.286634 0.195907 -0.113297 -0.087676 0.011774 -0.182338 -0.048281 0.089375 0.047156 0.024648 0.119657 -0.019048 0.048849 0.182408 0.025522 0.051383 0.219065 -0.157192 0.189128 -0.287263 -0.056898 0.102358 0.048099 -0.114250
66 -0.177802 -0.122992 -0.114062 -0.097243 -0.021597 -0.277846 0.079841 0.106987 0.019779 0.081947 -0.055489 0.043569 -0.024975 0.076911 0.133404 -0.252260 -0.101698 0.038460 -0.036094 -0.016842 -0.014808 -0.009849 0.259019 -0.013513 -0.021371 0.075928 -0.076456 -0.068577 0.027575 0.016771 0.004797 0.044995 0.013997 0.041708 -0.158037 -0.028132 -0.004027 0.034213 0.134266 0.204049 0.030307 -0.008037 0.167513 0.007042 -0.140940 0.100222 0.046964 -0.182320 0.072496 0.067739 -0.284233 0.014524 -0.021131 0.312006 -0.142439 -0.224014 0.063142 -0.199003 -0.129141 0.082002 0.305327 -0.167690 0.041082 -0.033790 0.054557 0.195131 -0.217107 -0.108919 -0.013256 0.117784 0.047687 0.065179 0.277541 -0.142730 -0.114269 0.056424 0.161996 0.027813 0.036698 -0.040146 0.037531 0.004793 -0.010461 -0.175057 0.004116 -0.003949 0.149201 -0.082523 0.110181 -0.069546 0.214363 0.245343 -0.045209 -0.097702 -0.175817 0.331184 -0.011620 -0.037579 0.144340 0.130467 -0.242903 0.046550 -0.025288 0.047316 0.037113 0.047325 0.089753 0.103614 -0.148919 0.073791 -0.047733 0.092699 -0.012344 -0.019367 0.030176 0.076523 0.160748 0.230085 -0.042118 0.093122 0.324190 0.127583 -0.033438 -0.071002 -0.162195 0.113228 0.093328 -0.115044
212 -0.134972 -0.183640 -0.078792 -0.071558 -0.028946 -0.140647 -0.148251 0.012081 0.106458 0.142041 -0.137457 0.199990 -0.114912 0.270295 0.013656 -0.122355 -0.097656 0.013838 0.135969 -0.060360 0.025433 0.022122 0.236459 -0.035639 -0.127072 0.018231 0.060815 -0.138041 0.042090 0.233353 -0.092080 0.044495 -0.157067 0.028888 -0.193499 -0.079352 -0.055550 -0.058106 0.009422 0.177316 0.072202 0.016248 0.134630 0.057272 -0.233788 0.053027 -0.061929 -0.040179 -0.104267 0.108566 -0.091090 -0.032434 -0.115535 0.292985 -0.358813 -0.129679 0.134940 -0.070536 -0.327337 0.064744 0.322821 -0.133233 0.036770 0.135787 -0.174051 0.125904 -0.157661 -0.177934 0.035384 0.093556 0.088363 0.139455 0.310358 -0.190923 -0.204030 0.113498 0.047492 0.024476 -0.020639 0.084568 -0.045875 -0.140186 -0.155001 0.042599 0.034439 -0.036960 0.181578 0.075866 0.024357 -0.059313 0.236674 0.208185 -0.068162 -0.175224 -0.085605 0.310930 0.092246 -0.156304 0.112912 0.091613 -0.230200 0.003610 -0.119198 0.175307 0.223349 0.042389 0.075553 -0.022702 0.049710 -0.035678 0.034080 0.059638 0.000312 -0.136027 0.112059 0.061561 0.074693 0.157721 -0.256864 0.082106 0.344785 0.080008 0.045428 -0.077899 -0.084878 0.035253 -0.066257 0.001793
149 -0.170897 -0.246346 -0.218470 -0.162704 -0.000520 -0.112718 -0.158691 -0.057271 0.194495 0.126118 -0.053668 0.150044 -0.126781 0.232352 0.120407 -0.059657 -0.069869 -0.001752 0.144916 0.057695 -0.079729 0.012205 0.156246 -0.081267 -0.116826 0.074364 0.083660 -0.041729 0.036014 0.136442 -0.048482 0.034764 -0.100641 -0.013508 -0.105225 -0.023547 -0.100266 -0.143369 0.094972 0.190663 0.122725 0.044916 0.171168 -0.033408 -0.159037 0.072345 -0.068094 -0.060418 -0.024901 0.085079 -0.078961 -0.009444 0.032208 0.367096 -0.394949 -0.150856 0.074280 -0.148611 -0.228954 0.001557 0.244602 -0.131416 0.023576 0.055008 -0.170232 0.106627 -0.105428 -0.182343 -0.032266 0.046066 0.060858 0.052659 0.279934 -0.187163 -0.106016 0.068978 0.026678 0.060089 -0.124664 -0.072961 0.050867 -0.015747 -0.207979 0.053500 0.052697 0.057539 0.176598 0.041211 0.066762 -0.025923 0.229901 0.257621 0.010163 -0.078171 0.070914 0.255105 0.007392 -0.154426 0.131929 0.012922 -0.124707 0.032138 -0.183200 0.172262 0.119930 -0.115751 0.095367 0.073590 0.091963 -0.078085 0.117079 0.034239 -0.041313 -0.055092 0.093034 0.087567 0.012956 0.223963 -0.247665 0.124783 0.313298 0.000986 0.140200 0.107634 -0.054326 0.024760 -0.111811 0.100936
110 0.034263 -0.378127 -0.039493 -0.282181 0.087043 -0.128503 -0.070336 0.017638 0.203744 -0.061154 -0.047669 -0.031645 0.006343 0.097766 0.138970 -0.127324 0.094517 0.044741 0.191567 0.021127 0.110780 0.199794 0.064128 -0.025226 -0.149726 -0.066444 0.065081 0.008848 -0.127098 -0.084000 -0.017424 0.158481 -0.055580 0.020085 -0.067436 0.121350 -0.100305 -0.132588 0.114827 -0.008036 0.116256 0.015031 -0.019344 -0.272641 -0.078684 -0.122476 0.077464 0.060319 0.016037 0.013736 -0.270997 0.012694 0.077628 0.417260 -0.358118 -0.171312 -0.034976 -0.088720 -0.082975 -0.106051 0.055538 -0.090486 0.096263 0.039494 -0.305086 0.111094 0.134148 -0.209751 -0.246143 -0.114382 0.095389 -0.084087 0.177077 -0.003663 0.065692 -0.024246 0.065787 0.017650 -0.308902 -0.231020 0.257734 0.275653 -0.304483 -0.133939 0.150096 0.183233 0.126672 0.086786 0.276062 -0.190484 0.234385 0.198852 -0.073539 0.181627 0.159156 0.178955 0.001674 -0.014870 0.104589 0.181916 -0.026400 -0.124978 -0.058391 0.051249 0.155683 -0.017837 0.044787 0.075550 -0.131018 -0.166161 -0.009901 0.145259 0.005121 0.046502 -0.016334 -0.023981 -0.038484 0.264061 -0.102924 0.290714 0.201807 -0.135272 0.136634 -0.013446 -0.012851 0.262507 -0.148952 -0.170573
61 -0.153813 -0.249743 -0.157630 -0.126155 -0.051294 -0.171388 0.066170 0.089122 0.044954 0.085203 -0.108562 0.049838 0.016186 0.150094 -0.031401 -0.264947 -0.026180 0.068267 0.044197 0.058987 -0.006459 -0.012544 0.188190 -0.010556 0.134505 -0.000830 -0.211531 -0.033125 -0.110077 -0.019446 -0.060089 0.007443 0.027320 -0.039318 -0.034765 0.006735 0.002060 -0.017768 0.088713 0.204349 -0.028402 0.028265 0.068893 -0.035418 -0.109178 0.144568 -0.019695 -0.136531 0.098982 -0.124580 -0.197674 -0.010942 0.051655 0.312225 -0.124087 -0.229640 0.057417 -0.121362 -0.237344 -0.191311 0.215669 -0.169692 0.070604 0.052890 -0.007284 0.126658 -0.189669 -0.023993 0.065238 0.044363 0.017900 0.061565 0.237545 -0.075829 0.047465 -0.009969 0.016834 0.068223 -0.136285 0.021242 0.126457 -0.095375 -0.122341 -0.076201 -0.025501 -0.046354 0.269338 -0.000757 -0.002854 0.047341 0.361032 0.131835 0.030885 0.004574 -0.186791 0.194707 0.075753 -0.111627 0.098612 0.057882 -0.253489 0.008180 -0.170897 0.175343 0.029428 0.002933 0.115710 0.153535 -0.098819 0.167709 -0.035690 0.141803 0.096332 -0.005790 0.055045 0.106088 0.042805 0.163503 -0.023310 0.057839 0.349538 0.062129 -0.177445 -0.037792 -0.162031 0.031541 0.115101 -0.083622
65 -0.107757 -0.227538 -0.088664 -0.245480 -0.036692 -0.122901 0.076548 0.078353 0.088847 0.065729 -0.060394 -0.083045 0.077571 0.035740 0.037368 -0.192230 -0.033549 0.090051 0.088488 0.049207 -0.011206 0.130388 0.124283 0.107256 0.014112 0.107968 -0.094837 -0.079397 -0.216357 -0.010551 0.066940 0.077931 -0.003031 -0.107391 -0.116644 0.030641 -0.067570 0.021912 0.018952 0.191996 0.019638 0.049196 0.075641 -0.192707 -0.052634 -0.014302 0.006396 -0.043297 0.105100 -0.022646 -0.197806 0.029769 0.037608 0.272904 -0.175685 -0.324350 -0.140498 -0.249370 -0.102658 -0.128345 0.078611 -0.225043 0.132878 0.235067 -0.003259 0.085336 -0.108459 -0.087736 -0.002827 -0.084109 0.083272 0.024142 0.206636 -0.010016 -0.027449 -0.071409 0.082354 -0.026782 -0.259483 -0.026620 0.079858 0.108451 -0.108489 -0.237732 0.074704 0.006111 0.153147 -0.002193 0.147618 0.042179 0.332943 0.039472 0.084841 0.147278 -0.049295 0.129021 0.075220 -0.051641 0.096715 0.066340 -0.102603 -0.066129 -0.133690 0.142989 0.030068 -0.022587 0.043060 0.063975 -0.173160 0.091026 -0.137220 0.165210 0.072653 0.003714 0.047776 0.070668 0.032285 0.263277 -0.038341 0.110584 0.251218 0.083913 -0.042609 -0.010782 -0.133020 0.150056 0.012346 -0.202380
127 -0.245594 -0.232917 -0.150895 -0.177536 0.061421 -0.086024 0.054200 -0.039108 0.024053 0.125736 -0.131230 0.173081 0.007101 0.257031 -0.021716 -0.207435 0.094956 -0.069623 0.091467 0.104488 0.054732 -0.076971 0.277624 -0.035258 0.077483 -0.060224 -0.127244 0.037258 -0.088365 -0.005938 -0.128649 0.045917 0.038065 0.022025 -0.071357 -0.016530 -0.053564 -0.033566 0.187666 0.026303 0.029101 -0.016207 0.039464 -0.107367 0.038067 0.116686 -0.038155 -0.032172 0.182929 -0.041988 -0.060435 0.049529 -0.149965 0.321106 -0.179400 -0.231429 0.208618 -0.096249 -0.309535 -0.183773 0.170209 -0.071695 -0.010837 0.160929 -0.025721 0.091409 -0.334337 -0.052592 0.185353 0.155912 0.033477 0.063287 0.169735 -0.170446 0.215527 0.000773 -0.081049 0.305772 -0.111838 -0.030345 -0.007443 -0.077202 -0.100595 -0.083372 0.115592 -0.037943 0.230902 0.028965 -0.055179 0.052069 0.370062 0.193283 -0.005233 0.011765 -0.095141 0.345597 0.024111 -0.113293 0.166682 0.107893 -0.312815 -0.043197 -0.316198 0.237779 0.083950 -0.059645 0.202737 0.304746 0.054205 0.310329 0.108142 0.005486 0.016949 0.035042 0.080255 0.195830 0.018635 0.099783 -0.060080 0.034410 0.408011 -0.049348 0.009355 -0.124377 -0.187578 0.066763 0.073501 0.082844
160 -0.034341 -0.255973 -0.091676 -0.245137 0.080668 -0.058280 -0.143119 -0.074788 0.180694 -0.012988 -0.075145 -0.044689 -0.013620 -0.030743 0.066431 -0.163017 0.063347 0.110490 0.222686 0.009972 -0.084435 0.138656 0.068596 0.073954 -0.133360 0.158805 0.150550 -0.092475 0.000782 -0.031353 -0.000883 0.101643 -0.056643 -0.031301 -0.117216 0.075751 -0.229353 -0.168320 0.099022 0.106285 0.040011 0.021780 0.059325 -0.198481 -0.088191 -0.098363 -0.095009 -0.069716 0.076964 0.117214 -0.162370 -0.029862 0.064288 0.281054 -0.350799 -0.247701 -0.199455 -0.196488 -0.112677 0.046040 -0.003485 -0.162082 0.044333 0.158283 -0.070995 0.000784 -0.013888 -0.235074 -0.170539 -0.142797 -0.042861 -0.045887 0.271687 -0.156231 -0.095027 0.029044 0.111838 0.004256 -0.197151 -0.100699 0.038656 0.204076 -0.271674 -0.110985 0.128483 0.135576 0.095749 -0.007283 0.140448 -0.000870 0.214744 0.148392 -0.069086 0.106090 0.082040 0.150591 0.025173 -0.099171 0.101734 0.207372 0.082176 -0.040953 -0.098374 0.036124 0.093216 -0.014047 -0.007591 0.038747 -0.042714 -0.025465 0.083169 0.112702 -0.053835 -0.084616 0.010512 0.067127 -0.046325 0.256231 -0.199117 0.176248 0.099078 0.022332 0.132164 0.068818 -0.074552 0.179346 -0.109304 0.017507
153 -0.231549 -0.112367 -0.260875 -0.142380 0.063217 -0.085392 -0.007863 -0.020234 0.331556 -0.138371 -0.074393 0.161276 -0.045522 -0.037365 0.276351 -0.044767 0.113945 0.114794 -0.007699 -0.108496 -0.139999 0.165448 -0.017329 -0.060529 0.030745 0.077151 0.011930 -0.080754 -0.172917 -0.037378 0.041024 0.086622 -0.115441 0.086013 0.176738 0.126192 -0.035690 -0.203767 0.046110 0.193888 0.065274 0.172368 0.013804 -0.239981 -0.168331 -0.161759 0.094838 -0.044946 0.038173 -0.094804 -0.208904 0.032713 0.228243 0.504710 -0.237506 -0.197410 -0.154134 -0.092548 0.100546 -0.069858 -0.011447 -0.258247 -0.002253 0.181521 0.034350 0.045974 0.023040 -0.402578 -0.170441 -0.054244 0.089808 0.169438 0.251442 0.119473 0.119455 0.048571 -0.061860 -0.151398 -0.133354 -0.099005 0.086458 0.080985 -0.354228 -0.054112 0.197167 0.204987 0.236604 -0.024814 0.203926 -0.170454 0.220964 0.180453 -0.151162 0.046908 0.166079 0.082018 -0.009561 -0.317409 0.025346 0.031308 -0.078517 -0.146068 -0.258155 -0.014393 0.096166 -0.024521 0.094985 0.131800 -0.170106 -0.122528 0.003085 0.130862 0.148395 0.065799 0.031128 -0.082140 0.213956 0.251554 -0.144015 0.120519 0.162757 0.071599 0.211878 0.209160 -0.099840 0.267975 0.049132 -0.057708
26 0.030489 -0.279960 0.002047 -0.168275 -0.046660 -0.003373 0.009703 -0.082853 -0.049025 0.215754 -0.158920 0.020930 0.133539 0.072587 -0.168812 -0.279835 0.043170 0.070224 0.227150 0.254509 0.000943 0.032334 0.225675 0.095081 0.070498 0.042667 -0.110584 -0.107120 -0.220326 0.001807 0.005947 0.082456 0.067110 -0.139655 -0.347664 -0.164329 -0.104479 0.051417 0.080018 -0.087032 -0.028204 -0.167381 0.076286 -0.020272 0.026476 0.067912 -0.194383 0.030111 0.228601 0.024095 0.003429 0.091552 -0.172880 0.110505 -0.257887 -0.261263 0.040383 -0.086026 -0.411384 -0.074385 0.098458 -0.165612 0.006114 0.263520 0.085151 0.051990 -0.306152 0.078783 0.070771 -0.011823 0.108600 0.055818 0.261492 -0.250451 0.044824 -0.048948 -0.073744 0.184282 -0.249215 0.245035 -0.001420 -0.072870 -0.029471 -0.093614 0.036534 -0.062870 0.182615 0.009663 -0.013375 0.184502 0.496107 0.096224 0.172241 0.082196 -0.263435 0.279543 0.181870 -0.117062 0.112933 0.107676 -0.234484 -0.120858 -0.343987 0.364472 0.186998 0.055983 -0.041598 0.151539 0.146615 0.238670 0.039762 0.186751 0.069919 -0.130034 0.220482 0.264692 -0.141420 0.070819 -0.096572 -0.137786 0.252510 -0.064817 -0.020368 -0.162479 -0.095376 0.117229 -0.014283 -0.051174
69 -0.072662 -0.263168 -0.180249 -0.038209 -0.064646 -0.082808 -0.228634 -0.176355 0.200242 0.165114 -0.050293 0.193013 -0.185819 0.202267 0.202038 -0.008705 -0.144216 0.025038 0.062248 -0.013626 -0.165944 0.071608 0.096370 -0.084458 -0.179536 -0.081114 0.118427 -0.030315 0.113237 0.054398 -0.073232 -0.053622 -0.078567 0.009809 -0.098645 0.166117 -0.101123 -0.112357 0.069535 0.120542 0.111547 0.211287 0.139710 -0.124928 -0.284477 0.048713 -0.037112 -0.053098 -0.074362 -0.068466 -0.191231 -0.012585 0.104873 0.445918 -0.497757 -0.139572 0.056211 -0.030171 -0.124972 0.023946 0.306318 -0.245737 0.095654 -0.024559 -0.347622 0.203903 -0.070056 -0.181406 -0.165997 -0.062381 0.132162 0.054333 0.279886 -0.021173 -0.145561 0.088235 0.067935 -0.072826 -0.016256 -0.037097 0.081905 0.009165 -0.241935 0.169012 0.045938 0.143863 0.191270 0.026299 0.156849 -0.216240 0.146585 0.264028 -0.061237 -0.197714 0.033663 0.312134 0.022619 -0.193617 0.136275 -0.036717 -0.095270 0.006195 -0.285707 0.002480 0.256531 -0.020966 0.075744 0.006054 0.141861 -0.242149 0.074279 0.059236 -0.064026 -0.113638 0.217331 0.055618 0.130726 0.299205 -0.274994 0.181623 0.211292 0.032926 0.104111 0.189670 0.059512 0.050877 -0.123800 0.040638
117 0.042800 -0.157126 -0.170572 -0.390940 0.236300 -0.109715 -0.161354 -0.188014 0.371085 -0.362003 -0.132914 0.074461 -0.083206 0.107707 0.102455 0.004928 0.148278 0.013557 -0.032194 -0.192425 0.016183 0.136548 -0.000989 0.099217 -0.221988 -0.205182 0.137657 -0.130366 -0.130480 -0.103677 -0.035537 0.047789 -0.110422 -0.021105 0.027882 -0.086791 -0.203350 -0.056261 0.261473 -0.046180 -0.095125 0.124585 -0.284296 0.003734 0.041690 -0.327885 0.177647 0.002250 0.239301 0.034390 -0.092857 0.088032 0.163958 0.619600 -0.029645 0.085217 -0.141951 -0.072574 -0.143960 -0.076348 -0.116752 -0.093302 0.081552 -0.132938 -0.035071 0.241824 0.070595 -0.401486 -0.086914 0.049591 0.167261 0.094651 0.341400 0.042509 0.137944 -0.081532 -0.041165 -0.397436 -0.057992 -0.032140 -0.083840 0.205850 -0.390161 0.061014 0.100636 0.119653 0.207944 0.122519 0.013095 -0.298596 0.121255 0.140250 -0.024710 -0.008995 0.112194 0.137628 0.100109 -0.375857 0.067407 0.004950 -0.203880 -0.179618 -0.351166 -0.077556 0.323805 -0.094980 0.128177 0.213565 0.185793 -0.107928 0.238228 0.152124 0.194957 0.026565 -0.012383 -0.194793 0.148403 0.206611 -0.067685 0.117350 0.256317 -0.094766 0.322541 -0.055815 -0.403950 0.345988 0.065911 -0.123818
83 0.090861 -0.335815 0.223512 -0.069196 -0.053987 0.111304 0.033762 -0.105865 -0.024368 0.302644 -0.071943 0.175404 0.114772 -0.040391 0.045969 -0.115742 -0.119700 0.054140 -0.032733 0.097988 -0.016499 0.143560 0.285114 -0.090621 -0.039486 -0.066725 -0.118861 -0.053304 -0.247427 -0.166857 0.002540 0.114676 0.027161 -0.076183 -0.245047 -0.009519 -0.006625 0.138597 -0.039825 -0.075626 -0.116951 -0.062849 0.007907 -0.131571 -0.002202 0.057080 -0.057146 0.061711 -0.022712 -0.045260 -0.196043 0.105957 -0.219481 0.116482 -0.329616 -0.254057 0.074374 -0.040646 -0.214665 -0.000966 0.119846 -0.140559 -0.037515 0.317980 -0.087460 0.154441 -0.207547 0.060790 -0.030585 -0.107555 0.315987 -0.011553 0.198744 -0.050557 0.024774 -0.161483 -0.030369 0.176075 -0.157732 0.257499 0.022432 0.021371 -0.069155 -0.154458 0.032162 -0.089776 0.210504 0.009766 0.231247 0.020663 0.350135 0.015606 0.211354 -0.013698 -0.239321 0.363436 0.112460 0.004619 0.032189 0.176633 -0.136859 -0.249896 -0.365607 0.183217 0.502278 0.243578 -0.050061 0.037929 0.039964 0.048731 -0.119983 0.303678 0.018268 -0.191635 0.266884 0.282798 0.052773 0.059720 0.037908 -0.044178 0.130752 -0.123095 -0.113771 -0.195557 -0.030350 0.180423 0.067836 -0.357053
45 -0.205920 -0.207485 -0.178501 -0.146065 -0.010304 -0.153130 0.121857 0.056627 0.005917 0.168296 -0.165794 0.139468 0.103824 0.233998 -0.081414 -0.256306 0.099900 -0.031333 0.141190 0.164322 0.061664 -0.101517 0.260599 0.019917 0.093071 -0.006423 -0.318625 -0.075356 -0.183537 0.004097 -0.084822 0.134932 0.027580 -0.022790 -0.124596 -0.076802 -0.080675 0.020347 0.176914 0.033594 0.003313 -0.062836 0.043965 -0.050949 -0.017984 0.119806 -0.056705 -0.020357 0.233117 -0.075149 -0.027667 0.060384 -0.103519 0.296731 -0.113325 -0.266901 0.258722 -0.089962 -0.369472 -0.239792 0.139489 -0.095546 -0.011567 0.097906 0.088745 0.184724 -0.314750 -0.019607 0.212679 0.155485 0.092714 0.180707 0.277557 -0.144402 0.222063 -0.007114 -0.180563 0.242991 -0.118527 0.101290 0.094731 -0.150223 -0.049697 -0.057281 0.029841 -0.121037 0.293352 0.036747 -0.107142 0.146915 0.477237 0.191252 -0.003886 0.057874 -0.241167 0.287314 0.053819 -0.174030 0.174033 0.066885 -0.376405 -0.062018 -0.306805 0.347966 0.098069 -0.024066 0.163046 0.319984 0.062702 0.304139 0.033058 0.105171 0.129525 0.087599 0.112757 0.201106 -0.013357 0.086391 -0.045339 -0.048711 0.406115 -0.109358 -0.019997 -0.144047 -0.152055 0.035045 0.116049 -0.017099
161 -0.047678 -0.131309 0.216326 -0.019901 -0.184130 -0.181105 -0.074884 0.149101 0.106855 0.235110 -0.213588 0.117021 0.059562 -0.028857 -0.073029 -0.176853 -0.041783 -0.027876 0.086592 -0.090279 0.194564 0.082156 0.393097 0.068992 -0.003327 0.060362 -0.038520 -0.107058 -0.054158 -0.011318 -0.012502 0.018748 -0.001314 0.108028 -0.338641 0.016610 -0.092070 0.087995 0.053293 0.198809 -0.087052 -0.066327 -0.008612 -0.091643 -0.216066 0.079247 -0.095399 -0.074494 -0.057699 0.096586 -0.205361 -0.049891 -0.048486 0.153213 -0.326927 -0.215480 0.008496 -0.054671 -0.340816 0.245556 0.207138 0.007073 0.068308 0.174706 -0.051030 0.062266 -0.130294 -0.043747 0.031709 0.130714 0.194263 0.028049 0.204984 -0.141999 -0.091371 0.110975 -0.068158 0.289691 0.108057 -0.008099 -0.104354 0.017984 0.008894 -0.302822 0.089909 0.000397 0.099045 0.083678 -0.028915 0.048729 0.188896 0.233496 -0.155480 0.007323 -0.200243 0.355614 -0.062191 0.054472 0.228427 0.362228 -0.220800 -0.087504 -0.136246 0.209340 0.284799 0.159272 -0.020682 -0.137208 -0.039568 -0.114097 -0.047734 0.067723 -0.069212 -0.007567 0.031173 -0.019375 0.170938 0.228581 -0.055330 0.182818 0.353130 -0.059547 0.144848 -0.329739 -0.058888 0.071322 0.057995 -0.119875
112 -0.029356 -0.221963 0.048436 -0.067419 -0.022717 -0.112519 0.042962 -0.001286 0.074221 0.073708 -0.136599 0.099595 0.000016 -0.136123 0.040195 -0.026721 0.067570 -0.003427 -0.140064 -0.158751 0.073637 0.201299 0.168923 0.110155 0.122896 -0.087791 0.097389 0.028059 -0.261095 -0.258848 0.040089 -0.108605 -0.011293 -0.185296 -0.059346 -0.061094 0.067260 0.078684 0.113848 0.091627 -0.111788 0.152291 -0.002439 -0.088767 -0.093641 -0.022058 0.092710 -0.097355 -0.027918 0.000819 -0.088286 0.218474 0.055414 0.292372 -0.197611 -0.190005 -0.063780 -0.002244 -0.152836 0.100744 -0.003143 -0.120963 -0.002483 0.153859 0.021075 -0.036134 -0.192199 0.020834 0.140335 0.011232 0.236191 0.066249 0.099765 -0.031113 0.165632 -0.036813 0.031139 0.149196 0.038959 0.017823 -0.137571 0.038657 0.017306 -0.292182 0.095999 0.133055 0.207544 0.036684 0.050693 0.062975 0.227839 0.073798 -0.007590 -0.050589 -0.071078 0.300763 0.158707 -0.099321 0.184959 0.138038 -0.231444 -0.129361 -0.442103 0.103748 0.205402 0.102914 0.047550 0.028424 0.116744 0.050894 0.041563 0.144144 0.068510 -0.070074 0.243778 0.070554 0.181625 0.164937 0.076315 -0.054897 0.319438 0.059258 0.038722 -0.188888 -0.234154 0.145879 0.090848 -0.002174
77 0.145652 -0.231830 0.104218 0.007125 -0.103610 0.022408 -0.005904 0.000188 -0.076940 0.198628 -0.174873 0.000401 0.184493 -0.048583 0.005891 -0.157688 0.036073 0.106989 0.055055 0.184700 -0.075525 0.080234 0.252649 0.045160 -0.007090 -0.001233 -0.058598 -0.194457 -0.275052 -0.094415 0.058846 0.055427 -0.051633 -0.121302 -0.403130 -0.075711 0.021959 0.086823 -0.042309 -0.124614 -0.067322 -0.130147 0.043138 -0.058962 -0.034708 -0.064330 -0.118368 0.142646 0.077306 -0.035213 -0.159735 0.137516 -0.234864 0.052693 -0.299215 -0.324441 0.080354 -0.044837 -0.262417 0.007171 0.107530 -0.309460 0.096883 0.279593 -0.022010 0.184362 -0.296159 0.116024 -0.096369 -0.019907 0.205011 0.100025 0.236265 -0.068428 -0.019817 -0.116522 -0.084264 0.133107 -0.165269 0.283850 0.037125 -0.141881 -0.013297 -0.100294 0.050680 -0.059527 0.199452 0.018181 0.112413 0.003297 0.376627 0.001113 0.065758 0.014087 -0.244494 0.374934 0.254962 -0.235639 0.088192 0.192746 -0.249853 -0.268380 -0.237782 0.302879 0.334072 0.138644 -0.059462 0.108941 0.092549 0.078998 -0.113686 0.298057 0.037082 -0.185151 0.297933 0.271506 -0.034668 0.039959 -0.076860 -0.130909 0.165512 -0.015047 -0.041274 -0.181913 -0.005994 0.157413 0.051695 -0.297712
242 0.134509 -0.273703 0.171004 0.052167 -0.137952 -0.063139 -0.100799 -0.057714 -0.056775 0.115915 -0.210935 0.036766 0.102101 -0.065044 -0.002058 -0.110856 0.003213 0.089400 -0.096222 -0.116378 0.064867 0.162683 0.242138 0.095339 0.160099 -0.152360 -0.065253 -0.087189 -0.241255 -0.284044 -0.008753 -0.135474 0.027474 -0.073105 -0.164385 0.065619 -0.007277 0.056000 0.000975 0.134027 -0.139007 0.008223 -0.034072 -0.144934 -0.114487 0.030407 0.004378 0.013529 -0.099647 -0.093335 -0.174162 0.074376 -0.078866 0.111570 -0.316843 -0.214704 0.047609 0.004478 -0.262253 0.114633 0.071917 -0.147070 0.142427 0.190633 -0.118502 0.137153 -0.226760 0.137332 0.008129 -0.032886 0.257833 0.005459 0.132556 -0.003697 0.013025 -0.114338 -0.007380 0.136801 -0.018228 0.166614 -0.041940 0.008511 0.045060 -0.160972 0.016734 -0.017362 0.244912 0.066993 0.025326 0.042075 0.232945 0.083106 -0.030270 -0.100836 -0.261621 0.416272 0.151659 -0.045308 0.173984 0.269931 -0.175373 -0.139673 -0.242768 0.281418 0.304691 0.179701 0.014086 0.025635 0.117131 0.085801 -0.067268 0.337865 -0.016709 -0.122712 0.310631 0.149131 0.225403 0.021307 0.088786 -0.081237 0.354176 0.031731 -0.211077 -0.248015 -0.056361 0.092960 0.105057 -0.314379
42 -0.171991 -0.220214 -0.251968 -0.187752 -0.012750 -0.152832 0.089742 0.040706 0.019891 0.162700 -0.164375 0.061286 0.074060 0.243966 -0.086328 -0.288182 0.070190 -0.019261 0.156693 0.193654 -0.035473 -0.090870 0.226816 0.063986 0.131774 -0.003876 -0.310147 -0.062460 -0.157772 0.017452 -0.098363 0.091150 0.046600 -0.089519 -0.111921 -0.026385 -0.104036 -0.016846 0.171898 0.098107 -0.006566 -0.034792 0.057484 -0.072210 -0.014102 0.166279 -0.065680 -0.081518 0.235846 -0.117596 -0.080574 0.030897 -0.069125 0.300684 -0.110689 -0.316764 0.193552 -0.130336 -0.344880 -0.292114 0.146136 -0.159154 0.053380 0.090340 0.070835 0.141173 -0.294161 0.016198 0.181118 0.105767 0.028759 0.122998 0.247202 -0.117063 0.195912 -0.007099 -0.166966 0.228454 -0.167787 0.077448 0.113600 -0.101440 -0.087358 -0.047091 0.019183 -0.091190 0.285275 -0.005058 -0.149783 0.150729 0.480777 0.129669 -0.006106 0.087305 -0.232684 0.254535 0.099411 -0.175424 0.204065 0.014358 -0.328808 -0.019311 -0.312801 0.314326 0.003616 -0.085029 0.168352 0.299552 0.048699 0.331402 0.041583 0.117084 0.105037 0.062297 0.082046 0.201543 -0.051142 0.121661 -0.046305 -0.014462 0.380077 -0.007296 -0.092983 -0.074063 -0.152788 -0.011035 0.104844 0.010392
64 -0.207309 -0.206529 -0.083743 -0.181272 0.119917 -0.253402 0.124838 0.034043 0.043081 0.072413 -0.193945 0.133997 0.031906 0.050066 0.114020 -0.089748 0.207301 -0.075996 -0.136775 -0.057906 0.209362 0.094823 0.242275 0.002241 -0.087044 -0.125941 0.112879 -0.007219 -0.209699 -0.000007 0.008089 -0.018322 0.026535 -0.028274 -0.134039 0.038825 0.009516 0.010892 0.136330 -0.183072 0.061700 0.214259 -0.081352 -0.197256 0.080396 -0.083056 0.123201 -0.041935 0.178263 -0.007154 -0.215735 0.213385 -0.107988 0.520851 -0.018838 -0.366997 0.132005 -0.139666 -0.090037 -0.140685 0.134159 -0.198730 -0.002953 0.071177 -0.062266 0.140728 -0.303012 -0.016321 0.134268 0.063308 0.092843 0.086088 0.137480 -0.019012 0.416651 -0.113738 -0.024747 0.223777 -0.106385 -0.182974 -0.039351 0.046714 -0.018708 -0.306100 0.192971 0.108440 0.145210 0.068185 0.095113 -0.109322 0.263549 -0.023329 -0.033245 0.124245 0.099511 0.292112 0.048098 -0.143691 0.118564 0.041930 -0.334876 -0.099406 -0.360559 -0.124895 0.114718 0.015155 0.254718 0.462161 0.063096 0.215614 -0.022769 -0.043706 0.103704 0.116575 0.165874 0.124744 0.132960 0.215856 0.142988 0.065657 0.250481 -0.047250 0.148444 -0.204369 -0.182230 0.187451 0.043199 0.041437
237 -0.150422 -0.064337 0.064484 -0.159417 -0.006303 -0.112755 0.052560 0.008076 0.113198 0.221999 -0.153146 0.184976 -0.076666 0.019874 0.063656 -0.189317 -0.134915 0.028357 -0.011411 -0.208338 0.068762 0.159062 0.333175 -0.056491 -0.157489 0.080520 -0.009159 -0.133743 -0.031634 0.047531 -0.112558 0.215400 -0.017999 0.089783 -0.052181 -0.081544 -0.127681 0.088849 0.067080 0.376380 -0.147399 -0.000976 0.052025 -0.022553 -0.171734 0.016628 0.085694 -0.166402 -0.145739 0.216347 -0.204038 0.003430 -0.238355 0.256726 -0.251084 -0.092457 0.035966 -0.243064 -0.302281 0.174196 0.094886 0.044111 -0.042225 0.279016 0.004217 0.130045 -0.119796 -0.157281 0.112201 0.045515 0.225128 0.081816 0.235133 -0.237066 -0.197114 0.092956 0.129363 0.172173 0.116991 -0.022412 -0.160239 0.122746 -0.014924 -0.299940 0.018877 -0.106248 0.096575 0.001744 -0.018850 -0.035673 0.141818 0.150384 -0.047214 0.017714 -0.204309 0.321146 -0.094177 0.045059 0.077112 0.334644 -0.151116 -0.138581 -0.248602 0.108295 0.314705 0.137311 0.076488 -0.016123 -0.095254 0.060552 0.043597 0.161044 -0.016038 -0.038531 -0.006998 0.079530 0.221391 0.209138 -0.011505 0.257248 0.360938 0.091985 0.030835 -0.279754 -0.227264 0.126818 0.060537 -0.149131
157 -0.023994 -0.027126 -0.315789 -0.060920 -0.137649 -0.112451 -0.185430 -0.089711 0.346468 0.135187 -0.021244 0.006843 -0.101370 -0.111878 0.315453 -0.116564 -0.188356 0.057024 -0.079440 -0.020108 -0.450881 0.063122 0.188013 0.014768 -0.121652 0.016929 -0.016363 -0.178330 0.196603 -0.070803 -0.075566 -0.111295 0.043355 -0.078686 -0.065243 0.142679 -0.161548 -0.110308 0.187147 0.321440 -0.024191 0.192054 0.070645 -0.013294 -0.284849 0.093937 -0.058554 -0.159071 0.009176 -0.112444 -0.438580 -0.033378 0.223507 0.513832 -0.323376 -0.162218 -0.026363 -0.232320 -0.015180 -0.056967 0.200427 -0.316210 0.256603 -0.129804 -0.125104 0.401065 0.054209 -0.193962 -0.212756 0.003322 0.090383 0.063847 0.215212 0.144242 -0.155541 0.101836 -0.064205 -0.055302 0.080568 -0.167378 0.124527 0.146566 -0.207955 0.206626 -0.061017 0.017783 0.096703 -0.053126 -0.021880 -0.165130 0.116741 0.152320 -0.077202 -0.065565 -0.119156 0.176134 0.000479 -0.312233 0.200414 -0.000522 -0.036523 0.089488 -0.328854 0.037979 0.128914 -0.177799 0.075471 0.086096 0.142924 -0.340592 0.096518 0.152820 -0.097418 0.018054 0.150141 -0.005324 0.275407 0.437189 -0.150977 0.291734 0.142911 0.177464 0.119855 0.200209 0.002916 -0.026429 0.003502 0.013570
156 -0.078334 0.010182 -0.369250 -0.091255 -0.061858 -0.112583 -0.078050 -0.001995 0.341581 0.178831 -0.078978 0.043961 -0.083091 -0.036844 0.340333 -0.145257 -0.099807 0.015590 -0.066006 0.099830 -0.397432 0.026385 0.274240 -0.046998 -0.204176 0.013846 -0.022978 -0.221034 0.147413 0.016724 -0.070069 -0.003177 0.047950 -0.041681 -0.098972 0.115430 -0.164054 -0.114984 0.135001 0.123321 0.041045 0.225384 0.080298 -0.067375 -0.230775 0.041346 -0.044358 -0.070363 0.111025 -0.128938 -0.527541 0.029042 0.142458 0.532217 -0.300900 -0.211348 0.131170 -0.186582 -0.007699 -0.152507 0.246400 -0.321625 0.200737 -0.155201 -0.107099 0.511153 0.013492 -0.201722 -0.225886 0.083012 0.125101 0.079484 0.231640 0.153267 -0.042913 0.123387 -0.101817 -0.024607 0.013096 -0.166617 0.192936 0.085770 -0.230383 0.194518 0.018990 0.025705 0.069899 -0.107671 0.023706 -0.225229 0.122488 0.093965 -0.095776 0.038171 -0.116206 0.137355 0.012287 -0.386045 0.118823 0.057947 -0.127448 0.039019 -0.300627 -0.047756 0.111793 -0.110269 0.083542 0.214601 0.124569 -0.325192 0.041248 0.062066 -0.088422 0.051229 0.128238 0.054589 0.229054 0.435563 -0.099130 0.264469 0.075541 0.163758 0.246748 0.180079 -0.002890 0.034215 0.025499 0.024752
171 -0.154346 -0.197224 0.005151 -0.063931 -0.129915 -0.228232 -0.252127 0.027130 0.226781 0.159821 -0.107830 0.223637 -0.134472 0.173045 0.121041 0.009638 -0.158842 0.035836 0.101286 -0.212151 0.073630 0.110583 0.199397 -0.035523 -0.215425 0.071187 0.128619 -0.118962 0.075445 0.165070 -0.017133 0.020735 -0.197204 0.103006 -0.193218 0.040934 -0.086503 -0.049523 0.028742 0.359454 0.032614 0.085525 0.104130 -0.040465 -0.349165 -0.024626 -0.008619 -0.085969 -0.203607 0.168864 -0.081146 -0.068567 0.047106 0.332031 -0.411635 -0.101693 0.007131 -0.104650 -0.287109 0.232308 0.276140 -0.068543 0.069111 0.094760 -0.240414 0.083312 -0.054877 -0.231112 -0.020009 0.059351 0.162362 0.112966 0.312620 -0.114826 -0.293964 0.107527 0.092037 -0.007752 0.070658 -0.026491 -0.088454 -0.007057 -0.168444 -0.079516 0.055953 0.048997 0.139574 0.121419 0.082300 -0.108866 0.095777 0.296481 -0.125922 -0.170124 0.020258 0.328030 -0.057876 -0.066102 0.197955 0.128239 -0.110860 -0.021123 -0.110717 0.098026 0.326167 -0.012678 0.071803 -0.152612 0.021405 -0.254296 -0.002017 0.047004 -0.046188 -0.068233 0.052647 -0.039189 0.187538 0.282637 -0.298427 0.264106 0.361386 -0.010016 0.170342 -0.055640 -0.065591 0.026755 -0.100943 -0.035454
4 -0.320968 -0.101388 -0.268206 0.013228 -0.034665 -0.193173 0.006491 -0.040434 0.019122 -0.079612 -0.033190 0.109216 -0.035029 0.060838 0.120619 -0.336345 -0.015515 0.061394 0.007122 0.063384 -0.086740 -0.074198 0.099938 -0.088009 0.158340 0.054348 -0.087076 -0.028376 0.008570 0.026992 0.034091 -0.008578 -0.013493 0.179286 -0.031962 0.011574 0.184544 -0.005704 0.282648 0.244121 -0.015400 -0.121745 0.063493 0.120543 -0.040976 0.048228 0.021149 -0.207921 0.202927 -0.075877 -0.158612 -0.066049 0.004412 0.334372 -0.042631 -0.128228 -0.018888 -0.197699 -0.171859 -0.070073 0.287519 -0.252668 -0.009420 0.085460 0.181218 -0.014491 -0.308712 -0.054723 -0.054418 0.110067 -0.141323 0.151271 0.215775 -0.111380 0.028107 0.004310 -0.002393 0.079225 -0.008995 0.036430 0.030826 -0.135121 -0.116455 -0.061768 -0.042935 0.095346 0.274071 -0.001414 0.035841 -0.006448 0.282401 0.258919 0.026329 -0.229399 -0.148704 0.302285 -0.064106 -0.160747 0.079565 0.003805 -0.334649 -0.041877 -0.189188 0.203284 -0.043869 -0.173040 0.123047 0.253904 -0.113834 0.201926 0.116206 0.169981 0.094734 0.000580 0.019425 0.082607 0.066531 0.105348 -0.201478 0.005426 0.398420 -0.079994 -0.017257 0.079007 -0.147620 0.093701 0.112054 -0.050024
177 -0.084741 -0.087807 -0.268162 -0.139715 -0.003634 0.100535 -0.145675 -0.334590 0.489966 -0.233541 -0.175279 0.023214 0.019603 0.023914 0.215654 -0.138693 -0.047391 0.176246 -0.168865 0.115571 -0.424220 0.245055 -0.058364 0.041658 0.111114 0.087449 0.131007 -0.142518 -0.330439 -0.082124 0.163073 -0.113039 -0.032949 0.128010 -0.146963 0.149763 -0.069472 -0.088480 0.154330 0.117901 -0.122554 0.007090 0.002307 -0.096059 -0.017994 -0.129868 0.056287 0.066433 0.287298 -0.139123 -0.175661 -0.002403 0.203944 0.473300 -0.116546 -0.164593 -0.390887 -0.238417 0.019452 0.023565 0.110621 -0.476675 0.215787 0.179128 -0.121570 -0.089356 -0.298034 -0.206681 -0.401169 0.011916 0.082360 0.055680 0.115301 0.083203 -0.039514 -0.144622 -0.063954 -0.253715 -0.109764 0.074416 -0.211522 0.040642 -0.265382 0.040485 0.198937 0.198176 0.286003 -0.014584 0.103345 -0.252464 0.176145 0.037127 0.152841 -0.014804 0.227562 0.168514 0.029250 -0.398984 -0.091085 -0.043148 -0.193526 -0.329088 -0.407788 0.127481 0.115334 -0.265408 0.091921 0.050766 -0.061959 -0.089157 0.009995 0.348718 -0.006314 -0.101909 0.019241 -0.268813 0.129027 0.102142 -0.185299 -0.066676 0.334936 0.099752 0.211311 0.239548 -0.141312 0.223783 0.075288 -0.292061
200 0.003268 -0.225930 -0.068219 -0.160378 -0.057173 -0.201393 -0.444820 -0.103894 0.233415 -0.016633 -0.178689 0.076305 -0.060320 0.156413 0.028739 -0.037350 0.010707 0.102742 0.238832 -0.143110 0.041121 0.052824 0.082788 0.109160 -0.212076 -0.042983 0.182619 -0.235100 0.119437 0.219795 -0.051105 -0.069920 -0.182293 0.042079 -0.196171 0.019669 -0.218158 -0.182007 0.018475 0.119947 0.080125 0.065136 -0.078199 -0.010451 -0.238294 -0.140866 -0.135645 -0.013823 -0.055654 0.155527 -0.036734 -0.050671 0.172799 0.401498 -0.412387 -0.062019 -0.074241 -0.114909 -0.350999 0.082104 0.109703 -0.129838 0.144737 0.021567 -0.246672 0.168137 0.001062 -0.278151 -0.035547 -0.055037 0.018030 0.125552 0.373605 -0.059496 -0.143374 0.069539 -0.016721 -0.190117 -0.127036 0.030229 -0.045028 0.053720 -0.339491 0.165699 0.052015 0.013298 0.122104 0.217725 -0.067379 -0.077053 0.214130 0.175815 -0.088770 -0.077191 0.026578 0.219412 0.066161 -0.274322 0.156647 0.015954 -0.026923 0.097920 -0.187063 0.097301 0.277296 -0.089785 0.044545 0.012604 0.206886 -0.195082 0.127360 0.063576 0.043640 -0.079417 0.174622 -0.070627 0.114290 0.261633 -0.335632 0.187019 0.205789 -0.064202 0.199669 0.003237 -0.024555 0.048108 -0.183333 0.064735
252 0.185635 -0.373805 -0.013955 -0.038619 0.000732 -0.168376 -0.035251 0.058297 -0.159418 -0.005737 -0.058776 -0.139235 0.077970 -0.216555 -0.009615 -0.279721 0.089896 0.181759 0.201514 0.097389 -0.047252 0.055023 0.106483 0.103168 -0.047560 0.178959 0.086921 -0.183807 -0.030350 -0.199984 0.093200 0.059658 -0.012410 -0.200054 -0.371966 -0.072038 -0.041521 -0.023883 0.129041 0.015505 -0.068871 -0.112380 0.205457 -0.014705 -0.120433 0.036550 -0.132212 -0.091491 0.069808 0.081882 -0.214331 0.031208 -0.012077 0.011521 -0.334742 -0.347964 -0.134936 -0.174807 -0.166227 0.180127 0.074198 -0.268089 0.026338 -0.028180 0.116898 0.021158 -0.125700 0.050141 -0.175586 -0.149275 -0.068081 -0.051079 0.366117 -0.263118 -0.157439 -0.060832 0.219423 0.051830 -0.151357 0.069590 0.161989 -0.005527 -0.043524 -0.177102 -0.109810 0.183420 0.199832 -0.135453 0.147048 0.128033 0.288300 0.120323 -0.040412 -0.057505 -0.197264 0.269382 0.237939 -0.099997 0.201049 0.279703 0.011533 -0.042988 0.078125 0.168180 0.076324 0.069792 -0.095743 0.009250 0.023238 0.061638 0.000533 0.263882 -0.058675 -0.264273 0.155930 0.285178 -0.170767 0.061099 -0.139934 -0.037593 0.085701 -0.035765 -0.083623 -0.058120 -0.043941 0.100921 -0.082653 -0.125475
28 -0.243065 -0.197908 -0.222242 -0.019181 0.012497 -0.181894 0.046816 -0.033883 -0.048856 0.100485 -0.080906 0.083369 -0.100736 0.063455 -0.055361 -0.386674 -0.037977 0.085950 0.144189 0.147960 0.000882 0.001812 0.117181 -0.032949 0.000040 0.117061 -0.005647 -0.090231 0.000703 0.160259 0.020159 0.113437 0.070930 0.109503 -0.157490 -0.008759 -0.008724 -0.032509 0.135560 -0.010429 0.050223 0.036642 0.214227 0.015984 -0.159351 0.064040 -0.087706 -0.203577 0.229087 -0.007265 -0.242016 -0.029361 -0.020019 0.271109 -0.201641 -0.266191 0.037798 -0.117923 -0.227344 -0.101049 0.342917 -0.239718 -0.131814 0.065445 0.062621 0.025495 -0.310314 -0.007183 -0.074265 -0.029359 -0.139444 0.061204 0.319273 -0.261926 -0.052534 0.094273 0.158328 0.104096 -0.123374 0.065129 0.086163 -0.109912 -0.094212 -0.106181 -0.008170 0.150635 0.188354 -0.083967 0.077308 0.059223 0.302335 0.168837 0.031354 -0.089554 -0.196311 0.172340 -0.005681 -0.072851 -0.029020 0.103477 -0.193982 0.035931 -0.126784 0.032250 -0.025191 0.060952 0.056468 0.198975 -0.086743 0.163862 0.025908 0.032267 -0.006722 -0.104495 0.060923 0.170522 -0.083874 0.191159 -0.125701 -0.027080 0.195576 0.007024 -0.025178 0.038010 -0.087102 0.110996 -0.037695 0.087416
199 -0.112214 -0.302634 -0.036309 -0.235577 -0.057591 -0.112995 -0.161624 0.061902 0.379154 -0.001174 -0.169413 0.026387 -0.075135 0.001884 -0.019577 0.033203 0.013853 -0.011059 0.102608 -0.075412 0.111985 0.306774 0.016693 0.269286 -0.058523 0.012222 0.309755 -0.060835 -0.278461 0.074789 0.152500 -0.123871 -0.167409 -0.164687 -0.204223 0.042169 -0.008851 -0.025282 0.034184 0.105877 0.110764 0.285056 -0.015558 -0.189621 -0.186842 -0.181088 -0.017763 -0.042087 0.011443 0.067046 -0.046997 0.089331 0.237994 0.517902 -0.341800 -0.292004 -0.341548 -0.066133 -0.141955 -0.027923 0.129391 -0.246333 0.155185 0.313268 -0.204187 -0.116998 -0.037750 -0.219206 0.025964 -0.061531 0.114156 0.044940 0.120170 0.056211 0.046024 0.017163 0.045252 -0.084519 -0.287965 -0.087081 -0.169549 0.079707 -0.223653 -0.302677 0.266256 0.286099 0.046146 0.152123 0.139321 0.075829 0.237336 0.009462 0.029117 0.082979 0.264475 0.129429 0.167869 -0.127187 0.141985 -0.065527 -0.160629 -0.102696 -0.376076 0.001437 0.096053 -0.086157 -0.042013 -0.135210 0.011395 -0.178054 -0.024819 -0.037147 0.087187 -0.078978 0.171339 -0.218295 0.085286 0.455799 -0.209465 0.138421 0.287552 0.108315 0.333987 0.040859 -0.164312 0.222508 -0.140742 0.102670
53 0.074353 -0.435336 -0.095744 0.041715 0.036989 -0.158902 -0.128358 0.075433 -0.094572 -0.169088 -0.208564 0.032878 -0.042159 0.079615 -0.071887 -0.226794 0.084922 0.147015 0.014065 -0.100004 0.015089 -0.011738 0.170426 0.090622 0.111746 -0.084659 -0.193634 -0.145457 -0.034326 -0.375710 -0.111174 -0.076561 -0.024142 -0.022036 0.001428 0.289498 -0.185795 -0.193336 0.010906 0.134519 -0.158762 0.191493 0.047944 -0.300601 -0.268353 0.151092 -0.002076 -0.067325 -0.026294 -0.260224 -0.314333 -0.142408 0.129143 0.091598 -0.280093 -0.335424 0.082000 0.059129 -0.165287 -0.054813 0.139509 -0.154529 0.108925 -0.103199 -0.241500 0.185014 -0.179468 -0.038754 -0.103087 -0.035658 -0.025989 -0.117207 0.319101 0.003272 0.000314 -0.077607 0.166791 0.001036 -0.063456 0.072594 0.187907 -0.105562 -0.260580 0.024306 0.000160 0.120957 0.440496 -0.076063 -0.008098 0.025985 0.132949 0.104678 -0.255315 -0.147771 -0.198233 0.291563 0.184688 -0.095577 0.191677 0.360262 0.000274 0.036256 0.175459 0.125019 0.147851 0.170021 0.149849 0.001464 -0.030981 0.165659 -0.062160 0.220530 -0.166415 -0.189890 0.034497 0.142015 0.056455 -0.072425 0.067965 -0.037114 0.241691 0.046877 -0.401843 -0.065328 -0.116923 -0.011947 0.157527 -0.279823
71 0.010619 -0.180280 -0.276315 -0.160349 -0.014016 -0.082070 -0.220119 -0.163020 0.260516 0.180611 -0.094546 -0.038329 -0.105937 0.066866 0.258860 -0.134700 -0.112680 0.054628 0.092059 0.144095 -0.271593 0.090916 0.196537 -0.022773 -0.305798 -0.006693 0.130985 -0.177650 0.117592 0.045727 -0.054283 0.020991 0.020107 -0.049590 -0.188266 0.193593 -0.271878 -0.173886 0.095343 0.034046 0.112613 0.175506 0.121252 -0.187344 -0.200555 0.002419 -0.071004 0.011454 0.055751 -0.027151 -0.415929 -0.033107 0.010805 0.413305 -0.474367 -0.246665 0.095564 -0.203220 -0.107966 -0.123784 0.231240 -0.285453 0.197533 -0.042241 -0.333910 0.411739 -0.035533 -0.140699 -0.289083 -0.068526 0.097973 -0.041457 0.235871 -0.010509 -0.137431 0.052241 0.046040 0.008476 -0.156624 -0.169853 0.207961 0.173847 -0.214962 0.124054 0.074349 0.096458 0.049202 -0.035640 0.099557 -0.203266 0.102017 0.096336 -0.041508 0.102848 0.011963 0.228328 -0.001444 -0.221363 0.097488 0.105330 0.029547 0.003756 -0.188167 0.005661 0.144215 -0.117784 0.060586 0.165063 0.157797 -0.235221 0.065471 0.070343 -0.195307 -0.055994 0.144667 0.111823 0.056292 0.390318 -0.151348 0.270619 0.080323 0.068972 0.172071 0.174755 0.098796 0.092252 -0.172861 -0.019450
175 -0.039390 -0.036743 -0.254711 -0.092296 -0.055929 0.035121 -0.229542 -0.386824 0.454152 -0.119780 -0.259544 -0.023598 -0.046815 0.024713 0.115932 -0.252924 -0.143555 0.150689 -0.168878 0.100308 -0.423571 0.180489 0.043661 0.117913 0.092513 0.052567 0.122244 -0.156629 -0.101729 -0.073956 0.087478 -0.206768 0.061063 0.150836 -0.164855 0.298500 -0.213450 -0.076344 0.168678 0.142555 -0.177492 0.133258 -0.066698 -0.128804 -0.116663 -0.027928 -0.013116 -0.087795 0.299261 -0.214286 -0.319193 -0.151018 0.229195 0.441580 -0.124409 -0.211951 -0.362063 -0.160478 -0.058471 0.051012 0.235169 -0.478212 0.291000 0.026624 -0.181405 0.001878 -0.283662 -0.143922 -0.420558 0.028420 0.014210 -0.018132 0.135582 0.065065 -0.131238 -0.051737 -0.040673 -0.222642 0.009016 0.042309 -0.221280 0.078059 -0.220975 0.106918 0.128048 0.182996 0.229351 -0.023717 -0.085853 -0.243435 0.088144 0.020576 0.094727 -0.040334 0.040422 0.182043 -0.061089 -0.322294 -0.073776 0.018446 -0.118098 -0.179935 -0.373293 0.006768 0.063774 -0.160655 0.101234 0.032610 0.017477 -0.066696 0.060401 0.275033 -0.128613 -0.130073 -0.008689 -0.242837 0.136497 0.182856 -0.122886 0.018303 0.262997 0.149808 0.129125 0.220685 -0.120019 0.105198 0.067639 -0.187120
227 0.152005 -0.189661 -0.078133 -0.259292 0.113373 -0.042645 -0.270397 -0.137398 0.310985 -0.204830 -0.171746 0.062835 -0.054569 -0.031777 -0.071364 -0.058099 0.151844 0.096197 0.102994 -0.128998 -0.146574 0.075302 0.017305 0.164185 -0.103128 -0.132046 0.169043 -0.156036 0.063134 -0.074641 -0.090960 -0.079173 -0.124809 -0.134203 -0.013073 -0.088313 -0.235902 -0.134028 0.137096 -0.002143 -0.168409 0.110948 -0.288733 0.077162 -0.082203 -0.209313 -0.070324 -0.164179 0.133907 0.010882 -0.051995 0.046132 0.268848 0.447559 -0.150467 0.032344 -0.276216 0.015463 -0.236359 0.017366 -0.080973 -0.149872 0.067748 -0.103664 0.037195 0.077442 0.131721 -0.298281 -0.073085 -0.046408 0.025270 0.064317 0.349298 -0.004087 0.021306 0.038076 -0.092563 -0.314047 -0.046797 0.103399 -0.087540 0.074313 -0.467601 0.166910 0.007569 0.096453 0.181487 0.122327 -0.174837 -0.112434 0.208303 0.091264 -0.032955 -0.060454 -0.045299 0.070284 0.228599 -0.419399 0.116393 0.024350 -0.125392 -0.066856 -0.409245 -0.081349 0.287943 0.014127 -0.024736 0.055746 0.275040 -0.097618 0.284828 0.141380 0.191384 -0.145267 0.090932 -0.094185 0.026749 0.199960 -0.212062 0.043548 0.064487 0.006094 0.192727 -0.015067 -0.313533 0.144807 0.056882 0.111617
201 -0.085434 -0.264426 -0.105315 -0.240215 0.023380 -0.142847 -0.279837 -0.016596 0.370968 -0.053040 -0.229767 0.157090 -0.239376 0.163610 -0.095228 0.077267 0.040786 -0.043432 0.075208 -0.138731 0.132632 0.147586 0.053354 0.181219 -0.176398 -0.182112 0.409058 -0.070677 -0.052827 0.118773 -0.008589 -0.171240 -0.173175 -0.155647 -0.176325 -0.066754 -0.096255 -0.082025 0.085207 0.063414 0.011587 0.340662 -0.108208 0.020486 -0.237654 -0.179267 0.044288 -0.127479 0.039718 0.096169 -0.000161 0.045604 0.224687 0.582915 -0.310039 -0.007539 -0.183536 0.043998 -0.324875 0.059953 0.227371 -0.125473 0.087064 0.007717 -0.211499 0.028485 -0.011788 -0.208118 0.046703 0.074009 0.174005 0.018305 0.260481 -0.092359 -0.019873 0.097856 0.063595 -0.189832 -0.085741 -0.059105 -0.220921 -0.054358 -0.320191 -0.063080 0.151059 0.235648 0.102901 0.181411 -0.103635 -0.112339 0.085307 0.131193 0.012411 -0.109325 0.181038 0.161115 0.189945 -0.280979 0.164605 -0.065483 -0.292163 -0.060291 -0.411452 -0.077390 0.219177 -0.101550 0.007339 -0.058126 0.285343 -0.221053 0.231864 -0.117069 0.096809 -0.146990 0.138674 -0.193873 0.096587 0.372949 -0.239663 0.140556 0.345582 0.055548 0.362752 -0.044984 -0.306579 0.121540 -0.097082 0.253066
43 -0.189058 -0.186654 -0.053738 -0.131506 -0.039683 -0.337179 -0.185129 -0.001803 0.034559 -0.156706 -0.187903 -0.062016 0.096264 0.157972 -0.020416 -0.199518 0.214260 0.059926 0.027016 -0.196693 0.254632 -0.016452 0.140886 0.059614 0.060954 -0.213632 -0.171463 -0.098005 -0.132386 -0.095712 -0.075021 -0.075373 -0.015053 0.219561 0.003096 0.193068 -0.064779 -0.085165 0.150547 0.192803 -0.035168 0.019469 -0.313866 -0.185327 -0.029288 -0.219533 0.102048 -0.020460 0.200541 -0.153044 -0.132929 -0.041081 -0.003112 0.383722 -0.052062 -0.146242 0.118422 -0.169516 -0.390777 -0.294051 0.003344 -0.086895 0.254226 0.120231 -0.107511 0.203056 -0.198585 0.047239 0.077023 0.044683 -0.032899 0.080289 0.183583 0.086778 0.220929 -0.148197 -0.057114 0.103658 -0.154235 -0.079371 0.117108 0.081011 -0.151101 -0.111792 0.077600 -0.066099 0.204130 0.301470 -0.147583 -0.067757 0.218776 0.138624 -0.122365 0.108234 -0.086222 0.251841 -0.072217 -0.154561 0.162702 0.189319 -0.212087 -0.042642 -0.097553 0.220433 0.079629 -0.220682 0.257095 0.427241 0.040046 0.209070 0.004817 0.180340 0.139339 0.241883 -0.008422 0.031111 0.177198 0.149366 0.030268 0.210097 0.453250 -0.219246 -0.092067 -0.181186 -0.135976 0.100342 0.126522 -0.218517
209 -0.145090 -0.337456 -0.199494 -0.080942 0.066716 -0.105256 -0.176052 -0.076357 0.174471 0.108878 -0.032970 0.265347 -0.166346 0.060190 0.195747 0.085196 -0.022935 0.015662 0.151601 -0.063872 -0.048567 0.017963 0.172558 -0.058284 -0.277256 0.227028 0.217795 -0.130267 0.098930 -0.054364 0.015976 0.081899 -0.152633 -0.068913 -0.121269 -0.019278 -0.198754 -0.234896 0.135022 0.141168 0.093826 0.224518 0.311789 -0.155149 -0.238059 0.048649 -0.122442 -0.026167 -0.139845 0.204336 -0.069459 0.006615 0.151856 0.225672 -0.582400 -0.218130 0.118733 -0.082193 -0.111149 0.211892 0.117638 -0.061455 -0.168921 -0.025534 -0.128673 0.157452 -0.109892 -0.354602 -0.022528 0.033734 0.117986 0.040049 0.453165 -0.237432 -0.140492 0.041650 0.125306 0.092204 -0.025304 -0.055500 -0.024219 -0.004959 -0.257913 -0.003344 0.069691 0.195544 0.263096 -0.088455 0.205313 0.108011 0.103689 0.315663 -0.118951 -0.191695 0.110683 0.258955 0.021058 -0.144588 0.198569 0.220603 0.125522 0.081162 -0.064476 0.099819 0.306236 0.013211 0.089676 -0.030769 0.238664 -0.190737 0.172017 -0.018139 -0.215624 -0.131295 0.145956 0.225308 0.045638 0.193428 -0.247985 0.100909 0.213345 -0.087286 0.246440 0.125141 -0.121586 0.054208 -0.139654 0.174958
51 -0.296140 -0.169565 -0.178177 -0.063619 -0.089778 -0.373789 -0.136040 -0.035202 0.017643 -0.119945 -0.125119 -0.004195 0.070141 0.170966 0.014306 -0.248120 0.160819 0.058897 0.081461 -0.127858 0.202980 -0.058572 0.094030 -0.003458 0.084953 -0.122790 -0.219492 -0.098903 -0.117117 -0.058105 -0.030620 0.010066 -0.005815 0.292209 0.002469 0.162699 -0.009899 -0.070067 0.262636 0.270860 -0.009314 -0.039043 -0.182180 -0.130802 -0.070503 -0.164156 0.101423 -0.063987 0.258305 -0.128953 -0.103107 -0.080846 0.026492 0.379545 -0.053709 -0.125162 0.167635 -0.194311 -0.371983 -0.263069 0.083526 -0.099893 0.146130 0.067289 0.001071 0.179754 -0.235271 0.038199 0.029121 0.099662 -0.058192 0.139623 0.247735 0.020085 0.162108 -0.114013 -0.069071 0.137981 -0.102999 -0.077521 0.156885 0.017222 -0.110646 -0.128251 0.032795 0.005685 0.247870 0.228058 -0.113835 -0.001956 0.212917 0.284707 -0.116552 0.020145 -0.129515 0.251265 -0.169313 -0.119445 0.155600 0.142435 -0.244032 -0.043894 -0.078440 0.316621 0.013708 -0.276504 0.247571 0.446242 -0.007563 0.202531 0.033135 0.196787 0.137956 0.287315 -0.023038 0.074147 0.162440 0.149813 -0.065084 0.175844 0.526889 -0.289538 -0.036019 -0.085755 -0.111926 0.092934 0.091552 -0.211188
129 -0.314953 -0.198160 -0.178233 -0.150294 -0.023418 -0.234136 -0.146696 -0.060540 0.084876 -0.016953 -0.074840 0.043027 -0.020054 0.226399 0.024378 -0.224356 0.045008 -0.006886 0.089800 -0.057956 0.120387 -0.017951 0.184655 -0.020508 0.070416 -0.073808 -0.132722 -0.022622 -0.052371 0.047461 -0.040224 -0.057710 0.006553 0.143197 -0.020832 0.043091 -0.026257 -0.051921 0.205594 0.231583 0.049359 -0.010532 -0.044270 -0.064515 -0.013992 -0.018713 0.003033 -0.060050 0.199311 -0.049370 -0.080465 -0.026871 -0.008522 0.385675 -0.171733 -0.129452 0.149446 -0.201609 -0.397177 -0.255439 0.158695 -0.090183 0.136552 0.130560 -0.059694 0.107422 -0.270880 -0.020271 0.115833 0.099756 -0.056991 0.085025 0.168824 -0.059550 0.137634 -0.047458 -0.013196 0.181356 -0.169399 -0.063659 0.065708 0.028373 -0.131932 -0.061639 0.061856 -0.011338 0.178413 0.185950 -0.056871 0.048568 0.279211 0.219263 0.023692 0.003067 -0.066426 0.265119 -0.079292 -0.087060 0.140986 0.079675 -0.209481 0.034873 -0.181492 0.274072 0.003737 -0.272547 0.214450 0.333797 0.071622 0.163609 0.065923 0.102830 0.034168 0.155647 0.012507 0.096860 0.096688 0.207136 -0.105616 0.146255 0.489484 -0.150062 0.009688 -0.024840 -0.138211 0.059944 0.042804 -0.008082
68 -0.120298 -0.228292 -0.249461 -0.216661 0.039123 -0.088316 -0.115278 0.025527 0.285028 0.047839 -0.055992 -0.014943 -0.045516 0.035878 0.262063 -0.079709 -0.089360 0.053326 0.099440 0.068620 -0.193307 0.147460 0.174530 0.076702 -0.218836 0.169086 0.052506 -0.177001 -0.027482 0.025742 0.044433 0.084424 -0.116569 -0.087429 -0.099683 0.106272 -0.180457 -0.132990 0.039585 0.138241 0.131590 0.170689 0.167708 -0.243421 -0.160936 -0.054081 -0.059749 0.020671 0.016852 0.047756 -0.276701 0.008015 0.075716 0.346654 -0.397681 -0.331611 -0.050646 -0.226035 -0.008103 -0.126169 0.140089 -0.239018 0.151481 0.144846 -0.188200 0.218920 -0.059622 -0.302537 -0.134124 -0.042073 0.032617 0.009696 0.202536 0.024462 -0.134853 0.030817 0.093661 -0.019790 -0.258510 -0.134310 0.106370 0.166962 -0.268239 -0.037650 0.178350 0.125636 0.084961 -0.060054 0.184984 -0.061743 0.179568 0.077521 -0.052678 0.105687 0.131100 0.195005 0.064566 -0.173526 0.127695 0.095404 0.050948 -0.026735 -0.082886 0.048949 0.077352 -0.126736 0.068863 0.023944 -0.043808 -0.150200 -0.054716 0.040681 -0.153769 -0.062174 0.052142 0.037152 0.027628 0.371637 -0.187653 0.213282 0.131583 0.128391 0.205292 0.168248 -0.062601 0.147642 -0.107660 -0.059463
194 -0.011913 -0.276058 -0.230346 -0.212042 -0.043470 -0.059069 -0.238231 -0.093889 0.285180 0.147646 -0.122280 -0.001768 -0.010656 0.118161 0.033952 -0.079793 0.012769 0.082708 0.363323 0.169665 -0.104359 0.131605 0.017266 0.089583 -0.157408 0.196798 0.145974 -0.156532 -0.025321 0.063019 0.006396 0.038715 -0.068340 -0.105179 -0.245977 0.040249 -0.298044 -0.209146 0.079922 0.036323 0.180602 0.130883 0.190216 -0.220100 -0.200484 -0.037014 -0.225323 0.057300 0.045070 0.083586 -0.073838 -0.020208 0.166527 0.353604 -0.554970 -0.304570 -0.046279 -0.080779 -0.178345 -0.033103 0.082177 -0.187375 0.105810 0.104323 -0.268668 0.153330 -0.035076 -0.271981 -0.142310 -0.090805 0.054256 0.042460 0.301740 -0.149911 -0.161301 0.085064 0.021345 0.015565 -0.260932 -0.098828 0.098983 0.067206 -0.200975 0.042407 0.168784 0.141911 0.134058 0.030562 0.103754 0.055282 0.290038 0.215540 -0.085765 0.159519 0.112831 0.129457 0.025634 -0.202730 0.099666 0.096596 0.063554 0.032340 -0.137005 0.225847 0.067467 -0.041743 -0.032451 -0.015951 0.087218 -0.206099 0.064762 0.025893 -0.099295 -0.045406 0.176621 0.070062 -0.085703 0.371667 -0.249823 0.182518 0.206211 0.058283 0.235604 0.181181 0.056363 0.122515 -0.232639 0.134752
258 0.149554 -0.212522 0.097107 -0.019733 -0.188614 0.099746 0.002310 -0.046976 0.091611 0.191862 -0.251711 0.062101 0.236935 0.042945 -0.089949 -0.170902 -0.091560 0.089191 0.010073 0.224298 -0.146931 0.120225 0.283158 0.120163 0.099746 0.077807 -0.131443 -0.246648 -0.399922 -0.127246 0.117136 -0.034921 -0.042131 -0.125744 -0.486695 -0.046749 -0.039086 0.172512 -0.031343 -0.044898 -0.163304 -0.096519 0.083675 -0.077175 -0.034042 0.026788 -0.124441 0.209644 0.130303 -0.138805 -0.130343 0.065346 -0.128558 0.035352 -0.279072 -0.359039 -0.037576 -0.036645 -0.270945 0.081941 0.148607 -0.345763 0.211705 0.321840 -0.049416 0.118278 -0.398711 0.060576 -0.070730 0.059942 0.336765 0.093367 0.211005 0.008149 -0.100718 -0.142784 -0.163758 0.049410 -0.104209 0.382263 -0.131266 -0.228940 0.033556 -0.077473 0.047368 -0.071308 0.305096 -0.015841 0.035106 0.048069 0.410585 -0.039417 0.140305 -0.012605 -0.246470 0.331287 0.266189 -0.271625 0.068349 0.167942 -0.307205 -0.333027 -0.316142 0.437356 0.360780 0.123919 -0.054181 -0.098157 0.104552 0.016754 -0.192500 0.367823 0.017110 -0.211872 0.239849 0.103878 0.017932 -0.021155 -0.051432 -0.194826 0.337098 0.037109 -0.020770 -0.166693 -0.087666 0.097011 0.127313 -0.454517
198 -0.057900 -0.161360 -0.235157 -0.265102 -0.011912 -0.041134 -0.230479 -0.170526 0.433659 -0.128060 -0.127266 -0.061917 0.028790 0.025391 0.204483 -0.050551 0.064604 0.129524 0.082659 -0.012093 -0.230421 0.241913 -0.072545 0.107465 -0.023014 0.047292 0.115934 -0.150596 -0.198066 -0.022409 0.071837 -0.038251 -0.091285 0.007283 -0.039384 0.149122 -0.140898 -0.187042 0.087981 0.196171 0.054374 0.074394 -0.051478 -0.222199 -0.085919 -0.212622 0.019291 0.042371 0.111547 -0.042451 -0.139538 0.034551 0.221653 0.497164 -0.293657 -0.192594 -0.270963 -0.221238 -0.040355 -0.076052 -0.059791 -0.334596 0.259971 0.204511 -0.156048 0.037608 -0.006201 -0.267867 -0.228237 -0.112839 0.081735 0.081510 0.148339 0.126182 0.015157 -0.043456 -0.057244 -0.194880 -0.251423 -0.091852 -0.002488 0.220401 -0.306749 -0.010632 0.208910 0.155640 0.131417 0.086929 0.094125 -0.138656 0.226888 0.076087 -0.021285 0.164008 0.238978 0.103462 0.046276 -0.309833 0.059798 -0.030904 -0.025191 -0.158461 -0.298781 0.115197 0.044359 -0.232906 0.054428 0.090618 -0.017942 -0.157734 0.014962 0.233470 0.072944 0.037002 0.083984 -0.153040 0.138046 0.305061 -0.209930 0.168401 0.237577 0.088647 0.237317 0.215744 -0.051417 0.221010 -0.066819 -0.117171
174 -0.096283 -0.150721 -0.206607 -0.203267 -0.023337 -0.033035 -0.117487 -0.128151 0.463262 -0.184916 -0.151565 -0.068335 0.023867 -0.005903 0.147633 -0.160203 -0.009374 0.157232 -0.053526 0.031177 -0.259136 0.291466 -0.063209 0.167723 0.131529 0.114966 0.117930 -0.088074 -0.287732 -0.046760 0.137699 -0.133364 -0.049585 0.038079 -0.087670 0.204913 -0.090803 -0.112445 0.071528 0.146472 -0.002254 0.130602 0.011108 -0.243941 -0.084493 -0.116879 0.008812 -0.012003 0.215531 -0.134181 -0.224136 0.013337 0.310292 0.521358 -0.185994 -0.326240 -0.439200 -0.204398 0.070325 -0.066095 0.109482 -0.443271 0.250129 0.211200 -0.175153 -0.109800 -0.175872 -0.226778 -0.304755 -0.099393 -0.015839 0.031416 0.105915 0.140654 -0.003271 -0.079280 0.027260 -0.188737 -0.227848 -0.074849 -0.108832 0.138574 -0.282526 -0.091449 0.252727 0.236375 0.201103 0.001408 0.135936 -0.174657 0.252171 0.028367 0.047317 0.104371 0.259568 0.096486 0.047765 -0.271038 -0.012628 -0.028445 -0.101091 -0.163839 -0.308684 0.025121 -0.025081 -0.162346 0.066395 -0.013874 -0.192767 -0.093104 -0.097362 0.220635 0.025134 -0.042347 0.038367 -0.275425 0.115220 0.282657 -0.138872 0.048428 0.285913 0.194432 0.167559 0.217369 -0.114322 0.224542 -0.004520 -0.157102
67 -0.139565 -0.175768 -0.306730 -0.114360 0.003315 -0.102185 -0.138125 -0.049315 0.290503 0.192565 -0.044982 0.180785 -0.208523 0.154216 0.287507 -0.035200 -0.148491 -0.002540 0.028385 0.003019 -0.216973 0.074391 0.217605 -0.131508 -0.247587 0.024887 0.122873 -0.131535 0.106469 0.167286 -0.075661 0.029098 -0.093253 -0.067706 -0.070809 0.030246 -0.105990 -0.150850 0.059061 0.187252 0.115454 0.209737 0.223047 -0.031369 -0.269567 0.094807 -0.009977 -0.054737 -0.093947 0.022544 -0.318647 0.024103 0.077748 0.478310 -0.466334 -0.152711 0.139978 -0.150718 -0.121399 -0.024020 0.316421 -0.236936 0.062841 -0.058738 -0.250763 0.287341 0.008470 -0.240570 -0.120333 0.043792 0.167613 0.081203 0.285967 -0.039593 -0.126668 0.126309 0.033399 -0.026577 -0.052031 -0.123308 0.119136 0.018189 -0.255973 0.147350 0.012794 0.092702 0.133642 -0.042478 0.118832 -0.182261 0.155084 0.180546 -0.046649 -0.091617 0.042280 0.209064 0.061916 -0.273331 0.107573 -0.009177 -0.102881 0.033569 -0.241688 0.016891 0.183894 -0.100533 0.115567 0.078161 0.136164 -0.293170 0.065884 0.047258 -0.086852 -0.078958 0.136746 0.082410 0.120495 0.329091 -0.231254 0.212725 0.184111 0.104232 0.200078 0.179342 -0.007320 0.026327 -0.118150 0.105642
218 0.027647 -0.278257 -0.024776 -0.055894 -0.081530 -0.050578 -0.012104 0.068226 0.052783 0.256671 -0.056323 0.065495 0.103632 -0.277093 -0.016033 -0.143616 0.087618 0.087835 0.297528 0.083106 -0.016727 0.080325 0.124560 0.136879 -0.008210 0.342989 0.080991 -0.097151 -0.004320 -0.278104 0.060925 0.078280 0.066268 -0.181919 -0.210420 -0.024293 -0.199566 -0.076348 0.145385 0.020090 -0.025824 0.171640 0.182626 -0.228736 -0.157976 0.092097 -0.316425 -0.060875 0.013637 0.088205 -0.105707 0.030414 0.249696 0.121920 -0.467671 -0.394605 -0.142749 -0.026058 -0.075303 0.183703 -0.050716 -0.080639 -0.119186 0.095809 0.092406 0.062188 -0.064201 -0.207873 0.006007 -0.145325 0.039870 0.012141 0.343927 -0.180835 -0.044287 0.058477 0.075224 0.274413 -0.078905 -0.062778 0.043093 0.031519 -0.092900 -0.178963 0.067694 0.172667 0.207923 -0.117311 0.138187 0.264147 0.336031 0.222958 -0.116846 0.079084 -0.142435 0.111902 -0.002067 -0.064377 0.155878 0.329024 0.143350 0.068625 -0.158742 0.161515 0.147886 0.246152 -0.100723 -0.116534 0.033425 -0.109307 0.087569 0.027827 -0.115053 -0.082491 0.240614 0.278921 -0.053854 0.273596 -0.072213 0.111004 0.063700 -0.060155 0.164389 -0.005036 -0.079774 0.074169 -0.064937 0.182761
86 0.081867 -0.336101 0.283230 0.071857 -0.128875 -0.020441 -0.075673 -0.154681 -0.037778 0.137143 -0.135188 0.150259 0.206497 -0.013268 -0.001669 -0.109077 -0.117663 0.055632 -0.057477 0.051087 0.045704 0.094136 0.248047 0.037420 0.043638 -0.008411 -0.036056 -0.088723 -0.261009 -0.204846 0.138487 -0.054170 -0.072682 0.022913 -0.452766 -0.005037 0.079891 0.168331 0.097444 -0.042483 -0.104069 -0.149909 0.036051 -0.034235 -0.050511 -0.022700 -0.072547 0.070607 0.066845 -0.030405 -0.065351 0.050074 -0.162398 0.028098 -0.260592 -0.275777 0.008956 0.010215 -0.258469 0.224912 0.235119 -0.202734 0.055811 0.253115 -0.063266 0.015942 -0.391060 0.066756 -0.092456 0.069973 0.240784 0.043250 0.224615 -0.059249 -0.110328 -0.201859 -0.040915 0.098700 0.000305 0.370894 -0.137512 -0.075779 0.035058 -0.199185 0.044271 0.015702 0.273146 0.049112 0.245644 0.045437 0.309248 0.135304 0.153147 -0.263664 -0.233427 0.508865 0.132550 -0.002084 0.148900 0.191194 -0.237010 -0.271736 -0.213018 0.304248 0.467701 0.175344 -0.034905 -0.064175 0.111694 0.054155 -0.154144 0.360350 -0.016930 -0.211687 0.227276 0.154274 0.058809 -0.033608 -0.106989 -0.165653 0.333829 -0.161236 -0.083165 -0.247659 -0.079856 0.172466 0.071174 -0.435632
256 -0.130927 -0.253020 -0.133591 -0.168412 0.009899 -0.099148 0.150545 -0.011064 -0.009984 0.157522 -0.135447 0.120861 0.029971 0.114017 -0.114728 -0.283462 0.046887 -0.012194 0.078136 0.137838 0.026505 0.001575 0.226186 0.026727 0.164489 0.009128 -0.219933 -0.017269 -0.196281 -0.036334 -0.063160 0.104304 0.127801 -0.073461 -0.101788 -0.075285 -0.081415 0.009444 0.134369 0.055256 -0.072880 -0.059498 0.077418 -0.055627 -0.011509 0.189427 -0.032685 -0.142778 0.187986 -0.046409 -0.095873 0.065337 -0.035772 0.265959 -0.140692 -0.264224 0.070104 -0.108381 -0.293144 -0.096993 0.109437 -0.097883 -0.082540 0.124373 0.113142 0.050904 -0.289718 -0.000784 0.178140 0.044079 0.116545 0.055601 0.272516 -0.215649 0.211897 -0.011412 -0.063871 0.195299 -0.136736 0.107054 0.001601 -0.033667 -0.040843 -0.166957 0.026171 -0.047301 0.279166 -0.033346 -0.058235 0.170843 0.446975 0.128871 0.101362 0.071064 -0.222116 0.240516 0.064420 -0.051907 0.128757 0.072392 -0.285948 -0.034062 -0.362649 0.221069 0.083630 0.084611 0.084450 0.199051 0.007428 0.299039 0.039881 0.129042 0.087385 -0.023605 0.109297 0.174837 0.002857 0.093004 0.055303 -0.095523 0.329171 -0.027067 -0.075045 -0.127983 -0.190540 0.084775 0.117521 0.002594
47 -0.019609 -0.278708 -0.077513 -0.067249 -0.058028 -0.093082 0.073458 0.163024 0.022422 0.006747 -0.174406 0.106818 0.049465 -0.095290 -0.200262 -0.252084 0.168487 0.129676 0.145773 -0.051428 0.077600 0.073468 0.078257 0.041689 0.249802 0.002985 -0.151974 -0.038827 -0.145464 -0.253245 -0.118322 -0.004585 0.066452 -0.108643 0.146465 0.033485 -0.014370 -0.084740 0.056156 0.165094 -0.217985 0.167812 -0.084920 -0.137530 -0.126290 0.087542 -0.093502 -0.159078 -0.018123 -0.259187 -0.194343 -0.037282 0.227739 0.218209 -0.167183 -0.217594 -0.123746 0.101846 -0.177065 -0.128220 -0.022134 -0.113902 -0.038197 0.069025 0.071398 -0.001056 0.001738 -0.047706 0.055010 -0.099837 0.016450 0.032263 0.279293 -0.001747 0.127238 -0.002874 -0.021090 0.110580 -0.088021 -0.007825 0.128404 -0.155859 -0.238354 -0.110892 -0.062833 0.096800 0.380213 -0.006929 -0.081717 0.104151 0.366136 0.088398 -0.111920 0.060729 -0.246014 -0.017559 0.140345 -0.175394 0.050263 0.260641 -0.128333 -0.023472 -0.237487 0.162202 0.091609 0.243017 0.042946 0.045655 -0.094578 0.140226 0.045945 0.169983 0.181427 -0.029737 0.083842 0.176015 0.012379 0.082499 0.068957 0.066666 0.243268 -0.000453 -0.213697 -0.102561 -0.237710 0.036483 0.164488 0.006342
33 -0.159032 -0.383933 -0.086131 -0.027676 0.090180 -0.217288 -0.290783 -0.139670 0.129320 -0.179262 -0.021228 0.223645 -0.166168 0.246169 0.220414 -0.004693 -0.080768 0.072964 -0.038857 -0.204939 -0.020844 0.101586 0.056622 -0.105951 -0.120879 -0.025528 0.224894 -0.038099 0.049380 0.144155 0.038341 -0.108977 -0.310121 0.130658 -0.170909 0.057764 0.093077 -0.143953 0.077739 0.179823 0.131912 0.042235 0.172289 -0.015209 -0.193602 -0.054354 0.058343 -0.084774 -0.113191 0.068476 -0.074861 0.001768 0.030259 0.358972 -0.362185 -0.142403 -0.045104 -0.115619 -0.132171 0.175584 0.401202 -0.305962 0.048825 0.050511 -0.276714 -0.145138 -0.176409 -0.236184 -0.184919 0.055285 -0.034948 0.071026 0.292241 -0.081575 -0.192257 -0.047737 0.166682 -0.179240 -0.051836 0.053585 -0.032043 -0.038013 -0.303017 0.034139 0.059286 0.269441 0.250839 0.097079 0.286788 -0.210123 0.176774 0.260605 -0.045726 -0.449549 0.228656 0.440754 0.128898 -0.169018 0.190461 -0.053751 -0.175755 -0.068141 -0.033443 0.042544 0.229126 -0.156767 0.166012 0.009426 0.074937 -0.090301 -0.035376 0.181638 -0.011325 -0.220720 0.066267 -0.033374 0.043109 0.038427 -0.410013 -0.000792 0.368187 -0.013672 0.026767 0.110095 -0.054040 0.120575 -0.149498 -0.110373
154 -0.080508 -0.265643 -0.080020 -0.281965 -0.046906 -0.076385 -0.096519 0.171112 0.374850 -0.084738 0.064175 -0.011587 0.059177 -0.087389 0.303868 -0.073201 -0.006606 0.062902 0.078616 -0.077294 -0.185598 0.189139 0.099704 0.004315 -0.066464 0.093367 -0.021831 -0.042324 -0.047044 -0.023884 0.034840 0.036371 -0.202693 -0.065799 0.005591 0.048478 0.161139 -0.054719 0.107448 0.337757 -0.034217 -0.080063 -0.102200 -0.071713 -0.030376 -0.058005 -0.047300 -0.092824 -0.119858 -0.011299 -0.219276 0.051004 0.196941 0.456471 -0.224665 -0.239055 -0.372561 -0.318992 0.024814 -0.137805 0.049576 -0.251035 0.206552 0.298137 -0.061745 -0.095093 0.182668 -0.319719 -0.109484 -0.163399 -0.061239 0.064850 0.081882 0.192059 0.043369 -0.059589 -0.126064 -0.003152 -0.303348 -0.177536 0.123509 0.175306 -0.453467 -0.054670 0.065021 0.105913 0.121170 0.144954 0.207477 -0.097412 0.394451 0.070837 0.036805 0.074404 0.233848 0.128539 0.091243 -0.213474 0.199518 -0.063064 -0.079345 -0.156709 -0.273022 0.079805 0.132304 -0.296812 0.047132 -0.019510 -0.190353 -0.231257 -0.018938 0.174336 0.126263 0.000958 -0.027636 -0.110131 0.051678 0.366485 -0.336444 0.337687 0.150478 -0.055804 0.210940 0.154104 -0.078135 0.144726 0.013473 -0.131985
54 -0.141928 -0.262143 -0.195415 -0.189359 0.113507 -0.053889 0.087026 -0.041961 0.004483 -0.004858 -0.123622 0.148775 -0.015787 0.078249 -0.079197 -0.227580 0.153884 0.077442 0.174196 0.020331 -0.021439 -0.023854 0.086791 0.013771 0.121163 0.017863 -0.219732 -0.064851 -0.146969 -0.069749 -0.102257 0.196021 0.020923 -0.062319 0.117712 -0.061872 -0.159475 -0.143356 0.120307 0.106961 -0.074717 -0.028729 0.034413 -0.082067 -0.055066 0.097771 -0.030615 -0.161670 0.123968 -0.015110 -0.035701 0.029045 0.055272 0.260573 -0.162089 -0.173540 0.030524 -0.070093 -0.248895 -0.112158 -0.077991 -0.067129 -0.176128 0.085391 0.206363 0.027170 -0.109957 -0.171498 0.139402 -0.035886 0.042960 0.102323 0.369842 -0.191218 0.203941 0.035070 -0.073750 0.035846 -0.128980 0.121423 0.086798 -0.017785 -0.241997 -0.061933 -0.004755 -0.013351 0.332281 -0.059878 -0.065899 0.189823 0.409397 0.174579 -0.050402 0.043499 -0.196219 0.151211 0.085559 -0.165457 0.099113 0.103615 -0.136513 -0.037520 -0.282623 0.185941 0.097377 0.100797 0.088121 0.234777 -0.010277 0.307420 0.141586 0.184477 0.177556 -0.040132 0.069038 0.180909 -0.007842 0.021857 -0.059342 -0.098992 0.191565 -0.032554 -0.098411 -0.018797 -0.189638 0.104462 0.114327 0.062691
63 -0.134237 -0.095978 -0.184718 -0.105713 -0.016994 -0.082398 0.158492 0.013959 0.138025 0.161708 -0.143579 0.140812 -0.041150 0.108685 -0.011822 -0.282240 -0.044709 0.088017 -0.094106 0.076966 -0.112297 0.120072 0.150158 -0.122487 0.149694 -0.007989 -0.179847 -0.030059 -0.206706 0.118555 -0.022670 0.020926 0.129129 -0.019567 -0.009009 0.027838 -0.009783 0.002510 -0.034213 0.094567 -0.057954 0.150026 0.089773 -0.072228 -0.127657 0.172118 0.047086 -0.145686 0.100080 -0.233483 -0.358764 0.049112 0.104026 0.430814 -0.110515 -0.232303 0.022961 -0.059132 -0.107158 -0.153560 0.208869 -0.317096 0.013079 0.013406 -0.007220 0.100574 -0.150190 -0.017946 -0.064226 -0.010282 0.181228 0.108435 0.225876 -0.003432 0.140109 0.030275 -0.021687 -0.034419 -0.061224 0.062593 0.122910 -0.085883 -0.088691 -0.089681 -0.000153 0.017143 0.277341 -0.058289 0.057826 -0.106937 0.367705 0.029939 0.075867 0.085835 -0.183212 0.037992 0.079513 -0.208906 -0.073749 0.005255 -0.304112 -0.067218 -0.369119 0.014715 0.069934 0.161861 0.082436 0.165801 -0.148397 0.041751 -0.147724 0.196221 0.178201 -0.023347 0.075020 0.047892 0.111866 0.182953 0.100558 -0.011512 0.236195 0.163213 -0.102411 0.035091 -0.084740 0.124653 0.148494 -0.083246
206 -0.076002 -0.308653 -0.023183 0.103703 0.040762 -0.174337 -0.198689 -0.187204 -0.017687 -0.210239 -0.041317 0.197984 -0.097100 0.036195 0.163579 -0.265825 -0.089219 0.127656 -0.071143 -0.085820 -0.110510 0.051749 0.105796 -0.149837 0.056054 0.078781 0.128285 -0.070924 0.067190 0.011264 0.061490 -0.056154 -0.127430 0.279959 -0.251350 0.068238 0.172608 -0.109087 0.205708 0.131190 -0.061902 -0.179874 0.186366 0.108911 -0.146498 0.042837 0.007931 -0.190814 0.021355 0.040777 -0.237777 -0.096866 -0.060797 0.185999 -0.214537 -0.204592 -0.103029 -0.144313 -0.136574 0.265480 0.407896 -0.312982 -0.038102 0.034199 -0.055066 -0.198005 -0.310329 -0.086098 -0.329530 0.047911 -0.186162 -0.010831 0.282350 -0.200977 -0.202319 -0.075690 0.173374 -0.018390 0.047521 0.159604 -0.063308 -0.059789 -0.215964 -0.074500 -0.034758 0.274981 0.295545 -0.049378 0.251974 -0.154000 0.160802 0.233598 -0.018869 -0.483312 -0.034344 0.461357 0.053466 -0.044575 0.095921 0.145716 -0.168296 -0.123591 0.034665 0.048290 0.186070 -0.031661 0.108150 0.018224 -0.088339 0.067572 -0.000999 0.310376 -0.095352 -0.285644 -0.045841 0.067870 -0.002144 -0.082225 -0.299948 -0.057870 0.292585 -0.073353 -0.133381 -0.007704 -0.080127 0.141380 -0.003119 -0.194153
219 -0.191468 -0.204317 -0.172356 -0.198361 0.084224 -0.106993 -0.016025 -0.014890 0.129401 -0.065566 -0.049319 0.093717 -0.074685 0.125506 0.091548 -0.190600 -0.007939 -0.031438 -0.015700 0.028610 -0.038139 -0.030278 0.231044 -0.009272 -0.024132 -0.097682 -0.003613 -0.013374 -0.005820 0.028391 -0.048311 0.026949 -0.063106 -0.016541 -0.030537 -0.121510 0.060644 0.003496 0.216999 0.143135 -0.052352 -0.102159 -0.071749 0.151567 0.053479 0.026617 0.042833 -0.175036 0.169879 0.072270 -0.104549 0.041936 -0.031962 0.417538 -0.037918 -0.041951 -0.025292 -0.222359 -0.249626 -0.112231 0.213804 -0.093285 -0.002558 0.058857 0.061324 0.082708 -0.169809 -0.099396 0.081708 0.113000 -0.017283 0.042596 0.186697 -0.134001 0.110525 -0.027800 -0.006018 0.037491 -0.110040 -0.008503 -0.047552 -0.001679 -0.222060 -0.025632 0.004510 -0.006581 0.155379 0.090637 -0.044372 -0.023375 0.275215 0.155426 0.147683 -0.105402 -0.043524 0.295107 0.054455 -0.165313 0.112019 -0.016659 -0.336117 -0.052254 -0.296373 0.084624 0.097276 -0.213424 0.117880 0.245053 0.056747 0.138382 0.196872 0.088159 0.071368 -0.036017 0.022044 0.029019 0.043838 0.163804 -0.166787 0.052016 0.322003 -0.068919 0.066392 -0.042041 -0.273409 0.083183 0.112950 -0.001772
147 -0.129068 0.020296 -0.367751 -0.032757 -0.074710 -0.211043 -0.067726 -0.012698 0.275744 0.198412 -0.046176 0.088065 -0.106058 -0.107750 0.316024 -0.178915 -0.060482 0.039501 -0.079183 -0.000470 -0.342292 -0.003111 0.211951 -0.082206 -0.085415 -0.011591 -0.026673 -0.119636 0.222939 -0.036168 -0.103435 -0.061978 0.114007 0.001478 -0.017548 0.128305 -0.138114 -0.154772 0.195665 0.176727 0.060592 0.259437 0.084811 -0.055024 -0.265336 0.098976 -0.043745 -0.204843 0.091368 -0.144561 -0.507333 0.032510 0.228001 0.606095 -0.279852 -0.195493 0.146101 -0.160681 0.002652 -0.130496 0.249701 -0.295582 0.107929 -0.232954 -0.011607 0.458189 0.024213 -0.162786 -0.194009 0.053955 0.056807 0.097550 0.267648 0.112634 0.026778 0.154497 -0.071786 0.029735 0.090563 -0.242024 0.220175 0.096762 -0.187016 0.160176 -0.030032 0.078616 0.098158 -0.111244 0.017008 -0.196629 0.152783 0.200847 -0.158100 -0.015784 -0.172263 0.138056 -0.060983 -0.336395 0.158199 0.037439 -0.130326 0.143203 -0.324658 -0.084024 0.046173 -0.055717 0.115245 0.286250 0.093326 -0.267528 0.103955 0.036208 -0.027339 0.112659 0.172315 0.093951 0.297670 0.449829 -0.048218 0.271056 0.101929 0.161311 0.153677 0.174865 0.022471 0.009962 0.018677 0.155325
150 -0.007419 -0.285224 -0.224858 -0.230895 0.097065 -0.063211 -0.162712 -0.205133 0.195743 0.118076 -0.101121 -0.076768 -0.111081 0.029076 0.168824 -0.233693 -0.024307 0.092384 0.183646 0.182481 -0.186974 0.125374 0.177473 -0.053025 -0.284755 0.108699 0.237858 -0.119877 0.089157 0.042996 -0.032692 0.115162 0.054763 -0.000144 -0.186161 0.177917 -0.315865 -0.234246 0.139713 -0.028335 0.102312 0.094757 0.173651 -0.220140 -0.128497 -0.002598 -0.079287 -0.033379 0.115921 0.078260 -0.414471 -0.063688 0.011972 0.397269 -0.483090 -0.280395 0.003212 -0.240680 -0.093627 0.017009 0.212402 -0.245883 0.083766 -0.036584 -0.290475 0.217125 -0.036569 -0.147486 -0.366173 -0.101726 0.006999 -0.151594 0.268474 -0.218930 -0.146085 0.044413 0.157059 0.069592 -0.226546 -0.244914 0.175394 0.259024 -0.225628 -0.000819 0.092463 0.174896 0.059629 -0.071291 0.170717 -0.137229 0.142040 0.152747 -0.016075 0.134477 0.077900 0.190506 -0.047580 -0.089733 0.032808 0.239988 0.100317 -0.000718 -0.083707 -0.015757 0.078006 -0.030705 0.056532 0.185270 0.035049 -0.104722 0.125078 0.111023 -0.217283 -0.087825 0.065940 0.164005 -0.072022 0.309717 -0.157022 0.244852 0.083132 0.022257 0.174030 0.138084 0.064713 0.152617 -0.239019 0.034784
84 0.089612 -0.326064 0.182878 -0.004221 -0.076273 0.096666 0.055262 -0.176964 -0.080139 0.292369 -0.129137 0.143535 0.147057 -0.040599 -0.056163 -0.158249 -0.014562 0.064261 0.020000 0.205260 0.013900 0.132220 0.193236 0.010383 0.060965 -0.089247 -0.078121 -0.009400 -0.336768 -0.251860 0.057013 0.090370 0.068340 -0.064162 -0.297810 0.024008 -0.004911 0.148788 0.021996 -0.216448 -0.082336 -0.004060 0.015531 -0.201536 -0.025663 -0.038971 -0.070741 0.088898 0.132665 -0.107281 -0.100957 0.136392 -0.194555 0.098906 -0.331669 -0.298062 0.077979 0.103482 -0.229201 0.017176 0.097080 -0.185164 -0.056188 0.328386 -0.048756 0.110891 -0.353006 0.134349 -0.051978 -0.103788 0.305029 0.008856 0.194948 -0.091090 0.070704 -0.129626 -0.028585 0.212988 -0.138158 0.331217 -0.012930 -0.036153 0.000504 -0.186756 0.110067 0.019589 0.247132 -0.015265 0.205659 0.045237 0.362091 0.077525 0.180501 -0.028850 -0.281441 0.392488 0.123597 -0.022522 0.022700 0.193221 -0.200940 -0.298224 -0.445452 0.225941 0.424125 0.295872 -0.081822 0.068542 0.098991 0.148034 -0.082691 0.265764 0.054032 -0.183464 0.337266 0.308090 -0.000920 0.053586 0.043468 -0.151606 0.179411 -0.100952 -0.085841 -0.200691 -0.043361 0.239668 0.069426 -0.296813
253 0.012006 -0.386507 -0.132781 -0.036975 0.079967 -0.125794 -0.038341 -0.008050 -0.060110 0.013641 -0.064634 -0.056871 -0.071400 -0.123786 0.113323 -0.311060 0.036988 0.149763 0.145051 0.097797 -0.050743 0.099394 0.146828 -0.038448 -0.163023 0.104128 0.146290 -0.113616 0.040363 -0.102504 0.065809 0.118975 0.029352 -0.007344 -0.174624 0.149125 -0.078036 -0.120573 0.124091 -0.053913 0.004388 0.070019 0.195712 -0.171178 -0.138418 0.010495 -0.062036 -0.095538 0.092937 0.013306 -0.414350 -0.047407 0.003704 0.185429 -0.364013 -0.334322 -0.022947 -0.140649 -0.060810 0.009306 0.222481 -0.269345 -0.025086 -0.063946 -0.104258 0.071303 -0.079573 -0.006503 -0.323543 -0.144586 -0.112709 -0.135869 0.286727 -0.172963 -0.100359 -0.046987 0.266412 0.096735 -0.203491 -0.104352 0.245423 0.102447 -0.209532 -0.122471 -0.028377 0.293085 0.154024 -0.128498 0.250872 -0.041634 0.143102 0.119664 -0.053340 -0.031895 -0.098901 0.200183 0.076369 -0.027672 0.064899 0.301530 0.069812 -0.032704 0.077177 -0.053683 0.070564 0.057695 0.019367 0.148651 -0.065664 0.010268 -0.012673 0.157037 -0.159668 -0.195761 0.039753 0.272653 -0.144186 0.134739 -0.133079 0.107656 0.012181 -0.073318 -0.039734 0.051345 0.002047 0.128313 -0.118349 -0.070839
246 0.112591 -0.181048 -0.059726 -0.254562 -0.039902 -0.125016 -0.397823 -0.169989 0.225052 -0.072341 -0.156033 -0.034900 0.035762 0.019330 -0.051975 -0.096354 0.169338 0.175145 0.352820 -0.086204 -0.075888 0.053908 -0.029384 0.178941 -0.132710 0.027528 0.093997 -0.277696 0.034526 0.136125 -0.059082 0.009672 -0.116343 -0.015538 -0.174225 -0.051274 -0.294581 -0.212755 0.049329 0.084131 0.003437 -0.079565 -0.173619 -0.011486 -0.099078 -0.245082 -0.191677 -0.010784 0.090957 0.128931 0.030474 -0.009398 0.173564 0.312816 -0.320941 -0.058611 -0.211010 -0.132058 -0.370608 0.016979 -0.175289 -0.168626 0.117674 0.110057 -0.010465 0.107716 0.070472 -0.315809 -0.033189 -0.171771 -0.026893 0.164397 0.434647 -0.072808 -0.043380 0.050603 -0.142631 -0.243844 -0.182995 0.151661 -0.053073 0.126199 -0.390297 0.154773 0.035648 -0.061508 0.120451 0.203906 -0.122447 0.041696 0.311871 0.137368 -0.084606 0.089856 -0.035449 0.101948 0.123801 -0.336189 0.155874 0.002631 0.038413 0.037577 -0.287966 0.172705 0.259948 -0.066470 -0.051355 0.071937 0.225663 -0.074490 0.189766 0.161975 0.169247 -0.060508 0.181139 -0.026639 0.027575 0.224068 -0.323285 0.076932 0.076749 -0.093186 0.200986 0.008826 -0.064386 0.145138 -0.120754 0.076884
193 -0.272665 -0.109250 -0.281333 -0.058563 -0.090850 -0.266075 -0.103319 -0.010527 0.119047 -0.107177 -0.131495 0.024099 0.059198 0.055021 0.062048 -0.154925 0.195824 0.097019 0.078922 -0.128294 0.020716 -0.031085 0.003876 0.015252 0.146703 -0.039990 -0.175481 -0.093770 -0.141121 -0.093587 -0.023779 -0.011487 -0.027209 0.148621 0.117423 0.115657 -0.053895 -0.169215 0.212091 0.354473 -0.062671 0.043100 -0.140121 -0.111448 -0.113981 -0.136007 0.070850 -0.113140 0.199601 -0.122275 -0.034396 -0.025364 0.179767 0.397898 -0.068175 -0.097283 0.036675 -0.173357 -0.285797 -0.222166 -0.059405 -0.136562 0.104212 0.029672 0.100507 0.116521 -0.148650 -0.024661 0.039088 0.051242 -0.037573 0.176255 0.250428 0.061788 0.195695 -0.060143 -0.121946 0.067558 -0.063407 -0.070213 0.106046 -0.010714 -0.182171 -0.055300 0.022297 0.033288 0.273475 0.156216 -0.147362 0.032648 0.217846 0.217401 -0.142026 0.047498 -0.084951 0.123074 -0.089717 -0.263817 0.146228 0.070149 -0.183638 -0.041670 -0.192257 0.256802 -0.032959 -0.255768 0.207287 0.371476 0.030952 0.123400 0.097887 0.206825 0.174535 0.248790 0.022546 0.048394 0.173531 0.138448 -0.100932 0.126280 0.400604 -0.166273 0.000244 0.052617 -0.133498 0.006442 0.117106 -0.045788
116 0.075472 -0.234009 -0.011469 -0.282344 0.218071 -0.168168 -0.101383 -0.117412 0.270987 -0.273399 -0.071556 0.131672 -0.005025 0.054903 0.187652 -0.006242 0.212269 -0.015034 -0.026386 -0.196104 0.168430 0.196784 0.037030 -0.026794 -0.223592 -0.335011 0.084519 -0.040625 -0.135191 -0.151590 -0.038444 0.106957 -0.093699 0.075596 -0.002600 -0.021346 -0.051540 -0.016200 0.256333 -0.217871 -0.002719 0.062634 -0.303438 -0.093053 0.010205 -0.334030 0.228051 0.079689 0.127997 0.003507 -0.206017 0.164283 0.083025 0.652822 -0.127212 0.060873 0.050958 0.007186 -0.104113 -0.123439 -0.080306 -0.046498 0.055336 -0.127459 -0.196619 0.274830 0.154013 -0.321021 -0.157119 -0.012338 0.202744 0.072746 0.255128 0.133527 0.290323 -0.086743 -0.053586 -0.195286 -0.086339 -0.095899 0.120204 0.282196 -0.349786 -0.013254 0.131252 0.162322 0.183795 0.183507 0.193403 -0.388254 0.167191 0.188111 -0.117125 0.032151 0.113470 0.260795 0.036984 -0.233717 0.089604 0.071468 -0.240794 -0.237093 -0.323370 -0.082578 0.430608 -0.004909 0.126452 0.253178 0.074135 -0.201359 0.133414 0.181151 0.191540 0.100095 0.059466 -0.150403 0.176298 0.210075 -0.009720 0.233892 0.205624 -0.251139 0.310287 -0.183274 -0.203925 0.416961 -0.013816 -0.221715
25 0.123544 -0.229290 -0.043756 -0.057867 -0.137314 0.156238 0.007258 0.203527 0.185515 0.083862 -0.242222 0.011438 0.154319 -0.051906 -0.000295 -0.260870 0.023459 0.128192 0.068356 0.375511 -0.206578 0.007457 0.314964 -0.029406 -0.155916 0.061443 0.035868 -0.347424 -0.230104 0.080477 0.087308 0.119925 -0.097328 -0.069304 -0.502833 -0.085011 0.136548 0.093157 -0.053955 -0.153749 -0.305833 -0.208058 -0.062247 0.187195 -0.007315 0.046624 -0.152950 0.156178 0.150750 -0.059996 -0.334698 0.030434 -0.083080 0.137826 -0.135309 -0.222733 -0.132671 -0.227067 -0.244238 -0.076182 0.251268 -0.353309 0.119666 0.160521 -0.035917 0.112300 -0.165539 0.064007 -0.254811 0.030569 0.121008 0.008044 0.193827 -0.030941 -0.030569 -0.132504 -0.204921 0.065579 -0.238054 0.181706 0.030073 -0.374140 -0.251340 0.066954 -0.064767 -0.018902 0.211341 0.013481 -0.094254 -0.123432 0.337839 -0.188169 0.200575 0.094096 -0.122256 0.131311 0.289730 -0.482765 -0.024087 0.136527 -0.388751 -0.413813 -0.248839 0.199439 0.327402 -0.153078 -0.049515 0.050916 0.017402 -0.163661 -0.013794 0.230238 0.046962 -0.293280 0.045738 0.045243 -0.182620 0.016235 -0.243512 0.009272 0.042089 -0.156755 0.206249 -0.104149 -0.060787 -0.004756 0.106333 -0.317727
78 0.222047 -0.288762 -0.065946 -0.110858 -0.137990 0.000780 0.019864 0.211914 -0.040729 0.156698 -0.272098 -0.145173 0.290717 0.028625 -0.132149 -0.224139 0.158058 0.142473 0.281897 0.331934 -0.080646 -0.027640 0.219101 0.203476 -0.069755 0.099863 -0.099309 -0.345179 -0.280853 -0.076373 0.059107 0.098635 -0.091432 -0.297556 -0.535294 -0.110756 -0.053869 0.081983 -0.035431 -0.145638 -0.122545 -0.112785 0.022769 -0.037708 -0.038000 -0.043793 -0.229984 0.252517 0.160479 -0.064519 -0.111199 0.116510 -0.136813 0.000668 -0.253544 -0.401909 -0.003949 -0.144486 -0.334829 -0.146621 0.010968 -0.351732 0.239153 0.189847 -0.013057 0.228500 -0.240022 0.091504 -0.027353 -0.039036 0.133774 0.121492 0.314044 -0.072366 -0.050857 -0.123600 -0.147771 0.078892 -0.286186 0.230375 0.130500 -0.304145 -0.075745 0.003482 -0.019142 -0.080559 0.270631 0.022986 -0.087198 0.037751 0.499153 -0.106817 -0.010880 0.211387 -0.228204 0.218984 0.402789 -0.459568 0.167304 0.171590 -0.294359 -0.268235 -0.147493 0.408416 0.210094 -0.027772 -0.035965 0.073705 0.119556 0.065786 -0.079319 0.230037 0.073976 -0.204723 0.220412 0.235905 -0.252450 0.052000 -0.154778 -0.033870 0.160953 -0.050373 0.025433 -0.165478 -0.056845 0.018440 0.038636 -0.262052
238 -0.172621 -0.226197 -0.124348 -0.295305 0.129321 0.009141 0.286016 0.000972 0.033641 0.203775 -0.093652 0.308569 -0.034152 0.047099 -0.118360 -0.260952 -0.014898 -0.020340 0.137855 -0.055154 0.063959 0.006205 0.252757 -0.046405 -0.058212 0.162671 -0.199339 -0.090416 -0.023765 -0.120436 -0.221672 0.318339 0.105457 -0.121571 0.121471 -0.198465 -0.201776 0.018857 0.184210 0.273389 -0.231436 0.088631 0.146289 -0.051131 -0.075905 0.252569 -0.015265 -0.224494 -0.041297 0.098291 -0.086889 -0.003401 -0.090137 0.250502 -0.184554 -0.155604 0.047246 -0.186280 -0.236750 0.041193 -0.076469 0.138951 -0.256402 0.192462 0.256122 0.119449 -0.090007 -0.257490 0.330456 -0.029493 0.183435 0.042217 0.407804 -0.351658 0.044355 0.046015 0.078565 0.222403 -0.008897 0.014495 -0.051947 0.033567 -0.129887 -0.185639 -0.097134 -0.121688 0.343280 -0.170045 -0.096032 0.230286 0.392766 0.144719 0.055475 0.054010 -0.313126 0.118530 0.019863 0.011409 0.103751 0.245263 -0.104575 -0.038182 -0.401311 0.181818 0.269749 0.216992 0.124999 0.070758 -0.016233 0.282834 0.215409 0.101992 0.091785 -0.055362 -0.011167 0.306909 0.053174 0.098952 0.079052 0.145982 0.294229 -0.010689 -0.059923 -0.206808 -0.403943 0.037849 0.148700 0.071914
203 -0.103478 -0.159807 0.056309 -0.148807 -0.107636 -0.215406 -0.196612 0.111237 0.236992 0.107679 -0.168586 0.005557 0.036064 0.043872 -0.045872 -0.138034 -0.030877 0.082221 0.318978 -0.107204 0.138133 0.171350 0.146414 0.153912 -0.136216 0.236732 0.047099 -0.167897 -0.018683 0.099838 -0.012038 0.122696 -0.158385 0.097446 -0.205877 0.018712 -0.212278 -0.075692 0.046894 0.264840 0.046492 0.001197 0.060654 -0.148715 -0.282418 -0.125229 -0.145156 -0.070713 -0.057184 0.209241 -0.054273 -0.091720 0.067453 0.238745 -0.382644 -0.259591 -0.118845 -0.075689 -0.271374 0.131298 0.079818 -0.010029 0.088815 0.248015 -0.156650 0.027704 -0.039165 -0.280768 -0.005177 -0.026935 0.013099 0.102792 0.275853 -0.140871 -0.263630 0.143521 0.063752 0.102477 -0.076528 -0.051896 -0.067690 0.089446 -0.142839 -0.217675 0.174992 0.037042 0.075548 0.114366 0.046564 0.093707 0.211230 0.234038 -0.210146 0.106430 -0.000731 0.203443 -0.083105 0.009630 0.144420 0.282661 0.013687 -0.016779 0.017256 0.179015 0.159510 0.092264 -0.024803 -0.178716 -0.148770 -0.142956 -0.034157 0.020430 -0.043057 0.015789 -0.013633 -0.064198 0.054415 0.372883 -0.244022 0.279765 0.286193 0.059468 0.170547 -0.120331 -0.078711 0.127616 -0.086047 -0.008632
