47 128
59 -0.044924 -0.265853 -0.245368 -0.056676 0.084234 0.061421 0.196769 0.148610 0.285609 0.170028 -0.303143 0.399673 -0.044861 -0.244732 0.201279 -0.235864 0.317808 0.169187 0.122359 0.609418 -0.471254 -0.021967 0.233492 -0.770979 0.002716 0.473885 -0.548261 -0.305598 -0.264390 0.453668 -0.074475 0.048774 -0.420534 0.206765 0.311782 -0.004444 -0.123579 -0.445051 -0.087469 0.102430 0.019562 -0.288975 -0.292653 0.086935 0.180421 0.159925 0.081490 0.042899 -0.029109 -0.123421 -0.117913 -0.268772 -0.338186 0.158954 0.196857 -0.091629 0.007004 0.347853 -0.127131 -0.468521 -0.185958 -0.085291 -0.157521 0.269209 0.117876 -0.371545 -0.144605 -0.213035 -0.098210 -0.022062 0.022137 0.264796 0.178348 -0.279061 0.866214 0.228356 -0.641858 0.433051 0.171151 0.091194 -0.002219 -0.435262 -0.467122 -0.055410 -0.154078 0.088579 0.557041 -0.124218 -0.240663 -0.076636 0.192688 -0.142408 -0.089282 0.203784 -0.256606 -0.224511 -0.049667 -0.333227 0.045768 -0.106025 -0.336235 -0.456859 -0.462922 0.175079 0.149984 -0.106249 0.447570 0.339858 -0.411479 0.141073 0.237586 0.034188 0.508417 0.435186 -0.204400 -0.020407 -0.540352 -0.063959 -0.161784 -0.040858 -0.054005 -0.478123 -0.011656 0.208913 0.302755 -0.064909 0.397132 0.192013
85 -0.237411 -0.471963 0.157776 0.119980 0.019856 0.176620 0.144835 -0.203088 0.081078 0.465306 0.304248 0.536935 -0.420189 -0.087044 0.133033 -0.122743 -0.047738 0.323051 0.134666 -0.160159 -0.186992 0.257451 -0.043244 -0.396817 0.152396 0.140777 -0.438446 -0.159345 -0.448680 0.246516 -0.025157 0.355221 -0.040630 -0.157035 0.222624 -0.062732 0.062555 0.072549 -0.172116 0.278199 -0.176014 -0.109839 0.526953 0.202260 -0.367193 0.206280 -0.088923 -0.482835 -0.302357 -0.141816 -0.193651 0.135046 0.041755 0.206270 -0.474263 -0.247909 0.161524 0.353686 -0.244247 -0.106507 -0.106936 -0.053637 -0.595420 0.360291 0.821240 0.000643 0.259294 -0.107572 0.159345 -0.367342 0.132172 0.429103 0.199485 -0.134090 0.307151 0.072278 -0.224257 0.105596 -0.462043 0.662652 0.771711 -0.153835 -0.382088 -0.236308 -0.266797 0.029378 0.429554 -0.587184 -0.035782 0.154009 0.445494 0.134201 0.208837 -0.186854 -0.612245 -0.282870 0.071886 -0.011108 -0.150587 0.225455 0.237230 -0.341178 -0.755206 0.089087 0.290002 0.101438 -0.246835 0.261022 -0.186441 -0.097310 0.019887 0.669666 0.450697 -0.303773 0.076907 0.231988 0.132593 -0.173870 -0.121659 -0.335541 -0.026204 -0.152061 -0.105108 0.075422 -0.291986 0.471592 0.039725 -0.005491
116 0.090250 -0.310468 -0.042912 -0.036996 0.223666 0.359948 0.251048 -0.507866 0.132770 -0.344107 -0.146971 0.182414 -0.377619 -0.062281 -0.050400 0.071684 0.431645 0.137199 0.067328 0.121767 -0.085020 0.424007 -0.410723 -0.741287 0.034534 0.046562 -0.442002 0.415164 -0.813949 -0.150921 -0.120704 0.421114 0.184653 -0.149341 0.124280 -0.160629 0.366262 0.127320 0.455237 0.089405 -0.488568 -0.453502 -0.115672 0.454675 0.227307 -0.298893 0.089063 -0.153615 0.035061 -0.200547 -0.120499 0.011728 0.588075 0.336349 0.412467 0.094791 -0.354819 0.397875 0.024183 -0.286986 -0.676470 -0.054695 -0.157925 -0.195467 -0.070185 0.145972 0.233230 -0.413647 -0.301919 -0.500884 0.375798 -0.012998 0.294539 -0.011247 0.489370 -0.041662 -0.409895 -0.048519 0.220881 0.324835 0.730133 -0.073424 -0.530022 0.460167 -0.170126 0.361723 0.603064 0.007947 0.497503 -0.357351 0.246882 0.272037 0.264585 0.026444 -0.161688 -0.523248 0.131612 -0.202108 0.077529 -0.054865 -0.099997 -0.531155 -0.457142 0.011090 0.520705 0.130354 0.379970 -0.178024 -0.266629 -0.361054 0.037995 0.700182 0.236758 0.386367 -0.169869 -0.035009 -0.129880 0.252321 -0.163252 0.215664 -0.173672 -0.673485 0.489641 0.231151 -0.182727 0.470270 -0.044262 -0.016176
51 -0.224358 -0.172622 -0.369150 0.172535 0.000126 0.095382 0.076084 -0.035014 0.278142 -0.012422 -0.030829 0.405901 -0.366171 -0.285681 0.641466 -0.178678 0.026432 0.387089 -0.354903 -0.121583 -0.633850 0.319317 0.458006 -1.108341 -0.204233 0.617163 0.085943 0.027309 -0.060939 0.277066 0.135437 0.367065 0.232982 0.478506 0.233944 0.079617 0.149528 -0.307274 0.193383 0.583885 0.110582 0.317782 0.236921 -0.031667 -0.356320 -0.114389 0.460691 -0.265939 0.119648 -0.160276 -0.053927 -0.052897 0.468532 -0.081606 -0.495438 -0.225374 -0.231873 0.100353 0.265254 -0.393664 -0.241621 -0.066930 -0.288203 0.611915 -0.079138 0.011072 0.015527 -0.098915 -0.311382 -0.082082 0.223707 0.201389 0.085179 -0.149212 0.142186 -0.416411 -0.049620 0.116109 -0.322217 0.238921 0.305609 -0.007664 -0.536800 -0.194377 -0.244065 0.276891 0.368453 0.403612 0.013734 -0.528651 0.004010 0.256640 0.495281 0.431614 -0.137688 -0.555573 -0.057058 -0.417587 -0.556108 0.400965 0.280785 -0.010292 -0.291761 0.174467 0.345802 -0.316838 0.354997 0.326340 -0.189365 -0.571233 -0.102174 0.311182 0.023336 -0.088701 -0.188632 0.449211 -0.214105 0.188732 0.108560 0.277418 0.342742 -0.654885 -0.029286 0.594025 -0.032278 0.321436 0.506387 -0.138908
45 -0.011672 -0.249704 -0.233998 -0.064757 0.098372 0.048292 0.189323 0.137016 0.291122 0.149694 -0.308790 0.377144 -0.013897 -0.219949 0.189790 -0.239597 0.294577 0.159843 0.102087 0.588600 -0.431400 -0.023235 0.247502 -0.722596 -0.014775 0.469240 -0.513245 -0.284070 -0.243260 0.429203 -0.056574 0.037621 -0.402099 0.213500 0.292194 -0.025168 -0.112203 -0.418068 -0.058691 0.091182 0.004258 -0.291199 -0.262892 0.094547 0.175212 0.140729 0.049272 0.063149 -0.018769 -0.113658 -0.112874 -0.269600 -0.295785 0.153684 0.192330 -0.078314 0.002360 0.307550 -0.109230 -0.419910 -0.168803 -0.079113 -0.133203 0.235273 0.104777 -0.337073 -0.157043 -0.207346 -0.092158 0.002800 0.026027 0.251009 0.168568 -0.286104 0.817732 0.227346 -0.587627 0.409672 0.194630 0.088464 -0.038265 -0.386261 -0.429357 -0.030990 -0.154542 0.093018 0.529039 -0.132229 -0.215747 -0.065777 0.174345 -0.127747 -0.084162 0.168584 -0.235047 -0.198476 -0.031926 -0.301627 0.077196 -0.109012 -0.327859 -0.448448 -0.433955 0.171218 0.163775 -0.107106 0.432349 0.303778 -0.380433 0.112239 0.215032 0.024720 0.448772 0.416531 -0.208540 -0.028155 -0.496803 -0.059095 -0.155634 -0.025463 -0.046828 -0.465757 0.007848 0.201789 0.284783 -0.070647 0.389027 0.158911
155 0.018692 -0.129553 -0.039626 0.309014 -0.572184 0.281915 -0.171382 0.118228 -0.098270 0.160648 -0.099230 0.077354 0.015566 -0.514456 0.485574 -0.452842 -0.021656 0.116067 0.143509 0.439297 -1.180907 -0.041844 0.401703 -0.120943 -0.071287 0.504187 -0.214157 0.161796 0.116212 -0.257867 0.083436 0.332216 0.356555 -0.214499 -0.512547 0.074450 0.107651 -0.679177 -0.085873 -0.158466 -0.124061 -0.064703 0.236686 0.277777 -0.493581 -0.344409 -0.354954 -0.050260 0.153272 -0.328564 -0.789498 0.253204 -0.114048 0.436939 -0.338322 0.082301 -0.325653 0.139126 0.487318 -0.603333 -0.487364 -0.183632 -0.071618 -0.036928 0.373206 0.229809 0.240799 -0.248402 -0.751934 -0.350389 -0.076832 -0.201976 0.158049 0.067730 -0.020251 0.004893 -0.637612 0.232203 -0.042699 -0.247953 0.630631 -0.268128 -0.070667 0.397793 -0.267798 0.359595 0.146844 -0.283053 0.268769 -0.381177 0.276970 0.036183 0.015437 0.091258 -0.297584 -0.389389 0.296870 -0.414949 0.335344 0.082001 0.237334 0.074625 -0.456734 -0.099258 0.378096 0.095583 -0.089421 0.395164 0.048832 -0.487216 -0.026594 -0.048771 0.240347 0.087576 -0.073685 0.318851 -0.179034 0.534367 -0.343229 0.202943 -0.362943 -0.422001 0.498535 0.701130 0.073211 0.000492 -0.188821 -0.021068
156 0.030441 -0.134711 -0.056348 0.299378 -0.538140 0.276333 -0.178515 0.116595 -0.078140 0.152417 -0.095600 0.109311 -0.004958 -0.502529 0.487661 -0.457272 -0.017499 0.121722 0.117147 0.446446 -1.132232 -0.035851 0.397898 -0.152014 -0.070217 0.500241 -0.211969 0.146387 0.116602 -0.262415 0.069623 0.335995 0.364424 -0.202601 -0.486799 0.071744 0.114243 -0.667386 -0.071528 -0.136025 -0.135590 -0.036290 0.210229 0.276745 -0.491306 -0.326515 -0.352404 -0.056249 0.150058 -0.328443 -0.771674 0.237984 -0.075647 0.458300 -0.329954 0.085037 -0.323422 0.118224 0.469651 -0.595954 -0.485445 -0.183375 -0.061372 -0.043403 0.358949 0.239050 0.252930 -0.255520 -0.732387 -0.347755 -0.073015 -0.199080 0.170402 0.050241 0.004778 0.006920 -0.609715 0.223689 -0.034171 -0.252764 0.603419 -0.245868 -0.078434 0.375577 -0.273973 0.356108 0.146919 -0.279614 0.261851 -0.366469 0.273579 0.024392 0.034888 0.082379 -0.300316 -0.384276 0.278443 -0.386731 0.334860 0.079217 0.231019 0.071829 -0.457517 -0.095944 0.377182 0.108324 -0.096873 0.383227 0.043009 -0.511920 -0.036969 -0.043201 0.233413 0.079275 -0.069446 0.297393 -0.162043 0.521864 -0.326398 0.211193 -0.357885 -0.437268 0.487730 0.686506 0.077077 -0.011727 -0.187224 -0.026091
83 -0.246650 -0.491714 0.141504 0.139079 0.030753 0.198886 0.103984 -0.199782 0.076676 0.481778 0.336352 0.557315 -0.436343 -0.085422 0.124647 -0.130082 -0.084543 0.303940 0.158652 -0.127974 -0.181039 0.253681 -0.051150 -0.366485 0.191371 0.128341 -0.456476 -0.177988 -0.410785 0.237304 -0.053830 0.352738 -0.039552 -0.170145 0.222053 -0.018034 0.013633 0.038970 -0.190334 0.285749 -0.168858 -0.056417 0.519294 0.179261 -0.377119 0.227427 -0.104066 -0.457402 -0.283816 -0.151808 -0.160333 0.089259 0.025935 0.211920 -0.520513 -0.250968 0.166982 0.357089 -0.280157 -0.128438 -0.095627 -0.027993 -0.569863 0.384975 0.783450 0.007789 0.268499 -0.099426 0.170935 -0.351303 0.110990 0.422236 0.187929 -0.143742 0.281746 0.091575 -0.187017 0.098307 -0.484307 0.662299 0.726568 -0.172108 -0.375003 -0.245795 -0.265013 -0.005990 0.438304 -0.598280 -0.043756 0.185677 0.466081 0.106017 0.209385 -0.235594 -0.613154 -0.261409 0.062531 0.014240 -0.132523 0.228863 0.246011 -0.303639 -0.735608 0.139933 0.269642 0.111085 -0.287824 0.237369 -0.177390 -0.048341 0.011983 0.656120 0.437369 -0.341025 0.082886 0.220523 0.132019 -0.202288 -0.131670 -0.334122 -0.012702 -0.145641 -0.154595 0.065139 -0.254690 0.450415 0.019349 -0.007372
64 -0.064995 -0.041440 0.126319 -0.147176 0.048608 -0.443283 0.186239 -0.004019 0.462631 0.203256 -0.087838 0.392425 0.070943 -0.598653 0.492989 0.139171 0.338474 0.307095 -0.518205 0.031041 -0.231302 0.155723 0.109105 -0.817990 -0.204060 0.340155 -0.096802 -0.261876 -0.519683 -0.002076 0.285762 0.207202 -0.025713 0.044087 -0.096002 -0.472526 0.289503 -0.059239 -0.081120 -0.093577 -0.134526 -0.060603 -0.039373 0.165054 -0.222839 -0.064191 0.039899 -0.304887 -0.344873 -0.049006 -0.461056 0.577222 0.066425 0.805005 0.333377 0.006120 -0.164315 -0.040096 0.363436 0.054236 -0.119334 -0.366022 -0.375730 -0.258178 0.672179 0.041669 0.165641 -0.377158 0.023422 -0.286130 0.330060 0.192111 0.399836 -0.166234 0.683928 -0.230563 -0.477461 0.240458 -0.003700 -0.328482 0.361037 -0.036221 -0.075701 -0.321085 -0.104538 0.437659 0.101597 -0.233428 -0.000970 -0.504198 0.069997 0.038740 0.199914 0.425191 0.016649 -0.113443 -0.241433 -0.295488 -0.035588 -0.415443 0.018070 -0.532785 -0.617548 -0.605150 0.452289 0.230820 0.109805 0.689327 -0.316430 -0.676452 -0.139916 -0.102653 0.656498 0.069197 0.299179 0.007560 0.243063 0.206240 0.442363 -0.331462 -0.394400 -0.127937 0.416144 0.145230 -0.177348 0.287682 0.191629 0.061270
199 0.093045 -0.624494 -0.062099 0.270862 -0.522373 -0.007179 -0.135455 0.325695 0.217440 0.049175 0.358790 0.393500 -0.621579 -0.005479 0.283606 0.083505 0.025958 0.314010 0.430813 0.355768 -0.428217 0.179613 -0.199116 -0.796143 -0.113899 0.293326 -0.371180 -0.150231 -0.022538 0.298810 0.104022 0.039378 0.338914 -0.402721 -0.096765 -0.113674 0.281599 -0.471546 -0.401603 0.582013 0.135191 0.341372 -0.026923 0.246959 -0.273104 -0.082286 -0.065608 -0.483700 -0.504834 -0.027191 0.006185 -0.087561 0.131291 0.290154 -0.239667 -0.043417 -0.638226 0.172921 -0.144413 -0.729522 -0.658661 0.056605 0.080802 0.695782 -0.114156 -0.021473 0.648146 -0.108730 -0.313298 -0.593474 -0.293419 0.199899 0.323192 -0.343048 -0.021251 0.152054 -0.516263 0.089436 -0.573783 -0.037894 0.164601 -0.674861 -0.248194 -0.517777 -0.017348 0.207065 0.107773 -0.077646 0.151133 -0.148975 0.223192 -0.408920 0.343310 0.093515 -0.169376 -0.354069 0.433340 0.048444 -0.458858 -0.204939 0.098988 -0.595493 -0.231754 0.245059 0.209101 0.482622 -0.710922 -0.421468 -0.493358 -0.173455 -0.057336 -0.169179 0.780314 -0.502893 0.122923 -0.342184 -0.317935 0.225356 -0.210755 -0.091008 0.044108 -0.353794 -0.080294 0.492117 0.039400 0.392425 -0.282846 0.426335
159 0.528872 -0.160238 0.275577 0.417393 -0.148704 0.152728 -0.027726 0.130573 0.214458 -0.140474 -0.200069 0.377703 0.102291 -0.042338 -0.255201 -0.358635 0.262532 0.457790 0.315045 0.211494 -0.463465 0.072353 0.662893 -0.671252 -0.309660 0.579402 0.270696 0.027064 -0.559290 0.004724 0.001963 0.149724 0.006364 0.352145 0.054742 -0.487361 0.451785 -0.129801 -0.047522 0.302667 0.096065 -0.606940 0.632160 0.215946 -0.192393 -0.094938 -0.207646 -0.512408 -0.351046 -0.060953 -0.471873 0.294003 0.439530 -0.456867 0.254606 -0.314615 -0.372562 0.182715 0.040545 -0.227299 -0.334014 -0.167014 -0.210744 0.130358 0.480318 -0.513326 -0.187210 -0.009875 -0.218720 -0.544706 -0.062078 -0.103714 0.688073 -0.259266 -0.102266 -0.016676 -0.737518 -0.104961 0.289821 -0.214790 0.129117 -0.219374 -0.611800 -0.130063 -0.346280 0.598841 -0.284421 -0.378864 0.343167 0.392321 0.023477 0.186059 -0.329111 0.449458 -0.345313 -0.257687 0.144441 0.217240 -0.426453 0.320054 -0.335961 -0.628390 -0.511331 -0.326971 0.234513 0.254085 -0.069723 -0.054485 -0.463277 -0.539250 -0.227806 0.080136 0.393428 -0.121893 0.094235 -0.246791 0.028757 0.240805 -0.226738 -0.080269 -0.061472 -0.556219 0.067910 0.411360 -0.480434 -0.041722 0.177852 -0.282259
62 -0.179033 -0.037520 -0.566410 0.169571 -0.204779 0.079463 -0.586833 0.015178 0.168413 0.085926 -0.127153 0.079740 -0.597967 -0.441005 0.218429 -0.266424 0.058543 0.285337 0.205291 0.248059 -0.651489 0.453924 -0.229028 -0.470474 0.550187 0.448831 -0.033754 -0.167250 -0.619878 0.137142 -0.165526 0.454008 0.650902 0.150876 0.381863 0.151165 -0.249992 -0.138667 0.104958 0.461778 -0.454381 0.025603 -0.372820 -0.139130 0.050546 -0.015211 -0.061901 0.084334 -0.134746 -0.491602 -0.454248 -0.004855 0.253924 0.491731 0.262788 -0.223994 -0.682644 0.029820 -0.101335 -0.457551 0.123261 -0.601467 -0.269412 -0.122955 0.300579 -0.414463 0.519229 -0.074479 -0.268549 -0.601181 -0.512234 -0.250217 0.469814 0.142924 0.333507 0.132826 -0.563790 -0.035708 -0.542074 -0.374060 0.656502 -0.446335 -0.646544 -0.368325 -0.437386 0.833259 0.420506 -0.178929 0.423576 -0.206415 0.237525 -0.100749 -0.097791 0.056451 -0.465073 -0.542998 -0.361199 -0.220783 -0.759456 0.074910 -0.067188 -0.039492 -0.606857 -0.230590 -0.000667 0.048183 -0.040114 -0.172923 -0.753529 -0.157295 0.231856 0.269588 0.183989 -0.093408 0.339539 -0.148723 -0.295512 -0.063950 0.124874 -0.126555 -0.050061 -0.373298 -0.068678 0.028511 0.052041 0.320332 -0.433101 0.142655
258 0.221652 -0.532389 0.239113 -0.042861 -0.038467 0.317392 0.307009 -0.011361 0.172261 0.273077 0.035277 0.761133 0.319973 -0.447903 0.279728 0.148993 0.140338 0.048233 -0.226384 0.366670 -0.274131 0.064739 0.518946 -0.614414 -0.450761 0.671254 -0.178599 0.140393 -0.360492 -0.165197 -0.242500 0.115200 -0.460733 -0.479166 0.084246 -0.407668 0.774001 -0.611772 -0.035967 0.348515 -0.042075 -0.266819 0.315543 0.806370 -0.182345 -0.303293 -0.556129 -0.383985 -0.234844 -0.211141 0.101361 0.255643 0.183266 0.011497 -0.230844 0.095264 -0.106848 0.308496 0.414896 -0.304827 -0.600212 0.046200 -0.354589 0.421894 0.135218 0.203698 0.040676 -0.289294 -0.270880 0.193569 0.293821 0.180399 0.446487 -0.118722 -0.160362 -0.219780 -0.464262 0.502608 0.267068 0.567450 0.243376 -0.175839 0.215342 0.040417 -0.329115 -0.424928 0.292185 -0.150984 -0.066201 -0.284820 0.483858 -0.189872 0.450650 0.219104 -0.168760 -0.061784 0.420367 -0.206673 0.279321 0.290868 0.028796 -0.404220 -0.394764 0.278959 0.525498 0.342758 0.026461 0.734556 0.017946 -0.423666 -0.245438 0.280288 0.617487 -0.156719 -0.409624 0.476947 -0.489234 -0.328284 -0.287128 0.135916 -0.240314 -0.547934 -0.011475 0.453065 -0.221249 -0.194505 0.506924 -0.270556
65 -0.077036 -0.746173 -0.198155 -0.281199 -0.061282 -0.555693 0.200527 0.314879 0.493200 -0.053392 -0.109179 0.261593 0.439651 0.045069 0.202044 0.140016 0.347986 0.565136 0.353324 0.894075 -0.656978 0.161400 0.327390 -0.133535 0.321875 0.442384 -0.627366 0.097834 -0.396647 0.091034 0.667516 0.255130 -0.125627 0.155343 -0.439349 -0.079500 0.100526 -0.202574 -0.006504 0.732167 -0.211793 0.020534 0.598641 0.096690 -0.250133 0.156251 -0.349219 -0.247702 -0.236933 -0.127563 -0.534118 -0.045586 0.401344 0.051572 -0.124352 -0.488253 -0.633780 -0.055301 0.097175 -0.188386 -0.361706 -0.410532 -0.163909 0.050968 0.271053 -0.274102 -0.167627 -0.097456 0.274859 0.240288 0.278824 0.006627 0.365029 -0.268787 0.092620 -0.406616 -0.073510 -0.040573 -0.016052 0.395334 0.328039 -0.068277 -0.979649 0.019083 0.131518 0.280000 0.323488 0.088085 0.238587 -0.277187 0.237663 0.195352 -0.148396 0.263548 -0.007318 -0.475346 0.278075 -0.395639 0.349555 -0.391388 0.212575 -0.524919 -0.515747 0.327477 0.508386 -0.124507 -0.028793 -0.262481 -0.333753 0.256099 -0.143637 -0.160322 0.286162 -0.063382 0.073462 0.317868 0.152347 0.471168 -0.098388 -0.094782 -0.030531 -0.034425 0.500521 0.532016 -0.237679 0.493118 0.510481 -0.116907
66 -0.074384 -0.722759 -0.201869 -0.277013 -0.056566 -0.546040 0.185813 0.321677 0.488441 -0.043911 -0.097430 0.286934 0.405926 0.013776 0.223102 0.129927 0.333818 0.569571 0.327580 0.865513 -0.623193 0.167112 0.322122 -0.174868 0.304228 0.437896 -0.588097 0.083315 -0.385900 0.079963 0.643052 0.258617 -0.117131 0.160823 -0.406931 -0.073977 0.127747 -0.196932 -0.006161 0.734492 -0.220830 0.032151 0.566170 0.112193 -0.257568 0.158456 -0.334119 -0.262854 -0.250973 -0.121825 -0.526414 -0.030279 0.417523 0.072789 -0.122159 -0.484718 -0.619073 -0.054245 0.081937 -0.183775 -0.350408 -0.401801 -0.170602 0.047397 0.276066 -0.269136 -0.144039 -0.105803 0.272409 0.216862 0.281924 0.007996 0.368548 -0.268469 0.106464 -0.404586 -0.065555 -0.038677 -0.034179 0.370515 0.332651 -0.063356 -0.974375 -0.008980 0.102469 0.279440 0.306397 0.097555 0.230869 -0.276879 0.248854 0.191724 -0.133515 0.285280 -0.018016 -0.472460 0.255233 -0.384374 0.321734 -0.371722 0.216294 -0.505058 -0.528749 0.296100 0.500902 -0.109773 -0.034785 -0.229586 -0.327057 0.210465 -0.139232 -0.129005 0.305425 -0.083044 0.080324 0.316012 0.158747 0.456641 -0.091314 -0.075141 -0.042546 -0.054794 0.473423 0.516878 -0.237512 0.473607 0.513436 -0.114956
176 -0.045741 -0.670174 0.172645 0.214183 -0.317023 0.235415 0.062752 -0.614671 0.291690 0.177822 -0.388173 0.006125 -0.230261 -0.241265 0.239788 0.000852 0.149435 0.012498 -0.172173 0.180142 -1.207353 0.548378 0.060424 -0.399682 0.090329 0.807892 -0.263378 -0.221186 -0.654538 0.129759 0.097696 -0.049715 0.015090 0.010788 0.106216 -0.152343 -0.068056 -0.561606 0.236423 0.478540 -0.186227 -0.203911 0.652462 0.094049 0.042037 -0.141385 -0.589708 0.235260 -0.192756 -0.619272 -0.129260 -0.129657 0.156816 0.083250 -0.270052 0.003912 -0.828624 0.141624 0.481923 0.101208 -0.059003 -0.518441 -0.100778 0.107687 0.144967 -0.575813 -0.147101 -0.178498 -0.445004 -0.171212 -0.265181 -0.055038 0.026365 0.153384 -0.157228 -0.185268 -0.705016 0.135461 -0.068965 0.341465 0.186522 -0.540307 -0.086096 0.202550 -0.165013 0.160841 0.557936 -0.405702 0.227637 -0.288790 0.124177 -0.184317 0.261168 -0.185670 0.219644 -0.476554 0.158543 -0.375479 -0.446744 0.074245 0.310399 -0.575939 -0.382587 0.329735 0.327622 -0.163682 0.188583 -0.052714 -0.454010 -0.053144 -0.215311 -0.072979 -0.061275 -0.144233 0.011427 0.437848 -0.512058 -0.245510 -0.048688 -0.576076 -0.179869 -0.066181 0.112222 0.563556 0.107295 0.233637 0.234381 -0.276528
177 -0.030166 -0.666949 0.166292 0.225749 -0.315058 0.234038 0.047947 -0.609909 0.282558 0.159645 -0.392507 -0.001186 -0.212671 -0.213671 0.220707 -0.017515 0.122925 0.005662 -0.167547 0.215905 -1.184212 0.545007 0.080984 -0.381269 0.085728 0.807750 -0.278727 -0.210989 -0.630191 0.127184 0.084507 -0.037479 0.034951 0.015202 0.086876 -0.128878 -0.079997 -0.569663 0.251871 0.486002 -0.183738 -0.183234 0.654506 0.092994 0.040071 -0.132213 -0.586266 0.241834 -0.160326 -0.621389 -0.125341 -0.155852 0.173654 0.079767 -0.273660 0.017806 -0.828721 0.137674 0.475214 0.070309 -0.064471 -0.502284 -0.062417 0.097970 0.104573 -0.556111 -0.152699 -0.177064 -0.434556 -0.161247 -0.269392 -0.069910 0.010946 0.141237 -0.171587 -0.169481 -0.682039 0.128076 -0.053009 0.327064 0.158705 -0.532547 -0.082643 0.220959 -0.169127 0.146146 0.549910 -0.383107 0.225053 -0.282064 0.132078 -0.183976 0.269817 -0.193441 0.205316 -0.469314 0.177605 -0.348769 -0.424852 0.076331 0.298403 -0.552928 -0.357062 0.356794 0.315540 -0.162047 0.193707 -0.085326 -0.452945 -0.039359 -0.232025 -0.088010 -0.085801 -0.129232 -0.000232 0.428550 -0.505493 -0.231236 -0.063192 -0.551020 -0.151748 -0.086120 0.101591 0.567372 0.119201 0.206910 0.230428 -0.291602
86 0.240981 -0.532961 0.266600 -0.053340 -0.022445 0.319326 0.321613 -0.019996 0.166558 0.268596 0.041383 0.768013 0.358725 -0.443885 0.271895 0.185060 0.140936 0.030935 -0.245665 0.361979 -0.223000 0.050517 0.516399 -0.590998 -0.475822 0.655047 -0.172034 0.158033 -0.355548 -0.188875 -0.254519 0.092431 -0.486971 -0.510135 0.074457 -0.419133 0.806608 -0.610693 -0.030094 0.340818 -0.033604 -0.274456 0.317216 0.837834 -0.179279 -0.311201 -0.574887 -0.389406 -0.233978 -0.204406 0.136079 0.269843 0.190352 -0.001634 -0.228905 0.113285 -0.078614 0.306449 0.427000 -0.288879 -0.611741 0.072305 -0.346640 0.417562 0.102114 0.234735 0.032441 -0.290018 -0.265038 0.233788 0.318721 0.186294 0.443284 -0.117956 -0.194721 -0.232809 -0.442632 0.502479 0.298968 0.585597 0.220103 -0.150323 0.265196 0.057476 -0.312893 -0.475533 0.277674 -0.141582 -0.067723 -0.292449 0.491438 -0.190355 0.463824 0.217532 -0.150744 -0.025138 0.440070 -0.190015 0.322874 0.289646 0.026204 -0.398743 -0.360916 0.290145 0.526265 0.361934 0.024220 0.755770 0.054011 -0.418871 -0.261444 0.283818 0.615492 -0.155599 -0.423444 0.488098 -0.482234 -0.345260 -0.289608 0.150157 -0.242514 -0.532897 -0.017168 0.436750 -0.228685 -0.213673 0.521809 -0.283278
49 0.176413 -0.561637 0.128814 0.210334 0.104265 -0.000393 -0.069281 -0.208478 0.145999 -0.169946 0.113316 0.844145 -0.644836 -0.715028 0.127613 -0.051707 0.052140 0.452531 -0.088245 0.521977 -0.415218 0.254033 0.077788 -0.850321 0.021668 0.423924 -0.052373 -0.425426 -0.337730 -0.545328 -0.150949 -0.150549 -0.158476 -0.220487 -0.024647 0.270482 0.516338 -0.561884 -0.082253 0.419128 -0.342709 0.297731 0.366250 0.495628 -0.466599 -0.121979 -0.462444 -0.114760 -0.403820 -0.298792 -0.409116 -0.005709 0.788532 0.487233 -0.371805 -0.260726 -0.376427 0.238522 0.125635 -0.130383 -0.497463 0.004640 0.097483 -0.058177 -0.158102 -0.087224 0.343063 -0.337608 -0.227272 -0.745463 0.136194 -0.105886 0.159850 0.160480 -0.046034 -0.227551 -0.104707 -0.540690 0.076788 -0.026825 0.282402 -0.232399 -0.713082 0.134163 -0.400260 -0.001022 0.038783 -0.072375 0.275515 -0.330848 0.390558 -0.093908 0.077132 0.117610 0.258209 -0.646642 -0.169120 -0.297102 -0.001392 0.324017 0.388820 -0.350098 -0.553298 0.064039 0.451142 0.408757 0.085327 0.470220 -0.179840 -0.403402 -0.326854 0.463712 0.630884 -0.172447 0.120289 0.410696 0.287042 -0.046696 -0.102748 0.262807 -0.453823 0.060590 -0.496595 -0.118470 0.018226 -0.138030 0.641525 -0.577381
47 -0.176637 -0.072439 -0.553142 0.168119 -0.193396 0.076525 -0.551362 0.020005 0.195101 0.099105 -0.139713 0.122487 -0.580212 -0.447409 0.250137 -0.299734 0.073875 0.307049 0.187018 0.286808 -0.662871 0.445477 -0.177704 -0.530396 0.523243 0.483856 -0.070333 -0.174194 -0.603703 0.152370 -0.139503 0.469168 0.630663 0.168555 0.368066 0.122625 -0.227048 -0.166135 0.104665 0.468182 -0.448424 0.025492 -0.350661 -0.116251 0.024025 0.000341 -0.072661 0.054039 -0.138721 -0.484142 -0.474684 -0.021559 0.266694 0.511491 0.243008 -0.210909 -0.675261 0.023655 -0.101545 -0.481018 0.086902 -0.594011 -0.265196 -0.111194 0.325402 -0.408515 0.509082 -0.102723 -0.268375 -0.593528 -0.476725 -0.226539 0.474100 0.089488 0.386626 0.132182 -0.579514 -0.007660 -0.514405 -0.371946 0.638343 -0.441831 -0.667750 -0.363193 -0.439875 0.836256 0.434510 -0.193783 0.396771 -0.201032 0.240483 -0.093824 -0.066329 0.060941 -0.474016 -0.557779 -0.348413 -0.221743 -0.721890 0.052132 -0.064110 -0.084878 -0.632106 -0.218491 0.039766 0.039628 -0.034206 -0.155158 -0.762789 -0.201830 0.218381 0.253613 0.204126 -0.084821 0.308749 -0.143950 -0.282694 -0.027119 0.105751 -0.109581 -0.063397 -0.418490 -0.038969 0.068888 0.062379 0.312261 -0.399703 0.140306
9 -0.102580 -0.109487 0.010139 -0.100426 -0.325591 0.078854 0.250245 0.328288 0.288400 0.217086 -0.013340 0.040533 -0.134455 -0.297947 0.005501 -0.210756 -0.116215 0.116940 0.192228 0.122583 -0.250873 0.367159 0.259251 -0.349709 -0.090320 0.502943 0.042043 -0.017653 -0.157772 0.424273 0.065876 0.390274 -0.187948 -0.149267 0.212797 -0.455273 0.990511 0.254173 -0.039614 0.688301 -0.618748 -0.416011 -0.177497 0.817757 -0.180228 0.044151 -0.323956 -0.262061 -0.417674 -0.099473 -0.459515 -0.095343 0.147468 0.237730 0.120224 -0.100653 -0.567132 -0.470859 -0.394210 -0.272045 -0.036944 -0.402697 -0.123924 0.230692 0.392283 -0.477250 0.667060 0.010528 -0.039945 -0.122591 -0.153114 0.131895 -0.101559 0.058214 -0.139445 -0.207333 -0.265327 0.190395 -0.527952 0.319065 0.576947 -0.386085 -0.434116 -0.168528 -0.468288 0.202611 0.012363 0.333092 -0.178079 -0.095940 0.408583 -0.554169 0.420182 0.383672 0.067825 -0.698319 0.128288 -0.367416 -0.267487 -0.207072 0.014416 -0.632144 -0.531549 -0.118544 0.316192 -0.523693 -0.092306 -0.227252 -0.445249 -0.584356 -0.171685 0.272506 0.477963 -0.315252 -0.536950 0.150630 -0.518168 0.284675 -0.471436 0.418352 -0.510378 -0.248237 0.199502 -0.081962 -0.134643 -0.134530 0.308934 -0.168826
8 -0.102964 -0.108947 0.015638 -0.109253 -0.310998 0.071302 0.275846 0.323699 0.299725 0.211529 -0.042843 0.035963 -0.117023 -0.300748 0.011566 -0.226784 -0.106217 0.125269 0.177952 0.126814 -0.258319 0.371828 0.294926 -0.364400 -0.096050 0.530201 0.060275 -0.009421 -0.161153 0.429697 0.078788 0.392025 -0.210720 -0.102170 0.211266 -0.459683 1.012987 0.265893 -0.008504 0.708323 -0.629707 -0.424831 -0.164215 0.825101 -0.181274 0.057414 -0.325163 -0.252878 -0.408547 -0.092312 -0.479417 -0.109084 0.180725 0.223571 0.110490 -0.114710 -0.574014 -0.493117 -0.391574 -0.252044 -0.026564 -0.421015 -0.118214 0.221876 0.393650 -0.504476 0.643757 0.009744 -0.028753 -0.104986 -0.137261 0.125012 -0.126845 0.063147 -0.143238 -0.234470 -0.246039 0.176055 -0.506705 0.329687 0.571241 -0.369977 -0.468868 -0.142188 -0.482206 0.213181 0.013276 0.364333 -0.184262 -0.109746 0.402215 -0.543713 0.416355 0.404130 0.090939 -0.721716 0.110381 -0.396854 -0.265721 -0.207084 0.027972 -0.640790 -0.543081 -0.122760 0.335453 -0.575572 -0.043469 -0.226459 -0.442400 -0.604770 -0.196650 0.281536 0.456144 -0.300085 -0.566425 0.189106 -0.510356 0.295381 -0.474204 0.438448 -0.517108 -0.253473 0.215645 -0.083546 -0.133766 -0.160200 0.371366 -0.213510
201 0.112688 -0.629455 -0.055632 0.272909 -0.516728 0.005635 -0.135204 0.317535 0.220695 0.048113 0.338665 0.413749 -0.596227 -0.022535 0.303518 0.077555 0.035920 0.317757 0.415475 0.383408 -0.452072 0.164925 -0.174737 -0.818366 -0.124816 0.313076 -0.384771 -0.151504 -0.024060 0.288605 0.091870 0.030432 0.325673 -0.401579 -0.109495 -0.112860 0.269002 -0.514698 -0.398197 0.558544 0.151540 0.329821 -0.014051 0.249745 -0.268681 -0.095042 -0.062003 -0.478872 -0.484247 -0.035173 0.011370 -0.082475 0.125458 0.290791 -0.241439 -0.031050 -0.621297 0.206222 -0.111826 -0.739750 -0.676395 0.070200 0.075438 0.690303 -0.122524 -0.006249 0.610386 -0.122733 -0.338807 -0.586601 -0.273946 0.194459 0.334457 -0.346560 -0.003692 0.149230 -0.551652 0.106974 -0.530428 -0.044476 0.149695 -0.672933 -0.239911 -0.494358 -0.015525 0.194203 0.124793 -0.095384 0.157157 -0.170211 0.216470 -0.393231 0.340420 0.099341 -0.173824 -0.341380 0.433909 0.044939 -0.431994 -0.192849 0.089056 -0.592229 -0.231002 0.250505 0.213333 0.503719 -0.678674 -0.374381 -0.479969 -0.173895 -0.057637 -0.177422 0.784583 -0.475722 0.117305 -0.329453 -0.323668 0.215119 -0.203208 -0.095810 0.052351 -0.382098 -0.074862 0.519011 0.046766 0.377598 -0.267136 0.419397
76 -0.330000 -0.246791 -0.313373 -0.180196 0.088327 0.061650 0.152883 0.288245 0.172963 -0.064422 0.121074 0.403052 -0.404543 -0.764998 0.287884 0.234436 0.673745 0.325723 0.482203 -0.006690 -0.773330 -0.200576 -0.387070 -0.633118 0.155526 0.094275 0.270131 0.173271 -0.089277 -0.272097 0.159593 -0.130046 -0.240878 -0.021526 0.523691 -0.095927 0.403463 -0.347904 -0.159722 0.197042 -0.230499 -0.177701 -0.097847 0.174638 -0.014898 -0.365228 -0.147686 -0.105209 -0.447871 -0.039352 -0.317407 0.132386 0.107508 -0.301616 -0.225009 -0.350291 -0.344224 0.251683 0.123326 0.280533 -0.518558 -0.274750 -0.746943 0.106887 0.513244 -0.459126 0.373562 -0.282090 -0.456638 -0.333983 -0.286399 0.089882 0.463650 0.164234 0.179415 -0.013922 -0.306443 -0.017380 -0.193979 0.173360 0.583875 -0.222893 -0.941703 -0.167385 -0.106898 0.421414 0.384194 -0.041895 0.285249 -0.146340 -0.060989 0.106815 -0.593183 0.206445 0.239434 -0.490277 -0.084795 -0.755932 -0.249953 0.091455 0.241791 -0.407799 -0.407977 -0.405056 0.276672 0.002641 -0.196370 0.298903 -0.105416 -0.358174 0.586768 0.342295 0.617430 -0.300435 0.103269 0.266479 -0.319032 0.032428 -0.209395 0.152260 -0.692671 0.106500 0.220522 0.324374 0.040209 0.402655 0.190602 0.507041
72 -0.324407 -0.274919 -0.316011 -0.159002 0.048628 0.111018 0.137845 0.265196 0.156646 -0.058707 0.114880 0.387925 -0.407426 -0.748451 0.303486 0.222709 0.665198 0.325955 0.491833 -0.002151 -0.844360 -0.181326 -0.373349 -0.618460 0.159982 0.125980 0.252139 0.209145 -0.094172 -0.268757 0.153286 -0.107206 -0.205490 -0.032412 0.499322 -0.086688 0.386861 -0.379446 -0.147614 0.207837 -0.215916 -0.174722 -0.060348 0.169842 -0.023697 -0.386935 -0.162927 -0.103057 -0.420180 -0.074053 -0.327711 0.133243 0.110171 -0.318271 -0.267954 -0.347025 -0.376389 0.272831 0.152666 0.243279 -0.542953 -0.286978 -0.748821 0.134971 0.512857 -0.447244 0.368614 -0.282953 -0.502041 -0.335850 -0.301974 0.084090 0.463461 0.170937 0.146691 -0.020917 -0.331881 -0.005806 -0.194334 0.206608 0.615684 -0.240344 -0.934696 -0.133152 -0.116850 0.427241 0.417182 -0.058005 0.315661 -0.155457 -0.045998 0.123666 -0.580938 0.184651 0.214611 -0.505340 -0.045658 -0.768115 -0.251631 0.122045 0.258654 -0.385493 -0.413901 -0.361100 0.289124 -0.007631 -0.205346 0.278381 -0.105186 -0.348354 0.587229 0.344225 0.590189 -0.308113 0.091265 0.287573 -0.347226 0.049493 -0.234217 0.143605 -0.665908 0.067190 0.242395 0.384705 0.038166 0.424672 0.160887 0.501889
161 0.511751 -0.191673 0.264823 0.405885 -0.143284 0.160328 -0.024741 0.125769 0.228150 -0.122546 -0.196574 0.410534 0.087101 -0.069960 -0.219777 -0.351010 0.262585 0.466790 0.297412 0.233192 -0.477708 0.086569 0.650796 -0.699840 -0.305524 0.590309 0.225035 0.019306 -0.576939 0.005959 -0.000769 0.165960 0.002218 0.327712 0.059350 -0.482467 0.450231 -0.150350 -0.053048 0.324911 0.080388 -0.590228 0.622184 0.239432 -0.194902 -0.094257 -0.221598 -0.521697 -0.351116 -0.071709 -0.475076 0.293682 0.439472 -0.412694 0.241454 -0.303166 -0.386260 0.192456 0.051527 -0.244920 -0.351757 -0.176062 -0.237584 0.143157 0.489170 -0.493921 -0.162544 -0.041867 -0.231668 -0.541838 -0.053364 -0.082233 0.698467 -0.270412 -0.067441 -0.020866 -0.753499 -0.087460 0.273678 -0.190674 0.164626 -0.228553 -0.614081 -0.131232 -0.352792 0.591855 -0.238362 -0.382063 0.340544 0.354996 0.053621 0.183385 -0.304503 0.437612 -0.364482 -0.269057 0.156036 0.195057 -0.413387 0.304470 -0.322833 -0.636516 -0.540877 -0.302611 0.257566 0.267338 -0.064149 -0.025566 -0.475948 -0.541676 -0.225505 0.096463 0.425634 -0.126612 0.091161 -0.225729 0.011896 0.232834 -0.226194 -0.078857 -0.075179 -0.570506 0.069749 0.420304 -0.467259 -0.017270 0.187974 -0.274693
97 -0.063188 -0.066233 0.131663 -0.155306 0.077030 -0.432963 0.208685 -0.041547 0.476691 0.192207 -0.102635 0.412858 0.068144 -0.606879 0.487549 0.149137 0.376491 0.317514 -0.524521 0.041497 -0.257896 0.159473 0.106876 -0.861867 -0.210187 0.348989 -0.119146 -0.249644 -0.560742 -0.017802 0.287580 0.211380 -0.056568 0.049954 -0.084873 -0.468412 0.303138 -0.071771 -0.063972 -0.098370 -0.140638 -0.081625 -0.021347 0.186548 -0.207381 -0.084320 0.036594 -0.297360 -0.336096 -0.061847 -0.457865 0.577255 0.095011 0.789949 0.330980 0.008038 -0.163670 -0.009289 0.379510 0.060456 -0.149432 -0.363046 -0.383798 -0.264580 0.664190 0.036162 0.142399 -0.393433 0.008552 -0.294319 0.353842 0.194300 0.402010 -0.159868 0.698072 -0.245478 -0.492576 0.234431 0.030477 -0.291035 0.371795 -0.030396 -0.101445 -0.289278 -0.103715 0.423568 0.127728 -0.227008 0.009116 -0.525152 0.072119 0.060507 0.194210 0.423970 0.029564 -0.130199 -0.241227 -0.315531 -0.019899 -0.405910 0.017880 -0.563330 -0.625001 -0.589489 0.477143 0.228756 0.144185 0.703372 -0.319200 -0.673349 -0.144519 -0.076718 0.656907 0.090803 0.289176 0.032554 0.242063 0.197792 0.438186 -0.334249 -0.398523 -0.145331 0.430223 0.154249 -0.183349 0.304427 0.229123 0.044762
15 0.021199 -0.489148 -0.252298 -0.167097 0.110146 0.005651 -0.218788 0.025813 0.501417 0.360330 -0.031486 0.628998 0.205710 -0.169288 0.409510 -0.395864 -0.054546 0.298456 -0.401815 0.570826 0.049729 0.293399 0.472729 -0.462572 0.141312 0.753621 -0.365412 -0.117091 -0.205629 0.129669 0.049677 0.494379 0.267599 0.117561 0.204486 -0.427939 0.088190 -0.377150 0.324673 0.733954 -0.481833 0.195555 -0.057861 0.215949 -0.208918 0.240424 -0.684377 -0.221016 -0.161043 -0.454484 -0.245045 -0.217961 0.513379 0.760008 -0.143141 0.225668 -0.497279 -0.323779 -0.011089 -0.262338 -0.062195 -0.369791 -0.165061 -0.052843 0.474479 0.149552 0.285043 -0.467956 0.260898 0.183794 -0.068592 0.003213 0.615086 -0.655542 0.445219 0.159601 -0.094925 0.431324 -0.068120 -0.054882 0.006059 0.095682 -0.048656 -0.477766 -0.512789 0.248555 0.543193 -0.319452 -0.108702 0.100950 0.401560 -0.265608 0.668370 -0.218457 -0.586083 -0.097899 0.074571 0.268801 0.118839 -0.198158 0.034834 -0.342967 -0.529144 0.221784 0.513808 0.159235 -0.272168 -0.174431 -0.503133 -0.667753 -0.316471 -0.184934 0.021224 -0.359006 -0.092158 -0.084189 -0.027226 -0.104230 0.106372 -0.065413 -0.120005 -0.821295 0.242075 0.380500 0.026181 -0.072793 -0.119196 -0.177831
18 0.013841 -0.480834 -0.270306 -0.172420 0.106856 -0.008933 -0.225440 0.036055 0.513703 0.378933 -0.038455 0.625681 0.220171 -0.177315 0.422867 -0.394326 -0.046584 0.307055 -0.405974 0.570451 0.037673 0.301862 0.478376 -0.463795 0.157985 0.766959 -0.365867 -0.108867 -0.227052 0.147798 0.062029 0.519630 0.277826 0.127839 0.209810 -0.443749 0.085447 -0.363645 0.326886 0.742700 -0.490006 0.189139 -0.061596 0.209838 -0.212543 0.238939 -0.676965 -0.227805 -0.158467 -0.460489 -0.256016 -0.204268 0.513027 0.771179 -0.127263 0.228885 -0.499034 -0.329270 -0.008208 -0.269570 -0.053081 -0.399780 -0.191167 -0.052121 0.505979 0.144132 0.288095 -0.467527 0.265186 0.192247 -0.070059 0.007665 0.631095 -0.655557 0.463793 0.154458 -0.105195 0.450442 -0.078539 -0.046797 0.030692 0.097884 -0.050898 -0.490336 -0.515341 0.275244 0.561367 -0.319385 -0.106751 0.088466 0.404323 -0.263504 0.672506 -0.208505 -0.604280 -0.103212 0.065886 0.257299 0.107274 -0.212291 0.027972 -0.340872 -0.544084 0.208276 0.516152 0.155067 -0.276650 -0.172754 -0.516915 -0.672276 -0.313255 -0.181082 0.020967 -0.357766 -0.082741 -0.087242 -0.034850 -0.109107 0.125520 -0.082139 -0.121053 -0.831239 0.258593 0.385478 0.020086 -0.054690 -0.134354 -0.174316
53 0.176867 -0.540363 0.126917 0.207020 0.093622 -0.001801 -0.064831 -0.186295 0.126659 -0.170348 0.097275 0.812353 -0.635140 -0.698244 0.102586 -0.039505 0.065677 0.442423 -0.057365 0.519053 -0.416881 0.239684 0.060083 -0.823263 0.017954 0.395912 -0.048966 -0.425926 -0.334067 -0.525129 -0.146585 -0.165609 -0.179650 -0.227976 -0.033439 0.275664 0.502858 -0.548894 -0.101386 0.389604 -0.320686 0.276419 0.347888 0.477930 -0.448867 -0.123126 -0.434803 -0.099713 -0.400033 -0.283232 -0.396245 -0.006179 0.742134 0.461732 -0.337167 -0.273443 -0.362755 0.243310 0.110211 -0.130277 -0.485432 0.009043 0.105892 -0.051314 -0.164409 -0.108357 0.330500 -0.314042 -0.232844 -0.743846 0.131901 -0.094637 0.137635 0.177983 -0.038096 -0.213364 -0.127327 -0.536922 0.078614 -0.030573 0.275170 -0.258938 -0.710642 0.142402 -0.371315 0.003001 0.025360 -0.069827 0.274329 -0.321083 0.375007 -0.098900 0.047685 0.125812 0.265284 -0.632610 -0.163157 -0.301992 -0.006700 0.305245 0.357853 -0.348997 -0.538996 0.063651 0.426168 0.397626 0.089571 0.456078 -0.175474 -0.359550 -0.307260 0.447349 0.635367 -0.154557 0.119428 0.394964 0.271036 -0.047668 -0.106662 0.253448 -0.445404 0.078909 -0.498296 -0.132095 0.024285 -0.139921 0.634194 -0.555453
96 -0.050482 -0.073694 0.118874 -0.143009 0.039227 -0.425769 0.171535 -0.011399 0.473070 0.197826 -0.106214 0.401840 0.067067 -0.594157 0.489001 0.128783 0.346006 0.316878 -0.505948 0.063690 -0.264499 0.167118 0.132190 -0.844918 -0.210612 0.384358 -0.106661 -0.257143 -0.526429 0.006124 0.281472 0.207270 -0.032747 0.058771 -0.077493 -0.474756 0.294025 -0.090615 -0.069924 -0.055430 -0.142821 -0.063713 -0.029782 0.178156 -0.210641 -0.073459 0.011976 -0.297711 -0.339472 -0.065379 -0.460126 0.549642 0.091838 0.780477 0.319483 0.012081 -0.195389 -0.034542 0.363851 0.034714 -0.130731 -0.372248 -0.356466 -0.237891 0.644232 0.009673 0.169555 -0.380562 -0.001938 -0.278953 0.306734 0.177047 0.407569 -0.173769 0.664648 -0.223988 -0.496697 0.235886 -0.003548 -0.319306 0.344542 -0.060575 -0.093955 -0.312585 -0.118986 0.435096 0.116710 -0.225666 0.003235 -0.502889 0.076704 0.021974 0.204634 0.415874 0.015650 -0.134694 -0.225894 -0.295027 -0.045170 -0.404453 0.019192 -0.554146 -0.611371 -0.567945 0.454753 0.220770 0.101955 0.655929 -0.339337 -0.681278 -0.150995 -0.115349 0.647442 0.059074 0.281150 0.007481 0.209548 0.201576 0.421465 -0.324588 -0.385857 -0.162356 0.412785 0.166290 -0.162710 0.279665 0.201541 0.043519
55 -0.213207 -0.480521 0.136341 0.133707 0.002614 0.182064 0.120580 -0.187822 0.082213 0.443807 0.306325 0.541942 -0.422427 -0.082815 0.133081 -0.132583 -0.050621 0.320381 0.150259 -0.110695 -0.204888 0.254424 -0.033978 -0.392421 0.161480 0.155295 -0.448261 -0.159614 -0.423888 0.234474 -0.031398 0.351388 -0.010518 -0.159971 0.201720 -0.037423 0.046224 0.025565 -0.169640 0.280617 -0.165366 -0.075593 0.518068 0.191727 -0.360186 0.201270 -0.093487 -0.466128 -0.280604 -0.157863 -0.196944 0.114989 0.064159 0.207840 -0.476993 -0.243770 0.129746 0.346258 -0.236185 -0.151665 -0.126373 -0.043617 -0.546853 0.361191 0.764084 0.015726 0.260758 -0.113894 0.137274 -0.368500 0.120672 0.401210 0.212333 -0.131986 0.290518 0.075151 -0.224514 0.091655 -0.449138 0.630316 0.742151 -0.170749 -0.383496 -0.228482 -0.269664 0.038274 0.420054 -0.570444 -0.021079 0.144989 0.456709 0.128994 0.206810 -0.187969 -0.604953 -0.292176 0.075605 -0.004219 -0.137112 0.225351 0.236857 -0.316260 -0.729817 0.114836 0.282214 0.120238 -0.252004 0.237309 -0.184437 -0.078236 0.005664 0.644540 0.444753 -0.302352 0.077441 0.214274 0.124901 -0.157349 -0.125862 -0.313890 -0.010503 -0.174466 -0.113606 0.094869 -0.264749 0.452449 0.024684 -0.002074
56 -0.224915 -0.462218 0.133106 0.123008 0.022350 0.181470 0.114294 -0.196362 0.061227 0.451530 0.307842 0.533197 -0.413331 -0.065768 0.124834 -0.133944 -0.060486 0.303136 0.132838 -0.137226 -0.174557 0.239136 -0.038445 -0.354550 0.168682 0.137268 -0.438913 -0.162764 -0.411830 0.235167 -0.039592 0.343465 -0.017773 -0.153168 0.210780 -0.038206 0.025673 0.041755 -0.161230 0.272216 -0.162509 -0.069406 0.517811 0.173455 -0.356869 0.214403 -0.095783 -0.457451 -0.273731 -0.154759 -0.172581 0.109300 0.045969 0.198075 -0.477263 -0.236260 0.159765 0.340118 -0.241575 -0.118107 -0.094642 -0.031684 -0.557494 0.357159 0.773265 0.023928 0.238534 -0.102409 0.160835 -0.350920 0.119594 0.399013 0.205011 -0.141120 0.283537 0.089236 -0.198417 0.093994 -0.437458 0.630057 0.721636 -0.140848 -0.354422 -0.229445 -0.260482 0.014170 0.422466 -0.579033 -0.029987 0.171712 0.442186 0.128215 0.205591 -0.203785 -0.613757 -0.261894 0.071673 0.012485 -0.140186 0.234757 0.231391 -0.289413 -0.709520 0.120041 0.257519 0.121353 -0.251824 0.241956 -0.177878 -0.060737 0.016361 0.638381 0.411823 -0.299840 0.081784 0.219342 0.137101 -0.180506 -0.108420 -0.329072 -0.000899 -0.157932 -0.127213 0.085415 -0.261960 0.444186 0.017554 0.001837
42 -0.014531 -0.255107 -0.242528 -0.058035 0.085585 0.038491 0.176243 0.157266 0.297074 0.162523 -0.298452 0.386585 -0.048853 -0.215650 0.196420 -0.256617 0.286621 0.169065 0.141818 0.606388 -0.441349 -0.027086 0.237225 -0.737855 -0.002014 0.471053 -0.542957 -0.303967 -0.244614 0.459799 -0.054927 0.040580 -0.392405 0.211408 0.297845 -0.025751 -0.122870 -0.433177 -0.087648 0.090838 0.005363 -0.291427 -0.277902 0.096292 0.178878 0.160462 0.054213 0.056313 -0.037105 -0.112159 -0.127028 -0.285828 -0.312095 0.173208 0.196101 -0.085411 0.002358 0.320420 -0.138522 -0.455361 -0.170565 -0.074267 -0.136228 0.251156 0.128364 -0.351205 -0.139033 -0.208183 -0.095077 -0.029089 0.006106 0.262243 0.183464 -0.300200 0.852182 0.253823 -0.622885 0.417639 0.164862 0.079250 -0.033526 -0.415522 -0.458932 -0.049870 -0.159333 0.117431 0.546194 -0.162035 -0.214751 -0.052978 0.185938 -0.137604 -0.100654 0.158212 -0.262588 -0.215117 -0.034075 -0.303900 0.069249 -0.131895 -0.335818 -0.472038 -0.461917 0.164066 0.164096 -0.101146 0.417615 0.291994 -0.407239 0.120066 0.240548 0.020951 0.486717 0.417212 -0.203077 -0.050784 -0.505645 -0.047314 -0.164143 -0.037447 -0.045684 -0.471798 0.000199 0.200999 0.293565 -0.063080 0.374572 0.189497
22 -0.009580 -0.255495 -0.225012 -0.061147 0.086717 0.028090 0.177294 0.130013 0.287474 0.145014 -0.294400 0.374035 -0.020180 -0.216310 0.202646 -0.226678 0.282180 0.159411 0.097387 0.580640 -0.417199 -0.016117 0.239026 -0.717206 -0.020347 0.464896 -0.511647 -0.288972 -0.238648 0.423365 -0.045773 0.033794 -0.380047 0.204576 0.271932 -0.036586 -0.113556 -0.420288 -0.065654 0.091486 0.015394 -0.270846 -0.259449 0.092493 0.169323 0.146793 0.044515 0.054806 -0.024924 -0.116632 -0.113106 -0.260970 -0.285597 0.168931 0.191930 -0.068429 -0.006750 0.304007 -0.096065 -0.423042 -0.168594 -0.076470 -0.123535 0.235462 0.101594 -0.320122 -0.150598 -0.207537 -0.081733 -0.002032 0.024148 0.248031 0.174656 -0.290188 0.810530 0.220124 -0.586122 0.403290 0.182343 0.070509 -0.045446 -0.382914 -0.410198 -0.051904 -0.143900 0.094277 0.522641 -0.138356 -0.203437 -0.074868 0.173028 -0.129582 -0.067249 0.160701 -0.228907 -0.194305 -0.031679 -0.288927 0.072565 -0.128200 -0.312916 -0.446121 -0.422458 0.168773 0.168314 -0.085938 0.408804 0.294887 -0.381403 0.101125 0.208843 0.006609 0.453553 0.403157 -0.192628 -0.036675 -0.480557 -0.048192 -0.141388 -0.041978 -0.040352 -0.458895 0.015506 0.204986 0.279643 -0.056559 0.371842 0.165051
57 -0.037363 -0.272068 -0.245332 -0.034682 0.063199 0.070832 0.167487 0.135566 0.277787 0.164415 -0.284241 0.396125 -0.050625 -0.252029 0.219321 -0.243991 0.306993 0.185495 0.115308 0.586062 -0.507980 -0.010881 0.241003 -0.764936 -0.002240 0.474123 -0.523605 -0.268540 -0.259599 0.409877 -0.064285 0.071693 -0.362935 0.201582 0.279545 0.001725 -0.131555 -0.449091 -0.081362 0.105547 0.026335 -0.264707 -0.252282 0.072440 0.144139 0.136070 0.075157 0.025443 -0.020644 -0.127855 -0.147342 -0.232384 -0.305193 0.161294 0.160497 -0.095902 -0.014014 0.348243 -0.092296 -0.460397 -0.204820 -0.085846 -0.169902 0.258206 0.131268 -0.340257 -0.129186 -0.218479 -0.126251 -0.044032 0.021749 0.247006 0.197168 -0.275015 0.826115 0.213483 -0.629118 0.411544 0.165622 0.073961 0.025965 -0.404953 -0.445717 -0.047301 -0.147307 0.118388 0.533847 -0.142790 -0.203722 -0.081521 0.188931 -0.110830 -0.088442 0.196399 -0.271938 -0.220585 -0.031465 -0.317592 0.042297 -0.094041 -0.304320 -0.428087 -0.463746 0.153697 0.161264 -0.073296 0.411513 0.334067 -0.395030 0.106553 0.223736 0.033187 0.477736 0.407463 -0.180024 -0.015559 -0.495890 -0.042574 -0.153587 -0.041161 -0.045838 -0.481735 0.005352 0.240735 0.281623 -0.042300 0.354792 0.184006
46 -0.040581 -0.244749 -0.235781 -0.023527 0.073610 0.067149 0.172138 0.135984 0.266492 0.154514 -0.310032 0.352843 -0.030775 -0.204141 0.189681 -0.264074 0.312566 0.163970 0.110776 0.585659 -0.491180 -0.029941 0.247795 -0.719080 0.009057 0.456061 -0.519226 -0.292061 -0.238143 0.437692 -0.057702 0.047189 -0.371898 0.256266 0.285302 -0.003056 -0.179934 -0.436932 -0.060580 0.086823 0.041426 -0.281245 -0.257798 0.027519 0.167912 0.165131 0.088837 0.058189 -0.006878 -0.129805 -0.126744 -0.262363 -0.336479 0.139979 0.186593 -0.078268 -0.002995 0.326155 -0.113635 -0.446953 -0.157078 -0.096824 -0.143212 0.235851 0.113799 -0.369912 -0.177162 -0.206173 -0.099628 -0.023750 -0.002596 0.233862 0.169501 -0.282163 0.848604 0.238677 -0.633360 0.411388 0.185632 0.028796 -0.030406 -0.407436 -0.442299 -0.052067 -0.128630 0.117021 0.518581 -0.137758 -0.229092 -0.038438 0.158028 -0.112147 -0.102570 0.192565 -0.254773 -0.193447 -0.050202 -0.289291 0.028304 -0.106137 -0.341295 -0.429613 -0.430549 0.158193 0.126534 -0.108058 0.433375 0.295910 -0.397403 0.138776 0.221034 -0.010054 0.436565 0.435672 -0.180708 -0.052746 -0.495508 -0.040710 -0.151005 -0.063661 -0.036991 -0.474717 0.014825 0.238575 0.306483 -0.068094 0.341458 0.187302
43 -0.226074 -0.157534 -0.360300 0.163048 -0.001395 0.100566 0.089075 -0.023952 0.264834 -0.015388 -0.026907 0.386702 -0.366997 -0.271012 0.619406 -0.168637 0.005970 0.361098 -0.345120 -0.130029 -0.603411 0.316511 0.449941 -1.076254 -0.211820 0.605237 0.098705 0.032258 -0.050600 0.282588 0.124293 0.354399 0.209110 0.462921 0.249832 0.083021 0.162114 -0.287641 0.194706 0.583734 0.112762 0.307181 0.226596 -0.012890 -0.344033 -0.115096 0.458068 -0.254216 0.114238 -0.152639 -0.028316 -0.060819 0.449623 -0.100464 -0.488482 -0.220658 -0.221089 0.093716 0.237933 -0.389048 -0.229000 -0.054576 -0.272316 0.620236 -0.106510 -0.006874 0.027307 -0.083918 -0.301637 -0.061063 0.213041 0.208207 0.060412 -0.129211 0.108101 -0.417365 -0.035997 0.111361 -0.326614 0.262835 0.293591 -0.012197 -0.515809 -0.181366 -0.246561 0.242731 0.354969 0.427277 0.002036 -0.514103 0.012352 0.231505 0.494296 0.431336 -0.115620 -0.542991 -0.049056 -0.415626 -0.555811 0.404672 0.276012 -0.002520 -0.268678 0.181818 0.330970 -0.328128 0.352520 0.306963 -0.176973 -0.549647 -0.101773 0.315078 0.025216 -0.094357 -0.216734 0.442396 -0.243225 0.167435 0.091347 0.288265 0.335776 -0.633684 -0.049527 0.566659 -0.028990 0.293279 0.513171 -0.141459
117 0.106574 -0.295078 -0.020550 -0.028601 0.197760 0.326304 0.235014 -0.484609 0.125658 -0.329180 -0.142112 0.158426 -0.363837 -0.056300 -0.049024 0.069048 0.387039 0.132124 0.060836 0.112029 -0.076552 0.410974 -0.380087 -0.702265 0.017705 0.046210 -0.427836 0.387540 -0.780651 -0.137702 -0.111815 0.408063 0.183862 -0.149556 0.092801 -0.157887 0.348934 0.133732 0.425144 0.087898 -0.458403 -0.432146 -0.099274 0.441078 0.209214 -0.272201 0.090058 -0.152756 0.031763 -0.184200 -0.125606 0.019674 0.558149 0.334629 0.403446 0.092752 -0.345497 0.374579 0.019702 -0.286319 -0.638698 -0.051347 -0.129028 -0.190162 -0.067413 0.140364 0.219713 -0.383350 -0.281129 -0.489868 0.361291 -0.010363 0.258035 -0.013954 0.455430 -0.041081 -0.406190 -0.056161 0.203378 0.291955 0.691266 -0.071069 -0.495180 0.444365 -0.156488 0.348768 0.548449 0.006963 0.471666 -0.348315 0.238916 0.250958 0.262861 0.027358 -0.155683 -0.504098 0.136264 -0.187652 0.073812 -0.064802 -0.095152 -0.510137 -0.439962 -0.000052 0.491208 0.126564 0.368244 -0.174346 -0.253819 -0.346383 0.015290 0.658791 0.243603 0.374292 -0.160997 -0.035038 -0.120512 0.257871 -0.157243 0.194532 -0.158973 -0.631820 0.456215 0.213778 -0.178549 0.445912 -0.037357 -0.026354
75 0.110791 -0.317014 -0.029700 -0.019093 0.176364 0.347046 0.238439 -0.468746 0.130241 -0.324698 -0.133704 0.167367 -0.378346 -0.054560 -0.047626 0.052217 0.396065 0.139476 0.088241 0.136261 -0.111960 0.408123 -0.372939 -0.728632 0.012730 0.068177 -0.432735 0.390235 -0.773494 -0.123076 -0.112135 0.410187 0.181808 -0.144065 0.108645 -0.164433 0.368659 0.106447 0.416064 0.116682 -0.453678 -0.441585 -0.087217 0.449256 0.204204 -0.277330 0.079761 -0.161916 0.017938 -0.188233 -0.128894 0.005773 0.559233 0.311477 0.388465 0.089121 -0.371524 0.381023 0.016157 -0.306816 -0.660795 -0.055302 -0.129059 -0.160279 -0.068128 0.117410 0.237670 -0.390905 -0.302427 -0.502052 0.343735 -0.010699 0.271336 -0.025907 0.447659 -0.035534 -0.432159 -0.041400 0.190902 0.301622 0.696554 -0.096332 -0.519105 0.433467 -0.167386 0.355589 0.564769 0.008811 0.471405 -0.340854 0.239015 0.240605 0.261193 0.030995 -0.165588 -0.526377 0.153486 -0.189276 0.054161 -0.055055 -0.094343 -0.537617 -0.451028 0.018989 0.493081 0.124618 0.350626 -0.196357 -0.278601 -0.357493 0.018870 0.657905 0.260981 0.352850 -0.169544 -0.041849 -0.149861 0.259054 -0.184502 0.206231 -0.169065 -0.656426 0.459875 0.243761 -0.169534 0.449404 -0.037379 -0.018533
126 -0.225684 -0.172112 -0.361017 0.156118 0.005480 0.092720 0.078888 -0.030501 0.278325 -0.010343 -0.038163 0.395461 -0.343084 -0.275453 0.625916 -0.165394 0.020861 0.364282 -0.356944 -0.121429 -0.602865 0.324819 0.454840 -1.075078 -0.206466 0.612630 0.098266 0.024412 -0.065644 0.275894 0.129149 0.349325 0.211979 0.466954 0.248202 0.066218 0.152160 -0.292159 0.201394 0.588341 0.099996 0.309077 0.231206 -0.020937 -0.338545 -0.107970 0.435848 -0.248936 0.111348 -0.160185 -0.033490 -0.059691 0.457185 -0.086608 -0.481978 -0.214506 -0.238017 0.087668 0.255413 -0.370290 -0.220999 -0.074176 -0.274856 0.600272 -0.088324 -0.007938 0.013695 -0.090670 -0.289222 -0.053322 0.207212 0.201445 0.073363 -0.135203 0.119982 -0.415642 -0.037397 0.124637 -0.314385 0.256270 0.276504 -0.004531 -0.513322 -0.198831 -0.247087 0.253276 0.363294 0.408804 0.004091 -0.515791 0.009266 0.226014 0.497089 0.421705 -0.113958 -0.533369 -0.054741 -0.411595 -0.555387 0.391579 0.272481 -0.016671 -0.275301 0.178748 0.337719 -0.318472 0.342152 0.311085 -0.193461 -0.556686 -0.111097 0.298294 0.023716 -0.105050 -0.202491 0.446524 -0.229650 0.160158 0.109407 0.269025 0.330162 -0.630556 -0.036647 0.571326 -0.035467 0.294621 0.513410 -0.144167
147 0.038980 -0.109833 -0.037572 0.299252 -0.539850 0.269936 -0.181403 0.117356 -0.084484 0.145248 -0.087240 0.085647 -0.002969 -0.475347 0.446393 -0.436060 -0.040043 0.100274 0.128465 0.422375 -1.075984 -0.036444 0.373259 -0.120783 -0.066556 0.473789 -0.202855 0.151052 0.110328 -0.256693 0.056645 0.315599 0.351290 -0.204507 -0.479564 0.072673 0.106224 -0.629584 -0.075196 -0.129988 -0.127147 -0.039911 0.201518 0.273202 -0.461175 -0.313590 -0.348386 -0.048029 0.143254 -0.311381 -0.724937 0.218474 -0.073758 0.431425 -0.309412 0.090571 -0.310840 0.113347 0.443579 -0.578165 -0.467957 -0.169161 -0.051549 -0.037214 0.335927 0.229291 0.245281 -0.238281 -0.701339 -0.330046 -0.069235 -0.196435 0.161459 0.055863 -0.015956 0.006938 -0.575315 0.201846 -0.038846 -0.244947 0.573185 -0.244153 -0.063754 0.367447 -0.258807 0.335359 0.131945 -0.265323 0.258410 -0.349626 0.268874 0.016493 0.036662 0.077857 -0.287309 -0.367430 0.272735 -0.360404 0.323840 0.072897 0.218124 0.070470 -0.426557 -0.079323 0.354507 0.109642 -0.093672 0.346608 0.044365 -0.475812 -0.033281 -0.039821 0.221193 0.068596 -0.068310 0.275611 -0.162038 0.499235 -0.323790 0.202378 -0.339713 -0.409870 0.461428 0.645263 0.071794 -0.017459 -0.193873 -0.032774
157 0.013480 -0.136052 -0.048221 0.276727 -0.511619 0.261611 -0.158779 0.097469 -0.065827 0.154717 -0.094930 0.098115 0.002939 -0.477868 0.452452 -0.417108 -0.021805 0.115383 0.099541 0.417183 -1.079981 -0.020337 0.372690 -0.143418 -0.063846 0.492978 -0.203920 0.133726 0.082640 -0.229191 0.072368 0.311661 0.327435 -0.184593 -0.450024 0.060449 0.094929 -0.629559 -0.065299 -0.105845 -0.126441 -0.043779 0.213764 0.263730 -0.449476 -0.298994 -0.344597 -0.041343 0.136075 -0.315509 -0.709810 0.209517 -0.081074 0.420122 -0.311304 0.079819 -0.320369 0.116008 0.450709 -0.550789 -0.444006 -0.190382 -0.076068 -0.027628 0.345890 0.205206 0.217911 -0.246564 -0.680315 -0.303807 -0.064984 -0.173966 0.162640 0.049556 -0.001944 -0.002256 -0.574746 0.219199 -0.036127 -0.217702 0.569465 -0.249965 -0.068666 0.351733 -0.256969 0.325245 0.164423 -0.261747 0.238350 -0.357829 0.264677 0.022384 0.042554 0.075021 -0.271657 -0.364454 0.258933 -0.378988 0.301534 0.070067 0.225185 0.054434 -0.437380 -0.068157 0.364136 0.083368 -0.071624 0.357620 0.029563 -0.465866 -0.033155 -0.041383 0.213638 0.067300 -0.068736 0.295386 -0.171556 0.466899 -0.304372 0.172040 -0.332004 -0.405824 0.451337 0.646102 0.072660 0.003655 -0.165284 -0.034589
84 -0.223288 -0.460309 0.138883 0.138066 0.017255 0.180177 0.100629 -0.179638 0.077441 0.437275 0.318314 0.526200 -0.418977 -0.080914 0.122911 -0.113227 -0.065201 0.307885 0.146000 -0.130905 -0.180299 0.245204 -0.040982 -0.377445 0.156847 0.133129 -0.411988 -0.157370 -0.391053 0.224186 -0.035906 0.335212 -0.021680 -0.155830 0.214597 -0.034261 0.045534 0.042736 -0.178209 0.285128 -0.159675 -0.048336 0.494556 0.175062 -0.363158 0.202650 -0.092268 -0.452451 -0.286222 -0.143905 -0.160821 0.101237 0.050104 0.190610 -0.482094 -0.238953 0.136337 0.334884 -0.250050 -0.121877 -0.109937 -0.028860 -0.540264 0.373310 0.739184 0.009344 0.258485 -0.096818 0.148585 -0.360918 0.099983 0.392618 0.188010 -0.135865 0.256767 0.078320 -0.188365 0.085983 -0.460504 0.613379 0.700976 -0.162661 -0.366476 -0.241776 -0.252299 0.018691 0.398407 -0.550977 -0.027395 0.158711 0.422106 0.104317 0.206750 -0.194487 -0.579190 -0.260020 0.068530 0.009193 -0.159769 0.226411 0.237735 -0.306316 -0.694327 0.112953 0.259183 0.113230 -0.278457 0.213227 -0.177511 -0.078080 0.004043 0.614870 0.431218 -0.329737 0.080208 0.206973 0.126110 -0.170372 -0.123234 -0.304728 -0.013579 -0.144853 -0.137378 0.077531 -0.256281 0.434222 0.026570 -0.005832
88 -0.216843 -0.447526 0.132034 0.123283 0.032209 0.173974 0.095404 -0.189282 0.061949 0.425923 0.311301 0.517550 -0.410697 -0.067738 0.112087 -0.117592 -0.068672 0.286131 0.131328 -0.126615 -0.140640 0.240314 -0.052670 -0.335759 0.169369 0.116697 -0.411759 -0.171278 -0.378502 0.213127 -0.049797 0.323373 -0.025887 -0.149043 0.212763 -0.013936 0.023058 0.046853 -0.154974 0.271040 -0.168101 -0.042400 0.484650 0.162131 -0.346454 0.213730 -0.094111 -0.429195 -0.270634 -0.142404 -0.149014 0.087777 0.055053 0.197826 -0.468902 -0.229938 0.151567 0.320097 -0.253703 -0.102672 -0.086690 -0.024823 -0.516095 0.344735 0.712717 0.015969 0.243259 -0.092751 0.171746 -0.334945 0.112058 0.383823 0.170377 -0.124944 0.264685 0.084120 -0.160886 0.077337 -0.436887 0.600060 0.675617 -0.137271 -0.353755 -0.231394 -0.245900 0.003868 0.391211 -0.544862 -0.036833 0.164828 0.424759 0.106465 0.195427 -0.207845 -0.564381 -0.249538 0.047866 0.019830 -0.134778 0.226722 0.233896 -0.280201 -0.672143 0.126833 0.242391 0.107431 -0.255988 0.211250 -0.166446 -0.048075 0.005734 0.613099 0.391802 -0.306703 0.075483 0.204634 0.141928 -0.187415 -0.111659 -0.301689 -0.004509 -0.132907 -0.148144 0.045998 -0.237608 0.412440 0.025386 -0.019547
127 -0.025766 -0.253297 -0.214138 -0.036485 0.076476 0.067637 0.158394 0.126416 0.260884 0.161213 -0.278518 0.371987 -0.018821 -0.224254 0.189336 -0.245382 0.287188 0.160665 0.107185 0.574913 -0.438982 -0.019927 0.244702 -0.687159 0.006390 0.452220 -0.498234 -0.269503 -0.245234 0.398066 -0.065441 0.054839 -0.358509 0.200242 0.270618 -0.020136 -0.120950 -0.422070 -0.062520 0.095868 0.006546 -0.272803 -0.246596 0.075134 0.147274 0.148620 0.030613 0.038169 -0.018415 -0.135602 -0.138885 -0.243320 -0.289893 0.166188 0.172441 -0.071723 -0.010128 0.308695 -0.104016 -0.429083 -0.168915 -0.092613 -0.145283 0.220808 0.134952 -0.320961 -0.137390 -0.207291 -0.087609 -0.020312 0.011041 0.222832 0.186493 -0.272172 0.795789 0.226955 -0.595884 0.402876 0.178779 0.053044 -0.006311 -0.379722 -0.413114 -0.052043 -0.153189 0.098099 0.502948 -0.154689 -0.208112 -0.042377 0.186141 -0.125361 -0.075800 0.161971 -0.263754 -0.189521 -0.037842 -0.273959 0.061860 -0.095449 -0.310152 -0.419415 -0.433668 0.158537 0.153677 -0.073052 0.387843 0.299355 -0.381288 0.099030 0.196125 0.012533 0.441476 0.387728 -0.177152 -0.032112 -0.469578 -0.050032 -0.155315 -0.049083 -0.061108 -0.458952 0.011117 0.213553 0.266932 -0.068612 0.334528 0.162488
50 -0.038876 -0.266311 -0.234405 -0.046115 0.079272 0.047755 0.183053 0.129233 0.281239 0.160245 -0.289778 0.371992 -0.035974 -0.213613 0.196902 -0.233071 0.298503 0.166362 0.106027 0.580164 -0.447131 -0.012805 0.225305 -0.721390 0.005747 0.451405 -0.525276 -0.284471 -0.242799 0.431843 -0.054155 0.043822 -0.378915 0.209261 0.285959 -0.010124 -0.140739 -0.417088 -0.066314 0.103034 0.022327 -0.258196 -0.260715 0.062226 0.166591 0.155607 0.066675 0.044582 -0.020804 -0.122871 -0.114595 -0.264473 -0.302610 0.161251 0.170965 -0.078712 -0.005025 0.317505 -0.115985 -0.431433 -0.165161 -0.086984 -0.136438 0.240446 0.107360 -0.341281 -0.146672 -0.209147 -0.082470 -0.011917 0.015584 0.249237 0.165745 -0.280761 0.817885 0.226470 -0.592882 0.407642 0.169521 0.074149 -0.028172 -0.390286 -0.425809 -0.053621 -0.136101 0.092120 0.524581 -0.131792 -0.223288 -0.058698 0.170887 -0.127612 -0.071156 0.167153 -0.245159 -0.198069 -0.034424 -0.293686 0.053145 -0.115723 -0.315325 -0.434021 -0.426891 0.175051 0.151571 -0.097268 0.412262 0.285653 -0.390301 0.127133 0.213425 0.006147 0.449960 0.406999 -0.186777 -0.032504 -0.489388 -0.048154 -0.141857 -0.048826 -0.035446 -0.452787 0.003852 0.209260 0.287590 -0.055588 0.354426 0.182363
