251 128
85 0.104181 -0.287955 0.020961 0.063777 -0.184234 -0.118771 0.141491 0.272627 -0.053747 0.130137 -0.270584 0.131557 0.119097 -0.202662 -0.101052 -0.285595 0.155872 0.202088 0.061850 0.200242 0.099382 -0.085235 0.368221 -0.047249 0.041296 -0.027607 -0.196163 -0.280756 -0.086516 -0.256393 0.079643 0.058783 0.112360 -0.147210 -0.311659 -0.083355 0.129977 0.133867 0.054649 0.198219 -0.219698 -0.003069 0.126472 0.009488 -0.123735 0.126261 -0.044054 -0.090327 -0.030306 -0.111183 -0.273021 0.041110 0.035909 0.091528 -0.113147 -0.234116 0.140554 0.007872 -0.228223 0.027816 -0.152513 -0.190194 0.042404 0.118714 0.132179 0.088031 -0.251988 0.127596 0.199790 0.027556 0.161541 0.056272 0.271978 -0.187006 0.249163 -0.077198 -0.205180 0.255100 0.026586 0.038294 0.238887 -0.174258 0.073891 -0.213609 -0.096079 -0.060527 0.280444 -0.093010 -0.151933 0.093953 0.489550 0.150341 -0.071654 0.054393 -0.405442 0.227106 0.211491 -0.214480 0.185906 0.251164 -0.315193 -0.226231 -0.128867 0.237438 0.284673 0.144779 0.082678 0.121418 -0.027010 0.134497 0.022348 0.331868 0.164726 -0.121059 0.094241 0.148718 -0.020416 -0.056315 -0.028940 -0.096491 0.114606 -0.014110 -0.111765 -0.316979 -0.191594 0.059752 0.185165 -0.251916
160 -0.024821 -0.218072 0.022297 -0.248996 0.093473 -0.048430 -0.013130 0.018207 0.274323 -0.003964 -0.244782 -0.005238 0.072601 0.052981 0.107908 -0.147842 -0.048064 0.110746 0.085456 0.208640 -0.060908 0.069032 0.179698 0.078858 -0.174552 0.147026 0.039386 -0.076649 -0.041936 0.064686 0.220926 0.093075 -0.014363 -0.066801 -0.147571 0.089028 -0.193263 0.027082 -0.044520 -0.081341 0.087403 0.248667 0.096120 -0.202383 0.019045 -0.029835 -0.044044 -0.001060 0.151523 -0.005794 -0.319836 0.149107 0.083518 0.232200 -0.280988 -0.260680 0.074209 -0.232305 -0.025405 -0.106716 -0.066614 -0.306098 0.059053 0.093302 -0.113944 0.058851 -0.109791 -0.191074 -0.283569 -0.067430 0.056410 -0.053404 0.193145 -0.021035 0.047164 -0.047780 0.092178 -0.167777 -0.285637 -0.217503 0.173366 0.097670 -0.186161 -0.006575 0.133275 0.148376 -0.074047 -0.042296 0.188495 -0.120622 0.275765 0.055602 -0.009369 0.317414 0.035632 0.141213 0.027451 -0.203225 0.081755 0.094299 -0.050098 -0.164538 -0.075365 -0.169301 0.010073 0.032179 0.109219 0.267054 -0.023262 -0.204116 -0.057312 0.123446 -0.036842 -0.154692 0.073944 -0.030929 -0.108838 0.338318 -0.054162 0.024196 -0.069981 0.031554 0.232722 0.143022 -0.044837 0.191099 -0.160120 -0.102453
88 0.051314 -0.260222 -0.000433 0.065208 -0.165594 -0.122147 0.067613 0.233878 -0.008037 0.110104 -0.213692 0.162047 0.031045 -0.142148 -0.086060 -0.250290 0.109017 0.197983 0.042436 0.113286 0.089583 -0.076187 0.320793 -0.089546 0.052971 -0.020809 -0.180409 -0.209505 0.001116 -0.173893 0.040966 0.014162 0.096417 -0.086128 -0.193606 -0.032790 0.089983 0.064367 0.064801 0.284503 -0.186556 0.033011 0.150694 -0.004707 -0.164062 0.150862 -0.032238 -0.196077 -0.057916 -0.072383 -0.249370 0.017658 0.084878 0.129638 -0.121294 -0.170944 0.118335 0.012194 -0.220406 0.018482 -0.105673 -0.135143 0.029576 0.095823 0.079769 0.056476 -0.179016 0.069916 0.172000 0.031238 0.129683 0.079863 0.253090 -0.208930 0.223350 -0.063289 -0.155038 0.226410 0.049738 -0.005018 0.228190 -0.123996 -0.004127 -0.190685 -0.092224 -0.018370 0.234410 -0.085632 -0.157372 0.080199 0.414173 0.227233 -0.119465 0.014438 -0.345747 0.214697 0.110296 -0.130719 0.165524 0.227709 -0.271041 -0.142879 -0.162187 0.198988 0.245393 0.113182 0.103555 0.122765 -0.039794 0.108108 0.039944 0.253981 0.137610 -0.079030 0.053281 0.101299 0.013592 -0.008075 -0.029487 -0.030997 0.149711 0.006581 -0.111576 -0.274439 -0.193133 0.063971 0.145124 -0.159575
66 0.008707 -0.233234 0.002288 -0.044808 -0.095262 -0.118017 -0.010996 0.147443 0.099435 0.093271 -0.200805 0.113978 0.017419 -0.063053 0.016011 -0.176060 0.009442 0.158387 0.045741 0.107841 0.062168 -0.015837 0.273850 -0.050569 -0.044368 0.016525 -0.080634 -0.139682 0.038664 -0.044754 0.107281 0.013670 0.029980 -0.062423 -0.183892 -0.018547 -0.002488 0.061408 0.008165 0.173809 -0.070998 0.115740 0.153153 -0.042090 -0.130148 0.101144 -0.045942 -0.131192 -0.005716 -0.020629 -0.237104 0.067735 0.114160 0.168392 -0.176991 -0.162297 0.108545 -0.057983 -0.153095 0.037837 -0.051705 -0.153390 0.032647 0.053915 -0.014921 0.064139 -0.141032 -0.025382 0.020611 0.016821 0.130475 0.048044 0.237931 -0.145690 0.105520 -0.073422 -0.056067 0.051342 -0.026542 -0.065495 0.173026 -0.070654 -0.078112 -0.105218 -0.028041 0.029864 0.094398 -0.068233 -0.008718 -0.013830 0.317997 0.191719 -0.087412 0.067043 -0.195383 0.173215 0.042187 -0.132553 0.103192 0.156919 -0.184280 -0.111943 -0.140686 0.073060 0.165275 0.072865 0.088625 0.143780 -0.024972 -0.059930 -0.002761 0.152218 0.059388 -0.090309 0.074655 0.058391 0.012872 0.130623 -0.057119 -0.004217 0.089815 0.014089 0.035126 -0.107768 -0.134515 0.072298 0.037618 -0.121646
149 -0.091637 -0.312338 -0.069196 -0.136432 -0.033195 -0.139371 -0.175196 0.080598 0.241677 0.092688 -0.195118 0.141096 -0.059640 0.078202 0.122738 -0.098320 -0.134006 0.150351 0.082929 0.086889 0.090628 0.020707 0.279117 -0.102942 -0.141866 0.092988 -0.026039 -0.069633 0.138078 0.175234 0.174568 0.010067 -0.081999 -0.045330 -0.119233 -0.026032 -0.107953 0.060396 -0.105166 0.209404 0.054331 0.216916 0.229645 -0.076999 -0.186903 0.144664 -0.092092 -0.141024 -0.042704 0.054961 -0.237432 0.111623 0.179565 0.222782 -0.340744 -0.129940 0.158353 -0.126440 -0.139203 0.068222 0.011932 -0.137206 -0.004430 0.069532 -0.159320 0.070949 -0.077784 -0.130382 -0.064068 0.007174 0.131408 0.107880 0.264093 -0.167812 -0.028856 -0.092502 0.014160 -0.068052 -0.082374 -0.117469 0.200824 -0.061776 -0.216440 -0.019643 0.025793 0.079713 -0.009381 -0.047651 0.059931 -0.110426 0.267805 0.283589 -0.072795 0.033853 -0.029426 0.181640 -0.072197 -0.138957 0.045153 0.112036 -0.132062 -0.047427 -0.168460 0.032581 0.148063 0.016748 0.086038 0.186362 -0.024572 -0.279007 -0.019072 0.023617 -0.016967 -0.083648 0.105911 0.035655 0.026097 0.269359 -0.115318 0.032145 0.130315 0.015071 0.171225 0.070534 -0.096355 0.063938 -0.108891 -0.076203
212 -0.041432 -0.278222 -0.030500 -0.079554 -0.089208 -0.127934 -0.082676 0.130315 0.148319 0.113489 -0.195987 0.153260 -0.019326 -0.025155 0.045278 -0.161426 -0.062897 0.149814 0.083752 0.058869 0.113543 0.009544 0.315590 -0.089118 -0.103338 0.058120 -0.051826 -0.119022 0.095115 0.068965 0.131686 0.028158 -0.035610 -0.065456 -0.163719 -0.065901 -0.035394 0.076530 -0.053955 0.199152 -0.050799 0.140589 0.201535 -0.018767 -0.180816 0.147022 -0.069965 -0.128260 -0.056386 0.041217 -0.217536 0.060148 0.126432 0.163898 -0.255205 -0.136694 0.138687 -0.080488 -0.161977 0.123059 -0.014035 -0.113898 -0.005275 0.081403 -0.063973 0.043951 -0.108847 -0.068691 0.017041 0.007780 0.164085 0.094596 0.275094 -0.188825 0.017584 -0.073697 -0.042965 0.027483 -0.019714 -0.050138 0.148471 -0.104635 -0.130859 -0.076206 -0.028776 0.038792 0.073351 -0.063453 -0.002148 -0.050723 0.303355 0.246887 -0.076591 -0.000341 -0.142642 0.175035 0.003098 -0.115898 0.063810 0.159262 -0.169957 -0.093331 -0.144649 0.086533 0.208505 0.071718 0.080081 0.120292 -0.036064 -0.165546 -0.011913 0.097033 0.035955 -0.104586 0.078742 0.080745 0.026379 0.155878 -0.106904 0.015230 0.122424 0.004310 0.085809 -0.067609 -0.123113 0.041008 -0.005682 -0.119085
50 0.035693 -0.259587 -0.030078 0.027272 -0.122931 -0.106735 0.080291 0.218424 0.029683 0.092511 -0.217839 0.136670 0.044012 -0.111367 -0.060556 -0.222817 0.107745 0.213279 0.043819 0.153444 0.050360 -0.085285 0.283080 -0.085555 0.047920 -0.007335 -0.174480 -0.194168 -0.031424 -0.163512 0.070287 0.032258 0.082244 -0.089263 -0.186355 0.006189 0.063500 0.057937 0.048036 0.230148 -0.148531 0.069865 0.130794 -0.049128 -0.127490 0.127061 -0.023671 -0.165044 0.003890 -0.100650 -0.265134 0.044317 0.091853 0.147915 -0.119980 -0.200391 0.127417 -0.017801 -0.191497 -0.057037 -0.090695 -0.175162 0.022926 0.069464 0.063676 0.066489 -0.179236 0.047855 0.106024 0.026418 0.086415 0.059843 0.244691 -0.163720 0.220868 -0.082777 -0.125759 0.173451 0.000455 -0.035429 0.249206 -0.103144 -0.029036 -0.158113 -0.072325 -0.008076 0.210994 -0.079264 -0.115550 0.060335 0.405351 0.189972 -0.098691 0.068847 -0.296639 0.193159 0.106117 -0.181690 0.165672 0.195861 -0.251513 -0.154577 -0.146886 0.148140 0.192836 0.073038 0.122684 0.172954 -0.034051 0.085472 0.026839 0.240772 0.135594 -0.070492 0.047570 0.089189 -0.026830 0.019805 -0.029910 -0.020776 0.118357 0.004064 -0.084832 -0.210368 -0.189987 0.072996 0.113554 -0.151423
46 0.063030 -0.254512 -0.015796 0.032902 -0.119054 -0.100886 0.122908 0.232290 0.001192 0.077437 -0.242168 0.131640 0.059277 -0.111341 -0.096695 -0.238420 0.158039 0.231890 0.030121 0.187889 0.024728 -0.114688 0.267602 -0.059111 0.086102 -0.051618 -0.203353 -0.218874 -0.072400 -0.233211 0.052369 0.036401 0.126419 -0.086852 -0.207296 0.041301 0.074269 0.048900 0.082004 0.228936 -0.171657 0.069148 0.091903 -0.072901 -0.113460 0.100003 -0.001858 -0.158272 0.034421 -0.154835 -0.272076 0.049838 0.083427 0.172891 -0.080513 -0.215493 0.123002 -0.006573 -0.209385 -0.131872 -0.130779 -0.207462 0.048993 0.068883 0.082367 0.091006 -0.218631 0.070336 0.126431 0.033463 0.076958 0.033348 0.244671 -0.142649 0.294113 -0.093439 -0.143866 0.170925 -0.007121 -0.051935 0.281705 -0.092953 -0.012076 -0.186772 -0.057547 -0.023651 0.243900 -0.075611 -0.140478 0.074893 0.443433 0.165836 -0.109283 0.119626 -0.336107 0.206717 0.137731 -0.207344 0.203813 0.199042 -0.283494 -0.193564 -0.163097 0.150696 0.175019 0.080468 0.138534 0.205875 -0.013085 0.164856 0.031690 0.298806 0.173465 -0.064234 0.050692 0.059020 -0.029433 -0.004072 -0.008065 -0.044704 0.112892 0.002676 -0.112730 -0.236700 -0.209930 0.094732 0.132887 -0.176874
65 -0.009053 -0.179023 -0.004167 -0.152742 0.027197 -0.057659 0.036803 0.064178 0.193544 -0.019287 -0.217270 0.024695 0.056124 0.015384 0.043330 -0.128044 0.027433 0.131118 0.053062 0.175631 -0.065512 0.016081 0.135197 0.059158 -0.042277 0.056443 -0.046055 -0.097243 -0.088514 -0.018978 0.163476 0.075817 0.035390 -0.060362 -0.116040 0.084259 -0.073418 0.012524 0.005628 0.024884 0.006463 0.182928 0.058335 -0.153787 -0.021330 -0.042265 0.008684 -0.058545 0.141417 -0.053723 -0.254128 0.117990 0.101715 0.225756 -0.170786 -0.215530 0.041486 -0.141399 -0.056433 -0.169506 -0.097532 -0.260623 0.064524 0.079756 -0.037655 0.056021 -0.118192 -0.119686 -0.148423 -0.030367 0.050644 -0.021679 0.155464 -0.011469 0.128982 -0.058008 0.025939 -0.099459 -0.195932 -0.155857 0.176084 0.069595 -0.143971 -0.064887 0.098164 0.093306 0.013133 -0.026458 0.087037 -0.052812 0.275744 0.062409 -0.021731 0.263054 -0.056148 0.115046 0.062448 -0.203275 0.117036 0.060664 -0.108544 -0.166078 -0.111051 -0.080374 0.000795 0.010487 0.103720 0.217843 -0.027826 -0.065640 -0.034246 0.161027 0.051180 -0.079030 0.039486 -0.051733 -0.068391 0.245494 -0.036955 0.009866 -0.005568 0.024205 0.133643 0.045136 -0.104279 0.172174 -0.054890 -0.096474
195 -0.038608 -0.238883 0.006349 -0.256594 0.066200 -0.060168 -0.062331 0.018334 0.303012 -0.003026 -0.252761 0.026105 0.044731 0.061625 0.125145 -0.129816 -0.081052 0.115052 0.094725 0.187457 -0.049583 0.080397 0.181363 0.082458 -0.178142 0.144230 0.035294 -0.079160 -0.021029 0.106948 0.230596 0.081719 -0.035112 -0.063176 -0.142947 0.061390 -0.187465 0.024071 -0.065196 -0.037409 0.095541 0.262152 0.109858 -0.184504 -0.024134 -0.028730 -0.055386 -0.023674 0.126244 0.017321 -0.298262 0.149935 0.123891 0.259190 -0.314383 -0.243387 0.063698 -0.220985 -0.044866 -0.088234 -0.056747 -0.296163 0.063828 0.098915 -0.135477 0.060164 -0.099642 -0.221753 -0.262336 -0.063390 0.082588 -0.024000 0.201021 -0.027093 0.013331 -0.048262 0.084133 -0.199609 -0.272143 -0.209000 0.160684 0.092029 -0.224400 -0.002888 0.146627 0.147166 -0.083703 -0.029596 0.176570 -0.127423 0.277849 0.094967 -0.004606 0.292516 0.039272 0.144421 0.020434 -0.205534 0.081923 0.070491 -0.056908 -0.146071 -0.107545 -0.146537 0.017552 0.021100 0.094672 0.242161 -0.026209 -0.244187 -0.055490 0.107594 -0.032610 -0.144793 0.087629 -0.049161 -0.083445 0.376050 -0.088900 0.024481 -0.035541 0.034875 0.254504 0.158146 -0.060629 0.181891 -0.172028 -0.088320
110 -0.028451 -0.258811 0.038146 -0.346495 0.153300 -0.052839 -0.017934 -0.020653 0.390828 -0.033158 -0.311464 -0.017996 0.073307 0.087082 0.133105 -0.168427 -0.060653 0.130236 0.095947 0.234315 -0.093875 0.103283 0.174223 0.122706 -0.204049 0.154818 0.072959 -0.048177 -0.059319 0.095190 0.281023 0.111353 -0.017664 -0.053824 -0.129798 0.156668 -0.259900 0.004046 -0.025610 -0.112770 0.126301 0.342374 0.072569 -0.268873 0.033229 -0.091750 -0.026466 -0.009437 0.213691 -0.011035 -0.395302 0.179807 0.116581 0.327399 -0.336153 -0.301777 0.061176 -0.283292 -0.007938 -0.169157 -0.094218 -0.387714 0.081420 0.108318 -0.164868 0.050187 -0.112254 -0.267792 -0.401932 -0.086461 0.068524 -0.084286 0.206823 0.007527 0.071995 -0.051309 0.152029 -0.260111 -0.385394 -0.314715 0.191999 0.177420 -0.268650 -0.012038 0.196654 0.216005 -0.127349 -0.029334 0.262047 -0.168588 0.297738 0.054388 -0.006055 0.435152 0.074471 0.158404 0.015230 -0.228323 0.101823 0.076585 -0.031051 -0.204841 -0.122484 -0.274123 -0.023662 0.023518 0.151370 0.336643 -0.022739 -0.253692 -0.067692 0.129776 -0.040592 -0.169459 0.071671 -0.102994 -0.136174 0.458488 -0.053784 0.050692 -0.098644 0.029868 0.319352 0.205664 -0.053417 0.258941 -0.221259 -0.093087
22 0.124831 -0.239074 -0.000078 0.022059 -0.123749 -0.068549 0.204238 0.253749 -0.112823 0.082179 -0.275369 0.058847 0.206797 -0.163568 -0.105222 -0.235172 0.209623 0.164973 0.091908 0.311792 0.047251 -0.121752 0.295234 0.029791 0.036959 -0.043077 -0.207236 -0.310004 -0.174257 -0.281010 0.092469 0.109819 0.109877 -0.182896 -0.389528 -0.074480 0.126945 0.170949 0.014842 0.012919 -0.166392 -0.019819 0.047908 -0.039784 -0.003403 0.071389 -0.039365 0.073761 0.060766 -0.196118 -0.253443 0.066666 -0.054208 0.037356 -0.053618 -0.277196 0.150294 -0.008871 -0.180171 -0.071165 -0.166596 -0.258548 0.087700 0.124014 0.163483 0.153745 -0.320841 0.166780 0.182454 0.033926 0.115292 0.015004 0.215247 -0.075384 0.257397 -0.084520 -0.216436 0.200565 -0.031346 0.043636 0.256352 -0.186044 0.113157 -0.163912 -0.052442 -0.106479 0.261558 -0.086434 -0.108108 0.054930 0.481469 0.008951 -0.013731 0.123589 -0.352924 0.178002 0.291899 -0.341471 0.194694 0.208481 -0.302775 -0.273472 -0.043781 0.234032 0.201725 0.118969 0.039856 0.148047 0.005469 0.179379 -0.002521 0.333890 0.176775 -0.124324 0.111225 0.160593 -0.084711 -0.093316 -0.025420 -0.156372 0.057223 -0.035811 -0.093178 -0.244561 -0.147011 0.056074 0.160412 -0.310389
26 0.135301 -0.250851 0.032874 0.024853 -0.126494 -0.072376 0.192514 0.241294 -0.080283 0.089271 -0.270811 0.041755 0.199168 -0.192176 -0.085600 -0.251967 0.185090 0.157026 0.088484 0.302915 0.042049 -0.076119 0.312592 0.034047 0.005688 0.009454 -0.175056 -0.298459 -0.173476 -0.272146 0.114189 0.108711 0.097643 -0.184572 -0.373805 -0.086048 0.114622 0.149965 0.014090 0.014214 -0.160009 -0.019714 0.087376 -0.034861 -0.020200 0.075271 -0.064107 0.048525 0.027418 -0.146185 -0.276091 0.079372 -0.035567 0.021974 -0.109141 -0.299045 0.137929 -0.036550 -0.169517 -0.027553 -0.163558 -0.258839 0.063772 0.139745 0.145675 0.116223 -0.270865 0.124995 0.123902 0.005109 0.117708 0.008741 0.214945 -0.091330 0.221696 -0.072481 -0.196989 0.216895 -0.062988 0.031358 0.240219 -0.153912 0.109446 -0.165432 -0.040375 -0.052533 0.218823 -0.089949 -0.073730 0.075446 0.476630 0.027692 -0.011040 0.159653 -0.324647 0.192042 0.260971 -0.279095 0.184700 0.220829 -0.263167 -0.257145 -0.032654 0.195429 0.208527 0.133550 0.043202 0.139371 -0.010864 0.129581 -0.021825 0.334504 0.124121 -0.150411 0.115804 0.162728 -0.090879 -0.047631 -0.020048 -0.141844 0.021475 -0.028226 -0.068109 -0.238763 -0.111206 0.078901 0.133385 -0.285238
155 -0.032041 -0.219023 -0.025543 -0.137310 -0.020647 -0.088736 -0.069793 0.066470 0.225957 0.048886 -0.203540 0.068631 -0.003164 0.015564 0.112478 -0.121350 -0.066394 0.132764 0.032734 0.142238 -0.028013 0.022463 0.219834 -0.011663 -0.099612 0.066888 -0.032578 -0.097651 0.039723 0.060977 0.153892 0.028932 -0.005491 -0.061260 -0.144187 0.026818 -0.102297 0.022566 -0.040328 0.085777 0.035661 0.204003 0.148119 -0.118454 -0.093752 0.048672 -0.049062 -0.097349 0.067033 -0.008339 -0.277089 0.130198 0.141331 0.248832 -0.246886 -0.176219 0.091596 -0.141393 -0.071647 -0.063180 -0.021143 -0.218248 0.047985 0.048794 -0.105310 0.100448 -0.096353 -0.127397 -0.135202 -0.008746 0.099161 0.034424 0.199679 -0.060221 0.051919 -0.070279 0.006095 -0.082807 -0.146715 -0.156264 0.191398 0.016108 -0.168651 -0.015935 0.061952 0.088138 -0.017567 -0.059329 0.087371 -0.095709 0.265912 0.149478 -0.039889 0.158062 -0.061157 0.135178 0.004638 -0.181537 0.066169 0.085959 -0.120067 -0.095873 -0.154920 -0.037974 0.060696 0.005405 0.093092 0.209410 -0.013282 -0.198685 -0.028974 0.086859 -0.005705 -0.082679 0.093399 -0.011076 -0.011507 0.279123 -0.071774 0.009772 0.040224 0.034215 0.161772 0.062679 -0.093300 0.119272 -0.081892 -0.090251
57 0.065028 -0.271017 -0.030892 0.064244 -0.156981 -0.120863 0.117909 0.269380 -0.021970 0.099083 -0.248907 0.159054 0.056225 -0.136626 -0.114364 -0.258682 0.163506 0.247508 0.033238 0.171171 0.057672 -0.126469 0.309600 -0.095906 0.101286 -0.060343 -0.236031 -0.236855 -0.055154 -0.239785 0.040018 0.034851 0.131177 -0.095129 -0.219622 0.013202 0.108124 0.061549 0.079744 0.289816 -0.203213 0.041148 0.117483 -0.042465 -0.147485 0.137887 -0.001352 -0.193980 0.006457 -0.142418 -0.273258 0.036215 0.085258 0.160574 -0.073458 -0.206402 0.141359 0.030134 -0.241076 -0.093070 -0.134827 -0.176091 0.036554 0.078540 0.110762 0.088469 -0.229405 0.097022 0.187569 0.050158 0.100712 0.069593 0.273255 -0.190221 0.311616 -0.100490 -0.173943 0.229141 0.046178 -0.008286 0.290150 -0.127869 0.007631 -0.206453 -0.091428 -0.045092 0.287167 -0.084507 -0.185206 0.096547 0.470278 0.211661 -0.130773 0.067594 -0.394041 0.224498 0.148375 -0.203646 0.212947 0.220535 -0.316687 -0.184110 -0.178069 0.205633 0.220883 0.098990 0.138113 0.190112 -0.025807 0.186815 0.045309 0.306297 0.189906 -0.056433 0.049045 0.091826 -0.009290 -0.040728 -0.014217 -0.051148 0.158372 -0.000879 -0.154354 -0.294408 -0.237746 0.076999 0.177987 -0.188155
153 -0.030629 -0.217980 -0.009837 -0.268306 0.068216 -0.084274 -0.065496 0.007599 0.352647 -0.030119 -0.259653 0.043725 0.009351 0.051928 0.142085 -0.107092 -0.064120 0.130034 0.029599 0.154933 -0.084159 0.073745 0.151643 0.079749 -0.115465 0.055502 0.032279 -0.067916 -0.024828 0.081215 0.214312 0.080266 -0.003197 -0.056929 -0.101659 0.097365 -0.160964 0.005598 -0.024904 0.007908 0.065572 0.307266 0.058615 -0.180013 -0.051524 -0.076328 0.009865 -0.060548 0.186793 -0.014367 -0.293145 0.176632 0.187723 0.367133 -0.242302 -0.208716 0.029478 -0.200229 -0.036735 -0.163425 -0.070810 -0.305752 0.083355 0.050757 -0.139948 0.074537 -0.107425 -0.229736 -0.270295 -0.032786 0.110834 -0.016886 0.203401 0.011866 0.088019 -0.071609 0.084911 -0.258199 -0.259023 -0.248031 0.153636 0.135887 -0.260275 -0.004120 0.160922 0.145122 -0.078303 -0.014474 0.173885 -0.164304 0.263554 0.066078 -0.008632 0.309989 0.017731 0.105283 0.023903 -0.244505 0.093268 0.005829 -0.092823 -0.164230 -0.199985 -0.183624 -0.028606 -0.020628 0.130394 0.263846 0.005773 -0.235913 -0.049868 0.124281 0.026708 -0.093268 0.075665 -0.122767 -0.048885 0.402005 -0.061443 0.025640 -0.017065 0.026024 0.282847 0.156375 -0.111200 0.189617 -0.143486 -0.085224
68 -0.069967 -0.236090 0.005042 -0.329657 0.115446 -0.074680 -0.096704 -0.027943 0.406053 -0.022675 -0.276668 0.018568 0.017057 0.120430 0.183073 -0.111476 -0.135956 0.121320 0.069607 0.186036 -0.092629 0.101192 0.177343 0.089961 -0.212392 0.146694 0.063359 -0.035711 0.005563 0.154875 0.259837 0.073480 -0.043286 -0.038767 -0.100448 0.131239 -0.267132 -0.002632 -0.062462 -0.037035 0.159037 0.353973 0.104818 -0.257438 -0.020299 -0.056552 -0.030346 -0.048284 0.168177 0.031865 -0.344437 0.189080 0.163213 0.345925 -0.363960 -0.252755 0.063059 -0.278128 -0.015517 -0.140479 -0.041665 -0.339988 0.087019 0.088983 -0.202497 0.082399 -0.088630 -0.296258 -0.362975 -0.057677 0.089315 -0.044972 0.213132 -0.001633 0.007439 -0.060496 0.152869 -0.297853 -0.336372 -0.298175 0.176140 0.169788 -0.301451 0.017650 0.196721 0.197658 -0.154794 -0.033888 0.251560 -0.187672 0.262661 0.113993 -0.021826 0.365871 0.099128 0.150869 -0.039336 -0.212009 0.075583 0.045957 -0.037910 -0.148688 -0.153571 -0.231497 -0.037318 -0.014635 0.142225 0.307605 -0.019226 -0.315526 -0.067981 0.084580 -0.061727 -0.124207 0.090410 -0.116081 -0.073712 0.492920 -0.084130 0.059245 -0.047566 0.060314 0.334157 0.239894 -0.058389 0.230100 -0.237644 -0.068397
127 0.005816 -0.234537 -0.030460 -0.010514 -0.076382 -0.094523 0.030697 0.166640 0.051091 0.070226 -0.193352 0.104045 0.031285 -0.046634 -0.014244 -0.159937 0.068966 0.175611 0.042998 0.153368 0.041695 -0.065737 0.246405 -0.063584 0.015894 -0.005132 -0.137510 -0.157070 -0.016419 -0.092266 0.083691 0.023664 0.054811 -0.075821 -0.180346 0.011390 0.029383 0.057714 0.012510 0.178414 -0.073956 0.091908 0.114091 -0.076948 -0.100342 0.101608 -0.029531 -0.114432 0.017367 -0.087984 -0.232097 0.063545 0.081813 0.155371 -0.145400 -0.175091 0.129561 -0.029667 -0.156906 -0.075583 -0.073978 -0.170619 0.034210 0.070542 0.013771 0.097152 -0.170605 0.017741 0.073474 0.032503 0.082674 0.054529 0.204874 -0.124536 0.182609 -0.078722 -0.092557 0.100026 -0.033052 -0.057040 0.238850 -0.081001 -0.049729 -0.116366 -0.023979 -0.008577 0.140227 -0.063839 -0.055830 0.012259 0.343703 0.167496 -0.079489 0.078316 -0.211883 0.178347 0.074889 -0.178776 0.129164 0.165436 -0.208641 -0.127276 -0.120306 0.116848 0.140955 0.051877 0.099975 0.178789 -0.017276 0.025020 0.007719 0.171606 0.085921 -0.058664 0.070929 0.061241 -0.019054 0.067854 -0.036754 -0.040457 0.108954 0.012282 -0.021916 -0.121313 -0.154503 0.086484 0.056250 -0.131947
59 0.052652 -0.248122 -0.019401 0.009954 -0.106991 -0.094475 0.113245 0.220451 0.020619 0.076516 -0.239486 0.127939 0.063407 -0.107908 -0.083737 -0.225437 0.144784 0.221155 0.037371 0.188188 0.030316 -0.102562 0.262662 -0.061964 0.072039 -0.042867 -0.194772 -0.209740 -0.066159 -0.196621 0.066462 0.050689 0.112736 -0.095039 -0.207225 0.028340 0.070644 0.054440 0.063452 0.201901 -0.157897 0.071875 0.090788 -0.064976 -0.099227 0.097864 -0.004341 -0.152824 0.047895 -0.135786 -0.264785 0.053058 0.082546 0.173270 -0.073944 -0.201742 0.126897 -0.010659 -0.195928 -0.125019 -0.127113 -0.196917 0.044122 0.069067 0.087153 0.085536 -0.212244 0.059950 0.111627 0.030289 0.086782 0.038167 0.245040 -0.142492 0.279568 -0.092802 -0.136199 0.157200 -0.014490 -0.042008 0.267207 -0.090924 -0.023444 -0.164388 -0.058417 -0.024373 0.228906 -0.068431 -0.119695 0.060124 0.423730 0.156833 -0.095385 0.116857 -0.320116 0.186626 0.130728 -0.212633 0.189594 0.187454 -0.269419 -0.179915 -0.159707 0.138083 0.170188 0.072606 0.128433 0.202172 -0.017268 0.136016 0.028579 0.270030 0.165962 -0.062198 0.049663 0.065882 -0.035746 0.011719 -0.009205 -0.045104 0.105985 -0.005647 -0.085892 -0.217929 -0.205259 0.090904 0.128126 -0.167918
61 0.001335 -0.246007 -0.039961 -0.013800 -0.099508 -0.117948 0.003333 0.163535 0.090287 0.066637 -0.208173 0.130002 -0.005389 -0.044743 -0.015842 -0.171072 0.059529 0.195494 0.028180 0.123985 0.036006 -0.060426 0.240968 -0.084471 0.033603 -0.025317 -0.147518 -0.156351 0.006153 -0.075272 0.084381 0.006924 0.055299 -0.065146 -0.153567 0.017797 0.038673 0.033856 0.026759 0.231105 -0.089660 0.110235 0.132170 -0.057200 -0.144363 0.101895 -0.021432 -0.171277 0.014795 -0.075691 -0.237383 0.064365 0.130975 0.205697 -0.143747 -0.151897 0.110926 -0.028087 -0.170782 -0.073764 -0.072848 -0.169101 0.042147 0.056061 0.002757 0.076355 -0.151432 -0.006053 0.067851 0.031600 0.084034 0.076172 0.221123 -0.142103 0.180451 -0.084493 -0.090668 0.083277 -0.017305 -0.066441 0.237110 -0.074810 -0.087319 -0.120943 -0.033769 0.008283 0.149884 -0.064911 -0.072363 0.011169 0.341911 0.204834 -0.093455 0.060605 -0.223606 0.176419 0.062400 -0.172959 0.128872 0.139823 -0.223043 -0.123064 -0.168782 0.109204 0.137932 0.036792 0.102798 0.175309 -0.027565 0.008312 0.017106 0.179308 0.115409 -0.050231 0.053327 0.034885 0.000387 0.092557 -0.046667 -0.009188 0.136631 0.016139 -0.017338 -0.127247 -0.170691 0.092037 0.060506 -0.119461
62 0.061106 -0.224940 -0.044116 0.035633 -0.122353 -0.115731 0.093369 0.227168 0.037655 0.044635 -0.226395 0.146215 0.014747 -0.090987 -0.092917 -0.198135 0.154209 0.255791 -0.008343 0.137161 0.009258 -0.121747 0.224882 -0.085766 0.140923 -0.087710 -0.211831 -0.190720 -0.074657 -0.227454 0.029101 0.012297 0.141837 -0.057398 -0.136970 0.092463 0.081472 0.007087 0.104387 0.290908 -0.184413 0.092949 0.051103 -0.083089 -0.133885 0.072348 0.039937 -0.206583 0.058594 -0.173907 -0.254343 0.049376 0.132445 0.239768 -0.029871 -0.178294 0.088011 0.015467 -0.206469 -0.194522 -0.125106 -0.179343 0.057565 0.033171 0.058748 0.085045 -0.193044 0.054886 0.125112 0.045898 0.055116 0.035599 0.231288 -0.125907 0.320958 -0.107762 -0.119401 0.133186 0.006921 -0.070752 0.282000 -0.057417 -0.043285 -0.191907 -0.060827 -0.019806 0.249794 -0.054993 -0.150162 0.057282 0.411708 0.169562 -0.128542 0.116542 -0.328121 0.187315 0.110932 -0.196763 0.211066 0.159898 -0.277381 -0.169095 -0.201319 0.130055 0.131483 0.041399 0.169265 0.211836 -0.010568 0.182203 0.037623 0.290227 0.200661 -0.015655 0.027582 -0.005645 -0.013911 -0.001791 0.016625 -0.023822 0.146914 0.009153 -0.124356 -0.234808 -0.249355 0.103456 0.149950 -0.142597
28 -0.009288 -0.218432 -0.005566 -0.075790 -0.038668 -0.081788 -0.004404 0.106551 0.129234 0.052581 -0.190815 0.088565 0.018715 -0.019464 0.019363 -0.151318 0.012151 0.137865 0.051479 0.134247 0.020979 -0.003301 0.218105 -0.027918 -0.042172 0.036662 -0.074083 -0.112953 0.008145 -0.017200 0.119324 0.034104 0.027264 -0.061131 -0.145316 0.005574 -0.023055 0.042059 0.005570 0.115790 -0.035887 0.130902 0.120324 -0.072395 -0.090044 0.056484 -0.040329 -0.106177 0.036851 -0.040568 -0.241359 0.081478 0.100043 0.182263 -0.170429 -0.167717 0.089960 -0.078262 -0.117146 -0.047505 -0.056886 -0.183488 0.040484 0.066767 -0.025415 0.058119 -0.124881 -0.051051 -0.034223 -0.005675 0.084791 0.036666 0.186527 -0.107381 0.118023 -0.056708 -0.034847 0.017945 -0.096060 -0.091492 0.182845 -0.033969 -0.100725 -0.077160 0.013822 0.052950 0.064741 -0.047586 0.024042 -0.024481 0.291755 0.142825 -0.057520 0.116827 -0.132799 0.143058 0.050180 -0.150177 0.090006 0.122712 -0.153790 -0.110017 -0.132941 0.017071 0.109599 0.051879 0.092059 0.172981 -0.026003 -0.069406 -0.003219 0.125223 0.042608 -0.084758 0.059362 0.026018 -0.026380 0.156694 -0.046042 0.000323 0.064111 0.011609 0.069024 -0.046263 -0.121888 0.101090 -0.002237 -0.094134
56 0.024879 -0.205848 -0.018546 -0.046719 -0.062673 -0.076486 0.084694 0.149916 0.099826 0.035831 -0.214387 0.098234 0.036552 -0.076659 -0.033032 -0.189575 0.090372 0.179765 0.034209 0.145625 -0.016325 -0.043513 0.192965 -0.020245 0.043319 -0.008247 -0.136557 -0.157634 -0.079122 -0.108142 0.098255 0.063197 0.086264 -0.072770 -0.132121 0.043903 0.035304 0.028738 0.052942 0.158710 -0.121881 0.108496 0.076330 -0.066109 -0.085585 0.042001 0.014928 -0.146971 0.087173 -0.090936 -0.252890 0.070409 0.109664 0.209081 -0.087430 -0.189357 0.059751 -0.061905 -0.139148 -0.135668 -0.109436 -0.202519 0.035080 0.071376 0.055377 0.046146 -0.152469 -0.017946 0.009746 -0.007457 0.076718 0.024501 0.199812 -0.090992 0.222345 -0.077244 -0.075413 0.052717 -0.075482 -0.078815 0.206305 -0.012917 -0.079972 -0.127890 -0.007848 0.024388 0.144010 -0.045322 -0.044673 0.032262 0.356678 0.116349 -0.049913 0.168157 -0.223250 0.135602 0.099121 -0.189520 0.144841 0.109444 -0.201549 -0.166390 -0.170543 0.041421 0.095804 0.050055 0.114374 0.194146 -0.032397 0.059163 0.010736 0.234305 0.137125 -0.061225 0.025627 0.009512 -0.030491 0.105046 -0.018753 -0.006856 0.058954 -0.002709 0.003815 -0.114864 -0.174045 0.121435 0.077014 -0.116487
126 0.044097 -0.208443 -0.029638 -0.008899 -0.091805 -0.109634 0.075532 0.184461 0.046394 0.049025 -0.229747 0.119027 0.048921 -0.083900 -0.049170 -0.171962 0.133992 0.201873 0.002634 0.144138 0.030071 -0.081024 0.226356 -0.046063 0.081718 -0.106237 -0.165525 -0.183650 -0.063364 -0.173439 0.067633 0.049414 0.118456 -0.071466 -0.192836 0.034127 0.074153 0.068818 0.082454 0.193297 -0.142875 0.106269 0.044587 -0.064620 -0.105436 0.036987 0.045832 -0.123727 0.086271 -0.142780 -0.226111 0.075618 0.110802 0.234043 -0.038862 -0.155980 0.112903 0.008372 -0.182910 -0.149628 -0.132616 -0.183752 0.067522 0.031415 0.055424 0.111956 -0.223132 0.050298 0.104905 0.059088 0.118223 0.041216 0.220666 -0.095073 0.289355 -0.115731 -0.117136 0.074115 -0.009184 -0.058063 0.234205 -0.063048 -0.037626 -0.161784 -0.034060 -0.029010 0.197815 -0.045491 -0.076679 0.002651 0.366886 0.126035 -0.086139 0.113695 -0.292229 0.158178 0.117935 -0.238099 0.160942 0.134046 -0.270755 -0.185609 -0.189194 0.110709 0.127879 0.040792 0.127454 0.203980 0.010758 0.108011 0.022914 0.245198 0.184865 -0.021687 0.050003 0.012759 0.006271 0.039058 0.006652 -0.053508 0.136684 -0.021908 -0.030080 -0.186424 -0.220386 0.095416 0.119091 -0.168189
55 0.040758 -0.236494 -0.030237 0.028357 -0.125974 -0.097733 0.103173 0.207138 0.037870 0.073977 -0.208325 0.133264 0.032946 -0.129215 -0.068417 -0.224153 0.122098 0.208569 0.040259 0.145003 0.027339 -0.079591 0.245326 -0.075981 0.073219 -0.019849 -0.180902 -0.206321 -0.062942 -0.154274 0.075768 0.047582 0.100455 -0.083020 -0.162761 0.010947 0.090646 0.042917 0.060064 0.224840 -0.172652 0.061940 0.113729 -0.027031 -0.123603 0.101815 0.001768 -0.179583 0.032917 -0.102528 -0.259872 0.043645 0.106979 0.166150 -0.080368 -0.189136 0.087811 -0.026496 -0.178779 -0.089707 -0.104257 -0.179038 0.023845 0.072347 0.096727 0.046874 -0.165905 0.044041 0.098485 0.012415 0.076835 0.061511 0.226331 -0.136993 0.246065 -0.083543 -0.130846 0.158913 -0.007180 -0.026566 0.234151 -0.091405 -0.030630 -0.169655 -0.071876 -0.001495 0.210856 -0.069936 -0.126790 0.072433 0.404019 0.163993 -0.073730 0.086394 -0.302941 0.156702 0.113782 -0.182712 0.163903 0.158286 -0.246327 -0.168899 -0.170037 0.128377 0.158963 0.067305 0.108857 0.170200 -0.033043 0.101829 0.023780 0.269140 0.164631 -0.065581 0.031586 0.060460 -0.016624 0.019963 -0.030469 -0.019472 0.099666 -0.009192 -0.071470 -0.207558 -0.195364 0.087190 0.132511 -0.141558
252 0.047741 -0.227900 0.034788 -0.087696 -0.025253 -0.075452 0.047968 0.130414 0.090976 0.054639 -0.215637 0.041797 0.100500 -0.080578 0.011502 -0.191932 0.032567 0.115042 0.083863 0.169895 0.042948 0.025733 0.262254 0.033462 -0.101499 0.099012 -0.026050 -0.150758 -0.051290 -0.076689 0.140859 0.066445 0.006796 -0.108040 -0.223844 -0.029313 -0.041064 0.076037 -0.011890 -0.000299 -0.034376 0.098465 0.126686 -0.073311 -0.032420 0.053977 -0.066892 0.007950 0.028327 -0.028258 -0.256494 0.074941 0.026812 0.089350 -0.215886 -0.252767 0.102552 -0.119599 -0.094866 0.037460 -0.082159 -0.211034 0.040760 0.099029 -0.000134 0.042742 -0.147340 -0.036769 -0.066535 -0.026667 0.097510 -0.009829 0.204664 -0.094410 0.075149 -0.040348 -0.020649 0.043024 -0.133557 -0.074486 0.147369 -0.040475 -0.031380 -0.082761 0.025616 0.075496 0.062039 -0.071874 0.060357 -0.015068 0.318247 0.072873 -0.035970 0.165624 -0.118729 0.163427 0.110671 -0.156025 0.107055 0.168563 -0.119239 -0.152816 -0.027034 0.015879 0.138161 0.088164 0.074705 0.147642 -0.022805 -0.072345 -0.047861 0.174816 -0.001335 -0.160808 0.080932 0.083021 -0.071376 0.130234 -0.040676 -0.025716 -0.012219 0.007739 0.073357 -0.062724 -0.060547 0.100474 -0.020670 -0.143809
77 0.153903 -0.232328 0.048948 -0.037660 -0.099029 -0.038168 0.206605 0.217218 -0.082646 0.081545 -0.289993 -0.004075 0.263515 -0.202085 -0.053903 -0.241311 0.174812 0.095743 0.128451 0.350551 0.031971 -0.042325 0.308531 0.117059 -0.062521 0.029061 -0.112676 -0.318830 -0.214666 -0.244127 0.159898 0.159809 0.058842 -0.222035 -0.454717 -0.150837 0.103800 0.215746 -0.037546 -0.156292 -0.134103 -0.022285 0.063394 -0.019128 0.049333 0.017034 -0.077419 0.207624 0.063158 -0.137553 -0.271368 0.100535 -0.094179 -0.023472 -0.122204 -0.324865 0.122568 -0.083378 -0.122808 0.035241 -0.173380 -0.303551 0.089299 0.165561 0.149094 0.136196 -0.305820 0.132672 0.079611 -0.016853 0.155042 -0.019474 0.201998 -0.021752 0.147520 -0.061535 -0.196747 0.142920 -0.116670 0.050360 0.183488 -0.175945 0.126904 -0.122436 -0.004650 -0.067941 0.171345 -0.079737 -0.013089 0.024835 0.460894 -0.090771 0.064507 0.181539 -0.271932 0.151384 0.335904 -0.357431 0.144326 0.194716 -0.245265 -0.312382 0.018665 0.179977 0.199969 0.146182 -0.022430 0.102669 -0.000872 0.055172 -0.050389 0.332305 0.105129 -0.207110 0.152802 0.187097 -0.116912 -0.033160 -0.054587 -0.183252 -0.049767 -0.043588 0.023019 -0.167647 -0.056217 0.057344 0.097664 -0.342414
112 0.062863 -0.248630 0.017453 -0.080030 -0.063581 -0.105940 0.040955 0.154813 0.114322 0.057346 -0.250268 0.093167 0.059638 -0.111489 -0.015934 -0.179978 0.073578 0.144084 0.042948 0.150983 0.054221 0.006656 0.264349 0.033617 -0.031581 -0.017031 -0.044899 -0.161975 -0.042909 -0.103729 0.128502 0.059182 0.043132 -0.104804 -0.206225 -0.033694 0.021362 0.089745 0.024781 0.080662 -0.112656 0.130765 0.068761 -0.024477 -0.097228 0.000616 -0.011825 -0.041055 0.052846 -0.067207 -0.238768 0.088802 0.109831 0.200406 -0.128727 -0.181633 0.091033 -0.050124 -0.148476 -0.025033 -0.127201 -0.195852 0.048502 0.062895 -0.003995 0.050256 -0.180262 -0.000411 0.022890 0.018929 0.167392 0.015425 0.219987 -0.096143 0.159457 -0.065154 -0.070348 0.012998 -0.065882 -0.084849 0.140068 -0.057513 -0.049097 -0.115243 0.028957 0.042902 0.124781 -0.031713 -0.019508 -0.011691 0.331368 0.068525 -0.045615 0.135551 -0.212439 0.147300 0.137729 -0.192489 0.130463 0.138102 -0.205736 -0.185781 -0.159120 0.042905 0.159948 0.082654 0.092640 0.133241 0.020746 -0.029585 0.007200 0.190507 0.102723 -0.115328 0.095842 0.015113 -0.015692 0.124979 -0.031649 -0.055615 0.048140 -0.023577 0.088784 -0.112388 -0.152104 0.079910 0.028699 -0.146034
69 -0.087691 -0.334940 -0.062446 -0.267966 0.033292 -0.137947 -0.208260 0.024511 0.386204 0.061640 -0.244239 0.126061 -0.069701 0.097010 0.187481 -0.084423 -0.188107 0.146225 0.085208 0.093823 0.039619 0.096573 0.258284 -0.028429 -0.226154 0.112834 0.059299 -0.046472 0.137769 0.238242 0.237130 0.048091 -0.113155 -0.055177 -0.106530 0.003049 -0.196676 0.055000 -0.121911 0.121687 0.094981 0.343082 0.208911 -0.122427 -0.179033 0.068956 -0.071548 -0.112949 0.050208 0.074197 -0.288646 0.160534 0.239848 0.339234 -0.383595 -0.160179 0.132566 -0.210543 -0.101484 0.026184 0.003200 -0.208548 0.006433 0.043718 -0.237707 0.063285 -0.065598 -0.231192 -0.221632 -0.022322 0.175337 0.070828 0.292946 -0.114484 -0.049924 -0.101174 0.100221 -0.246037 -0.189562 -0.217374 0.158319 0.033274 -0.307909 0.034172 0.108328 0.161657 -0.100004 -0.031133 0.152417 -0.191174 0.253132 0.211538 -0.045868 0.152835 0.047252 0.152483 -0.079634 -0.184254 0.040031 0.045742 -0.088450 -0.091909 -0.230634 -0.115670 0.099361 -0.003136 0.113164 0.233904 0.007074 -0.410882 -0.037507 0.011170 -0.037368 -0.120001 0.127181 -0.041116 0.006217 0.429377 -0.133529 0.061174 0.059678 0.016701 0.326156 0.194267 -0.097164 0.101597 -0.201926 -0.057463
174 -0.043576 -0.214689 0.005243 -0.329154 0.107341 -0.062433 -0.061023 -0.021406 0.414641 -0.073306 -0.297222 0.009041 0.036856 0.097643 0.166871 -0.118673 -0.087879 0.120189 0.051252 0.190808 -0.129395 0.105383 0.142266 0.134868 -0.155426 0.117643 0.047521 -0.060328 -0.079844 0.114062 0.257209 0.098755 -0.022990 -0.048147 -0.096760 0.146502 -0.228225 -0.018872 -0.045705 -0.054679 0.116394 0.335142 0.052219 -0.247989 -0.008218 -0.111244 0.004422 -0.033071 0.225440 0.001787 -0.328735 0.195431 0.169231 0.380428 -0.317115 -0.273329 0.005040 -0.257977 -0.007233 -0.202276 -0.084841 -0.379024 0.112144 0.093797 -0.170744 0.060907 -0.112827 -0.308114 -0.367587 -0.068408 0.086474 -0.054010 0.194258 0.043481 0.058290 -0.060270 0.134081 -0.320712 -0.351637 -0.293178 0.145519 0.188591 -0.309818 -0.000872 0.220618 0.180605 -0.124987 -0.013139 0.225732 -0.183964 0.283649 0.057744 0.003818 0.402260 0.082234 0.131784 0.025269 -0.263375 0.100150 0.009091 -0.053913 -0.190845 -0.168179 -0.238359 -0.071458 -0.028372 0.138883 0.295244 -0.023544 -0.264291 -0.082715 0.150965 0.003418 -0.130882 0.077373 -0.161494 -0.096832 0.480828 -0.088995 0.031472 -0.042595 0.051607 0.331923 0.227970 -0.088844 0.242934 -0.194819 -0.086838
201 -0.036753 -0.360692 -0.072211 -0.253812 0.015686 -0.144438 -0.217772 0.049949 0.355320 0.053555 -0.260492 0.155286 -0.069840 0.035717 0.111828 -0.097334 -0.122416 0.151101 0.086906 0.077185 0.079570 0.098994 0.241447 -0.004083 -0.169398 0.018373 0.058125 -0.077145 0.136344 0.215941 0.226262 0.061660 -0.105165 -0.095737 -0.134446 -0.069531 -0.118440 0.092780 -0.095700 0.117597 -0.001830 0.317160 0.129867 -0.004182 -0.214014 0.024640 -0.054523 -0.094500 0.057206 0.047431 -0.215731 0.127557 0.242850 0.352748 -0.274930 -0.107038 0.099328 -0.120341 -0.160423 0.037523 -0.042144 -0.176538 0.020275 0.020491 -0.188723 0.014334 -0.091313 -0.155912 -0.113885 0.003437 0.195501 0.095147 0.281434 -0.131431 -0.024711 -0.108226 0.034841 -0.240105 -0.138835 -0.156992 0.084237 -0.030045 -0.298186 0.022728 0.087334 0.110775 -0.028743 0.010252 0.048715 -0.171012 0.249745 0.139955 -0.011443 0.070200 -0.031317 0.107884 0.025872 -0.221056 0.048843 0.021398 -0.133745 -0.136907 -0.281165 -0.074369 0.142137 0.015363 0.072139 0.158634 0.050882 -0.340364 -0.006747 0.019113 0.062807 -0.143888 0.127362 -0.041097 0.004455 0.342788 -0.129022 0.032601 0.100386 -0.035675 0.302552 0.122468 -0.160027 0.042685 -0.149374 -0.074268
159 0.076680 -0.225581 0.013572 -0.026017 -0.090050 -0.079106 0.094535 0.179269 0.057694 0.070570 -0.231054 0.085851 0.087275 -0.145319 -0.045526 -0.203797 0.112992 0.143821 0.056909 0.175605 0.037080 -0.015834 0.254858 0.016457 0.003450 -0.004625 -0.078867 -0.189583 -0.084713 -0.142882 0.115930 0.078306 0.069616 -0.113878 -0.226871 -0.049996 0.067683 0.089265 0.031821 0.066109 -0.143634 0.072363 0.074159 -0.008050 -0.079403 0.026053 -0.021032 -0.040132 0.047548 -0.089487 -0.241883 0.070862 0.075643 0.147633 -0.088051 -0.202351 0.076938 -0.036161 -0.143162 -0.036332 -0.128392 -0.192051 0.037477 0.072961 0.056899 0.044304 -0.182827 0.045599 0.052301 0.000335 0.136568 0.014428 0.199850 -0.088538 0.187584 -0.064614 -0.116642 0.091423 -0.058109 -0.046568 0.154761 -0.086520 -0.008002 -0.131160 -0.012600 0.021315 0.151691 -0.046599 -0.043773 0.036741 0.361212 0.046068 -0.021165 0.138441 -0.245751 0.126850 0.160271 -0.197867 0.128226 0.143983 -0.217638 -0.202708 -0.138734 0.069511 0.162217 0.093860 0.065040 0.122326 -0.003656 0.020802 0.004028 0.224757 0.113443 -0.113467 0.077245 0.049862 -0.035086 0.060840 -0.026792 -0.059129 0.032319 -0.036322 0.038801 -0.145972 -0.145508 0.069339 0.074778 -0.158772
242 0.136685 -0.259135 0.048250 0.024910 -0.144055 -0.093532 0.137228 0.238734 -0.035739 0.099801 -0.276511 0.077580 0.155445 -0.202852 -0.082364 -0.262814 0.147888 0.159872 0.067040 0.219678 0.080711 -0.045396 0.344076 0.025744 0.001030 -0.002211 -0.119624 -0.263327 -0.119795 -0.258652 0.104216 0.072781 0.087625 -0.148762 -0.322484 -0.081235 0.098160 0.127734 0.033592 0.080958 -0.183146 0.015442 0.094787 -0.011342 -0.070581 0.063645 -0.051208 0.008097 -0.011665 -0.108318 -0.275755 0.054251 0.017331 0.063961 -0.125025 -0.261418 0.111409 -0.032941 -0.179197 0.042397 -0.162124 -0.210453 0.062926 0.118673 0.094471 0.083740 -0.241033 0.105449 0.117204 0.001302 0.164447 0.002234 0.239871 -0.124633 0.186549 -0.065746 -0.166621 0.185411 -0.026947 0.011410 0.192287 -0.141460 0.082985 -0.183342 -0.055712 -0.021336 0.221809 -0.081536 -0.091175 0.062596 0.449721 0.060892 -0.049682 0.110280 -0.330805 0.204190 0.221006 -0.219988 0.172841 0.233391 -0.261701 -0.242838 -0.070530 0.176202 0.243582 0.139034 0.068475 0.106835 -0.012727 0.083818 -0.007483 0.330542 0.125364 -0.157261 0.115735 0.122246 -0.050849 -0.021854 -0.030210 -0.105373 0.048765 -0.015399 -0.053722 -0.256129 -0.123034 0.060788 0.132275 -0.258047
4 -0.053311 -0.236304 -0.055644 -0.050324 -0.074275 -0.136768 -0.092001 0.117427 0.146824 0.065731 -0.171625 0.125998 -0.035188 0.012593 0.056951 -0.126825 -0.032248 0.165655 0.036685 0.084349 0.052572 -0.024725 0.235425 -0.098466 -0.031558 0.018162 -0.099497 -0.107199 0.074781 0.037704 0.116470 -0.001614 -0.004603 -0.034411 -0.127584 0.004728 -0.010162 0.043016 -0.015004 0.241353 -0.014450 0.144840 0.169792 -0.061970 -0.165022 0.103743 -0.034928 -0.177408 -0.012183 -0.011744 -0.209105 0.077311 0.155920 0.209590 -0.216063 -0.121977 0.125429 -0.063605 -0.146034 -0.008806 -0.014112 -0.143183 0.026227 0.046875 -0.058449 0.075205 -0.115759 -0.067244 -0.001580 0.027174 0.097377 0.097355 0.228586 -0.152294 0.074614 -0.083381 -0.034576 0.004783 -0.031133 -0.080888 0.209127 -0.064253 -0.140317 -0.073717 -0.009097 0.037405 0.069771 -0.056894 -0.002250 -0.049101 0.278131 0.253502 -0.092431 0.028786 -0.132569 0.173502 -0.021729 -0.145751 0.082029 0.117960 -0.178166 -0.078625 -0.147741 0.081932 0.110694 0.010819 0.090751 0.169841 -0.033839 -0.116474 -0.003334 0.102044 0.054801 -0.039292 0.062785 0.027835 0.019939 0.175307 -0.088850 0.010591 0.152148 0.018662 0.054570 -0.039162 -0.141224 0.085069 -0.000438 -0.094939
161 0.034060 -0.264352 0.054911 -0.038495 -0.123565 -0.139978 0.015289 0.186827 0.093962 0.118607 -0.253448 0.160293 0.030178 -0.151054 -0.047261 -0.268040 0.014871 0.171472 0.058581 0.034907 0.137252 0.011376 0.378063 -0.042053 -0.071262 0.021914 -0.050943 -0.160649 0.048724 -0.076776 0.106428 0.029865 0.036453 -0.055058 -0.190810 -0.044714 -0.004723 0.079601 0.049351 0.222268 -0.156392 0.107284 0.166930 0.001626 -0.169649 0.111852 -0.031149 -0.162309 -0.042727 0.022742 -0.262197 0.018997 0.109431 0.153437 -0.188974 -0.167840 0.094859 -0.050662 -0.202738 0.166275 -0.085602 -0.124973 0.013508 0.098370 0.009144 0.003553 -0.157740 -0.023341 0.048166 0.012027 0.205459 0.040892 0.315535 -0.226240 0.120806 -0.060624 -0.064888 0.090590 0.028556 -0.055590 0.110055 -0.086678 -0.054048 -0.185689 -0.066651 0.064449 0.150639 -0.066909 -0.049807 0.010849 0.361590 0.231331 -0.127273 0.033992 -0.281631 0.216573 0.061530 -0.073678 0.117705 0.231358 -0.227283 -0.153817 -0.153548 0.087187 0.271215 0.151759 0.126336 0.109876 -0.043968 -0.024522 0.001580 0.212008 0.091188 -0.134370 0.054174 0.073241 0.032835 0.099174 -0.048092 0.016877 0.097278 0.000284 0.010065 -0.227704 -0.165786 0.068941 0.080605 -0.144959
129 -0.011985 -0.244824 -0.041196 -0.018216 -0.089955 -0.134358 -0.042769 0.146976 0.110359 0.070888 -0.196564 0.136094 -0.022319 -0.027263 0.011138 -0.149162 0.029027 0.182745 0.017165 0.094405 0.057593 -0.045907 0.243724 -0.091307 0.023253 -0.037364 -0.132400 -0.139250 0.036947 -0.043601 0.087275 0.000125 0.046473 -0.048163 -0.147116 0.002583 0.030730 0.050908 0.017126 0.254000 -0.069725 0.134862 0.126114 -0.054844 -0.157619 0.093062 -0.012690 -0.173215 0.003923 -0.061728 -0.221932 0.077296 0.145356 0.225131 -0.148559 -0.122536 0.130224 -0.015689 -0.177861 -0.061163 -0.059869 -0.142238 0.040396 0.035643 -0.024654 0.089426 -0.151375 -0.016632 0.067011 0.045193 0.107359 0.083852 0.221634 -0.144127 0.156960 -0.097236 -0.082309 0.054735 -0.006444 -0.070929 0.224124 -0.067735 -0.096814 -0.103169 -0.027699 0.006139 0.124541 -0.053161 -0.062958 -0.017234 0.310436 0.220163 -0.098798 0.035874 -0.211403 0.175442 0.033075 -0.163060 0.111544 0.134969 -0.215232 -0.108503 -0.180923 0.108702 0.141734 0.023838 0.110372 0.170110 -0.011248 -0.025634 0.020318 0.147028 0.095445 -0.029363 0.069254 0.023083 0.031363 0.112153 -0.040716 -0.018644 0.167362 0.010292 0.011527 -0.104970 -0.175539 0.083801 0.048081 -0.122371
209 -0.114242 -0.366520 -0.084319 -0.227544 -0.003024 -0.163264 -0.246172 0.063324 0.369290 0.095450 -0.210226 0.168411 -0.094600 0.078067 0.194762 -0.055238 -0.215811 0.130689 0.104772 0.041739 0.126998 0.119240 0.302595 -0.058455 -0.235669 0.156514 0.075813 -0.035534 0.172824 0.277864 0.243663 0.045975 -0.162250 -0.077503 -0.095125 -0.081469 -0.158826 0.074691 -0.152765 0.183337 0.076939 0.313439 0.269091 -0.053382 -0.230018 0.131791 -0.098246 -0.101988 -0.053555 0.139702 -0.228157 0.152224 0.272002 0.285783 -0.430671 -0.128641 0.157589 -0.187970 -0.124482 0.130867 0.010751 -0.125487 -0.051630 0.058787 -0.252536 0.030281 -0.031773 -0.222673 -0.133862 -0.008197 0.218812 0.119255 0.299834 -0.171069 -0.100983 -0.101783 0.075258 -0.181312 -0.134917 -0.158180 0.122118 -0.037266 -0.289294 0.016579 0.084829 0.161164 -0.075905 -0.029825 0.132552 -0.159331 0.252946 0.262702 -0.049566 0.064580 0.073173 0.144789 -0.103481 -0.127261 0.018940 0.065437 -0.085886 -0.043539 -0.209927 -0.049084 0.159445 0.003987 0.099805 0.171155 0.002844 -0.457635 -0.041390 -0.034331 -0.061765 -0.106357 0.137165 0.005215 0.033885 0.399791 -0.151709 0.060133 0.096651 -0.004486 0.328815 0.174884 -0.093307 0.053172 -0.193511 -0.030878
198 -0.021053 -0.227844 0.004178 -0.314883 0.100564 -0.071010 -0.058277 -0.007922 0.383121 -0.051145 -0.297532 0.016556 0.038306 0.076969 0.134850 -0.125027 -0.058183 0.128092 0.051365 0.184850 -0.100603 0.096757 0.143651 0.118684 -0.142999 0.078195 0.051009 -0.070262 -0.058790 0.093015 0.248211 0.101161 -0.007619 -0.050975 -0.111807 0.123675 -0.192615 0.004607 -0.026520 -0.048116 0.082900 0.322099 0.033713 -0.214754 -0.012559 -0.114553 0.015129 -0.034576 0.219481 -0.017044 -0.316315 0.183612 0.165391 0.373633 -0.263152 -0.240098 0.026001 -0.219864 -0.035366 -0.185041 -0.093816 -0.350904 0.105165 0.070531 -0.152609 0.055630 -0.120984 -0.249030 -0.324894 -0.052223 0.102261 -0.047435 0.197745 0.026059 0.088631 -0.065979 0.116271 -0.303327 -0.319894 -0.272811 0.144575 0.163266 -0.284882 -0.007704 0.192473 0.170157 -0.095815 -0.006059 0.195617 -0.177075 0.275166 0.036026 0.004977 0.367987 0.041603 0.121221 0.047262 -0.264722 0.096236 0.015916 -0.073565 -0.200970 -0.181597 -0.226944 -0.043892 -0.010511 0.136848 0.284377 -0.003410 -0.235195 -0.062141 0.138621 0.026922 -0.126050 0.072515 -0.136144 -0.082602 0.435290 -0.066369 0.031964 -0.036614 0.028356 0.310304 0.186748 -0.106920 0.222802 -0.172942 -0.098085
154 -0.012021 -0.179673 0.019568 -0.314796 0.105042 -0.052973 -0.009924 -0.006628 0.374775 -0.069836 -0.283194 -0.008355 0.057298 0.061377 0.138079 -0.120912 -0.044198 0.115737 0.028236 0.195926 -0.149984 0.084703 0.121449 0.145687 -0.118753 0.072660 0.028381 -0.077203 -0.103903 0.061372 0.233133 0.101948 0.014941 -0.054635 -0.114844 0.146172 -0.183698 -0.011985 -0.010675 -0.077809 0.089047 0.293713 0.001481 -0.233381 0.028880 -0.130421 0.021392 -0.024964 0.232547 -0.025855 -0.325598 0.186497 0.150423 0.363874 -0.249598 -0.260357 -0.010409 -0.239970 -0.004884 -0.228439 -0.094499 -0.375867 0.122135 0.094435 -0.124450 0.069755 -0.116959 -0.266756 -0.338890 -0.065529 0.086796 -0.067904 0.168652 0.072387 0.106505 -0.057649 0.093014 -0.289735 -0.343344 -0.282992 0.142228 0.194192 -0.274990 -0.017079 0.194254 0.152973 -0.102888 -0.007111 0.210485 -0.171708 0.287330 0.011652 0.026765 0.408949 0.040631 0.107120 0.051885 -0.271607 0.113213 0.002853 -0.069955 -0.205357 -0.170571 -0.226931 -0.073709 -0.028545 0.133801 0.286447 -0.015928 -0.210385 -0.065992 0.172367 0.022791 -0.107016 0.064157 -0.167773 -0.086037 0.437948 -0.057400 0.024450 -0.054818 0.032663 0.297544 0.176700 -0.083512 0.246718 -0.163738 -0.099162
237 -0.003126 -0.282094 0.026301 -0.044026 -0.124136 -0.156295 -0.020367 0.190604 0.118723 0.134244 -0.236686 0.189638 -0.002660 -0.124052 -0.013407 -0.248547 -0.020267 0.180839 0.064871 0.012359 0.155888 0.013184 0.384689 -0.076876 -0.083810 0.045966 -0.051459 -0.148091 0.089092 -0.037780 0.114900 0.032263 0.013150 -0.047435 -0.168814 -0.058150 -0.009961 0.076743 0.035486 0.272629 -0.133998 0.131551 0.207097 -0.001775 -0.206095 0.142761 -0.028631 -0.190741 -0.072150 0.056711 -0.254893 0.027224 0.129345 0.164785 -0.234987 -0.151655 0.129147 -0.055122 -0.212864 0.177289 -0.061502 -0.100705 -0.005888 0.098365 -0.013216 0.011429 -0.141449 -0.053128 0.059030 0.021686 0.216682 0.071094 0.341747 -0.253713 0.090514 -0.065751 -0.042832 0.089470 0.040802 -0.050674 0.117181 -0.098753 -0.091584 -0.177335 -0.074905 0.066277 0.142319 -0.081798 -0.046011 -0.001769 0.353449 0.288216 -0.136215 0.002497 -0.254515 0.227422 0.010821 -0.065265 0.104652 0.232268 -0.222385 -0.128423 -0.160879 0.096743 0.280136 0.137071 0.126566 0.114348 -0.048141 -0.064608 0.004764 0.184726 0.077528 -0.120730 0.055110 0.084941 0.055079 0.122680 -0.064767 0.032847 0.130804 0.012960 0.023819 -0.204082 -0.182939 0.066378 0.061061 -0.130533
261 -0.031406 -0.224058 0.013510 -0.294492 0.099535 -0.070540 -0.037443 0.010828 0.357487 -0.051758 -0.274728 -0.003554 0.057921 0.059974 0.147949 -0.129480 -0.071018 0.107035 0.069706 0.175303 -0.084297 0.118705 0.161405 0.140828 -0.162725 0.155462 0.062231 -0.065302 -0.083589 0.074121 0.260235 0.100773 -0.037108 -0.076037 -0.101546 0.099052 -0.199759 -0.001536 -0.047294 -0.060832 0.103392 0.293461 0.078189 -0.223811 -0.006489 -0.092227 -0.006535 -0.003332 0.163688 0.020085 -0.315693 0.179895 0.151244 0.302298 -0.329386 -0.286519 0.024895 -0.248038 -0.008636 -0.140332 -0.090409 -0.341033 0.089762 0.112008 -0.147962 0.033041 -0.101506 -0.283309 -0.322445 -0.075939 0.097968 -0.054850 0.182840 0.016541 0.052070 -0.029902 0.119488 -0.255790 -0.338764 -0.264169 0.135916 0.158823 -0.251580 -0.022882 0.200988 0.190503 -0.103703 -0.018193 0.218622 -0.144048 0.287484 0.052326 -0.000955 0.384641 0.080620 0.139507 0.038587 -0.216163 0.106970 0.042372 -0.035103 -0.179227 -0.104163 -0.210100 -0.043371 -0.002775 0.135099 0.255669 -0.033005 -0.253254 -0.086320 0.144069 -0.025693 -0.141426 0.075384 -0.108906 -0.104828 0.445397 -0.081134 0.030748 -0.062028 0.051379 0.300229 0.190138 -0.063323 0.229389 -0.185286 -0.081988
199 -0.047877 -0.234000 0.008128 -0.324574 0.107818 -0.073891 -0.037476 -0.008271 0.403765 -0.066042 -0.306496 0.013346 0.036378 0.080630 0.128696 -0.119884 -0.041759 0.122585 0.072624 0.195869 -0.106338 0.116176 0.130910 0.144028 -0.136751 0.087087 0.055213 -0.063045 -0.095298 0.103125 0.279951 0.110864 -0.011504 -0.056938 -0.095815 0.140491 -0.187427 -0.004105 -0.017972 -0.043768 0.092034 0.350212 0.035703 -0.231778 -0.017617 -0.143370 0.024516 -0.045099 0.230714 -0.016819 -0.322951 0.194173 0.184913 0.397317 -0.276319 -0.266353 0.011752 -0.236582 -0.029462 -0.222598 -0.116950 -0.371439 0.108858 0.095779 -0.154779 0.031625 -0.115380 -0.281274 -0.335576 -0.060225 0.099191 -0.051986 0.189362 0.037116 0.104723 -0.062803 0.124085 -0.307765 -0.350504 -0.297667 0.143153 0.175527 -0.291779 -0.039347 0.220311 0.197501 -0.110065 0.009758 0.217355 -0.151865 0.287936 0.038256 -0.004560 0.418358 0.052100 0.114689 0.041163 -0.260870 0.110382 0.009259 -0.073753 -0.214341 -0.190028 -0.250575 -0.068243 -0.013159 0.137672 0.292437 -0.019878 -0.233642 -0.062618 0.139259 0.031640 -0.116276 0.070590 -0.164831 -0.088026 0.482658 -0.074915 0.042856 -0.042586 0.023562 0.346325 0.206516 -0.106556 0.258171 -0.188317 -0.071915
218 -0.013125 -0.268659 0.017869 -0.143296 -0.000194 -0.085978 -0.017963 0.110415 0.178685 0.066868 -0.193621 0.075451 0.060338 -0.062663 0.067546 -0.147691 -0.046182 0.090736 0.102603 0.127323 0.086338 0.088131 0.263312 0.061793 -0.155089 0.170090 0.044512 -0.099304 -0.005836 0.001064 0.199888 0.092522 -0.035433 -0.120216 -0.161560 -0.067839 -0.087275 0.079625 -0.040214 0.028039 -0.010677 0.185723 0.161178 -0.063176 -0.068054 0.056910 -0.073919 -0.002071 0.016747 0.063298 -0.230178 0.110182 0.128416 0.145778 -0.289525 -0.221080 0.091206 -0.157397 -0.080124 0.065350 -0.088998 -0.170296 -0.021237 0.100093 -0.078213 0.020833 -0.096270 -0.132888 -0.086400 -0.039540 0.157190 0.004434 0.215616 -0.129617 0.052400 -0.040106 0.034784 -0.030782 -0.164109 -0.118437 0.115831 -0.010844 -0.090720 -0.076131 0.071399 0.126576 0.012648 -0.047517 0.119808 -0.033277 0.309772 0.108283 -0.027306 0.182095 -0.036515 0.146094 0.037184 -0.108857 0.083357 0.132666 -0.082450 -0.118473 -0.072894 -0.045057 0.144362 0.087571 0.100366 0.144354 -0.021309 -0.202374 -0.025921 0.116873 -0.033995 -0.147272 0.103848 0.058005 -0.060826 0.245644 -0.059269 0.003558 -0.029968 -0.002369 0.189576 0.013364 -0.074886 0.110470 -0.079793 -0.068351
219 0.005348 -0.257824 -0.031393 -0.071708 -0.056186 -0.107577 -0.034601 0.126728 0.138245 0.061780 -0.201696 0.113251 0.001326 -0.036498 0.019711 -0.153056 0.007134 0.158644 0.044763 0.121379 0.049794 -0.010001 0.243140 -0.040344 -0.038895 0.015561 -0.066989 -0.131270 0.031798 -0.019861 0.123755 0.029144 0.010779 -0.081989 -0.159415 -0.024308 -0.006742 0.065391 -0.004817 0.160841 -0.054667 0.140728 0.123062 -0.044594 -0.124034 0.076658 -0.037631 -0.111880 0.019699 -0.028527 -0.223848 0.080253 0.125626 0.196980 -0.183024 -0.148229 0.103029 -0.059225 -0.145318 -0.022343 -0.065236 -0.164692 0.027773 0.052929 -0.042119 0.062532 -0.132571 -0.036855 0.008441 0.012343 0.109542 0.058697 0.221007 -0.136297 0.113220 -0.073482 -0.047970 0.010718 -0.061906 -0.084527 0.175795 -0.056687 -0.105563 -0.080232 -0.001001 0.039096 0.090093 -0.045840 -0.019286 -0.033144 0.309340 0.165652 -0.055111 0.075867 -0.155301 0.161493 0.059577 -0.166827 0.099207 0.121164 -0.177506 -0.119955 -0.162371 0.051504 0.142125 0.040412 0.091564 0.156259 -0.007629 -0.084186 0.009008 0.129647 0.067618 -0.082616 0.081913 0.030406 -0.014085 0.148311 -0.053846 -0.010326 0.100497 0.004115 0.064839 -0.058010 -0.144663 0.080597 0.003298 -0.109317
171 -0.083685 -0.323209 -0.042841 -0.162092 -0.056676 -0.151141 -0.174958 0.096037 0.267925 0.112533 -0.201208 0.171739 -0.059278 0.021710 0.117463 -0.128690 -0.156926 0.143331 0.102528 0.029051 0.131552 0.072052 0.324683 -0.075667 -0.187450 0.116389 0.015911 -0.077760 0.160232 0.187468 0.195918 0.036460 -0.102458 -0.060408 -0.133182 -0.067058 -0.119905 0.076756 -0.102649 0.208653 0.007056 0.225920 0.244999 -0.039996 -0.219888 0.146429 -0.087991 -0.142652 -0.059769 0.114663 -0.225249 0.091576 0.203583 0.228646 -0.354455 -0.129145 0.142310 -0.142519 -0.154763 0.172684 0.003027 -0.116554 -0.020653 0.083047 -0.152934 0.019607 -0.072428 -0.164029 -0.066435 -0.011620 0.197615 0.103493 0.314626 -0.198530 -0.053729 -0.082709 0.029448 -0.088154 -0.066865 -0.103345 0.124376 -0.064257 -0.224567 -0.035817 0.018028 0.102015 -0.005616 -0.045651 0.069083 -0.116927 0.287028 0.287162 -0.070390 0.022074 -0.048504 0.175737 -0.066239 -0.104533 0.040015 0.131657 -0.125198 -0.064235 -0.180757 0.014639 0.202757 0.048486 0.095338 0.140601 -0.032345 -0.317980 -0.028637 0.039597 -0.014973 -0.118935 0.093149 0.050816 0.035182 0.286359 -0.142201 0.058004 0.116573 0.002312 0.206152 0.035385 -0.116478 0.048255 -0.099976 -0.071197
67 -0.084783 -0.302957 -0.043154 -0.232049 0.020539 -0.120433 -0.166161 0.040833 0.339461 0.076379 -0.221415 0.111455 -0.050133 0.075348 0.174272 -0.104142 -0.169741 0.135363 0.082334 0.098999 0.034225 0.065286 0.268462 -0.040508 -0.209450 0.133206 0.040521 -0.056293 0.128399 0.192858 0.210117 0.038291 -0.094867 -0.058899 -0.119024 0.008632 -0.190080 0.047293 -0.111549 0.113595 0.083228 0.297152 0.218489 -0.125103 -0.148884 0.094663 -0.079366 -0.098880 0.027584 0.072362 -0.287872 0.147833 0.198198 0.278109 -0.375280 -0.175776 0.136659 -0.203306 -0.094744 0.043249 0.009846 -0.199792 0.001488 0.070874 -0.207377 0.074096 -0.062872 -0.207842 -0.189734 -0.022717 0.159107 0.064718 0.282409 -0.109212 -0.045135 -0.092782 0.074447 -0.169057 -0.168702 -0.187883 0.168469 0.014973 -0.268186 0.015148 0.082398 0.143736 -0.081994 -0.053127 0.147283 -0.161200 0.265741 0.224255 -0.054340 0.146595 0.032972 0.157553 -0.074489 -0.159460 0.040852 0.078617 -0.085276 -0.079903 -0.183385 -0.082263 0.106691 0.007127 0.116038 0.230722 -0.009504 -0.360941 -0.043508 0.027133 -0.052750 -0.111271 0.114768 -0.005290 0.000446 0.375367 -0.116795 0.051206 0.044487 0.023065 0.268942 0.154866 -0.086641 0.103631 -0.169358 -0.063691
83 0.120235 -0.234898 0.048835 -0.006062 -0.102927 -0.053490 0.211240 0.216469 -0.060545 0.094454 -0.263460 0.036896 0.212826 -0.203922 -0.080817 -0.266782 0.177082 0.142552 0.093504 0.293671 0.035574 -0.071526 0.303667 0.052700 -0.007826 0.010432 -0.139698 -0.279895 -0.179494 -0.278373 0.128063 0.124112 0.104158 -0.174610 -0.375429 -0.072505 0.095723 0.162127 0.038104 -0.026819 -0.153826 -0.001140 0.066923 -0.041515 0.007501 0.039751 -0.043214 0.069637 0.070507 -0.139174 -0.280116 0.075226 -0.042489 0.033614 -0.097785 -0.303200 0.114504 -0.066456 -0.151478 -0.018149 -0.169893 -0.269819 0.060474 0.136537 0.151296 0.109345 -0.282102 0.118135 0.082389 -0.007707 0.128542 -0.021077 0.214280 -0.079163 0.215194 -0.069693 -0.169099 0.177726 -0.082856 0.013480 0.215383 -0.138168 0.108448 -0.170104 -0.038756 -0.044658 0.209652 -0.090324 -0.031768 0.066744 0.469529 -0.000473 0.007360 0.169953 -0.312203 0.185152 0.251841 -0.278247 0.172629 0.210273 -0.257703 -0.278685 -0.033876 0.156596 0.207737 0.139457 0.049651 0.148396 -0.017873 0.126591 -0.018022 0.343139 0.128612 -0.170110 0.108771 0.150442 -0.094905 -0.032121 -0.019222 -0.132991 -0.007670 -0.035365 -0.042246 -0.223037 -0.107580 0.089778 0.125546 -0.286444
253 0.006480 -0.226372 0.037198 -0.202654 0.093018 -0.033895 0.054280 0.047386 0.208392 0.031864 -0.224553 -0.005432 0.092537 -0.010549 0.055426 -0.201903 -0.003724 0.123660 0.094187 0.216106 -0.026342 0.050575 0.213344 0.054038 -0.162681 0.163472 0.039054 -0.080871 -0.039508 -0.018686 0.209498 0.091510 0.008980 -0.067101 -0.168096 0.076267 -0.152984 0.040332 0.004946 -0.100264 0.050217 0.208511 0.110197 -0.180460 0.041663 -0.003701 -0.068921 0.003772 0.134553 -0.032729 -0.343090 0.112657 0.034846 0.156588 -0.248587 -0.288392 0.096568 -0.213849 -0.026364 -0.077127 -0.060394 -0.287898 0.021816 0.091251 -0.060719 0.032269 -0.116322 -0.114391 -0.264199 -0.066275 0.022425 -0.077421 0.184550 -0.057344 0.073870 -0.038286 0.080183 -0.063149 -0.271492 -0.191599 0.186186 0.065644 -0.120112 -0.034898 0.072095 0.164848 -0.036655 -0.064586 0.192528 -0.064360 0.285562 0.040891 -0.013614 0.292184 -0.018094 0.146955 0.048408 -0.152836 0.083797 0.146620 -0.046740 -0.162491 -0.034894 -0.155307 0.065667 0.068246 0.126021 0.265060 -0.031816 -0.121045 -0.048107 0.125954 -0.050494 -0.179686 0.051421 0.039231 -0.138136 0.243589 -0.018679 0.021766 -0.100839 0.016861 0.159903 0.058754 -0.036364 0.175889 -0.118886 -0.088062
136 -0.042054 -0.199651 0.005349 -0.284806 0.095455 -0.065552 -0.048944 -0.007282 0.354004 -0.051800 -0.260044 0.007108 0.031205 0.090216 0.151878 -0.101095 -0.075329 0.112922 0.045703 0.164537 -0.105960 0.085265 0.137430 0.098814 -0.133147 0.103762 0.032714 -0.052129 -0.060370 0.095739 0.226805 0.082055 -0.017536 -0.041660 -0.092715 0.135124 -0.193554 -0.012776 -0.040074 -0.029145 0.113345 0.298051 0.053890 -0.237920 -0.010876 -0.085949 0.012434 -0.040585 0.180023 0.001340 -0.299188 0.177631 0.146695 0.326468 -0.291573 -0.244296 0.027491 -0.230233 -0.009445 -0.178295 -0.065194 -0.324271 0.095940 0.085871 -0.157676 0.062791 -0.101466 -0.261895 -0.313963 -0.056770 0.079310 -0.046445 0.179589 0.031963 0.056262 -0.058462 0.115250 -0.270111 -0.306522 -0.264858 0.155619 0.166040 -0.263573 -0.009981 0.185709 0.164660 -0.107578 -0.018808 0.211662 -0.168124 0.259381 0.069026 -0.008132 0.350674 0.068074 0.133581 0.000936 -0.221241 0.089519 0.021301 -0.055424 -0.167170 -0.129142 -0.204155 -0.067114 -0.023529 0.136233 0.274772 -0.025449 -0.233178 -0.075614 0.124640 -0.011073 -0.095512 0.062759 -0.134032 -0.076852 0.424642 -0.069799 0.032836 -0.037214 0.046914 0.281889 0.190047 -0.074898 0.228181 -0.177007 -0.079931
150 -0.046079 -0.264442 0.011127 -0.217240 0.069125 -0.065277 -0.049453 0.024234 0.261049 0.053327 -0.226284 0.044600 0.020239 0.050521 0.084733 -0.182384 -0.071707 0.150121 0.096658 0.173759 -0.011395 0.029871 0.237899 -0.014774 -0.188624 0.146542 0.017868 -0.058825 0.062252 0.087074 0.190796 0.053461 -0.017651 -0.036772 -0.128389 0.088819 -0.196685 0.027806 -0.022346 0.014794 0.068759 0.250777 0.163858 -0.177817 -0.038031 0.055375 -0.080790 -0.083954 0.089320 -0.000219 -0.336170 0.109539 0.087151 0.207926 -0.304827 -0.231026 0.129628 -0.211017 -0.066225 -0.038916 -0.026358 -0.254990 0.019139 0.078641 -0.119163 0.057018 -0.093755 -0.153110 -0.238014 -0.040380 0.048136 -0.014150 0.228542 -0.105236 0.026276 -0.061663 0.080395 -0.088443 -0.220464 -0.204929 0.209684 0.051435 -0.183565 -0.021552 0.059643 0.152684 -0.055369 -0.070667 0.152671 -0.093296 0.274975 0.161697 -0.061848 0.226947 -0.008778 0.177723 -0.031087 -0.136808 0.068144 0.151719 -0.067221 -0.123235 -0.104220 -0.127326 0.089255 0.052427 0.132105 0.281893 -0.025016 -0.189629 -0.017935 0.076867 -0.053790 -0.155353 0.067945 0.027128 -0.078052 0.299476 -0.056322 0.055665 -0.025018 0.032033 0.179659 0.090294 -0.061778 0.161850 -0.151521 -0.075298
54 0.041901 -0.248798 -0.031712 0.018293 -0.111366 -0.105552 0.092660 0.205602 0.039172 0.063103 -0.227733 0.134142 0.040814 -0.112234 -0.075287 -0.225899 0.129183 0.221207 0.030332 0.154182 0.019470 -0.094455 0.243941 -0.060805 0.076239 -0.038556 -0.184347 -0.201281 -0.050401 -0.181820 0.062228 0.046676 0.110945 -0.084143 -0.169604 0.026432 0.068791 0.041738 0.076682 0.227103 -0.163455 0.073758 0.097150 -0.047643 -0.119531 0.097377 -0.001488 -0.179285 0.051852 -0.113593 -0.262784 0.049319 0.115520 0.186315 -0.070304 -0.190930 0.099539 -0.012644 -0.187594 -0.117997 -0.118201 -0.190928 0.027236 0.053384 0.080281 0.063572 -0.185099 0.040678 0.100641 0.027955 0.075081 0.056153 0.240379 -0.140633 0.267825 -0.083200 -0.129136 0.140760 -0.007990 -0.046773 0.247859 -0.074690 -0.044895 -0.157933 -0.055411 -0.012012 0.220305 -0.070478 -0.134396 0.062652 0.414422 0.164355 -0.094735 0.094104 -0.307884 0.178872 0.118829 -0.203827 0.183046 0.156606 -0.259427 -0.171021 -0.175410 0.125955 0.161593 0.063348 0.134376 0.195174 -0.022655 0.125759 0.030494 0.266904 0.171520 -0.059185 0.038195 0.051161 -0.022869 0.022810 -0.017449 -0.029795 0.105604 0.003155 -0.086652 -0.208917 -0.212169 0.090462 0.128087 -0.146656
208 -0.026509 -0.245963 -0.038273 -0.046016 -0.077193 -0.132479 -0.072379 0.117132 0.144034 0.072190 -0.187129 0.127442 -0.035035 -0.011341 0.033657 -0.141766 -0.011582 0.161107 0.035359 0.095283 0.052021 -0.016281 0.250400 -0.081011 -0.022515 0.015287 -0.095711 -0.122644 0.062334 0.024634 0.112015 -0.005052 0.009354 -0.051415 -0.132741 -0.009086 -0.002090 0.037804 -0.002860 0.223696 -0.033133 0.143803 0.162957 -0.048614 -0.159837 0.103175 -0.039250 -0.174916 -0.005745 -0.022881 -0.226559 0.074768 0.148338 0.215114 -0.196838 -0.134509 0.117030 -0.046578 -0.146805 -0.012218 -0.030565 -0.151847 0.026201 0.047824 -0.057420 0.061594 -0.111831 -0.058587 0.012582 0.030794 0.101707 0.088919 0.213940 -0.147670 0.103735 -0.075375 -0.051450 0.027211 -0.035125 -0.081398 0.202212 -0.061790 -0.127942 -0.078198 -0.009435 0.036794 0.075036 -0.049857 -0.018113 -0.034697 0.294537 0.223767 -0.085148 0.037921 -0.150800 0.163478 0.013068 -0.142289 0.088358 0.128404 -0.183876 -0.085605 -0.166697 0.068494 0.132522 0.028752 0.089957 0.158164 -0.026498 -0.099723 0.006159 0.102420 0.050685 -0.058917 0.072108 0.023514 0.013148 0.162877 -0.071131 0.004662 0.141174 0.019255 0.057974 -0.062328 -0.135942 0.088234 -0.003017 -0.097235
48 -0.011870 -0.258785 -0.031397 -0.069648 -0.065100 -0.105805 -0.054747 0.119374 0.131730 0.072899 -0.199162 0.109084 0.008281 -0.017519 0.044137 -0.138921 -0.017245 0.136486 0.064046 0.127389 0.061166 0.002616 0.249193 -0.048650 -0.064585 0.043831 -0.071061 -0.132129 0.033128 0.018478 0.133173 0.028533 -0.010805 -0.081042 -0.173041 -0.044294 -0.016594 0.069418 -0.045622 0.143546 -0.034080 0.131537 0.156914 -0.042893 -0.125662 0.098397 -0.060794 -0.091246 -0.014920 -0.017204 -0.217675 0.089741 0.115581 0.173894 -0.221959 -0.150994 0.116350 -0.067526 -0.135280 0.014837 -0.041522 -0.154799 0.023283 0.070404 -0.054074 0.064053 -0.124296 -0.045218 0.010946 0.008198 0.116008 0.068297 0.209952 -0.125328 0.072226 -0.068100 -0.055713 0.017587 -0.063604 -0.064554 0.182396 -0.074320 -0.104082 -0.061751 0.007517 0.032605 0.067146 -0.047146 0.003002 -0.038047 0.296052 0.173867 -0.054049 0.062760 -0.123613 0.151704 0.049254 -0.164176 0.081108 0.129205 -0.161171 -0.108630 -0.132095 0.064807 0.141406 0.047129 0.064282 0.144523 -0.021203 -0.129020 -0.011126 0.105900 0.038523 -0.092576 0.087256 0.054434 -0.007291 0.153877 -0.074791 -0.015085 0.095799 0.001997 0.088514 -0.033439 -0.112420 0.068028 -0.012568 -0.115321
227 0.011824 -0.297701 -0.054188 -0.258685 0.057986 -0.125191 -0.168744 0.021941 0.350916 0.005718 -0.269832 0.121089 -0.059291 0.017620 0.067235 -0.112105 -0.047865 0.160287 0.020149 0.091783 -0.002798 0.078014 0.172286 0.040446 -0.106442 -0.065228 0.047614 -0.076970 0.096294 0.132482 0.184887 0.057276 -0.030820 -0.074418 -0.108139 -0.004235 -0.115674 0.061078 -0.009868 0.065161 -0.028087 0.318844 0.016892 -0.019751 -0.164312 -0.072882 -0.002638 -0.109556 0.164146 -0.014445 -0.221385 0.128582 0.233261 0.410830 -0.143059 -0.084833 0.046254 -0.084555 -0.139749 -0.104734 -0.078377 -0.219314 0.068214 -0.038298 -0.148723 0.029890 -0.111885 -0.136724 -0.141344 0.016710 0.146738 0.052602 0.243926 -0.077197 0.073175 -0.100210 0.044433 -0.289242 -0.157417 -0.185627 0.086822 0.048033 -0.291465 0.032664 0.095427 0.100815 -0.007364 0.031419 0.022575 -0.166406 0.221872 0.060190 -0.009163 0.127559 -0.080683 0.080559 0.075108 -0.255860 0.071631 -0.008077 -0.141630 -0.160799 -0.320397 -0.137584 0.087999 0.000498 0.102629 0.197699 0.090384 -0.222107 0.024797 0.060387 0.113166 -0.126964 0.102325 -0.102521 -0.022003 0.326601 -0.069847 0.016859 0.071873 -0.026809 0.263197 0.090226 -0.200067 0.080598 -0.116113 -0.069470
42 0.041006 -0.224788 -0.032796 0.033659 -0.114062 -0.105842 0.097843 0.223344 0.013270 0.073062 -0.213659 0.137857 0.030835 -0.088095 -0.084267 -0.200223 0.141036 0.220622 0.015734 0.147696 0.035577 -0.113861 0.247093 -0.076478 0.108813 -0.068513 -0.207643 -0.185553 -0.055200 -0.196455 0.037850 0.029084 0.122586 -0.074025 -0.164168 0.041122 0.082656 0.033985 0.076534 0.255240 -0.164630 0.064890 0.080202 -0.062619 -0.114888 0.101897 0.014436 -0.176343 0.028098 -0.139780 -0.231192 0.038743 0.098875 0.184514 -0.057980 -0.171769 0.122624 0.019096 -0.208001 -0.144443 -0.117154 -0.161082 0.039321 0.055128 0.079819 0.089680 -0.199496 0.064408 0.144666 0.050305 0.079411 0.051335 0.229836 -0.142009 0.297768 -0.094223 -0.138898 0.169119 0.012155 -0.033630 0.263125 -0.080171 -0.023042 -0.172736 -0.062748 -0.033700 0.242073 -0.065751 -0.143219 0.069120 0.400806 0.180569 -0.115682 0.082711 -0.324300 0.186359 0.111760 -0.190002 0.194735 0.172379 -0.269676 -0.156679 -0.179185 0.152020 0.165348 0.052505 0.143796 0.192197 -0.010712 0.162923 0.045706 0.256871 0.171510 -0.023778 0.033201 0.045451 -0.011259 -0.008792 0.002108 -0.039040 0.144341 0.001465 -0.114141 -0.227691 -0.223098 0.082955 0.140118 -0.141282
258 0.164206 -0.230909 0.055255 -0.018172 -0.111861 -0.039633 0.254281 0.241011 -0.121875 0.086865 -0.298119 -0.004552 0.289443 -0.224895 -0.082687 -0.267142 0.203008 0.105287 0.123553 0.365936 0.043524 -0.072765 0.335008 0.110059 -0.045821 0.022622 -0.135407 -0.341039 -0.239257 -0.304547 0.152669 0.165711 0.082001 -0.229794 -0.485296 -0.130870 0.118096 0.222198 -0.015126 -0.154454 -0.156125 -0.040939 0.054742 -0.031864 0.067763 0.025659 -0.068243 0.213834 0.066350 -0.162427 -0.283438 0.085284 -0.115386 -0.041203 -0.107061 -0.349505 0.123639 -0.079018 -0.126047 0.034555 -0.184961 -0.314698 0.096393 0.168253 0.178027 0.150451 -0.338594 0.162060 0.101851 -0.018547 0.155861 -0.039787 0.207788 -0.026387 0.172990 -0.064575 -0.208213 0.185494 -0.096706 0.054968 0.204150 -0.200253 0.167514 -0.152098 -0.032857 -0.082228 0.211287 -0.094928 -0.027178 0.039997 0.493313 -0.094328 0.056506 0.184944 -0.310084 0.167625 0.349792 -0.370286 0.161327 0.233017 -0.265679 -0.332457 0.043030 0.208125 0.215739 0.158737 -0.003971 0.110002 -0.007747 0.111591 -0.052839 0.370535 0.125904 -0.212510 0.144297 0.204982 -0.125951 -0.081440 -0.045656 -0.194359 -0.046816 -0.049978 -0.024393 -0.212960 -0.066202 0.054880 0.132544 -0.379613
200 -0.090382 -0.378981 -0.081439 -0.249198 0.002998 -0.168983 -0.246979 0.056251 0.371708 0.080427 -0.243930 0.164090 -0.086156 0.073117 0.171236 -0.090266 -0.183207 0.161332 0.096294 0.065518 0.092155 0.087795 0.287721 -0.056726 -0.208241 0.088115 0.044139 -0.066795 0.167347 0.261337 0.237678 0.044844 -0.133375 -0.069453 -0.122966 -0.048987 -0.162050 0.076422 -0.132753 0.175226 0.054218 0.322796 0.218489 -0.063525 -0.234703 0.092268 -0.084805 -0.129700 0.008161 0.095135 -0.256109 0.147956 0.266126 0.340316 -0.378043 -0.130023 0.140041 -0.178118 -0.149679 0.075753 -0.000974 -0.166108 -0.007421 0.043737 -0.231254 0.044457 -0.071274 -0.198793 -0.142996 -0.007827 0.191907 0.118350 0.317148 -0.155391 -0.061117 -0.113797 0.064543 -0.211961 -0.143963 -0.170485 0.148442 -0.021480 -0.314266 0.026081 0.079590 0.135601 -0.056928 -0.022732 0.090924 -0.181679 0.277594 0.238491 -0.045493 0.073778 0.007753 0.155311 -0.063840 -0.190103 0.037239 0.061313 -0.116765 -0.087045 -0.257967 -0.054534 0.153770 -0.001072 0.101136 0.200808 0.012833 -0.410461 -0.023028 0.006096 -0.003077 -0.124260 0.134209 -0.017193 0.025143 0.390298 -0.149715 0.055634 0.110418 -0.012612 0.312992 0.152917 -0.131441 0.063100 -0.182578 -0.068142
203 -0.039803 -0.244955 0.011677 -0.173082 -0.003905 -0.096664 -0.060884 0.082213 0.236472 0.043995 -0.229003 0.081497 0.024750 -0.003568 0.082739 -0.157998 -0.079062 0.124490 0.093451 0.103501 0.037735 0.071948 0.257378 0.022988 -0.156176 0.119878 0.018223 -0.098907 0.028549 0.076873 0.195750 0.072559 -0.042588 -0.059407 -0.142063 0.003491 -0.123331 0.044884 -0.044781 0.066872 0.007223 0.204417 0.158092 -0.105177 -0.091865 0.044187 -0.048609 -0.075123 0.044539 0.057892 -0.258384 0.105390 0.124742 0.206189 -0.291565 -0.206362 0.085243 -0.153520 -0.094432 0.045209 -0.048005 -0.203777 0.024081 0.099922 -0.095909 0.024601 -0.102641 -0.169331 -0.141319 -0.038992 0.140487 0.020723 0.253115 -0.110029 0.018014 -0.056858 0.045738 -0.096513 -0.154186 -0.138608 0.120456 0.011284 -0.174586 -0.064888 0.062161 0.123853 -0.013398 -0.043573 0.112060 -0.084400 0.295926 0.161328 -0.052997 0.178068 -0.041049 0.165918 0.002982 -0.138995 0.073041 0.123506 -0.101058 -0.130243 -0.108882 -0.062898 0.116394 0.059279 0.097586 0.178200 -0.042460 -0.208281 -0.049299 0.113057 -0.008638 -0.132928 0.067083 0.014999 -0.032736 0.282015 -0.091849 0.039269 0.014315 0.026487 0.183731 0.032832 -0.093724 0.127603 -0.082173 -0.092117
194 -0.042248 -0.250742 -0.022482 -0.212157 0.034914 -0.080981 -0.094800 0.036269 0.277386 0.024170 -0.219068 0.064826 0.005056 0.048172 0.115918 -0.118501 -0.096818 0.122448 0.084442 0.129350 -0.004323 0.060136 0.199879 0.017464 -0.167227 0.122643 0.025727 -0.071531 0.045875 0.111509 0.193576 0.056994 -0.051761 -0.060294 -0.115357 0.033930 -0.164225 0.029972 -0.067852 0.042180 0.065984 0.248754 0.143309 -0.132776 -0.083788 0.034694 -0.059349 -0.064126 0.067872 0.038944 -0.265174 0.125594 0.142564 0.240294 -0.300306 -0.195368 0.085182 -0.183935 -0.068372 -0.029433 -0.037535 -0.221865 0.026105 0.073382 -0.137824 0.053727 -0.074921 -0.186926 -0.194016 -0.029238 0.097833 0.018396 0.221603 -0.076585 -0.003549 -0.067114 0.072578 -0.159306 -0.198339 -0.181321 0.152530 0.044554 -0.206349 -0.009315 0.096646 0.134064 -0.059993 -0.034409 0.119889 -0.114075 0.252390 0.144508 -0.037989 0.200127 0.012589 0.145706 -0.018278 -0.163056 0.063936 0.075413 -0.072158 -0.115789 -0.130141 -0.097219 0.057622 0.017965 0.094455 0.217485 -0.014963 -0.250584 -0.035592 0.076269 -0.024763 -0.123450 0.091579 -0.021873 -0.049250 0.327756 -0.085235 0.040921 0.005020 0.027357 0.215839 0.123845 -0.071650 0.130193 -0.146321 -0.073988
53 0.064625 -0.215876 0.005107 -0.031016 -0.054490 -0.077077 0.063467 0.163345 0.059976 0.056621 -0.208403 0.096759 0.045394 -0.092023 -0.044320 -0.191584 0.087325 0.178252 0.025390 0.140203 0.030562 -0.040090 0.230574 -0.033767 0.004928 -0.000793 -0.090276 -0.152739 -0.040106 -0.153539 0.076796 0.027549 0.067997 -0.077786 -0.168480 0.037760 0.009262 0.030281 0.049565 0.107244 -0.107876 0.105888 0.076055 -0.074797 -0.075865 0.063158 -0.022511 -0.087657 0.043340 -0.100951 -0.250542 0.042999 0.072527 0.153888 -0.101492 -0.205661 0.088692 -0.052829 -0.139257 -0.061224 -0.085978 -0.180477 0.041778 0.045278 0.016588 0.054258 -0.140289 0.014547 0.002059 0.000509 0.069557 0.001806 0.198549 -0.100616 0.183394 -0.066596 -0.054332 0.079759 -0.060634 -0.078147 0.185250 -0.049778 -0.045933 -0.118087 -0.026977 0.040288 0.141444 -0.069454 -0.031685 0.014454 0.324225 0.094017 -0.077224 0.119895 -0.209193 0.155250 0.098338 -0.151542 0.139075 0.154010 -0.177596 -0.151161 -0.108716 0.046439 0.143080 0.069743 0.119113 0.165481 -0.018926 0.047694 -0.005944 0.202592 0.085110 -0.104493 0.044437 0.043874 -0.044532 0.046552 0.000541 -0.004384 0.042553 0.004801 -0.036216 -0.157122 -0.136921 0.079331 0.059677 -0.129931
117 -0.004944 -0.297033 -0.045189 -0.348492 0.107217 -0.133023 -0.171009 -0.017176 0.456914 -0.039325 -0.314787 0.106259 -0.067014 0.054477 0.111787 -0.099576 -0.064553 0.179892 0.007450 0.101058 -0.046064 0.114042 0.144919 0.065058 -0.106527 -0.080679 0.053186 -0.043572 0.053546 0.156701 0.234481 0.089171 -0.007622 -0.058312 -0.088287 0.070612 -0.162863 0.039152 0.020524 0.055840 0.002649 0.400747 -0.012723 -0.093393 -0.139065 -0.132541 0.047398 -0.126418 0.250022 -0.031886 -0.276337 0.172783 0.275394 0.530723 -0.155935 -0.108873 0.030651 -0.127254 -0.125535 -0.200095 -0.104967 -0.282751 0.094577 -0.037873 -0.188769 0.041498 -0.127783 -0.211808 -0.243467 0.013576 0.166238 0.021821 0.253381 -0.039751 0.132288 -0.123822 0.093275 -0.389925 -0.235494 -0.273846 0.109574 0.136867 -0.364297 0.020884 0.152126 0.145582 -0.055139 0.040734 0.117069 -0.227838 0.237907 0.055064 -0.009724 0.243261 -0.042991 0.081750 0.053283 -0.296635 0.087999 -0.050906 -0.141463 -0.201475 -0.372173 -0.234879 0.024789 -0.033428 0.149008 0.277199 0.081933 -0.257749 0.004358 0.082226 0.129950 -0.099534 0.072831 -0.186775 -0.031817 0.434204 -0.051360 0.040709 0.067941 -0.029463 0.349315 0.144565 -0.223393 0.161888 -0.154348 -0.068824
25 0.135184 -0.225275 0.037487 -0.091670 -0.059885 -0.026108 0.208815 0.191831 -0.035003 0.062246 -0.300624 -0.019807 0.269494 -0.180187 -0.038385 -0.238199 0.170078 0.088967 0.129520 0.357474 0.029588 -0.039664 0.298501 0.142930 -0.079349 0.034290 -0.077095 -0.303185 -0.221024 -0.219221 0.188309 0.170746 0.058332 -0.221342 -0.454938 -0.115064 0.059398 0.211115 -0.039171 -0.215932 -0.117040 0.020907 0.035917 -0.052803 0.086302 0.004588 -0.066915 0.242095 0.113786 -0.147408 -0.293328 0.108891 -0.081595 0.012812 -0.128409 -0.338972 0.105352 -0.126905 -0.093113 0.021920 -0.164994 -0.329830 0.096419 0.141184 0.123148 0.136841 -0.307010 0.105256 0.014172 -0.027985 0.148654 -0.051211 0.191250 0.007795 0.136884 -0.066677 -0.162618 0.084241 -0.153609 -0.001318 0.173762 -0.161418 0.101047 -0.102003 0.013975 -0.041935 0.150897 -0.085076 0.027303 -0.015819 0.444839 -0.130463 0.084095 0.214731 -0.231069 0.129214 0.329142 -0.384643 0.133867 0.182319 -0.225614 -0.320480 0.021424 0.126272 0.170495 0.128822 -0.004381 0.127947 0.006423 0.024082 -0.056695 0.310107 0.097989 -0.225384 0.143240 0.160638 -0.125568 -0.004664 -0.053949 -0.170775 -0.078270 -0.045685 0.066892 -0.124362 -0.052581 0.066726 0.061566 -0.338511
249 0.019200 -0.233842 -0.045897 0.052476 -0.130332 -0.116733 0.067198 0.221315 -0.009388 0.080748 -0.188776 0.123418 0.027617 -0.101050 -0.062337 -0.196497 0.114277 0.215653 0.025517 0.135260 0.058974 -0.109588 0.256615 -0.096074 0.074696 -0.031610 -0.192549 -0.191223 -0.029415 -0.179813 0.062858 0.028223 0.085583 -0.069336 -0.176936 0.015015 0.100430 0.060006 0.063078 0.270382 -0.146299 0.053791 0.122608 -0.046018 -0.137710 0.121662 0.001557 -0.171840 -0.008706 -0.102998 -0.225168 0.037257 0.101427 0.133766 -0.096218 -0.170305 0.136282 0.003786 -0.198362 -0.066751 -0.092908 -0.143533 0.021928 0.057109 0.075691 0.075207 -0.181811 0.058068 0.133701 0.048521 0.071965 0.070291 0.232525 -0.170948 0.228945 -0.089821 -0.129278 0.172471 0.035094 -0.023180 0.256814 -0.118714 -0.008792 -0.168177 -0.086543 -0.018821 0.225717 -0.077367 -0.126673 0.066216 0.387214 0.214976 -0.108965 0.039913 -0.294445 0.196530 0.078863 -0.166057 0.171452 0.180996 -0.250940 -0.148486 -0.128996 0.177686 0.167013 0.050031 0.124609 0.172047 -0.027098 0.116384 0.030281 0.247058 0.153515 -0.034192 0.040158 0.075065 -0.014158 -0.001930 -0.043375 -0.037584 0.146001 -0.004800 -0.114050 -0.208099 -0.197778 0.075893 0.130243 -0.147917
33 -0.083902 -0.336484 -0.073908 -0.190297 -0.008883 -0.154456 -0.212106 0.065649 0.315091 0.082112 -0.207276 0.156517 -0.077608 0.063845 0.154192 -0.081107 -0.170695 0.145179 0.080650 0.048985 0.100979 0.076941 0.278699 -0.077062 -0.185811 0.099226 0.029561 -0.058000 0.153293 0.227678 0.203831 0.034614 -0.123517 -0.052933 -0.109960 -0.047852 -0.132423 0.062661 -0.129681 0.181810 0.047962 0.270144 0.225760 -0.059457 -0.212988 0.119119 -0.080576 -0.123085 -0.033413 0.087026 -0.230694 0.125320 0.227652 0.267866 -0.359176 -0.123597 0.139085 -0.152600 -0.128064 0.101275 0.017968 -0.139764 -0.022492 0.052398 -0.198259 0.029244 -0.051613 -0.177220 -0.111531 -0.000568 0.179531 0.108369 0.286983 -0.153678 -0.066247 -0.096106 0.048849 -0.149907 -0.108539 -0.138949 0.141945 -0.041783 -0.265045 0.004107 0.056310 0.126760 -0.043317 -0.030662 0.084205 -0.150387 0.254165 0.245783 -0.054606 0.045456 0.015166 0.152904 -0.073092 -0.149280 0.033759 0.069554 -0.111346 -0.067635 -0.204683 -0.021352 0.146412 0.001433 0.096481 0.171487 0.000346 -0.364249 -0.036588 0.006495 -0.017672 -0.104324 0.115242 0.006158 0.027410 0.321015 -0.140104 0.046441 0.109285 -0.004566 0.255666 0.120802 -0.099838 0.049689 -0.152310 -0.061914
97 -0.006958 -0.203059 -0.036241 -0.200177 0.031501 -0.142851 -0.062254 0.046899 0.309648 0.008596 -0.253183 0.091252 -0.042655 0.017750 0.080153 -0.078811 0.025860 0.172981 -0.047908 0.108557 -0.040964 0.034583 0.138194 0.013511 -0.003376 -0.134010 -0.028033 -0.073447 0.002076 0.025236 0.160425 0.048765 0.061321 -0.042243 -0.114701 0.087076 -0.042647 0.031287 0.060652 0.107550 -0.014664 0.303980 0.004201 -0.105352 -0.117467 -0.098593 0.086618 -0.144470 0.206717 -0.090138 -0.251092 0.172325 0.245486 0.463075 -0.060852 -0.104028 0.072379 -0.076999 -0.113370 -0.230983 -0.105486 -0.233623 0.086065 -0.061914 -0.116696 0.107813 -0.155572 -0.104167 -0.130807 0.050307 0.162863 0.019755 0.204440 -0.018145 0.232965 -0.144542 0.029261 -0.221421 -0.142295 -0.229410 0.171781 0.092023 -0.202749 -0.061858 0.102026 0.085574 0.006317 0.011763 0.088301 -0.150356 0.227226 0.071197 -0.049524 0.231844 -0.114330 0.088697 0.021282 -0.254179 0.099896 -0.024268 -0.198603 -0.170670 -0.315367 -0.136909 0.002958 -0.027413 0.155422 0.273606 0.064986 -0.121119 0.001742 0.096862 0.129045 -0.004937 0.073408 -0.162417 0.033308 0.319580 0.016138 -0.005667 0.088435 -0.030663 0.237018 0.039139 -0.212099 0.159574 -0.055758 -0.073562
96 0.005291 -0.184310 -0.020805 -0.163637 0.007944 -0.129702 -0.027232 0.063416 0.245067 0.007592 -0.239725 0.082811 -0.016949 -0.001744 0.063395 -0.083075 0.041188 0.165235 -0.041001 0.110974 -0.028701 0.019310 0.144854 0.005280 0.011134 -0.112621 -0.053060 -0.083371 -0.026369 -0.016389 0.139155 0.048358 0.072016 -0.036613 -0.121096 0.075632 -0.028509 0.037048 0.061286 0.105570 -0.031876 0.244611 0.010267 -0.109743 -0.094571 -0.075256 0.082049 -0.121137 0.175690 -0.087473 -0.238784 0.149869 0.202555 0.396922 -0.055749 -0.111966 0.074315 -0.062906 -0.109950 -0.198524 -0.101242 -0.213184 0.085007 -0.035282 -0.086106 0.100189 -0.152514 -0.080501 -0.097306 0.049838 0.153586 0.008789 0.193407 -0.020494 0.229037 -0.126102 0.006026 -0.167509 -0.123352 -0.197261 0.174397 0.065043 -0.156365 -0.075007 0.078790 0.066360 0.035663 -0.003477 0.072753 -0.123707 0.240526 0.074458 -0.051360 0.212416 -0.130088 0.095636 0.032605 -0.237364 0.109901 0.000212 -0.191270 -0.166458 -0.267083 -0.088490 0.012193 -0.021101 0.139459 0.243430 0.047534 -0.079545 -0.003141 0.124508 0.128627 0.001066 0.062282 -0.137134 0.026650 0.259718 0.019339 -0.016324 0.085584 -0.026488 0.184198 0.000993 -0.186996 0.150112 -0.026942 -0.096448
2 0.003415 -0.253164 0.035305 -0.106722 -0.072679 -0.120733 -0.028190 0.143788 0.154833 0.098943 -0.215669 0.135088 0.027644 -0.108381 0.031411 -0.218160 -0.051239 0.139464 0.068301 0.040800 0.117554 0.049002 0.345797 -0.023243 -0.141520 0.081394 0.005063 -0.125589 0.065076 0.006423 0.161012 0.050505 -0.025824 -0.052587 -0.178870 -0.046088 -0.051882 0.075055 0.007838 0.121275 -0.084518 0.152274 0.171077 -0.019149 -0.138435 0.094089 -0.052480 -0.098891 -0.003596 0.058843 -0.245542 0.043719 0.112374 0.149637 -0.242121 -0.180820 0.101383 -0.101881 -0.151999 0.168477 -0.048125 -0.136353 -0.008547 0.081110 -0.033737 0.009129 -0.120715 -0.095275 -0.056508 -0.002437 0.185904 0.029645 0.298814 -0.175658 0.038753 -0.052970 -0.002173 -0.002185 -0.043395 -0.069423 0.079176 -0.064755 -0.115585 -0.115881 -0.024359 0.097779 0.063640 -0.069354 0.060696 -0.041613 0.310264 0.191682 -0.082955 0.057722 -0.168933 0.180180 0.023418 -0.086716 0.068464 0.190377 -0.148626 -0.136679 -0.108286 0.009774 0.221614 0.103545 0.114832 0.124276 -0.045964 -0.133460 -0.032872 0.147712 0.024711 -0.154642 0.048084 0.075111 0.004465 0.169887 -0.088026 0.030710 0.039874 -0.003356 0.108134 -0.117888 -0.119648 0.073976 0.015998 -0.115204
108 -0.045972 -0.216062 0.009949 -0.343692 0.127866 -0.062345 -0.045819 -0.019637 0.410089 -0.064609 -0.300713 -0.010348 0.050814 0.094073 0.166872 -0.124355 -0.076385 0.121233 0.060934 0.212332 -0.126144 0.111568 0.142933 0.145529 -0.167666 0.129065 0.057028 -0.061595 -0.080464 0.100931 0.279406 0.109759 -0.021430 -0.055712 -0.106973 0.155849 -0.230410 -0.008524 -0.034874 -0.068995 0.129376 0.347016 0.049460 -0.267496 0.008128 -0.122367 0.005000 -0.025529 0.230300 -0.005371 -0.349044 0.201161 0.169991 0.379778 -0.324161 -0.289236 0.021349 -0.274409 -0.004118 -0.212997 -0.094873 -0.392236 0.112824 0.099498 -0.172883 0.062997 -0.110739 -0.307676 -0.387275 -0.072374 0.086110 -0.064005 0.191463 0.048804 0.066131 -0.053434 0.141060 -0.327387 -0.375431 -0.310522 0.161889 0.193631 -0.300915 -0.006105 0.226028 0.203210 -0.135332 -0.014603 0.253801 -0.185578 0.289684 0.049025 -0.002248 0.435592 0.083322 0.134919 0.022143 -0.265427 0.104548 0.022215 -0.046682 -0.201713 -0.148669 -0.258339 -0.085079 -0.023725 0.148126 0.318867 -0.020587 -0.269635 -0.081622 0.144694 -0.007016 -0.130605 0.077324 -0.148062 -0.105581 0.499225 -0.076856 0.040645 -0.066392 0.044388 0.343480 0.239237 -0.075685 0.264962 -0.208452 -0.092239
12 -0.092437 -0.345747 -0.081910 -0.206921 -0.009939 -0.147775 -0.222279 0.056515 0.316477 0.087136 -0.211045 0.159831 -0.081651 0.081105 0.159273 -0.073052 -0.182316 0.144215 0.094482 0.058257 0.091227 0.072906 0.275470 -0.076798 -0.195571 0.097755 0.027368 -0.056494 0.159739 0.238571 0.206809 0.035623 -0.133126 -0.063003 -0.109201 -0.045409 -0.145804 0.070602 -0.142016 0.177149 0.056988 0.274417 0.231836 -0.063167 -0.212506 0.127848 -0.085716 -0.116755 -0.032800 0.084793 -0.237496 0.133100 0.225919 0.272930 -0.369935 -0.125277 0.148296 -0.156482 -0.131006 0.093119 0.019690 -0.140340 -0.021803 0.056295 -0.213919 0.048236 -0.053834 -0.176793 -0.106711 -0.001635 0.182259 0.117323 0.290129 -0.148623 -0.070572 -0.104240 0.046555 -0.154768 -0.114352 -0.137856 0.149250 -0.042517 -0.278399 0.018405 0.057074 0.118305 -0.048598 -0.032835 0.076728 -0.163443 0.254911 0.249680 -0.052488 0.047467 0.019797 0.147856 -0.067655 -0.166796 0.032024 0.066107 -0.114623 -0.069327 -0.213034 -0.020315 0.147498 -0.001422 0.088182 0.178429 0.004533 -0.381390 -0.033357 -0.003612 -0.020094 -0.100356 0.125303 0.009574 0.027488 0.336441 -0.147856 0.042035 0.105641 -0.004044 0.262832 0.140748 -0.105004 0.046677 -0.162762 -0.067147
70 -0.084429 -0.324212 -0.068982 -0.249537 0.022824 -0.140808 -0.216043 0.033422 0.366504 0.069335 -0.227751 0.142245 -0.083142 0.092630 0.169209 -0.070931 -0.176573 0.137931 0.078297 0.068137 0.058567 0.087350 0.244323 -0.047083 -0.195618 0.083455 0.048646 -0.039571 0.149990 0.244106 0.220172 0.041529 -0.114269 -0.053874 -0.094911 -0.014342 -0.167943 0.055683 -0.119674 0.144435 0.072393 0.310359 0.189406 -0.087873 -0.193232 0.073673 -0.064338 -0.114643 0.023569 0.075235 -0.242502 0.146425 0.242644 0.329229 -0.342941 -0.119701 0.127439 -0.171788 -0.116426 0.044310 0.006174 -0.167109 -0.002793 0.037788 -0.229075 0.055948 -0.054702 -0.207491 -0.167285 -0.007410 0.178307 0.089588 0.282567 -0.122220 -0.052115 -0.103418 0.080029 -0.218468 -0.151475 -0.186669 0.138667 0.005502 -0.299289 0.029423 0.095395 0.133999 -0.074084 -0.022586 0.120176 -0.181674 0.239845 0.215157 -0.044820 0.110417 0.035308 0.136743 -0.074422 -0.171759 0.034450 0.035340 -0.101898 -0.076830 -0.238271 -0.085169 0.108606 -0.006486 0.103429 0.206008 0.009310 -0.382311 -0.032643 -0.003071 -0.017743 -0.099989 0.118504 -0.040998 0.023038 0.384135 -0.129721 0.059064 0.087141 -0.003805 0.306599 0.167744 -0.114504 0.076170 -0.180209 -0.053881
63 -0.011235 -0.200201 -0.021650 -0.129988 -0.021420 -0.100988 -0.035009 0.082891 0.204900 0.047157 -0.204101 0.095426 -0.016485 -0.002973 0.059586 -0.120414 -0.004032 0.154318 0.000844 0.101666 -0.009637 0.004870 0.182693 -0.019483 -0.033858 -0.023732 -0.054749 -0.089539 0.026501 0.003072 0.125440 0.023517 0.041850 -0.045283 -0.118950 0.045224 -0.045179 0.030232 0.020541 0.142506 -0.026721 0.210167 0.084806 -0.095122 -0.108790 0.015455 0.009073 -0.138600 0.098732 -0.046127 -0.238806 0.112499 0.173692 0.293138 -0.133955 -0.132316 0.079621 -0.091165 -0.110711 -0.101855 -0.063927 -0.190045 0.045792 0.005686 -0.070237 0.088940 -0.122789 -0.084530 -0.076986 0.023339 0.120878 0.033621 0.211966 -0.070126 0.145232 -0.101131 -0.004131 -0.086511 -0.098034 -0.144877 0.171711 0.022245 -0.152377 -0.065949 0.041504 0.061439 0.041113 -0.039338 0.044134 -0.077679 0.260752 0.133274 -0.059312 0.148278 -0.128769 0.117599 0.014402 -0.183358 0.095626 0.061244 -0.166605 -0.122330 -0.214935 -0.033179 0.067514 0.014486 0.118567 0.204053 0.013776 -0.100527 0.001317 0.117404 0.077505 -0.045277 0.064036 -0.048790 0.014316 0.226487 -0.026065 0.004779 0.071053 0.001262 0.128444 -0.003584 -0.155751 0.111629 -0.018288 -0.086254
45 0.050467 -0.242960 -0.036481 0.024172 -0.119444 -0.109621 0.086034 0.225631 0.017466 0.077151 -0.225509 0.132701 0.052781 -0.104530 -0.066358 -0.199778 0.131743 0.213055 0.025952 0.159462 0.045277 -0.096594 0.266348 -0.074920 0.075766 -0.052949 -0.193613 -0.207994 -0.056032 -0.178238 0.066890 0.046745 0.097806 -0.090051 -0.201396 0.010651 0.085700 0.071451 0.057153 0.227912 -0.161961 0.065832 0.091636 -0.048840 -0.129005 0.094367 0.006544 -0.139834 0.024621 -0.124404 -0.235262 0.055474 0.089079 0.174360 -0.077891 -0.185103 0.130962 0.002275 -0.205196 -0.099989 -0.119541 -0.171506 0.043130 0.064805 0.072217 0.092606 -0.210396 0.067600 0.136617 0.047778 0.106224 0.061269 0.234549 -0.148058 0.267074 -0.093851 -0.138526 0.152881 0.008303 -0.023956 0.256157 -0.105679 -0.017316 -0.164944 -0.063945 -0.032508 0.227509 -0.063516 -0.124923 0.042557 0.407782 0.166509 -0.095722 0.080874 -0.312096 0.186802 0.128933 -0.213206 0.181838 0.178394 -0.274182 -0.177407 -0.165078 0.163962 0.172635 0.055917 0.123667 0.180668 -0.006749 0.119816 0.025246 0.265675 0.164595 -0.043304 0.052412 0.060348 -0.014642 0.002697 -0.020339 -0.047631 0.137718 -0.015058 -0.079958 -0.212662 -0.208420 0.081203 0.136253 -0.171593
146 -0.107055 -0.367276 -0.092284 -0.247973 0.012451 -0.164107 -0.249898 0.042197 0.378990 0.076050 -0.237224 0.168159 -0.102718 0.112433 0.179409 -0.066495 -0.189213 0.159523 0.088224 0.063230 0.076015 0.080942 0.264442 -0.074471 -0.198185 0.084101 0.034862 -0.041128 0.172860 0.274983 0.231786 0.035326 -0.132141 -0.056476 -0.092168 -0.023320 -0.167544 0.057660 -0.139301 0.190795 0.074502 0.328572 0.223592 -0.087279 -0.226672 0.098914 -0.075543 -0.143880 0.000680 0.077606 -0.251129 0.149273 0.264194 0.348831 -0.376196 -0.120782 0.153833 -0.173834 -0.141594 0.047652 0.011821 -0.160633 -0.012208 0.038024 -0.245681 0.045226 -0.059197 -0.203181 -0.146533 -0.003559 0.177319 0.114105 0.301361 -0.146744 -0.058582 -0.122826 0.067222 -0.214590 -0.142991 -0.183221 0.166839 -0.013456 -0.325170 0.024439 0.087223 0.138513 -0.068190 -0.015959 0.101314 -0.190857 0.259056 0.257781 -0.051568 0.080320 0.038312 0.151260 -0.091771 -0.178173 0.036224 0.047718 -0.111630 -0.077121 -0.259749 -0.065591 0.126064 -0.011598 0.111060 0.216697 0.008008 -0.407961 -0.024911 -0.015106 -0.011114 -0.095521 0.123495 -0.033056 0.028295 0.388121 -0.146555 0.059737 0.126144 -0.012692 0.305247 0.176417 -0.124244 0.068301 -0.186403 -0.056785
238 0.049332 -0.263892 0.004295 -0.010741 -0.126106 -0.105484 0.122226 0.216370 0.039932 0.112613 -0.238729 0.161284 0.080315 -0.167020 -0.091482 -0.279677 0.106177 0.205032 0.071626 0.131209 0.081570 -0.062417 0.309706 -0.049595 0.005943 0.002539 -0.144331 -0.212397 -0.024072 -0.195458 0.074107 0.068302 0.105921 -0.097204 -0.205817 -0.032811 0.064820 0.084709 0.087269 0.211715 -0.202296 0.068524 0.128684 -0.011870 -0.128069 0.122424 -0.006562 -0.149499 0.019348 -0.078593 -0.270410 0.024585 0.077631 0.147124 -0.090416 -0.204204 0.104263 -0.036586 -0.201192 0.014840 -0.127604 -0.159318 0.015879 0.094743 0.096006 0.054233 -0.198245 0.050727 0.119745 0.004773 0.134807 0.041935 0.284369 -0.188947 0.220765 -0.085178 -0.114555 0.170992 0.014285 -0.030047 0.193715 -0.095966 -0.013499 -0.181353 -0.078349 -0.002084 0.231874 -0.080090 -0.123361 0.061299 0.433071 0.169915 -0.073398 0.080687 -0.335844 0.187600 0.122391 -0.158895 0.168311 0.192749 -0.263782 -0.192034 -0.169484 0.135659 0.253228 0.133702 0.121111 0.150962 -0.024075 0.110231 0.038845 0.275397 0.168305 -0.106696 0.050318 0.106274 -0.002526 0.018329 -0.019735 -0.009233 0.089397 -0.015767 -0.076033 -0.259239 -0.217999 0.066128 0.132134 -0.174326
257 -0.017342 -0.252072 0.011526 -0.119147 -0.022978 -0.106190 -0.026083 0.116584 0.173247 0.074577 -0.214869 0.101579 0.015637 -0.037668 0.040154 -0.191044 -0.039183 0.143905 0.077022 0.091969 0.072627 0.034156 0.288020 -0.025702 -0.129245 0.097355 -0.008378 -0.110800 0.044650 0.026239 0.159788 0.049654 -0.017107 -0.046295 -0.160088 0.009065 -0.082855 0.049097 -0.009525 0.097535 -0.029292 0.173532 0.167832 -0.083907 -0.102381 0.083114 -0.052533 -0.102671 0.022151 0.034208 -0.271281 0.070472 0.101807 0.165104 -0.248945 -0.201712 0.118836 -0.124143 -0.117267 0.066840 -0.039117 -0.176740 0.000710 0.081875 -0.058457 0.030858 -0.115520 -0.099493 -0.096673 -0.011270 0.131948 0.023155 0.263334 -0.143837 0.047437 -0.062209 0.018923 -0.014298 -0.098519 -0.110351 0.137525 -0.030123 -0.132232 -0.093604 0.009404 0.105835 0.034328 -0.062723 0.074084 -0.051996 0.285390 0.177688 -0.082970 0.120286 -0.111028 0.171910 0.008992 -0.103348 0.072301 0.167877 -0.131319 -0.118731 -0.093313 -0.021468 0.159209 0.084654 0.105438 0.170765 -0.038851 -0.133607 -0.034967 0.118934 0.002052 -0.136411 0.058188 0.056922 -0.023794 0.201454 -0.066942 0.033891 0.030732 0.007874 0.116735 -0.053691 -0.109488 0.105770 -0.040340 -0.098949
206 0.030052 -0.250344 0.022910 -0.121227 -0.023067 -0.096643 0.003076 0.112353 0.159669 0.057748 -0.222375 0.087499 0.051556 -0.084771 0.028496 -0.200003 0.004660 0.139408 0.056904 0.126632 0.048968 0.036405 0.273858 0.000463 -0.098908 0.076694 -0.008089 -0.131347 -0.005543 -0.028665 0.163862 0.058644 0.002429 -0.071925 -0.195848 -0.016903 -0.037957 0.062763 0.015994 0.039706 -0.050353 0.150085 0.128234 -0.053844 -0.074841 0.047735 -0.048490 -0.047561 0.050251 -0.014888 -0.271973 0.071100 0.088406 0.165961 -0.200437 -0.223434 0.091775 -0.120452 -0.112654 0.036599 -0.059362 -0.210126 0.019696 0.068872 -0.023137 0.015763 -0.131830 -0.068827 -0.103169 -0.010075 0.107805 0.008470 0.233052 -0.112123 0.083732 -0.055579 -0.012102 -0.005221 -0.122817 -0.100491 0.128046 -0.030825 -0.101663 -0.079615 0.008424 0.104225 0.057610 -0.059632 0.071029 -0.048026 0.315159 0.098576 -0.041892 0.127495 -0.135262 0.153114 0.080137 -0.155427 0.088507 0.147012 -0.137052 -0.163130 -0.095023 -0.021658 0.149484 0.074591 0.108308 0.165743 -0.022189 -0.105391 -0.034582 0.158400 0.029623 -0.156800 0.062698 0.059403 -0.059744 0.163135 -0.058504 0.004020 0.013276 -0.010717 0.102310 -0.067073 -0.092387 0.097861 -0.022914 -0.117775
193 -0.014022 -0.201515 -0.051734 -0.120522 -0.009550 -0.109947 -0.035061 0.084139 0.218507 -0.002732 -0.209228 0.094280 -0.017800 0.007828 0.056774 -0.104443 0.016370 0.173804 -0.010067 0.104492 -0.026437 -0.014598 0.155402 -0.021001 0.012366 -0.027589 -0.059555 -0.096614 -0.014481 -0.012321 0.126214 0.049721 0.044422 -0.038210 -0.099351 0.074752 -0.039428 0.011110 0.027323 0.152480 -0.031697 0.227865 0.044344 -0.117857 -0.101842 -0.016670 0.037481 -0.133982 0.134066 -0.076343 -0.223191 0.128587 0.184077 0.322770 -0.127497 -0.138529 0.060885 -0.082763 -0.115734 -0.192008 -0.082037 -0.210901 0.053656 -0.000277 -0.068403 0.081061 -0.140110 -0.095218 -0.082940 0.026421 0.076772 0.027191 0.197716 -0.048318 0.183934 -0.108052 0.007301 -0.113489 -0.115781 -0.154065 0.194528 0.040764 -0.166939 -0.069185 0.061891 0.063534 0.049649 -0.011413 0.041769 -0.084869 0.268723 0.114175 -0.056348 0.171291 -0.108094 0.116162 0.034709 -0.217384 0.108995 0.037681 -0.163204 -0.137838 -0.202826 -0.042618 0.018459 -0.033100 0.142276 0.237394 0.018471 -0.077702 -0.004110 0.149953 0.096398 -0.028790 0.053613 -0.081258 -0.015330 0.218248 -0.023145 -0.004012 0.086184 0.002200 0.126794 0.019765 -0.181722 0.131196 -0.022286 -0.080510
251 -0.033823 -0.253105 0.035091 -0.286548 0.155315 -0.030795 0.018828 -0.011975 0.277055 0.049035 -0.231327 -0.013286 0.069074 0.046065 0.071778 -0.189259 -0.033613 0.124030 0.116919 0.224511 -0.023015 0.056690 0.199215 0.037580 -0.221285 0.155744 0.085732 -0.026747 0.013412 0.066682 0.232584 0.099035 -0.010668 -0.048999 -0.146882 0.103479 -0.218356 0.038452 -0.001514 -0.123304 0.080273 0.269413 0.100843 -0.198340 0.044945 -0.020811 -0.075093 -0.001476 0.165450 -0.016642 -0.366690 0.128190 0.042725 0.201388 -0.265464 -0.259457 0.108655 -0.254493 -0.014966 -0.086019 -0.047198 -0.294949 0.019504 0.074532 -0.109175 0.035276 -0.106196 -0.127240 -0.327073 -0.074484 0.028053 -0.091032 0.201188 -0.062333 0.059254 -0.052068 0.131812 -0.131355 -0.299701 -0.241018 0.194310 0.088764 -0.167309 -0.000073 0.096003 0.187946 -0.088134 -0.051340 0.240467 -0.112261 0.245753 0.035524 -0.001922 0.312933 0.033306 0.132828 0.000027 -0.144677 0.049468 0.137928 -0.026630 -0.155531 -0.074296 -0.232950 0.062302 0.077634 0.124743 0.311563 -0.001308 -0.175479 -0.021868 0.064333 -0.070942 -0.196453 0.058346 0.023498 -0.133120 0.303311 -0.011745 0.042640 -0.116360 -0.001083 0.240153 0.131996 -0.028457 0.186619 -0.189606 -0.072300
175 -0.033245 -0.282034 -0.031986 -0.270284 0.059067 -0.110556 -0.129716 0.015200 0.358443 0.014071 -0.267816 0.084431 -0.011855 0.054227 0.137360 -0.118839 -0.106989 0.145697 0.051891 0.140035 -0.019305 0.084049 0.204253 0.040832 -0.169083 0.072450 0.051153 -0.070582 0.058150 0.129915 0.225319 0.061002 -0.047907 -0.064388 -0.133160 0.039560 -0.171979 0.040668 -0.059153 0.029453 0.061354 0.318896 0.108725 -0.136190 -0.104993 -0.014578 -0.038147 -0.071715 0.125908 0.008066 -0.295112 0.151096 0.199631 0.337493 -0.284655 -0.194284 0.076904 -0.186250 -0.077634 -0.067082 -0.046497 -0.274084 0.054022 0.030874 -0.172247 0.058505 -0.101933 -0.209054 -0.241799 -0.020850 0.131184 0.025953 0.245824 -0.058101 0.025257 -0.082993 0.077093 -0.251488 -0.226750 -0.219088 0.139879 0.075204 -0.267962 0.020023 0.125910 0.152847 -0.065054 -0.020042 0.134757 -0.167225 0.267660 0.105516 -0.020958 0.223280 0.003267 0.132233 0.003273 -0.226801 0.066996 0.034052 -0.092954 -0.151413 -0.209240 -0.147287 0.048725 0.001971 0.122190 0.244063 0.025010 -0.295258 -0.032366 0.083855 0.011573 -0.135578 0.104288 -0.068673 -0.043199 0.390474 -0.088351 0.032011 0.016197 0.019097 0.282607 0.151915 -0.113793 0.137642 -0.165030 -0.081204
52 0.061438 -0.249174 -0.027733 0.058739 -0.149734 -0.114964 0.122256 0.258891 -0.009367 0.083275 -0.230575 0.159443 0.039354 -0.136301 -0.114712 -0.240987 0.164444 0.251488 0.016849 0.149174 0.053376 -0.124288 0.275799 -0.091970 0.110304 -0.057529 -0.218725 -0.212305 -0.055136 -0.249299 0.032942 0.024222 0.137628 -0.086517 -0.177894 0.035985 0.099423 0.040736 0.090871 0.289696 -0.204408 0.060790 0.096260 -0.048046 -0.142451 0.124526 0.008309 -0.193066 0.006123 -0.148223 -0.259196 0.025697 0.115331 0.175145 -0.053362 -0.190503 0.123698 0.017942 -0.228971 -0.119542 -0.133021 -0.161869 0.033315 0.055179 0.087064 0.080075 -0.201053 0.088291 0.168643 0.047703 0.087419 0.053152 0.257444 -0.171548 0.313695 -0.100229 -0.157771 0.205466 0.038972 -0.036733 0.278073 -0.110350 -0.003840 -0.205547 -0.083426 -0.032531 0.284761 -0.075269 -0.185804 0.098087 0.448467 0.191460 -0.133204 0.074483 -0.368346 0.200474 0.127407 -0.184361 0.213193 0.207706 -0.289425 -0.170204 -0.182301 0.183866 0.204580 0.080908 0.156563 0.188956 -0.023280 0.187574 0.048841 0.299981 0.199531 -0.045418 0.039806 0.061502 -0.016014 -0.030113 -0.004345 -0.033740 0.141474 0.001513 -0.154952 -0.279834 -0.238382 0.076091 0.165241 -0.157389
256 0.068449 -0.264972 -0.006202 0.049398 -0.155819 -0.114049 0.137215 0.257073 -0.034193 0.117564 -0.239036 0.148990 0.081840 -0.163226 -0.112664 -0.264056 0.147722 0.205533 0.060595 0.160123 0.086007 -0.100603 0.325124 -0.066921 0.052881 -0.033843 -0.195173 -0.236348 -0.053107 -0.226115 0.054558 0.051011 0.118074 -0.109763 -0.240240 -0.035625 0.105335 0.091318 0.071955 0.234156 -0.209419 0.024745 0.127372 -0.015604 -0.132019 0.130577 -0.017172 -0.143598 -0.002367 -0.107658 -0.254515 0.031911 0.063764 0.113285 -0.088272 -0.205255 0.134335 0.002730 -0.223513 -0.010224 -0.135486 -0.168541 0.022019 0.094907 0.119636 0.074595 -0.230849 0.100420 0.184958 0.034548 0.138843 0.054243 0.277605 -0.189331 0.258941 -0.084345 -0.165715 0.227476 0.039638 0.005748 0.230582 -0.144931 0.030286 -0.203321 -0.093471 -0.041167 0.272469 -0.084880 -0.156852 0.092688 0.453246 0.179212 -0.098234 0.058785 -0.372475 0.208391 0.154002 -0.186918 0.190564 0.219889 -0.301625 -0.194451 -0.149531 0.200227 0.253597 0.128554 0.112459 0.144897 -0.020553 0.151006 0.030876 0.296210 0.175402 -0.088871 0.059649 0.121337 -0.007998 -0.035733 -0.023373 -0.057775 0.121184 -0.008177 -0.117450 -0.297635 -0.215650 0.058511 0.169923 -0.199076
236 0.058126 -0.268731 0.043085 -0.031367 -0.116894 -0.139815 0.035025 0.191181 0.087435 0.103618 -0.259514 0.149572 0.038259 -0.183264 -0.055667 -0.267795 0.050448 0.160735 0.053164 0.048341 0.130640 0.020435 0.375102 -0.023081 -0.053271 0.017594 -0.044224 -0.175294 0.018317 -0.110005 0.109100 0.042909 0.037549 -0.082771 -0.196444 -0.061282 0.027386 0.086645 0.052213 0.198211 -0.183661 0.101737 0.142852 0.015634 -0.164033 0.088741 -0.026138 -0.121258 -0.052694 0.004335 -0.272573 0.018136 0.102553 0.146934 -0.189708 -0.183872 0.085840 -0.044659 -0.198187 0.149228 -0.117555 -0.142732 0.027527 0.101727 0.015685 0.006860 -0.165320 -0.002638 0.068040 0.013892 0.214496 0.042302 0.303868 -0.212786 0.133698 -0.059268 -0.076268 0.111566 0.014284 -0.047113 0.108301 -0.090000 -0.033714 -0.179407 -0.061423 0.066713 0.166384 -0.066085 -0.076355 0.012262 0.372785 0.181056 -0.103537 0.045307 -0.285177 0.204012 0.107099 -0.111060 0.129639 0.224611 -0.226150 -0.177297 -0.156896 0.100164 0.268959 0.144388 0.120149 0.099942 -0.022257 -0.021093 0.009158 0.234533 0.102519 -0.143235 0.063279 0.067901 0.016559 0.077227 -0.043221 -0.010398 0.079455 -0.009027 0.026853 -0.221076 -0.167033 0.061989 0.081396 -0.154837
