192 128
62 -0.040357 -0.458495 0.037625 -0.422959 -0.123688 -0.233054 0.064550 0.240879 0.155900 0.093420 -0.050176 0.179164 -0.173900 0.137806 -0.224416 0.102271 0.270390 0.243425 0.077658 0.136695 -0.202615 -0.074128 -0.046312 -0.176002 0.427829 -0.087505 -0.286928 0.054006 -0.186946 -0.084100 0.028617 0.017755 0.135494 0.027059 -0.308062 0.105903 -0.010602 -0.265185 -0.227046 0.274600 0.036962 0.205553 -0.128547 -0.168086 -0.008449 0.115219 0.058382 -0.108913 -0.088703 -0.269805 -0.386372 0.109269 0.053269 0.040300 0.006838 -0.161484 0.275306 -0.227660 -0.171362 -0.458476 -0.129281 -0.062198 -0.030620 0.169996 -0.180086 0.212435 -0.065756 0.038080 -0.037279 0.071226 0.107908 -0.099141 0.244399 -0.019560 0.126122 -0.167736 -0.401121 0.192147 0.004928 -0.225612 0.536040 -0.121167 -0.340842 -0.028839 0.149740 -0.112981 0.155472 0.014112 -0.152300 -0.046360 0.055945 0.106131 -0.227272 0.169289 -0.088794 -0.027180 -0.056893 0.011123 0.372723 0.227786 0.005945 0.186992 -0.103039 0.208306 0.291041 -0.045874 0.139907 0.176862 0.044756 0.015436 -0.079338 0.334034 0.097396 0.088280 0.020473 -0.144336 -0.039815 0.003273 -0.026041 -0.088817 0.140072 0.194966 -0.221095 -0.153420 -0.043071 0.129491 0.120793 -0.151500
59 -0.102331 -0.440408 0.115024 -0.305338 0.028759 -0.208384 -0.001631 0.140233 0.079883 0.189506 0.022668 0.300761 -0.097362 0.085808 -0.141950 0.069197 0.369254 0.138516 0.270158 0.125088 -0.105282 0.006665 -0.046287 -0.109902 0.412940 -0.117126 -0.321666 0.032411 -0.041565 0.044517 -0.077413 0.048659 0.116674 0.051409 -0.205121 -0.024077 0.046731 -0.299349 -0.126075 0.326084 0.046657 0.313915 0.036501 -0.133607 -0.077769 0.074063 -0.042575 -0.250348 -0.107343 -0.162945 -0.230267 0.038571 0.015683 0.081741 -0.094658 -0.246096 0.250471 -0.134198 -0.318754 -0.366520 -0.060157 -0.217901 -0.046901 0.228557 0.034963 0.113165 -0.181056 -0.094060 0.157332 0.166183 0.117907 0.020710 0.263949 -0.138475 0.314230 -0.065702 -0.318625 0.228626 -0.135129 -0.032349 0.273257 -0.075196 -0.347434 0.014566 0.216849 -0.034074 0.163916 0.015145 -0.218476 0.023258 0.292490 0.070569 -0.196075 -0.024421 -0.104665 -0.048896 -0.060915 -0.092272 0.358900 0.055694 -0.035622 0.034538 -0.148125 0.262251 0.199652 0.209813 0.206523 0.165705 0.068618 0.309486 0.020719 0.160296 0.135108 0.005667 0.116681 0.063737 -0.088904 -0.076984 -0.153568 -0.157448 0.250993 0.100910 -0.211302 -0.240434 -0.108261 0.092204 -0.024053 -0.002310
85 -0.021454 -0.518151 0.146889 -0.207736 0.033982 -0.153020 -0.031096 0.126742 0.074187 0.273841 -0.107158 0.225336 -0.047144 0.095108 -0.112581 0.096796 0.292488 0.231359 0.384676 0.271880 0.016262 0.050133 0.094741 -0.031331 0.170967 -0.177100 -0.259428 -0.046789 -0.120379 -0.127402 -0.034507 0.152157 0.035646 -0.094555 -0.297409 -0.030844 0.027065 -0.145627 -0.187089 0.230904 0.040271 0.346331 -0.000298 -0.090252 -0.127311 -0.083918 -0.173529 -0.005865 0.020209 -0.083999 -0.161695 -0.039344 -0.040104 0.097424 -0.188492 -0.228897 0.369139 -0.024790 -0.438819 -0.239345 -0.180898 -0.193677 0.077594 0.196283 -0.037588 0.332214 -0.275846 -0.058213 0.064080 0.145834 0.194407 0.138306 0.301908 -0.238176 0.263567 -0.091058 -0.132938 0.212821 -0.216044 0.078567 0.131430 -0.045913 -0.100276 0.105634 0.188055 -0.040669 0.144137 0.057024 -0.241884 0.090354 0.270124 0.079861 -0.145016 0.010901 -0.213561 0.095647 0.098445 -0.096947 0.340971 0.119287 0.025672 -0.105314 -0.143524 0.460001 0.364334 0.348844 0.128983 0.220276 0.226611 0.331942 -0.051860 0.163035 0.132995 -0.085335 0.228019 0.141733 -0.040435 -0.085325 -0.106404 -0.213476 0.261779 0.005042 -0.211550 -0.187866 -0.239626 0.120851 0.065103 -0.236021
46 -0.133429 -0.482481 0.077977 -0.292047 -0.048927 -0.248032 0.005654 0.148273 0.056784 0.177301 0.005488 0.283513 -0.140444 0.164391 -0.142120 0.034420 0.357935 0.143240 0.210413 0.153703 -0.125994 -0.017080 -0.018291 -0.097571 0.373411 -0.107087 -0.328705 0.040423 -0.079745 0.037735 -0.068883 0.028615 0.128980 0.112861 -0.242631 0.023738 -0.005480 -0.266273 -0.102104 0.287086 0.019700 0.271352 0.075516 -0.144084 -0.102768 0.092925 -0.038765 -0.223319 -0.098176 -0.151045 -0.288347 0.043199 0.000994 0.080422 -0.057517 -0.228275 0.267252 -0.179470 -0.282203 -0.383049 -0.050255 -0.172069 -0.047032 0.165747 -0.016818 0.145860 -0.208154 -0.035993 0.117343 0.134123 0.073469 0.023319 0.252239 -0.145600 0.247015 -0.079437 -0.303622 0.208508 -0.081509 -0.082316 0.316347 -0.127598 -0.366844 0.010458 0.236934 -0.031744 0.158331 -0.012762 -0.241552 0.034798 0.223354 0.083684 -0.199056 -0.037321 -0.100569 -0.002338 -0.079928 -0.026653 0.385062 0.082749 -0.032232 0.042514 -0.147787 0.247520 0.222138 0.173665 0.181748 0.157640 0.055205 0.277253 -0.023742 0.155137 0.080394 -0.006843 0.088779 0.025258 -0.060449 -0.050979 -0.178311 -0.202552 0.240344 0.108991 -0.179602 -0.207458 -0.086095 0.084351 -0.031274 -0.044143
50 -0.039031 -0.392583 0.146955 -0.221077 -0.067174 -0.247496 -0.150018 0.134353 0.065617 0.143694 0.066374 0.227925 -0.108215 0.063920 -0.117876 0.106871 0.299237 0.101984 0.201933 0.213016 -0.061484 0.052080 0.078532 -0.076914 0.366334 -0.060790 -0.335722 0.017866 -0.041611 0.101892 -0.098488 -0.025560 0.077905 0.039621 -0.261831 0.008563 0.076513 -0.263244 -0.154443 0.296713 -0.012686 0.329041 0.124696 -0.150521 -0.130855 0.039123 -0.090179 -0.200163 -0.171696 -0.190629 -0.253286 -0.050752 0.051081 0.109499 -0.149654 -0.317862 0.159689 -0.170793 -0.257649 -0.250023 0.047289 -0.282296 0.061373 0.118012 -0.050599 0.182528 -0.097699 -0.186959 0.122831 0.164550 0.064833 -0.019543 0.323009 -0.099972 0.107745 -0.036635 -0.216549 0.113960 -0.146071 0.007826 0.284930 -0.164300 -0.327944 0.082318 0.260204 0.016293 0.202575 -0.015676 -0.152902 -0.010749 0.320437 0.052457 -0.178737 -0.151006 -0.071862 0.025641 -0.031422 -0.070767 0.449584 0.104592 -0.031434 0.081020 0.045971 0.331214 0.209017 0.196119 0.235253 0.115583 0.085790 0.241998 0.031719 0.036556 0.072028 -0.117186 0.180876 0.140754 -0.114615 -0.049822 -0.258352 -0.128327 0.245877 0.130111 -0.164648 -0.271001 -0.147425 0.082035 -0.149300 -0.104941
117 0.150165 -0.455477 -0.133553 -0.459988 0.062008 0.052725 -0.290892 0.116845 0.553937 -0.120637 -0.175716 0.142262 -0.317276 -0.224011 -0.099046 -0.064905 0.142201 0.260282 0.130333 -0.053842 -0.446921 0.082820 -0.367498 -0.051307 0.026116 -0.264961 0.370974 -0.097765 0.042634 0.053997 0.093168 -0.072268 0.122192 -0.013362 -0.107678 -0.045999 -0.017995 -0.251375 0.010903 0.074036 -0.070416 0.392497 -0.344078 0.179034 0.101989 -0.185693 0.013035 -0.200023 0.239885 -0.059131 -0.112750 0.172763 0.179820 0.442369 -0.088301 0.098473 -0.277239 -0.146507 -0.242016 -0.366598 0.109712 -0.336156 -0.006686 0.256069 -0.097997 -0.057904 0.089305 -0.016311 -0.284581 -0.127154 -0.191836 0.007680 -0.043898 -0.110074 0.215727 0.064349 -0.177465 -0.052423 -0.250626 -0.258785 -0.174349 0.090249 -0.469645 0.283939 0.162735 0.183782 -0.096597 0.121422 -0.173610 -0.116722 0.022609 -0.178846 0.150901 0.113948 0.150304 -0.252221 0.282026 -0.326583 0.009171 -0.151486 -0.018379 -0.038560 -0.490170 -0.431021 0.105309 -0.167819 -0.043844 -0.051483 0.221428 -0.185642 0.193215 0.031152 0.150911 -0.245869 0.101003 -0.307296 -0.193247 0.244864 -0.163442 0.073153 0.039766 0.119899 0.141847 0.106437 -0.195070 0.158024 -0.034102 0.211103
195 -0.092877 -0.191062 -0.011915 -0.272463 -0.324072 -0.132274 -0.356435 0.094402 0.273562 0.199455 -0.032062 0.122403 -0.179667 -0.068990 0.019045 -0.007694 0.066322 0.209222 0.404164 -0.010532 -0.108927 0.249362 -0.030898 0.083337 -0.169691 -0.022628 0.199963 -0.146514 -0.037188 0.307090 0.167324 0.061001 0.023072 0.049875 -0.200267 0.048878 -0.134182 -0.142330 -0.100210 -0.025752 0.250019 0.281184 -0.100273 -0.101808 -0.013594 -0.172221 -0.063081 0.119274 0.016995 0.058233 -0.167848 -0.070244 0.109475 0.388720 -0.175885 0.117724 0.095146 -0.366437 -0.356138 -0.304608 -0.029954 -0.176271 0.032198 0.066024 -0.147403 0.289171 0.096523 -0.287926 -0.251800 -0.113194 -0.055439 0.215497 0.122647 -0.076840 -0.110246 0.033807 -0.069879 0.007169 -0.132665 -0.270058 0.120220 0.100411 -0.098952 0.265886 0.235059 0.205572 -0.059027 0.275777 -0.212270 0.034928 0.072713 0.101668 -0.203360 0.285639 -0.044605 -0.022585 -0.024069 -0.208677 0.145940 0.017647 0.340719 0.263120 -0.121308 0.112415 0.283213 -0.090193 -0.081725 0.092893 0.221131 -0.196026 0.091534 -0.076623 0.001061 -0.157716 0.139878 -0.143934 0.041676 0.330656 -0.331613 0.206679 0.045142 -0.076940 0.157917 0.192324 0.005921 0.150341 -0.316805 -0.009192
57 -0.114358 -0.494670 0.066262 -0.343789 -0.005580 -0.245751 -0.121285 0.083886 0.093241 0.201771 -0.007353 0.382578 -0.115439 0.167632 -0.164721 0.053324 0.418827 0.147917 0.261841 0.135731 -0.024730 0.083292 -0.065563 -0.066043 0.298814 -0.180087 -0.229057 0.072904 -0.058288 0.079777 -0.042872 0.004206 0.152310 0.119613 -0.117709 0.015311 -0.022331 -0.269444 -0.070950 0.271149 0.063711 0.416016 -0.002717 -0.207207 -0.112040 -0.007887 0.017035 -0.242568 -0.080251 -0.132707 -0.153677 0.031338 0.067812 0.165496 -0.061628 -0.188947 0.266121 -0.155792 -0.416692 -0.335875 -0.076458 -0.171715 -0.027681 0.145626 0.026707 0.120964 -0.235814 -0.156901 0.186251 0.190906 0.093204 0.063162 0.243652 -0.249297 0.307263 -0.048023 -0.231075 0.202219 -0.114179 -0.053239 0.120926 -0.096059 -0.369961 0.027196 0.374914 0.102544 0.180507 0.011943 -0.332526 0.014239 0.185155 0.115446 -0.272475 -0.051094 -0.112851 -0.039313 -0.080243 -0.004188 0.395699 0.026292 0.045943 -0.004663 -0.177171 0.171161 0.194085 0.328443 0.216425 0.136014 0.159971 0.338127 0.007198 0.019639 0.140365 -0.048454 0.152416 0.000593 0.007061 -0.046971 -0.188115 -0.232939 0.326524 0.083571 -0.188056 -0.224628 -0.175816 0.074323 -0.067668 -0.005906
26 0.002556 -0.550661 0.072814 -0.210102 -0.000208 -0.137882 0.109951 0.173469 0.079745 0.214458 -0.148510 0.161275 -0.051464 0.178452 -0.154786 0.077312 0.298132 0.229309 0.280822 0.345586 -0.128213 0.011706 0.091266 0.018344 0.222171 -0.181212 -0.350892 0.023522 -0.223208 -0.129496 0.028918 0.124749 0.009701 -0.081583 -0.331717 -0.003991 0.012845 -0.135569 -0.186393 0.092206 -0.035632 0.267492 0.059715 -0.091104 -0.102812 -0.033195 -0.191766 -0.017958 0.050398 -0.150922 -0.225371 0.028971 -0.047907 0.040650 -0.156939 -0.321875 0.325323 -0.001600 -0.331151 -0.281879 -0.172399 -0.195615 0.044865 0.211963 -0.086260 0.267736 -0.317282 0.021852 0.003004 0.104368 0.154747 0.157504 0.267682 -0.175483 0.235504 -0.101328 -0.239607 0.152752 -0.217931 0.085963 0.163454 -0.152744 -0.257027 0.149323 0.257858 -0.053386 0.178935 0.008752 -0.134327 0.046966 0.207506 0.063363 -0.079578 0.052288 -0.131181 0.057552 0.143963 -0.064410 0.371872 0.131030 -0.010845 -0.113043 -0.177838 0.313729 0.402644 0.334455 0.143326 0.159546 0.190023 0.323871 -0.149284 0.134404 0.083716 -0.111751 0.148706 0.064467 -0.075370 -0.031660 -0.082154 -0.379920 0.218402 0.014031 -0.174991 -0.119193 -0.202637 0.152655 0.102239 -0.236253
88 -0.180400 -0.495255 0.059349 -0.346975 -0.129833 -0.212773 0.005468 0.136728 0.056447 0.277565 -0.057130 0.330044 -0.076654 0.220534 -0.191453 0.014859 0.338225 0.214283 0.350620 0.244476 -0.122627 0.038805 0.086234 0.060469 0.255161 -0.091675 -0.340035 -0.027367 -0.102133 0.059985 -0.009269 0.144688 0.143528 0.002497 -0.271366 -0.028207 -0.054520 -0.231099 -0.066690 0.301026 0.027532 0.289322 0.187416 -0.116542 -0.100884 0.129358 -0.088827 -0.216383 -0.117953 -0.038340 -0.355093 -0.005905 -0.001467 0.093719 -0.018830 -0.212031 0.344117 -0.295617 -0.395023 -0.232417 -0.142047 -0.166264 -0.074623 0.182379 0.143242 0.262017 -0.348560 -0.148417 0.211928 0.176460 0.150027 0.132473 0.298538 -0.311175 0.220661 -0.005803 -0.320208 0.192827 -0.060041 -0.043918 0.241079 -0.085275 -0.325204 0.013975 0.265295 -0.038393 0.200899 -0.048291 -0.355668 0.135642 0.298641 0.152396 -0.239080 -0.021039 -0.159846 -0.010122 -0.058170 -0.038957 0.458273 0.095691 0.020368 0.070821 -0.223795 0.312429 0.298167 0.277262 0.127077 0.102225 0.175691 0.406986 0.008355 0.142035 0.091013 -0.011724 0.102476 0.033646 0.055402 -0.033753 -0.230006 -0.243031 0.306708 0.094744 -0.219115 -0.271500 -0.182212 0.063479 -0.087193 -0.095549
61 -0.063609 -0.446429 0.016140 -0.347204 -0.151993 -0.221409 -0.057122 0.127480 0.103872 0.171493 0.086179 0.235128 -0.172691 0.247829 -0.241682 0.166301 0.343379 0.201935 0.120810 0.228233 -0.174232 0.003291 -0.052739 -0.158666 0.458640 -0.115574 -0.352874 0.100692 -0.115367 0.044063 -0.048989 -0.038351 0.081383 0.061090 -0.233611 0.167191 0.049083 -0.307600 -0.231651 0.240323 0.035472 0.356692 0.016178 -0.216243 -0.107758 0.046666 -0.035342 -0.165552 -0.190745 -0.285224 -0.249636 -0.041362 0.100026 0.075011 -0.099344 -0.305207 0.226966 -0.230167 -0.299529 -0.512232 -0.070501 -0.187656 0.065446 0.091774 -0.227379 0.229194 -0.098334 -0.114741 0.056858 0.093400 0.068597 -0.029140 0.300880 -0.111356 0.074838 -0.126083 -0.248692 0.063676 -0.142944 -0.051791 0.337398 -0.254371 -0.440503 0.050601 0.275338 -0.035821 0.208839 0.022885 -0.155367 -0.081981 0.160389 0.122056 -0.278645 0.031919 -0.040132 -0.048040 -0.056965 0.014904 0.414476 0.151353 0.131491 0.140363 0.041513 0.234462 0.238399 0.165975 0.249923 0.202159 0.116090 0.260760 -0.069399 0.061219 0.148013 -0.084985 0.162561 0.037972 -0.077312 0.062151 -0.160121 -0.152973 0.218525 0.182899 -0.278005 -0.098868 -0.131040 0.051334 -0.018559 -0.098367
71 -0.053414 -0.250330 -0.092837 -0.289100 -0.290380 -0.019455 -0.497810 -0.075969 0.279418 0.128809 -0.177319 0.185557 -0.223895 -0.110125 0.105615 -0.023748 -0.083895 0.213117 0.237546 0.210686 -0.511749 0.144934 -0.113663 0.035508 -0.232037 -0.092861 0.329565 -0.104376 0.114074 0.216219 -0.016469 -0.053058 0.167180 -0.041102 -0.295778 0.052482 -0.179241 -0.280051 0.007066 -0.072217 0.136822 0.294257 0.178809 0.109486 -0.010598 -0.112699 -0.167335 0.017831 0.022923 0.011503 -0.245557 -0.069079 0.017083 0.402550 -0.295211 0.004790 -0.147940 -0.322327 -0.034031 -0.191895 0.104671 -0.353282 0.070111 0.000621 -0.239644 0.282250 0.063783 -0.268886 -0.373079 -0.205310 -0.073881 0.096987 0.075912 -0.074052 -0.170102 0.087438 0.049736 -0.116137 -0.097055 -0.327845 0.152894 0.076118 -0.068913 0.314022 0.121092 0.186709 0.024667 0.073465 0.002433 -0.029860 0.089883 -0.046273 -0.020309 0.051510 0.157005 -0.005369 0.143978 -0.221672 0.182188 -0.159366 0.174277 0.241384 -0.337971 -0.045572 0.235043 -0.089928 -0.103237 -0.045391 0.197636 -0.278124 0.140249 -0.078286 -0.101205 -0.284416 0.239561 -0.018043 -0.141003 0.406468 -0.439433 0.247085 -0.022778 0.050536 0.123927 0.255609 0.040590 0.120165 -0.422437 0.043695
177 -0.002803 -0.410761 -0.189273 -0.448092 -0.043605 0.081059 -0.245567 0.033022 0.593065 0.026544 -0.310139 0.183081 -0.306494 -0.215179 -0.031172 -0.144223 0.058526 0.239457 0.086877 0.065129 -0.550486 0.147066 -0.277337 -0.063788 -0.171385 -0.240711 0.488692 0.035753 -0.007586 0.151475 0.146192 0.051895 0.158369 0.110275 -0.090529 0.030027 -0.067151 -0.328083 0.044151 -0.088851 -0.206474 0.373813 -0.253915 0.123571 0.088161 -0.197767 -0.049214 -0.186984 0.209806 -0.017763 -0.253984 0.177266 0.145893 0.476657 -0.275525 -0.070451 -0.479807 -0.278338 -0.149962 -0.295952 0.213041 -0.449854 -0.041230 0.261106 -0.193810 -0.106701 -0.009404 -0.065624 -0.395206 -0.308426 -0.217942 0.083864 0.005676 -0.146516 0.195647 0.101191 -0.106897 -0.041259 -0.177663 -0.242277 -0.228602 0.062940 -0.490198 0.280687 0.241524 0.261047 -0.053301 0.203917 0.022409 -0.154749 0.050987 -0.113438 0.267313 0.154986 0.238167 -0.250783 0.256946 -0.297421 -0.138993 -0.133030 -0.025376 0.015439 -0.696067 -0.606759 0.208974 0.006001 -0.009163 -0.121055 0.075368 -0.171139 0.131417 -0.084030 -0.026589 -0.360095 0.202617 -0.245787 -0.164771 0.421648 -0.212211 -0.036096 -0.012027 0.006674 0.305642 0.242914 0.015891 0.222702 -0.137014 0.257950
22 -0.055867 -0.502314 0.093551 -0.216307 0.017290 -0.235705 0.063859 0.104585 0.038364 0.246549 -0.024886 0.245936 -0.108897 0.127686 -0.048486 0.040915 0.407294 0.135210 0.300146 0.184449 -0.096136 0.031618 0.003423 -0.076014 0.369350 -0.168435 -0.321053 0.021351 -0.050803 -0.033358 -0.045630 0.045622 0.084348 0.085361 -0.228571 0.032937 -0.014347 -0.251291 -0.070597 0.263025 0.036330 0.349248 0.029244 -0.143963 -0.123247 -0.001984 -0.153465 -0.148566 -0.003046 -0.129125 -0.176467 0.044020 -0.015813 0.068765 -0.146290 -0.240575 0.344104 -0.037880 -0.388914 -0.379780 -0.111792 -0.245253 0.014486 0.234659 0.004588 0.185603 -0.246726 -0.035553 0.056320 0.197186 0.105320 0.094809 0.272208 -0.194301 0.354314 -0.074920 -0.291938 0.255409 -0.219380 0.010623 0.189919 -0.072513 -0.283122 0.123862 0.246728 -0.000798 0.146271 0.024351 -0.227084 0.032278 0.248018 0.079650 -0.174336 -0.010308 -0.137028 0.020074 -0.019245 -0.088924 0.398685 0.017985 0.028770 -0.063769 -0.185637 0.407813 0.231052 0.256636 0.247297 0.222546 0.109171 0.372440 0.003104 0.156763 0.088523 0.022154 0.105867 0.109539 -0.083758 -0.082376 -0.090440 -0.224347 0.259638 0.019831 -0.132491 -0.141848 -0.104090 0.108771 0.071285 -0.055303
126 -0.202256 -0.329516 0.056112 -0.244044 0.050326 -0.300848 -0.003572 0.218994 0.229657 0.185015 -0.031673 0.246506 -0.213465 -0.040443 -0.060604 0.011618 0.379176 0.120827 0.198941 -0.093318 0.075622 -0.026660 -0.084604 -0.331705 0.296376 -0.163154 0.016875 0.107656 -0.047281 -0.013559 0.112099 0.028875 0.233830 0.182867 -0.203055 -0.005525 -0.069569 -0.185630 -0.177266 0.291765 0.141410 0.507275 -0.332314 -0.262622 -0.122202 -0.093738 0.110987 -0.127369 0.117463 -0.062488 -0.229311 0.206169 0.059426 0.127540 -0.070313 -0.084857 0.368508 -0.180637 -0.460499 -0.540727 -0.018262 -0.172477 -0.084023 0.230177 0.020150 0.101715 -0.238023 0.001166 -0.056211 0.230330 0.136706 0.024222 0.164949 -0.171534 0.386407 -0.190435 -0.214062 0.341830 -0.047427 -0.230589 0.265196 -0.017084 -0.167994 -0.046225 0.262261 0.122893 0.012594 0.170627 -0.253998 -0.020946 0.027060 0.209448 -0.174627 0.171438 -0.163279 -0.045677 -0.203100 -0.081735 0.189810 0.095345 0.036713 0.135076 -0.163139 0.164549 0.130529 0.097487 0.192889 0.338806 0.115612 0.070697 -0.036641 0.182664 0.075391 0.090734 0.125034 -0.058847 0.011810 -0.027917 0.022507 -0.118893 0.310452 0.055908 -0.004878 -0.114070 -0.045984 0.168144 0.091684 -0.007282
153 0.041602 -0.316355 -0.060489 -0.468450 -0.013692 0.091176 -0.085719 0.154835 0.552726 -0.031426 -0.227930 0.088517 -0.203223 -0.301722 -0.012639 -0.103550 0.025309 0.250633 0.104327 -0.023868 -0.604757 0.092312 -0.156624 0.005803 0.005715 -0.086008 0.325581 -0.116701 -0.004752 0.057753 0.168355 0.118471 0.067805 -0.043730 -0.105659 -0.010649 -0.040116 -0.403530 -0.019415 0.024321 -0.135533 0.131974 -0.263922 0.124257 0.159837 -0.049602 -0.050225 -0.198242 0.084687 -0.047640 -0.332678 0.199180 0.189596 0.374471 -0.226472 -0.045009 -0.394641 -0.242927 -0.022832 -0.194565 0.065426 -0.357223 -0.080598 0.351346 -0.050172 -0.028516 0.248940 -0.094994 -0.348773 -0.289681 -0.157332 0.039583 0.034405 0.049855 0.264155 0.136682 -0.403293 0.039874 -0.139707 -0.217343 0.027796 0.197122 -0.480821 0.251415 0.094023 0.079646 -0.097885 0.126296 0.078446 -0.026890 0.138343 -0.168606 0.198591 0.298937 0.162810 -0.305682 0.305825 -0.357321 -0.114385 -0.041484 -0.040165 0.122564 -0.651075 -0.426602 0.289464 -0.197083 -0.085322 -0.091042 0.038439 -0.283363 0.168048 0.235953 0.035266 -0.176664 -0.006871 -0.316213 -0.056028 0.325195 -0.147302 0.078952 -0.174931 0.053540 0.256805 0.168227 0.106106 0.278459 -0.024188 0.219690
56 -0.060780 -0.477140 0.096977 -0.320314 -0.151150 -0.213284 -0.008562 0.205108 0.112500 0.253510 -0.032418 0.282145 -0.081969 0.203513 -0.254502 0.094978 0.269690 0.252687 0.255111 0.309272 -0.170564 0.020594 0.136287 -0.019702 0.330295 -0.051799 -0.444739 0.006061 -0.257012 0.021762 0.003899 0.095457 0.091865 -0.056256 -0.368770 -0.044401 0.025081 -0.178333 -0.244529 0.247741 0.030998 0.258275 0.180004 -0.108683 -0.093555 0.114834 -0.112551 -0.109844 -0.138287 -0.220309 -0.356576 -0.007095 0.008316 0.069625 -0.103726 -0.309976 0.321538 -0.229207 -0.316121 -0.310892 -0.100450 -0.147682 -0.011159 0.184153 -0.019966 0.304031 -0.245000 -0.103701 0.098658 0.112243 0.186799 0.065860 0.330629 -0.172008 0.069923 -0.093407 -0.324569 0.142146 -0.098717 -0.005574 0.368877 -0.204825 -0.306668 0.050404 0.246344 -0.109099 0.216371 -0.040183 -0.193999 0.085721 0.291861 0.110555 -0.204824 0.020804 -0.149570 0.023516 0.020529 -0.028099 0.478418 0.199481 0.015652 0.106264 -0.109490 0.336535 0.395301 0.266449 0.100839 0.123302 0.186566 0.226732 -0.129464 0.166552 0.136778 -0.069194 0.161700 0.025632 -0.003164 0.007841 -0.200404 -0.262879 0.256860 0.153932 -0.263986 -0.197315 -0.204092 0.102432 -0.036469 -0.200272
55 -0.025376 -0.443908 0.078459 -0.285219 -0.152096 -0.247302 0.052632 0.175639 0.145510 0.282558 0.015649 0.144496 -0.107722 0.212541 -0.177300 0.044263 0.286727 0.221132 0.229440 0.287841 -0.170768 0.041702 0.167378 -0.064242 0.335707 -0.080536 -0.429622 0.029025 -0.227104 0.034070 0.034791 0.112658 0.041885 0.026377 -0.329091 0.026988 -0.018982 -0.205971 -0.205123 0.253536 -0.024392 0.263270 0.114092 -0.139435 -0.114447 0.048236 -0.118306 -0.142588 -0.110910 -0.175755 -0.365912 0.002125 -0.001965 0.032148 -0.129975 -0.353872 0.280462 -0.234836 -0.352581 -0.352482 -0.069777 -0.203395 0.025488 0.179032 -0.052281 0.266973 -0.223241 -0.108201 0.013156 0.106611 0.126275 0.127896 0.310757 -0.159014 0.127516 -0.101572 -0.316591 0.120383 -0.165568 0.062014 0.299877 -0.202184 -0.356464 0.113565 0.248682 -0.073485 0.169150 0.040558 -0.143482 -0.003451 0.277322 0.144612 -0.128813 0.059626 -0.139060 -0.016140 -0.040465 -0.041941 0.454141 0.172251 0.056597 0.085377 -0.056857 0.330720 0.329621 0.261048 0.179119 0.204350 0.163923 0.270453 -0.106944 0.106952 0.074727 -0.092052 0.194967 0.045071 -0.006086 0.004623 -0.130691 -0.309172 0.254060 0.060589 -0.136486 -0.110495 -0.126157 0.126773 -0.031068 -0.186723
155 -0.157065 -0.171256 -0.226980 -0.180111 -0.398457 -0.076397 -0.357881 0.015041 0.214782 0.171573 -0.165105 0.118167 -0.280242 -0.030896 0.074207 0.001372 -0.002476 0.184539 0.139230 0.339200 -0.522450 0.078820 0.054749 -0.021636 -0.139651 -0.014331 0.215309 -0.067210 0.015065 0.217959 0.044318 0.016206 0.238842 -0.055336 -0.407472 0.064944 -0.157544 -0.236614 -0.022682 -0.062474 0.145308 0.282321 0.245478 0.105865 -0.130806 -0.107531 -0.149221 0.111396 -0.016609 -0.010529 -0.433670 -0.102792 -0.005949 0.337739 -0.294905 -0.060011 0.034412 -0.353788 -0.046062 -0.225853 0.030537 -0.356631 0.132546 -0.065936 -0.157047 0.384987 -0.060733 -0.236412 -0.385010 -0.111436 0.016550 0.129953 0.105087 -0.168698 -0.289381 0.068734 -0.086061 -0.142700 -0.048128 -0.353299 0.264693 -0.035989 -0.053403 0.279188 0.145177 0.134109 0.031984 0.030216 0.012211 -0.015299 0.057751 0.086870 -0.003147 0.056569 0.123450 -0.057196 0.066834 -0.104653 0.273601 -0.040736 0.242025 0.374625 -0.189040 0.069854 0.259209 -0.051999 -0.076101 -0.003013 0.228950 -0.211545 0.001556 -0.035014 -0.152782 -0.176382 0.209944 0.052915 -0.085821 0.404555 -0.356352 0.167876 0.074636 0.071349 0.101120 0.251167 0.083475 0.052123 -0.398765 -0.070556
64 0.013001 -0.338415 0.064937 -0.266320 0.088496 -0.183417 -0.102509 0.129296 0.299310 0.107344 -0.019748 0.300329 -0.155549 -0.095555 -0.095068 0.008081 0.314595 0.139084 0.193228 -0.171152 0.022398 0.043066 -0.186560 -0.185762 0.248815 -0.213494 0.077775 -0.016368 -0.018609 -0.020108 0.080992 -0.049683 0.147903 0.100821 -0.062408 -0.034639 -0.007708 -0.158485 -0.133418 0.286987 0.114841 0.488976 -0.379427 -0.177282 -0.027919 -0.146999 0.087693 -0.142730 0.113747 -0.131168 0.021360 0.139852 0.120053 0.241020 -0.052408 0.034387 0.189966 -0.113659 -0.441560 -0.432931 -0.024639 -0.134116 -0.043586 0.256501 -0.012828 0.023420 -0.080290 0.000182 -0.025003 0.156163 0.056957 -0.011678 0.094589 -0.133970 0.338652 -0.118910 -0.161145 0.267926 -0.145342 -0.184980 -0.019388 0.021750 -0.233406 0.017114 0.240354 0.150429 -0.025410 0.135273 -0.344982 -0.046794 0.001167 0.023655 -0.191313 0.132446 -0.119895 -0.082825 -0.043329 -0.150379 0.118156 0.001454 0.063161 -0.052994 -0.245190 0.012476 0.128657 0.075717 0.141858 0.215455 0.173929 0.045198 0.044927 0.088177 0.207333 0.000397 0.110381 -0.174473 0.020850 -0.005686 -0.015175 -0.039871 0.215866 0.086461 -0.045377 -0.062218 -0.203125 0.130440 0.109405 0.055325
77 0.124821 -0.598464 0.198121 -0.202863 0.038861 -0.098919 0.128756 0.079660 0.049422 0.285569 -0.244423 0.131506 0.014574 0.115192 -0.015461 -0.024644 0.238560 0.296570 0.424852 0.385082 -0.129436 0.150989 0.190935 0.181543 0.117657 -0.206211 -0.351847 -0.079037 -0.190379 -0.222695 -0.013624 0.232785 -0.082432 -0.118694 -0.296199 -0.051389 -0.009604 -0.169896 -0.060052 0.102145 -0.113436 0.189195 0.144246 -0.041826 -0.057024 -0.057476 -0.336879 0.018944 0.096718 -0.071579 -0.158659 -0.005605 -0.080719 0.054513 -0.246057 -0.271975 0.224663 0.123988 -0.338778 -0.055758 -0.231501 -0.231058 0.105182 0.278214 -0.048733 0.317583 -0.251289 -0.023784 -0.055980 0.025805 0.143611 0.214517 0.344369 -0.165430 0.334932 -0.004525 -0.232077 0.181938 -0.318914 0.223502 0.057937 0.028234 -0.180473 0.264073 0.200000 -0.082642 0.157801 0.031653 -0.095093 0.123482 0.340820 -0.028825 0.010761 0.035431 -0.211802 0.160556 0.271809 -0.142293 0.336710 0.088990 -0.041407 -0.251881 -0.363987 0.500260 0.487921 0.405480 0.121927 0.126312 0.138781 0.352753 -0.018984 0.232210 0.084606 -0.142052 0.154425 0.132241 -0.082051 -0.066318 -0.094152 -0.356549 0.143087 -0.122568 -0.093823 -0.055415 -0.168039 0.257332 0.125607 -0.246513
159 0.001469 -0.413330 0.062661 -0.240773 -0.131008 -0.183450 -0.000465 0.200633 0.187596 0.113611 -0.351758 0.269209 -0.047321 0.135854 -0.173594 -0.065184 0.165124 0.280078 0.182153 0.237602 0.018948 0.048400 0.168060 0.132513 -0.031331 -0.121258 -0.071821 -0.017055 -0.316299 -0.120804 0.228476 0.112153 0.092158 -0.030179 -0.285132 0.012856 -0.133004 -0.055788 -0.151209 -0.100676 0.003350 0.243274 -0.153390 -0.266695 0.028573 -0.031234 -0.055958 0.123249 0.153898 -0.154813 -0.257989 0.048634 0.088637 0.168042 0.003357 -0.079714 0.254008 -0.077201 -0.229558 -0.144721 -0.219892 -0.016554 0.032768 0.099631 -0.130794 0.291913 -0.242536 0.024385 -0.100174 0.040885 0.132387 0.071752 0.245802 -0.098182 0.114877 -0.032162 -0.186042 0.157241 0.051510 -0.199082 0.084437 -0.156335 -0.229018 0.018236 0.387738 0.113846 0.147332 -0.006446 -0.210532 0.085174 -0.035638 0.069125 -0.173387 0.181820 -0.176342 0.142283 0.088260 0.038888 0.257248 0.247423 -0.005814 -0.040104 -0.285602 0.009016 0.505969 0.225243 0.006976 0.027764 0.155786 -0.020964 -0.175511 0.091714 0.045039 -0.160231 0.023496 -0.276249 0.097095 0.124265 -0.130188 -0.341648 0.122669 -0.017168 -0.036309 -0.066435 -0.218028 0.250253 0.090560 -0.279014
237 -0.145946 -0.285455 0.117058 -0.240090 -0.301476 -0.139518 -0.218924 0.058992 0.136281 0.315348 -0.296591 0.281686 -0.085435 0.010989 0.045234 -0.133015 0.013381 0.245298 0.384371 0.244983 -0.078187 0.216869 0.372592 0.216136 -0.242645 0.016458 0.079760 -0.157759 -0.048607 0.151183 0.157401 0.245571 0.185177 -0.072630 -0.361092 -0.123737 -0.188885 -0.111595 0.060912 0.135569 0.058106 0.164130 0.227366 -0.039351 -0.032751 0.039544 -0.163291 0.047985 -0.021664 0.213000 -0.391017 -0.069652 -0.017696 0.255208 -0.149713 0.047299 0.158981 -0.387936 -0.292502 0.141818 -0.077141 -0.209245 0.030319 0.085274 0.190899 0.381689 -0.259982 -0.307460 -0.035939 0.023926 0.112581 0.216874 0.327371 -0.321659 -0.032904 0.105155 -0.117627 0.067720 0.075542 -0.155353 0.100311 0.112362 0.031089 0.109050 0.187692 0.135818 0.116362 0.054725 -0.260084 0.242036 0.250838 0.186058 -0.098136 -0.003921 -0.212728 0.178670 0.012303 -0.088060 0.302950 0.111053 0.081839 0.177838 -0.345034 0.309325 0.410969 0.159989 -0.036799 -0.058902 0.185089 0.036648 0.069907 0.104571 -0.083378 -0.127297 0.116050 0.029192 0.169025 0.135354 -0.361828 -0.007920 0.188887 -0.040309 0.071118 -0.101594 -0.092814 0.139065 -0.267467 -0.200045
171 -0.178680 -0.231924 -0.036913 -0.246354 -0.368053 -0.130698 -0.299024 0.009012 0.141520 0.287523 -0.187262 0.294477 -0.137450 0.069621 0.007407 -0.041265 0.035336 0.221181 0.301740 0.226151 -0.129760 0.218599 0.185350 0.141811 -0.214297 0.005886 0.128068 -0.054584 -0.024782 0.234433 0.142790 0.120961 0.199300 -0.036290 -0.305530 0.001624 -0.165301 -0.119396 -0.023537 0.008030 0.106767 0.255220 0.174598 -0.110304 -0.050244 -0.033095 -0.122236 0.093935 -0.053259 0.114135 -0.308889 -0.104643 0.040731 0.322779 -0.171045 0.004387 0.107450 -0.429715 -0.253908 -0.046012 -0.057531 -0.229920 0.077457 -0.007973 -0.009782 0.362844 -0.219308 -0.302231 -0.083437 -0.057306 0.058851 0.206729 0.289033 -0.279614 -0.158455 0.027758 -0.002747 -0.031612 0.028455 -0.197691 0.111197 0.011609 -0.005625 0.144205 0.271009 0.192290 0.128018 0.101970 -0.209062 0.090918 0.163088 0.200616 -0.160537 0.016854 -0.099660 0.099042 -0.017037 -0.056123 0.281520 0.093950 0.224897 0.259592 -0.276415 0.187180 0.384100 0.139705 -0.016987 -0.050202 0.201189 -0.013444 0.001796 -0.040329 -0.092477 -0.192701 0.170314 0.006873 0.077097 0.271214 -0.395826 0.021601 0.179357 -0.009718 0.014228 0.036678 -0.064679 0.090017 -0.335522 -0.147980
127 -0.148595 -0.404167 0.030115 -0.347830 -0.016844 -0.207209 -0.008860 0.078713 0.092443 0.188240 -0.035882 0.368084 -0.112408 0.120797 -0.167460 0.004764 0.355862 0.167018 0.193288 0.051565 -0.082191 0.008904 -0.104112 -0.109591 0.302470 -0.144095 -0.179448 0.096198 -0.065046 0.043295 -0.023303 0.002817 0.208529 0.111206 -0.116526 0.014716 -0.040953 -0.255272 -0.062464 0.272200 0.073032 0.348408 -0.059206 -0.194474 -0.049937 0.062868 0.007628 -0.228100 -0.027585 -0.163939 -0.200608 0.066167 0.064406 0.127360 -0.023293 -0.119978 0.212771 -0.209884 -0.335015 -0.384663 -0.076362 -0.134443 -0.080168 0.175786 0.014432 0.110241 -0.220474 -0.060605 0.125115 0.143004 0.099009 0.010113 0.214953 -0.200151 0.281707 -0.069147 -0.266786 0.251362 -0.015811 -0.153345 0.190655 -0.072515 -0.313649 -0.067974 0.282976 0.032531 0.137141 -0.006524 -0.294169 0.010551 0.145077 0.103946 -0.242968 0.007845 -0.116493 -0.047470 -0.106017 -0.011534 0.317150 0.055994 0.006460 0.071022 -0.269875 0.131932 0.207764 0.222346 0.153813 0.126448 0.089196 0.231598 -0.018304 0.109613 0.139486 0.008879 0.086200 -0.064378 -0.025623 0.008428 -0.129389 -0.163672 0.262306 0.115334 -0.193392 -0.176767 -0.123745 0.099799 -0.012123 0.054572
45 -0.103754 -0.511618 0.080787 -0.285051 0.042296 -0.182855 -0.018430 0.096554 0.052174 0.167355 -0.036647 0.294489 -0.118071 0.154732 -0.121482 0.087586 0.361859 0.154308 0.290625 0.141798 -0.086484 -0.003629 -0.105566 -0.074231 0.310630 -0.162534 -0.241860 0.014709 -0.011413 -0.000223 -0.060784 0.026264 0.098189 0.070847 -0.182416 0.044591 -0.008751 -0.261087 -0.087055 0.222217 0.060751 0.325535 0.016794 -0.131015 -0.080151 0.020786 -0.047395 -0.175608 -0.034131 -0.099653 -0.169424 0.039346 0.001483 0.101446 -0.071810 -0.184924 0.307096 -0.081232 -0.332995 -0.365597 -0.101651 -0.163329 -0.032711 0.170288 -0.020673 0.167959 -0.234076 -0.053789 0.121355 0.135918 0.075743 0.040595 0.211404 -0.177668 0.304192 -0.057047 -0.209616 0.198034 -0.128630 -0.042529 0.197814 -0.070777 -0.298737 0.054606 0.216821 0.021754 0.153847 0.002490 -0.271647 0.036355 0.183643 0.076264 -0.220140 -0.021147 -0.088690 0.008035 -0.018713 -0.059627 0.331483 0.027882 0.009590 -0.035021 -0.159269 0.226145 0.198533 0.194699 0.189536 0.166824 0.103136 0.336367 0.016265 0.140442 0.104886 -0.010672 0.110099 0.044995 -0.066914 -0.063807 -0.142990 -0.166807 0.232923 0.080833 -0.207826 -0.204568 -0.136258 0.083821 0.025999 -0.026253
42 -0.147643 -0.443532 0.067994 -0.243974 0.006242 -0.261760 -0.006413 0.119078 0.061148 0.178656 0.039690 0.261047 -0.160679 0.108525 -0.076613 0.094830 0.402939 0.089842 0.221815 0.128531 -0.115953 -0.035178 -0.061099 -0.161871 0.432988 -0.129790 -0.273169 0.061742 -0.013465 0.034459 -0.074883 -0.011872 0.155503 0.120931 -0.230434 0.053923 0.010480 -0.304776 -0.092515 0.292282 0.051940 0.359024 0.029440 -0.147174 -0.127783 0.026440 -0.081607 -0.202396 -0.085327 -0.147848 -0.225531 0.029382 0.019479 0.073201 -0.127121 -0.265954 0.298514 -0.107705 -0.309111 -0.419154 -0.028317 -0.248852 -0.022283 0.178269 -0.001176 0.158444 -0.183609 -0.060836 0.062429 0.202845 0.074974 -0.006030 0.245566 -0.152757 0.290027 -0.088643 -0.271865 0.229674 -0.162556 -0.068173 0.292513 -0.108420 -0.317120 0.054212 0.224228 0.018127 0.146787 -0.014035 -0.194749 -0.001016 0.216670 0.096005 -0.199567 -0.045527 -0.064599 -0.042827 -0.084923 -0.063620 0.364716 0.015250 0.030469 0.048044 -0.094936 0.306079 0.143855 0.178277 0.268856 0.213516 0.065435 0.316834 0.011385 0.137090 0.061500 0.036763 0.099792 0.114632 -0.088867 -0.068093 -0.108990 -0.157856 0.245839 0.116545 -0.161248 -0.193309 -0.072228 0.070349 -0.000372 0.018160
227 0.049279 -0.393087 -0.060475 -0.361181 0.029976 -0.103204 -0.554176 0.061787 0.445704 -0.126269 -0.122565 0.173513 -0.266047 -0.144859 -0.026368 -0.062547 0.075492 0.222960 0.352911 -0.070706 -0.320638 0.147579 -0.266872 0.144167 -0.195476 -0.128119 0.379949 -0.251223 0.168772 0.235491 0.093985 -0.141057 0.009516 -0.026323 -0.073776 -0.055062 -0.105459 -0.271786 -0.011284 0.070421 0.032214 0.321659 -0.376537 0.038601 0.094942 -0.325788 -0.012160 -0.202901 0.175743 0.071808 0.009191 -0.069019 0.300482 0.507321 -0.066411 0.147518 -0.240091 -0.063174 -0.257584 -0.283489 0.031978 -0.305836 0.143631 0.024337 -0.192593 0.064611 0.240527 -0.110776 -0.219550 -0.159733 -0.237023 0.191432 0.010355 0.051314 0.063785 0.138461 0.003186 -0.082490 -0.177951 -0.126885 -0.287599 0.128654 -0.425539 0.223438 0.183706 0.274004 -0.061168 0.195454 -0.201565 -0.022159 -0.016532 -0.154163 -0.027115 0.010804 -0.003347 -0.120137 0.266782 -0.292021 -0.016317 -0.137372 0.107779 -0.010751 -0.308694 -0.351943 0.286760 -0.010342 -0.097965 -0.059049 0.219256 -0.141839 0.167120 -0.041453 0.135541 -0.429661 0.109323 -0.259290 -0.139856 0.253804 -0.318641 0.015193 0.049298 -0.015539 0.131440 0.103063 -0.195217 0.263248 -0.178384 0.153211
161 -0.186082 -0.343929 0.127689 -0.187548 -0.296363 -0.222245 -0.137551 0.146126 0.128129 0.230955 -0.408469 0.299739 -0.080383 0.075711 -0.020995 -0.128892 0.040340 0.251145 0.294080 0.277466 0.087120 0.123741 0.356416 0.189229 -0.235180 -0.041694 0.086778 -0.075962 -0.120551 0.003691 0.237961 0.151386 0.229463 -0.059396 -0.413692 0.027513 -0.252384 -0.090238 -0.063684 -0.016733 0.052138 0.261714 0.025184 -0.253158 -0.007418 0.028701 -0.141548 0.138746 0.083454 0.112481 -0.386310 -0.028408 0.083555 0.226006 -0.062980 0.019927 0.222078 -0.279821 -0.224695 0.036568 -0.169565 -0.123503 0.019248 0.014891 -0.033506 0.414558 -0.269610 -0.157770 -0.129653 0.056596 0.140144 0.140551 0.339458 -0.215765 0.019010 0.042819 -0.068715 0.111239 0.157895 -0.279234 0.158333 -0.033493 0.039159 0.007893 0.331611 0.200669 0.146377 0.076931 -0.232319 0.221498 0.070409 0.217747 -0.184301 0.112329 -0.212251 0.259337 -0.015695 0.032008 0.260765 0.168218 0.079772 0.202974 -0.266863 0.217798 0.446014 0.168022 0.026882 0.006174 0.150247 0.011170 -0.059942 0.064679 -0.087121 -0.131981 0.053818 -0.087609 0.150151 0.186679 -0.282459 -0.137963 0.135545 -0.051793 0.029069 -0.082127 -0.081648 0.191932 -0.083933 -0.281203
110 0.163541 -0.377796 -0.022954 -0.511851 -0.242379 0.060417 -0.173206 0.047239 0.294503 0.074662 -0.120306 0.115561 -0.187359 0.067848 -0.143185 0.054395 0.021440 0.270248 0.118913 0.101838 -0.459838 0.180184 -0.235487 0.015962 0.040114 -0.156257 0.030784 0.011604 -0.140455 0.124907 0.049564 0.008101 -0.005829 -0.028976 -0.152736 0.099356 -0.025545 -0.234976 -0.091044 -0.080976 0.111504 0.080994 0.016625 0.071471 0.172373 0.021863 0.020187 0.018676 -0.052148 -0.235010 -0.257601 0.101868 0.028020 0.295654 -0.135661 0.076407 -0.051624 -0.304351 -0.026199 -0.323001 -0.058313 -0.113414 -0.023020 0.160253 -0.338796 0.149532 0.211987 -0.182173 -0.294732 -0.307937 -0.020886 0.009601 0.119913 0.041723 -0.041607 -0.008191 -0.296251 -0.000380 -0.095944 -0.308070 0.391231 0.033402 -0.342160 0.273886 0.135929 -0.016335 0.008331 0.104962 0.001885 -0.127074 0.082546 0.000834 -0.131191 0.288446 0.129737 -0.074756 0.168091 -0.161474 0.237283 0.057747 0.101545 0.159917 -0.387560 -0.093860 0.321745 -0.252842 -0.110398 -0.061820 0.123579 -0.414867 0.037411 0.122760 0.049054 -0.089841 0.059997 -0.308522 -0.152696 0.367700 -0.328565 0.227444 -0.092318 0.083705 -0.010858 0.177073 0.034743 0.171844 -0.142874 0.002865
83 0.044372 -0.626912 0.171622 -0.180818 0.083274 -0.073731 0.140838 0.150018 0.069493 0.254486 -0.226394 0.159916 -0.032421 0.138931 -0.129277 0.070805 0.249908 0.297407 0.367233 0.410774 -0.071060 -0.001284 0.151360 0.065634 0.176401 -0.179927 -0.344227 -0.065152 -0.189306 -0.285527 -0.025758 0.260745 -0.042125 -0.154480 -0.346746 0.020962 0.032707 -0.181722 -0.184407 0.141904 -0.117068 0.232440 0.037618 -0.051358 -0.083965 -0.034679 -0.269876 0.015457 0.062640 -0.111663 -0.261951 -0.046626 -0.043820 0.036711 -0.226279 -0.333490 0.305922 0.094078 -0.334062 -0.173878 -0.242334 -0.196740 0.097067 0.228893 -0.131121 0.367051 -0.282786 0.049455 -0.006581 0.031533 0.193516 0.119643 0.343099 -0.187117 0.297994 -0.044460 -0.166741 0.176374 -0.216464 0.174517 0.116280 -0.082823 -0.182277 0.125313 0.133687 -0.135048 0.186991 -0.003885 -0.114640 0.135434 0.305902 0.021972 -0.027772 0.031805 -0.204460 0.144623 0.250828 -0.084637 0.293850 0.181666 -0.065228 -0.197701 -0.237190 0.424342 0.479537 0.376556 0.118731 0.171520 0.153038 0.408064 -0.087284 0.285469 0.117192 -0.158523 0.184638 0.140149 -0.069390 -0.066460 -0.058404 -0.343044 0.156767 -0.038965 -0.223553 -0.160094 -0.226640 0.186850 0.207159 -0.296691
242 0.052153 -0.508968 0.144927 -0.199083 -0.043649 -0.076036 0.067739 0.090974 0.122022 0.282598 -0.228780 0.216654 -0.040504 0.151161 -0.135294 0.024540 0.178901 0.342948 0.265130 0.336709 0.028119 0.048706 0.182676 0.062903 0.114636 -0.151924 -0.229339 -0.068407 -0.200020 -0.269503 0.039307 0.231117 0.025660 -0.091233 -0.263221 0.075038 0.013330 -0.139503 -0.190759 0.170367 -0.132752 0.283725 -0.078416 -0.135754 -0.061637 -0.010784 -0.232009 0.066607 0.045569 -0.103882 -0.233497 -0.062173 0.047031 0.091786 -0.160987 -0.173530 0.246215 -0.032318 -0.349531 -0.170326 -0.227719 -0.097259 0.133617 0.179743 -0.187871 0.409211 -0.215718 0.047032 -0.014891 -0.026951 0.168343 0.035315 0.311382 -0.217419 0.156371 -0.055115 -0.075184 0.157804 -0.125185 0.089915 0.046049 -0.073463 -0.119492 0.069740 0.119049 -0.098524 0.144511 0.047072 -0.226470 0.097873 0.210884 0.044520 -0.071568 0.070559 -0.241051 0.135682 0.149399 -0.012384 0.220397 0.222577 0.037138 -0.124094 -0.251893 0.385329 0.466701 0.317354 0.108635 0.134740 0.166981 0.309128 -0.080927 0.241086 0.148756 -0.129593 0.175462 0.052499 0.056378 0.010380 -0.010753 -0.245607 0.148255 0.007911 -0.219133 -0.116534 -0.239833 0.120988 0.243836 -0.322128
66 -0.082495 -0.338410 -0.030422 -0.253558 -0.338212 -0.252459 -0.187082 0.131431 0.090590 0.241163 0.108963 0.192361 -0.188142 0.231598 -0.175295 0.183002 0.254435 0.189739 0.133026 0.342017 -0.211703 0.038046 0.069091 -0.134881 0.354738 -0.028131 -0.317560 0.078636 -0.162617 0.152654 -0.032160 -0.054530 0.111353 0.030103 -0.385208 0.141499 0.037024 -0.222126 -0.269773 0.184597 0.087046 0.351432 0.178690 -0.149928 -0.162276 0.019533 -0.121380 -0.044164 -0.245097 -0.250375 -0.324780 -0.136901 0.067284 0.111166 -0.194563 -0.340962 0.236487 -0.308284 -0.267356 -0.456036 -0.000473 -0.243305 0.131403 -0.016860 -0.253029 0.332102 -0.099439 -0.170810 -0.031528 0.085294 0.091834 0.017297 0.304955 -0.123842 -0.190868 -0.149760 -0.158229 -0.030904 -0.153781 -0.083900 0.381610 -0.316217 -0.294381 0.104996 0.254984 -0.022031 0.184768 0.031452 -0.082356 -0.076304 0.194029 0.163742 -0.263179 0.012850 -0.001575 -0.019900 -0.089691 0.028530 0.481340 0.154896 0.255276 0.284467 0.158283 0.346752 0.269501 0.170255 0.171162 0.167266 0.180966 0.161621 -0.117145 -0.029915 0.060762 -0.142499 0.236944 0.138199 -0.073028 0.160714 -0.244370 -0.072853 0.228626 0.185064 -0.226643 -0.005650 -0.108999 -0.005985 -0.179216 -0.174716
183 -0.703072 -1.095282 -0.045435 -0.159057 0.144604 -0.865681 -0.346418 0.610621 0.184473 -0.665732 -0.521754 -0.442251 -0.685442 -0.573413 0.212973 -0.009689 0.295845 0.466365 0.618726 0.314565 0.031130 -0.397503 -0.228209 -0.051768 -0.469924 -0.293673 0.569461 -0.522637 0.338943 -0.223319 0.075407 0.412127 0.204453 0.050367 -0.612916 0.450933 0.184909 -1.024678 0.194014 0.379714 -0.643789 0.706277 -0.538851 0.076210 -0.288801 -0.401647 0.006379 -0.810692 0.490767 0.628032 -1.172179 -0.364571 0.452795 0.318309 0.109770 -0.663233 -0.393891 -0.305212 -0.111982 -0.264799 0.102117 -0.930632 -0.259707 -0.416766 -0.085992 0.492583 -0.090162 0.192921 -0.578051 -0.085441 -0.351165 0.204044 0.822911 -0.173464 0.627160 0.088104 0.152913 0.002957 -0.128517 -0.378889 0.671437 0.346462 -0.551123 -0.130659 -0.251345 0.262875 0.040893 0.134331 0.089765 0.440696 0.166192 0.070863 0.513727 -0.082273 -0.135135 -0.037508 0.275251 -0.210735 -0.103820 0.183300 -0.430690 0.186557 0.201793 -0.049787 -0.058645 -0.131115 0.269895 0.432746 -0.243476 0.533006 0.676721 0.672087 -0.234323 -0.560308 0.290430 0.430412 -0.591556 0.164804 -0.680326 -0.382321 0.061610 -0.777809 0.184967 -0.146135 0.181514 0.719058 -0.201357 -0.454628
43 -0.218343 -0.256758 0.087871 -0.236002 0.121734 -0.273520 0.021510 0.252474 0.288091 0.190959 0.027210 0.203651 -0.260265 -0.125148 -0.037423 0.018944 0.335464 0.088146 0.140532 -0.193462 0.114017 -0.099736 -0.084830 -0.470113 0.349659 -0.126181 0.063968 0.088557 0.005779 -0.041035 0.113049 0.052990 0.224882 0.204818 -0.194991 0.024948 -0.010131 -0.206786 -0.260328 0.380518 0.155721 0.528385 -0.458551 -0.260776 -0.111920 -0.101789 0.120771 -0.091988 0.133727 -0.093359 -0.233974 0.225463 0.074259 0.127523 -0.124603 -0.051425 0.365515 -0.216091 -0.462284 -0.633608 0.016059 -0.175694 -0.064817 0.304842 -0.030304 0.095783 -0.126742 0.039786 -0.106049 0.208263 0.141923 -0.055032 0.155787 -0.121611 0.398526 -0.246586 -0.165549 0.379625 -0.053604 -0.263205 0.328021 -0.006748 -0.105897 -0.053242 0.148935 0.073735 -0.047846 0.232408 -0.238241 -0.036390 0.030572 0.198817 -0.141404 0.220120 -0.172336 -0.079328 -0.202275 -0.157374 0.095170 0.135483 0.043096 0.150596 -0.153110 0.198186 0.092806 -0.056817 0.215118 0.401488 0.088515 -0.035160 -0.006120 0.266269 0.067387 0.139740 0.112493 -0.038193 0.000754 -0.045037 0.080816 0.017202 0.261968 0.080158 0.037040 -0.104246 0.001501 0.152680 0.173262 0.005081
53 -0.062152 -0.515246 0.068222 -0.277310 -0.192648 -0.258418 0.049924 0.152543 0.036161 0.073018 -0.158018 0.127990 -0.199671 0.296310 -0.197984 0.083328 0.216952 0.291626 0.107760 0.300652 0.004122 -0.074835 0.033827 0.032376 0.293738 -0.091249 -0.262787 -0.063530 -0.119832 -0.184722 0.044661 0.031704 0.068750 0.031616 -0.320259 0.347098 -0.077633 -0.326195 -0.169593 0.129836 -0.153686 0.217509 -0.174489 -0.273785 -0.060512 0.152385 -0.123165 -0.037747 -0.097053 -0.153676 -0.415512 -0.098467 0.214262 0.081066 0.063823 -0.156968 0.243234 -0.141766 -0.147703 -0.338695 -0.217322 -0.036840 0.107574 -0.030348 -0.424334 0.426426 0.037566 0.103666 -0.091908 -0.069827 -0.007120 -0.129179 0.316818 -0.033125 0.037746 -0.035404 -0.181265 0.065149 0.056941 -0.154453 0.361721 -0.221967 -0.350714 -0.014149 0.141682 -0.077909 0.209253 0.021386 -0.191426 0.064991 0.028037 0.087387 -0.190144 0.127161 -0.090813 0.106903 -0.011273 0.130794 0.292748 0.236818 0.089111 0.155357 0.018633 0.277215 0.330080 0.006842 0.173342 0.136831 -0.009238 0.237800 -0.003635 0.263624 0.062021 -0.071571 -0.022084 -0.071340 0.025554 0.065938 -0.033520 -0.123997 0.025553 0.088535 -0.236612 -0.147155 -0.041998 0.081060 0.221035 -0.260625
149 -0.134242 -0.181165 -0.213853 -0.197053 -0.418197 -0.111948 -0.393642 0.124503 0.256168 0.156903 -0.058275 0.131518 -0.296957 0.017943 0.005573 0.092767 0.075228 0.150848 0.184384 0.272185 -0.409624 0.125083 0.049319 -0.049954 -0.086110 0.018077 0.161675 -0.062020 -0.083269 0.330986 0.097412 0.008680 0.128914 0.000882 -0.356003 0.064793 -0.086105 -0.165594 -0.129936 -0.069099 0.200976 0.272069 0.141084 0.033348 -0.081162 -0.130771 -0.088507 0.132066 -0.086272 -0.029296 -0.372103 -0.101506 0.021981 0.314218 -0.274365 -0.107660 0.100553 -0.371131 -0.176567 -0.304442 0.029808 -0.330457 0.110179 -0.036192 -0.144111 0.332093 -0.060001 -0.255611 -0.322107 -0.071547 -0.002339 0.179654 0.131414 -0.130554 -0.276019 -0.005914 -0.131268 -0.140934 -0.122923 -0.311298 0.233834 -0.098409 -0.166793 0.260873 0.227796 0.158964 0.014969 0.119458 -0.042235 -0.031074 0.043707 0.125063 -0.108758 0.137064 0.125564 -0.081215 -0.006784 -0.110331 0.273308 0.041390 0.318619 0.364379 -0.050237 0.064302 0.275497 -0.031489 -0.057888 0.046600 0.240381 -0.182868 -0.049848 -0.079170 -0.109010 -0.185124 0.196301 -0.004234 -0.048427 0.383052 -0.357027 0.121969 0.101135 0.062824 0.090116 0.215938 0.035606 0.029871 -0.385560 -0.080916
194 -0.030835 -0.270068 -0.073796 -0.338845 -0.389206 -0.084480 -0.356240 0.058179 0.312616 0.191891 -0.070246 0.148525 -0.198754 -0.022503 0.005597 0.059910 0.027984 0.218811 0.349384 0.047115 -0.329024 0.239778 -0.115251 -0.007927 -0.146613 -0.100174 0.176751 -0.120534 -0.101732 0.260407 0.108821 0.045703 -0.018673 0.026974 -0.201458 0.090334 -0.146644 -0.191827 -0.150293 -0.087328 0.251358 0.257322 0.001455 -0.035488 0.018922 -0.150963 -0.040355 0.113707 -0.032679 -0.075821 -0.190036 -0.017972 0.012960 0.387057 -0.228957 0.039338 0.101063 -0.361502 -0.249641 -0.348422 -0.028667 -0.152533 -0.017957 0.095908 -0.248739 0.276649 0.095500 -0.279253 -0.340621 -0.195610 -0.025293 0.193242 0.107192 -0.025139 -0.115188 -0.008869 -0.139782 0.013822 -0.165191 -0.354441 0.253385 0.068489 -0.149809 0.322818 0.235157 0.161525 -0.068174 0.250913 -0.136643 -0.042257 0.043526 0.056438 -0.215950 0.365994 0.059670 -0.058286 0.017123 -0.221943 0.187778 0.003727 0.332454 0.232731 -0.212467 0.040056 0.306373 -0.140825 -0.131841 0.103289 0.239581 -0.354834 0.019338 -0.066798 -0.029780 -0.126067 0.184762 -0.186322 -0.020949 0.406787 -0.375014 0.221993 0.004735 -0.036894 0.132129 0.312970 0.050128 0.159618 -0.324991 -0.013928
199 0.094173 -0.335405 -0.021181 -0.149188 -0.196857 -0.169896 -0.323939 0.260540 0.426732 -0.005342 -0.123763 0.189424 -0.170822 -0.146908 -0.096047 0.015255 0.182845 0.163608 0.300185 -0.029872 -0.068207 0.135844 -0.086763 0.069149 -0.049689 -0.154503 0.198502 -0.219126 -0.204735 0.084724 0.255690 -0.062222 -0.030180 0.028716 -0.168633 0.049350 -0.115732 -0.054013 -0.228915 -0.123072 0.135259 0.419270 -0.417990 -0.177584 -0.001482 -0.256289 -0.029741 0.109488 0.163347 -0.161525 -0.014432 0.030720 0.188233 0.415667 -0.063354 0.038708 0.145952 -0.075760 -0.356454 -0.348971 -0.050405 -0.102974 0.035971 0.166321 -0.227946 0.125256 0.124970 0.004348 -0.265859 0.011318 -0.080583 0.079283 -0.010996 0.058208 0.090573 0.036079 -0.140475 0.087004 -0.236014 -0.338337 -0.118109 -0.076696 -0.315745 0.227126 0.375158 0.254758 -0.122066 0.227657 -0.345564 0.008885 -0.105806 -0.151191 -0.188830 0.368740 0.001084 -0.082798 0.084290 -0.223056 0.058945 0.024267 0.219480 -0.057790 -0.096152 -0.182647 0.286327 -0.052825 -0.110389 0.107671 0.264540 -0.247243 -0.039631 -0.177346 0.122610 -0.197587 0.063464 -0.386527 0.067801 0.248408 -0.181648 -0.025892 -0.022363 0.022855 0.176955 0.140932 -0.204367 0.167047 -0.036916 -0.020239
141 0.125569 -0.467833 0.056351 -0.469342 -0.038592 0.090263 -0.019324 0.387035 0.681201 -0.062553 -0.193927 -0.148600 -0.296272 -0.427492 0.017029 -0.217137 -0.009818 0.200343 0.198995 0.025257 -0.638734 -0.007849 0.041721 -0.001318 0.113015 -0.021801 0.182271 -0.326978 0.028877 0.135377 0.181423 0.255438 -0.082082 -0.053389 -0.388481 -0.000453 0.091698 -0.430548 -0.089815 0.247905 -0.360273 -0.047065 -0.315475 0.341034 0.220516 0.090821 -0.225450 -0.250991 0.077278 0.028904 -0.694237 0.152259 0.162565 0.356035 -0.268801 -0.098005 -0.416897 -0.342874 -0.030753 -0.257994 0.191549 -0.565098 -0.082684 0.570404 -0.073897 -0.044923 0.371257 0.072649 -0.414285 -0.327190 -0.227056 -0.015389 0.107263 0.141617 0.350382 0.204072 -0.549634 0.118938 -0.216314 -0.217829 0.209514 0.173211 -0.693637 0.325414 -0.201178 -0.131093 -0.190800 0.228515 0.068725 0.013415 0.445437 -0.255219 0.416132 0.310310 0.137364 -0.288334 0.385154 -0.612494 -0.145739 0.003282 -0.272240 0.040863 -0.591268 -0.232536 0.255954 -0.527524 -0.065341 -0.039153 -0.097596 -0.281194 0.280496 0.433621 -0.048145 -0.175894 -0.103491 -0.224958 -0.192275 0.253296 -0.260939 0.213165 -0.298125 0.009522 0.455628 0.000334 0.124268 0.236783 0.056621 0.169061
69 -0.069407 -0.237659 -0.043137 -0.324072 -0.346986 -0.050574 -0.387250 -0.046672 0.212840 0.184957 -0.216671 0.231395 -0.201879 0.004102 0.043397 -0.040880 -0.080876 0.215012 0.205101 0.228223 -0.351214 0.211185 0.044942 0.057468 -0.231530 -0.082643 0.239136 -0.039584 0.022072 0.188009 0.038758 0.013276 0.187979 -0.059906 -0.279153 0.018311 -0.157067 -0.197253 0.004218 -0.025091 0.134740 0.258388 0.218623 0.027154 0.006271 -0.036679 -0.103981 0.069339 -0.013635 0.000633 -0.295500 -0.046377 0.015098 0.367445 -0.224130 0.074756 -0.043109 -0.397068 -0.091634 -0.083374 0.014495 -0.255023 0.060741 -0.030122 -0.165202 0.325477 -0.006835 -0.315093 -0.294800 -0.153614 0.046754 0.098551 0.204272 -0.158033 -0.179342 0.066124 -0.015165 -0.074730 0.012240 -0.330482 0.241854 0.065377 -0.030861 0.247266 0.185138 0.160470 0.056081 0.076589 -0.048593 -0.001806 0.103355 0.084919 -0.103992 0.065473 0.056216 0.060280 0.078036 -0.125608 0.290437 -0.048028 0.162713 0.298257 -0.359553 0.073388 0.305775 -0.041970 -0.078553 -0.073372 0.216725 -0.298150 0.085691 -0.016957 -0.099070 -0.186074 0.188019 -0.050489 -0.067330 0.375392 -0.455321 0.200803 0.054381 0.039091 0.100797 0.189837 0.024827 0.114793 -0.381330 -0.062599
258 -0.041947 -0.572381 0.114414 -0.156927 0.154679 -0.039849 0.085149 0.200193 0.035197 0.280691 -0.110189 0.146927 -0.027359 0.062429 -0.141744 0.162931 0.270928 0.231699 0.441619 0.387854 -0.097011 -0.088392 0.051790 -0.087617 0.178036 -0.146979 -0.323559 -0.043156 -0.126297 -0.216183 -0.099378 0.274576 -0.063355 -0.185959 -0.362815 -0.010795 0.119104 -0.163030 -0.305457 0.154247 0.013485 0.306625 0.043180 0.026567 -0.112320 -0.110967 -0.268416 0.049498 0.055297 -0.140946 -0.232019 -0.081658 -0.117210 0.019389 -0.321408 -0.403423 0.367646 0.082213 -0.345077 -0.335960 -0.191634 -0.255493 0.061248 0.246088 -0.123522 0.352297 -0.318684 0.049820 0.032412 0.046958 0.241256 0.135933 0.288533 -0.151497 0.300555 -0.093690 -0.067766 0.223416 -0.261610 0.163920 0.199169 -0.088194 -0.076347 0.111624 0.024327 -0.173017 0.120618 0.038985 -0.079728 0.119690 0.355559 0.016949 -0.054971 0.054191 -0.177793 0.064447 0.259678 -0.196585 0.215827 0.156755 -0.043567 -0.175623 -0.146566 0.443387 0.405950 0.376035 0.075349 0.274039 0.188382 0.386026 -0.129821 0.248684 0.148463 -0.136101 0.277458 0.278638 -0.187595 -0.056687 -0.096949 -0.219860 0.173998 -0.031041 -0.262883 -0.127125 -0.209318 0.120892 0.135450 -0.246283
157 -0.170047 -0.176824 -0.205201 -0.186143 -0.379436 -0.070750 -0.459126 -0.048686 0.212620 0.134171 -0.234517 0.217034 -0.251993 -0.120506 0.115279 -0.099582 -0.072335 0.181194 0.095022 0.350342 -0.598539 0.043968 0.031552 0.022471 -0.201909 -0.014788 0.285023 -0.088813 0.103439 0.210172 -0.027543 -0.067553 0.358495 -0.070515 -0.459492 -0.000954 -0.189160 -0.268904 0.063140 0.011521 0.112559 0.323966 0.352725 0.190127 -0.134479 -0.045909 -0.213646 0.017323 0.005822 0.032730 -0.454638 -0.119309 0.002552 0.408287 -0.279405 -0.026476 -0.090871 -0.409358 0.083546 -0.128076 0.083365 -0.447270 0.111566 -0.064706 -0.117459 0.357202 -0.049147 -0.231341 -0.371710 -0.085842 0.003384 0.098654 0.110292 -0.191503 -0.299434 0.116536 -0.022074 -0.106113 0.032246 -0.424853 0.250546 0.011228 -0.040762 0.256563 0.104150 0.133680 0.068700 -0.078525 -0.013185 0.018250 0.124328 0.015116 0.031810 -0.124473 0.145893 -0.017936 0.084385 -0.129760 0.326393 -0.177077 0.147517 0.364501 -0.358048 0.042856 0.261543 -0.058638 -0.084033 -0.117785 0.207298 -0.275210 0.090478 -0.027753 -0.172924 -0.220543 0.203157 0.064244 -0.138928 0.408059 -0.469824 0.207140 0.069525 0.118037 0.097063 0.179169 0.069612 0.053271 -0.493154 -0.022113
156 -0.212988 -0.171876 -0.228743 -0.092694 -0.452871 -0.100855 -0.485237 0.000001 0.237761 0.126893 -0.295979 0.171174 -0.343969 -0.133286 0.156874 -0.141121 -0.075375 0.161539 0.096251 0.443108 -0.572140 -0.002068 0.142620 0.042678 -0.232632 0.010284 0.355448 -0.165501 0.141175 0.226678 0.011181 -0.042727 0.394229 -0.059865 -0.593563 0.089024 -0.202766 -0.266691 0.051279 -0.052629 0.067468 0.358257 0.312633 0.172210 -0.161304 -0.046575 -0.295781 0.113617 0.058177 0.062583 -0.583010 -0.163421 0.033101 0.454845 -0.312448 -0.035450 -0.057775 -0.437880 0.096178 -0.140421 0.112441 -0.528989 0.167567 -0.084784 -0.203164 0.447529 -0.052829 -0.161551 -0.488516 -0.100869 -0.048643 0.043476 0.126779 -0.190042 -0.354169 0.150519 0.059214 -0.141616 0.051118 -0.496197 0.235663 -0.049661 -0.020748 0.276330 0.106620 0.179966 0.048350 -0.075755 -0.015944 0.045897 0.116483 -0.009826 0.079369 -0.100349 0.183483 0.020109 0.078752 -0.142949 0.279182 -0.135706 0.154082 0.415479 -0.280181 0.042950 0.240866 -0.136357 -0.067971 -0.090438 0.202149 -0.258776 0.105584 -0.040277 -0.254664 -0.261770 0.188211 0.104961 -0.149184 0.463089 -0.489523 0.265189 0.003519 0.118850 0.192386 0.185911 0.075365 0.026267 -0.498221 -0.066650
112 -0.020117 -0.403442 0.143007 -0.274406 -0.038434 -0.176009 0.006655 0.141935 0.177025 0.213420 -0.231419 0.243880 -0.067091 0.018859 -0.132226 -0.038143 0.208123 0.267027 0.205163 0.161057 0.197620 0.029124 0.156173 -0.008274 0.090959 -0.163604 -0.036847 -0.009279 -0.145202 -0.211711 0.125012 0.136744 0.144437 -0.059515 -0.230062 0.014859 -0.026057 -0.094348 -0.158090 0.173316 -0.087535 0.379905 -0.273679 -0.210824 -0.022696 -0.034780 -0.120898 0.069125 0.135188 -0.072394 -0.205137 0.015430 0.138620 0.147499 -0.097136 -0.006829 0.210446 -0.146186 -0.408163 -0.143712 -0.162455 -0.105329 0.091951 0.135760 -0.061432 0.288143 -0.172973 0.011611 -0.000756 0.117977 0.178900 -0.020642 0.319098 -0.246090 0.180749 -0.058976 -0.049947 0.217462 -0.014167 -0.089909 0.051436 -0.038449 -0.043529 -0.042669 0.178424 0.020638 0.104031 0.099782 -0.302153 0.104412 0.116717 0.113065 -0.117373 0.097508 -0.265131 0.122934 0.076361 -0.021818 0.198428 0.220819 0.017974 -0.013633 -0.268621 0.331587 0.337593 0.220586 0.099890 0.135657 0.160993 0.147860 -0.034039 0.186878 0.149857 -0.077713 0.086215 -0.036796 0.068798 0.002016 -0.000806 -0.157405 0.178389 0.013128 -0.077605 -0.161188 -0.218090 0.138505 0.194092 -0.222073
54 -0.165196 -0.507840 0.096388 -0.288018 -0.007319 -0.245580 -0.015386 0.113111 0.041330 0.185275 -0.042716 0.339286 -0.099036 0.163695 -0.158746 0.066112 0.389217 0.135148 0.279123 0.188050 -0.083511 -0.013788 -0.009154 -0.056699 0.349218 -0.128459 -0.309059 0.043510 -0.012988 0.035260 -0.082606 0.032883 0.172272 0.058523 -0.234649 0.004066 -0.005885 -0.296091 -0.062309 0.309090 0.002647 0.337400 0.102397 -0.144434 -0.117871 0.093664 -0.080569 -0.267644 -0.102573 -0.105873 -0.283669 0.014219 0.027194 0.083175 -0.064991 -0.267908 0.285032 -0.167030 -0.328004 -0.303533 -0.068412 -0.229650 -0.051180 0.159292 0.058254 0.175970 -0.290240 -0.099555 0.201107 0.211737 0.102957 0.039795 0.297659 -0.227181 0.300915 -0.033227 -0.275414 0.210125 -0.079179 -0.041913 0.237234 -0.116873 -0.345650 -0.010483 0.267131 0.011958 0.219172 -0.048612 -0.285333 0.065171 0.282173 0.112604 -0.211446 -0.112042 -0.095815 0.003753 -0.065029 -0.033184 0.430668 0.035942 -0.045297 0.027916 -0.144408 0.265233 0.211423 0.283372 0.231257 0.143205 0.086871 0.423952 0.011992 0.117709 0.092382 -0.024754 0.112533 0.091259 -0.056791 -0.091561 -0.188110 -0.236309 0.296596 0.119337 -0.227115 -0.316750 -0.154853 0.062110 -0.040210 -0.024975
193 -0.189959 -0.306536 0.082953 -0.266422 0.003726 -0.321428 0.063782 0.285006 0.252012 0.165080 0.035947 0.163260 -0.246526 -0.020813 -0.095399 0.029923 0.321517 0.123037 0.132696 -0.158091 0.058786 -0.102154 -0.052424 -0.400145 0.407426 -0.100985 -0.059897 0.065573 -0.060336 -0.039354 0.110519 0.022089 0.166010 0.182442 -0.265183 0.074178 -0.046034 -0.222551 -0.290950 0.372353 0.110776 0.465949 -0.409276 -0.300669 -0.095497 -0.026435 0.090798 -0.111371 0.069916 -0.129999 -0.300018 0.185261 0.086486 0.091144 -0.056961 -0.091594 0.380398 -0.249892 -0.429348 -0.657956 -0.020774 -0.135523 -0.072127 0.246191 -0.091296 0.163167 -0.111002 0.070295 -0.101192 0.184201 0.102990 -0.045147 0.206352 -0.055442 0.321027 -0.254858 -0.246152 0.353381 -0.031897 -0.252296 0.426511 -0.074852 -0.213343 -0.055725 0.170954 0.025845 -0.005666 0.200709 -0.242226 -0.034177 0.010159 0.192579 -0.206985 0.238543 -0.173716 -0.051059 -0.199653 -0.116181 0.193942 0.178998 0.063334 0.197731 -0.075166 0.244311 0.164121 -0.089541 0.214296 0.406059 0.067504 -0.007781 -0.035128 0.295364 0.066721 0.122424 0.064771 -0.076342 0.005241 -0.031288 0.056225 -0.049777 0.235118 0.106036 -0.011256 -0.097591 -0.012319 0.158442 0.180824 -0.047440
51 -0.264340 -0.260933 0.035008 -0.259172 -0.017891 -0.305297 0.117499 0.243744 0.215482 0.216645 0.020191 0.155020 -0.260532 -0.015833 -0.064027 0.004407 0.312202 0.156142 0.134811 -0.138053 0.014435 -0.106439 -0.054700 -0.399738 0.371979 -0.065826 -0.038406 0.082284 -0.035357 -0.033756 0.110373 0.087747 0.222645 0.197619 -0.256572 0.109925 -0.064289 -0.249438 -0.250180 0.373062 0.135988 0.419611 -0.375777 -0.292614 -0.092962 -0.000961 0.081968 -0.088812 0.065152 -0.091749 -0.358864 0.165961 0.068992 0.061140 -0.077926 -0.089339 0.366552 -0.294911 -0.382854 -0.664573 -0.047645 -0.142627 -0.089763 0.258736 -0.098269 0.183602 -0.136213 0.070322 -0.127235 0.136881 0.118924 -0.019847 0.209269 -0.093005 0.300457 -0.246958 -0.233789 0.354225 0.006033 -0.285136 0.456659 -0.030514 -0.144934 -0.088572 0.133547 0.007803 -0.001836 0.201182 -0.212665 -0.024579 0.027393 0.238254 -0.175475 0.263387 -0.187422 -0.057670 -0.247076 -0.092147 0.140339 0.194600 0.092546 0.258758 -0.136901 0.260194 0.168088 -0.084079 0.212642 0.394099 0.023087 0.025107 -0.014730 0.339010 0.032626 0.160663 0.064090 -0.038597 0.002312 0.013645 0.068941 -0.000794 0.227010 0.069568 -0.033565 -0.058420 0.077043 0.171078 0.159306 -0.031145
84 0.007718 -0.567911 0.165498 -0.134844 0.056103 -0.123196 0.082262 0.085550 0.065413 0.333335 -0.191076 0.214577 -0.041987 0.103789 -0.052563 0.045634 0.295886 0.283134 0.393980 0.359263 -0.021749 0.059930 0.148972 0.040107 0.161991 -0.192753 -0.292462 -0.062726 -0.139400 -0.245194 -0.027767 0.228500 0.044081 -0.105430 -0.309873 -0.009719 0.012606 -0.159291 -0.130688 0.204221 -0.078230 0.330072 0.042359 -0.058140 -0.149445 -0.056023 -0.302821 0.017399 0.071919 -0.036583 -0.189588 -0.024133 -0.043927 0.077457 -0.248382 -0.247793 0.332948 0.070643 -0.434920 -0.176828 -0.217273 -0.221737 0.108429 0.236337 -0.038771 0.387781 -0.329783 0.022130 0.001282 0.076586 0.195188 0.155163 0.297978 -0.285768 0.311568 -0.054556 -0.136379 0.230830 -0.247780 0.164643 0.058522 -0.019840 -0.062287 0.146651 0.133492 -0.080064 0.133099 0.029131 -0.213901 0.138059 0.308542 0.055855 -0.030460 -0.010306 -0.244879 0.137878 0.155867 -0.075015 0.299710 0.113832 0.014522 -0.169375 -0.283017 0.540000 0.416700 0.431931 0.126512 0.187994 0.207587 0.447745 -0.054906 0.246709 0.133367 -0.091982 0.218042 0.194325 -0.021715 -0.089935 -0.028346 -0.302674 0.237945 -0.041791 -0.204798 -0.145311 -0.201520 0.133065 0.180536 -0.267805
79 -0.166391 -0.647166 0.109133 -0.149419 0.322742 0.101424 0.092792 0.341944 0.023173 0.271274 -0.174323 0.041778 0.018348 -0.074927 -0.236689 0.266232 0.215645 0.228837 0.601119 0.559186 -0.046454 -0.315863 0.063702 -0.147401 0.032880 -0.115853 -0.206248 -0.073798 -0.043068 -0.287597 -0.119927 0.470881 -0.122954 -0.379158 -0.501814 -0.008228 0.252829 -0.154841 -0.458427 0.100643 -0.032989 0.314311 -0.075545 0.165461 -0.095217 -0.187634 -0.364895 0.150701 0.124590 -0.117759 -0.410447 -0.241554 -0.140713 -0.023788 -0.475063 -0.564911 0.373648 0.094135 -0.324035 -0.353264 -0.205828 -0.392236 0.060469 0.229951 -0.202214 0.423423 -0.387832 0.122904 0.081975 0.011609 0.320933 0.118648 0.353145 -0.150035 0.342625 -0.036124 0.162988 0.215946 -0.224342 0.204432 0.222686 -0.088355 0.058999 -0.013460 -0.213659 -0.287582 0.123107 0.057109 0.060100 0.245794 0.501319 0.009608 0.036842 0.107630 -0.193726 0.061377 0.500766 -0.344914 -0.001420 0.247610 -0.192505 -0.213264 -0.068883 0.397798 0.440468 0.403867 -0.009838 0.340209 0.186439 0.477011 -0.168833 0.337837 0.156123 -0.244730 0.384489 0.481054 -0.354604 0.003755 -0.155720 -0.121252 0.077107 -0.083658 -0.280395 -0.204745 -0.251844 0.124038 0.165903 -0.292030
256 -0.184487 -0.518896 0.065555 -0.304050 -0.025866 -0.218833 0.009403 0.119507 0.015253 0.212116 -0.040484 0.326098 -0.100620 0.190656 -0.169162 0.069685 0.375136 0.139306 0.291569 0.208220 -0.093179 -0.038305 -0.004701 -0.063407 0.325436 -0.116379 -0.310577 0.039076 -0.014950 0.049387 -0.069814 0.052059 0.163849 0.051234 -0.241187 0.036458 0.006326 -0.285896 -0.082929 0.302368 0.006547 0.295099 0.089993 -0.129300 -0.098558 0.101876 -0.109165 -0.237980 -0.096811 -0.103189 -0.296887 -0.006361 0.025643 0.071963 -0.075134 -0.255822 0.300926 -0.197213 -0.323857 -0.327739 -0.091237 -0.226406 -0.057213 0.156678 0.041682 0.191086 -0.292337 -0.060707 0.198956 0.172298 0.097530 0.047963 0.302081 -0.236796 0.280403 -0.042035 -0.256371 0.218331 -0.071762 -0.048550 0.251170 -0.118171 -0.328936 -0.015489 0.212223 -0.011724 0.210625 -0.035848 -0.280359 0.084433 0.271582 0.121954 -0.228039 -0.072639 -0.101659 -0.004303 -0.032442 -0.036362 0.394622 0.042458 -0.025825 0.026659 -0.171653 0.279316 0.227106 0.263431 0.216461 0.144272 0.089826 0.417320 -0.013244 0.144088 0.095674 -0.010176 0.094291 0.109807 -0.052553 -0.056992 -0.197237 -0.213058 0.259716 0.112059 -0.227459 -0.283610 -0.144927 0.035477 -0.014498 -0.029887
175 -0.085019 -0.249342 -0.214143 -0.324261 -0.172288 0.016673 -0.334767 -0.008894 0.434152 0.068231 -0.229141 0.262352 -0.283434 -0.174076 0.084402 -0.182134 -0.010976 0.205664 0.055779 0.052879 -0.479248 0.144576 -0.158197 -0.017743 -0.202383 -0.105088 0.434091 -0.029043 0.061999 0.242686 0.111330 -0.026745 0.219652 0.096000 -0.154929 0.014107 -0.083200 -0.251006 0.021535 -0.006645 -0.080044 0.337423 -0.123493 0.068793 0.036773 -0.154731 -0.075143 -0.106235 0.144133 0.027549 -0.221750 0.045821 0.137938 0.492981 -0.268373 0.021135 -0.372705 -0.340514 -0.108793 -0.287345 0.170333 -0.416460 0.048914 0.136036 -0.172098 0.014789 0.007804 -0.082631 -0.344473 -0.248617 -0.173231 0.144510 0.042494 -0.154527 -0.039817 0.068230 -0.024850 -0.052653 -0.098327 -0.279468 -0.180507 0.071748 -0.308947 0.222244 0.184014 0.266207 -0.026346 0.158178 -0.070174 -0.106813 0.064042 -0.066913 0.146174 0.013070 0.133910 -0.154679 0.125137 -0.218387 -0.041227 -0.147631 0.121983 0.121529 -0.591781 -0.368787 0.257061 -0.015531 -0.023189 -0.145366 0.087053 -0.195225 0.091547 -0.049858 -0.056994 -0.327806 0.131764 -0.153535 -0.121983 0.415095 -0.292990 0.056949 0.054626 0.006139 0.212253 0.269045 0.011629 0.137389 -0.248289 0.129007
174 -0.117333 -0.451281 -0.151913 -0.391554 -0.013032 0.102503 -0.211684 -0.028033 0.478021 0.073531 -0.324241 0.235416 -0.315491 -0.198991 0.047618 -0.185754 0.044023 0.200137 0.100993 0.074738 -0.460626 0.109773 -0.305910 -0.087824 -0.199164 -0.240942 0.516226 0.122546 0.076302 0.189497 0.071474 0.067205 0.167117 0.209439 -0.103042 0.137230 -0.027650 -0.375557 0.015509 -0.134400 -0.275409 0.408208 -0.266496 0.040497 0.059800 -0.187883 -0.138783 -0.176294 0.212573 -0.015724 -0.271711 0.151983 0.098651 0.499134 -0.392143 -0.187646 -0.547710 -0.269714 -0.098562 -0.405532 0.282310 -0.514239 -0.048553 0.284833 -0.379197 -0.104982 -0.046741 0.011381 -0.410623 -0.419046 -0.269843 0.054815 0.077885 -0.117099 0.228656 0.072324 0.092009 0.032910 -0.155155 -0.203155 -0.235683 0.029932 -0.454495 0.216457 0.224662 0.299798 -0.022410 0.230363 0.097614 -0.190304 0.126732 -0.134020 0.309495 0.070821 0.250708 -0.166712 0.234789 -0.291741 -0.254530 -0.146556 -0.046793 -0.003585 -0.748991 -0.625030 0.243932 0.101525 0.090760 -0.108970 -0.074889 -0.060500 0.123888 -0.103392 -0.081836 -0.450440 0.240712 -0.097981 -0.281330 0.458526 -0.252322 -0.036487 -0.058069 -0.086817 0.306800 0.248087 0.090601 0.245693 -0.162021 0.267760
32 -0.182036 -0.610688 -0.128609 -0.475894 0.059200 0.138297 -0.120045 -0.094552 0.414343 0.108499 -0.425367 0.241256 -0.336328 -0.145136 0.015720 -0.179141 0.049820 0.249197 0.070726 0.264538 -0.519847 0.105366 -0.322540 -0.093258 -0.232550 -0.317755 0.517439 0.277402 0.162317 0.135447 -0.007197 0.140571 0.192859 0.229353 -0.100703 0.263126 0.051518 -0.554381 0.070172 -0.219166 -0.500559 0.432104 -0.221344 -0.003839 0.038619 -0.161787 -0.216108 -0.287302 0.156269 -0.074560 -0.405950 0.125213 0.130222 0.484109 -0.514148 -0.427138 -0.797239 -0.252675 0.019592 -0.375740 0.355414 -0.646655 -0.054215 0.276719 -0.578325 -0.087577 -0.054585 -0.012546 -0.433102 -0.589086 -0.324656 0.002687 0.259472 -0.125945 0.317974 0.148060 0.208127 -0.033707 -0.133297 -0.070879 -0.208568 -0.053264 -0.563302 0.200825 0.263368 0.339535 0.111394 0.202230 0.335624 -0.267312 0.266018 -0.142690 0.450313 -0.027756 0.328950 -0.138086 0.338933 -0.268587 -0.328915 -0.130845 -0.190490 -0.018214 -0.857253 -0.777835 0.293358 0.300060 0.255110 -0.160404 -0.220278 0.115769 0.188609 -0.135104 -0.127505 -0.615702 0.357144 0.058494 -0.435458 0.558273 -0.296803 -0.136065 -0.141732 -0.153499 0.284045 0.215590 0.186141 0.344922 -0.193663 0.319691
246 -0.099510 -0.231685 -0.052846 -0.241381 -0.193593 -0.142448 -0.572900 -0.006443 0.303716 0.042406 -0.054453 0.147504 -0.233021 -0.183771 0.069708 -0.044461 0.029623 0.245459 0.413880 -0.041131 -0.238740 0.170140 -0.174258 0.095308 -0.242335 -0.056790 0.420551 -0.281544 0.190619 0.247323 0.059549 -0.085830 0.077038 0.019046 -0.180680 0.056153 -0.190785 -0.250860 -0.036398 0.034953 0.179449 0.414074 -0.174209 -0.049158 -0.019209 -0.284129 -0.090158 0.005550 0.110710 0.121184 -0.054988 -0.152312 0.177787 0.481809 -0.144953 0.145459 -0.078521 -0.276455 -0.302308 -0.273742 0.013522 -0.271728 0.121005 -0.030955 -0.209910 0.293128 0.170046 -0.241031 -0.278699 -0.129805 -0.195654 0.169958 0.077940 -0.046275 -0.112809 0.101289 0.143213 -0.079659 -0.154667 -0.252449 -0.108921 0.177381 -0.112891 0.286349 0.169279 0.269454 -0.065174 0.205699 -0.266530 0.045788 0.007419 -0.084151 -0.133836 0.097967 -0.010825 -0.034872 0.102267 -0.264696 0.066837 -0.118206 0.313236 0.183755 -0.158179 -0.028510 0.240318 -0.091551 -0.083172 0.075664 0.253105 -0.160707 0.225671 -0.113447 0.044308 -0.332862 0.206185 -0.087225 -0.059203 0.314605 -0.353054 0.233765 0.014299 -0.009158 0.133880 0.189560 -0.094937 0.180240 -0.344557 0.078925
236 -0.150858 -0.258663 0.187454 -0.244921 -0.221228 -0.266903 -0.088791 0.071840 0.227775 0.313505 -0.391421 0.266697 -0.097459 -0.037583 -0.025719 -0.204941 0.099930 0.268877 0.232333 0.249101 0.295411 0.133131 0.511546 0.124062 -0.143367 -0.097369 0.156151 -0.055788 -0.087961 -0.128754 0.253632 0.237929 0.304053 -0.063478 -0.336832 -0.015663 -0.162935 -0.124608 0.020755 0.237247 -0.167933 0.393910 -0.188862 -0.268740 -0.038367 -0.004832 -0.236692 0.121542 0.123055 0.148915 -0.430303 -0.087539 0.195575 0.212883 -0.140121 0.078764 0.105527 -0.341564 -0.462552 0.163973 -0.146770 -0.247086 0.165278 0.060641 0.104860 0.463444 -0.249229 -0.184510 -0.070290 0.182758 0.205138 0.027526 0.475748 -0.414384 0.094162 0.075886 -0.017498 0.185107 0.137509 -0.170243 -0.007649 0.042458 0.088491 -0.055464 0.239503 0.159503 0.117016 0.101028 -0.321597 0.201943 0.211118 0.242810 -0.050803 0.052295 -0.351214 0.217197 0.012488 -0.006978 0.242604 0.255681 0.015222 0.190314 -0.379206 0.454954 0.375410 0.281389 0.137086 0.074524 0.176320 0.155146 0.069328 0.165669 0.003701 -0.109371 0.093080 0.003253 0.199861 0.076148 -0.122488 -0.136766 0.222921 -0.062237 0.147465 -0.188990 -0.167982 0.192179 0.024123 -0.255345
116 0.235404 -0.467247 -0.034049 -0.596570 -0.019985 0.143159 -0.181665 0.019529 0.343635 -0.004307 -0.161304 0.219585 -0.178016 0.069943 -0.222261 0.114804 0.101528 0.310488 0.148492 0.101113 -0.574812 0.189260 -0.465022 0.009422 0.077603 -0.309063 0.092171 0.055158 -0.126739 0.019498 -0.001150 -0.049665 0.042664 -0.139297 -0.047557 0.009003 0.010350 -0.268430 -0.048959 -0.105009 0.156268 0.169790 -0.017377 0.137914 0.201741 -0.071332 0.096955 -0.086960 0.050269 -0.308852 -0.050617 0.193968 0.065562 0.345488 -0.107363 0.096153 -0.079627 -0.128302 -0.070150 -0.352216 -0.103865 -0.114879 -0.066315 0.200552 -0.314382 0.058822 0.194867 -0.193545 -0.278913 -0.277182 0.030500 -0.003262 0.049698 0.010050 0.150186 -0.010080 -0.312240 -0.018794 -0.187851 -0.271411 0.268624 0.071941 -0.382477 0.308802 0.204090 0.013068 0.036842 0.033282 0.023227 -0.150733 0.025291 -0.083867 -0.140400 0.297309 0.198625 -0.155083 0.318695 -0.191458 0.237661 -0.066864 0.019460 0.015537 -0.541714 -0.258962 0.292269 -0.139090 -0.140582 -0.103726 0.240488 -0.391592 0.050049 0.161481 0.176716 -0.111708 0.091046 -0.403090 -0.199250 0.332707 -0.300671 0.175774 -0.042905 0.133490 -0.082611 0.212156 -0.092452 0.217641 -0.101519 0.090668
163 -0.067380 -0.370062 0.010816 -0.140861 -0.058043 -0.273116 -0.176030 0.264375 0.319457 0.038310 -0.238927 0.256378 -0.175093 -0.058690 -0.112826 -0.029221 0.289833 0.171512 0.266336 0.056159 0.133472 0.034192 -0.023721 -0.004712 -0.029231 -0.193903 0.164656 -0.052345 -0.197998 -0.039073 0.258008 -0.005497 0.157947 0.047299 -0.227030 -0.033633 -0.159050 -0.042563 -0.172976 -0.083060 0.083764 0.484512 -0.425686 -0.255013 -0.059666 -0.246269 -0.004624 0.078431 0.260213 -0.063616 -0.097922 0.090858 0.166252 0.277030 -0.009843 0.009678 0.295339 -0.012181 -0.430212 -0.307316 -0.097389 -0.087852 0.001917 0.098826 -0.088310 0.162970 -0.193965 0.046610 -0.193197 0.166117 0.062782 0.092976 0.064708 -0.118291 0.228209 -0.026482 -0.105091 0.194211 -0.081179 -0.297271 -0.074871 -0.108201 -0.153536 0.050358 0.440967 0.284930 -0.027752 0.150825 -0.330782 0.060683 -0.124212 0.050384 -0.135839 0.247583 -0.113414 -0.005488 -0.010280 -0.058650 0.098585 0.105124 0.103347 -0.017101 -0.138279 -0.100017 0.266898 0.196929 -0.015327 0.158589 0.270127 -0.044303 -0.124048 -0.076589 0.075018 -0.134993 0.078112 -0.283359 0.070298 0.094806 -0.049395 -0.258182 0.177620 -0.013132 0.112741 -0.019042 -0.202843 0.212553 0.034940 -0.095298
37 0.130684 -0.344430 -0.030779 -0.319075 0.100240 0.011597 -0.171920 0.189898 0.487065 0.039401 -0.090867 0.307572 -0.131306 -0.242858 -0.117102 -0.061204 0.251383 0.160923 0.145085 -0.164447 -0.189135 0.112902 -0.224806 -0.070433 0.116842 -0.244756 0.194453 -0.078294 -0.091586 0.034016 0.151700 -0.022138 0.090473 0.021175 -0.003526 -0.135307 0.064618 -0.123327 -0.109205 0.162529 0.045822 0.466526 -0.368354 -0.005672 0.020771 -0.192724 0.093286 -0.158296 0.198917 -0.152058 0.063461 0.210480 0.149877 0.390454 -0.096016 0.074015 -0.023592 -0.135975 -0.396511 -0.331184 0.035059 -0.202282 -0.075111 0.378756 0.073643 -0.128824 -0.012595 -0.002967 -0.081965 0.062209 0.007334 0.036851 -0.040952 -0.136049 0.351389 -0.030080 -0.256766 0.159239 -0.272183 -0.185568 -0.229738 0.053909 -0.395129 0.154323 0.286320 0.170331 -0.093895 0.154681 -0.329886 -0.066282 0.013443 -0.141097 -0.034407 0.176161 0.007327 -0.245647 0.122284 -0.288839 0.024635 -0.084538 0.028005 -0.190952 -0.435145 -0.298683 0.140186 0.000642 0.012135 0.041632 0.247964 -0.096829 0.060729 -0.024183 0.227197 -0.114628 0.086432 -0.305416 0.038109 0.089135 -0.081487 -0.048262 0.139426 0.082849 0.086506 0.026471 -0.262322 0.097921 0.076399 0.118510
67 -0.126543 -0.178565 -0.141635 -0.231956 -0.356493 -0.080411 -0.356669 0.021528 0.266966 0.169053 -0.136123 0.172979 -0.255502 -0.050133 0.065004 -0.038593 0.013074 0.194861 0.195465 0.195642 -0.398387 0.151140 0.027633 0.038052 -0.168903 -0.002755 0.247335 -0.103245 0.010098 0.250862 0.086919 0.007152 0.171526 -0.013267 -0.315772 0.039551 -0.136123 -0.196589 -0.022852 -0.058212 0.126258 0.281978 0.139050 0.032575 -0.045491 -0.087442 -0.126197 0.098693 -0.006286 0.024067 -0.315479 -0.080895 0.046717 0.371652 -0.250396 -0.002806 -0.013553 -0.382283 -0.145815 -0.195549 0.047527 -0.314088 0.075073 -0.000377 -0.131376 0.314156 -0.015600 -0.251438 -0.300156 -0.122901 -0.031693 0.159896 0.144152 -0.147596 -0.224148 0.055999 -0.065797 -0.104634 -0.073131 -0.305360 0.139154 0.005182 -0.116370 0.271586 0.191499 0.187996 0.006056 0.086024 -0.075056 -0.003726 0.094216 0.063506 -0.064014 0.090599 0.091237 -0.043575 0.048723 -0.142143 0.205545 -0.029932 0.259505 0.298948 -0.247213 0.031218 0.286333 -0.060680 -0.049686 -0.021610 0.210480 -0.199208 0.051316 -0.049482 -0.104488 -0.211083 0.158792 -0.025298 -0.051654 0.376968 -0.371542 0.152627 0.056921 0.043808 0.122760 0.215550 0.023692 0.085317 -0.355892 -0.028105
63 0.019421 -0.436551 0.019681 -0.278996 -0.180752 -0.208549 -0.044428 0.202556 0.145363 0.208521 0.101531 0.148882 -0.119381 0.203251 -0.228173 0.131389 0.306798 0.190345 0.153769 0.293298 -0.235583 0.024770 0.048996 -0.092708 0.411120 -0.084661 -0.448382 0.044882 -0.226270 0.063399 -0.003229 0.000852 0.025720 -0.000962 -0.327900 0.076590 0.064344 -0.209035 -0.278137 0.248664 0.006383 0.321308 0.085393 -0.136967 -0.135245 0.021632 -0.077835 -0.177623 -0.169243 -0.269342 -0.313179 -0.038727 0.056194 0.066975 -0.106549 -0.388808 0.248402 -0.245637 -0.297237 -0.449771 -0.047258 -0.220495 0.040502 0.128588 -0.158079 0.232858 -0.124569 -0.081241 0.055691 0.110841 0.095371 0.084498 0.272102 -0.101719 0.044442 -0.144480 -0.324521 0.061519 -0.224786 0.022966 0.319384 -0.268495 -0.443735 0.117574 0.273457 -0.085281 0.177091 0.031195 -0.140768 -0.066952 0.229192 0.090645 -0.185081 0.039338 -0.063961 -0.081041 -0.030889 -0.050994 0.482441 0.154506 0.096776 0.099936 0.064729 0.267998 0.293739 0.196680 0.176581 0.184741 0.186647 0.225828 -0.117882 0.022327 0.110225 -0.115473 0.199348 0.036053 -0.060003 0.051996 -0.175143 -0.251052 0.230314 0.126517 -0.219677 -0.077412 -0.168922 0.055304 -0.046134 -0.190727
215 -0.098074 -0.168295 -0.230437 -0.171162 -0.464118 -0.031724 -0.367238 0.080588 0.289962 0.249941 -0.160962 0.126611 -0.323692 0.035915 0.021876 0.052421 0.030579 0.162942 0.203482 0.440804 -0.445057 0.194143 0.206799 0.031581 -0.239053 -0.002995 0.222471 -0.043290 -0.117472 0.345116 0.143545 0.124691 0.145845 -0.083815 -0.406709 -0.019159 -0.051795 -0.109796 -0.043635 -0.150539 0.103169 0.214486 0.263461 0.130906 -0.077964 -0.164848 -0.164795 0.201739 -0.044227 0.050401 -0.434449 -0.130583 -0.020882 0.329877 -0.372827 -0.135385 0.010417 -0.365415 -0.250267 -0.107885 0.050431 -0.431873 0.170038 -0.037979 -0.044686 0.355175 -0.203446 -0.334977 -0.354654 -0.114393 0.052947 0.268189 0.182074 -0.287801 -0.318351 0.075447 -0.126630 -0.262419 -0.142114 -0.220028 0.072783 -0.112519 -0.100794 0.321383 0.280343 0.206483 0.011355 0.129805 0.048384 -0.017994 0.145498 0.165619 0.028530 0.102196 0.139577 -0.049526 0.099136 -0.084125 0.258097 0.066375 0.271742 0.332382 -0.174550 0.052581 0.320318 0.126913 -0.071959 -0.050670 0.303659 -0.101313 -0.072918 -0.129024 -0.172531 -0.271032 0.279635 0.062637 -0.038923 0.425280 -0.395544 0.051895 0.151909 0.000830 0.175152 0.231507 -0.012533 0.019218 -0.449473 -0.113923
228 0.078276 -0.615252 0.147297 -0.156612 0.009333 -0.102514 0.102077 0.136655 0.078371 0.246266 -0.240856 0.155809 -0.053912 0.166636 -0.115079 0.066297 0.252717 0.299688 0.339679 0.414416 -0.079238 0.035382 0.129412 0.087447 0.169496 -0.213111 -0.331059 -0.067286 -0.221477 -0.272615 -0.002914 0.191908 -0.022977 -0.140943 -0.352215 0.029860 -0.012019 -0.149769 -0.180588 0.075877 -0.098289 0.259239 0.051657 -0.060525 -0.097770 -0.039351 -0.274847 0.048437 0.076225 -0.103299 -0.209263 -0.012615 -0.036281 0.062205 -0.201284 -0.275845 0.323233 0.110610 -0.333639 -0.183319 -0.245765 -0.171591 0.106548 0.197569 -0.161429 0.366703 -0.284060 0.066465 -0.055049 0.027895 0.174927 0.130796 0.291553 -0.189939 0.258082 -0.058502 -0.175042 0.164264 -0.235915 0.127354 0.099729 -0.104271 -0.153826 0.165315 0.170080 -0.097640 0.173904 0.015737 -0.154560 0.124772 0.232165 0.019925 -0.030750 0.054483 -0.173307 0.154801 0.211096 -0.052081 0.317391 0.153823 0.004679 -0.180547 -0.224701 0.424080 0.454572 0.368111 0.098420 0.154405 0.183970 0.365435 -0.092499 0.218456 0.112001 -0.143508 0.174547 0.103308 -0.054221 -0.047219 -0.039129 -0.344814 0.170662 -0.031564 -0.209986 -0.113776 -0.207631 0.156756 0.190323 -0.303312
68 -0.128937 -0.153817 -0.218995 -0.167290 -0.379933 -0.071111 -0.370745 0.086824 0.276835 0.176281 -0.114235 0.123994 -0.288401 0.008369 0.017827 0.066222 0.079103 0.199039 0.266005 0.303111 -0.396364 0.179805 0.037285 0.036033 -0.215441 -0.024191 0.246492 -0.097014 -0.069622 0.286260 0.119839 0.068981 0.123014 -0.044269 -0.313157 0.048664 -0.123303 -0.151680 -0.076883 -0.140578 0.209218 0.299996 0.100136 0.034462 -0.070212 -0.218321 -0.086799 0.191524 -0.018090 0.023372 -0.307449 -0.118975 0.027754 0.359385 -0.291130 -0.048331 0.101134 -0.320683 -0.251502 -0.242868 -0.028043 -0.317674 0.139925 -0.036017 -0.129472 0.377430 -0.087206 -0.296832 -0.353239 -0.103846 0.004285 0.245747 0.119313 -0.185688 -0.241549 0.045624 -0.089922 -0.175831 -0.167453 -0.278580 0.097600 -0.028840 -0.102661 0.319772 0.279720 0.219269 -0.012004 0.135926 -0.048690 -0.001485 0.043735 0.112499 -0.078944 0.204834 0.102997 -0.090026 0.059740 -0.109236 0.214264 0.034289 0.344329 0.308879 -0.124057 0.039054 0.306492 0.043358 -0.094988 0.039882 0.313725 -0.145177 -0.034175 -0.093366 -0.089353 -0.225652 0.225004 -0.031767 -0.024307 0.405142 -0.334162 0.113370 0.098245 0.014371 0.130960 0.273495 0.005244 0.080535 -0.388975 -0.078838
47 -0.044123 -0.428602 0.049617 -0.410127 -0.115566 -0.187943 -0.002629 0.108447 0.072517 0.132932 -0.045962 0.272930 -0.101617 0.176475 -0.169250 0.114090 0.268828 0.182593 0.103450 0.147679 -0.192034 0.022928 -0.140357 -0.084159 0.376388 -0.115872 -0.265006 0.123639 -0.127437 0.009125 -0.044984 -0.046469 0.118800 0.043146 -0.201624 0.116043 -0.011927 -0.304901 -0.156471 0.138046 0.047060 0.209374 0.032353 -0.181952 0.022877 0.134976 -0.014383 -0.141639 -0.147766 -0.263802 -0.238056 0.078128 0.068640 0.093084 -0.050862 -0.166268 0.172640 -0.196839 -0.102008 -0.391415 -0.103155 -0.102049 -0.049468 0.113458 -0.233368 0.152625 -0.014069 -0.066576 0.012412 0.015268 0.072074 -0.074772 0.273377 -0.011563 0.129512 -0.117478 -0.334395 0.180935 -0.026978 -0.192372 0.455072 -0.142404 -0.361391 0.028616 0.243862 -0.038980 0.186842 -0.016319 -0.104272 -0.071000 0.132797 0.090290 -0.284318 0.081438 0.000736 0.001484 -0.049961 -0.007719 0.380067 0.111850 0.036807 0.141841 -0.190403 0.178664 0.272683 0.038692 0.124244 0.096414 0.012089 0.045230 -0.021365 0.170850 0.085548 -0.002731 0.017151 -0.094084 -0.117639 0.065150 -0.182983 -0.049534 0.125489 0.150000 -0.229573 -0.111604 -0.005689 0.122340 -0.017968 -0.036023
97 -0.133866 -0.298213 0.022966 -0.205020 0.079859 -0.310554 -0.142823 0.207517 0.347818 0.090591 -0.043661 0.294032 -0.227033 -0.111629 -0.075977 -0.052707 0.392689 0.121632 0.186116 -0.162512 0.134276 0.003077 -0.144478 -0.234470 0.197962 -0.201885 0.154252 0.029865 -0.031615 0.006345 0.156829 -0.055189 0.244654 0.189552 -0.120891 -0.042233 -0.080944 -0.151662 -0.128031 0.234140 0.100921 0.598474 -0.473089 -0.260888 -0.115462 -0.197387 0.116592 -0.154138 0.208164 -0.042238 -0.072708 0.190824 0.172689 0.254935 0.006526 0.026106 0.246969 -0.126134 -0.535008 -0.480928 0.026760 -0.157532 -0.047631 0.195371 0.046450 0.045565 -0.183725 0.009314 -0.076625 0.248833 0.057457 0.027332 0.071569 -0.202885 0.378515 -0.115212 -0.140248 0.284855 -0.097578 -0.255810 -0.026009 -0.025815 -0.208617 -0.018777 0.365290 0.239935 -0.056033 0.187526 -0.391777 -0.032342 -0.045172 0.113736 -0.131240 0.139952 -0.135795 -0.083621 -0.183440 -0.089120 0.128425 0.016264 0.052088 0.027026 -0.171951 -0.032049 0.075696 0.128949 0.152234 0.266223 0.197889 0.065929 0.012426 0.008581 0.120537 -0.018587 0.116068 -0.184821 0.054876 -0.018847 0.032521 -0.165678 0.311353 0.052347 0.073001 -0.109488 -0.173648 0.155571 0.080047 0.062353
223 -0.255952 -1.089470 0.168566 -0.726528 -0.097389 -0.330368 -0.323781 0.374139 0.657251 0.208473 -0.470759 0.352012 -0.531858 -0.147126 -0.105675 -0.071705 0.400230 0.514991 0.692068 0.477979 -0.454223 0.045064 0.022758 -0.007006 0.155498 -0.323218 0.199687 -0.221754 0.129303 0.057552 0.120385 0.256850 0.279073 -0.038585 -0.749174 0.201678 -0.091164 -0.818003 -0.185463 0.321084 -0.197554 0.818260 -0.327526 -0.142863 -0.049643 -0.105517 -0.377193 -0.232733 0.167903 -0.059135 -0.910748 -0.049566 0.301224 0.631978 -0.462046 -0.353360 0.003723 -0.421695 -0.538817 -0.638211 -0.017703 -0.881337 0.083978 0.396580 -0.394374 0.616547 -0.035032 -0.218636 -0.458437 -0.091380 -0.061545 0.064084 0.606547 -0.184837 0.516135 0.158795 -0.287888 0.210716 -0.266579 -0.405830 0.392489 -0.004195 -0.716069 0.341120 0.378383 0.215952 0.177576 0.250100 -0.234968 0.095681 0.531573 -0.005300 0.038536 0.214659 -0.057137 -0.023473 0.345535 -0.511014 0.335057 0.111114 -0.075176 0.228917 -0.650982 0.156752 0.635980 0.101961 0.280640 0.242941 0.198965 0.223711 0.308906 0.383004 0.034486 -0.497095 0.309878 0.011161 -0.319087 0.369316 -0.591361 -0.060211 0.116018 0.004647 0.178783 -0.145918 -0.119371 0.492212 -0.145455 -0.069434
29 -0.794056 -1.218035 0.534925 -0.218087 0.442064 -0.451396 -0.224706 0.048488 0.060535 -0.131489 -0.771839 0.620069 -0.619598 -0.196087 0.334156 -0.056761 0.512726 0.244998 0.848638 0.297450 0.039581 -0.373263 -0.458629 0.325139 0.225414 -0.200685 0.517824 -0.517917 0.938223 -0.095278 -0.091899 -0.126082 0.640625 0.080431 -0.942949 0.414102 -0.175027 -0.982651 0.341124 -0.000611 -0.096497 0.645598 -0.356440 -0.170383 0.061127 0.250218 -0.945043 0.027511 0.396881 0.276535 -0.684179 -0.144578 0.484416 0.654363 -0.425925 0.098641 0.181173 0.511731 0.128910 -0.492904 0.036155 -1.011002 0.063342 0.216578 -0.593511 0.678420 0.208195 0.356022 -0.424833 -0.032409 -0.494591 -0.491469 0.334896 0.151008 0.808051 0.511850 0.349167 0.538848 0.023026 -0.625886 0.370712 0.091652 -0.111003 -0.141828 -0.153985 0.447488 0.215077 -0.351716 -0.181824 0.395715 0.541933 -0.369378 -0.012253 -0.342890 0.137706 0.477015 0.488848 -0.366699 -0.339532 -0.365626 -0.428789 -0.036296 -0.677170 0.317481 0.291123 -0.125099 0.414427 -0.089986 -0.371552 0.708214 0.611694 0.847093 -0.087287 -0.361877 -0.343692 0.339094 -0.651713 0.053321 -0.459654 0.287875 -0.375192 0.080975 0.019392 -0.709734 0.128296 0.569645 0.145138 0.319432
122 -0.259524 -1.034063 0.161436 -0.649905 -0.045478 -0.320800 -0.317366 0.358235 0.613783 0.156442 -0.432343 0.289537 -0.485574 -0.162630 -0.110316 -0.076894 0.358931 0.477520 0.642966 0.459438 -0.432212 -0.008446 -0.011056 -0.033279 0.108881 -0.274911 0.216851 -0.231018 0.160215 -0.010115 0.069836 0.215278 0.255511 -0.021492 -0.709442 0.200848 -0.094325 -0.792691 -0.154410 0.327745 -0.253780 0.765274 -0.290848 -0.114998 -0.062356 -0.136948 -0.387633 -0.274961 0.157804 -0.045026 -0.840889 -0.071092 0.303644 0.569473 -0.418428 -0.375883 -0.026180 -0.346912 -0.451430 -0.562689 -0.005990 -0.820209 0.074267 0.361019 -0.417425 0.567194 -0.014228 -0.174025 -0.437885 -0.115341 -0.069745 0.023696 0.586152 -0.168389 0.491408 0.199718 -0.211750 0.219877 -0.214766 -0.353216 0.382651 -0.010357 -0.645632 0.308552 0.289199 0.173693 0.190246 0.188675 -0.161644 0.128640 0.526523 -0.032668 0.088173 0.163530 -0.011720 -0.040067 0.365313 -0.466309 0.279059 0.100243 -0.092955 0.213183 -0.574919 0.147889 0.558026 0.089438 0.261906 0.217334 0.180628 0.212659 0.326809 0.380430 0.018884 -0.472188 0.269741 0.066649 -0.368782 0.336607 -0.526779 -0.045484 0.130604 0.001760 0.161037 -0.180824 -0.111800 0.466706 -0.111253 -0.019168
124 -0.265759 -1.041153 0.154160 -0.652257 -0.041283 -0.322566 -0.311576 0.359578 0.625634 0.146124 -0.433088 0.287034 -0.481196 -0.161388 -0.118380 -0.072956 0.361241 0.478444 0.650463 0.456345 -0.433818 -0.008305 -0.020148 -0.041987 0.097111 -0.276408 0.224759 -0.234771 0.168756 -0.021562 0.065122 0.211846 0.260822 -0.022708 -0.706837 0.203348 -0.099249 -0.801549 -0.156034 0.325103 -0.265866 0.775182 -0.292281 -0.120437 -0.064286 -0.143153 -0.384318 -0.281206 0.157236 -0.046679 -0.841410 -0.076829 0.310008 0.569705 -0.416318 -0.377161 -0.023729 -0.342978 -0.446546 -0.555610 -0.012957 -0.812976 0.070825 0.362274 -0.422507 0.571451 -0.017539 -0.173745 -0.441738 -0.121843 -0.076438 0.020567 0.592942 -0.168655 0.489036 0.202742 -0.202875 0.226195 -0.205923 -0.350049 0.381189 -0.010248 -0.649098 0.313327 0.284473 0.176636 0.199362 0.187514 -0.162337 0.138226 0.517468 -0.030911 0.090514 0.171399 -0.004091 -0.047489 0.370487 -0.470916 0.274522 0.102013 -0.089413 0.221346 -0.577343 0.150324 0.559589 0.082856 0.265499 0.223545 0.177301 0.209549 0.336387 0.376185 0.019367 -0.475885 0.264197 0.070273 -0.378392 0.335263 -0.518131 -0.038361 0.136143 0.001907 0.167747 -0.174790 -0.117329 0.466654 -0.110720 -0.008827
243 -0.208004 -1.066629 0.141162 -0.730483 -0.109222 -0.323685 -0.353144 0.371375 0.639215 0.209041 -0.443774 0.332781 -0.539193 -0.155990 -0.121843 -0.062563 0.397701 0.503967 0.643639 0.480072 -0.480789 0.054317 0.038004 -0.037263 0.122571 -0.306488 0.188794 -0.209623 0.053415 0.066009 0.113460 0.262554 0.273399 -0.038979 -0.736019 0.144532 -0.087638 -0.803218 -0.216199 0.343636 -0.194226 0.769448 -0.307856 -0.107262 -0.041381 -0.154513 -0.316321 -0.280028 0.132548 -0.059267 -0.895661 -0.043872 0.274790 0.602379 -0.449573 -0.371657 -0.007810 -0.448239 -0.552384 -0.604871 -0.001250 -0.826430 0.070775 0.396369 -0.384190 0.556124 -0.045071 -0.210803 -0.428012 -0.105784 -0.026944 0.059302 0.595321 -0.226565 0.482855 0.150659 -0.312980 0.206339 -0.270070 -0.361463 0.364234 0.008285 -0.732987 0.318404 0.394687 0.181595 0.152381 0.247368 -0.215375 0.084022 0.506446 -0.010135 0.062225 0.223801 -0.039932 -0.064924 0.345800 -0.475357 0.339279 0.126685 -0.069009 0.224338 -0.603045 0.112646 0.633602 0.098264 0.248365 0.225603 0.222665 0.186968 0.297044 0.367755 0.018245 -0.496338 0.325841 0.002271 -0.308596 0.363036 -0.572219 -0.077656 0.135999 -0.001157 0.146051 -0.141358 -0.150619 0.497643 -0.163857 -0.060546
102 -0.550144 -0.987365 0.610383 -0.661650 0.232187 -0.328508 -0.189648 -0.086686 0.679566 0.203653 -0.344590 -0.574001 -0.738774 0.229586 -0.383633 0.249674 0.041909 0.176347 1.170020 0.551753 -0.257807 -0.625982 0.092703 -0.471396 0.134545 -0.452574 0.722663 -0.074332 0.839818 -0.253530 -0.019726 0.221072 0.044109 0.139897 -0.852205 0.334935 -0.723228 -0.803858 -0.149255 0.254900 -0.396045 0.392992 -0.669077 0.039897 0.044926 -0.256641 -0.590388 -0.284042 0.129487 0.372667 -1.276206 -0.060294 0.010477 -0.273084 -0.214490 -0.384662 0.387128 -0.093739 -0.606217 -0.404300 0.194715 -0.711398 0.202793 0.160730 -0.758840 0.652099 -0.194887 -0.103944 -0.731357 -0.079570 -0.384757 -0.452846 0.091725 0.143138 0.614111 0.451027 0.340308 0.127128 0.335847 -0.194112 0.232840 -0.045031 -0.211528 0.076379 -0.155253 -0.029341 0.050954 0.429963 0.362700 0.182806 0.151338 0.114151 0.502855 0.572482 0.288700 0.129574 0.362475 -0.400745 -0.250692 0.100034 -0.428011 0.644896 0.196054 -0.086675 -0.028613 0.204937 0.335890 0.828295 -0.019548 0.557991 0.607573 0.267988 -0.376569 -0.454257 0.750655 0.347494 -0.298774 0.051117 -0.051880 0.136900 -0.235273 0.095307 0.840609 -0.510409 0.133332 0.631514 -0.240979 0.564988
39 -0.348262 -0.992512 0.187676 -0.711594 0.004211 -0.282708 -0.292053 0.384846 0.575307 0.143200 -0.483626 0.257727 -0.485108 -0.139671 -0.121769 -0.087250 0.290864 0.470759 0.602457 0.472405 -0.405315 -0.004020 0.033242 -0.040254 0.104717 -0.257878 0.174866 -0.119137 0.131173 -0.006814 0.112365 0.190769 0.273223 -0.085752 -0.720693 0.114246 -0.098568 -0.793899 -0.218036 0.259161 -0.220640 0.711231 -0.247478 -0.122696 -0.078349 -0.041542 -0.327390 -0.245479 0.188901 0.002538 -0.923744 0.022104 0.286224 0.558680 -0.420451 -0.352462 -0.046786 -0.390586 -0.391927 -0.565435 -0.035167 -0.797893 0.081724 0.330171 -0.426143 0.529852 -0.013514 -0.150359 -0.393972 -0.100117 -0.006581 0.061641 0.529404 -0.133647 0.503919 0.178677 -0.257169 0.186639 -0.136494 -0.344298 0.476540 -0.018977 -0.636582 0.255206 0.336866 0.140045 0.190320 0.247890 -0.124098 0.155441 0.478623 -0.000907 0.092293 0.158227 -0.029657 0.021805 0.385121 -0.482807 0.324583 0.114935 -0.203983 0.264521 -0.650399 0.103968 0.643905 0.041560 0.209726 0.230641 0.144572 0.110923 0.276974 0.399291 0.028358 -0.485445 0.261959 0.028719 -0.373067 0.335846 -0.565250 -0.099061 0.136251 0.057831 0.205814 -0.190981 0.002701 0.529671 -0.131042 -0.047435
108 -0.098556 -0.019375 0.273415 -0.149375 0.224111 0.064521 0.154764 0.463048 0.538250 0.380295 -0.038131 -0.401748 -0.556634 -0.183037 -0.022971 -0.397267 0.041759 0.258761 0.482832 0.819628 0.139863 0.075309 0.844379 0.091999 0.183783 -0.032144 0.082685 -0.294122 0.593849 -0.039147 0.162444 0.798036 -0.087240 -0.424272 -0.394567 0.666443 0.013092 -0.841564 -0.341375 0.726578 -0.391199 0.656434 -0.870450 -0.366466 -0.188196 -0.216736 -0.478566 -0.013352 0.241829 -0.121393 -0.685487 -0.567744 0.580919 0.376209 -0.628023 -0.275863 -0.506069 -0.112779 -0.723274 -0.604661 -0.053319 -1.050338 0.581306 0.496578 -0.982968 0.648526 0.730473 -0.440448 -0.547214 -0.105712 0.096291 -0.071193 0.670073 0.022456 0.495276 0.705548 0.209873 -0.272690 -0.255792 0.206713 -0.223763 -0.172999 -0.483556 0.440853 0.313121 0.062078 0.003438 0.725145 0.328724 -0.323734 0.979610 0.019095 0.257950 0.549595 -0.251178 0.039864 0.396222 -0.775047 -0.169126 0.202534 -0.269544 0.301694 0.098771 0.385867 0.141881 -0.145147 0.705966 0.554415 0.347560 0.654511 0.648170 0.181087 0.251112 -0.728574 0.394314 0.373795 -0.417347 0.330135 -0.189382 0.456925 -0.130851 -0.216205 0.611526 0.211459 -0.057470 0.296936 0.231920 0.006430
173 -0.077050 -0.020727 0.287718 -0.136099 0.234947 0.081943 0.164808 0.455561 0.538887 0.388568 -0.036178 -0.413591 -0.551401 -0.173766 -0.026290 -0.393311 0.039450 0.262275 0.494979 0.833868 0.132862 0.067722 0.849483 0.093566 0.188339 -0.034755 0.078478 -0.289436 0.603439 -0.041438 0.152566 0.808449 -0.098757 -0.435753 -0.393431 0.668329 0.024109 -0.834581 -0.349068 0.729044 -0.401738 0.649760 -0.866064 -0.352989 -0.184286 -0.230528 -0.490452 -0.000927 0.240039 -0.130109 -0.667833 -0.578860 0.572413 0.357823 -0.635088 -0.280445 -0.513748 -0.083235 -0.726662 -0.594939 -0.048471 -1.055485 0.593139 0.501785 -0.989674 0.651570 0.730486 -0.437219 -0.542615 -0.108535 0.102622 -0.076272 0.671609 0.021560 0.507547 0.718148 0.224025 -0.275503 -0.265863 0.235446 -0.242798 -0.170636 -0.474353 0.450497 0.306329 0.048968 0.004347 0.727570 0.344370 -0.326046 0.996395 0.010154 0.271036 0.546809 -0.252023 0.036313 0.418420 -0.787243 -0.182664 0.196577 -0.283098 0.281703 0.102883 0.387553 0.147200 -0.129338 0.708465 0.554191 0.356192 0.678531 0.655637 0.173751 0.254796 -0.735727 0.408529 0.383252 -0.419445 0.327575 -0.182026 0.462792 -0.140378 -0.211739 0.611939 0.211124 -0.072490 0.291721 0.238568 0.014055
221 -0.274633 -1.141926 0.174420 -0.764449 -0.104657 -0.351034 -0.345875 0.397140 0.690262 0.223595 -0.494911 0.378771 -0.556788 -0.149493 -0.110368 -0.074206 0.421433 0.542963 0.728756 0.503415 -0.475128 0.055992 0.031322 -0.009656 0.156820 -0.341850 0.202508 -0.230478 0.130667 0.059937 0.129085 0.266559 0.297442 -0.045236 -0.786720 0.207161 -0.099759 -0.850478 -0.199378 0.334865 -0.202080 0.867130 -0.338170 -0.150107 -0.049637 -0.108252 -0.397934 -0.241465 0.172298 -0.066240 -0.950346 -0.049110 0.309595 0.657881 -0.490975 -0.365102 0.007249 -0.446972 -0.572917 -0.672908 -0.018158 -0.919947 0.086069 0.417183 -0.409191 0.645844 -0.042676 -0.232195 -0.472079 -0.092371 -0.061160 0.065961 0.637975 -0.198967 0.536273 0.159042 -0.301720 0.220651 -0.279216 -0.423269 0.411086 -0.003819 -0.747905 0.353988 0.404106 0.223670 0.185826 0.256274 -0.250981 0.104545 0.554632 -0.004822 0.033709 0.219243 -0.059224 -0.026267 0.360432 -0.529866 0.359724 0.113507 -0.075136 0.245004 -0.686859 0.175531 0.672611 0.107551 0.295024 0.253064 0.214921 0.231744 0.322411 0.398987 0.031936 -0.522611 0.324918 0.006501 -0.326965 0.391403 -0.623424 -0.063328 0.130990 0.008617 0.183507 -0.158786 -0.132656 0.518000 -0.156528 -0.075897
224 -0.234845 -1.077209 0.155620 -0.715115 -0.087567 -0.330285 -0.351520 0.372270 0.624862 0.197526 -0.460612 0.353031 -0.549713 -0.162024 -0.107527 -0.062863 0.410343 0.501002 0.659744 0.480078 -0.464797 0.039745 0.025958 -0.021908 0.123488 -0.309274 0.206270 -0.219838 0.086220 0.059567 0.106028 0.251586 0.291370 -0.043775 -0.751634 0.152720 -0.091217 -0.819259 -0.198251 0.335118 -0.192943 0.780527 -0.315020 -0.110451 -0.037945 -0.144222 -0.335949 -0.269326 0.141350 -0.047306 -0.896692 -0.049486 0.287897 0.608402 -0.453355 -0.354083 -0.003686 -0.423291 -0.538444 -0.605753 -0.002537 -0.836604 0.078902 0.393241 -0.401051 0.567802 -0.041324 -0.199238 -0.431286 -0.103710 -0.041917 0.043750 0.592391 -0.219715 0.503301 0.166402 -0.287357 0.214915 -0.263865 -0.370895 0.362840 0.012856 -0.717277 0.306391 0.385578 0.197615 0.160420 0.238623 -0.219875 0.092696 0.510329 -0.026257 0.060113 0.203366 -0.035959 -0.046225 0.350118 -0.480251 0.322913 0.108163 -0.085204 0.212465 -0.610453 0.122033 0.623908 0.100178 0.261003 0.213806 0.209735 0.206686 0.308847 0.385378 0.015465 -0.496307 0.310982 0.013961 -0.320720 0.357801 -0.581879 -0.067032 0.124625 -0.001343 0.143407 -0.158654 -0.146535 0.501821 -0.152723 -0.055837
220 -0.560787 -0.994132 0.606441 -0.660240 0.227443 -0.329150 -0.203738 -0.103581 0.682892 0.205438 -0.346386 -0.575580 -0.735097 0.244321 -0.382238 0.260815 0.035464 0.174196 1.176148 0.563261 -0.257617 -0.626350 0.095059 -0.470028 0.120079 -0.450518 0.734357 -0.067314 0.838506 -0.249067 -0.026475 0.211282 0.039219 0.141282 -0.853158 0.332049 -0.737399 -0.801223 -0.148599 0.248510 -0.389191 0.401805 -0.655602 0.034829 0.037852 -0.261060 -0.584980 -0.284572 0.136501 0.380989 -1.279743 -0.056344 0.004959 -0.276029 -0.208112 -0.390054 0.385610 -0.101551 -0.601174 -0.401598 0.194466 -0.703669 0.199933 0.139525 -0.760544 0.657713 -0.211096 -0.117241 -0.742606 -0.082206 -0.395063 -0.444252 0.079587 0.138973 0.602176 0.444590 0.357991 0.110331 0.348458 -0.196866 0.238556 -0.053832 -0.193961 0.083174 -0.149651 -0.013547 0.055199 0.424907 0.362083 0.191853 0.144149 0.115269 0.508582 0.574140 0.294997 0.141847 0.365793 -0.393356 -0.251033 0.095593 -0.417152 0.655783 0.200749 -0.093660 -0.024557 0.223039 0.328325 0.829175 -0.019525 0.552781 0.605546 0.261514 -0.389471 -0.470303 0.769451 0.348857 -0.299699 0.055582 -0.058754 0.124667 -0.236005 0.094575 0.847695 -0.508954 0.142035 0.638178 -0.265602 0.567048
233 -0.786397 -1.220092 0.530146 -0.227632 0.433304 -0.444876 -0.228657 0.057043 0.070617 -0.128485 -0.773521 0.616983 -0.621275 -0.194867 0.329998 -0.050762 0.521331 0.259663 0.841171 0.297827 0.021156 -0.362406 -0.460766 0.322914 0.233821 -0.199755 0.515696 -0.511140 0.921864 -0.094119 -0.090604 -0.121064 0.636891 0.081202 -0.939896 0.410922 -0.179513 -0.990719 0.330925 0.008452 -0.097288 0.647928 -0.349043 -0.161534 0.054917 0.238779 -0.933146 0.022054 0.403387 0.273088 -0.686248 -0.134428 0.491028 0.664371 -0.421549 0.089591 0.170587 0.493641 0.119346 -0.509560 0.031364 -1.009708 0.064631 0.221943 -0.588658 0.679791 0.213676 0.354294 -0.436623 -0.046422 -0.484468 -0.483831 0.341129 0.140013 0.806305 0.500393 0.330079 0.535144 0.015559 -0.627928 0.384140 0.087930 -0.127921 -0.127536 -0.147811 0.446617 0.207291 -0.339588 -0.184508 0.397078 0.539283 -0.360093 -0.016049 -0.337279 0.131649 0.463857 0.497054 -0.378433 -0.329274 -0.358742 -0.419616 -0.039019 -0.687012 0.308384 0.298030 -0.128275 0.416251 -0.082819 -0.364813 0.695228 0.605865 0.846172 -0.074261 -0.361405 -0.330084 0.337169 -0.648859 0.068847 -0.471213 0.286270 -0.367818 0.083202 0.022995 -0.693329 0.124807 0.570866 0.143477 0.324854
73 -0.361813 -0.998578 0.189738 -0.728546 0.004144 -0.288408 -0.292730 0.389856 0.569019 0.140684 -0.497452 0.271908 -0.481646 -0.125907 -0.129728 -0.090017 0.290075 0.471375 0.598515 0.468301 -0.399159 -0.006459 0.024880 -0.047167 0.103951 -0.259547 0.173447 -0.103158 0.124395 -0.016955 0.112114 0.178899 0.287863 -0.091327 -0.730031 0.100386 -0.108895 -0.794722 -0.228724 0.246865 -0.219856 0.713519 -0.236458 -0.129993 -0.084206 -0.032717 -0.318930 -0.242034 0.191769 0.000727 -0.929970 0.033386 0.289844 0.568256 -0.415998 -0.351444 -0.033751 -0.399350 -0.390153 -0.567442 -0.046404 -0.792739 0.087491 0.320978 -0.430870 0.537592 -0.026714 -0.151219 -0.388318 -0.092885 0.004913 0.068205 0.531204 -0.132352 0.504899 0.164843 -0.263214 0.186567 -0.121303 -0.349108 0.494199 -0.030048 -0.629909 0.248823 0.352630 0.134371 0.192623 0.246442 -0.129792 0.164815 0.466144 0.004178 0.076394 0.156308 -0.035073 0.030761 0.388490 -0.479608 0.345057 0.117121 -0.205591 0.269504 -0.667703 0.103280 0.662967 0.045917 0.200449 0.226772 0.147183 0.093402 0.265071 0.396528 0.032897 -0.483562 0.258215 0.017681 -0.372244 0.344776 -0.561029 -0.108311 0.152354 0.073030 0.195895 -0.196276 0.009231 0.534586 -0.128799 -0.048012
129 -0.245969 -0.350483 0.044538 -0.213255 0.101496 -0.304662 0.053221 0.307174 0.259435 0.158636 0.047341 0.156344 -0.282834 -0.109602 -0.032871 0.049163 0.384298 0.123003 0.191359 -0.184588 0.015005 -0.145328 -0.144125 -0.447848 0.410877 -0.102477 -0.018641 0.009741 -0.016066 -0.067144 0.094266 0.056664 0.177403 0.202003 -0.261116 0.078369 -0.005914 -0.259309 -0.292531 0.393334 0.158175 0.510650 -0.456596 -0.241423 -0.134398 -0.092916 0.082769 -0.110835 0.117774 -0.091295 -0.308925 0.190234 0.069788 0.111836 -0.110432 -0.130655 0.429728 -0.193584 -0.437244 -0.743853 -0.020198 -0.187776 -0.087119 0.295783 -0.062216 0.153755 -0.120626 0.117201 -0.136023 0.170412 0.090900 -0.021433 0.144452 -0.067336 0.393557 -0.257009 -0.228704 0.401909 -0.094423 -0.257960 0.405149 -0.011879 -0.192291 -0.029336 0.098673 0.027641 -0.060918 0.190209 -0.259095 -0.003599 0.024819 0.159624 -0.162539 0.240643 -0.173147 -0.105303 -0.188104 -0.173012 0.097929 0.140756 0.078222 0.136043 -0.094258 0.233532 0.131523 -0.105095 0.209134 0.445217 0.062390 0.037794 -0.015491 0.350322 0.067368 0.150434 0.083002 -0.017552 -0.016036 -0.039947 0.085428 -0.022136 0.227230 0.087454 -0.022225 -0.081738 0.021168 0.169343 0.216539 -0.022468
147 -0.225880 -0.138272 -0.231333 -0.034924 -0.392873 -0.124432 -0.496919 0.024163 0.244548 0.112893 -0.257244 0.145399 -0.337050 -0.187700 0.176664 -0.094599 -0.057227 0.126354 0.095655 0.419736 -0.584985 -0.043651 0.084864 -0.024766 -0.212098 0.001219 0.352227 -0.142823 0.142494 0.192578 -0.023487 -0.068548 0.383186 -0.054378 -0.578349 0.073943 -0.209894 -0.288951 0.010468 -0.041974 0.124604 0.420551 0.284022 0.172660 -0.217433 -0.115473 -0.274314 0.108597 0.054672 0.019313 -0.544805 -0.169285 0.021315 0.451199 -0.342558 -0.077055 -0.001818 -0.364349 0.102867 -0.207420 0.109832 -0.532841 0.164763 -0.087585 -0.209681 0.447763 -0.025862 -0.164559 -0.511060 -0.051536 -0.003908 0.051150 0.078195 -0.143304 -0.307657 0.135561 0.059834 -0.133381 0.002769 -0.521840 0.272315 -0.065154 -0.005662 0.285624 0.117773 0.190046 0.027261 -0.078552 0.031610 0.014469 0.092777 -0.024878 0.079906 -0.079458 0.189724 -0.021182 0.070514 -0.156243 0.288567 -0.182425 0.159952 0.395619 -0.220585 0.046172 0.220867 -0.111034 -0.059571 -0.034351 0.230733 -0.292130 0.092767 -0.058236 -0.243528 -0.259606 0.234783 0.116412 -0.173438 0.449941 -0.468706 0.244238 0.031325 0.122854 0.199049 0.202166 0.104214 0.038383 -0.510190 -0.050284
