192 128
62 -0.078593 -0.030043 -0.076960 0.031966 -0.051770 -0.139866 0.296464 -0.116641 -0.014768 0.052757 0.090324 0.128949 -0.190122 -0.159622 -0.250046 -0.060247 -0.030554 0.215202 -0.120245 0.115089 -0.161681 -0.186587 0.286767 -0.141760 -0.069353 0.145137 -0.175298 0.163302 0.082406 0.056103 0.333158 -0.026078 -0.008595 0.022494 -0.022718 0.021378 0.237216 -0.003571 -0.382469 0.174730 -0.107191 -0.100592 -0.135685 -0.312568 -0.048961 -0.210117 0.149936 0.021736 0.091581 0.234705 -0.316923 0.045525 0.110839 0.200967 0.141619 0.336329 -0.425488 0.131903 -0.114746 -0.005072 0.083095 0.089520 -0.222844 -0.068897 0.143317 0.152053 0.155832 0.355018 -0.203218 0.097601 0.111581 -0.080174 0.096826 0.109934 0.336990 -0.303798 -0.041267 -0.225858 -0.020750 -0.177204 -0.135217 -0.094658 0.406648 0.127625 0.168019 -0.057782 -0.149911 0.231816 -0.198152 0.109130 -0.046879 0.275309 0.071067 -0.454742 -0.256414 0.142141 -0.200915 0.222067 0.302064 -0.241094 0.064117 0.198731 -0.065196 -0.078563 -0.500586 -0.060290 -0.239642 0.106532 0.229764 -0.404380 -0.367831 0.011529 0.018396 0.261450 -0.301247 -0.246180 -0.216929 -0.060962 -0.130474 -0.150548 -0.353161 -0.110600 -0.104624 -0.210266 -0.076322 0.180878 0.072162 0.155314
59 -0.212446 -0.172099 -0.195491 0.110793 -0.015811 0.051098 0.167845 -0.152098 -0.186138 0.032957 -0.004351 0.017331 0.049710 0.032761 -0.248603 -0.028452 -0.057771 0.018361 0.012009 0.152086 0.117341 -0.118396 0.382343 0.095695 -0.103343 0.023389 -0.154798 0.049295 0.157596 -0.095832 0.256527 0.065990 -0.326477 0.164273 -0.021922 0.220723 0.041927 0.132513 -0.445500 0.062214 -0.085929 -0.107289 0.092678 -0.165023 0.141169 -0.158631 0.132745 0.143455 0.012894 0.138138 -0.380068 0.086158 -0.011403 0.026677 0.027395 0.388034 -0.125048 0.045652 -0.099781 -0.173403 -0.051442 0.069824 -0.461775 -0.046057 0.247247 0.284913 0.101628 0.465514 -0.295319 0.117052 -0.016368 -0.046245 0.044742 -0.045645 0.372330 -0.256131 0.201120 -0.122494 -0.160460 -0.216629 -0.276365 0.003377 0.247994 0.090382 0.001187 0.033885 -0.265317 -0.025288 -0.119083 0.166192 -0.088593 0.387031 -0.032613 -0.397170 -0.265886 0.181477 0.019806 0.283087 0.115138 -0.476970 -0.131664 0.118683 0.081184 -0.216018 -0.553120 0.062849 -0.071830 0.029701 0.252544 -0.341805 -0.248824 0.242729 0.037745 0.371317 -0.161050 -0.181270 -0.314423 -0.150127 -0.200754 -0.083029 -0.265165 0.046433 0.167016 -0.256173 -0.078964 -0.051588 -0.046559 0.001961
85 -0.006552 -0.208416 -0.199222 0.230642 0.002533 0.039944 0.078738 -0.212084 -0.146148 -0.062091 -0.060877 -0.026143 0.115995 0.118413 -0.259165 0.037606 -0.056310 -0.005591 -0.061001 0.125327 0.023223 -0.081433 0.294024 0.046231 -0.160974 -0.014446 -0.002148 -0.097245 0.066821 -0.085670 0.245826 -0.024008 -0.311062 0.246524 0.025109 0.208460 0.050843 0.048658 -0.381400 -0.020462 -0.009563 0.023595 0.041510 -0.167998 0.026453 -0.148647 0.123913 0.144539 0.010859 0.107566 -0.424725 0.175278 0.114766 0.170859 0.046847 0.348061 -0.025770 -0.018892 -0.082170 -0.152596 -0.041890 0.084239 -0.330736 0.032499 0.117266 0.240363 0.045891 0.366851 -0.143989 0.100781 -0.022466 -0.129840 -0.045943 -0.059653 0.193774 -0.138619 0.307684 -0.074749 -0.244875 -0.146599 -0.359959 0.006167 0.235555 0.241370 -0.059724 0.044931 -0.367770 -0.048576 -0.005737 0.102517 -0.120428 0.312628 0.014544 -0.166466 -0.121090 0.216483 0.116032 0.087996 0.070699 -0.387320 -0.144397 -0.157285 0.185105 -0.262558 -0.398499 0.083640 0.030616 0.101490 0.055156 -0.236993 -0.176140 0.271630 -0.021341 0.340725 -0.169835 -0.103778 -0.256275 -0.085570 -0.285820 -0.122432 -0.281470 0.136779 0.106668 -0.293862 -0.047354 -0.080529 -0.099038 0.112841
50 -0.016448 -0.097843 -0.170492 0.127375 0.046057 -0.030496 0.232581 -0.062567 -0.278237 -0.015039 0.036727 0.026795 0.081972 0.039486 -0.257617 -0.017418 -0.230656 0.139403 0.002091 0.241561 0.189742 -0.010632 0.446652 -0.016004 -0.144351 -0.133912 -0.304156 -0.026315 0.127487 -0.091018 0.197868 0.109472 -0.348755 0.104875 -0.090545 0.370615 0.028093 0.118042 -0.345021 0.152578 -0.062067 -0.107094 0.134856 -0.118321 0.182797 -0.237205 0.143448 0.104502 -0.154309 0.170997 -0.270627 -0.041005 -0.023003 0.009785 0.026950 0.394315 -0.251137 0.116048 -0.122737 -0.226899 -0.222084 0.015313 -0.491455 -0.087695 0.309995 0.176239 0.115872 0.410539 -0.202432 0.084188 0.065245 -0.008358 -0.001833 -0.089206 0.429741 -0.304384 0.207086 -0.063841 -0.160705 -0.095758 -0.164678 -0.020220 0.196832 0.159926 0.072741 0.048291 -0.169159 0.027236 -0.128515 0.173863 -0.123514 0.320521 -0.029022 -0.395084 -0.193001 0.189662 -0.129153 0.178422 0.064852 -0.455780 -0.235979 0.070337 0.083946 -0.268427 -0.458154 0.193148 -0.264048 0.069548 0.258258 -0.255836 -0.197561 0.226232 0.104110 0.342453 -0.082895 -0.037655 -0.272930 -0.182978 -0.142235 -0.022621 -0.305000 -0.034335 0.028003 -0.250944 -0.056964 -0.043708 -0.062746 0.078950
46 -0.240890 -0.019227 -0.122844 0.053845 0.055020 0.025652 0.295376 -0.133514 -0.092075 0.101570 0.140455 0.017892 0.110723 0.005140 -0.315247 -0.028849 -0.013703 0.004052 0.048064 0.178025 0.105737 -0.097185 0.371602 0.057448 -0.121037 -0.020970 -0.230179 0.054182 0.205461 -0.152824 0.267993 0.048502 -0.294649 0.110361 0.009163 0.191176 0.063652 0.162239 -0.451329 -0.001445 -0.083615 -0.115550 0.213144 -0.231894 0.151268 -0.143597 0.068752 0.093894 0.031260 0.183845 -0.376215 0.082442 -0.105776 -0.024428 0.087044 0.369471 -0.220186 0.077867 -0.014883 -0.133570 -0.034914 0.060551 -0.451254 -0.112922 0.252909 0.235584 0.084424 0.480163 -0.263783 0.091619 -0.046886 -0.017218 0.032622 -0.066274 0.384281 -0.354674 0.134159 -0.091149 -0.152010 -0.178638 -0.248539 0.017905 0.252995 0.092397 0.057209 0.058839 -0.199993 -0.028882 -0.177451 0.182689 -0.067150 0.345514 -0.054982 -0.405545 -0.257590 0.152966 -0.047664 0.363963 0.229788 -0.543850 -0.077716 0.216524 0.083512 -0.224369 -0.560946 0.020773 -0.095164 0.040214 0.312649 -0.487445 -0.242464 0.175222 0.073214 0.354723 -0.111999 -0.139419 -0.315943 -0.161802 -0.186137 -0.045056 -0.238663 -0.022531 0.104100 -0.267070 -0.161207 0.018588 0.024735 -0.008411
117 0.209223 -0.136786 -0.376953 0.027728 -0.340946 -0.191015 0.035184 -0.365378 0.201231 -0.063210 0.380278 -0.155921 -0.049568 -0.311653 0.138269 -0.029185 0.033410 -0.036219 -0.310515 0.038787 0.042550 -0.203413 0.326484 0.269511 0.178232 0.422038 -0.174052 0.391019 -0.100557 -0.159461 0.155159 0.053702 0.217114 0.171599 -0.110479 0.186958 -0.115118 0.239558 -0.195426 0.318983 -0.019636 -0.438052 -0.421436 0.207132 0.137147 -0.219298 0.180203 -0.140420 0.212788 -0.133449 -0.131558 -0.294958 0.043196 0.033623 -0.037154 0.019527 0.014305 0.085825 -0.165988 -0.036673 0.273679 0.291647 0.019666 -0.130458 -0.170137 0.266608 0.145665 0.349613 -0.148685 -0.149809 0.110830 0.068434 0.130414 -0.100953 0.081816 0.230738 0.026557 -0.374739 0.083781 -0.109870 0.287670 -0.013534 0.139560 -0.279827 -0.102000 -0.313276 -0.147126 0.181029 0.063477 -0.140415 0.319021 0.448041 -0.036809 -0.199332 -0.131589 -0.196128 -0.069452 0.217847 0.199626 -0.189870 0.242916 0.481087 -0.191122 0.310330 -0.163540 0.006150 0.161459 -0.085021 0.368527 0.083614 -0.217296 -0.053460 -0.155872 0.143016 -0.395754 -0.302077 -0.116865 0.057986 -0.277692 -0.297003 0.150637 -0.117100 0.048745 -0.098714 0.287655 0.112982 0.076216 -0.348876
195 0.118851 -0.078969 -0.051672 0.393030 -0.283577 -0.332415 0.369763 -0.713747 0.229603 -0.103966 0.543370 0.000913 0.095390 -0.358371 -0.023200 0.182922 0.188341 -0.193042 -0.038903 0.044821 -0.223607 -0.173195 0.351066 -0.084882 0.404330 0.220729 -0.123790 0.169987 -0.175060 -0.350291 -0.003563 -0.056270 0.229070 0.129457 -0.010965 0.258696 0.187453 0.049537 0.017153 0.375505 -0.159291 -0.161210 -0.072542 -0.208069 -0.301825 0.051865 -0.039614 -0.077145 0.246628 0.120199 -0.214565 0.053510 -0.247573 0.274039 -0.261585 0.257907 0.033585 -0.120018 -0.270347 -0.029864 0.070561 0.394094 0.105822 -0.121305 -0.358982 0.144762 -0.002344 0.344988 -0.233101 -0.099346 0.029658 -0.001929 -0.117076 -0.026120 0.051548 0.100158 0.198048 0.183685 0.218973 0.016590 0.192259 -0.178633 0.063353 -0.028176 -0.158580 -0.238810 -0.210104 -0.005914 0.029777 -0.305775 0.168427 0.342115 0.154502 0.090439 0.064811 -0.015298 -0.005110 -0.001760 0.189752 -0.586807 0.181937 0.053537 -0.094775 0.052663 0.080672 0.100055 0.083646 0.003095 0.021614 0.159818 -0.116206 -0.052826 -0.040675 0.178392 -0.255525 -0.093724 -0.023841 0.124402 -0.199715 -0.362814 -0.052291 -0.362918 -0.000994 0.028023 0.444228 0.166220 0.101025 -0.251358
57 -0.244497 -0.077242 -0.188016 0.051628 -0.002409 0.027276 0.193109 -0.142467 -0.181011 0.059217 0.045369 0.068439 0.094674 0.026886 -0.200856 -0.093085 -0.098169 -0.012346 0.025141 0.147833 0.179991 -0.100004 0.394532 0.068963 -0.075988 -0.005998 -0.211348 0.029351 0.151252 -0.120954 0.247129 0.094727 -0.340559 0.098286 -0.029244 0.289020 -0.001849 0.205609 -0.373440 0.098240 -0.069953 -0.123326 0.120156 -0.125814 0.194271 -0.216685 0.139073 0.107715 -0.029204 0.172247 -0.307788 0.003505 -0.073984 -0.039486 0.026123 0.371763 -0.172932 0.091485 -0.070398 -0.147097 -0.047080 0.048494 -0.442501 -0.095109 0.265731 0.303840 0.112222 0.512380 -0.254292 0.097198 0.003249 0.028740 0.057164 -0.117494 0.380582 -0.242303 0.108045 -0.125534 -0.158943 -0.143723 -0.185394 0.036244 0.168519 0.019567 0.051670 -0.012657 -0.227069 -0.013682 -0.155290 0.194461 -0.072035 0.394645 -0.039734 -0.392608 -0.290418 0.136890 -0.032815 0.293560 0.175454 -0.441672 -0.135300 0.225556 0.015701 -0.162595 -0.526892 0.065937 -0.057365 0.019023 0.255237 -0.330058 -0.250343 0.264486 0.009102 0.350084 -0.099720 -0.165146 -0.313344 -0.146765 -0.142707 -0.071271 -0.227567 -0.054898 0.161803 -0.217190 -0.077052 -0.051129 0.018516 -0.121695
177 0.515414 0.005052 -0.341319 0.001571 -0.408899 -0.194002 0.154600 -0.399967 0.256383 -0.042752 0.430440 -0.195574 -0.041958 -0.434307 0.085433 0.032624 -0.024901 -0.042985 -0.438391 0.130951 0.025849 -0.057468 0.181203 0.249812 0.007288 0.287799 -0.288275 0.190237 -0.203079 -0.154433 0.091148 -0.068325 0.163778 0.168266 -0.094578 0.159590 -0.200956 0.317642 -0.100163 0.394222 0.187465 -0.469040 -0.395924 0.199038 0.156116 -0.221603 0.238023 -0.328762 0.205217 -0.265843 0.010233 -0.319448 0.013534 0.075970 0.070730 0.022869 -0.129030 0.234284 -0.015571 0.044460 0.259073 0.154497 0.101738 -0.193860 -0.178113 0.185383 0.039147 0.416385 -0.107317 -0.138175 0.116398 0.211522 0.138692 -0.383626 0.065780 0.325435 0.085937 -0.485520 0.072116 0.061802 0.480893 -0.046108 0.205386 -0.186829 -0.009891 -0.199888 0.001988 0.160711 0.156057 -0.071460 0.272124 0.325647 0.062558 -0.121774 0.035307 -0.300720 -0.088009 0.248454 0.058373 -0.178982 0.311626 0.443666 0.066902 0.333055 -0.087934 0.109651 0.026677 0.043478 0.471080 0.112639 -0.279371 -0.113556 -0.103765 0.192782 -0.323342 -0.140955 -0.029102 0.095197 -0.106286 -0.279437 0.011006 -0.165275 -0.047190 -0.086515 0.350885 0.227438 0.045820 -0.143591
61 -0.089128 -0.010071 0.000726 0.045722 0.060238 -0.097778 0.462631 -0.144589 -0.096257 0.050735 0.117350 0.052218 0.032711 -0.104645 -0.294951 0.050209 -0.069327 0.051282 -0.000972 0.168391 -0.008900 -0.077657 0.354430 -0.178490 -0.115449 -0.014685 -0.317639 -0.070690 0.111079 -0.036083 0.233709 0.008329 -0.155302 0.069364 0.022961 0.246406 0.209221 0.118163 -0.444454 0.173739 -0.119011 -0.173032 0.058719 -0.300341 -0.000882 -0.112798 0.010168 0.005790 -0.008969 0.329684 -0.298684 -0.022090 -0.193192 0.054462 0.125287 0.438813 -0.426709 0.063340 -0.084805 -0.061169 -0.157428 -0.054531 -0.433276 -0.133296 0.162141 0.250450 0.082250 0.465648 -0.175098 0.110133 0.055604 0.010858 0.051561 -0.050967 0.299816 -0.359146 0.057997 0.002701 -0.078769 -0.061831 -0.105254 -0.075890 0.297853 0.101442 0.119809 -0.029151 -0.066477 0.080298 -0.233025 0.171571 -0.090870 0.299320 0.082966 -0.504751 -0.153384 0.220188 -0.097118 0.248317 0.241400 -0.428153 0.000337 0.221169 0.063925 -0.182949 -0.469376 0.023573 -0.284983 0.087286 0.219974 -0.545542 -0.284422 0.075927 0.080451 0.348410 -0.025325 -0.005736 -0.271944 -0.138824 -0.063509 -0.084461 -0.339183 -0.189682 -0.053445 -0.143028 -0.062175 0.045685 0.019804 0.177596
88 -0.247572 -0.224584 -0.178363 0.243582 0.085373 0.104354 0.170250 -0.194828 -0.246435 0.074832 0.047000 0.069452 0.086008 0.040161 -0.282401 -0.114620 -0.062730 0.025028 0.029777 0.141927 0.135926 -0.043372 0.425922 0.047805 -0.046012 -0.081290 -0.250788 0.013990 0.151424 -0.178068 0.167637 0.094971 -0.401404 0.170897 -0.070321 0.352695 0.017367 0.159664 -0.427128 0.087543 -0.074578 -0.005533 0.142320 -0.114299 0.072472 -0.233287 0.093042 0.150540 -0.067812 0.117753 -0.338513 0.064779 0.042405 0.029372 -0.148594 0.398803 -0.106623 0.039657 -0.123426 -0.160440 -0.042978 0.114858 -0.366485 -0.155743 0.282963 0.204072 0.118452 0.490072 -0.257259 0.093999 0.012268 -0.028035 0.034476 -0.028279 0.378943 -0.121454 0.232901 -0.098879 -0.242388 -0.188176 -0.308746 -0.002265 0.238577 0.123471 0.098737 -0.019083 -0.382919 -0.061602 -0.106254 0.168232 -0.158228 0.513448 -0.069095 -0.380807 -0.225437 0.166759 -0.000859 0.314182 0.124015 -0.513994 -0.189587 0.051251 0.131627 -0.214097 -0.454328 0.179681 -0.073953 0.037564 0.211637 -0.247383 -0.298739 0.264132 0.069432 0.379072 -0.159563 -0.089707 -0.292096 -0.167927 -0.283005 -0.132472 -0.289199 0.005045 0.197230 -0.260619 -0.064084 0.003028 -0.064167 -0.022264
26 -0.023197 -0.351569 -0.265459 0.309817 -0.152563 0.146539 0.186419 -0.043650 -0.161496 -0.043958 -0.011840 -0.021113 0.013042 0.049282 -0.280946 0.103675 0.062327 0.045268 0.011654 0.053044 -0.006740 -0.096660 0.249145 0.080213 -0.242493 0.026333 -0.117085 0.021442 0.095799 -0.088909 0.284855 -0.111099 -0.219149 0.292756 -0.003733 -0.036650 0.063465 -0.145782 -0.440749 -0.083950 0.049867 -0.111246 0.070810 -0.145704 0.096237 -0.028132 0.106600 -0.035277 0.094742 0.084780 -0.459993 0.059231 0.013245 0.151753 0.054195 0.505239 -0.204985 0.036229 -0.067163 -0.134632 -0.089458 0.062646 -0.388915 0.190656 0.156867 0.107216 -0.048605 0.393002 -0.177499 0.029118 -0.057395 -0.112771 -0.006051 -0.064127 0.168450 -0.301522 0.291003 -0.155940 -0.056080 -0.182879 -0.416488 0.001860 0.274416 0.296010 0.019420 0.097411 -0.296056 -0.058284 -0.163959 0.054083 -0.135321 0.301974 -0.002960 -0.364053 -0.109264 0.258091 0.048390 0.203998 0.112422 -0.338922 -0.200608 -0.096057 0.277529 -0.288941 -0.487958 -0.029353 -0.094226 0.042349 0.143920 -0.346552 -0.295416 0.244432 -0.008546 0.228145 -0.219324 -0.196420 -0.289049 -0.096635 -0.256377 -0.123486 -0.317928 0.146437 0.084092 -0.370403 -0.131095 -0.004819 -0.131744 0.262188
71 0.525156 0.004750 -0.073035 0.214035 -0.196521 -0.312460 0.223390 -0.718231 -0.013151 -0.110844 0.584855 -0.118236 -0.014424 -0.345720 -0.179762 0.014503 0.264486 -0.006161 -0.130184 0.234870 -0.114024 -0.013244 0.211212 -0.076314 0.361877 0.054743 -0.292708 -0.091183 -0.211214 -0.160929 -0.093939 -0.091160 -0.030481 0.181346 0.036480 0.341033 -0.057375 -0.043606 0.044696 0.404157 0.130183 -0.358520 -0.163701 0.054455 -0.141930 -0.056517 0.128985 -0.264750 0.193578 0.055279 -0.222860 0.011506 -0.021337 0.433568 -0.188459 0.310785 -0.213213 0.006672 -0.274196 -0.150231 0.200344 0.204599 0.087796 -0.180349 -0.379034 -0.032375 -0.090020 0.246724 -0.265031 -0.108848 0.152501 0.183921 0.031704 -0.283332 0.031476 0.439444 0.314592 -0.172669 0.133029 0.242240 0.240538 -0.286583 0.046913 0.010072 0.099530 -0.197287 -0.051997 -0.037315 0.095505 -0.075642 0.074826 0.352194 0.208862 -0.014087 0.088950 -0.170683 -0.105509 0.178338 0.175897 -0.481925 0.051153 0.166012 0.234691 0.125462 0.191571 0.196676 -0.040817 0.060639 0.092218 0.110179 -0.178526 -0.047746 -0.088377 0.054738 -0.120075 0.035960 0.046057 0.099747 -0.269959 -0.387723 -0.075929 -0.378639 -0.060762 0.045497 0.296146 0.342693 -0.182013 -0.179417
126 -0.253896 -0.109530 -0.266301 0.070109 -0.088419 -0.294778 0.347811 0.018865 0.234153 -0.056262 -0.015333 -0.096084 0.172379 -0.105491 -0.098790 0.201872 -0.196472 0.244936 -0.126722 0.117799 0.090145 -0.118438 0.507300 0.040331 -0.131523 0.172226 -0.075072 0.304653 0.042876 -0.066772 0.259085 0.094082 -0.010793 0.025175 -0.002540 0.026201 0.235128 -0.060503 -0.599132 0.067464 -0.228763 -0.279644 0.102115 -0.235689 0.320312 -0.355278 0.102344 0.011155 -0.106665 0.241640 -0.270984 -0.082640 -0.032243 -0.092503 0.272406 0.449295 -0.266369 -0.036960 -0.144048 -0.159013 0.066749 0.020243 -0.261155 0.006803 0.132614 0.116440 0.176288 0.555247 -0.269651 0.102878 0.256723 -0.144539 0.020365 0.123885 0.376914 -0.574235 0.097956 -0.058704 -0.290471 -0.140727 -0.198133 0.008357 0.338990 0.169114 -0.099871 0.061217 -0.122938 0.029821 -0.259758 0.318715 0.111051 0.312728 -0.383162 -0.302626 -0.196618 -0.044094 -0.020636 0.195299 0.121173 -0.403163 0.352995 0.355283 -0.018636 -0.271262 -0.469602 -0.051546 0.036884 0.048758 0.251935 -0.507182 -0.231884 -0.048998 0.088962 0.205774 -0.288593 0.041637 -0.332937 -0.005421 -0.150043 0.071285 -0.190335 0.051305 -0.006387 -0.273891 -0.044174 -0.042207 0.111967 -0.091938
153 0.280418 0.092023 -0.142894 0.106146 -0.426511 -0.065648 0.377208 -0.546679 0.371358 0.059848 0.473157 -0.156448 0.049972 -0.362632 0.001116 0.116108 0.046303 -0.139825 -0.391221 0.191665 -0.023560 -0.076328 0.184206 0.208372 0.003924 0.227294 -0.311726 0.318226 -0.106301 -0.381541 0.138481 -0.027100 0.240089 0.172930 0.005871 0.006451 -0.082294 0.358585 0.034120 0.289831 0.154783 -0.418706 -0.273302 0.044588 -0.003861 -0.131360 0.146587 -0.284444 0.285463 -0.352062 -0.096653 -0.197165 -0.071658 -0.173672 -0.092167 -0.026244 0.056855 0.398157 0.020169 0.176816 0.139498 0.261246 0.106075 -0.263911 -0.153784 0.116803 0.019782 0.445778 -0.078063 -0.140302 -0.061662 0.162243 0.041262 -0.219640 0.096499 0.149420 0.040856 -0.284099 0.133372 -0.000493 0.403658 -0.006678 0.186220 -0.142813 -0.057100 -0.206383 0.049815 0.113550 0.206709 -0.224119 0.262047 0.303925 0.071265 -0.090802 0.019251 -0.173905 -0.037650 0.203075 0.124872 -0.223449 0.231220 0.264383 0.038432 0.351720 -0.167834 0.001608 -0.006745 0.076323 0.438527 0.070340 -0.302734 -0.240573 -0.051363 0.309435 -0.403070 -0.202442 0.002260 0.071293 -0.085449 -0.278659 0.040329 -0.250376 0.092083 -0.121669 0.333968 0.182948 0.171932 -0.075929
155 0.418072 0.115204 0.012427 0.365436 -0.096141 -0.408608 0.403718 -0.895179 0.006768 -0.131507 0.731224 -0.150825 0.107055 -0.407276 -0.327745 0.123661 0.290867 -0.006203 -0.082618 0.301044 -0.178903 0.053797 0.352080 -0.167696 0.450901 -0.082207 -0.345736 -0.143543 -0.203087 -0.231667 -0.168665 -0.114258 -0.017976 0.188823 0.072781 0.350854 0.022959 -0.073674 0.038116 0.392773 0.101479 -0.329907 -0.002423 -0.033380 -0.199043 0.161644 0.044660 -0.326672 0.191154 0.095330 -0.290943 0.122666 -0.080314 0.427029 -0.146109 0.385232 -0.227749 -0.025614 -0.273394 -0.144382 0.154488 0.257812 0.095564 -0.177948 -0.385185 -0.117936 -0.119946 0.269118 -0.307282 -0.076880 0.080111 0.227247 -0.060472 -0.314067 0.083856 0.310500 0.337552 -0.043705 0.184129 0.302869 0.138329 -0.301524 0.093055 0.106751 0.016287 -0.102307 -0.043639 -0.182497 0.125817 -0.012440 0.097742 0.378353 0.151613 0.057810 0.181189 -0.087104 -0.145256 0.203459 0.207249 -0.776338 0.008822 0.224969 0.303212 0.022546 0.214798 0.212508 -0.005301 0.058142 0.112688 0.017325 -0.083209 -0.115776 -0.067027 0.057404 -0.037769 0.185620 0.006404 0.155451 -0.347702 -0.359146 -0.133401 -0.373418 -0.086948 0.128845 0.380227 0.395537 -0.181359 -0.201993
22 -0.226330 -0.201009 -0.189960 0.135825 -0.062575 0.022832 0.176177 -0.153059 -0.182744 -0.079216 -0.021924 -0.054203 0.056359 0.019114 -0.135421 -0.065446 -0.002162 0.066268 0.044333 0.095309 0.096238 -0.107878 0.331586 0.025899 -0.092448 0.057519 -0.125121 0.050806 0.116682 -0.098258 0.312530 0.105004 -0.261505 0.136203 0.050186 0.221110 -0.006864 0.092690 -0.429377 0.063120 -0.073688 -0.138811 0.056322 -0.111066 0.188370 -0.177448 0.092877 0.069900 -0.048634 0.196156 -0.393451 0.085932 -0.042853 -0.042472 0.017691 0.445165 -0.154568 0.034605 -0.110514 -0.150881 -0.067362 0.092204 -0.439951 0.016767 0.228774 0.310269 0.130578 0.509529 -0.167593 0.075345 0.020631 -0.024824 0.028299 -0.036929 0.303114 -0.219881 0.165359 -0.071685 -0.190339 -0.131677 -0.275071 0.024899 0.275208 0.078112 -0.010173 0.045137 -0.194467 0.005651 -0.151350 0.179702 -0.068364 0.402871 -0.037148 -0.402838 -0.226909 0.224709 -0.022267 0.169010 0.144202 -0.471742 -0.163902 0.080603 0.111296 -0.203822 -0.558450 0.086419 -0.086809 0.022932 0.213951 -0.356456 -0.259713 0.201456 0.004051 0.350848 -0.193939 -0.168609 -0.302717 -0.084118 -0.172120 -0.026129 -0.241380 0.073131 0.133107 -0.294935 -0.047804 -0.097977 -0.074096 -0.016288
64 -0.148834 -0.118966 -0.332527 0.060751 -0.203572 -0.130900 0.097093 -0.007560 0.188288 -0.065525 0.002429 -0.061355 0.064846 -0.030834 -0.048954 0.093604 -0.125100 0.061170 -0.130407 0.004325 0.108943 -0.184241 0.410323 0.160958 -0.011465 0.255974 -0.082352 0.270088 0.078728 0.078068 0.202358 0.066276 -0.094526 0.070765 -0.056625 0.040204 0.113478 0.031607 -0.545729 0.073927 -0.245378 -0.157225 0.021695 -0.149530 0.248882 -0.135220 0.122615 0.041905 0.092687 0.155928 -0.222977 -0.092984 0.080240 0.091613 0.302352 0.220834 -0.140529 -0.031773 -0.176645 -0.211964 0.230329 0.044946 -0.107740 0.011668 0.158307 0.242888 0.110116 0.453180 -0.348618 0.153016 0.221976 -0.125519 0.004484 -0.065971 0.247291 -0.404945 0.128960 -0.219252 -0.287066 -0.173867 -0.079389 0.005136 0.184417 -0.042025 -0.104622 -0.097146 -0.191041 0.023133 -0.052570 0.234268 0.109840 0.255461 -0.259726 -0.168021 -0.138455 -0.060966 0.023137 0.155988 0.150986 -0.382702 0.211178 0.380880 -0.046628 -0.206452 -0.490519 -0.019011 0.218748 0.000754 0.201556 -0.318579 -0.261858 0.130080 -0.106801 0.204133 -0.279952 -0.126507 -0.220508 -0.027098 -0.162002 -0.109505 -0.126199 0.115205 0.097029 -0.173369 0.102569 -0.049361 0.111216 -0.271268
77 0.108094 -0.363637 -0.397307 0.355600 -0.103230 0.088560 0.169325 -0.165358 -0.218863 -0.184765 -0.067140 -0.185373 0.086661 0.111504 -0.138399 0.107735 -0.037892 0.027511 -0.167221 0.131610 0.010040 -0.052730 0.367970 0.097677 -0.304849 0.027900 -0.045035 0.078671 -0.036033 -0.107717 0.372804 -0.066367 -0.112505 0.291018 0.056545 0.049302 -0.039771 -0.064705 -0.579559 -0.106135 0.155218 -0.143327 -0.179505 0.045876 0.193908 -0.144460 0.127222 -0.044898 -0.006152 -0.005367 -0.592408 0.023345 0.182642 0.040197 0.081672 0.499601 -0.069860 0.074214 -0.031785 -0.097838 -0.103026 0.075665 -0.479399 0.321365 0.156034 0.240250 0.043127 0.488908 0.023104 0.018116 -0.045013 -0.195475 0.019913 -0.056876 0.107512 -0.234608 0.312571 -0.212160 -0.144198 -0.108020 -0.465148 0.114356 0.309514 0.340042 -0.148953 0.049286 -0.313669 -0.009516 -0.078427 0.036886 -0.125283 0.425114 -0.005715 -0.393382 -0.049713 0.403124 0.080958 0.028051 0.132668 -0.324796 -0.267855 -0.192068 0.285561 -0.291962 -0.521894 -0.022541 -0.047335 -0.015815 0.045834 -0.388207 -0.303785 0.181486 -0.053900 0.348252 -0.302512 -0.177343 -0.387301 -0.032760 -0.407947 -0.142075 -0.302941 0.278330 0.113162 -0.455538 0.059990 -0.145741 -0.173823 0.218403
56 -0.218969 -0.257410 -0.184002 0.237129 0.046071 0.043318 0.279822 -0.113699 -0.190621 0.105283 -0.017504 0.136244 0.025694 -0.040900 -0.262099 0.066025 -0.140116 0.016446 -0.035493 0.095207 0.060142 -0.072148 0.377731 0.012318 -0.212726 -0.048449 -0.224830 -0.042405 0.078344 -0.107347 0.176118 -0.064192 -0.213836 0.237118 -0.055324 0.182591 0.118454 0.107902 -0.442678 0.098949 -0.063938 -0.065257 -0.006070 -0.216799 0.003593 -0.171271 0.066009 0.077891 0.005802 0.067912 -0.315627 0.015352 -0.096731 0.108644 -0.000626 0.412737 -0.233988 0.050729 -0.071734 -0.035318 -0.079802 0.037815 -0.332448 -0.041111 0.246388 0.211601 0.070245 0.469975 -0.164139 0.135211 0.006584 -0.095406 0.079614 -0.096655 0.335093 -0.252357 0.171906 -0.046773 -0.132035 -0.203871 -0.254497 0.017325 0.286663 0.208975 0.107597 0.003834 -0.381190 -0.058546 -0.203202 0.139627 -0.081198 0.349600 -0.022956 -0.407766 -0.132709 0.240016 0.076344 0.259122 0.112761 -0.304847 -0.035277 0.086053 0.169596 -0.170085 -0.438491 0.017988 -0.149894 0.056098 0.232759 -0.289883 -0.275421 0.227244 -0.042346 0.322275 -0.138094 -0.029733 -0.319701 -0.121498 -0.223973 -0.125613 -0.393363 -0.005139 0.005489 -0.186241 -0.060896 0.058475 -0.028626 0.277280
55 -0.067082 -0.243535 -0.094082 0.251613 0.045845 0.052741 0.304119 -0.113146 -0.205883 0.115601 -0.060210 0.161946 -0.064991 -0.023255 -0.326200 0.090683 -0.156904 0.075798 -0.094182 0.159523 0.012288 -0.054442 0.300917 -0.085445 -0.224179 -0.048467 -0.244675 -0.061996 0.062293 -0.073621 0.111732 -0.026829 -0.215317 0.200765 -0.103542 0.200477 0.148479 0.087754 -0.393603 0.126413 -0.053478 -0.029019 -0.054530 -0.188382 -0.108388 -0.164685 0.053301 0.032662 0.009930 0.041685 -0.276735 0.014741 -0.012661 0.176527 -0.027173 0.369624 -0.222225 0.045729 -0.153525 -0.043918 -0.115587 -0.007053 -0.302595 -0.105539 0.213288 0.189261 0.044319 0.356899 -0.182492 0.151264 -0.000845 -0.093887 0.065653 -0.044478 0.311333 -0.201626 0.199841 -0.084375 -0.143603 -0.208422 -0.201899 -0.013091 0.305547 0.232102 0.143037 -0.039854 -0.315747 -0.018781 -0.143893 0.134739 -0.138901 0.318424 0.036360 -0.450172 -0.102370 0.223665 0.040692 0.210768 0.105875 -0.244664 -0.065833 0.010328 0.143310 -0.167297 -0.382376 0.071223 -0.264667 0.133947 0.182377 -0.241611 -0.298684 0.208973 0.011402 0.309412 -0.144450 -0.038732 -0.276263 -0.125938 -0.196994 -0.178986 -0.421523 -0.052068 0.026843 -0.191772 -0.048923 0.049135 -0.024441 0.349725
171 0.252189 0.035519 -0.065196 0.267106 -0.011005 -0.218531 0.325217 -0.754282 -0.062505 -0.020133 0.448845 0.126846 0.194727 -0.045528 -0.237911 -0.100481 0.218032 -0.125523 0.044279 0.162322 -0.128358 -0.081628 0.191301 -0.213976 0.203333 -0.022209 -0.124996 -0.293969 -0.164947 -0.142278 0.048619 -0.105378 -0.205278 0.256646 0.150847 0.334118 0.055607 -0.005124 -0.085977 0.221320 0.013157 0.035582 0.058143 -0.241774 -0.368426 -0.011680 -0.050029 -0.050943 0.288631 0.262216 -0.432085 0.235252 -0.170694 0.510020 -0.108951 0.432314 -0.052537 -0.095356 -0.284860 -0.164388 0.186643 0.160356 -0.033747 -0.062302 -0.178622 0.217640 -0.097913 0.321141 -0.224078 0.121630 0.088630 -0.100321 -0.075199 -0.300028 0.034523 0.110129 0.376074 0.145816 -0.045658 0.173059 -0.108050 -0.211894 0.042598 0.170881 -0.010150 -0.138826 -0.325583 -0.194294 0.041779 -0.002799 -0.049982 0.187638 0.372100 0.100695 0.029021 0.145929 0.084897 0.000640 0.310241 -0.604103 -0.082461 -0.175099 0.315954 -0.208686 -0.022351 0.152948 0.044630 0.070998 -0.199896 -0.052908 -0.164112 0.301502 -0.116184 0.282761 -0.093839 0.032300 -0.101652 0.099987 -0.219805 -0.365891 -0.306359 -0.290036 -0.045121 0.004659 0.292094 0.226011 -0.213546 -0.112224
237 0.118200 -0.019152 -0.200592 0.309227 -0.039652 -0.107131 0.157348 -0.544569 -0.088469 -0.001867 0.255790 0.095997 0.272723 0.109121 -0.410741 -0.080946 0.111538 -0.023173 0.010999 0.153586 -0.061528 -0.102865 0.299170 -0.035149 0.071409 -0.104668 -0.014371 -0.211284 -0.014961 -0.127949 0.146571 -0.128047 -0.397241 0.299654 0.093888 0.264072 0.056320 -0.066136 -0.138158 0.029177 -0.019467 0.180970 0.263737 -0.214673 -0.239196 -0.072569 0.139608 0.184285 0.234053 0.194325 -0.489283 0.377489 0.064729 0.483197 -0.035027 0.395364 0.027013 -0.029449 -0.188335 -0.266762 0.194355 0.199029 -0.133245 0.009849 -0.007329 0.157661 0.001746 0.266712 -0.204360 0.209965 0.040376 -0.186338 -0.111821 -0.258735 0.235118 -0.050804 0.470043 0.068266 -0.135658 0.017498 -0.279848 -0.133878 0.088951 0.339384 -0.056797 0.026741 -0.453478 -0.191012 0.082491 0.059755 -0.108657 0.169430 0.274024 0.144968 -0.019257 0.109958 0.038290 0.007123 0.202280 -0.690772 -0.216326 -0.250149 0.294189 -0.383746 -0.176817 0.127614 0.139400 0.088119 -0.093726 -0.056575 -0.165341 0.377295 -0.036402 0.340407 -0.213157 -0.112540 -0.135737 0.036232 -0.342385 -0.267183 -0.390479 -0.059363 0.054107 -0.228577 0.151414 0.156569 -0.236752 -0.104588
127 -0.242349 -0.074423 -0.240719 0.002709 -0.079690 -0.083860 0.165752 -0.111832 -0.056092 0.024447 0.111958 0.001694 0.054078 -0.037289 -0.181076 -0.067388 -0.007630 0.070751 0.052439 0.105448 0.094131 -0.152696 0.409832 0.107353 -0.001102 0.110609 -0.107155 0.134767 0.149767 -0.055288 0.295607 0.036537 -0.262395 0.072452 0.028392 0.149151 0.055900 0.035567 -0.436687 0.070392 -0.131146 -0.181428 0.164100 -0.209989 0.247604 -0.207208 0.145468 0.109410 0.043297 0.281471 -0.364548 0.047384 -0.083325 0.049572 0.134173 0.426249 -0.259510 0.007538 -0.069745 -0.205529 0.057849 0.049398 -0.377702 0.010610 0.201295 0.233871 0.113577 0.503592 -0.336259 0.071760 0.095842 0.007440 0.035355 -0.031897 0.373460 -0.326846 0.104497 -0.131555 -0.133343 -0.151790 -0.194525 -0.035069 0.194497 0.044171 0.017928 0.054641 -0.201574 -0.019239 -0.216769 0.197842 -0.020220 0.318120 -0.115291 -0.335940 -0.321803 0.058491 -0.050682 0.304827 0.204523 -0.478753 0.010465 0.286370 -0.004570 -0.210870 -0.519050 -0.024051 -0.012575 -0.004961 0.243194 -0.419110 -0.215557 0.177404 0.027063 0.240102 -0.154146 -0.167300 -0.287655 -0.090720 -0.116067 -0.049984 -0.211320 -0.021754 0.069885 -0.244933 -0.132194 0.028017 0.028998 -0.169434
159 0.031329 -0.195015 -0.342207 0.113512 -0.281837 -0.162979 0.143835 -0.198650 0.041029 0.074355 0.190638 0.227956 0.071636 -0.090001 -0.329650 -0.004028 0.111815 0.058412 -0.027638 -0.004327 -0.234704 -0.262496 0.263591 0.014438 -0.058559 0.280866 0.086986 0.004178 -0.122241 0.078446 0.246943 -0.271776 -0.023730 0.232192 -0.023970 -0.079344 0.281091 -0.304481 -0.255700 -0.005537 -0.056909 -0.043517 0.116448 -0.240924 -0.129167 0.047189 0.243459 0.079275 0.341711 0.289529 -0.302921 0.189564 -0.095914 0.459135 0.207067 0.462986 -0.099600 -0.133534 -0.129964 -0.174467 0.205993 0.109534 -0.318131 0.363881 -0.146140 0.213804 0.037649 0.145040 -0.340653 0.068725 -0.031134 -0.166213 0.039831 -0.022738 0.256859 -0.271984 0.247728 -0.096019 0.301997 -0.174783 -0.195115 -0.147467 0.141697 0.212931 -0.146462 0.112540 -0.361388 -0.059109 -0.242598 0.066063 -0.026367 0.055796 0.303554 -0.124386 -0.178609 0.094224 0.012279 0.163307 0.135956 -0.417722 0.076781 0.087328 -0.034943 -0.288531 -0.199974 -0.258467 0.141735 -0.042047 0.047418 -0.255853 -0.102390 0.286525 0.106175 0.104705 -0.192819 -0.391054 -0.218326 0.110963 -0.122900 -0.156906 -0.310081 -0.083588 -0.011089 -0.228008 0.006866 0.108062 -0.105900 -0.007501
42 -0.187109 -0.057242 -0.116616 0.113493 0.026115 -0.078418 0.284698 -0.116865 -0.092617 -0.034482 -0.011325 -0.066178 0.087074 0.037427 -0.165982 0.033805 -0.101299 0.154217 0.015789 0.239977 0.152060 -0.049463 0.375177 0.002620 -0.095891 -0.025540 -0.149619 0.129134 0.140302 -0.149938 0.254256 0.174609 -0.236294 0.048083 0.032670 0.222893 0.049509 0.103532 -0.424294 0.064836 -0.099628 -0.172883 0.119139 -0.148988 0.236259 -0.310659 0.048307 0.043191 -0.128374 0.178851 -0.389260 0.027195 -0.034083 -0.096580 0.039876 0.431245 -0.190612 0.057084 -0.124561 -0.171183 -0.103366 0.040390 -0.386866 -0.099715 0.233956 0.175208 0.125183 0.505277 -0.216265 0.088621 0.079621 -0.054537 0.019781 0.046265 0.376991 -0.329344 0.165271 -0.044564 -0.283980 -0.099965 -0.264453 0.025513 0.285705 0.142904 0.006755 0.067132 -0.112087 -0.003529 -0.162939 0.224216 -0.034242 0.367643 -0.196464 -0.366464 -0.249323 0.108677 -0.045865 0.196452 0.154916 -0.448937 -0.030513 0.124432 0.090321 -0.232523 -0.500715 0.097644 -0.177306 0.069823 0.218454 -0.369553 -0.225969 0.083959 0.045082 0.305575 -0.171449 -0.022609 -0.311762 -0.087871 -0.167297 0.003463 -0.217271 -0.002470 0.100802 -0.286241 -0.094869 -0.060544 -0.015212 -0.020740
227 0.214310 -0.019670 -0.273138 0.200792 -0.380524 -0.437146 0.173089 -0.592033 0.263860 -0.161435 0.438363 -0.133223 0.103514 -0.414215 0.163049 0.161732 0.004898 -0.173877 -0.158222 0.219211 0.034072 -0.165056 0.480482 0.202917 0.274559 0.308004 -0.102818 0.323952 -0.198699 -0.275887 0.002059 0.104400 0.299152 0.113570 -0.074060 0.328645 -0.019785 0.248921 -0.028692 0.419599 -0.075010 -0.513634 -0.330513 0.094413 0.145656 -0.336185 0.121311 -0.116993 0.040155 -0.029817 -0.114436 -0.195921 -0.188696 -0.010707 -0.150004 0.116845 0.077383 0.062903 -0.194328 -0.138831 0.125776 0.369602 -0.012872 -0.132794 -0.391336 0.219702 0.207070 0.361940 -0.257066 -0.167438 0.104632 0.002859 0.063933 -0.044059 0.193480 0.168185 0.182509 -0.115790 0.165093 -0.043849 0.317301 -0.073664 0.019781 -0.256838 -0.197433 -0.294230 -0.089942 0.099499 0.041396 -0.259933 0.348929 0.461937 -0.008953 0.003086 -0.115206 -0.162821 -0.078014 0.151029 0.103632 -0.321714 0.341110 0.413448 -0.237953 0.254373 0.053158 -0.066912 0.151642 -0.068886 0.339467 0.291717 -0.051342 -0.073548 -0.116056 0.115780 -0.223201 -0.135172 -0.119236 0.031748 -0.301067 -0.234517 0.197804 -0.299255 0.072420 0.009684 0.454410 0.029791 0.028277 -0.452322
45 -0.190118 -0.139978 -0.217267 0.092867 0.003546 -0.018363 0.158732 -0.153383 -0.108824 -0.111168 0.029448 -0.119558 0.120534 0.040548 -0.098266 0.001650 -0.067718 -0.021679 0.073731 0.093263 0.136726 -0.092765 0.376276 0.066313 -0.084339 0.056491 -0.111526 0.021364 0.135307 -0.092132 0.305511 0.111976 -0.284414 0.122914 0.052541 0.302947 0.009063 0.163663 -0.455688 0.070792 -0.103713 -0.132667 0.089435 -0.173291 0.245810 -0.185825 0.032061 0.105133 -0.099034 0.228751 -0.397813 0.038242 -0.088343 -0.065851 0.084092 0.387449 -0.156727 0.000769 -0.065981 -0.201090 -0.108464 0.092165 -0.428602 -0.035945 0.189456 0.338461 0.100941 0.547684 -0.219392 0.057953 0.072821 -0.030529 -0.016599 -0.072892 0.270758 -0.274650 0.177908 -0.037376 -0.280877 -0.118199 -0.266953 0.003411 0.206810 0.037360 -0.063868 0.023530 -0.197451 -0.013112 -0.098969 0.151356 -0.043998 0.390135 -0.091084 -0.307982 -0.233209 0.200157 0.034215 0.154630 0.134677 -0.507644 -0.092386 0.103939 0.096165 -0.242761 -0.556475 0.089608 -0.016213 0.025401 0.208986 -0.370174 -0.194032 0.197738 -0.028952 0.374709 -0.113141 -0.066053 -0.311348 -0.144760 -0.211682 -0.006631 -0.186691 0.084788 0.095350 -0.242582 -0.058777 -0.160065 -0.012225 -0.078012
161 0.197630 0.021278 -0.162011 0.121946 -0.194360 -0.171747 0.199997 -0.526891 0.019149 0.025567 0.234379 0.235234 0.168545 0.115214 -0.310703 -0.102912 0.152237 -0.018537 -0.040244 0.196429 -0.100888 -0.186940 0.126904 -0.096133 0.078138 0.122090 0.035917 -0.195468 -0.108904 -0.069199 0.175175 -0.121540 -0.285076 0.243121 0.150315 0.056422 0.100969 -0.187032 -0.172495 0.064565 0.025222 -0.024347 0.121880 -0.268925 -0.233149 -0.032355 0.139161 0.003715 0.377224 0.306566 -0.506940 0.304896 -0.054637 0.524645 0.132440 0.545681 -0.008128 -0.093169 -0.318811 -0.241886 0.247191 -0.024688 -0.204948 0.153902 -0.116881 0.277304 -0.145216 0.346798 -0.446383 0.169274 0.057251 -0.123343 -0.047722 -0.219438 0.161689 -0.165080 0.402469 -0.004710 -0.061939 0.081707 -0.197258 -0.170494 0.015707 0.273824 -0.144956 0.051954 -0.334930 -0.259795 0.020638 0.155744 -0.079929 0.112042 0.304076 0.013906 -0.110140 0.098139 0.104191 0.015422 0.303190 -0.562423 -0.038942 -0.109555 0.235981 -0.335077 -0.253041 -0.028488 0.097127 0.105920 -0.225022 -0.209070 -0.146076 0.408826 -0.040084 0.266515 -0.165346 -0.210126 -0.195329 0.165341 -0.101930 -0.358742 -0.378130 -0.255995 0.103300 -0.179444 0.115335 0.163669 -0.121926 -0.175561
110 0.071285 0.017763 0.023203 0.052669 -0.130487 -0.160039 0.278604 -0.425474 0.067289 0.099281 0.355508 0.061376 -0.354422 -0.349854 -0.127226 -0.112787 0.136034 0.037444 -0.217046 0.135589 -0.243623 -0.195543 0.127622 -0.088254 0.081779 0.273288 -0.269353 0.295691 -0.031715 -0.099696 0.088640 0.028428 0.217436 0.021054 -0.119033 0.061934 0.091299 0.237074 -0.087191 0.309960 -0.022401 -0.145911 -0.345490 -0.116866 -0.246487 -0.043976 0.049897 -0.166847 0.234436 -0.085216 -0.051043 0.065074 0.061638 0.128348 -0.158485 -0.006285 -0.129059 0.137705 -0.143175 0.129880 0.166793 0.293664 0.041844 -0.271599 -0.102495 0.176815 0.082730 0.189486 -0.204715 -0.103130 -0.025566 0.070660 0.069457 0.048313 0.148977 0.116723 -0.078248 -0.215990 0.184687 -0.188426 0.218392 -0.090471 0.349746 -0.223001 0.102539 -0.257734 -0.036051 0.228255 0.036890 -0.119102 0.103043 0.303357 0.210213 -0.390428 -0.137379 0.016736 -0.176534 0.229466 0.348279 -0.251552 0.090906 0.259702 -0.126991 0.284653 -0.187787 0.076145 -0.260902 0.048785 0.332583 -0.050489 -0.312855 -0.133410 -0.001581 0.213928 -0.353275 -0.307839 -0.043775 -0.012762 -0.106543 -0.295959 -0.092286 -0.235090 -0.028156 -0.085329 0.173372 0.214396 0.173998 0.044803
149 0.302189 0.013106 0.007998 0.338916 -0.132363 -0.224552 0.543613 -0.769101 0.089183 -0.109344 0.630391 -0.103783 0.068950 -0.240197 -0.128561 0.129134 0.264140 -0.090091 -0.000655 0.075823 -0.163282 0.018907 0.240577 -0.188422 0.348312 0.029259 -0.301046 -0.105217 -0.126055 -0.185406 -0.041958 -0.097400 0.011279 0.183530 0.126401 0.235631 0.055121 -0.030883 -0.154932 0.325198 -0.006875 -0.251430 -0.044623 -0.160777 -0.318336 0.255496 -0.202123 -0.348057 0.267223 0.197178 -0.404518 0.002716 -0.245139 0.358638 -0.084900 0.406084 -0.191143 -0.080596 -0.275099 -0.093006 0.064737 0.124867 0.059305 -0.079140 -0.167160 0.077970 -0.203984 0.421448 -0.225503 0.010206 0.107962 0.097886 -0.096925 -0.292449 -0.051737 0.105879 0.218556 0.115678 0.016404 0.220905 0.055779 -0.249467 0.064141 0.074314 -0.036641 -0.207372 -0.057434 -0.184658 0.016413 -0.065830 0.061776 0.275920 0.158005 -0.053660 0.167572 0.061299 0.034122 0.091403 0.264052 -0.658842 -0.055147 0.107568 0.228887 -0.081356 -0.009446 0.131893 -0.033555 0.006479 -0.052303 -0.203321 -0.169035 -0.038548 -0.136199 0.181950 -0.069827 0.186626 -0.032652 0.145832 -0.172338 -0.387787 -0.149056 -0.245936 -0.040246 0.117264 0.356401 0.275923 -0.121117 -0.114381
32 0.825744 -0.306988 -0.942585 -0.099957 -0.264755 -0.246514 0.030881 -0.469587 -0.134893 -0.196937 0.528151 -0.363560 0.031037 -0.361219 0.109747 -0.044271 -0.384153 0.357481 -0.690242 0.160265 0.051195 0.174714 0.216806 0.334824 -0.280174 0.108272 -0.374825 -0.101282 -0.435676 0.018242 0.708294 -0.266106 -0.066591 0.447520 0.095220 0.384847 -0.428421 0.216230 -0.052229 0.473332 0.616104 -0.896088 -0.774893 0.215255 0.443482 -0.717989 0.506823 -0.455640 0.162681 -0.208786 -0.401733 -0.526543 0.082402 0.221153 0.206830 0.441616 -0.623410 0.531999 0.113419 0.127725 0.017015 0.194789 -0.037306 -0.020323 -0.224806 0.082107 -0.035065 0.847311 0.016933 -0.381275 0.433558 0.311763 0.180169 -0.712774 0.100302 0.536446 0.156504 -0.833687 -0.035037 0.280573 0.390570 -0.331495 0.227021 0.204603 0.313837 -0.089857 -0.322236 0.185749 0.018551 0.013555 0.276907 0.381645 0.047921 -0.174612 -0.204086 -0.267028 0.092725 0.288011 0.090239 0.116334 0.371613 0.477073 0.541569 0.347037 -0.214507 0.143306 -0.039224 0.133376 0.565578 -0.134171 -0.293352 -0.134424 -0.461562 0.342501 -0.416113 0.031835 -0.092414 0.145432 -0.395505 -0.181526 -0.285684 -0.126339 -0.481938 -0.157257 -0.014466 0.396091 -0.111190 0.296981
66 0.103782 -0.076930 0.017068 0.174779 0.143992 -0.091413 0.518934 -0.345838 -0.266150 -0.031557 0.206144 -0.040629 0.058070 -0.049865 -0.268628 0.039715 0.018527 -0.000438 0.127169 0.147059 0.044661 0.007684 0.358683 -0.238692 0.035132 -0.130544 -0.393096 -0.236263 0.114563 -0.084751 0.137591 -0.000744 -0.218834 0.148605 0.099197 0.411198 0.070428 0.049461 -0.389155 0.243654 -0.066190 -0.194851 0.028657 -0.190069 -0.130744 -0.009277 -0.142571 -0.037133 -0.012161 0.325670 -0.452522 -0.034854 -0.289512 0.178466 -0.024731 0.517285 -0.407089 -0.040978 -0.198452 -0.140530 -0.228286 -0.082840 -0.405085 -0.113934 0.163702 0.250913 -0.037429 0.418592 -0.095329 0.122393 0.045931 -0.012112 0.053804 -0.177176 0.202689 -0.101077 0.196716 0.137425 -0.080836 0.117631 -0.136641 -0.135734 0.178537 0.172062 0.114027 -0.060079 -0.078046 -0.055308 -0.198811 0.101648 -0.129068 0.306426 0.151874 -0.465915 -0.008557 0.267629 -0.027529 0.196351 0.268532 -0.481012 -0.165105 0.091954 0.237978 -0.241592 -0.333538 0.167755 -0.366925 0.040370 0.080880 -0.465326 -0.214865 0.147294 -0.011323 0.308897 0.086949 0.212449 -0.263255 -0.070321 -0.149273 -0.169547 -0.367203 -0.225760 -0.084713 -0.058974 0.029552 0.105982 -0.165733 0.229151
183 0.561411 -0.197340 -0.637627 0.447242 -0.459688 -0.456809 0.690686 -0.936197 0.167874 -0.100275 0.658444 -0.171925 0.366116 -0.410100 -0.504322 0.357841 -0.231013 0.106035 -0.574518 0.547780 -0.109167 -0.124819 0.851142 0.152066 -0.187460 0.197762 -0.341675 0.128189 -0.258446 -0.438920 0.480125 -0.111835 -0.048274 0.512712 -0.077545 0.474119 0.194427 0.215854 -0.450714 0.412543 0.172649 -0.628396 -0.181837 -0.241740 0.088408 -0.377500 0.458953 -0.201499 0.184483 0.033414 -0.632114 -0.038818 -0.031784 0.248529 0.115298 0.756958 -0.187802 0.272194 -0.174221 -0.124022 -0.103402 0.446994 -0.582837 -0.088699 -0.315540 0.372791 0.090707 0.940088 -0.508522 -0.157447 0.004725 0.060563 -0.041934 -0.297871 0.553676 -0.187384 0.585692 -0.376668 0.081708 -0.112521 -0.039196 -0.197051 0.585631 0.375423 -0.276375 0.008586 -0.472532 0.034454 0.024256 0.021510 0.144167 0.790927 0.161207 -0.355767 -0.181669 0.043851 -0.017032 0.408050 0.123279 -1.037266 0.241100 0.289171 0.180630 -0.154213 -0.527398 0.097353 -0.053821 0.184587 0.597731 -0.316304 -0.344477 0.081489 0.115792 0.742478 -0.539477 -0.283816 -0.500549 0.042453 -0.554701 -0.370853 -0.421489 -0.295496 0.020068 -0.472360 0.311352 0.153056 -0.023325 0.053495
43 -0.036457 0.144511 -0.116981 0.038028 -0.046883 -0.401682 0.382007 -0.141541 0.312477 -0.064993 0.011519 -0.121377 0.103997 -0.138531 -0.204070 0.194857 -0.067494 0.333871 -0.209578 0.346816 0.007688 -0.155010 0.331007 -0.059031 -0.091218 0.191924 -0.087084 0.351536 0.051246 -0.064582 0.199834 0.184753 0.033711 -0.031385 0.076665 -0.146472 0.203874 -0.019047 -0.648272 0.008777 -0.119633 -0.296422 -0.054978 -0.249452 0.245773 -0.373727 0.052581 -0.153554 -0.070823 0.201607 -0.358169 0.040723 0.186448 0.024243 0.333657 0.338940 -0.260882 0.034629 -0.213465 -0.102810 0.227882 -0.078943 -0.113735 -0.151686 0.054264 0.003717 0.092160 0.494221 -0.317705 0.095971 0.264882 -0.152527 0.042898 0.227454 0.315845 -0.570939 0.095284 -0.176411 -0.455114 -0.040561 -0.182128 -0.003148 0.487824 0.172692 -0.024695 0.009226 0.011401 0.071618 -0.072734 0.361174 0.167023 0.287986 -0.451478 -0.275013 -0.153593 -0.095565 -0.135031 0.160328 0.279029 -0.371193 0.438045 0.336301 0.043997 -0.164474 -0.484910 -0.051721 -0.029446 0.211094 0.271299 -0.535105 -0.299796 -0.198656 0.035618 0.156580 -0.330925 0.052659 -0.265592 0.044439 -0.202301 -0.025204 -0.157757 -0.045170 -0.000691 -0.258104 -0.010136 0.074463 0.108191 -0.082878
53 0.172382 -0.127882 -0.299880 -0.092668 -0.005200 -0.182495 0.287094 -0.160623 -0.218510 -0.018654 0.073660 0.059172 0.065210 -0.118148 -0.225262 -0.102424 -0.217842 0.108636 -0.197202 0.026069 -0.100224 -0.120043 0.442080 -0.153255 -0.210799 0.137442 -0.159040 -0.170304 -0.059467 0.184321 0.465335 -0.166457 -0.025651 0.080579 0.002360 0.249540 0.220741 0.014333 -0.474065 0.223152 -0.017454 -0.116325 -0.191111 -0.177799 -0.067567 -0.101629 0.241092 0.180078 -0.003207 0.386773 -0.309588 -0.011085 -0.006767 0.213726 0.273793 0.375922 -0.384067 0.041827 0.030651 -0.046653 -0.174188 -0.039775 -0.608685 0.211082 0.103782 0.454797 0.195710 0.317640 0.045323 0.081474 0.043422 -0.047975 0.126241 -0.005043 0.319379 -0.146671 -0.066995 -0.095218 0.199009 -0.010308 -0.030930 -0.134614 0.246896 0.186618 -0.040832 0.007744 -0.155051 0.272237 -0.282593 0.058599 -0.125468 0.185438 0.397381 -0.497719 -0.177190 0.330787 -0.122514 0.043124 0.124659 -0.245199 -0.088790 0.124042 -0.122809 -0.202948 -0.426166 -0.111354 -0.222020 -0.008300 0.177407 -0.556293 -0.192100 0.093084 0.175155 0.416217 -0.046932 -0.186403 -0.263212 0.009418 -0.059725 0.008096 -0.454453 -0.062090 -0.209442 -0.144353 0.025401 -0.031471 -0.084686 0.272324
141 0.383128 0.141382 -0.126465 0.187193 -0.639630 -0.135073 0.631436 -0.613526 0.621753 0.089181 0.273824 -0.243186 0.232368 -0.483417 -0.205902 0.524342 -0.281160 -0.314458 -0.674171 0.492311 -0.102695 -0.015340 0.290374 0.276129 -0.537050 0.207239 -0.297058 0.143233 -0.262126 -0.477254 0.110422 -0.077451 0.349104 0.368716 -0.036769 -0.004185 0.144262 0.616399 0.070585 0.223094 0.281175 -0.466517 -0.282202 -0.203913 0.058107 0.017477 0.290016 -0.299824 0.240034 -0.651474 0.227936 -0.006688 -0.097147 -0.469530 0.125689 -0.079526 0.306495 0.678699 0.222176 0.287734 -0.032501 0.366293 -0.075900 -0.292126 -0.332950 0.234896 0.001837 0.449041 -0.146833 -0.133684 -0.361253 0.128630 -0.048071 -0.373583 0.252793 -0.158427 0.312547 -0.253685 0.196071 -0.177486 0.450624 0.097219 0.567977 -0.094706 -0.407512 -0.041959 0.135117 0.039882 0.524990 -0.070191 0.263830 0.295391 0.199705 0.052994 0.223332 -0.020598 0.082607 0.233981 -0.263531 -0.417146 0.497395 0.175445 0.269615 0.292352 -0.272319 -0.025429 -0.047694 0.272712 0.742463 0.161011 -0.200966 -0.274496 0.081721 0.629838 -0.383985 -0.172511 -0.132102 0.069062 0.001711 -0.110723 0.028377 -0.243199 0.136812 -0.260379 0.591940 0.015587 0.292464 0.363820
242 0.224500 -0.233525 -0.412092 0.146511 -0.122568 -0.053704 0.103140 -0.162346 -0.145284 -0.162426 -0.093190 -0.011171 0.094833 0.103629 -0.156987 0.055947 -0.230171 0.002965 -0.215081 0.036822 -0.079202 -0.179582 0.358636 0.003765 -0.276908 0.143975 0.013312 -0.074967 -0.013744 0.118288 0.396275 -0.130207 -0.101576 0.212715 -0.002320 0.094942 0.139684 -0.004789 -0.484351 0.043629 0.011557 0.005719 -0.219697 -0.151694 -0.029223 -0.021218 0.189322 0.161270 0.054180 0.170170 -0.410321 0.082814 0.156083 0.263391 0.293356 0.303163 -0.080409 0.032486 -0.059008 -0.121560 -0.121341 0.015251 -0.506983 0.306272 0.123224 0.438487 0.077196 0.318299 -0.044654 0.120017 -0.002490 -0.227099 -0.031785 -0.067744 0.182462 -0.297907 0.200937 -0.108589 -0.049277 -0.117797 -0.247092 -0.000699 0.228765 0.268779 -0.238409 0.010168 -0.319988 0.117123 -0.002220 0.020426 -0.106221 0.201162 0.246132 -0.264477 -0.062785 0.383197 0.051401 -0.116933 0.110525 -0.268324 -0.177600 -0.127472 0.011924 -0.310709 -0.533908 -0.068865 0.002645 0.023730 0.023731 -0.358940 -0.172256 0.294858 0.006835 0.433719 -0.181966 -0.237190 -0.290220 -0.013783 -0.225524 -0.132315 -0.386191 0.148990 -0.026237 -0.284472 0.134049 -0.167705 -0.069075 0.211211
83 0.072848 -0.380111 -0.345830 0.272322 -0.104581 0.102222 0.091497 -0.209592 -0.170035 -0.181002 -0.145698 -0.170869 0.053202 0.087694 -0.198918 0.132720 -0.056857 -0.036073 -0.139365 0.089370 -0.044518 -0.121990 0.326791 0.115121 -0.217476 0.106440 0.039450 -0.008922 0.050217 -0.015659 0.335031 -0.068685 -0.176495 0.311514 0.066126 0.055687 0.026193 -0.009505 -0.577728 -0.054874 0.073981 -0.085077 -0.181045 -0.121323 0.067216 0.023763 0.119861 0.069782 0.058464 0.046620 -0.535440 0.153661 0.176951 0.140142 0.144209 0.398748 -0.001226 -0.026174 -0.064933 -0.110149 -0.072240 0.057988 -0.462441 0.260247 0.119124 0.349166 0.006116 0.449446 -0.124593 0.082706 -0.074088 -0.163746 -0.005010 -0.020434 0.125754 -0.189096 0.318158 -0.185140 -0.167971 -0.167710 -0.441544 0.032950 0.333921 0.264926 -0.226885 0.052851 -0.333064 -0.034705 0.007985 0.070438 -0.122732 0.384576 0.027441 -0.312637 -0.058369 0.365912 0.175570 0.075433 0.066926 -0.357291 -0.153295 -0.158767 0.215939 -0.291779 -0.579048 -0.014364 0.025412 0.026234 0.064500 -0.379392 -0.237214 0.221191 -0.043286 0.395696 -0.212380 -0.168271 -0.350755 -0.025814 -0.354534 -0.165234 -0.316287 0.265021 0.136034 -0.356788 0.044480 -0.154746 -0.155328 0.237843
194 0.183102 -0.011405 0.059172 0.366541 -0.250010 -0.254739 0.563880 -0.645435 0.336895 -0.008330 0.647197 0.039551 -0.007671 -0.329726 -0.080805 0.196907 0.161245 -0.055116 -0.117528 0.029351 -0.281771 -0.090211 0.254666 -0.210199 0.318629 0.152076 -0.245847 0.164048 -0.158118 -0.258347 -0.018106 -0.056496 0.163536 0.068255 -0.040723 0.179593 0.295503 0.028264 -0.060881 0.398551 -0.151527 -0.111539 -0.015386 -0.328928 -0.431433 0.072135 -0.127158 -0.259821 0.280383 0.155502 -0.185353 -0.015101 -0.211753 0.331582 -0.183557 0.270466 -0.161007 -0.044261 -0.288585 -0.017485 0.082086 0.298806 0.231292 -0.250397 -0.233640 0.012753 -0.080420 0.433044 -0.287305 -0.042495 0.180735 0.046991 -0.173751 -0.080997 0.044982 -0.049736 0.151497 0.133513 -0.007989 -0.014491 0.198088 -0.262920 0.171197 0.020953 -0.002623 -0.311646 -0.130109 -0.000724 -0.025729 -0.196905 0.068940 0.270412 0.130008 -0.019836 0.065849 -0.083281 -0.001649 0.032553 0.247091 -0.601652 0.169522 0.056060 -0.044411 0.012682 -0.000599 0.146142 -0.035374 0.089459 -0.019291 -0.054857 -0.278402 -0.150187 0.013214 0.248142 -0.326497 -0.000681 0.052476 0.068544 -0.080817 -0.406194 -0.124332 -0.342924 -0.026333 0.024687 0.361184 0.262577 0.166315 -0.126914
199 -0.038911 -0.278353 -0.351565 0.265916 -0.470999 -0.220075 0.289209 -0.321271 0.397451 -0.127908 0.448071 -0.030939 0.159528 -0.270158 0.155640 0.229775 0.014240 -0.129975 -0.145257 -0.217324 -0.117613 -0.208708 0.458592 0.106044 0.299114 0.438162 -0.065218 0.368486 -0.196945 -0.138289 0.079972 -0.076755 0.274263 0.143011 -0.085415 0.111914 0.254417 -0.046197 -0.322657 0.281627 -0.270295 -0.233980 -0.048375 -0.074833 -0.010458 0.098494 -0.006461 -0.137336 0.279661 0.204504 -0.119984 -0.263092 -0.234881 0.153969 0.064056 0.291223 -0.021507 -0.192935 -0.290754 -0.123322 0.187569 0.229557 0.090274 0.098612 -0.147485 0.199577 0.057150 0.503750 -0.264781 -0.019320 0.231552 0.001894 -0.023528 -0.057148 0.034146 -0.189431 0.098322 -0.005233 -0.003175 -0.103656 0.134313 -0.100972 0.014960 -0.129327 -0.280140 -0.280284 -0.262493 -0.017235 -0.126737 -0.074635 0.243200 0.323908 -0.156955 -0.035659 -0.009983 -0.117915 0.129003 0.015142 0.081840 -0.507916 0.304613 0.369974 -0.279137 -0.058998 -0.099358 -0.054940 0.427641 -0.127252 0.035770 -0.065878 -0.176414 -0.007451 -0.097527 0.113396 -0.319142 -0.104700 -0.120481 0.139147 -0.092010 -0.281240 0.026543 -0.060594 0.108318 -0.001466 0.416099 -0.003428 0.162721 -0.432095
258 0.031232 -0.425825 -0.341690 0.255387 -0.104491 0.178541 0.041858 -0.240788 -0.128480 -0.119383 -0.187440 -0.258591 0.115816 0.031235 -0.317396 0.154063 -0.036010 -0.034824 -0.153384 0.052576 -0.060996 -0.052494 0.280836 0.204135 -0.292611 0.090329 0.108407 -0.107683 0.096290 -0.082956 0.397219 -0.100829 -0.300878 0.419358 0.089555 0.124454 0.022091 0.060912 -0.527134 -0.118246 0.118121 -0.063987 -0.031520 -0.192940 0.075828 0.002392 0.176060 0.170161 0.067083 -0.000853 -0.515779 0.246413 0.223258 0.078782 0.097761 0.341788 0.086932 -0.014296 0.081955 -0.095815 -0.083975 0.127802 -0.437470 0.116124 0.069409 0.297640 0.035370 0.433543 -0.113337 0.051164 -0.147844 -0.086129 -0.011176 -0.013841 0.160586 -0.027502 0.376115 -0.213969 -0.194167 -0.249075 -0.497986 -0.019466 0.443383 0.296067 -0.201471 0.172127 -0.392859 -0.028157 0.060842 0.110325 -0.145678 0.411685 -0.027265 -0.184980 -0.080759 0.282980 0.247018 0.227908 -0.114681 -0.414008 -0.052022 -0.217932 0.334635 -0.283332 -0.545752 0.035174 0.097025 0.099380 0.228618 -0.356913 -0.191624 0.169311 0.019629 0.442899 -0.217492 -0.131045 -0.285765 -0.068651 -0.368908 -0.059177 -0.299730 0.354091 0.145930 -0.395811 -0.093502 -0.124690 -0.198125 0.378635
156 0.405006 0.034526 0.010912 0.363500 -0.134993 -0.437812 0.328604 -0.831256 -0.078002 -0.153541 0.646602 -0.204879 0.073431 -0.491950 -0.393788 0.176980 0.278932 0.009688 -0.117684 0.352062 -0.185426 0.051131 0.386876 -0.151739 0.394710 -0.126828 -0.372726 -0.180018 -0.233828 -0.206138 -0.157268 -0.170993 -0.033776 0.225234 0.077023 0.394521 0.062835 -0.133445 0.068018 0.408768 0.131133 -0.412423 -0.043830 0.003741 -0.093104 0.070214 0.199932 -0.281194 0.125682 0.052730 -0.208537 0.166825 0.008509 0.414425 -0.196966 0.413421 -0.325339 0.074459 -0.252907 -0.155314 0.150633 0.321273 0.079262 -0.178718 -0.463502 -0.236536 -0.074907 0.230190 -0.278280 -0.126803 0.100185 0.227808 0.018220 -0.289182 0.128309 0.378542 0.380008 -0.132222 0.262812 0.291037 0.174686 -0.352157 0.128261 0.121833 0.121340 -0.108250 0.001985 -0.095623 0.128070 0.004636 0.061838 0.446179 0.138309 0.022319 0.188816 -0.130776 -0.200467 0.252727 0.129379 -0.701858 0.030376 0.247965 0.392543 0.054507 0.294028 0.200925 -0.031549 0.087334 0.191190 0.071793 -0.119506 -0.176638 -0.075957 0.011689 -0.039370 0.158755 0.045613 0.110015 -0.423175 -0.310900 -0.147322 -0.396605 -0.121205 0.096801 0.330575 0.422763 -0.203303 -0.059962
157 0.487884 0.010038 0.006464 0.347098 -0.154459 -0.407906 0.255045 -0.797305 -0.036877 -0.166298 0.581642 -0.157834 0.052917 -0.396018 -0.378292 0.154323 0.299956 0.000945 -0.102868 0.354939 -0.194516 0.005133 0.311854 -0.163671 0.380336 -0.050453 -0.263024 -0.155027 -0.234972 -0.166824 -0.176493 -0.115271 -0.060925 0.228370 0.048112 0.366144 0.070592 -0.144511 0.039420 0.364777 0.119076 -0.337651 -0.041242 -0.011840 -0.147486 0.037067 0.168225 -0.252358 0.141324 0.085814 -0.223667 0.168049 0.052229 0.476200 -0.180103 0.371034 -0.208629 -0.018741 -0.314058 -0.206368 0.169580 0.287917 0.075778 -0.179754 -0.492518 -0.183501 -0.087121 0.175205 -0.342441 -0.094240 0.110425 0.167205 -0.022293 -0.224516 0.061679 0.365951 0.445299 -0.129104 0.149165 0.245759 0.112355 -0.338651 0.111271 0.110874 0.078211 -0.135710 -0.042506 -0.112741 0.143381 -0.001307 0.037248 0.392248 0.167410 0.049690 0.148952 -0.132236 -0.137110 0.189360 0.119651 -0.662166 0.036210 0.128073 0.335645 0.012517 0.290508 0.215313 -0.001738 0.120915 0.083971 0.118317 -0.120465 -0.078644 -0.064304 0.006432 -0.068445 0.110068 0.019534 0.078748 -0.401844 -0.360350 -0.121205 -0.361836 -0.049816 0.058247 0.310829 0.311808 -0.225092 -0.123078
51 -0.154676 -0.040524 -0.123916 0.066803 -0.001655 -0.347184 0.393716 -0.096748 0.186978 -0.011942 -0.031157 -0.072184 0.000048 -0.190886 -0.203232 0.165067 -0.116552 0.346113 -0.203962 0.214820 -0.067797 -0.115915 0.370905 -0.107173 -0.116932 0.163217 -0.090282 0.282433 0.037320 -0.010867 0.257631 0.092176 0.057207 -0.000626 0.038375 -0.052964 0.262327 -0.034353 -0.610995 0.076543 -0.166636 -0.256187 -0.094942 -0.273183 0.130213 -0.379312 0.067698 -0.056339 -0.066613 0.223422 -0.333361 0.042680 0.117800 0.048901 0.234159 0.390473 -0.318373 -0.007410 -0.158490 -0.047095 0.128391 -0.012283 -0.183640 -0.108699 0.095873 0.058497 0.165641 0.448667 -0.231027 0.120697 0.221045 -0.159958 0.086168 0.248014 0.372159 -0.429846 0.044594 -0.128599 -0.283232 -0.137665 -0.165152 -0.062397 0.501276 0.196408 0.044447 0.032256 -0.076540 0.122801 -0.222985 0.290862 0.093342 0.296751 -0.306565 -0.387479 -0.186269 -0.020019 -0.089957 0.217450 0.204972 -0.304440 0.394116 0.307116 0.012329 -0.166729 -0.433549 -0.050081 -0.131891 0.152258 0.291135 -0.542392 -0.306694 -0.189269 0.073084 0.193038 -0.327311 0.037212 -0.266883 0.022736 -0.191971 0.009029 -0.257890 -0.008710 -0.065520 -0.235576 -0.058839 0.092739 0.057527 0.120474
193 -0.136733 -0.003141 -0.146409 0.005912 -0.055710 -0.394878 0.366708 -0.067622 0.212945 0.001591 -0.017103 -0.006764 0.015401 -0.186718 -0.208214 0.136269 -0.110148 0.367932 -0.222649 0.222168 -0.095083 -0.159632 0.367205 -0.129058 -0.143831 0.212631 -0.057751 0.305817 -0.014015 0.016348 0.285487 0.080582 0.054901 -0.030150 0.025739 -0.101590 0.320962 -0.091888 -0.601869 0.063055 -0.158347 -0.241368 -0.069032 -0.310337 0.152513 -0.438974 0.137271 -0.044262 -0.075220 0.281619 -0.294826 0.055272 0.135358 0.083826 0.268864 0.412645 -0.349334 0.020234 -0.168499 -0.074407 0.145892 -0.024903 -0.208794 -0.062554 0.063006 0.031735 0.168814 0.449880 -0.268001 0.092801 0.271607 -0.156076 0.067782 0.281411 0.382677 -0.519105 0.032603 -0.129983 -0.283831 -0.144374 -0.153267 -0.083996 0.488835 0.207656 0.063387 0.011737 -0.075391 0.150003 -0.253692 0.302838 0.068720 0.254320 -0.269224 -0.382769 -0.235908 -0.031738 -0.125204 0.180828 0.215200 -0.293203 0.403662 0.285612 -0.042492 -0.176225 -0.429740 -0.095638 -0.108516 0.181360 0.248905 -0.563404 -0.328846 -0.176065 0.119276 0.183662 -0.351023 -0.028912 -0.248974 0.004686 -0.136250 0.020821 -0.254357 -0.062873 -0.068224 -0.256202 -0.085931 0.060498 0.102620 0.054358
112 0.238369 -0.126874 -0.386428 0.002644 -0.224375 -0.052332 0.037065 -0.161449 -0.000076 -0.114376 -0.053365 -0.021324 0.132323 0.147500 -0.203149 0.060596 -0.140799 -0.016706 -0.113059 0.081925 -0.000347 -0.220464 0.263941 0.155156 -0.121381 0.265362 0.088626 -0.022840 0.066792 0.113164 0.282126 -0.058353 -0.154324 0.194294 0.035263 0.012916 0.090755 -0.076335 -0.414359 -0.013695 -0.015746 -0.090217 -0.071613 -0.184014 -0.005017 0.096477 0.161188 0.107753 0.160399 0.195710 -0.402650 0.135327 0.087006 0.279842 0.357508 0.256763 0.030841 -0.080058 -0.139369 -0.209521 0.040705 -0.084975 -0.374110 0.240435 0.037929 0.406937 -0.054950 0.286307 -0.306466 0.134926 0.005293 -0.149108 0.004539 -0.072646 0.170482 -0.290384 0.239250 -0.150663 -0.079695 -0.057463 -0.217869 -0.069450 0.126156 0.134599 -0.323295 0.065079 -0.216280 -0.027363 0.083731 0.133089 -0.019302 0.110959 0.104059 -0.119823 -0.112436 0.154991 0.111331 0.005336 0.105995 -0.319463 0.003658 0.032626 0.015777 -0.326912 -0.510419 -0.096722 0.087895 0.039218 0.034385 -0.306147 -0.068187 0.310670 -0.029085 0.302731 -0.103898 -0.236298 -0.271524 0.077036 -0.132091 -0.165308 -0.278606 0.063508 0.080103 -0.225045 0.072528 -0.115158 -0.069328 -0.000617
69 0.612108 0.000974 -0.019958 0.164367 -0.180114 -0.268179 0.209315 -0.702217 -0.058660 -0.054796 0.469277 0.043157 0.004094 -0.162114 -0.356464 -0.011318 0.221385 -0.000538 -0.127787 0.291106 -0.173138 -0.064811 0.151245 -0.205750 0.255483 0.056113 -0.188757 -0.244250 -0.243342 -0.041290 -0.097524 -0.079266 -0.156793 0.233778 -0.018860 0.389864 0.057048 -0.117029 0.060973 0.354576 0.115021 -0.206367 -0.063849 -0.043313 -0.296454 -0.035176 0.171567 -0.187352 0.239213 0.165642 -0.221870 0.123801 0.040709 0.568564 -0.125835 0.356321 -0.123788 -0.051638 -0.372898 -0.248847 0.141666 0.133540 -0.021390 -0.144395 -0.415177 0.036180 -0.115025 0.118945 -0.366693 -0.028998 0.115566 0.114181 0.005907 -0.242871 0.048469 0.335218 0.445322 -0.154998 0.056855 0.174458 0.105793 -0.325680 0.034974 0.090271 0.045699 -0.187395 -0.133444 -0.098990 0.117959 0.046520 -0.061287 0.261718 0.380157 -0.035204 0.031648 -0.118280 -0.030539 0.121469 0.165950 -0.515588 -0.049606 0.003341 0.210908 -0.043802 0.195001 0.206585 -0.050181 0.138483 -0.080840 0.084198 -0.158568 0.146101 -0.006362 0.114064 -0.090013 -0.040090 -0.022636 0.036614 -0.212464 -0.452638 -0.184563 -0.407995 0.026173 0.000301 0.214366 0.216790 -0.204781 -0.128381
174 0.540487 -0.046629 -0.543522 -0.047045 -0.369728 -0.234313 0.126169 -0.454147 0.194837 -0.088949 0.511522 -0.258342 -0.023264 -0.451114 0.214592 -0.003206 -0.136451 0.056066 -0.494485 0.086520 0.043430 0.027742 0.152623 0.314810 -0.036860 0.276481 -0.315055 0.158360 -0.279644 -0.150132 0.275879 -0.138603 0.191748 0.246169 0.004810 0.149898 -0.321959 0.332245 -0.044173 0.407822 0.311554 -0.631489 -0.559769 0.210060 0.236783 -0.308098 0.242887 -0.416939 0.243428 -0.311458 -0.102937 -0.416809 -0.064767 0.049456 0.108960 0.106746 -0.248487 0.315661 0.053600 0.143918 0.234188 0.173507 0.127899 -0.127771 -0.169778 0.190383 -0.002578 0.568772 -0.030383 -0.228273 0.180020 0.252374 0.137793 -0.531060 0.038895 0.408106 0.027611 -0.525114 0.102260 0.154061 0.517583 -0.093544 0.197299 -0.144885 0.032498 -0.153022 -0.079881 0.145450 0.123903 -0.082340 0.375787 0.290306 0.030255 -0.078873 -0.009247 -0.287562 -0.010501 0.250791 0.105840 -0.063836 0.395470 0.513685 0.206351 0.411591 -0.123427 0.094554 0.031546 0.020239 0.505983 0.062114 -0.231049 -0.164334 -0.278779 0.221048 -0.339034 -0.062714 -0.033480 0.209114 -0.131269 -0.219720 -0.002670 -0.154182 -0.238227 -0.050021 0.313226 0.334560 0.037456 -0.039399
256 -0.251448 -0.040354 -0.146346 0.121592 0.052476 0.060422 0.212058 -0.158022 -0.178913 0.054672 0.047386 0.009930 0.084770 0.071948 -0.229814 -0.068063 -0.088703 0.016322 0.020193 0.234392 0.178011 -0.045485 0.400036 0.074580 -0.090250 -0.085599 -0.237975 0.061051 0.177521 -0.166791 0.229183 0.114753 -0.386736 0.093920 0.019860 0.250854 -0.030653 0.202577 -0.410078 0.034378 -0.041778 -0.104908 0.135782 -0.118131 0.221548 -0.220685 0.088563 0.083737 -0.042363 0.114722 -0.376803 0.054012 -0.009460 -0.068291 0.018621 0.391710 -0.145372 0.134387 -0.061606 -0.166177 -0.034484 0.044856 -0.419068 -0.113915 0.326080 0.227958 0.071935 0.537769 -0.280487 0.109463 -0.013304 0.000081 0.029845 -0.088344 0.399858 -0.281631 0.174549 -0.136074 -0.266189 -0.144675 -0.253888 0.040956 0.211398 0.090338 0.046213 0.033483 -0.228063 -0.078505 -0.073152 0.214478 -0.098823 0.425958 -0.122909 -0.371185 -0.251535 0.154972 -0.042948 0.302139 0.194452 -0.516730 -0.161613 0.159487 0.122683 -0.216928 -0.557137 0.094301 -0.091384 0.042560 0.247749 -0.347754 -0.263662 0.211137 0.010792 0.370907 -0.118976 -0.104823 -0.310063 -0.137843 -0.191376 -0.096135 -0.239561 -0.013301 0.196421 -0.262555 -0.063414 -0.015596 0.018493 -0.074986
7 0.301488 0.044414 -0.091614 0.335468 -0.684822 -0.177820 0.740426 -0.628083 0.704785 0.052073 0.326944 -0.242033 0.280275 -0.546236 -0.309400 0.805879 -0.336379 -0.409174 -0.738739 0.516265 -0.128705 0.035970 0.382948 0.198533 -0.645727 0.233478 -0.318910 0.032096 -0.346081 -0.496335 0.050341 -0.172317 0.370027 0.519306 0.031015 0.005052 0.368756 0.493133 -0.011708 0.246284 0.243323 -0.485651 -0.160571 -0.359166 0.065086 0.214246 0.276080 -0.351101 0.281077 -0.623100 0.268428 -0.023753 -0.183227 -0.442401 0.272926 0.019202 0.232915 0.661981 0.215543 0.278316 -0.024852 0.340017 -0.029362 -0.266537 -0.353482 0.131593 -0.047888 0.555714 -0.221598 -0.038699 -0.354484 0.222000 -0.140380 -0.486085 0.181475 -0.336682 0.391501 -0.157962 0.070194 -0.191005 0.330443 0.074704 0.654706 -0.063118 -0.468459 -0.067721 0.117520 -0.076341 0.545151 0.105955 0.215472 0.257446 0.120025 0.108643 0.341625 0.087949 0.204749 0.186669 -0.341265 -0.566465 0.578808 0.107650 0.471483 0.184249 -0.362562 0.002258 0.057757 0.356725 0.643156 0.039515 -0.231275 -0.304149 0.020351 0.678952 -0.360633 -0.023140 -0.138628 0.050181 0.162331 -0.061738 -0.012971 -0.209636 0.087671 -0.155061 0.656198 -0.045768 0.312873 0.543692
116 -0.056399 -0.132043 -0.178140 0.022094 -0.083626 -0.168821 0.141952 -0.460893 0.016063 0.079498 0.345679 -0.024420 -0.330429 -0.344675 -0.077375 -0.151899 0.104632 -0.011825 -0.266377 0.036455 -0.271268 -0.230922 0.296484 0.052189 0.120396 0.423794 -0.197467 0.353234 -0.009068 -0.033071 0.113564 -0.001796 0.282447 0.069995 -0.164131 0.162119 0.063969 0.292731 -0.236845 0.292132 -0.074226 -0.184479 -0.472294 0.046134 -0.169227 -0.044300 0.093982 -0.108142 0.201816 -0.091311 -0.112925 0.021822 0.134970 0.079199 -0.139515 -0.018669 -0.003928 0.011199 -0.135225 0.140880 0.242166 0.360715 -0.016426 -0.197506 -0.132919 0.362446 0.198201 0.210737 -0.180071 -0.121453 -0.068431 0.094340 0.198999 0.083388 0.172979 0.275759 -0.116833 -0.350381 0.213404 -0.262005 0.136487 -0.025534 0.335661 -0.343305 -0.047360 -0.314188 -0.214366 0.273612 0.054060 -0.074557 0.148004 0.475405 0.191786 -0.475596 -0.232584 0.019781 -0.089663 0.318530 0.371089 -0.246881 0.119522 0.480703 -0.280029 0.336959 -0.225354 -0.005031 -0.064648 -0.079003 0.420138 -0.100068 -0.257763 -0.108165 -0.053544 0.216112 -0.348691 -0.391660 -0.173882 0.023033 -0.296302 -0.258734 -0.018706 -0.116978 0.062212 -0.088358 0.227418 0.109230 0.128982 -0.092170
79 0.109743 -0.601558 -0.344990 0.263774 -0.145874 0.319039 0.054476 -0.368742 -0.141823 -0.130407 -0.218643 -0.481145 0.114680 -0.074050 -0.422104 0.244039 0.004367 -0.054962 -0.183741 0.028405 -0.088439 0.064067 0.219973 0.285175 -0.333193 0.093194 0.148562 -0.207780 0.139239 -0.185889 0.472525 -0.106460 -0.369400 0.575440 0.113532 0.243210 -0.008755 0.139520 -0.505319 -0.149637 0.249614 -0.195526 -0.014432 -0.220608 0.055527 0.097039 0.200965 0.169839 0.034032 -0.105630 -0.537796 0.315243 0.212104 -0.032217 -0.018308 0.333575 0.187154 -0.040452 0.244746 -0.027404 -0.230401 0.203475 -0.516753 -0.002473 -0.056228 0.277353 -0.005145 0.466518 -0.088277 -0.081788 -0.321080 0.099922 0.023774 0.020045 0.135773 0.304280 0.446509 -0.284206 -0.145632 -0.292368 -0.560747 -0.104360 0.604133 0.306113 -0.231889 0.299917 -0.385542 -0.048826 0.096314 0.100961 -0.181696 0.565345 -0.057454 -0.220923 -0.087682 0.251465 0.408474 0.452353 -0.366410 -0.445968 0.008047 -0.290378 0.473407 -0.199041 -0.544630 0.140109 0.045703 0.161171 0.426383 -0.384731 -0.138495 0.047885 0.119452 0.522036 -0.152548 -0.052130 -0.304273 -0.086685 -0.419956 -0.000320 -0.253892 0.437171 0.190838 -0.443358 -0.266498 -0.125580 -0.284509 0.635336
175 0.499161 0.039658 -0.240841 0.068537 -0.356718 -0.263145 0.150560 -0.578654 0.166073 -0.090144 0.491489 -0.202752 -0.018090 -0.394841 0.084920 0.037725 0.026348 -0.123015 -0.281915 0.206519 0.054688 -0.043446 0.237166 0.193370 0.168739 0.208976 -0.301426 0.063122 -0.191615 -0.156023 0.002503 -0.013733 0.100872 0.199826 -0.015096 0.303007 -0.198638 0.282421 -0.039329 0.436328 0.130699 -0.504737 -0.374257 0.150932 0.081287 -0.165272 0.148742 -0.300043 0.209853 -0.156925 -0.068582 -0.233322 -0.085513 0.155957 -0.024683 0.073020 -0.104002 0.185568 -0.128608 -0.086932 0.243781 0.191234 0.104662 -0.210923 -0.253689 0.193202 0.011049 0.366857 -0.197476 -0.122184 0.130642 0.163851 0.106284 -0.392636 0.064964 0.372159 0.182897 -0.327865 0.065611 0.108179 0.422518 -0.130564 0.103945 -0.233936 -0.032811 -0.275871 -0.004857 0.063706 0.189842 -0.092424 0.265881 0.369172 0.091999 -0.037830 0.045515 -0.228734 -0.059502 0.233732 0.107310 -0.271686 0.238870 0.405078 0.099852 0.305820 -0.019269 0.105768 0.036635 0.018918 0.353568 0.188560 -0.179335 -0.052420 -0.186308 0.173945 -0.193176 -0.057430 -0.001606 0.076607 -0.168745 -0.333536 0.078014 -0.263278 -0.043907 0.042469 0.417218 0.256575 -0.044485 -0.206484
84 0.120337 -0.337868 -0.388887 0.220050 -0.095718 0.106550 0.116439 -0.257501 -0.189473 -0.195408 -0.134914 -0.191612 0.079204 0.115366 -0.219179 0.098533 -0.091897 -0.065761 -0.173068 0.088208 -0.046897 -0.144858 0.359940 0.119068 -0.288625 0.134680 0.006928 -0.061782 0.089657 0.012554 0.426003 -0.085393 -0.207085 0.314495 0.082704 0.072912 0.023733 0.047905 -0.621327 -0.029600 0.070542 -0.067436 -0.213013 -0.156700 0.040945 0.050802 0.142368 0.108624 0.068966 0.063343 -0.587525 0.177564 0.223076 0.141221 0.202827 0.360203 -0.007469 0.038570 -0.038023 -0.103587 -0.097336 0.057491 -0.538838 0.250822 0.168623 0.461552 0.019284 0.483325 -0.077441 0.122522 -0.073320 -0.192539 -0.025114 -0.074490 0.129970 -0.237384 0.292347 -0.189510 -0.159071 -0.159936 -0.444853 0.031316 0.360705 0.253890 -0.257035 0.015882 -0.308253 0.052014 0.071164 0.058206 -0.146015 0.383666 0.131994 -0.338738 -0.063003 0.441609 0.147260 0.025734 0.114700 -0.385136 -0.237696 -0.186398 0.220316 -0.308888 -0.703115 -0.015829 0.000588 0.031630 0.093948 -0.463980 -0.268893 0.264993 -0.044716 0.521242 -0.238196 -0.222895 -0.348827 -0.041550 -0.345382 -0.149421 -0.366551 0.295233 0.121525 -0.369949 0.093651 -0.195641 -0.162541 0.274036
246 0.117479 -0.102003 -0.208011 0.398958 -0.277457 -0.454119 0.219385 -0.730898 0.213769 -0.212830 0.474808 -0.083203 0.108004 -0.412439 0.187072 0.237899 0.003807 -0.235232 -0.066991 0.165802 -0.066134 -0.121660 0.444966 0.078292 0.359770 0.214708 -0.072432 0.224911 -0.258277 -0.387412 -0.047151 0.074171 0.270557 0.153799 -0.013648 0.404136 0.062696 0.245796 0.072896 0.465527 -0.068695 -0.366016 -0.275378 -0.082187 -0.014215 -0.248504 -0.037126 -0.129726 0.053013 0.003744 -0.151686 -0.092370 -0.326770 0.070393 -0.288384 0.216185 0.101366 -0.061735 -0.254141 -0.059681 0.019730 0.462653 0.102377 -0.174623 -0.440671 0.197090 0.094704 0.482569 -0.279437 -0.192332 0.122149 0.029824 -0.077242 -0.083376 0.077391 0.172071 0.249039 0.107044 0.089265 0.008514 0.249389 -0.109031 0.009275 -0.176039 -0.207724 -0.285995 -0.230449 -0.032245 0.056022 -0.295030 0.293194 0.459067 -0.009657 0.153387 -0.042614 -0.056514 0.078360 0.035199 0.113113 -0.439916 0.347189 0.200818 -0.096498 0.197933 0.112677 0.083884 0.142457 -0.011307 0.158286 0.360993 -0.010417 -0.036434 -0.187696 0.165979 -0.191707 0.021602 -0.104413 0.076027 -0.286409 -0.284400 0.101162 -0.362983 -0.004382 0.072622 0.495992 0.018811 0.113390 -0.364204
54 -0.197919 -0.093792 -0.171790 0.121535 0.038892 0.093726 0.164838 -0.138978 -0.229915 0.070089 0.089002 0.057690 0.082268 0.077963 -0.290820 -0.104126 -0.067647 0.022196 0.032863 0.201777 0.137470 -0.065223 0.388922 0.068091 -0.105628 -0.076532 -0.234848 0.021551 0.188665 -0.165209 0.242590 0.065662 -0.414544 0.122082 -0.024931 0.273195 0.003556 0.153283 -0.363396 0.030384 -0.029534 -0.046012 0.192487 -0.140149 0.166920 -0.181143 0.140906 0.123144 -0.048174 0.150208 -0.350436 0.071604 0.005453 -0.003147 -0.019401 0.392461 -0.154378 0.103298 -0.053183 -0.177837 -0.093217 0.061758 -0.460809 -0.105669 0.286573 0.201031 0.060695 0.478051 -0.281014 0.067836 -0.036177 0.028787 0.004641 -0.065630 0.378967 -0.261405 0.184811 -0.127539 -0.200775 -0.150910 -0.275870 0.010630 0.188349 0.126854 0.068472 0.055109 -0.267264 -0.054810 -0.093048 0.173145 -0.143778 0.407724 -0.050938 -0.387449 -0.280383 0.180891 -0.053604 0.292552 0.165327 -0.517282 -0.238685 0.080139 0.104156 -0.229557 -0.526771 0.121522 -0.118178 0.058348 0.239213 -0.327940 -0.247043 0.257012 0.075644 0.367822 -0.111782 -0.157026 -0.301953 -0.170019 -0.192034 -0.104061 -0.269563 -0.028969 0.177868 -0.293327 -0.131156 -0.018172 0.002216 -0.037665
163 -0.067740 -0.280280 -0.601607 0.183954 -0.453918 -0.361568 0.089644 -0.051422 0.256277 -0.089498 0.286147 0.179086 0.258658 -0.099295 -0.025173 0.119489 -0.069351 0.108424 -0.056026 -0.115858 -0.065220 -0.309494 0.517005 0.164828 0.053428 0.394230 0.148770 0.282731 -0.168144 0.020848 0.284276 -0.195940 0.093418 0.140172 -0.118102 -0.000234 0.312617 -0.375272 -0.268067 0.123405 -0.275840 -0.202540 0.169940 -0.135523 0.160493 -0.228956 0.296610 0.088179 0.200441 0.372365 -0.263375 -0.094527 -0.192601 0.358753 0.254336 0.547336 -0.165823 -0.211074 -0.260526 -0.318755 0.179877 0.236363 -0.222818 0.420659 -0.201486 0.209381 0.165149 0.362903 -0.383663 0.030850 0.276787 -0.224197 -0.037103 -0.041508 0.290935 -0.460151 0.252012 -0.034861 0.217534 -0.140672 -0.098293 -0.135635 -0.067596 0.185209 -0.241656 0.038533 -0.398905 -0.023592 -0.367071 -0.006019 0.189097 0.129915 0.048291 -0.016010 -0.265051 -0.120630 0.011483 0.019282 0.126239 -0.446898 0.237380 0.307067 -0.249807 -0.348377 -0.136080 -0.273976 0.367261 -0.151375 0.001325 -0.119869 -0.066039 0.295201 0.023654 0.041611 -0.350450 -0.364880 -0.261881 0.140006 -0.192752 -0.092988 -0.182328 -0.042302 -0.027604 -0.245077 0.109443 -0.010907 0.018312 -0.448064
68 0.273412 0.044519 -0.017797 0.417464 -0.228701 -0.372630 0.559790 -0.878619 0.176103 -0.145352 0.721743 -0.127340 0.138549 -0.363263 -0.146917 0.210894 0.298294 -0.107988 -0.016812 0.144634 -0.206360 0.015992 0.352414 -0.164756 0.440678 0.077849 -0.251194 -0.002790 -0.221857 -0.240238 -0.138523 -0.066900 0.155538 0.183723 0.087876 0.207978 0.099174 -0.085302 -0.060389 0.305715 -0.019157 -0.320729 -0.017211 -0.142577 -0.260669 0.304636 -0.162948 -0.369335 0.253376 0.157954 -0.340518 0.051228 -0.280242 0.313517 -0.104543 0.413252 -0.075749 -0.113459 -0.298154 -0.125323 0.099512 0.212416 0.068771 -0.027538 -0.317731 0.020717 -0.163637 0.337990 -0.322940 -0.057298 0.039934 0.121839 -0.118414 -0.235548 0.002508 0.095528 0.285304 0.146943 0.168405 0.193955 0.089527 -0.248142 0.063826 0.047035 -0.160678 -0.132353 -0.046889 -0.237586 0.044598 -0.095937 0.142133 0.298796 0.121879 0.050687 0.183269 0.046128 -0.002062 0.122382 0.199254 -0.798609 0.042880 0.192183 0.149392 -0.072609 0.121323 0.092181 0.067711 -0.032524 0.000490 -0.087812 -0.056240 -0.105304 -0.076151 0.111902 -0.058337 0.188559 -0.065307 0.217978 -0.210439 -0.345150 -0.042658 -0.292534 0.008712 0.156361 0.487835 0.263488 -0.125374 -0.255558
33 0.658718 -0.123587 -0.331640 0.568253 -0.216215 -0.071075 0.640334 -0.133694 -0.211865 -0.163607 0.378876 -0.143980 0.355209 0.062711 -0.278701 0.631149 -0.772784 0.295753 -0.119197 0.830863 0.439812 0.273639 0.729693 0.206306 -0.203639 -0.493742 -0.461181 0.203771 -0.027196 -0.741214 0.060984 0.311449 -0.185196 0.161460 -0.305452 0.715092 -0.095368 0.217744 0.263064 0.299202 0.212839 -0.639731 0.262851 0.117032 0.386434 -0.370263 0.113742 -0.242686 -0.439006 -0.324898 -0.206853 -0.457957 -0.431995 -0.333136 -0.227137 0.543525 -0.062483 0.285068 -0.170888 -0.268373 -1.065474 0.186156 -0.840895 -0.194023 0.089264 -0.093033 -0.076135 0.543823 -0.495307 -0.275070 -0.233068 0.119444 -0.246142 -0.190072 0.727549 -0.372437 0.747064 -0.006569 0.066749 -0.013835 -0.000463 -0.030599 0.104304 0.510508 -0.273664 0.394567 -0.100732 -0.249083 -0.034383 -0.064799 0.065741 0.500859 -0.328968 -0.256206 -0.067285 -0.095738 -0.088984 0.270084 -0.348066 -0.676070 -0.167626 0.053573 0.054486 -0.387435 -0.201502 0.431972 -0.608871 0.105768 0.498943 0.349544 0.236469 0.215512 0.313135 0.392824 0.044501 0.165242 -0.493407 -0.108340 -0.288169 -0.074943 -0.191401 -0.383270 0.141599 -0.459893 0.031766 -0.146389 0.074667 0.188383
37 -0.028281 -0.100901 -0.393073 -0.015564 -0.266747 -0.072857 0.117045 -0.184574 0.234590 -0.018403 0.179639 -0.123163 0.043854 -0.133035 0.098111 -0.051259 -0.092245 -0.055754 -0.199894 -0.116730 0.123046 -0.158775 0.310731 0.233482 0.070252 0.355966 -0.193549 0.283747 0.020403 0.027362 0.141017 0.038619 0.024597 0.096429 -0.076260 0.084115 -0.068614 0.187533 -0.411754 0.183621 -0.144280 -0.212242 -0.153726 0.038934 0.194737 -0.026995 0.063832 -0.124093 0.216527 -0.011928 -0.113145 -0.228406 -0.011065 0.003781 0.218866 0.096491 -0.037111 0.012470 -0.149749 -0.077059 0.321734 0.074589 0.071217 -0.036722 0.121534 0.348559 0.061724 0.493935 -0.242412 0.048507 0.183530 0.037026 0.078420 -0.284977 0.109181 -0.103628 0.031731 -0.305753 -0.177757 -0.061635 0.163564 0.035705 0.108088 -0.263702 -0.150889 -0.211612 -0.165492 0.008855 0.075790 0.171544 0.227937 0.297557 -0.163712 -0.146204 -0.062043 -0.131431 0.064888 0.189260 0.198012 -0.338922 0.220549 0.532702 -0.056882 0.022314 -0.405637 0.060985 0.265609 -0.086094 0.286346 -0.185303 -0.255637 0.102037 -0.203763 0.203959 -0.286546 -0.117757 -0.167644 0.087133 -0.104424 -0.203886 -0.019463 0.042136 0.094336 -0.086978 0.292617 0.029262 0.131500 -0.379259
236 0.432526 0.158437 -0.326331 -0.068832 -0.283687 -0.154441 0.095663 -0.357626 0.140157 -0.122475 0.170877 0.079899 0.237179 0.247693 -0.282039 0.056447 -0.083984 -0.056656 -0.109032 0.302030 0.026782 -0.290247 0.125428 0.132989 -0.104785 0.281986 0.029144 -0.110825 0.057059 0.061738 0.225576 -0.008889 -0.320501 0.190118 0.085054 0.011902 0.113711 -0.038939 -0.273199 0.029265 -0.003859 -0.103295 0.097695 -0.348221 -0.071998 0.148610 0.183518 -0.021747 0.309485 0.236512 -0.372425 0.279700 0.042443 0.437428 0.446363 0.253664 0.044084 -0.006187 -0.308042 -0.328505 0.151541 -0.074381 -0.294755 0.081583 -0.111391 0.428009 -0.258051 0.349851 -0.603183 0.143884 0.060229 -0.149490 -0.177072 -0.301467 0.113683 -0.478206 0.400304 -0.117902 -0.207567 0.088136 -0.182443 -0.160444 0.033419 0.074217 -0.385056 0.002370 -0.134230 -0.124652 0.308864 0.207847 0.015681 -0.007948 0.228431 0.049369 -0.135852 -0.000023 0.114592 -0.068675 0.272693 -0.554925 0.005380 0.010709 0.128666 -0.383157 -0.551823 -0.034167 0.140012 0.174504 -0.095089 -0.283654 -0.071896 0.466226 -0.073495 0.414172 -0.138222 -0.298154 -0.221931 0.098690 -0.057591 -0.277668 -0.248704 -0.150322 0.134721 -0.227023 0.136079 -0.080643 0.014975 -0.258076
212 0.232859 -0.034494 0.087393 0.280990 0.085653 -0.110883 0.518766 -0.634650 -0.112012 -0.093961 0.395499 -0.063258 0.077000 -0.070118 -0.219748 0.091245 0.171323 -0.086676 0.133619 0.101491 -0.074962 0.007332 0.211976 -0.286123 0.232936 -0.100479 -0.305699 -0.272165 0.013372 -0.173675 0.019853 -0.029391 -0.175580 0.211038 0.139447 0.402205 0.045320 0.049651 -0.212383 0.311840 -0.027067 -0.157877 0.012183 -0.217450 -0.345556 0.126148 -0.254012 -0.183713 0.160707 0.266268 -0.496898 0.044414 -0.272687 0.344631 -0.120741 0.458158 -0.240171 -0.119867 -0.295909 -0.131116 -0.096270 0.015506 -0.134992 -0.194500 -0.023740 0.191154 -0.164743 0.433131 -0.152782 0.104265 0.079900 0.012236 -0.045375 -0.263918 0.012335 0.089415 0.288834 0.178877 -0.152145 0.187726 -0.095453 -0.206987 0.102084 0.135983 0.064935 -0.154788 -0.110257 -0.133834 -0.038543 -0.005102 -0.064156 0.301861 0.187642 -0.185434 0.104552 0.167928 0.094852 0.077039 0.304099 -0.578785 -0.145405 -0.045156 0.292532 -0.180754 -0.148692 0.235715 -0.199448 0.079814 -0.090897 -0.274623 -0.195432 0.115924 -0.120867 0.292433 0.026807 0.247238 -0.139260 0.008538 -0.193825 -0.367388 -0.291723 -0.260059 -0.049739 0.050970 0.196546 0.193353 -0.189284 0.101461
147 0.567706 -0.017318 0.012112 0.393882 -0.215311 -0.440440 0.438872 -0.849439 -0.060189 -0.182247 0.709455 -0.244908 0.012969 -0.533288 -0.476089 0.231259 0.378236 0.110979 -0.155112 0.374517 -0.240591 0.087523 0.367590 -0.232237 0.419705 -0.059837 -0.394362 -0.136776 -0.291740 -0.150288 -0.214703 -0.142261 0.026764 0.246727 0.029303 0.300634 0.082856 -0.292183 0.000496 0.375143 0.181564 -0.483999 -0.038615 0.014375 -0.118438 0.225661 0.166149 -0.434323 0.140454 0.082774 -0.224860 0.114715 0.059118 0.459424 -0.145818 0.502899 -0.358112 -0.003212 -0.319221 -0.201745 0.131865 0.226177 0.020437 -0.106500 -0.492636 -0.332150 -0.158381 0.177410 -0.372020 -0.155080 0.089748 0.297741 -0.013061 -0.219934 0.067419 0.357189 0.413551 -0.177706 0.280780 0.298418 0.121295 -0.403951 0.194759 0.177235 0.101530 -0.061234 0.088450 -0.168984 0.089004 0.073391 0.019359 0.443844 0.098965 -0.089513 0.226559 -0.097828 -0.221585 0.304232 0.064197 -0.789725 -0.016492 0.241952 0.406515 -0.018202 0.329624 0.226592 -0.065480 0.091373 0.148015 -0.043949 -0.144777 -0.241304 0.017692 -0.064888 -0.037240 0.207248 0.012743 0.130740 -0.356099 -0.349567 -0.112719 -0.351063 -0.063862 0.110235 0.311195 0.397739 -0.280794 -0.052156
96 -0.177299 -0.103981 -0.479525 0.057511 -0.239275 -0.388811 0.152276 0.044532 0.307465 -0.091565 0.035040 0.004555 0.202268 -0.065254 -0.005206 0.212962 -0.251701 0.220223 -0.139179 0.090894 0.126096 -0.193941 0.507465 0.183028 -0.078015 0.289420 0.079151 0.299871 -0.042413 0.048783 0.240976 0.017223 -0.041147 0.035153 -0.050359 -0.013919 0.202000 -0.170491 -0.460164 0.120040 -0.256519 -0.310425 0.115484 -0.204240 0.408278 -0.368246 0.233488 0.011861 -0.008604 0.253213 -0.250737 -0.111553 -0.052759 0.096720 0.408784 0.457938 -0.245250 -0.104666 -0.209481 -0.287789 0.187432 0.057686 -0.186162 0.179580 0.012062 0.202562 0.155506 0.533647 -0.445824 0.134048 0.346380 -0.163983 -0.051306 -0.044752 0.368246 -0.604784 0.184254 -0.125284 -0.193930 -0.123012 -0.129224 -0.030657 0.135005 0.129942 -0.195383 0.087032 -0.188474 -0.050385 -0.237649 0.302351 0.206332 0.168466 -0.305986 -0.077397 -0.270225 -0.164471 0.034134 0.101064 0.100105 -0.395942 0.399477 0.451480 -0.084604 -0.328484 -0.386474 -0.152669 0.234546 -0.012857 0.130529 -0.304724 -0.112342 0.139858 -0.031988 0.124568 -0.313344 -0.088462 -0.326095 0.079277 -0.121593 0.019565 -0.158651 0.055227 -0.004552 -0.222282 0.023073 -0.054335 0.103958 -0.377515
86 0.215841 -0.361753 -0.344159 0.253653 -0.160973 0.183867 0.085023 -0.291813 -0.185633 -0.214907 -0.138588 -0.206073 0.079218 0.167850 -0.218957 0.112024 -0.018342 -0.086160 -0.120394 0.081522 -0.006317 -0.169550 0.262007 0.156676 -0.237499 0.109670 0.024009 -0.039457 0.115098 -0.084688 0.391920 -0.063420 -0.221371 0.378281 0.093681 0.059817 -0.038703 0.044141 -0.483865 -0.056129 0.130950 -0.075509 -0.196595 -0.108487 -0.020055 0.067115 0.109437 0.098367 0.104360 -0.009574 -0.604572 0.182803 0.175759 0.141966 0.091125 0.317341 0.090880 0.039318 -0.061237 -0.126174 -0.145087 0.085568 -0.496522 0.199301 0.124417 0.402056 -0.050931 0.402928 -0.060187 0.065817 -0.151563 -0.194745 -0.042025 -0.072654 0.071548 -0.122803 0.345497 -0.144811 -0.173416 -0.146882 -0.419153 0.039088 0.302081 0.256805 -0.252227 0.038697 -0.309485 0.001056 0.119088 -0.052128 -0.117643 0.349984 0.133497 -0.278040 -0.035356 0.392640 0.193521 -0.003820 0.097799 -0.322926 -0.278581 -0.298506 0.249055 -0.266841 -0.641202 0.036881 -0.023604 0.067336 0.072475 -0.303740 -0.239677 0.280779 -0.064273 0.473115 -0.248168 -0.228728 -0.316711 -0.062299 -0.365640 -0.222651 -0.305053 0.248545 0.147690 -0.398443 0.046155 -0.184803 -0.171716 0.299404
233 1.132165 0.094101 -0.633193 0.493995 -0.243041 -0.943929 0.271779 -0.853248 0.302792 -0.307832 0.716720 -0.093781 1.145227 -0.533512 -0.719215 0.947167 -0.903713 0.400605 -1.100264 0.659457 0.066273 0.032128 0.765384 0.265469 -0.310974 -0.025122 0.277659 -0.135767 -0.587695 -0.755499 0.143947 -0.090598 0.153167 0.720738 -0.385748 0.515660 0.322029 -0.026900 0.258204 0.073086 0.398248 -0.654463 0.014417 -0.189068 -0.016108 -0.235145 0.991308 -0.111661 -0.062949 -0.219239 0.090420 -0.043046 0.256720 0.287394 0.304047 0.419280 0.281268 0.136650 -0.050064 0.037897 -0.323765 0.700309 -0.553984 -0.176099 -1.398224 -0.149462 0.105865 0.104713 -0.278728 -0.650934 -0.212424 0.134845 -0.461717 -0.043724 0.209400 -0.374714 0.480947 -0.144354 0.356798 0.007270 -0.126322 -0.293823 0.637491 0.628681 -0.874525 0.403940 -0.405603 0.227636 0.277803 -0.164535 0.240565 0.412847 -0.180925 0.677033 -0.003087 -0.241556 0.003306 0.219718 -0.596939 -0.887999 0.738235 -0.252915 -0.065799 -0.168501 0.349981 0.223464 0.447614 0.417192 0.179730 0.024547 0.353996 -0.192877 0.827292 0.634871 -0.484383 -0.026732 -0.231313 0.151870 -0.485038 0.077331 0.143541 -0.226051 -0.456690 -0.372670 0.126284 0.303958 0.018061 0.155675
243 0.578057 -0.183271 -0.629756 0.435227 -0.462457 -0.438929 0.654723 -0.938779 0.160955 -0.106299 0.675051 -0.171364 0.354926 -0.408398 -0.468418 0.336977 -0.207195 0.101111 -0.564611 0.544721 -0.105239 -0.125783 0.804317 0.151971 -0.179174 0.200489 -0.336212 0.112565 -0.273645 -0.431549 0.456485 -0.122644 -0.044820 0.506617 -0.055238 0.466389 0.162782 0.212327 -0.395316 0.412430 0.186708 -0.614841 -0.198253 -0.218495 0.072837 -0.366663 0.446060 -0.215000 0.211188 0.020768 -0.607543 -0.039413 -0.037422 0.260321 0.108669 0.730352 -0.191328 0.272262 -0.173915 -0.123465 -0.080827 0.439823 -0.544617 -0.085578 -0.329749 0.346754 0.076001 0.917864 -0.490893 -0.165244 0.010236 0.073833 -0.050472 -0.321132 0.521667 -0.148666 0.578485 -0.378928 0.080625 -0.080802 -0.011268 -0.210518 0.552310 0.364393 -0.253227 -0.009062 -0.454690 0.035501 0.045540 0.006226 0.150494 0.740424 0.180483 -0.313569 -0.168369 0.019686 -0.013810 0.381277 0.140133 -1.004184 0.238669 0.270462 0.204080 -0.145207 -0.481855 0.108791 -0.028556 0.186762 0.566116 -0.287709 -0.341359 0.078993 0.098871 0.705515 -0.526998 -0.271787 -0.455516 0.057352 -0.537011 -0.374438 -0.400210 -0.302486 0.019061 -0.452495 0.324140 0.168297 -0.026378 0.031071
223 0.537156 -0.190106 -0.605734 0.427693 -0.439145 -0.413270 0.636962 -0.882929 0.153457 -0.099496 0.633921 -0.172531 0.323997 -0.395252 -0.454032 0.332760 -0.206220 0.105435 -0.547503 0.508776 -0.108582 -0.112749 0.783925 0.145793 -0.174107 0.194813 -0.328167 0.123920 -0.254792 -0.416637 0.456154 -0.114106 -0.041361 0.479452 -0.057204 0.436500 0.165753 0.219400 -0.405475 0.399986 0.181423 -0.595879 -0.200857 -0.203231 0.084679 -0.360803 0.432134 -0.202554 0.178510 0.015103 -0.597876 -0.052656 -0.029281 0.233698 0.112603 0.710963 -0.188049 0.252958 -0.156129 -0.101483 -0.096493 0.419034 -0.525327 -0.086122 -0.295898 0.335454 0.079557 0.887607 -0.455871 -0.152297 0.009082 0.071666 -0.035831 -0.291107 0.504707 -0.142429 0.556320 -0.372945 0.079767 -0.086669 -0.039335 -0.187781 0.558476 0.346387 -0.250699 -0.015086 -0.440529 0.041223 0.022623 0.015812 0.141181 0.738725 0.150739 -0.324194 -0.174829 0.036134 -0.016313 0.380319 0.107532 -0.946983 0.231081 0.273797 0.185144 -0.125046 -0.482356 0.099456 -0.047475 0.173738 0.556616 -0.302719 -0.335228 0.051320 0.097365 0.688973 -0.506530 -0.254428 -0.451430 0.044016 -0.521813 -0.337886 -0.379897 -0.274207 0.018829 -0.454322 0.306443 0.155303 -0.025506 0.060927
221 0.547089 -0.201290 -0.614856 0.428752 -0.442600 -0.424377 0.652418 -0.897651 0.158533 -0.101538 0.642544 -0.185543 0.329069 -0.407972 -0.462776 0.340666 -0.209638 0.105195 -0.563498 0.510782 -0.116616 -0.118329 0.798770 0.147260 -0.179626 0.197809 -0.328915 0.125885 -0.265629 -0.423184 0.464822 -0.114173 -0.038683 0.490201 -0.053682 0.447719 0.167919 0.227508 -0.419189 0.404678 0.185563 -0.610778 -0.211112 -0.205899 0.083084 -0.364122 0.439918 -0.210170 0.181120 0.012095 -0.615997 -0.056630 -0.029025 0.238378 0.114664 0.716992 -0.191354 0.257919 -0.161420 -0.103627 -0.096985 0.426373 -0.532922 -0.091297 -0.306736 0.337909 0.082955 0.912711 -0.460604 -0.154391 0.012033 0.079178 -0.030933 -0.298157 0.510751 -0.138377 0.563163 -0.385681 0.078469 -0.086271 -0.035881 -0.194797 0.566015 0.353635 -0.250890 -0.017665 -0.449516 0.048193 0.015656 0.015465 0.142572 0.750926 0.157246 -0.333108 -0.177205 0.039466 -0.014487 0.389979 0.112274 -0.960312 0.234847 0.283905 0.197625 -0.126835 -0.490832 0.103529 -0.045537 0.181181 0.574116 -0.309166 -0.341537 0.058204 0.096794 0.697544 -0.524392 -0.255320 -0.461312 0.046241 -0.531741 -0.347919 -0.389350 -0.278606 0.014447 -0.456863 0.311844 0.158176 -0.029328 0.064114
122 0.392419 -0.000962 -0.456086 0.837391 -0.261681 -0.710073 0.548143 -0.824588 0.526424 -0.037020 0.667973 -0.197266 0.653751 -0.493457 -0.551693 0.771880 -0.180103 0.402738 -0.735614 0.653991 -0.819706 0.636327 0.599272 -0.220435 -0.464183 -0.367709 0.130107 0.050015 -0.860308 -0.447639 0.171468 -0.521353 0.235745 0.109153 -0.127762 0.116104 0.715874 0.237371 -0.117783 -0.145257 0.553321 -0.210752 0.006567 0.259367 0.241529 -0.840309 0.582635 -0.564269 -0.085315 -0.243053 -0.619353 0.230756 0.262983 0.178889 0.486600 0.496280 -0.027640 0.339675 0.612469 0.194534 -0.432406 0.486740 -0.404393 0.229474 -0.552433 -0.393659 0.281696 0.485336 -0.310163 -0.305344 -0.268849 0.349400 -0.099173 0.276559 0.616071 0.449103 0.611749 -0.558917 0.447654 -0.067473 -0.263954 -0.158789 0.682293 0.921713 -0.083865 0.673067 -0.661441 -0.041879 -0.410558 -0.206200 -0.103693 0.614535 0.022135 0.031413 -0.244731 -0.185259 0.168377 0.490352 -0.618470 -1.008285 0.188111 -0.032479 0.117262 -0.099797 0.440973 -0.346541 0.207555 0.031049 0.645175 -0.318403 0.167553 -0.599936 0.577732 0.381715 -0.122830 -0.027834 -0.413437 0.271368 -0.875830 0.303554 -0.245306 0.395909 0.187011 -0.382364 -0.008053 -0.119068 -0.232454 0.138207
108 0.564970 -0.176435 -0.590619 0.403172 -0.435291 -0.394733 0.608252 -0.852284 0.131291 -0.108540 0.618313 -0.186429 0.327158 -0.361420 -0.447358 0.337294 -0.218110 0.105651 -0.554675 0.538878 -0.094141 -0.098553 0.756051 0.167253 -0.185182 0.166332 -0.313619 0.096434 -0.234736 -0.405288 0.429912 -0.109222 -0.047977 0.476576 -0.061337 0.438208 0.140798 0.224436 -0.356858 0.398650 0.202218 -0.601109 -0.214658 -0.194953 0.066355 -0.344082 0.424806 -0.183634 0.157069 -0.017172 -0.549696 -0.046795 -0.027504 0.211444 0.093666 0.677957 -0.157927 0.268143 -0.144660 -0.119862 -0.121620 0.416500 -0.518881 -0.095824 -0.318177 0.320970 0.071830 0.851646 -0.461625 -0.177828 0.006540 0.090609 -0.052057 -0.289187 0.510947 -0.143278 0.551418 -0.347013 0.058753 -0.076728 -0.024566 -0.197347 0.530362 0.354567 -0.263527 0.007399 -0.428698 0.042682 0.046715 0.016071 0.134725 0.703660 0.154942 -0.303413 -0.184150 0.015470 0.014117 0.357298 0.098701 -0.897369 0.241217 0.251681 0.192110 -0.122630 -0.472451 0.110950 -0.068149 0.186991 0.544844 -0.257899 -0.301604 0.045946 0.127744 0.669047 -0.482819 -0.237746 -0.434178 0.055019 -0.510089 -0.318342 -0.369148 -0.284097 0.011606 -0.438760 0.279022 0.133415 -0.013353 0.064813
220 0.884660 -0.671344 -0.594512 0.327582 0.009051 -0.544676 0.521817 -0.426040 -0.131414 -0.014549 0.280479 -0.865282 0.518874 -0.579544 -0.686257 0.698665 -0.183832 0.496938 -0.876757 0.778248 -0.256551 0.159324 0.806034 0.320588 -0.438955 -0.057101 -0.117369 -0.165518 -0.341443 -0.523356 0.522579 -0.056684 0.307795 0.629517 -0.080475 0.733944 0.024813 -0.030953 0.047181 0.317449 0.612806 -0.664496 -0.335639 0.157590 0.399764 -0.735751 0.691459 0.074904 -0.801903 -0.082090 -0.465378 -0.390380 0.492916 -0.367455 -0.547829 0.735535 0.059901 -0.015388 0.386918 0.362422 -0.879467 0.588172 -0.815450 -0.106995 -0.813496 -0.203569 0.202008 0.354851 0.280309 -0.725070 -0.216814 0.338815 0.139119 0.241345 0.354530 0.414536 0.359189 -0.398825 0.302337 -0.108159 -0.264686 0.032974 0.658960 0.932521 -0.303978 0.169300 -0.521189 0.257961 0.052145 -0.069251 0.142982 0.974362 0.095818 -0.473419 0.091272 -0.108770 -0.228295 0.278852 -0.514711 -0.106489 0.503566 0.093499 -0.169494 0.196519 0.167252 0.224041 -0.143755 0.296849 0.781565 0.005453 0.162829 -0.612462 0.622076 0.321169 -0.438269 -0.034155 -0.522076 -0.367191 -0.841488 0.146538 -0.086306 -0.375855 0.027495 -0.475153 -0.274627 -0.193199 -0.243522 0.496044
39 0.539117 -0.157386 -0.572107 0.387842 -0.404653 -0.383738 0.592082 -0.795621 0.154618 -0.102691 0.568693 -0.177371 0.346709 -0.331428 -0.404997 0.335250 -0.230803 0.088372 -0.504498 0.514459 -0.074423 -0.080033 0.726476 0.175175 -0.192457 0.155030 -0.281934 0.081188 -0.239573 -0.383820 0.411328 -0.086607 -0.022528 0.449085 -0.068901 0.413304 0.118662 0.201385 -0.340871 0.372420 0.197918 -0.566624 -0.174262 -0.187280 0.106297 -0.315499 0.429383 -0.188726 0.124949 -0.027881 -0.510680 -0.057380 -0.049784 0.184014 0.079671 0.620298 -0.137955 0.252082 -0.116886 -0.078978 -0.121290 0.393677 -0.492096 -0.095981 -0.303583 0.288635 0.032368 0.791734 -0.422998 -0.173492 -0.027615 0.063770 -0.057515 -0.275991 0.433117 -0.120218 0.521718 -0.339176 0.087210 -0.080156 0.000062 -0.165077 0.511929 0.315396 -0.248564 0.002386 -0.362590 0.024043 0.072485 -0.008638 0.137546 0.649218 0.115830 -0.227375 -0.113623 -0.008308 -0.004550 0.361122 0.044861 -0.864931 0.211977 0.257895 0.196197 -0.095777 -0.396116 0.119379 -0.055449 0.183223 0.539088 -0.209205 -0.265515 0.064901 0.092430 0.617061 -0.432151 -0.211349 -0.402035 0.060353 -0.464505 -0.304324 -0.342326 -0.258728 0.028533 -0.396152 0.272379 0.119247 -0.025786 0.055221
97 -0.203109 -0.086283 -0.419553 0.072063 -0.117744 -0.366054 0.159627 0.005511 0.199162 -0.022630 0.083966 0.046290 0.154639 -0.081615 -0.043692 0.098455 -0.205625 0.252098 -0.104880 0.076084 0.121541 -0.159737 0.498733 0.115444 -0.020377 0.195873 -0.014180 0.256390 -0.014318 0.057003 0.221206 0.017409 -0.068414 0.020577 -0.065655 0.077828 0.155618 -0.122832 -0.420899 0.147833 -0.266890 -0.248578 0.086334 -0.146678 0.319743 -0.419845 0.199344 0.038053 -0.008944 0.240082 -0.276419 -0.115511 -0.019184 0.146845 0.308529 0.423357 -0.301902 -0.073326 -0.209263 -0.254150 0.225397 0.090868 -0.126738 0.090556 0.060608 0.169183 0.209071 0.462848 -0.346305 0.149315 0.347559 -0.178934 0.014268 -0.050730 0.393948 -0.454553 0.145033 -0.146338 -0.171296 -0.114234 -0.106690 -0.043488 0.128108 0.130850 -0.033966 0.037909 -0.245853 -0.008776 -0.257998 0.266203 0.199832 0.203710 -0.248526 -0.128238 -0.262358 -0.153784 -0.041906 0.152284 0.183164 -0.362339 0.319548 0.459684 -0.075922 -0.259652 -0.305297 -0.105381 0.176540 -0.036201 0.180985 -0.268839 -0.153652 0.130961 -0.064975 0.109933 -0.304213 -0.059901 -0.289300 0.052274 -0.207559 -0.009949 -0.193715 0.031955 -0.064775 -0.175972 0.007614 0.054867 0.050593 -0.334989
124 0.382341 0.017009 -0.453876 0.837066 -0.263958 -0.710467 0.541244 -0.828828 0.533623 -0.042454 0.671602 -0.193723 0.651814 -0.493935 -0.537102 0.771528 -0.180031 0.395903 -0.730848 0.649151 -0.817526 0.639665 0.590334 -0.225346 -0.454845 -0.368020 0.137005 0.060086 -0.866359 -0.446732 0.160500 -0.525978 0.234726 0.099685 -0.131163 0.105777 0.713648 0.249825 -0.114275 -0.155697 0.549789 -0.210198 0.009529 0.257758 0.242757 -0.838254 0.576667 -0.570154 -0.075902 -0.255767 -0.610524 0.233646 0.252617 0.174836 0.497213 0.481347 -0.028111 0.340150 0.613786 0.194734 -0.419094 0.486087 -0.386495 0.232700 -0.547239 -0.399932 0.285966 0.488522 -0.311438 -0.299753 -0.261165 0.345695 -0.105162 0.276089 0.608026 0.452993 0.603587 -0.559159 0.441904 -0.071679 -0.265526 -0.158876 0.680708 0.908511 -0.075755 0.676347 -0.655989 -0.036824 -0.404170 -0.209689 -0.107859 0.607458 0.013373 0.045465 -0.251917 -0.191018 0.167042 0.489513 -0.614950 -1.012054 0.186935 -0.037984 0.116073 -0.086939 0.442229 -0.351197 0.213408 0.029394 0.640353 -0.318159 0.170348 -0.598990 0.564741 0.379709 -0.122197 -0.027776 -0.407992 0.271858 -0.872974 0.303527 -0.233294 0.406386 0.185829 -0.372221 0.002982 -0.118634 -0.233505 0.129643
102 0.890630 -0.675241 -0.611654 0.330708 0.013929 -0.552543 0.539990 -0.446237 -0.123586 -0.006592 0.300290 -0.870053 0.528173 -0.592920 -0.690751 0.705222 -0.178490 0.507262 -0.898433 0.790615 -0.280588 0.175254 0.820398 0.315660 -0.445891 -0.062264 -0.132710 -0.168887 -0.360562 -0.528079 0.543335 -0.070869 0.313857 0.626499 -0.073377 0.742855 0.033702 -0.020058 0.046132 0.325012 0.630500 -0.676561 -0.353908 0.171870 0.399595 -0.768317 0.702074 0.065962 -0.807343 -0.083475 -0.484150 -0.391580 0.487943 -0.365207 -0.550827 0.752927 0.041768 -0.001252 0.396613 0.374473 -0.887648 0.586302 -0.825185 -0.100188 -0.818343 -0.207821 0.207354 0.364073 0.282756 -0.721924 -0.214313 0.348030 0.149332 0.240739 0.366521 0.424577 0.371065 -0.412922 0.316376 -0.100457 -0.262297 0.021528 0.673102 0.959090 -0.283588 0.170199 -0.534836 0.270627 0.044077 -0.064805 0.136639 0.985799 0.114457 -0.489645 0.081545 -0.113031 -0.228988 0.292761 -0.519044 -0.114734 0.509390 0.095618 -0.168289 0.212369 0.167019 0.216939 -0.152370 0.295583 0.797343 -0.013831 0.146668 -0.628433 0.622529 0.339232 -0.448687 -0.045825 -0.533526 -0.369633 -0.857381 0.144568 -0.107471 -0.384140 0.030964 -0.474218 -0.269758 -0.188846 -0.248101 0.498607
73 0.537717 -0.156642 -0.561784 0.390521 -0.403638 -0.381904 0.587657 -0.796702 0.156823 -0.105014 0.573653 -0.177006 0.340810 -0.334407 -0.410015 0.337084 -0.224463 0.085758 -0.500480 0.508370 -0.075880 -0.081428 0.721920 0.169451 -0.184332 0.156245 -0.283586 0.083677 -0.243054 -0.383772 0.407312 -0.086325 -0.027232 0.450533 -0.062520 0.406499 0.120570 0.194068 -0.336225 0.368481 0.202217 -0.569906 -0.166268 -0.187373 0.099334 -0.312809 0.425591 -0.190301 0.130683 -0.032844 -0.508682 -0.063363 -0.045230 0.188340 0.079505 0.623440 -0.140216 0.255499 -0.115467 -0.080904 -0.115833 0.396525 -0.482744 -0.095561 -0.305207 0.288944 0.033554 0.785215 -0.420087 -0.174536 -0.020836 0.070576 -0.057268 -0.276180 0.429475 -0.117613 0.517306 -0.337879 0.086209 -0.073425 0.005199 -0.168996 0.506750 0.313300 -0.241185 -0.002547 -0.362915 0.023247 0.068764 -0.005578 0.135796 0.649474 0.120137 -0.224427 -0.110724 -0.009781 -0.007334 0.358223 0.046480 -0.867643 0.208871 0.255710 0.197850 -0.100401 -0.388048 0.114418 -0.048616 0.182180 0.531197 -0.212562 -0.267224 0.061162 0.087958 0.615017 -0.430127 -0.210816 -0.402410 0.061278 -0.457564 -0.303654 -0.335190 -0.263505 0.025691 -0.397549 0.280211 0.127760 -0.031648 0.056318
29 1.169896 0.069341 -0.665185 0.491197 -0.256628 -0.935608 0.260308 -0.850337 0.294966 -0.307723 0.713264 -0.128513 1.141301 -0.544366 -0.713943 0.940553 -0.904370 0.413385 -1.128342 0.675911 0.061324 0.044084 0.772348 0.297705 -0.324798 -0.029448 0.272525 -0.131447 -0.599962 -0.758411 0.169133 -0.100488 0.155031 0.731231 -0.380052 0.528141 0.305627 -0.003091 0.272664 0.083025 0.432792 -0.686505 -0.027259 -0.149710 0.008918 -0.283170 1.011096 -0.115449 -0.081892 -0.246555 0.069989 -0.064852 0.265858 0.269693 0.296349 0.418466 0.285057 0.163319 -0.022613 0.058098 -0.354006 0.706060 -0.561750 -0.173267 -1.400943 -0.156080 0.110787 0.108783 -0.254636 -0.667211 -0.216798 0.150635 -0.446902 -0.058459 0.214875 -0.321055 0.489198 -0.189511 0.376376 0.006203 -0.118800 -0.297417 0.631094 0.636396 -0.857299 0.401667 -0.419204 0.234156 0.276534 -0.172112 0.256003 0.433165 -0.176627 0.664743 -0.007354 -0.259418 0.005132 0.236938 -0.607935 -0.852267 0.747039 -0.243597 -0.066667 -0.140387 0.355895 0.219510 0.436769 0.412001 0.217215 0.038490 0.363151 -0.202542 0.816975 0.635703 -0.494270 -0.040399 -0.240898 0.140534 -0.508277 0.079708 0.147958 -0.228595 -0.447622 -0.394441 0.111750 0.294265 0.006503 0.174456
224 0.580543 -0.187072 -0.631651 0.446233 -0.466835 -0.441953 0.669602 -0.953536 0.160210 -0.105157 0.687558 -0.177362 0.352527 -0.420318 -0.469148 0.343648 -0.197579 0.106623 -0.569015 0.541700 -0.110493 -0.125881 0.823928 0.149198 -0.174117 0.209449 -0.349857 0.114528 -0.275787 -0.433676 0.466441 -0.116895 -0.039169 0.510233 -0.053658 0.470870 0.169299 0.214827 -0.408831 0.419433 0.184992 -0.623930 -0.202849 -0.215127 0.072152 -0.366395 0.446574 -0.222361 0.214166 0.022807 -0.618181 -0.048099 -0.043099 0.263562 0.103928 0.742085 -0.195291 0.273326 -0.172715 -0.129064 -0.083683 0.451953 -0.545620 -0.091401 -0.325373 0.344887 0.084022 0.929907 -0.498431 -0.167883 0.019634 0.072519 -0.048677 -0.325458 0.523210 -0.147200 0.581799 -0.387950 0.082405 -0.084346 -0.008855 -0.218101 0.563654 0.362071 -0.248952 -0.016962 -0.459277 0.034291 0.036055 0.001845 0.154037 0.761106 0.171993 -0.322776 -0.166259 0.026222 -0.014524 0.389643 0.143981 -1.014027 0.240801 0.279444 0.201797 -0.141040 -0.488681 0.110590 -0.027474 0.188942 0.579277 -0.294444 -0.356092 0.073561 0.096599 0.709464 -0.541743 -0.273240 -0.456493 0.055148 -0.546580 -0.374148 -0.402372 -0.303609 0.023413 -0.453302 0.329729 0.170959 -0.030809 0.027801
173 0.568615 -0.171058 -0.579995 0.396780 -0.431024 -0.396844 0.600679 -0.850001 0.130860 -0.109725 0.616742 -0.187162 0.328524 -0.362058 -0.448443 0.335630 -0.208328 0.097372 -0.551012 0.534254 -0.089275 -0.095445 0.741977 0.161867 -0.178499 0.159019 -0.314556 0.095010 -0.236878 -0.404707 0.417678 -0.111216 -0.045021 0.469084 -0.062682 0.440944 0.132226 0.224614 -0.346444 0.398586 0.209344 -0.597040 -0.211825 -0.191412 0.059684 -0.333035 0.421100 -0.186971 0.162861 -0.020920 -0.543527 -0.044348 -0.022816 0.214795 0.092098 0.669129 -0.152492 0.266546 -0.141130 -0.118204 -0.123518 0.406592 -0.508089 -0.100750 -0.323953 0.315391 0.068835 0.843311 -0.460840 -0.173978 0.001996 0.090672 -0.051561 -0.289808 0.501105 -0.137553 0.551646 -0.340560 0.064221 -0.074468 -0.014554 -0.202754 0.518530 0.349256 -0.261036 0.009772 -0.418309 0.037208 0.046599 0.011323 0.134957 0.701578 0.152906 -0.295513 -0.176272 0.012001 0.013825 0.348450 0.096942 -0.892591 0.238176 0.249911 0.194370 -0.117371 -0.459597 0.108886 -0.068183 0.185914 0.536840 -0.248877 -0.296699 0.040569 0.123956 0.660710 -0.473923 -0.235447 -0.426043 0.057505 -0.508949 -0.326806 -0.365004 -0.284542 0.009885 -0.428052 0.282922 0.137425 -0.018592 0.066130
